77 128
11 0.015441454 -0.12545964 0.11819953 -0.084492564 -0.079827905 -0.16094454 -0.050141647 -0.29036468 -0.022066683 0.18129723 0.123733595 0.030723771 -0.026904935 0.014252897 0.058877062 0.20192099 -0.011486669 -0.00025005743 -0.10989129 0.00076415995 0.02975034 0.024310825 -0.124721915 -0.029132932 -0.14297643 -0.072430745 0.023428774 0.075255506 0.034788348 0.0158086 0.20176311 -0.06535775 -0.15789801 0.10204807 -0.08164876 -0.04330714 0.05955037 0.1298926 0.08674645 -0.014938942 0.01926304 -0.03436458 0.06977031 0.014806059 0.017802346 0.01973984 -0.06171003 0.047453646 0.047881596 0.0020561442 -0.07206924 -0.21722522 0.17791447 0.06026189 0.044292282 -0.007690798 -0.018470818 0.045618113 -0.13204639 -0.16032913 0.20447107 -0.026392944 -0.019713568 0.14690603 -0.029941017 0.1068556 -0.071594015 0.037472814 -0.121548325 -0.08693632 -0.1739533 0.08014202 -0.12568732 0.07183816 -0.19003673 -0.0010350379 0.13161919 0.08469239 0.02463621 0.041704863 0.18238261 -0.15593325 -0.0719135 0.33500585 -0.10053872 -0.021209558 -0.20182641 0.08374253 0.07447733 -0.17436299 0.09937803 0.13804278 -0.23656963 -0.10686381 -0.07656738 0.055326413 0.069049425 0.08730271 0.06126433 -0.06038012 -0.06722593 0.040422063 -0.082324475 -0.13211025 -0.10151878 -0.035208035 0.16072863 -0.016160686 -0.06546589 0.0339694 0.07927872 0.09038806 -0.14621408 -0.044162385 -0.044296067 -0.050131425 -0.061205443 -0.025174772 -0.05638113 0.02617024 0.1837102 0.0071201534 -0.0364748 -0.23213123 -0.10511441 0.035912618 0.10802907 0.17278376
48 0.074578635 0.054422423 0.114961445 -0.06972228 -0.19697468 -0.04336548 -0.015356921 -0.26674882 -0.038961496 0.28181946 0.11936597 -0.08191014 0.09400578 -0.049890984 0.11920382 0.10762546 0.1544392 0.11462501 -0.15776373 0.10918589 0.005830039 -0.049649976 -0.12218468 0.13532911 -0.19955544 0.054949537 0.11804074 0.1771424 0.03686954 0.092973635 0.011760211 -0.01835686 -0.1006252 0.12830175 0.0822492 0.10212258 0.039286986 0.0317239 0.14365152 0.0048929597 0.003534107 -0.181269 0.022897173 -0.111883454 -0.00079105026 -0.020171983 0.06391716 0.09639361 -0.0011290836 0.05904773 -0.025991997 -0.10386769 0.048035704 0.18028857 0.028310357 0.115007475 0.019243155 -0.021744052 0.004139732 -0.14746946 -0.02048761 0.04460516 -0.037588008 0.039934505 0.09838844 0.05614698 -0.122402154 -0.12793277 -0.2421841 0.06718233 -0.091542624 0.23670398 -0.014281535 0.20123124 -0.1739888 -0.17903301 0.1321028 -0.012324484 0.0018314741 -0.10969265 0.26650694 -0.07188065 -0.08292129 0.3515987 -0.14772227 0.009413892 -0.03842916 0.13299172 0.0043275375 -0.076046005 -0.18803865 0.09308185 -0.27966285 -0.058360204 -0.16692367 0.08558511 0.08556239 0.14835873 0.08124374 -0.064647704 -0.11888986 -0.10437285 -0.08761026 -0.13380812 -0.12442636 0.0039540594 0.11325366 -0.12629405 -0.20947109 -0.1840701 -0.05254745 0.15836021 -0.19987859 -0.18850857 0.03563031 -0.045279164 0.08337554 -0.018808283 0.089519024 -0.005915637 0.16323343 -0.071406074 0.0029636025 -0.12995255 0.047318287 0.022999449 -0.070440754 0.024489678
55 -0.032960847 -0.025712809 0.08065383 -0.122490965 -0.10900463 -0.09045981 0.0006002176 -0.27619994 0.008473554 0.29015517 0.14251506 -0.0049324147 0.07306882 -0.08333134 0.13033724 0.19910945 0.1544909 0.24312244 -0.16565776 0.13163343 -0.058638483 -0.0035182626 -0.11474081 0.1277196 -0.14386626 0.17350689 0.12807888 0.13115919 0.08289015 0.11957253 0.03393767 -0.030025302 -0.08402099 0.12339709 0.069833584 0.026461253 0.052661963 0.116619654 0.14833537 -0.08899395 0.024275606 -0.18457773 -0.0150852045 -0.008776132 0.012933519 -0.020100247 0.058025476 0.12523542 -0.011350118 0.05320826 -0.043761246 -0.16605514 0.0072758105 0.06899959 0.06469619 -0.023533111 0.03403279 -0.026006402 -0.053172715 -0.14124124 0.061247304 0.122166075 -0.009048584 0.10560628 0.17969081 -0.05888664 -0.046748836 -0.12360711 -0.33673358 0.06759592 -0.043807764 0.17068437 0.020422276 0.12353158 -0.20322374 -0.095595025 0.13693388 0.061730266 0.092379086 -0.14106935 0.27356705 -0.11347727 -0.114087135 0.3511756 -0.12515166 -0.061153926 -0.035630986 0.10025133 0.019348528 -0.03222473 -0.20954446 0.20689468 -0.34109232 -0.1046204 -0.1565065 0.09971742 0.08556982 0.15461269 0.10838669 0.006176316 -0.13356206 -0.12921824 -0.049437206 -0.14928392 -0.11199923 -0.040475488 0.17273732 -0.0072936583 -0.3022362 -0.16809766 -0.017708585 0.165864 -0.2107513 -0.21288732 0.0015296012 -0.02420479 0.083141595 -0.010028571 0.104676194 -0.031499937 0.29130062 -0.008362957 -0.049366485 -0.116843544 0.017077781 0.0033096103 -0.049388528 0.10990725
27 0.016379338 -0.1433584 0.1726162 -0.09680694 -0.07312126 -0.14357603 -0.023273652 -0.2606006 -0.06995511 0.19435579 0.18730956 0.0726197 -0.015888974 -0.079422176 0.09992254 0.2489127 0.0135045685 0.029941035 -0.09845843 0.017335238 -0.006741199 0.058074065 -0.118960105 0.009857725 -0.0685058 0.032169525 0.071347125 0.078196995 0.09091348 0.009048557 0.15045096 -0.031444654 -0.15092298 0.111234754 -0.09635263 -0.06906249 0.068566665 0.14763753 0.108594954 -0.037701998 0.0056443093 -0.06835999 0.044365887 -0.0036505703 0.0795155 0.041725207 -0.0710863 0.054114252 0.036119092 0.017699286 -0.043567237 -0.20453441 0.14119898 0.070960104 0.012936558 0.025220778 0.013895745 0.034679387 -0.16518971 -0.15182495 0.19359262 0.0574547 0.0044648605 0.18297444 0.039362583 0.09416801 -0.023655085 -0.028233606 -0.16856936 -0.03780322 -0.12606826 0.07509358 -0.07288697 0.092304386 -0.1696144 -0.0591581 0.13754034 0.1196648 0.02087196 0.022669671 0.17791198 -0.1365108 -0.11258927 0.32022023 -0.107807375 -0.015556132 -0.16618763 0.14056766 0.022421025 -0.12250543 0.08132355 0.17292419 -0.27425864 -0.15544152 -0.052990865 0.1012998 0.06691132 0.0776526 0.04684392 -0.06633785 -0.094090916 -0.009346309 -0.07758667 -0.09619379 -0.07678243 -0.019532043 0.19680952 0.011062517 -0.122663274 -0.010738716 0.052977875 0.12460399 -0.18019465 -0.039344605 -0.070212156 -0.036197554 -0.024488196 -0.018085636 -0.026759772 -0.018726824 0.19623151 -0.013365105 -0.045489773 -0.20078081 -0.079084925 0.04775287 0.06872687 0.15717244
25 0.035702363 -0.062128294 0.18512924 -0.104019344 -0.09094564 -0.09706132 0.0310474 -0.22354549 -0.10555603 0.10746062 0.1820293 0.01511942 0.046353396 -0.14170216 0.16117248 0.33423743 0.063289344 0.0041648545 -0.09112297 0.0051864237 0.007073203 0.03552928 -0.13071917 0.11562096 -0.081873976 0.05255847 0.13150068 0.13217403 0.118160464 0.018751936 0.06180349 -0.0008610389 -0.075905934 0.12161574 -0.009597083 -0.016820867 0.00440268 0.07692411 0.104210205 -0.05297076 0.02310761 -0.1664918 0.025249647 -0.11888619 0.13714196 0.13892356 -0.12622964 0.021037273 -0.016944664 0.080287695 -0.01837991 -0.111303665 0.1280064 0.11828776 -0.023590563 0.11590128 0.056546543 0.022523727 -0.21322109 -0.1134227 0.048680875 0.048009984 0.021008931 0.11065866 0.06446085 0.08258597 -0.009743743 -0.13981278 -0.15149324 0.06554691 -0.07176048 0.10531206 -0.03753622 0.19160955 -0.10399092 -0.13202694 0.14698829 0.10531626 0.017610189 -0.034475885 0.24555558 -0.050181966 -0.13827373 0.32574716 -0.17195944 0.034006532 -0.04898245 0.1800048 0.01674789 -0.08942849 0.016719481 0.16421817 -0.29863557 -0.18165901 -0.03301109 0.10674114 0.077548474 0.040925577 -0.025980573 -0.046820197 -0.122998364 -0.07088166 -0.0481261 0.00015508186 -0.06170272 0.038352787 0.18268299 -0.064571254 -0.17461836 -0.13492434 -0.058588177 0.19219123 -0.2167666 -0.032265756 -0.074816674 -0.023209745 0.066803254 0.004426268 0.022761546 -0.060117405 0.17236991 -0.062437184 -0.027999198 -0.14654501 -0.038173124 0.013160124 -0.07896041 0.068958156
58 0.047037646 0.04171073 0.074984014 -0.06245112 -0.22059019 -0.009196579 -0.021937218 -0.30642572 -0.018639496 0.41475883 0.11344242 -0.09944562 0.0707537 -0.016908236 0.09923173 0.08086589 0.17177771 0.18856964 -0.21101952 0.1501434 -0.0035479027 -0.039785847 -0.11939913 0.11324706 -0.20388314 0.081319965 0.12592345 0.1561638 0.031086031 0.16757412 0.006836782 0.008780822 -0.16406386 0.12984625 0.09321612 0.15083629 0.077786155 0.061700985 0.16719909 0.0022566132 -0.04344323 -0.18174696 -0.004415273 -0.08116716 -0.05123147 -0.13754551 0.14167416 0.13031368 0.018436566 0.020655092 -0.049575727 -0.118293144 0.030168714 0.20071769 0.06644586 0.06163603 0.029217713 -0.04987934 0.08037878 -0.20146967 -0.0330626 0.09366901 -0.052216817 0.06332426 0.14160714 0.036765933 -0.17978327 -0.10237084 -0.32971168 0.07658801 -0.05216694 0.25545162 0.013476991 0.17648171 -0.24416871 -0.21188213 0.124122195 -0.038348842 0.01316919 -0.10133706 0.26778096 -0.10574887 -0.068916224 0.35047576 -0.10187332 0.015586999 -0.04678267 0.109763086 -0.061331253 -0.034607276 -0.2779106 0.094963074 -0.3006853 -0.013515683 -0.24859397 0.0901669 0.08993508 0.16931076 0.14615074 -0.0798682 -0.11585294 -0.14328955 -0.10606598 -0.19844735 -0.17852141 -0.034308232 0.0992608 -0.123324774 -0.262697 -0.17859927 -0.02468914 0.13440381 -0.19409327 -0.24785371 0.08929922 -0.0633781 0.08988464 -0.07580879 0.11053689 0.042156786 0.21233352 -0.06482768 -0.007849276 -0.16438334 0.0909168 0.06577214 -0.04062962 0.057847146
23 -0.041219782 -0.14326277 0.108771585 -0.08156192 -0.020304536 -0.10278762 0.13630506 -0.24321645 -0.04516491 0.078173205 0.15211599 -0.099920146 -0.038445465 0.055547714 0.011567342 0.54141974 -0.09754824 -0.1897426 -0.20616506 -0.203483 0.11641387 0.10827099 -0.21310984 0.01752138 -0.13602157 -0.24919915 0.030644381 0.1624443 0.13425171 0.080389194 0.24230689 0.023976326 -0.20610459 0.11217516 -0.028827367 0.09007441 0.094353214 -0.018512547 0.06940796 -0.15056494 0.044003565 -0.17174768 0.074263394 -0.1545545 0.13422374 0.08241235 -0.20183694 -0.06225195 -0.04882744 -0.0092988815 -0.11736053 -0.014424311 0.25335875 0.13207935 0.04216748 0.053416863 0.0757319 0.10097032 -0.35257602 -0.24962386 0.04220423 -0.1337138 -0.05985085 0.10329156 -0.13995208 0.21690406 -0.17216226 -0.012133843 -0.047660608 -0.050509695 -0.04119478 0.030692747 -0.22647636 0.25193983 -0.1849083 -0.021458274 0.101627134 0.0651873 -0.01917358 0.17095087 0.32831317 -0.119243205 0.016793149 0.27242672 -0.016124556 0.13581048 -0.12532894 0.14793758 0.08948902 -0.12760168 0.16564874 0.1006503 -0.3131469 -0.26438174 -0.06573445 0.113586284 0.0922425 -0.117905915 -0.12105663 0.014215009 0.062373556 -0.04284614 0.003804441 0.019984188 -0.14210573 0.10921677 0.10360262 -0.16885908 -0.14141412 -0.0426003 -0.07905418 0.13398512 -0.24324095 0.2819327 -0.058601625 0.009484286 0.020374563 -0.067707956 -0.102066584 0.07532026 0.090977654 -0.13708077 -0.032596834 -0.2700109 -0.107028574 0.03840443 0.018598262 0.14970478
0 0.1513915 0.118911296 0.032710515 -0.027364839 -0.1629177 -0.30911982 -0.13869503 -0.34077686 0.105469644 -0.144289 -0.077183396 -0.166358 0.20821874 0.18807927 0.0916857 0.021682642 0.09001561 -0.16432516 -0.0736682 -0.08419751 0.1636101 -0.15490833 -0.2430839 0.0007402881 -0.58178097 -0.34353736 -0.11334815 0.255364 -0.16040167 -0.19155249 0.38826835 -0.30977637 0.011153098 0.10376584 0.035141785 -0.03703341 -0.06098835 0.00014428695 -0.012353966 0.106597684 0.20397499 0.0070628123 0.25977027 0.017716255 -0.044136066 0.24726841 -0.06937186 0.036328264 0.021329762 0.17917302 -0.042493593 -0.3124118 0.33274302 0.065410286 0.044112258 0.04204119 -0.19147702 0.157734 -0.20732483 -0.056499735 0.21380863 -0.41363958 -0.13411796 -0.03636227 -0.2835962 0.20486723 -0.10923943 0.100999005 0.067683265 -0.31069553 -0.5553231 0.32870084 -0.39757052 0.23276924 -0.2081849 0.19595921 0.26598307 0.030742563 0.08614738 -0.06467359 0.32969642 -0.24845573 -0.05037896 0.6617986 -0.33726907 -0.15633333 -0.28541553 -0.038333245 0.54924667 -0.52004284 0.23679526 0.12270299 -0.19946592 -0.0038550864 -0.075830415 -0.059608705 0.108312376 0.25565195 0.044223946 -0.013795395 -0.14535064 0.22283532 -0.16529842 -0.1914858 -0.15838684 -0.040741097 0.12977616 -0.16080862 0.119402155 -0.08582146 0.05882197 0.19617306 -0.14508703 -0.1083536 -0.09307167 -0.06325998 -0.12043117 0.13695385 -0.0908414 0.025797972 0.11296843 0.02319665 0.028077671 -0.2670925 -0.2737325 -0.09353853 0.017018873 0.08046644
64 0.03919814 0.065862924 0.028123388 -0.05545914 -0.20659298 -0.038422015 -0.03579506 -0.30096278 0.028419975 0.3415056 0.06110682 -0.14063117 0.087951265 0.049798872 0.07113388 0.0658869 0.15331541 0.14778762 -0.20862643 0.10963592 0.023467202 -0.06417682 -0.12363677 0.09581735 -0.2783723 -0.012645769 0.07684754 0.1706598 -0.007554757 0.13965486 0.06445023 -0.03756315 -0.14639622 0.10920526 0.10932151 0.15317652 0.05946656 0.033327136 0.13196072 0.0043640276 -0.0021123057 -0.15538274 0.028010001 -0.06198233 -0.075835146 -0.11313507 0.12704569 0.11895299 0.010346601 0.02985564 -0.057373784 -0.12445284 0.0697594 0.17892382 0.07987768 0.025995126 -0.0024607566 -0.023091754 0.058823545 -0.1864469 -0.018045397 0.0026386566 -0.07000957 0.02399811 0.06748309 0.04353156 -0.19571212 -0.055645667 -0.2657995 0.012330894 -0.11272385 0.26607585 -0.049625967 0.17727421 -0.24316259 -0.13872245 0.12709272 -0.048095725 0.027474629 -0.09565747 0.28157926 -0.12793988 -0.037258483 0.36385322 -0.102651566 -0.007061432 -0.070063986 0.06789095 0.03544966 -0.09845926 -0.22801267 0.06922206 -0.25510684 0.006885148 -0.23374528 0.05937861 0.09573559 0.17680438 0.13101798 -0.049493913 -0.09361772 -0.09111602 -0.101974756 -0.20387773 -0.18753543 -0.026082639 0.074086234 -0.14465813 -0.20632629 -0.15867788 -0.018968444 0.12083933 -0.17936225 -0.21895182 0.087035485 -0.05238434 0.056356113 -0.05888233 0.08189899 0.0638978 0.18459441 -0.056855872 -0.0015293955 -0.16873786 0.045987297 0.034335 -0.038033582 0.059074167
62 0.045457218 0.07989769 0.055791236 -0.06161054 -0.23139308 0.019348955 -0.004885341 -0.30421087 -0.006107258 0.4248027 0.10255891 -0.14684242 0.08542729 -0.0127193285 0.09738192 0.09926559 0.1910579 0.19495553 -0.22232702 0.16125327 0.0047489693 -0.05116089 -0.12529275 0.14924839 -0.23722537 0.0689127 0.1399446 0.1858689 0.022929521 0.19708265 -0.02257539 0.007917291 -0.14842542 0.12572354 0.14055274 0.18546559 0.0652838 0.03523768 0.17633241 -0.0022789584 -0.038427103 -0.20616162 -0.010333449 -0.10948776 -0.05717659 -0.14108764 0.14090487 0.14083713 0.0050527733 0.0335523 -0.053215556 -0.0901623 0.0308996 0.22663788 0.074584395 0.06608934 0.05233661 -0.05587109 0.08901546 -0.20343561 -0.08433601 0.07802568 -0.04983946 0.034573566 0.15178816 0.029552292 -0.2059443 -0.12277257 -0.34289792 0.09715704 -0.028885376 0.27980834 0.023204684 0.21355514 -0.2539579 -0.23587729 0.12202923 -0.058212925 0.011523421 -0.11713119 0.31405595 -0.093819894 -0.06480368 0.36019182 -0.11060985 0.031575102 -0.016748866 0.10916839 -0.060506154 -0.021402782 -0.33443725 0.07498213 -0.3114058 -0.011342706 -0.26787844 0.09641655 0.09300185 0.16786067 0.13483813 -0.06448863 -0.11586744 -0.16999555 -0.09679632 -0.1848086 -0.19119143 -0.022549748 0.07460055 -0.16511077 -0.2924098 -0.21525179 -0.05356757 0.146978 -0.20899083 -0.26800096 0.121785775 -0.05641847 0.124392435 -0.084577754 0.13342431 0.05166592 0.20562372 -0.07647176 -1.7251936e-05 -0.14914618 0.10929642 0.050581586 -0.076947875 0.035170946
65 0.011441439 0.06056027 0.023300145 -0.06920466 -0.19887382 -0.010160439 -0.0011550231 -0.3000351 0.021522343 0.3559554 0.087788805 -0.14000268 0.07629334 0.023792692 0.07422548 0.13650326 0.16287082 0.19319673 -0.24118258 0.10772309 0.012992741 -0.043312963 -0.12882967 0.13481419 -0.24724138 0.024454154 0.116880536 0.17762166 0.021740723 0.17797177 0.03192919 0.0018291164 -0.143088 0.121825665 0.13420735 0.19121753 0.06941638 0.018580753 0.13966404 -0.0376873 -0.025886487 -0.21166866 -0.0021786764 -0.10034225 -0.060067445 -0.13171913 0.1271787 0.10435644 -0.0080872 0.012682815 -0.07569987 -0.06829244 0.042570382 0.19079557 0.08265854 0.022495992 0.045745414 -0.028561922 0.051624414 -0.20086081 -0.07666122 0.058694407 -0.06192354 0.027602382 0.11819811 0.003569521 -0.20374571 -0.1026762 -0.3168689 0.08972214 -0.043169454 0.2528007 -0.009682684 0.19604592 -0.24101286 -0.17189872 0.109140016 -0.037279308 0.029774185 -0.10379062 0.32179782 -0.096004255 -0.051907495 0.3496802 -0.07956293 0.03289704 -0.030800758 0.08865742 -0.024095394 -0.040180214 -0.3011513 0.08290618 -0.30759966 -0.019949056 -0.24763481 0.08132439 0.08715267 0.15414225 0.120133646 -0.016737845 -0.08406774 -0.16545972 -0.07621625 -0.19298576 -0.20137523 0.0032405565 0.063751884 -0.16127397 -0.28144592 -0.20182528 -0.062471166 0.12897561 -0.20414104 -0.20644186 0.1095415 -0.045468606 0.11031253 -0.06872134 0.12044684 0.060389515 0.20298694 -0.09065214 -0.0071729403 -0.1469875 0.08143392 0.023849843 -0.08089839 0.05676735
63 0.048433524 0.08652544 0.059071314 -0.06416046 -0.24100766 0.004477998 -0.0025038077 -0.31058446 -0.009180224 0.37510014 0.102118775 -0.13703802 0.10472164 -0.009259904 0.10167166 0.10687125 0.19751671 0.20686494 -0.2334511 0.14239366 0.0022913315 -0.062998556 -0.1264214 0.16699019 -0.24846783 0.06925993 0.137064 0.19169112 0.019947229 0.16511424 -0.01566521 0.0026475308 -0.12961772 0.13562699 0.14643428 0.18968831 0.05951961 0.013487825 0.15402505 -0.003301129 -0.036158316 -0.22931524 -0.007196892 -0.1267626 -0.051252574 -0.11765289 0.1457795 0.11626644 -0.0044328836 0.029390357 -0.052176952 -0.06675505 0.01734542 0.21977961 0.059728507 0.071003765 0.04180109 -0.051195063 0.08117651 -0.18076761 -0.097711116 0.0803483 -0.050976057 0.012900959 0.14942296 0.0050632185 -0.18644677 -0.13695085 -0.32551044 0.12026819 -0.043506037 0.27866358 0.020355284 0.2177186 -0.22427253 -0.22713602 0.112508185 -0.035872243 0.022539334 -0.14563665 0.31304798 -0.077882744 -0.06855344 0.3582702 -0.11204049 0.032409452 -0.0093889525 0.11222147 -0.045878544 -0.03524852 -0.3255958 0.080681086 -0.31384787 -0.01821182 -0.24750674 0.08723794 0.09267173 0.17490283 0.13084662 -0.050864063 -0.11296617 -0.17614251 -0.08531093 -0.1933196 -0.19191828 -0.0017266276 0.075089805 -0.1713338 -0.2912811 -0.24081853 -0.07439023 0.15207756 -0.20464262 -0.25125456 0.11373795 -0.052570436 0.12693384 -0.05673251 0.14693555 0.038291603 0.19872427 -0.09901081 -0.00509782 -0.1289589 0.10441754 0.028039793 -0.10684939 0.020368963
26 -0.08288807 -0.06954725 0.043990143 -0.12574302 -0.0056488914 -0.14868169 0.086698495 -0.22031188 0.0332475 0.050633315 0.12719378 -0.031524003 0.057427842 -0.016348371 0.078095764 0.39818457 0.058711633 0.1160986 -0.16896209 -0.051610205 -0.006176288 0.042537592 -0.14651397 0.11258851 -0.15365133 0.022065263 0.06933326 0.14399791 0.122334585 0.06710287 0.139022 -0.03711324 -0.039565776 0.113610946 0.05955991 0.015479998 0.04639333 0.042863455 0.07007655 -0.1777412 0.08642288 -0.20607218 0.012801093 -0.04707891 0.08941159 0.09955608 -0.056006208 0.024407722 -0.058868267 0.053215303 -0.064191885 -0.06499799 0.065134645 -0.0018046012 0.05880207 -0.052404497 0.049941443 0.041340616 -0.25464347 -0.13907388 0.059130453 0.0054020067 -0.02990116 0.08881519 0.054533128 -0.030343795 -0.040421966 -0.09879852 -0.20192137 0.025590282 -0.059827507 0.07725054 -0.09410828 0.17404675 -0.15926109 0.036948718 0.10928961 0.11924146 0.10743986 -0.057201687 0.3277631 -0.10751248 -0.06691839 0.3064692 -0.055158895 -0.033467695 -0.042532235 0.073458925 0.13462505 -0.06692918 -0.05301525 0.20740208 -0.357007 -0.19837719 -0.06626872 0.08271488 0.07436908 0.051651414 -0.010000455 0.112487145 -0.044901602 -0.11437113 0.025489302 -0.06843288 -0.09498476 0.034602243 0.16515996 -0.03140134 -0.28516042 -0.15249702 -0.07689256 0.17319764 -0.23288433 0.034606956 -0.06270889 0.033542406 0.061302375 0.03621717 0.04348191 -0.03165089 0.20854202 -0.04871601 -0.06308469 -0.10699657 -0.08534449 -0.061601657 -0.0674833 0.12569617
59 0.050521515 0.07333294 0.019281453 -0.045832828 -0.22488005 -0.036119495 -0.02907256 -0.3043781 0.037017304 0.34873492 0.05052852 -0.15853286 0.08365837 0.07571781 0.051565345 0.045737557 0.15693215 0.14338042 -0.2211401 0.09969859 0.036091227 -0.06711234 -0.13197556 0.08865234 -0.2983426 -0.044720877 0.07169785 0.1774424 -0.018622931 0.14579733 0.069165625 -0.032191478 -0.14893813 0.11498299 0.117079474 0.17739442 0.07211936 0.01752198 0.1361507 0.008960644 -0.0044022286 -0.16070852 0.03318753 -0.07513533 -0.0897842 -0.1369373 0.1498624 0.10830261 0.015274896 0.015808614 -0.071971044 -0.10767217 0.07317555 0.18837647 0.089683056 0.02923372 -0.0015542432 -0.013210686 0.07961929 -0.19817314 -0.03409365 -0.016117653 -0.09025108 0.016627796 0.049993828 0.057301138 -0.22717193 -0.040232327 -0.25636506 0.006197367 -0.11895714 0.27477178 -0.062186092 0.18578781 -0.25269783 -0.13664132 0.12169276 -0.064692624 0.015878359 -0.082865335 0.29480794 -0.13226321 -0.01883956 0.36564377 -0.09142485 0.008581774 -0.08373066 0.05297632 0.0345653 -0.09805584 -0.23708032 0.05749937 -0.2628711 0.018082522 -0.2488076 0.056986373 0.08817192 0.1772748 0.13493292 -0.04480999 -0.07410767 -0.094604716 -0.10258056 -0.21550813 -0.20092568 -0.01991387 0.049414 -0.15944342 -0.20067081 -0.1540499 -0.020395476 0.11071546 -0.16617626 -0.20734674 0.10615764 -0.053450733 0.053477623 -0.06038681 0.08420352 0.07595389 0.16016443 -0.06544567 0.00291685 -0.17118752 0.045204163 0.032240715 -0.029856212 0.051715665
61 0.025750738 0.06799013 0.02775999 -0.06354934 -0.20725963 -0.023028301 -0.014169286 -0.29350019 0.018557059 0.33024412 0.07811588 -0.13460143 0.09240563 0.016749058 0.08080903 0.11501505 0.17226931 0.18751694 -0.21708564 0.11279788 0.014957565 -0.060172062 -0.121954106 0.14283958 -0.25151384 0.025434261 0.11159544 0.18387118 0.008373063 0.154376 0.024993917 -0.0036123237 -0.120804965 0.12044507 0.12684084 0.17554708 0.05100508 0.020745574 0.13833386 -0.013594562 -0.019294208 -0.19688226 0.008334872 -0.10158496 -0.058190454 -0.10542021 0.124928616 0.10662253 -4.980201e-05 0.028258812 -0.061339065 -0.077689536 0.035987645 0.17917001 0.072561346 0.037055075 0.032333396 -0.027676497 0.05057145 -0.17922221 -0.059891917 0.046797585 -0.059479207 0.01610708 0.11301615 0.010614241 -0.18224353 -0.09689092 -0.29370555 0.07836157 -0.06923185 0.25613183 -0.0060454844 0.18837975 -0.21564995 -0.1726331 0.10742417 -0.032044895 0.029797232 -0.11573047 0.3064549 -0.087982684 -0.060081962 0.350159 -0.102224454 0.020784615 -0.031512413 0.084801815 -0.0038084274 -0.058916654 -0.27881038 0.07947057 -0.2926901 -0.013218921 -0.22539957 0.077246636 0.084190525 0.17085077 0.1160395 -0.028679052 -0.100143135 -0.14426443 -0.08183566 -0.1881393 -0.18513969 -0.0051781842 0.076985076 -0.15045038 -0.25963074 -0.20499495 -0.05362978 0.12970155 -0.19158964 -0.21956117 0.09521588 -0.049150433 0.09351007 -0.053313572 0.11787021 0.044593472 0.19072795 -0.07782853 0.0012229241 -0.13729292 0.06958308 0.012145153 -0.08146 0.046956602
24 0.047499746 -0.06282408 0.16678154 -0.098638214 -0.11296127 -0.09259231 0.0050444384 -0.25496292 -0.08682757 0.16142572 0.1683942 0.010238149 0.021052925 -0.100953706 0.1332325 0.27782968 0.060678396 0.015338895 -0.11626643 0.016626837 0.0111825615 0.016140677 -0.11950072 0.0817405 -0.11072954 0.019567432 0.115415476 0.1274084 0.085121885 0.02870447 0.08330233 -0.0039305366 -0.107311435 0.11352202 -0.022594236 0.01595202 0.02605884 0.07956907 0.10763363 -0.027198883 -0.00043045753 -0.1381019 0.026809918 -0.1042503 0.087544136 0.072908886 -0.08271757 0.03251858 0.0067443526 0.048288506 -0.034343325 -0.123155184 0.12906905 0.13818407 -0.009127173 0.10032519 0.038624085 0.026727658 -0.15200019 -0.14551425 0.06665505 0.05093692 0.007123614 0.12126449 0.04707301 0.09609831 -0.05664214 -0.09339818 -0.16450149 0.042849183 -0.09931584 0.115055144 -0.045163013 0.17450017 -0.1329488 -0.13928165 0.12993154 0.08799436 0.009798512 -0.019992726 0.22870313 -0.0660919 -0.12067064 0.32532796 -0.13602543 0.042411793 -0.08746005 0.16065764 0.00048723607 -0.102735735 -0.0042546475 0.1310034 -0.2788332 -0.14519191 -0.056062825 0.094774835 0.06600896 0.07499711 0.011396714 -0.0657531 -0.11219037 -0.055492733 -0.07445754 -0.06415245 -0.092890516 0.02360327 0.17207478 -0.08027081 -0.1561501 -0.104418516 -0.025929462 0.15945326 -0.21684164 -0.060948037 -0.04572676 -0.04806994 0.03470574 -0.014358628 0.013679564 -0.027338194 0.1813127 -0.062363848 -0.021012748 -0.18488663 -0.03950368 0.031784654 -0.03574793 0.094755195
57 0.0052833445 0.053733647 0.02975922 -0.07791901 -0.18870723 -0.03296662 0.0035280113 -0.299388 0.022169683 0.33550823 0.09175021 -0.13150167 0.07724242 0.004083394 0.090070955 0.15711674 0.16070142 0.19099781 -0.22271067 0.11088841 0.011913324 -0.04332439 -0.12452907 0.14469439 -0.24132249 0.036040243 0.11776555 0.18190315 0.025382588 0.17474107 0.017065851 -0.005687274 -0.11684218 0.117918424 0.1350521 0.17301817 0.051845953 0.03143968 0.14024764 -0.040384945 -0.001788226 -0.20998165 0.0041467315 -0.09511994 -0.04985936 -0.09235209 0.09847566 0.10907921 -0.013552299 0.030488715 -0.064243644 -0.08625909 0.044905238 0.18052295 0.07480915 0.026836518 0.04998086 -0.026737362 0.024304643 -0.18980959 -0.058790375 0.055230826 -0.0531987 0.031503525 0.12331072 0.0050690304 -0.18251586 -0.11058973 -0.31046975 0.08448333 -0.041429598 0.24345846 -0.0063609486 0.19202793 -0.22724201 -0.16152781 0.114540175 -0.023473646 0.039470233 -0.11594178 0.3281677 -0.09554505 -0.06034769 0.3584421 -0.09475624 0.02094299 -0.019883167 0.08210434 -0.0039023883 -0.04383336 -0.28986707 0.09634328 -0.30680838 -0.03769432 -0.21490104 0.084354006 0.08116237 0.14897753 0.10961125 -0.018645957 -0.09387099 -0.14727694 -0.07011511 -0.16653222 -0.1798347 -0.008356289 0.08421295 -0.14088401 -0.2733125 -0.19946915 -0.053138133 0.13549961 -0.20459741 -0.20666815 0.09314275 -0.043537885 0.109651044 -0.062127594 0.11425001 0.046151515 0.21786182 -0.067189366 -0.0033791347 -0.13193798 0.06892323 0.007832316 -0.08911143 0.048624672
41 0.06254672 -0.033766642 0.18111101 -0.09445069 -0.13401385 -0.066768624 0.0037123638 -0.25052688 -0.109596804 0.16476408 0.17410973 -0.0030471592 0.051746733 -0.14142384 0.17388196 0.2851035 0.0868258 0.027889155 -0.100816995 0.04843313 0.014326043 0.010641988 -0.12558092 0.13015199 -0.112746306 0.051604167 0.14658237 0.14411037 0.08233013 0.03630759 0.039554685 0.0022088438 -0.08563401 0.118596844 0.01540972 0.02088629 -0.0009888842 0.079776675 0.108599104 -0.018177284 -0.0013369246 -0.16432612 0.02354262 -0.1255455 0.098759845 0.088432215 -0.09561155 0.043163914 -0.0031784738 0.07310952 -0.024862396 -0.11193733 0.12186542 0.16798906 -0.021911567 0.13264775 0.057678863 0.014142508 -0.14691785 -0.12630081 0.022098094 0.061972793 0.017273724 0.097907655 0.07605458 0.09020269 -0.051386405 -0.13671549 -0.17935242 0.086048014 -0.07911971 0.13805231 -0.020409603 0.1888321 -0.11991766 -0.18347405 0.14636123 0.08858377 0.0070092236 -0.05132329 0.2495371 -0.047272254 -0.15077195 0.348013 -0.18607354 0.0541368 -0.053035647 0.17601445 -0.0040514506 -0.09312311 -0.040862057 0.13982952 -0.29812652 -0.14645743 -0.058429535 0.10527116 0.06793713 0.072941415 0.005573772 -0.081931554 -0.14169538 -0.072424345 -0.0820397 -0.032872103 -0.09641504 0.022303743 0.16789298 -0.096440986 -0.1711029 -0.1500386 -0.047004193 0.18299618 -0.2167606 -0.10321344 -0.035864618 -0.046167754 0.07203343 -0.020754095 0.041881982 -0.031387884 0.19388881 -0.07424001 -0.006060573 -0.16796006 -0.0044587264 0.01696405 -0.08725194 0.05742515
70 0.05968626 -0.06238454 0.196817 -0.09823398 -0.12160182 -0.15093623 -0.034537856 -0.2516323 -0.0976931 0.071846955 0.16720137 0.059357345 0.047137167 -0.11775049 0.16175188 0.24253102 0.06267351 0.019177997 -0.07534188 0.013810327 0.001913852 0.005417072 -0.10968733 0.07992213 -0.1265721 0.03927785 0.09798072 0.11983486 0.073198214 -0.044593386 0.114087716 -0.039025065 -0.05770252 0.11761415 -0.047174055 -0.05603812 -0.0012896264 0.10020542 0.07825067 -0.0074047237 0.02545902 -0.11781608 0.04531683 -0.07455455 0.10333604 0.1270055 -0.087796845 0.016157495 0.018417468 0.07201249 -0.018673878 -0.15684564 0.1199232 0.10264522 -0.030417217 0.098853484 0.012598928 0.042277057 -0.17200734 -0.09093287 0.12038414 0.053216483 0.019103881 0.12184409 0.04431138 0.0764021 0.0048693656 -0.09941212 -0.13436857 0.02462882 -0.17070882 0.116675556 -0.06600798 0.13948514 -0.09427784 -0.09013093 0.14637317 0.1363577 0.018388987 -0.057605397 0.19787559 -0.06433237 -0.15838781 0.35259008 -0.18297377 0.0013432693 -0.11373106 0.14798763 0.059606597 -0.15675527 0.064777404 0.16073775 -0.2737561 -0.14534037 -0.0064486414 0.07384299 0.052757293 0.117321976 0.018465372 -0.06458715 -0.13795732 -0.019753808 -0.08410476 -0.06914261 -0.0733567 0.020959288 0.2098804 -0.032885738 -0.11433651 -0.09449455 -0.0137278475 0.1663146 -0.19265649 -0.07039502 -0.0837024 -0.042314637 -0.0016969583 0.04209258 0.007563781 -0.059465077 0.16195534 -0.04363111 -0.021975243 -0.16005576 -0.07668623 -0.0059103714 -0.040636286 0.09392247
69 0.08189084 -0.023940451 0.18876877 -0.08548158 -0.16068071 -0.07957066 -0.0064193085 -0.25712955 -0.10699278 0.18397485 0.16884995 -0.008810326 0.05911214 -0.12610143 0.16309501 0.221938 0.09802546 0.02629916 -0.09638981 0.06117176 0.019616488 -0.0076277046 -0.12493357 0.115034275 -0.12659398 0.056766972 0.1282445 0.14504859 0.06876724 0.025268432 0.0380627 -0.009977714 -0.08912499 0.120403156 0.0020930707 0.020816222 0.014227822 0.07086163 0.11837299 0.0076993615 0.003838882 -0.14298652 0.03495163 -0.12173113 0.079004146 0.07696716 -0.058259856 0.053447727 0.008007184 0.07451099 -0.014429014 -0.13261056 0.111152 0.16316593 -0.017015534 0.14614196 0.04028436 0.009883831 -0.106590234 -0.1324951 0.03866565 0.054739762 0.0035564867 0.10612141 0.07499972 0.100972146 -0.0541329 -0.12664346 -0.17576684 0.063184865 -0.10232471 0.16112053 -0.018655999 0.19437258 -0.12676923 -0.18110742 0.14147915 0.06716095 -0.0027012462 -0.055489082 0.22795773 -0.053194907 -0.13287447 0.34403965 -0.17878035 0.04412025 -0.069332905 0.16762622 -0.0060828733 -0.09773691 -0.04399959 0.12066225 -0.28592822 -0.114360705 -0.07434189 0.09457007 0.06597178 0.09328954 0.034289528 -0.09865808 -0.14036134 -0.06860997 -0.0956347 -0.05940894 -0.09306408 0.010733073 0.17324227 -0.08623518 -0.15812643 -0.14052188 -0.031332582 0.17829846 -0.21281733 -0.115981594 -0.023515884 -0.05220813 0.05180387 -0.013002457 0.035854034 -0.03611413 0.16960737 -0.075298086 -0.001653828 -0.16971768 -0.013525466 0.030997239 -0.05580079 0.0610126
68 0.066402666 -0.06559838 0.19137417 -0.102088496 -0.11129227 -0.118855305 -0.048170518 -0.24263932 -0.0967712 0.1301784 0.16050017 0.05167954 0.04155538 -0.13604006 0.17012182 0.21088682 0.06686416 0.023090618 -0.04933519 0.055339135 0.002936225 0.0040717428 -0.104332514 0.0673813 -0.101094626 0.052658748 0.10810894 0.10530694 0.062773466 -0.020892138 0.084174335 -0.038782828 -0.078112096 0.10209441 -0.047175642 -0.053411134 -0.0015220717 0.122449204 0.103759505 0.004524718 0.020553086 -0.091137454 0.04680769 -0.051951993 0.09019474 0.10975863 -0.09650502 0.051932845 0.025296805 0.07722597 -0.012062135 -0.20020242 0.13416855 0.11044563 -0.020377794 0.1053862 0.021101195 0.029791621 -0.13961935 -0.09413009 0.12357305 0.047997773 0.027035791 0.13077278 0.057027906 0.08730236 -0.0012187203 -0.09099909 -0.14311595 0.014488134 -0.14425677 0.12284626 -0.03846684 0.12511626 -0.1117146 -0.11445165 0.16185202 0.10780677 0.019388918 -0.04697177 0.18503177 -0.08229979 -0.16128783 0.3620128 -0.19761494 -0.0024733173 -0.1080665 0.1505496 0.04064935 -0.13371441 0.037727363 0.15120465 -0.25486258 -0.12799017 -0.02635282 0.08120286 0.063290805 0.11145032 0.034079105 -0.099794134 -0.16259447 -0.00059329765 -0.0991115 -0.05814108 -0.0591809 -0.02044919 0.19604278 -0.026288204 -0.10952328 -0.079527125 0.021905366 0.16481748 -0.19004041 -0.1310079 -0.06879383 -0.054298665 0.006095513 0.011899845 0.004087577 -0.05343122 0.20196229 -0.0135671515 -0.0068885717 -0.17211089 -0.057543997 0.02427408 -0.020351896 0.08859037
66 0.038931902 0.069919154 0.04601462 -0.06610498 -0.22222489 -0.0151155265 -0.01798548 -0.30828053 0.015531185 0.3905341 0.09030164 -0.12604843 0.096269324 0.013699015 0.092339054 0.07822014 0.18866542 0.21108238 -0.2226416 0.14763121 0.0019962166 -0.0613832 -0.1288257 0.13619168 -0.24807005 0.06360893 0.11559491 0.1772068 0.012359249 0.17111647 0.009367773 -0.012180067 -0.14130363 0.13530318 0.13061601 0.16488443 0.06687453 0.033836395 0.16076075 -0.009609066 -0.018963138 -0.20469627 0.0039479304 -0.079436995 -0.06644957 -0.12414471 0.15219074 0.13766693 0.0011547289 0.028430305 -0.05464683 -0.103648394 0.018356599 0.18983221 0.08188413 0.041473564 0.021157427 -0.04793775 0.07822771 -0.18998632 -0.05405343 0.06619345 -0.062140353 0.029066974 0.13892768 0.006820702 -0.18475392 -0.10772404 -0.32367826 0.069867484 -0.060021445 0.274766 0.0028887698 0.18411553 -0.23857854 -0.18115929 0.120924056 -0.049807195 0.028671227 -0.13510607 0.29854885 -0.1075479 -0.05368379 0.3620878 -0.1049548 -0.0065830657 -0.035121065 0.09410424 -0.009137542 -0.044516165 -0.30409452 0.09790897 -0.31056586 -0.010839799 -0.25302178 0.0833794 0.09204186 0.17815298 0.14315303 -0.047711354 -0.10998698 -0.14870657 -0.08613568 -0.20647968 -0.18261912 -0.029361721 0.07834169 -0.13950239 -0.27893758 -0.20578636 -0.038430713 0.13714941 -0.19978411 -0.2523326 0.09992919 -0.0517193 0.10477818 -0.054936986 0.13074721 0.039582048 0.21828668 -0.06694929 -0.007968185 -0.14958361 0.08891079 0.029977348 -0.06957536 0.042732175
71 0.04857587 -0.07088957 0.18026595 -0.100451946 -0.10616088 -0.12494192 -0.036585122 -0.24593659 -0.086115755 0.11033145 0.15676157 0.0546313 0.034134008 -0.122007325 0.15859176 0.23680985 0.060436416 0.02301381 -0.06671613 0.036063064 0.0010151459 0.012286281 -0.11119228 0.07729489 -0.11156029 0.045294374 0.10234249 0.11241215 0.07058156 -0.018439442 0.09863818 -0.036765303 -0.06976261 0.10383893 -0.042839985 -0.046467364 0.0042963293 0.11388374 0.090608984 -0.00959105 0.022834316 -0.102719925 0.042003706 -0.05959819 0.09469928 0.11046696 -0.09510402 0.03952415 0.024110861 0.068727866 -0.0255341 -0.17741784 0.13076156 0.10122703 -0.019722827 0.08839836 0.023889873 0.03019764 -0.15843262 -0.10540759 0.12183927 0.047505945 0.01958813 0.13472028 0.051959533 0.07705169 -0.0077265603 -0.08727306 -0.14827628 0.017862163 -0.14503284 0.11198908 -0.047304895 0.12780048 -0.111083955 -0.10162625 0.14939083 0.12086709 0.024705846 -0.041359335 0.19776046 -0.07591024 -0.1558811 0.3497883 -0.18113755 -7.6767756e-05 -0.10801898 0.14319049 0.042147048 -0.13585487 0.043360386 0.16035892 -0.26547956 -0.13595684 -0.025101088 0.08309307 0.055412777 0.09641805 0.022948314 -0.075153746 -0.14203171 -0.013840297 -0.0874588 -0.06177388 -0.07093593 -0.0004755885 0.20168301 -0.03493526 -0.12154371 -0.0840503 0.0008228996 0.16175045 -0.19471897 -0.08866183 -0.07042636 -0.041557945 0.0061239996 0.012446025 0.0018118201 -0.045707237 0.18856661 -0.027547732 -0.014979232 -0.16476431 -0.06472955 0.00489513 -0.020112831 0.10134343
60 0.050666105 0.09266261 0.025976878 -0.056525182 -0.23308039 -0.025567615 -0.05116542 -0.30833328 0.042729054 0.4119368 0.068026446 -0.1296208 0.113991745 0.01886081 0.09114784 -0.013084478 0.21471591 0.24082558 -0.20971915 0.18468952 -0.0077178166 -0.079883635 -0.11753381 0.11936877 -0.26793393 0.07465119 0.099903345 0.1696054 -0.021140017 0.15827061 0.0077172653 -0.039498266 -0.12358199 0.121333286 0.13288914 0.15504532 0.06527004 0.05306237 0.16587086 0.024250802 -0.013178899 -0.16750278 0.015815282 -0.04301051 -0.10552231 -0.14687593 0.18604903 0.15865728 0.014694553 0.03906188 -0.048008878 -0.15368669 0.015769359 0.17350397 0.08766754 0.024198852 -0.008152108 -0.051177934 0.13316412 -0.17156579 -0.025007058 0.056651093 -0.06590582 0.030007089 0.14106081 -0.0068747215 -0.18468583 -0.07984114 -0.33975014 0.044779338 -0.09790031 0.29870042 0.011616043 0.15688835 -0.25588924 -0.16463672 0.13364267 -0.059477724 0.038949862 -0.15314572 0.27960527 -0.12936325 -0.054944083 0.382323 -0.12234754 -0.043403897 -0.050113972 0.05773989 0.007827805 -0.060844794 -0.32808906 0.08896355 -0.27642295 0.036473285 -0.26662603 0.060445722 0.09552912 0.22477637 0.18188876 -0.050940823 -0.13353546 -0.12321604 -0.11285711 -0.23995909 -0.18319327 -0.05775722 0.07907674 -0.11423014 -0.25377256 -0.19332942 -0.0067541846 0.1264584 -0.17365003 -0.32292727 0.110996574 -0.06499197 0.08372083 -0.04984907 0.12926026 0.047383696 0.227954 -0.03266571 -0.0017929921 -0.1408427 0.085708186 0.03499852 -0.04375784 0.04277987
16 -0.050950885 -0.09741619 0.09123827 -0.097080246 -0.08274149 -0.04906849 0.18145098 -0.25799975 -0.06505695 0.12279628 0.17004958 -0.15632059 -0.015993798 0.045808896 0.023862114 0.6079904 -0.041249394 -0.11612631 -0.2872051 -0.19620526 0.10900332 0.08186646 -0.21240199 0.10772281 -0.15192345 -0.22578655 0.09007958 0.21307085 0.16866554 0.14400929 0.16437224 0.092684634 -0.20927183 0.12903956 0.06222356 0.20948246 0.099705234 -0.0846799 0.088161945 -0.18144879 0.007354891 -0.28668463 0.022560596 -0.26753682 0.13789204 0.03621429 -0.14983636 -0.085167564 -0.07969504 -0.025457531 -0.13360718 0.11098175 0.19711304 0.18975699 0.031755134 0.08883869 0.12609476 0.078154825 -0.31768137 -0.2762025 -0.09751462 -0.07475684 -0.058826663 0.04455576 -0.08262672 0.17662214 -0.22221209 -0.096720904 -0.10797228 0.07292154 0.034344975 0.055157427 -0.17054848 0.31849965 -0.17041937 -0.12606299 0.076287135 0.0465715 -0.021043481 0.13209192 0.39260715 -0.055485062 0.016673572 0.23608916 0.031074796 0.20376037 -0.039787322 0.1792585 -0.00075306767 -0.05123005 0.015096732 0.069970526 -0.35055134 -0.26137787 -0.08944446 0.13605586 0.095114924 -0.124003194 -0.12814313 0.041450676 0.08262522 -0.15572156 0.03300547 0.018009922 -0.17206521 0.17250676 0.06601167 -0.24634534 -0.24364594 -0.15112345 -0.17847118 0.14930223 -0.26908013 0.29187837 0.0016684367 0.017175375 0.09216791 -0.0827673 -0.031537063 0.08022232 0.06254178 -0.21522349 -0.029262973 -0.22941253 -0.032240074 0.020928029 -0.09391112 0.1001646
29 -0.010585704 -0.2513557 0.17828242 -0.08421489 -0.028772658 -0.1018991 -0.0015610931 -0.2724727 -0.07281944 0.38088325 0.20775005 0.059997946 -0.10436484 -0.017379472 0.025587508 0.25112414 -0.090507895 -0.07439009 -0.120520264 0.0035953412 0.026824262 0.1384767 -0.14080201 -0.13113979 0.016953707 -0.040568903 0.017643303 0.016329246 0.10796445 0.10232997 0.18968035 -0.0016301208 -0.33113047 0.11927986 -0.16679204 -0.071871586 0.15966842 0.19663343 0.16536987 -0.04935413 -0.019189186 0.0024123117 0.050836567 0.0608543 0.06134226 -0.076732375 -0.082873695 0.08090873 0.05658489 -0.038269747 -0.07148601 -0.25949058 0.19667262 0.08299459 0.06356848 -0.0117008565 0.0031943219 0.0122665735 -0.1516365 -0.24822171 0.2599691 0.011140754 -0.019405982 0.23100656 -0.01751554 0.21310353 -0.100870326 0.067399755 -0.17029127 -0.14517513 -0.034063097 0.019966614 -0.11700676 0.054325666 -0.27115557 -0.05653112 0.13354886 0.024303146 -0.028859155 0.18000452 0.11503881 -0.22763583 -0.020890947 0.25445768 -0.048202064 -0.008707533 -0.22460316 0.15198457 -0.044272147 -0.09616325 0.15440278 0.14908513 -0.25255963 -0.17827165 -0.1463255 0.125635 0.107099265 -0.037234087 0.052325524 -0.14683932 -0.041818064 0.03648633 -0.08347576 -0.09235685 -0.08217867 -0.072555184 0.1659818 0.02787886 -0.090331405 0.13044725 0.14259303 0.077368274 -0.18618366 0.027081335 -0.06722574 -0.05097522 -0.05215595 -0.12966603 -0.122004494 0.06672739 0.2358488 0.02034316 -0.068937734 -0.3553215 -0.060501464 0.18792701 0.2441063 0.22884127
51 -0.10290092 -0.061010636 0.029069453 -0.13790938 0.031079018 -0.14859998 0.069205455 -0.19502519 0.062383946 0.101323694 0.10274488 -0.0054766494 0.09428569 -0.08927297 0.12577611 0.33177948 0.10321371 0.15993066 -0.12390781 0.048881367 -0.03989912 0.040966853 -0.1413203 0.10790259 -0.1212643 0.14232959 0.076070204 0.12884183 0.11911266 0.08195336 0.08844028 -0.07935751 -0.013541868 0.09445444 0.066701435 -0.048277296 0.016541058 0.11863142 0.11467586 -0.18470788 0.11957023 -0.16945682 0.011521645 0.04443315 0.079096034 0.11923476 -0.06164766 0.10198878 -0.062843375 0.124055475 -0.03884588 -0.17767952 0.05085141 -0.040668182 0.074722774 -0.095866844 0.035022903 0.019004524 -0.2436962 -0.09056005 0.10663538 0.014050895 0.0071269944 0.09566123 0.11379035 -0.061141834 0.03790704 -0.11460384 -0.24904992 -0.019326469 -0.023624372 0.09223216 -0.041771274 0.12504375 -0.17797843 0.058024764 0.15190831 0.097344786 0.14921014 -0.10526724 0.30018908 -0.14879937 -0.082601085 0.3357398 -0.14217675 -0.13041167 -0.0024958164 0.063198745 0.16400118 -0.04111802 -0.09081132 0.2717582 -0.34157816 -0.19174138 -0.07563579 0.08707354 0.09851035 0.0480286 -0.0002737766 0.09660726 -0.11454174 -0.07990242 0.021624533 -0.031077174 -0.032337066 -0.040057283 0.17539679 0.055908505 -0.29915497 -0.14625302 -0.027974939 0.18423796 -0.2167778 -0.08223183 -0.08963614 0.031340014 0.08171641 0.023850901 0.06290255 -0.054659043 0.31321758 0.045665447 -0.07739429 -0.091558866 -0.06442109 -0.02697231 -0.042240236 0.116921954
75 0.05611403 -0.0138720535 0.14795701 -0.08705431 -0.13103409 -0.10513367 -0.011693582 -0.23899159 -0.06596959 0.084929384 0.13087639 -0.008651091 0.06273329 -0.08850072 0.14087631 0.22961953 0.086844765 0.029764894 -0.097036324 0.017087456 0.024610996 -0.017207284 -0.112258784 0.10930866 -0.15922542 0.0006020013 0.09594207 0.14075834 0.055032246 -0.011431868 0.080226 -0.027749948 -0.041708324 0.102933936 0.009759444 0.016705126 -0.0008601956 0.048857797 0.07706266 -0.008710613 0.026083156 -0.13678104 0.03757034 -0.110267356 0.07237304 0.10110687 -0.06523219 0.025838187 0.0005200886 0.0715526 -0.024502039 -0.10481254 0.11507127 0.12504548 -0.015583885 0.10631963 0.032759063 0.03531146 -0.13155973 -0.099703886 0.042673983 0.016683754 0.0037711945 0.07448043 0.036047593 0.07067923 -0.049532484 -0.10200805 -0.13545711 0.042178627 -0.13928758 0.14092994 -0.057522703 0.17728044 -0.10946465 -0.11205559 0.13664246 0.092232905 0.021704672 -0.060467202 0.24010372 -0.05365663 -0.12865333 0.34181547 -0.16372502 0.029901447 -0.079009235 0.13143823 0.052471913 -0.123627685 -0.017061094 0.118999265 -0.25998846 -0.11285141 -0.0368503 0.06763449 0.05481103 0.102985896 0.018077563 -0.04616921 -0.122628435 -0.045306478 -0.07869449 -0.0716509 -0.088692956 0.026193751 0.16275887 -0.090197995 -0.13899647 -0.13071175 -0.04379185 0.16250476 -0.19338055 -0.08352694 -0.038809 -0.03916019 0.03302306 0.020830063 0.033348072 -0.037052535 0.14757706 -0.061554648 -0.0019824835 -0.135596 -0.04461457 -0.016399765 -0.07129454 0.060547866
49 -0.080263466 -0.063803315 0.07188038 -0.13467017 -0.0030650378 -0.10307707 0.101522334 -0.2018092 0.013087621 0.12914357 0.14967564 -0.023712955 0.07830824 -0.08678765 0.12846352 0.39199224 0.09588953 0.12948336 -0.15554278 0.017567575 -0.030764595 0.053378467 -0.1561509 0.13423893 -0.09959861 0.116580755 0.106834024 0.14222984 0.15242761 0.109200634 0.06865492 -0.024022939 -0.057634037 0.11554435 0.07782605 0.0039083343 0.04281351 0.06726754 0.11596364 -0.18111289 0.08317533 -0.22753225 -0.0095832525 -0.05365739 0.11114823 0.10351858 -0.064789146 0.0664414 -0.06795368 0.08584786 -0.038990337 -0.0934834 0.04093799 0.020283462 0.058211017 -0.016821584 0.061056018 0.003845563 -0.24092452 -0.13465932 0.039514612 0.03441159 -0.0028548373 0.095285244 0.10437192 -0.02713015 -0.009453029 -0.15142708 -0.24742772 0.05092073 0.007138762 0.093358316 -0.040013734 0.18713555 -0.16312322 -0.030010775 0.124883115 0.09007515 0.10712732 -0.0822428 0.32115823 -0.10247231 -0.08017539 0.30199736 -0.10141756 -0.04818094 0.013849448 0.11440456 0.08551414 -0.0128636565 -0.099557884 0.22893086 -0.36697415 -0.21453266 -0.09169088 0.10531407 0.09676474 0.026297603 -0.01975082 0.070635565 -0.081604056 -0.13740765 0.030426566 -0.023818552 -0.06890815 0.008087484 0.16978762 -0.016593248 -0.3249165 -0.18511897 -0.08114391 0.19623251 -0.24734524 -0.024289098 -0.06545809 0.038420748 0.10559976 0.011221623 0.06070856 -0.052086372 0.25375137 -0.035617854 -0.06153258 -0.10518337 -0.034497652 -0.02440875 -0.08121401 0.096589774
21 -0.052865945 -0.17299497 0.13814443 -0.09871375 -0.057295002 -0.07346409 0.21725814 -0.31524312 -0.081254154 0.14263013 0.2132164 -0.1733353 -0.055265363 0.08306179 -0.0039073466 0.74289215 -0.1163474 -0.23707034 -0.32584295 -0.27855527 0.16262366 0.13839889 -0.27509394 0.055257604 -0.16487828 -0.33116055 0.06734155 0.22664246 0.20526518 0.15261473 0.26557365 0.086180285 -0.30282357 0.15354374 0.010196618 0.19835787 0.14734092 -0.08067463 0.1042643 -0.2135608 0.014875068 -0.27735877 0.05711402 -0.27890396 0.17951408 0.05699795 -0.2252069 -0.104789294 -0.077634506 -0.038868185 -0.16304049 0.08582966 0.30011326 0.20819733 0.043442614 0.102487884 0.12973045 0.11017879 -0.43341935 -0.34896275 -0.044782363 -0.14711717 -0.08244704 0.096389145 -0.16986448 0.27984038 -0.27364597 -0.055437684 -0.070784025 0.0027096383 0.020932147 0.027748197 -0.2695067 0.3779977 -0.2346632 -0.10585482 0.09733603 0.050859198 -0.043396227 0.23431075 0.43953145 -0.11498328 0.048033156 0.2817697 0.048792735 0.23592548 -0.115094446 0.21881159 0.031157736 -0.10140224 0.14439207 0.08382226 -0.40022528 -0.34165537 -0.105261214 0.16133168 0.12371016 -0.1887151 -0.16764683 0.028996723 0.12079736 -0.12405058 0.032055926 0.035845276 -0.19859925 0.18435328 0.08910758 -0.2803223 -0.22346592 -0.101524256 -0.16432548 0.16453655 -0.31625798 0.4157012 -0.032044478 0.025162816 0.072756305 -0.114722416 -0.10230961 0.10796181 0.06417521 -0.23821281 -0.049675692 -0.33363792 -0.08886111 0.06631453 -0.026289452 0.15606898
18 -0.030291459 -0.14751598 0.12757744 -0.07844968 -0.060395464 -0.04867783 0.18299496 -0.2706744 -0.0779365 0.16434751 0.18853045 -0.15140074 -0.059262697 0.07715972 -0.0053102914 0.630908 -0.10461648 -0.21968566 -0.2880639 -0.23920082 0.1481128 0.120640896 -0.2431599 0.032888494 -0.13733111 -0.31052518 0.060346365 0.1952635 0.17150776 0.14840475 0.22827017 0.08693006 -0.2834538 0.13679098 -0.0010816308 0.19006182 0.13205077 -0.06816863 0.095268555 -0.17151362 8.3678926e-05 -0.23663221 0.053878747 -0.25220063 0.15276302 0.032272723 -0.19534002 -0.08556353 -0.05474509 -0.048783123 -0.14748085 0.06871954 0.2711085 0.2076652 0.04327658 0.107339926 0.11329434 0.09182761 -0.35473916 -0.3226093 -0.037735056 -0.12690549 -0.07510381 0.084443174 -0.1558357 0.2683815 -0.25874403 -0.03681635 -0.06473236 0.0002952495 0.019440036 0.03940329 -0.23005812 0.33217117 -0.2139051 -0.11480165 0.089317515 0.024428556 -0.056234986 0.22593686 0.37492988 -0.10158743 0.04627889 0.24731825 0.0412752 0.21852714 -0.10679191 0.19778547 0.0014716225 -0.08598018 0.12567332 0.051190916 -0.33867827 -0.28215906 -0.10982756 0.14516956 0.112361565 -0.16693604 -0.14271237 0.004885095 0.0977077 -0.1075932 0.012066522 0.02677765 -0.1846056 0.16507167 0.07305087 -0.26557565 -0.1907632 -0.08739151 -0.13289477 0.14385976 -0.28534764 0.3500175 -0.014904781 -0.0011387044 0.06701864 -0.12191669 -0.09438928 0.11325625 0.056624394 -0.21143734 -0.0333224 -0.32134715 -0.06475789 0.08004456 -0.011278227 0.14021042
76 0.052920956 0.064185426 0.07433539 -0.05896239 -0.2518162 0.023966737 -0.028113732 -0.30954692 -0.02005718 0.46368253 0.117990896 -0.10889329 0.0913371 -0.02853021 0.10655814 0.055330675 0.2006778 0.22617473 -0.22278377 0.18261474 -0.013249093 -0.049401052 -0.10974355 0.13306966 -0.20570754 0.11117756 0.14781933 0.16766 0.026051546 0.19766186 -0.03475886 0.019918978 -0.17812729 0.1393863 0.116911836 0.17615898 0.083286546 0.05566942 0.1852645 0.011308571 -0.056965817 -0.21018349 -0.015748125 -0.09520217 -0.061485764 -0.16623792 0.16817868 0.15066731 0.008668765 0.021568514 -0.04194882 -0.1074948 0.008347792 0.22728866 0.07186382 0.072437085 0.04171677 -0.07768233 0.12341093 -0.19921663 -0.07317666 0.12526253 -0.043482017 0.04608004 0.18278266 0.016854212 -0.18608242 -0.12929922 -0.35935098 0.109808974 -0.03026671 0.28498006 0.04791716 0.17967905 -0.23365256 -0.25683853 0.1165419 -0.062198885 0.0053578564 -0.13263896 0.2658763 -0.09704495 -0.07302569 0.3366928 -0.103871904 0.020251878 -0.024391701 0.12084033 -0.09100612 -0.009122405 -0.33295727 0.07983807 -0.29879886 0.0028236692 -0.27875093 0.09862811 0.09470004 0.18910028 0.16189547 -0.09055281 -0.12985834 -0.16965808 -0.103140034 -0.20707764 -0.18435307 -0.032828435 0.08072707 -0.14565559 -0.2868339 -0.20910856 -0.03828466 0.13380282 -0.20323628 -0.2912634 0.11780205 -0.055844314 0.11668506 -0.08436645 0.14237405 0.04157282 0.22021423 -0.082000546 -0.00997102 -0.15082185 0.13005123 0.06893273 -0.06450601 0.03632068
20 -0.024477197 -0.14221816 0.13271281 -0.08187234 -0.069387875 -0.06942021 0.1936627 -0.29126924 -0.073154815 0.1161947 0.19021754 -0.17265266 -0.045658544 0.0973177 -0.0040303995 0.67371607 -0.109085076 -0.2522794 -0.3007447 -0.27552274 0.16725992 0.11738329 -0.25719464 0.04798923 -0.18302533 -0.35104135 0.058807287 0.22027119 0.17575231 0.1253242 0.26525614 0.07152883 -0.27666262 0.14980954 0.011400804 0.19392776 0.12714195 -0.089445435 0.08550445 -0.1793575 0.0141336825 -0.2596508 0.072164215 -0.28109476 0.15859753 0.06579965 -0.20858148 -0.108589485 -0.06962571 -0.033815764 -0.14977992 0.09069566 0.2964653 0.22138327 0.03340149 0.12392385 0.11103997 0.107279666 -0.39320782 -0.32089534 -0.052514244 -0.16326745 -0.08605294 0.071387045 -0.18229459 0.27823925 -0.27406672 -0.04266402 -0.04035598 -0.0010336126 -0.018017264 0.04720464 -0.27460527 0.3696062 -0.20850259 -0.1005463 0.0988712 0.04348976 -0.058159024 0.2209412 0.41241345 -0.10378265 0.043468915 0.28617394 0.02616196 0.23036759 -0.11488925 0.20486465 0.046067644 -0.122836456 0.15495585 0.05782947 -0.36594152 -0.31061184 -0.10651707 0.14389846 0.115908936 -0.16212341 -0.16281454 0.021567948 0.10446584 -0.10310828 0.011153302 0.025061266 -0.2017868 0.18185975 0.07742151 -0.29235613 -0.1848533 -0.100358106 -0.15830483 0.16038725 -0.30630606 0.3855543 -0.033918623 0.0077661825 0.064842515 -0.09921339 -0.10021127 0.10464755 0.04642547 -0.23332873 -0.037645172 -0.33287486 -0.09052734 0.0568247 -0.03248404 0.13768212
22 -0.020964194 -0.08253462 0.09232424 -0.07439804 -0.09004948 -0.039818425 0.17468321 -0.27354681 -0.051888555 0.14225523 0.14906763 -0.18935049 -0.023211036 0.09767775 -0.0020062288 0.5765028 -0.058865953 -0.17777154 -0.29471156 -0.21084844 0.14954935 0.08056083 -0.23144287 0.07279085 -0.19728288 -0.3028988 0.06712581 0.2158039 0.14031889 0.14492857 0.20270368 0.07703415 -0.24375585 0.13611938 0.051764775 0.22013113 0.11252178 -0.099628605 0.093816094 -0.15349828 0.008881715 -0.25806257 0.04966453 -0.2634466 0.11650368 0.024832193 -0.1492202 -0.07582776 -0.067012295 -0.022610135 -0.14210185 0.098620884 0.24045625 0.21564901 0.04903043 0.10601972 0.10660837 0.08819955 -0.31088305 -0.29714355 -0.09225947 -0.14202702 -0.09061875 0.038678885 -0.13971022 0.2340773 -0.2766113 -0.059340496 -0.076767795 0.017099861 0.0001857506 0.08114668 -0.22371808 0.34510478 -0.20822562 -0.11622889 0.0820755 0.011146138 -0.04932459 0.1675028 0.4084204 -0.090247065 0.0431028 0.27288467 0.029221306 0.2109898 -0.074552014 0.17326768 0.034339175 -0.09269493 0.053986933 0.04403775 -0.34139448 -0.24823293 -0.12912145 0.13156089 0.10385309 -0.12091726 -0.12661232 0.02008913 0.09274644 -0.120060496 0.0084300125 0.0015330692 -0.20156011 0.16101788 0.052920915 -0.28606197 -0.20954405 -0.13372612 -0.1533887 0.14585246 -0.27945986 0.295925 0.0069966903 0.0066250786 0.08420462 -0.09753811 -0.057740852 0.10168591 0.047780618 -0.2124902 -0.02429608 -0.28723505 -0.04917176 0.041728523 -0.05818086 0.10043873
17 -0.029925933 -0.10960921 0.08951389 -0.07091271 -0.060721084 -0.06159874 0.16478838 -0.25812742 -0.042118505 0.12178764 0.14800735 -0.17063291 -0.027268026 0.09687899 -0.0077844434 0.56512976 -0.08174314 -0.21367839 -0.26328433 -0.2252057 0.15179408 0.09147587 -0.23013277 0.03462305 -0.17651586 -0.31159118 0.04198029 0.19462726 0.13736397 0.12356257 0.23011659 0.05183183 -0.24248745 0.12584274 0.020808473 0.17735237 0.10751078 -0.07253552 0.08148051 -0.15485685 0.028298544 -0.21759716 0.06768257 -0.2257485 0.12264861 0.051205974 -0.17812018 -0.07131924 -0.062988974 -0.016808592 -0.13195968 0.052901555 0.26747608 0.18851042 0.04568501 0.08768855 0.08788709 0.09380879 -0.3385099 -0.28955483 -0.0397253 -0.16127141 -0.087957874 0.059405766 -0.16111702 0.25223827 -0.25074738 -0.024134077 -0.052442364 -0.029555144 -0.017473344 0.05630976 -0.24322502 0.3192479 -0.20292841 -0.067320675 0.09643035 0.015584235 -0.038086176 0.19415045 0.37090626 -0.11389436 0.051932957 0.27095202 0.013640423 0.18491904 -0.0964274 0.15672967 0.0688027 -0.1163039 0.120207176 0.055816498 -0.31895044 -0.25592047 -0.110557005 0.119189285 0.105372615 -0.13925236 -0.13279074 0.0134338895 0.09016313 -0.07849169 0.011119706 0.018033354 -0.18209289 0.1394593 0.06366882 -0.25179142 -0.16478984 -0.092804894 -0.121287465 0.14512794 -0.2657854 0.313604 -0.020783199 0.0047657443 0.055576712 -0.0933091 -0.085157946 0.10011777 0.062305726 -0.18779573 -0.023271695 -0.30431205 -0.074607626 0.05600806 -0.020689094 0.12336937
19 -0.027592607 -0.108905345 0.10087276 -0.084582604 -0.094516896 -0.059053667 0.18972681 -0.2978974 -0.058200773 0.11966424 0.16582619 -0.20251308 -0.0363875 0.10702106 -0.009809302 0.6637576 -0.0892334 -0.21617916 -0.32248446 -0.26289126 0.165697 0.09925446 -0.2587918 0.07125976 -0.20802173 -0.3595213 0.06275296 0.23457395 0.15212807 0.14632402 0.24597129 0.08776182 -0.25758803 0.14263816 0.04277111 0.24362135 0.120697625 -0.10801772 0.076441236 -0.17704949 0.0040008654 -0.2825815 0.064467415 -0.30197453 0.13834131 0.038379982 -0.19094165 -0.11132604 -0.07291504 -0.042398974 -0.16043298 0.11652521 0.28446287 0.23688526 0.044422988 0.11073578 0.117599875 0.10925372 -0.3613358 -0.3198865 -0.09821416 -0.16141157 -0.09053871 0.04645121 -0.17166923 0.26102278 -0.2947934 -0.04646744 -0.05695666 0.026353564 -0.0043937583 0.07057055 -0.25742608 0.37087786 -0.20943555 -0.10743539 0.0804744 0.02886438 -0.053486604 0.20038524 0.43565282 -0.085334085 0.04790014 0.2872975 0.034082755 0.25008002 -0.09464832 0.18704022 0.037765447 -0.114069454 0.09547609 0.038070697 -0.36407298 -0.28489438 -0.11853154 0.13423234 0.10613884 -0.1533425 -0.15475394 0.035127383 0.11503525 -0.12759249 0.018245649 0.014660947 -0.21839803 0.19787826 0.051129702 -0.3133571 -0.20351289 -0.12639579 -0.17448515 0.15184186 -0.29413766 0.36454675 -0.0016183701 0.0023218158 0.07912379 -0.10719084 -0.0756952 0.123205416 0.03447588 -0.24181433 -0.021104144 -0.3009681 -0.06420398 0.03875841 -0.06681393 0.11790185
37 0.015192186 -0.25257808 0.17209896 -0.08342427 -0.0439916 -0.15030102 -0.08861082 -0.30830142 -0.05247516 0.38126674 0.17626351 0.10112959 -0.11712552 -0.012062499 0.039758317 0.15650414 -0.07736756 -0.054704566 -0.07772696 0.050236758 0.027876915 0.10641999 -0.1249432 -0.16542554 -0.026375396 -0.045134496 -0.004234809 -0.010313956 0.043800876 0.05522828 0.23635611 -0.050518915 -0.30483416 0.10009834 -0.21524426 -0.12224248 0.13367012 0.25422305 0.15209539 0.010803855 -0.011035406 0.0934579 0.083155006 0.13489358 0.017150877 -0.077763736 -0.07443356 0.11190851 0.10943021 -0.039472856 -0.07047837 -0.372489 0.23992611 0.06271056 0.07270766 -0.03679933 -0.039587237 0.027541382 -0.110845335 -0.23703414 0.36028162 -0.0011362575 -0.017203312 0.27808076 -0.035477612 0.21536785 -0.08512342 0.13401595 -0.16745552 -0.20753852 -0.14063194 0.038390867 -0.13196667 -0.005658091 -0.2944575 -0.01348585 0.16007443 0.049598727 -0.0105824135 0.17508157 0.088407986 -0.2685495 -0.056730576 0.33265275 -0.09954502 -0.059565667 -0.29900074 0.10822289 0.00475045 -0.17469554 0.18977837 0.16546324 -0.22355807 -0.11611624 -0.12771983 0.09190401 0.08844873 0.036773764 0.10968112 -0.17953435 -0.090142876 0.11402374 -0.13941398 -0.15169947 -0.088939734 -0.13268183 0.20226935 0.071278326 -0.018627154 0.18502527 0.22095357 0.063407175 -0.15624377 -0.07814943 -0.066615686 -0.09696749 -0.11132985 -0.12607642 -0.14084934 0.07759256 0.29090276 0.078646615 -0.048687294 -0.3843744 -0.10772663 0.18517682 0.29975265 0.2722207
34 -0.036214307 -0.2503306 0.14780694 -0.10191734 -0.011847774 -0.10910736 -0.024886763 -0.28318703 -0.047833193 0.38355663 0.18688436 0.07094441 -0.11355454 -0.03760494 0.03687365 0.26473075 -0.06937752 -0.016283264 -0.11255864 0.039679185 0.020886526 0.13173732 -0.13109349 -0.11277091 0.0074692667 -0.004141208 0.042517375 0.009016546 0.09902573 0.11497278 0.18827237 -0.00839238 -0.2959228 0.09712871 -0.16148348 -0.07929105 0.12841675 0.22734469 0.15790127 -0.06534577 -0.012546305 0.020142827 0.049224745 0.09328772 0.04682393 -0.07592751 -0.10092394 0.10428275 0.07110289 -0.040408377 -0.08423955 -0.30034083 0.20516756 0.0659838 0.080127545 -0.053381387 0.021794662 0.019865248 -0.15491095 -0.23881446 0.27727628 0.03420139 0.0014677279 0.25781804 0.015033255 0.1632153 -0.08146515 0.070361726 -0.20191728 -0.13206252 -0.028786035 0.016260954 -0.086044386 0.027676195 -0.2841336 -0.036911014 0.14633815 0.048025385 0.0071694474 0.16681753 0.1410741 -0.23191307 -0.049463887 0.2913358 -0.06217657 -0.02415252 -0.22489683 0.1271276 -0.039437495 -0.08757932 0.110628396 0.17289191 -0.26376057 -0.15909624 -0.13256969 0.12379699 0.08684596 -0.019949693 0.07055363 -0.12429548 -0.06774175 0.02942791 -0.08521386 -0.096817456 -0.08719248 -0.096871614 0.1676951 0.051060997 -0.10292582 0.1290838 0.16231996 0.070012726 -0.17705828 -0.030192764 -0.048302364 -0.059516378 -0.03782801 -0.13677831 -0.099852465 0.0679422 0.29621243 0.056268018 -0.06388812 -0.32977295 -0.06285784 0.16257693 0.23329155 0.25097668
36 -0.017168842 -0.29510215 0.2105429 -0.1126195 -0.01130429 -0.1285177 -0.02526857 -0.2872191 -0.09110374 0.38876265 0.2431824 0.1172056 -0.14652121 -0.068926744 0.04886134 0.29238448 -0.10537318 -0.066038005 -0.09210782 0.0112286685 0.011168631 0.15553328 -0.13216025 -0.13621189 0.059078798 -0.017293602 0.032348342 -0.005556079 0.11946326 0.085659906 0.21249351 0.005887649 -0.32835937 0.113298625 -0.2219865 -0.11921052 0.15511052 0.24941152 0.17586176 -0.052032065 -0.02219147 0.03514995 0.049062792 0.08044892 0.08763438 -0.054089207 -0.12926558 0.08212377 0.08073163 -0.051546477 -0.07825044 -0.31842226 0.22728674 0.06888641 0.051328592 -0.015969463 0.0144184055 0.026798075 -0.18635233 -0.26009774 0.32922882 0.048695963 0.0007196029 0.29989725 9.406672e-05 0.21167229 -0.067335814 0.07545436 -0.18398193 -0.14892778 -0.050221678 -0.012898438 -0.10865828 0.024839317 -0.27399236 -0.05035732 0.1529677 0.07248781 -0.02676819 0.20338817 0.111624874 -0.23227918 -0.060881607 0.28375733 -0.064716406 -0.007690057 -0.25658518 0.17536616 -0.05885155 -0.105594404 0.19367744 0.18856277 -0.2749983 -0.20674886 -0.10932385 0.14060915 0.09727873 -0.030275796 0.05756616 -0.16508293 -0.06710922 0.051570907 -0.09769261 -0.09128303 -0.075389914 -0.08724753 0.22125185 0.06345126 -0.08690726 0.16087008 0.17903242 0.08783485 -0.20120521 0.018061409 -0.09017431 -0.071573906 -0.06445892 -0.13786837 -0.13673843 0.04825162 0.29287794 0.039876837 -0.070564166 -0.38203365 -0.0931442 0.19179466 0.2709064 0.2733864
38 -0.02121942 -0.29704365 0.18412188 -0.109114856 -0.0047190725 -0.14553396 -0.047787808 -0.3103933 -0.068114206 0.37038937 0.20586479 0.10668036 -0.1418091 -0.039781053 0.044226035 0.27720135 -0.1136426 -0.08166237 -0.08697346 0.017798115 0.03356869 0.14896747 -0.14532079 -0.16267484 0.016726313 -0.053146787 0.016742457 -0.0041277297 0.08694034 0.07494376 0.2497974 -0.020701803 -0.32590967 0.09642207 -0.22194606 -0.12559015 0.13336179 0.2657463 0.16036463 -0.03969782 -0.011630911 0.06885876 0.077283606 0.115426525 0.05952357 -0.055690862 -0.14888395 0.09032586 0.0916481 -0.041971695 -0.09239714 -0.35565096 0.26452318 0.064831 0.064583875 -0.048108716 0.001549943 0.04119385 -0.18435223 -0.25634986 0.35900235 0.0006819534 0.001391852 0.29513678 -0.03921449 0.22556686 -0.07828806 0.11847963 -0.17003733 -0.19487381 -0.08637953 -0.0037530526 -0.13666435 0.007962006 -0.29869935 -0.020008206 0.16304295 0.070646696 -0.008191924 0.20958817 0.11769943 -0.2679459 -0.06367042 0.32865 -0.09014802 -0.026336094 -0.289374 0.13568994 -0.012015199 -0.15163173 0.21651591 0.18927868 -0.2630844 -0.1798583 -0.112312846 0.12296847 0.09872785 -0.024491644 0.06338544 -0.16723064 -0.07370978 0.09621316 -0.11168887 -0.09755502 -0.089344345 -0.11138259 0.20404892 0.06972799 -0.04349753 0.19199099 0.20911561 0.071653135 -0.18401462 -0.013596925 -0.08476412 -0.08057722 -0.09327229 -0.14348412 -0.1536135 0.078384496 0.3086114 0.07634666 -0.062363792 -0.39999813 -0.11460108 0.18738487 0.2964429 0.2886165
35 -0.0053555057 -0.26536 0.18891697 -0.09934454 -0.022410026 -0.14548355 -0.056470636 -0.29290074 -0.06773921 0.37020767 0.20052917 0.10501466 -0.11017945 -0.048255008 0.04965081 0.21396223 -0.07972647 -0.06201718 -0.07812017 0.038921647 0.018375602 0.123174295 -0.13696872 -0.15259512 0.0060892203 -0.022614041 0.014862423 0.0011479316 0.08568919 0.06407505 0.22029418 -0.036542777 -0.30045488 0.10155759 -0.20499347 -0.12929289 0.13144349 0.25252402 0.16375628 -0.018519957 0.0020853593 0.06331074 0.07459549 0.113753624 0.05488384 -0.04274143 -0.10697054 0.10488356 0.085861444 -0.022745937 -0.062475525 -0.35396364 0.22545585 0.057156667 0.064147435 -0.03267337 -0.014597187 0.029647307 -0.15767589 -0.2319575 0.34886113 0.010021026 -0.0017847638 0.27398014 -0.016123341 0.21187492 -0.0572913 0.09750542 -0.17152694 -0.19127668 -0.09754841 0.025258992 -0.12012037 0.014308633 -0.2833501 -0.016552897 0.1689494 0.05627617 -0.009828469 0.17319666 0.105569996 -0.25979102 -0.06132996 0.31770524 -0.10878081 -0.053525858 -0.27285993 0.1354425 -0.003713421 -0.14805052 0.19328058 0.18248886 -0.24793611 -0.16230637 -0.120605454 0.111172415 0.10140809 0.0066004135 0.07900608 -0.16523229 -0.092719674 0.08346161 -0.11701509 -0.1071337 -0.066546954 -0.11261469 0.2063952 0.072966166 -0.053005498 0.16546191 0.19722086 0.09008042 -0.1794743 -0.0466054 -0.08567076 -0.07025836 -0.086150505 -0.119504005 -0.13885061 0.052891534 0.29021066 0.076366946 -0.06142072 -0.37453416 -0.10275115 0.18475209 0.28015184 0.26122913
28 0.01519524 -0.20011215 0.22217157 -0.121440254 -0.056159504 -0.2863006 -0.09355963 -0.2939792 -0.044003762 0.1474583 0.21870339 0.19641192 0.009751133 -0.05346572 0.103968926 0.15587877 0.017138654 0.106355645 -0.08747969 -0.0024188051 -0.08345106 0.059914567 -0.10037371 -0.08014401 -0.08891251 0.087036826 -0.009016201 0.03826303 0.11273632 -0.091404565 0.2544039 -0.11585722 -0.16172548 0.16600561 -0.19437973 -0.21976762 0.12058465 0.21005784 0.09891142 -0.039504748 0.045183383 -0.036578167 0.04892591 0.120026834 0.088624366 0.05998841 0.03535958 0.05206632 0.053614188 0.027017161 -0.019466186 -0.29315463 0.07201139 -0.050677646 0.020355849 -0.04359225 -0.099052936 0.03478887 -0.18661411 -0.13133307 0.36915824 0.09787596 -0.026013868 0.23437925 0.053987548 0.043378823 0.07914581 0.0034799564 -0.17793916 -0.1314033 -0.29135156 0.082343236 -0.1500412 0.018678898 -0.17086683 0.079639465 0.17080924 0.19800332 0.04849287 -0.039915964 0.094314694 -0.20366324 -0.12991582 0.35958898 -0.10002503 -0.1789221 -0.26583746 0.12352412 0.13495997 -0.20729947 0.20912485 0.2610144 -0.30386645 -0.17384064 -0.038543906 0.071246095 0.091590695 0.20137179 0.120741665 -0.025558498 -0.12241891 0.03723183 -0.09536514 -0.21920471 -0.04441168 -0.043391105 0.3163133 0.14101553 -0.12947981 0.05204781 0.10928952 0.16233413 -0.17521168 -0.026620187 -0.17696516 -0.013677848 -0.12612636 0.098719254 -0.05333825 -0.09682687 0.19819105 0.030513981 -0.11207899 -0.22178347 -0.18103611 0.043242197 0.16361909 0.23579551
54 -0.088926904 -0.06022656 0.042891238 -0.12984195 -0.0102936085 -0.123099096 0.081386164 -0.20913504 0.042221844 0.12500519 0.12764947 -0.026471844 0.075274974 -0.06003385 0.10520236 0.3513746 0.09834417 0.16421354 -0.16234979 0.014510626 -0.034104034 0.040797945 -0.1368603 0.122570306 -0.1304745 0.10621933 0.08596651 0.13613014 0.13702042 0.09668794 0.081301525 -0.039485425 -0.051575866 0.1139673 0.074515894 0.0029738375 0.04639304 0.06958047 0.11029563 -0.18127535 0.076986425 -0.21022496 -0.005430269 -0.017381541 0.07634522 0.077215336 -0.032422446 0.072525375 -0.06456466 0.08491516 -0.047246456 -0.105529055 0.034406394 0.00206774 0.068038315 -0.06141594 0.04788529 0.0065847696 -0.21785173 -0.12964024 0.052685652 0.0390569 -0.012635994 0.08389264 0.11408511 -0.050272264 -0.0138244545 -0.12691073 -0.2555877 0.028276017 -0.016502544 0.09199023 -0.047819905 0.15975669 -0.17263027 0.0071898676 0.122804224 0.09121659 0.11371429 -0.092900135 0.3138087 -0.11643087 -0.07329224 0.3100675 -0.08600549 -0.072451025 -0.010030505 0.08200421 0.110712446 -0.034852065 -0.111286856 0.22911984 -0.35669082 -0.19012111 -0.10137911 0.09180334 0.09402426 0.056506477 0.0044088513 0.091212444 -0.0776284 -0.12975207 0.026133308 -0.058032118 -0.07356978 0.0013315082 0.17126676 -0.004696123 -0.3207021 -0.16835654 -0.066029795 0.1843132 -0.23064029 -0.036204007 -0.057242364 0.038209375 0.08660466 0.025259586 0.06911751 -0.046511777 0.2577276 -0.018364044 -0.07705903 -0.10005075 -0.045645256 -0.030081118 -0.064481206 0.10932271
31 -0.024692504 -0.14053886 0.12750423 -0.08151661 -0.036734313 -0.112795934 0.083346486 -0.24562873 -0.06015841 0.1211887 0.16888174 -0.044049863 -0.04055461 0.01794457 0.032084405 0.44674087 -0.06751229 -0.11716849 -0.17356849 -0.13149208 0.08277814 0.09945055 -0.17711686 0.007206899 -0.09850179 -0.15337306 0.042327236 0.12520275 0.11187295 0.055364124 0.21511085 0.008186836 -0.18300779 0.11279203 -0.054539222 0.042750925 0.092745274 0.034633424 0.07127146 -0.10917142 0.029077705 -0.128985 0.06151081 -0.10559243 0.12095822 0.05954394 -0.15957014 -0.028828355 -0.014935074 -0.017204799 -0.09065889 -0.07414695 0.21758723 0.10251647 0.036286093 0.04191646 0.054024156 0.073019885 -0.2864906 -0.21260649 0.097180426 -0.07635427 -0.03625248 0.13299194 -0.0881758 0.17174424 -0.1269725 -0.014015904 -0.08491915 -0.039150033 -0.06212941 0.03321556 -0.17754735 0.19937174 -0.18619739 -0.038703963 0.109872505 0.08314952 -0.005890164 0.13387068 0.27094388 -0.11192584 -0.018906808 0.2718658 -0.038609814 0.097591035 -0.13530032 0.14151531 0.054286387 -0.11713035 0.14396116 0.12107823 -0.29365492 -0.21788111 -0.06348119 0.099778205 0.078696676 -0.060471337 -0.05916224 -0.013938215 0.013323834 -0.03712513 -0.026235325 -0.016981421 -0.11941619 0.06745059 0.13301201 -0.10342967 -0.13295324 -0.032011233 -0.03747418 0.11848137 -0.22187968 0.17916398 -0.06486827 -0.005977187 0.0048456816 -0.06536016 -0.0866963 0.058905475 0.122371465 -0.10327899 -0.036349546 -0.25868544 -0.098999664 0.039139356 0.038071916 0.15649377
3 0.09524515 0.06628959 0.021273986 -0.025775215 -0.11296816 -0.22259878 -0.1139273 -0.26204288 0.086965255 -0.035637416 -0.045383252 -0.10879802 0.13591634 0.13481605 0.055920087 0.0063547175 0.07376559 -0.08963113 -0.059641697 -0.034366373 0.11082159 -0.1124893 -0.16903841 -0.01283156 -0.4085843 -0.22807558 -0.07335218 0.17056903 -0.107542135 -0.111589305 0.28199023 -0.22089727 -0.02650133 0.06819577 0.011114874 -0.030970696 -0.034276374 0.03198741 0.0116879465 0.077472016 0.1391434 0.021911524 0.18101878 0.04138293 -0.045998108 0.14197864 -0.03386798 0.062074736 0.028272657 0.11969235 -0.03252396 -0.26617825 0.24491526 0.04748397 0.054330345 0.0042730053 -0.14091487 0.10159747 -0.13001683 -0.06704066 0.1836164 -0.27136314 -0.09743181 0.013960951 -0.18397662 0.14122146 -0.09379194 0.09111036 0.015554735 -0.24345616 -0.3923823 0.23584056 -0.2786122 0.15324475 -0.18622829 0.1443384 0.19531555 0.02478013 0.06072435 -0.04094251 0.23510787 -0.20437118 -0.04025034 0.48323587 -0.23261176 -0.13447069 -0.21623585 -0.033861615 0.37353262 -0.35948876 0.14776675 0.103346124 -0.1488246 0.0065318416 -0.07866997 -0.033134997 0.08200131 0.18662511 0.06461209 -0.018323928 -0.111129396 0.15911695 -0.13067718 -0.16039771 -0.11663865 -0.0629686 0.10120546 -0.099263646 0.07069468 -0.035128526 0.07158535 0.13498168 -0.10710629 -0.11036557 -0.058803145 -0.06141921 -0.09790036 0.07550561 -0.059897922 0.031008195 0.1263022 0.041360293 0.009402742 -0.21948604 -0.19384304 -0.035434153 0.04320168 0.07945522
2 0.0888747 0.069176234 0.029542366 -0.034981932 -0.11598085 -0.21619765 -0.08245232 -0.26403064 0.08643208 -0.037381917 -0.023226814 -0.117259674 0.14628813 0.13230237 0.06026165 0.04388403 0.07772627 -0.07069892 -0.08649985 -0.044770822 0.09688924 -0.10205148 -0.1717526 0.0068066493 -0.398708 -0.20686094 -0.06675068 0.18225819 -0.08540301 -0.093201526 0.26764104 -0.21165207 -0.016553475 0.08087095 0.031077439 -0.013055117 -0.016551128 0.008617998 0.021870367 0.048350774 0.14313298 -0.020420289 0.17043702 0.021041425 -0.036187395 0.14826214 -0.030083766 0.05681464 0.006177023 0.11582554 -0.032984607 -0.23073833 0.21265188 0.039160777 0.05407377 0.0065060426 -0.12683137 0.09455955 -0.14002939 -0.0749627 0.15991318 -0.2612169 -0.099310964 -0.0033557524 -0.15532255 0.12574337 -0.09672648 0.054474153 -0.0069119018 -0.20921943 -0.36605617 0.23438731 -0.26799366 0.17311856 -0.17541164 0.13132006 0.1910825 0.0286368 0.0596091 -0.05758906 0.26721877 -0.19132288 -0.025351321 0.4772181 -0.22110347 -0.12602922 -0.18613829 -0.011345304 0.37496915 -0.33963436 0.12192385 0.11013211 -0.180802 -0.028129485 -0.07628912 -0.02734356 0.095249 0.18237421 0.055052985 0.0037098983 -0.10132576 0.12813592 -0.109574296 -0.16213143 -0.12100709 -0.03492519 0.11197767 -0.10648111 0.017017327 -0.07312184 0.034713026 0.15429191 -0.13606705 -0.086134456 -0.06709534 -0.03997089 -0.07875207 0.08444255 -0.045599803 0.019570088 0.124839835 0.014361165 0.009400051 -0.2058213 -0.1770955 -0.05023952 0.02129279 0.074429005
39 -0.054414555 -0.051403917 0.11710218 -0.15062873 -0.051644925 -0.104195446 0.060765594 -0.22080535 -0.021952305 0.2132066 0.17629755 0.0122338105 0.09152553 -0.16927475 0.18211125 0.3383895 0.14615117 0.18780078 -0.1428994 0.092513174 -0.056248177 0.040830757 -0.13871521 0.15891194 -0.086575836 0.19853158 0.1431483 0.15040483 0.15415701 0.115706794 0.007917623 -0.013647759 -0.06659986 0.12707213 0.0653269 -0.004040351 0.031497307 0.12085423 0.16685882 -0.14789197 0.05907084 -0.22329864 -0.023181004 -0.045111068 0.11459801 0.09830171 -0.038311835 0.1109704 -0.055753138 0.11579262 -0.023012044 -0.14815265 0.021453697 0.051308297 0.04172509 0.007807517 0.065257356 -0.009095375 -0.1973385 -0.13337535 0.058677994 0.109150216 0.02066211 0.116918996 0.18516545 -0.031364627 0.014823133 -0.19222192 -0.32317472 0.08047313 0.012512149 0.1291959 0.024416463 0.17877795 -0.1742295 -0.08760551 0.15696406 0.0877821 0.09198064 -0.11629266 0.29956207 -0.103703246 -0.13255863 0.3510002 -0.1641699 -0.06023031 0.020728681 0.15178193 0.039680883 -0.00021458691 -0.16171275 0.25916356 -0.38146126 -0.20001225 -0.105327345 0.13176303 0.10631659 0.07287133 0.015844787 0.024341585 -0.14866278 -0.14246623 -0.009030578 -0.042142678 -0.054206815 -0.009288704 0.20569654 0.0045029204 -0.3577281 -0.20625153 -0.05137261 0.22079803 -0.26868248 -0.13461076 -0.066273406 0.005618487 0.11575446 0.002759384 0.09504885 -0.07660604 0.3004359 -0.020742495 -0.05909383 -0.10050801 0.0066914503 0.0140769025 -0.09074559 0.09273272
72 -0.006385145 -0.11525502 0.13704394 -0.097411446 -0.06779419 -0.124494135 -0.0043046293 -0.24713461 -0.0513243 0.17302263 0.16668944 0.04029618 -0.00074651884 -0.051957514 0.090401776 0.2608019 0.021632062 0.043162864 -0.115053214 0.002456975 -0.0014164923 0.03980486 -0.11835202 0.035684835 -0.08180091 0.017994467 0.072360836 0.08562669 0.08857424 0.035875794 0.12927522 -0.01989222 -0.13633625 0.11330405 -0.051378362 -0.02934849 0.060254395 0.10661683 0.10078102 -0.06596756 0.015708787 -0.10052881 0.025046367 -0.032789584 0.07476547 0.045093857 -0.053438313 0.038241856 0.013423426 0.015896419 -0.053928062 -0.15951467 0.11764545 0.059152905 0.023848547 0.015742257 0.016561627 0.032658882 -0.16128239 -0.15229477 0.13720788 0.043249078 -0.010652771 0.14710982 0.03965386 0.06572009 -0.045863748 -0.045959953 -0.1762425 -0.01052338 -0.09787714 0.07467041 -0.07474575 0.11147905 -0.15881221 -0.05452406 0.12557195 0.09878855 0.031118201 0.005570911 0.1985428 -0.11274016 -0.09065033 0.30286214 -0.097521774 -0.005050199 -0.12228294 0.124187104 0.034116264 -0.10353681 0.037184946 0.1685416 -0.28139386 -0.14671572 -0.06675772 0.08727979 0.070795596 0.061921287 0.03526032 -0.03468607 -0.08435561 -0.03792477 -0.056761887 -0.09111281 -0.092632264 -0.0054732235 0.18107334 -0.014984006 -0.15491976 -0.04779726 0.017441826 0.13330929 -0.19143914 -0.027107487 -0.058369987 -0.02652778 0.00063928484 -0.010015757 -0.014599253 -0.018924363 0.19816908 -0.030432122 -0.044089876 -0.19362704 -0.06629544 0.037451506 0.03592192 0.1479529
43 0.013423944 -0.05458273 0.11067824 -0.09646446 -0.07410079 -0.169681 -0.022076253 -0.24897674 -0.009790557 0.07857489 0.12396514 0.022217462 0.05926229 -0.032027625 0.10545178 0.20910664 0.06293091 0.0634862 -0.09633613 0.0050642705 -1.5615486e-05 -0.0039520147 -0.122090034 0.05863015 -0.1620374 0.026312593 0.052395005 0.1167627 0.058055904 -0.017949292 0.15897214 -0.08489448 -0.06524973 0.11010613 -0.021383163 -0.05205727 0.02549307 0.08782694 0.06790225 -0.054710053 0.058621626 -0.09926309 0.05617714 -0.002353337 0.055835348 0.09827233 -0.037338708 0.043197073 0.005348103 0.05569836 -0.032010045 -0.17755486 0.10331563 0.027540274 0.024486266 0.005297065 -0.023829987 0.037936665 -0.16624594 -0.10054331 0.14814451 0.004246711 -0.020123998 0.1058471 0.024375962 0.028795924 -0.008039418 -0.051420484 -0.15392628 -0.033915196 -0.17660713 0.11728473 -0.097620726 0.12084403 -0.1468813 0.0065640155 0.145098 0.11436288 0.07171187 -0.062289413 0.22057122 -0.1173696 -0.10524313 0.35164592 -0.13691694 -0.06394612 -0.12558502 0.09018106 0.13712703 -0.15982509 0.039758366 0.18787093 -0.2816834 -0.12194699 -0.051329385 0.06012305 0.07559535 0.12623306 0.04700248 -0.0024856203 -0.10791454 -0.012018918 -0.059639268 -0.11863159 -0.08116015 -0.014481443 0.19258188 -0.01143821 -0.14210628 -0.087775275 0.0016907046 0.15633981 -0.18465436 -0.06626556 -0.07704727 -0.018551372 -0.010583749 0.04959609 0.010288809 -0.035760105 0.19591512 -0.015209116 -0.04222948 -0.16292423 -0.10022807 -0.016023053 0.0071117305 0.1291708
42 0.04525854 -0.061339438 0.17316468 -0.09572495 -0.09739811 -0.13166927 -0.020574205 -0.24119236 -0.07602169 0.10049137 0.15918711 0.02913583 0.042222124 -0.096820645 0.14721198 0.24184865 0.063767195 0.012263812 -0.07895212 0.017545925 0.0055140085 0.0061723194 -0.11504969 0.07339316 -0.12385198 0.027881049 0.09237251 0.118932575 0.06958071 -0.012078398 0.11266079 -0.042370513 -0.0822036 0.10854648 -0.029974207 -0.033368465 0.0067440667 0.09354621 0.08963784 -0.01876488 0.037982296 -0.11582558 0.044148464 -0.06028219 0.09896748 0.11284582 -0.09598615 0.034730047 0.008663975 0.06558425 -0.018625796 -0.17265223 0.13893491 0.093293495 -0.015041584 0.07975689 0.015805261 0.034469575 -0.17547633 -0.111241095 0.11135473 0.02904066 0.010765032 0.12412125 0.02990415 0.07915033 -0.012580913 -0.08119463 -0.13805686 0.009532475 -0.13664998 0.11277265 -0.06765651 0.14297841 -0.11474672 -0.08350907 0.15134956 0.109739766 0.025857555 -0.034551855 0.20799358 -0.08655443 -0.13159496 0.3507203 -0.17335084 -0.006498611 -0.10389212 0.13762727 0.066711165 -0.1407968 0.042927526 0.15751502 -0.2617438 -0.14297228 -0.028911782 0.08511387 0.070112534 0.091918655 0.018982934 -0.05538248 -0.13106629 -0.01678413 -0.079956636 -0.06034549 -0.07422883 0.0033661118 0.18409261 -0.038126428 -0.12310361 -0.0943307 -0.008927721 0.16750777 -0.1931724 -0.06876334 -0.07374109 -0.032903187 0.012714968 0.021547118 -0.0020894324 -0.04021346 0.1820646 -0.034819197 -0.020276684 -0.16331117 -0.073187724 0.010157433 -0.032569524 0.091253236
47 0.2565919 0.18340448 0.22749995 0.018990416 -0.25675964 0.14249106 0.08417602 -0.1773621 -0.12837249 0.48714286 0.16504785 -0.22089458 0.28624097 -0.10556408 0.21556586 -0.0437985 0.2448872 -0.11405714 -0.08417493 0.20672464 0.06306557 -0.09148242 -0.23816496 0.13548474 -0.18600158 0.17087474 0.13749817 0.2348458 0.09041335 0.15435472 -0.15268101 -0.094323255 -0.26575115 0.18673493 0.15523677 0.046579286 0.0686221 -0.021862287 0.30200267 0.13343568 0.047636174 -0.21162759 0.07693642 -0.14932439 0.09030397 0.06923474 0.09563584 0.27539662 -0.09455014 0.25009796 0.13748406 -0.177895 0.05702737 0.30092666 0.02824859 0.36685607 -0.038962744 -0.1750751 0.0121320635 -0.15539366 -0.1405019 -0.11804613 -0.096827574 -0.046483163 0.09109333 0.2924473 -0.14051634 -0.24029827 -0.18386272 -0.042561904 0.0015665821 0.37778014 -0.044768427 0.43147236 -0.2162167 -0.3635494 0.23366004 -0.24430957 -0.08007874 -0.10624192 0.20367572 -0.16180281 0.029437728 0.3441272 -0.32802042 -0.11150032 0.10263793 0.27770558 0.05806529 -0.04121778 -0.1530904 0.08921566 -0.2459882 -0.066650264 -0.35928023 0.14733176 0.24282077 0.06150428 0.05135186 -0.26994348 -0.21596259 -0.09053456 -0.1280045 0.02399482 -0.037602495 -0.090968736 0.046830636 -0.23459549 -0.2189998 -0.3351033 -0.06834189 0.3253961 -0.26532647 -0.25910187 0.010630402 0.01595827 0.20989078 -0.048339207 0.094763696 -0.06525684 0.16043204 -0.10008868 -0.016553568 -0.2783924 0.15098003 0.22090732 -0.06889317 -0.14706571
56 -0.012231272 0.042520087 0.05317643 -0.11137171 -0.086418696 -0.08371458 0.04442291 -0.21140333 0.021773495 0.15732528 0.1008063 -0.059913483 0.13968155 -0.073144905 0.15014346 0.22859986 0.17327635 0.18251973 -0.14179796 0.08631578 -0.024764162 -0.03367555 -0.1317885 0.16812755 -0.1899026 0.14095354 0.110848956 0.1754457 0.084855564 0.088427566 0.013330603 -0.060234476 -0.02098468 0.11129576 0.13007331 0.04084806 0.015241985 0.04435244 0.12681729 -0.09885861 0.07842895 -0.22242099 0.0023565313 -0.04749477 0.046043903 0.08523472 0.015007842 0.11289603 -0.06441358 0.12266164 -0.011564699 -0.11877773 0.017925415 0.06051005 0.055389684 0.014228691 0.030057546 -0.020292666 -0.12126755 -0.099094555 -0.009760336 0.033611078 -0.022239534 0.04364032 0.13727868 -0.045120724 -0.03255318 -0.16544636 -0.25971785 0.05653411 -0.059117988 0.18935548 -0.0127612455 0.19338961 -0.15866058 -0.06889845 0.14080614 0.046612147 0.106852725 -0.16841722 0.30646813 -0.09288986 -0.10065445 0.3496336 -0.15625025 -0.08226275 0.027449628 0.0870476 0.1099007 -0.044328287 -0.19416639 0.19791149 -0.33106157 -0.111712046 -0.13332874 0.08414984 0.09561738 0.1241 0.048937272 0.034902576 -0.13207738 -0.13646203 -0.01829928 -0.07939877 -0.07796176 -0.018245444 0.14652233 -0.047058366 -0.30319548 -0.23670372 -0.08071886 0.21295705 -0.22616652 -0.16681954 -0.020226512 0.012834947 0.11448736 0.035635553 0.11309366 -0.058807746 0.2518926 -0.0333976 -0.03972714 -0.07894985 -0.0028550741 -0.035118602 -0.12300903 0.043114696
52 -0.11773076 -0.06737903 0.05419 -0.16479929 0.023254301 -0.15497883 0.10212771 -0.18920214 0.03343288 0.064445734 0.13447262 0.0013927945 0.10871718 -0.13716313 0.1656273 0.4180417 0.11867202 0.16542792 -0.13710271 0.020576403 -0.046751827 0.05236243 -0.15497096 0.15520567 -0.10021778 0.15804668 0.10156533 0.15513419 0.16379927 0.08647445 0.064512365 -0.04426799 0.0021169428 0.09689482 0.08692349 -0.030744819 0.007732035 0.0945322 0.1168547 -0.21432865 0.1176979 -0.22676992 -0.011193303 -0.016449071 0.13762835 0.17587963 -0.1030587 0.07740591 -0.09363987 0.12961015 -0.029682098 -0.13708626 0.040434007 -0.03258981 0.046056803 -0.05371609 0.06397813 0.030096637 -0.29994923 -0.095245235 0.07050546 0.037132643 0.024989178 0.087062284 0.13905448 -0.07177823 0.059028443 -0.17769836 -0.26306117 0.04123936 0.010736771 0.080699176 -0.029815959 0.16156144 -0.14701423 0.030573877 0.15476263 0.11849017 0.14888346 -0.114936054 0.3330026 -0.09940612 -0.105140686 0.32866836 -0.14746994 -0.09775226 0.032015365 0.103335075 0.13764341 -0.023486985 -0.09797977 0.28946972 -0.36680368 -0.23633064 -0.04953524 0.101216175 0.105091676 0.035099126 -0.036649562 0.113757156 -0.11169502 -0.124454945 0.05087581 0.011077653 -0.030706044 0.008953129 0.19159856 0.036201734 -0.33621377 -0.20092422 -0.0758125 0.2233022 -0.25439575 -0.04259647 -0.10788659 0.047079932 0.109811164 0.039160438 0.073795274 -0.08327049 0.30074102 0.005793993 -0.07795064 -0.059883747 -0.05114018 -0.041358512 -0.11335635 0.10624867
44 0.01932111 -0.16935532 0.15784808 -0.08059489 -0.04850086 -0.25168625 -0.07364112 -0.27149332 -0.01891562 0.12762097 0.15180328 0.090484336 -0.008686421 0.026750695 0.04537724 0.15715817 -0.024470625 -0.012588354 -0.09490542 -0.042074017 -0.0019790686 0.047489397 -0.12939897 -0.09548512 -0.14003184 -0.05776702 -0.046044674 0.054944158 0.058558524 -0.061279748 0.28066224 -0.11182035 -0.17031154 0.12740643 -0.15847665 -0.144258 0.10095212 0.1465537 0.07828387 -0.024977617 0.06038887 -0.0027338879 0.0895584 0.08826094 0.045024693 0.05132514 -0.013667649 0.04415079 0.04812056 0.016293127 -0.048974253 -0.26551417 0.14934169 -0.018505193 0.040578593 -0.032673612 -0.09399218 0.062804 -0.1766832 -0.14510565 0.32047358 -0.02803104 -0.046672832 0.17801318 -0.05198037 0.116943486 -0.015295854 0.064193524 -0.10065293 -0.17362487 -0.2708322 0.0838511 -0.20469764 0.0591923 -0.19068927 0.10175314 0.15676555 0.12799455 0.027475424 0.030931799 0.12816763 -0.20980075 -0.05696769 0.34349933 -0.09799754 -0.1222208 -0.26001966 0.08595456 0.1602956 -0.2412031 0.21884558 0.18942663 -0.24065211 -0.14325881 -0.055073306 0.053758275 0.08591119 0.13269101 0.08299627 -0.04299365 -0.07194405 0.08128913 -0.08977081 -0.18109934 -0.073628716 -0.03766991 0.2328966 0.05700456 -0.04666998 0.078046665 0.1077346 0.12367146 -0.15485965 0.019172577 -0.12574542 -0.03162456 -0.12647337 0.045164164 -0.098537266 -0.019142041 0.16130215 0.021548316 -0.07707077 -0.25856248 -0.18035464 0.04274615 0.17112814 0.21754092
12 -0.0032776461 -0.13042684 0.107777424 -0.07043093 -0.0428251 -0.12873943 0.032985013 -0.2517611 -0.028605314 0.11718507 0.13178429 -0.033755653 -0.027983615 0.038322277 0.031760592 0.33583704 -0.051460646 -0.10793925 -0.14532414 -0.0998396 0.07721522 0.07085863 -0.16630706 -0.021445284 -0.13820764 -0.15906613 0.012652932 0.10701858 0.07240731 0.030159766 0.2218574 -0.02553341 -0.17953211 0.10318088 -0.06566961 0.013709479 0.08081303 0.060104176 0.071604535 -0.07502089 0.033931255 -0.07988136 0.08024621 -0.05207535 0.074489914 0.051904984 -0.119704716 -0.0025643022 0.008026001 -0.003083295 -0.08495561 -0.12642772 0.21242642 0.08617937 0.045725647 0.020962287 0.013999993 0.074901395 -0.23438437 -0.19549371 0.1345135 -0.0943076 -0.04497745 0.12532714 -0.09548578 0.17134297 -0.11771125 0.026197234 -0.0777783 -0.09266218 -0.12084725 0.06035465 -0.18510236 0.16222537 -0.19180785 -0.0005842417 0.11799321 0.06676661 0.0024279593 0.11147279 0.24128115 -0.14879525 -0.019680321 0.30401406 -0.05869636 0.037385132 -0.1668743 0.10446017 0.099477954 -0.15742363 0.15298524 0.11069869 -0.25913027 -0.17097913 -0.07199309 0.076201916 0.08321004 -0.013117957 -0.024138259 -0.031065013 -0.011181414 0.0091927275 -0.050664596 -0.06684011 -0.118654035 0.028844973 0.1286369 -0.08873384 -0.08420138 -0.0031033098 0.00826719 0.11196565 -0.18941996 0.11664286 -0.0636933 -0.02713272 -0.028031731 -0.047636174 -0.09044492 0.05438715 0.13428521 -0.061084077 -0.03160281 -0.2658784 -0.11253991 0.045051657 0.07872605 0.15918396
73 0.107102364 0.11610132 0.10860475 -0.054920208 -0.2484176 0.009477601 0.026008274 -0.26182324 -0.020691775 0.41432756 0.12955552 -0.18448006 0.13106659 -0.04696784 0.10978988 0.045270797 0.2349928 0.16568372 -0.19388168 0.17174971 0.0072280634 -0.08066923 -0.14671075 0.1831694 -0.23243989 0.08641116 0.13721618 0.22655639 0.037134115 0.16588168 -0.0659571 -0.010522549 -0.11667188 0.14729716 0.15467422 0.17997345 0.07485062 -0.0020611782 0.22086105 0.017440904 0.0035799758 -0.22238512 0.0108431475 -0.1552945 -0.04090405 -0.07308967 0.14854126 0.1533625 -0.014635066 0.089595996 -0.007828294 -0.0844573 -0.0013647197 0.2183171 0.062588245 0.16158709 0.025812427 -0.051511675 0.09298528 -0.1935093 -0.09103492 0.02881914 -0.0784931 0.0145742595 0.14027092 0.07643812 -0.19861528 -0.16165145 -0.3157244 0.07788367 -0.037120994 0.31173313 0.0221526 0.27928746 -0.23247983 -0.24757476 0.15067412 -0.10143314 -0.023317723 -0.13379762 0.33426672 -0.08067962 -0.030419523 0.3675565 -0.14646432 0.011602437 0.0056639006 0.15273115 -0.021959867 -0.022771787 -0.3406672 0.072462775 -0.31412667 -0.038093153 -0.26364318 0.10863812 0.10739883 0.17046908 0.12793578 -0.06972589 -0.13494578 -0.16768123 -0.110839844 -0.16217628 -0.14667934 -0.00076351623 0.09785643 -0.17330316 -0.3211709 -0.25685105 -0.075867414 0.21045005 -0.23976462 -0.27173477 0.09847967 -0.05161785 0.14522769 -0.03837865 0.13164863 0.0004894404 0.18242222 -0.09240094 0.01851657 -0.15122771 0.08982413 0.062082656 -0.07891729 -0.009085416
33 0.025591167 -0.12044098 0.13871895 -0.07967805 -0.057769924 -0.16507901 -0.041599363 -0.25168332 -0.03178546 0.13244528 0.12875116 0.035506837 -0.0041063917 -0.012541108 0.074644946 0.1940193 -0.0068123527 -0.034888845 -0.08003196 -0.016372342 0.029885149 0.030313903 -0.13445738 -0.034475803 -0.12642604 -0.056359656 0.01281497 0.07599829 0.044509497 -0.0143016875 0.20066577 -0.07655671 -0.13978389 0.10025541 -0.096683726 -0.07439212 0.058052827 0.12113418 0.08159186 -0.016290912 0.04650945 -0.01861287 0.084872656 0.020773001 0.056467902 0.07384278 -0.07981613 0.045392133 0.038623344 0.03346743 -0.045507822 -0.23188658 0.18006001 0.043133147 0.03149765 0.01175859 -0.028929427 0.05258755 -0.17359369 -0.14452367 0.22216034 -0.050747547 -0.024787774 0.15703912 -0.043852724 0.12726037 -0.04620336 0.02376972 -0.1094713 -0.11758237 -0.1816269 0.08811251 -0.14838146 0.09900787 -0.17868078 0.014758836 0.15185006 0.08235696 0.021121278 0.046913978 0.17277932 -0.16968364 -0.06963546 0.34213537 -0.12896508 -0.045746617 -0.18845311 0.09471532 0.11499088 -0.186432 0.13727905 0.16198727 -0.24185292 -0.1241932 -0.061330136 0.0653638 0.07361041 0.077223405 0.045183867 -0.061780043 -0.088694215 0.052954003 -0.086302795 -0.10400276 -0.08135025 -0.04007397 0.18531783 0.001877548 -0.059283204 0.015350344 0.07871835 0.1226796 -0.16706605 -0.02693526 -0.08887193 -0.04620909 -0.06089889 -0.0073819044 -0.07373681 0.0026759566 0.1942705 0.012526832 -0.035695855 -0.24634974 -0.12532379 0.047225635 0.10310284 0.16245593
74 0.10520303 0.0997112 0.09984327 -0.055242956 -0.23677666 -0.01323774 -0.0023138572 -0.26703936 -0.01296491 0.40081346 0.11446111 -0.16578667 0.10824873 -0.025010955 0.08987209 0.021620994 0.19490443 0.14607738 -0.18774343 0.15570755 0.025927382 -0.075518124 -0.13768046 0.1460007 -0.24168617 0.045996156 0.108634695 0.20612691 0.017382298 0.14247671 -0.031427372 -0.01114714 -0.1239433 0.12930538 0.12294487 0.16787502 0.07699655 0.007782687 0.20291623 0.034411766 0.00033148442 -0.17605385 0.021505779 -0.12814042 -0.05561613 -0.08102954 0.14401785 0.14236072 0.0051461286 0.06708892 -0.019768467 -0.11258363 0.017880587 0.20505597 0.060866654 0.13704507 0.014827288 -0.035907187 0.09593579 -0.19796945 -0.049776632 0.024627887 -0.087063454 0.036284473 0.122095585 0.08321781 -0.20655929 -0.11537816 -0.29750538 0.05636627 -0.06953903 0.28698078 0.0013965208 0.24231844 -0.2433502 -0.20622365 0.13495326 -0.089553304 -0.03030973 -0.10995475 0.3011137 -0.09308077 -0.031157862 0.36728895 -0.12872635 0.008590889 -0.027721277 0.12490315 -0.01722902 -0.049823977 -0.30214882 0.06752759 -0.29705766 -0.019042056 -0.25575915 0.08897157 0.09671328 0.17063414 0.14073333 -0.0755293 -0.12513837 -0.13450105 -0.11945856 -0.18591669 -0.14585835 -0.014689153 0.096280985 -0.14955021 -0.27193657 -0.20555364 -0.039942946 0.17931038 -0.21806028 -0.2629877 0.103044845 -0.068382636 0.09984513 -0.04705389 0.113583535 0.028701754 0.177252 -0.07823088 0.018544333 -0.15943764 0.06819159 0.064558856 -0.03781794 0.009693853
50 -0.019906564 -0.08652869 0.12499342 -0.116623156 -0.052258678 -0.086562425 0.040298447 -0.22327107 -0.03751649 0.19456084 0.16665187 0.0067545087 0.03011944 -0.08972127 0.12089811 0.31190038 0.055868316 0.07135881 -0.13561445 0.025536647 -0.013803373 0.04664294 -0.1306348 0.073232576 -0.078806415 0.07713725 0.104023084 0.11537122 0.12728247 0.08944636 0.07590013 -0.012703787 -0.12908152 0.11123647 -0.0017390342 -0.0019246242 0.057721578 0.09673412 0.13054809 -0.10322668 0.0339267 -0.15976772 0.011276336 -0.044606704 0.093878105 0.059265997 -0.06848566 0.06289466 -0.02362408 0.051429074 -0.0377702 -0.14072062 0.09584222 0.07343336 0.030707253 0.025564926 0.046425264 0.0035710365 -0.1848833 -0.14987974 0.082554795 0.05678276 0.0023983254 0.12895687 0.07913346 0.042603686 -0.03604132 -0.09948402 -0.20473456 0.023460936 -0.022214502 0.08790287 -0.03488959 0.1490917 -0.15942387 -0.077760525 0.12663423 0.07269717 0.050407186 -0.02266745 0.22844817 -0.09959368 -0.090717286 0.28666523 -0.09811407 -0.014697876 -0.053752564 0.13141839 0.018700412 -0.041390803 -0.039995223 0.18087767 -0.30154642 -0.16681062 -0.08879376 0.111030765 0.08688698 0.031156091 0.011410415 -0.020898461 -0.084754005 -0.08968032 -0.020618318 -0.04100491 -0.06685721 -0.009655385 0.16205606 -0.020447893 -0.22280435 -0.099899165 -0.019652564 0.15953079 -0.21145903 -0.03710228 -0.051050972 -0.0074746786 0.062354498 -0.020261444 0.021155914 -0.032868963 0.222202 -0.026091594 -0.050972436 -0.15229683 -0.02839823 0.03364573 -0.01733317 0.10792792
30 -0.036229428 -0.18227962 0.12889855 -0.07553845 -0.047437202 -0.10092044 0.1338531 -0.28191337 -0.0744503 0.12880242 0.18810733 -0.084831454 -0.076122105 0.064756595 -0.005966996 0.5686467 -0.11538921 -0.20094329 -0.22683057 -0.21540463 0.13332286 0.13182358 -0.21994086 -0.00013165397 -0.11219595 -0.26137212 0.031354204 0.15684052 0.13709521 0.084946975 0.26579142 0.049465995 -0.26020715 0.12463319 -0.0631069 0.10647493 0.125252 -0.010643037 0.06968575 -0.14125548 0.014739491 -0.1594953 0.07775464 -0.16509539 0.14191034 0.039334774 -0.20173965 -0.07895039 -0.027616655 -0.05328964 -0.1293905 -0.011241319 0.27632844 0.15863037 0.042465173 0.05950857 0.087411046 0.10279357 -0.3459851 -0.29119682 0.061001558 -0.117144726 -0.05842811 0.13664743 -0.14655204 0.24826114 -0.19908713 0.012451777 -0.06511674 -0.04762166 -0.042738598 0.024648776 -0.22981307 0.25890413 -0.21877913 -0.06356884 0.102826364 0.07117681 -0.034549113 0.22257444 0.33314103 -0.12691109 0.02181744 0.26916832 0.019351803 0.17626873 -0.1684124 0.17572698 0.039300684 -0.124978125 0.19256791 0.08477495 -0.33578953 -0.2691558 -0.07741837 0.13240299 0.087335855 -0.12728608 -0.108791895 -0.0104231145 0.06702751 -0.055009916 -0.019946605 -0.008814392 -0.16613784 0.12622367 0.106793396 -0.1773317 -0.13998431 -0.024638746 -0.07056725 0.118809715 -0.25440463 0.31026727 -0.049361806 -0.00014842485 0.009269136 -0.10622729 -0.1178841 0.110746466 0.09055747 -0.17138025 -0.037061896 -0.32668057 -0.100065455 0.06299518 0.059498604 0.18514088
5 0.12517005 0.10724684 0.030596724 -0.044974145 -0.14806244 -0.30330402 -0.14489059 -0.32135412 0.11468247 -0.10723206 -0.055395495 -0.11488047 0.20630388 0.13623741 0.107830696 -0.016889697 0.12975991 -0.06825974 -0.054472994 -0.024694068 0.104901396 -0.15294728 -0.19784637 0.02289966 -0.52719927 -0.22205055 -0.0818061 0.21763147 -0.13837239 -0.17395648 0.32655418 -0.29687384 0.0403211 0.08961938 0.03834511 -0.06167535 -0.068249 0.03687604 0.003986166 0.08800167 0.19827393 -0.00075645465 0.22555453 0.05850051 -0.052535597 0.22451669 -0.04358343 0.08060931 0.016846824 0.1844035 -0.014794215 -0.33966902 0.2706535 0.032315504 0.05009246 0.007574106 -0.17930551 0.12607321 -0.16104008 -0.03698529 0.22248264 -0.31594384 -0.10454483 0.00037854083 -0.18747789 0.12926932 -0.071245946 0.06443374 0.0053558657 -0.2722414 -0.51784563 0.31838134 -0.3251349 0.19332118 -0.1981175 0.18787295 0.2564835 0.06261608 0.106366925 -0.12681954 0.30956954 -0.23157112 -0.08168255 0.63291776 -0.32933053 -0.19532032 -0.24426717 -0.042566217 0.5103251 -0.4665997 0.16375832 0.15535513 -0.19794466 -0.0014408381 -0.0636193 -0.0551735 0.10519596 0.27678207 0.08138695 0.0037151638 -0.17827708 0.19427483 -0.1564794 -0.20788361 -0.12418375 -0.0680703 0.15649213 -0.10403148 0.06475237 -0.08702147 0.067507684 0.19788864 -0.15774006 -0.17920236 -0.10082549 -0.058031227 -0.11604228 0.14942467 -0.048051894 -0.00079116056 0.17738871 0.052720256 0.014829204 -0.22774568 -0.25183 -0.08932021 0.0027406139 0.08567547
9 0.13547567 0.1079543 0.021852642 -0.025116762 -0.15728608 -0.30813712 -0.14779028 -0.32444346 0.12480543 -0.13295332 -0.082137376 -0.15220782 0.20622507 0.19240426 0.0724135 -0.023436707 0.102599986 -0.119700804 -0.07379748 -0.06795122 0.13505282 -0.1669234 -0.2065711 -0.010946304 -0.5633611 -0.31234956 -0.11904417 0.22636662 -0.15817577 -0.18109973 0.36934587 -0.3145159 0.015923578 0.09107432 0.034249842 -0.04469267 -0.06124702 0.012628574 -0.015979737 0.10550805 0.20625542 0.016053097 0.2494422 0.055123992 -0.065739624 0.21604338 -0.045326423 0.05573931 0.014879742 0.17333993 -0.029205134 -0.32605532 0.3005419 0.044013605 0.05708372 0.0021643827 -0.20078094 0.1376525 -0.1635574 -0.052964743 0.22482471 -0.37585443 -0.13026124 -0.024229653 -0.2516289 0.17101961 -0.11264029 0.10661897 0.05212503 -0.3120727 -0.54467916 0.314842 -0.37890083 0.20364623 -0.20231481 0.21743596 0.25720453 0.045769762 0.08584666 -0.08472443 0.31429356 -0.24847862 -0.04489479 0.6382476 -0.31931397 -0.1871618 -0.26954198 -0.058069568 0.5482532 -0.5079998 0.212269 0.1241894 -0.17935218 0.007375603 -0.068686016 -0.06577749 0.112934634 0.26712605 0.07228698 0.0025744434 -0.14653362 0.22187953 -0.16803446 -0.2183267 -0.14879176 -0.058227144 0.13335484 -0.13846727 0.1039501 -0.06613041 0.06987379 0.1806985 -0.15419444 -0.1299367 -0.09399456 -0.060059823 -0.13838379 0.13941051 -0.0806446 0.028632637 0.14830898 0.03457436 0.022029936 -0.26930463 -0.27086654 -0.088421024 0.0297944 0.08938546
6 0.12646641 0.11907302 0.0099227885 -0.039581742 -0.1528018 -0.3171258 -0.13745035 -0.3414041 0.14056987 -0.12584125 -0.07919323 -0.16601388 0.22211882 0.19125578 0.080587074 0.0061180233 0.11737365 -0.10031359 -0.0883539 -0.062009595 0.13410565 -0.16394933 -0.22291505 0.017779158 -0.5822996 -0.29593438 -0.10645619 0.24207741 -0.15255308 -0.16937174 0.3653394 -0.31719086 0.022832762 0.099974655 0.05767173 -0.03569807 -0.059472278 0.008675566 -0.004604322 0.077977456 0.2153203 -0.008778723 0.24243924 0.05114446 -0.06599445 0.22906756 -0.04016703 0.073677994 0.002600105 0.19067195 -0.036164407 -0.32202688 0.29391867 0.038018867 0.06313694 -0.0061953473 -0.19450966 0.14030153 -0.18552679 -0.056356885 0.21990523 -0.37789837 -0.13134931 -0.027730584 -0.23808682 0.15116082 -0.110333994 0.08404099 0.024763666 -0.30693978 -0.5409535 0.3347262 -0.37551323 0.2243847 -0.22205436 0.22183375 0.26704443 0.046932325 0.10726281 -0.10763995 0.3523343 -0.25588924 -0.04850197 0.663911 -0.32696265 -0.19806261 -0.25695732 -0.0518841 0.5648096 -0.503532 0.18446109 0.14615624 -0.20911354 -0.00832548 -0.089431636 -0.061764456 0.116582364 0.27015877 0.077225626 0.017606134 -0.15754819 0.20482728 -0.1602751 -0.22259335 -0.1547948 -0.062207576 0.13768013 -0.13683084 0.07098333 -0.09333461 0.05625681 0.20515352 -0.1680457 -0.13875023 -0.098021135 -0.056875627 -0.12043743 0.14994872 -0.060946938 0.016451415 0.16744894 0.04200588 0.011965102 -0.25820535 -0.2710812 -0.097355925 0.0070246453 0.09344079
4 0.13581602 0.116131045 0.015639503 -0.026700815 -0.15280394 -0.33075485 -0.14383514 -0.34370047 0.14483786 -0.16441798 -0.08811561 -0.17042525 0.21831203 0.21002395 0.069982864 0.0036652936 0.10406846 -0.13427418 -0.08145791 -0.08783652 0.15053698 -0.17178681 -0.23265651 -0.004263423 -0.606118 -0.34720147 -0.12980355 0.24684435 -0.16373801 -0.19210956 0.3973224 -0.32658875 0.027565008 0.09561698 0.044697866 -0.038004607 -0.06035359 -0.0035056549 -0.022402635 0.09063119 0.21813515 0.010519678 0.26193923 0.044910986 -0.06724177 0.24619508 -0.059717175 0.054783616 0.00848564 0.18506262 -0.03661499 -0.32749522 0.3167045 0.038249727 0.06478486 -0.0011711095 -0.21055886 0.15817246 -0.19757755 -0.05692578 0.22913185 -0.41400272 -0.14223424 -0.034235768 -0.27737042 0.17727558 -0.11814574 0.11167271 0.0665686 -0.3302134 -0.58009005 0.33402106 -0.4122317 0.22439915 -0.20853984 0.2406566 0.2678551 0.053398304 0.09497078 -0.09205761 0.34595054 -0.26086214 -0.038588926 0.6678185 -0.328736 -0.19185703 -0.27965754 -0.06790084 0.5929004 -0.5352596 0.23031758 0.12999603 -0.19209884 -0.004747349 -0.07141986 -0.07281363 0.11766423 0.27496272 0.06710137 0.02078761 -0.1455781 0.22938299 -0.16729411 -0.22561644 -0.15635873 -0.052988686 0.13835962 -0.1513557 0.10994388 -0.08408993 0.055632826 0.20155008 -0.1591204 -0.11809724 -0.104743145 -0.055356603 -0.14183766 0.16007236 -0.08653569 0.028424561 0.14269483 0.03788009 0.024217494 -0.2685186 -0.29575717 -0.09964853 0.014130014 0.09038255
7 0.13681903 0.09579996 0.024138425 -0.041186392 -0.14805143 -0.3270042 -0.17031479 -0.3462766 0.13327055 -0.099334195 -0.0704028 -0.13036501 0.20209666 0.1754265 0.08061162 -0.04387578 0.11120787 -0.10355819 -0.05660964 -0.036456943 0.12298124 -0.161308 -0.21291827 -0.021974254 -0.5603427 -0.2805085 -0.11903618 0.21324833 -0.16338928 -0.17892314 0.3819782 -0.3281478 0.006061315 0.091672674 0.016684467 -0.07869772 -0.06095657 0.056418475 0.0046921573 0.1049939 0.21319197 0.04069537 0.2529408 0.0933717 -0.07771919 0.21732448 -0.04215079 0.09105089 0.02684333 0.1849947 -0.032155465 -0.38347074 0.31369984 0.030357042 0.06715869 -0.017803203 -0.21631032 0.14219855 -0.16107796 -0.057310734 0.27875257 -0.3697211 -0.11999595 0.0043044337 -0.23666224 0.16374603 -0.09784398 0.12139585 0.02214122 -0.3397505 -0.56604344 0.32835805 -0.37672687 0.18338007 -0.22959867 0.23377796 0.27394393 0.052461438 0.10170982 -0.09652747 0.30759108 -0.27978593 -0.062020104 0.67360485 -0.3395958 -0.22146083 -0.2924557 -0.064075164 0.5574715 -0.5221201 0.21489953 0.1494365 -0.19359213 0.012269072 -0.08037441 -0.06791353 0.119310476 0.2891975 0.10149082 -0.013378512 -0.17681599 0.24072477 -0.1845294 -0.23486964 -0.14533478 -0.09213542 0.15673845 -0.10548444 0.108075984 -0.04592986 0.10292845 0.18671669 -0.15304475 -0.18299189 -0.1085518 -0.071535885 -0.15368646 0.14022104 -0.08034769 0.024758454 0.18718481 0.07708779 0.015305141 -0.27661735 -0.28095815 -0.0753474 0.057277925 0.11257438
1 0.14714481 0.106368564 0.040980183 -0.039731245 -0.1606271 -0.31807292 -0.16501515 -0.33578587 0.1127226 -0.11610966 -0.061550245 -0.122694194 0.20783721 0.159622 0.09824054 -0.037135556 0.11866366 -0.084583804 -0.06354416 -0.03786025 0.112273164 -0.169723 -0.19985461 0.0032346123 -0.5517044 -0.26618642 -0.098179504 0.22516356 -0.15632841 -0.18884403 0.35258162 -0.31335747 0.024641229 0.10210364 0.027791318 -0.062453784 -0.064900264 0.03362961 -0.008211268 0.110674776 0.19823258 0.017452668 0.23471901 0.054949697 -0.06767863 0.22652902 -0.03545971 0.067810066 0.021923611 0.17739128 -0.0182357 -0.34439638 0.28256264 0.036029488 0.04870276 0.011872378 -0.20380183 0.13167043 -0.15419018 -0.045812793 0.23816523 -0.33964276 -0.11325112 -0.0055014673 -0.21387082 0.14934808 -0.088282816 0.0837259 0.02153803 -0.2884591 -0.5555311 0.32149002 -0.3509494 0.19516054 -0.19332856 0.203788 0.26224783 0.060225353 0.09084833 -0.11523585 0.30641282 -0.23797184 -0.071660765 0.6527241 -0.33393037 -0.19388951 -0.2738299 -0.046940472 0.5326524 -0.5035054 0.1913895 0.13726333 -0.19291961 0.0098566115 -0.06234136 -0.06646749 0.1100058 0.29021266 0.091989145 -0.011391723 -0.17310475 0.21825749 -0.17118908 -0.23330784 -0.14322886 -0.06878626 0.15740316 -0.11670137 0.09189106 -0.07709302 0.073373996 0.19267832 -0.155637 -0.17104335 -0.105572864 -0.0674995 -0.13593172 0.15710722 -0.06770219 0.0061053643 0.1640537 0.048731614 0.0217714 -0.2510007 -0.26516023 -0.09218311 0.021931758 0.09209924
