77 128
11 0.053609617 -0.11517615 -0.0011553834 -0.11612068 0.023005093 -0.03381659 0.00020191888 -0.021887247 -0.009901708 -0.08222094 0.19588102 -0.033606194 0.10476097 -0.004028034 0.14521246 -0.13010728 0.12944968 -0.045059707 -0.06794593 0.081280194 0.044822875 0.20164396 -0.134066 0.13025692 0.06101208 -0.065748416 0.23968518 0.08429151 0.0015729873 -0.20539665 -0.049005255 0.070005536 0.058578476 0.13148075 -0.07925063 0.0662746 0.030600194 0.039478738 -0.03695811 -0.05037833 -0.051676027 0.17875974 -0.07447944 -0.04926519 0.063190386 -0.046945486 -0.15162395 0.13965702 -0.0649866 -0.09069202 -0.17796978 0.012451241 0.0052219173 0.052696824 -0.11683319 -0.15769152 -0.041489262 0.21025307 0.10457427 -0.013984861 -0.043052033 0.118475825 -0.22858615 -0.25549147 -0.101768255 0.014587831 -0.04423237 0.17007454 0.022362716 0.18591599 0.21941982 -0.10801957 -0.098456055 0.056247514 -0.054896902 -0.15885864 -0.01424525 0.104235634 -0.10170338 -0.01330655 -0.03611154 0.05047933 -0.017332224 -0.15391673 -0.124670625 -0.26128837 0.03939762 -0.05368745 -0.021021193 0.05882356 0.0036761689 -0.09173446 0.019847149 -0.1049302 0.019927166 -0.13815677 0.03342084 0.0033577192 -0.10422865 0.11469113 0.02586096 -0.11211353 -0.06851587 -0.065816894 0.06958152 -0.09212755 0.0064075114 -0.03873976 0.047339357 -0.032199275 0.07717338 0.13871588 -0.051466543 -0.15088223 0.06234841 -0.09999246 -0.061414275 -0.0833113 -0.04550964 -0.107187055 0.14465117 -0.088944234 0.006378179 0.16309865 -0.17969899 -0.063761085 -0.010545913 -0.11116176
48 -0.044949196 -0.036822416 0.048805 -0.020951433 0.13425525 -0.024992326 -0.115783565 0.044136826 -0.12921233 -0.028127875 0.26002812 -0.08717391 0.09416814 -0.088129595 0.1445646 -0.17757785 0.143755 -0.06878428 -0.0922209 -0.09205411 -0.018574554 0.20165718 -0.05488331 0.103976294 0.06049263 -0.021733813 0.035084065 0.0075184745 -0.11085595 -0.25871512 -0.1331814 0.051339157 -0.029175125 -0.01985337 -0.020575844 0.13856643 0.0068429857 0.09140933 0.018243518 -0.030465614 0.051824603 0.20260975 -0.06326049 -0.02633045 0.03786996 -0.036065493 -0.18651891 -0.09597383 -0.020403268 -0.030745625 -0.25803715 0.10822442 -0.103194684 -0.015066186 -0.06184599 -0.2040508 -0.029317847 0.1954067 0.13356003 0.01920342 -0.027865505 0.07399194 -0.19825722 -0.24841559 -0.053514756 -0.10500953 -0.13626066 0.10727804 -0.0037852617 0.20845823 0.27114874 -0.09488717 -0.02603176 -0.13663262 0.01727463 -0.15873444 0.050570175 0.047839776 -0.15275861 0.029935068 0.06017982 0.10083143 -0.07719228 -0.13900319 -0.10280424 -0.2607073 0.07907821 -0.07216447 0.04973149 0.1842659 -0.051931042 -0.089204416 0.06206921 -0.11853096 -0.073290996 -0.094435416 -0.033792887 0.012582404 -0.12626891 0.2003425 -0.03548866 -0.08634128 -0.05529807 -0.079347976 0.1073942 -0.14207092 -0.02697689 -0.09703962 -0.061535947 0.023760471 0.04761867 0.26923865 0.102884665 -0.037655443 -0.05906434 -0.065155886 -0.088474676 -0.073091164 -0.13982552 -0.10401569 0.15011677 0.008188546 -0.033456244 0.12316843 -0.12487019 -0.10662356 -0.06920607 -0.26100028
55 0.062355533 -0.11732701 0.022578092 0.021574402 0.061940774 -0.05619225 -0.049293138 -0.08559326 -0.08046847 -0.081822224 0.23012568 -0.027673038 0.033013493 -0.03517784 -0.03393911 -0.23117615 0.08594607 0.047598217 -0.07010561 0.014843548 0.12677714 0.19893435 -0.044698905 0.06607847 0.06723481 -0.026197197 -0.026772404 -0.034995776 -0.12051562 -0.20547235 0.04340735 0.14356443 0.05731107 0.025509011 -0.09469234 0.11756828 -0.004472253 0.05478668 0.08517697 -0.06946992 0.04702238 0.16957718 -0.10138872 -0.017297111 -0.020192321 0.11162444 -0.14200708 0.0015259417 0.001948073 -0.030296689 -0.27361995 0.19118452 -0.09717884 -0.02652083 0.10714614 -0.21288694 -0.013500484 0.12707134 0.14490317 -0.065108486 -0.052771088 0.1342214 -0.12554573 -0.20457135 -0.092365324 -0.09672929 -0.11068036 0.12304409 0.06344027 0.21157792 0.25761676 -0.059486907 -0.092692554 -0.030769117 -0.007940341 -0.16206272 0.07036866 0.13768989 -0.16394426 -0.07503786 0.056243096 0.15158413 -0.02974337 -0.13708995 -0.1723523 -0.3904843 0.14196585 -0.00820385 0.049876746 0.14788564 -0.06366039 -0.25323775 0.09508351 -0.06301314 -0.063624375 -0.09090798 -0.10400289 -0.027245691 -0.07731458 0.17905532 -0.11884714 0.0031777793 -0.036760375 -0.07904358 0.08922689 -0.062202204 0.020714631 -0.167152 -0.05679882 -0.091209084 0.09619011 0.20927735 0.14726137 -0.12221892 -0.06049729 -0.06808934 -0.10564465 -0.14255264 -0.030782938 -0.14887498 0.16888651 0.03338868 0.0061850306 0.1575452 -0.2104982 -0.044865206 -0.15181541 -0.20945086
27 -0.04918371 -0.056381214 0.004123225 -0.0189654 0.07217228 -0.048683822 -0.08698786 -0.012643352 -0.1807625 -0.06856357 0.24464661 -0.0702966 0.05923011 -0.08752845 0.14206514 -0.22392114 0.12374856 -0.071134456 -0.06261528 -0.035854854 -0.050126787 0.2378558 -0.10769426 0.045779165 0.1220674 -0.093958184 0.11232016 -0.00951176 -0.06427688 -0.25809348 -0.13986363 0.051134277 0.043437567 0.052838657 -0.095069684 0.1346008 0.008513615 0.058527872 -0.0155196125 -0.030363489 0.02868154 0.20285699 -0.046728794 -0.022220118 -0.026797546 -0.00078166043 -0.1668662 0.003498252 -0.0152674625 -0.011970858 -0.25283015 0.09458121 -0.052974854 -0.056275852 -0.034663364 -0.25057703 -0.05224759 0.23056793 0.16000515 0.008509284 -0.052986532 0.09091594 -0.22311193 -0.29902628 -0.070641026 -0.01582269 -0.15113051 0.14646564 0.06028238 0.19412097 0.29039398 -0.118046634 -0.052457377 -0.047234613 -0.010712309 -0.12780291 0.076386705 0.03183888 -0.08688652 -0.05244167 -0.018598929 0.07241156 -0.021340499 -0.2220557 -0.16930185 -0.33210704 0.059487753 -0.023563994 0.0966196 0.10913127 -0.07045846 -0.16753578 0.04732247 -0.09213672 -0.06394848 -0.16267757 -0.077323996 0.022428675 -0.11279912 0.2127301 -0.016698353 -0.12936047 -0.034975942 -0.1260018 0.072476774 -0.1183599 -0.06381569 -0.07320879 -0.0065273824 0.011821282 0.0893917 0.17414895 0.09818429 -0.08234071 -0.016581086 -0.054395486 -0.12853801 -0.13139684 -0.12847774 -0.11749201 0.17856637 -0.014772185 -0.05950573 0.16076279 -0.13864627 -0.045651205 -0.05095777 -0.18119727
23 0.20615514 -0.21759768 -0.12933889 -0.072487816 -0.05982816 -0.061974432 0.056412783 -0.23633553 -0.12059899 -0.012393234 0.30979374 0.08156545 -0.02680109 -0.08437798 -0.022520164 -0.23974165 -0.14743717 -0.03022326 0.014655162 0.1701151 0.22395779 0.32967934 -0.13023159 0.14361587 -0.14188242 -0.0015211514 -0.12908755 0.13731557 -0.19230618 -0.07115155 0.15336668 0.31921577 0.19999214 -0.046235297 -0.12690195 -0.00787876 0.013550122 -0.018605625 0.03639499 0.032540902 -0.076080106 0.25360972 -0.070845984 -0.20063709 -0.15012643 0.09066432 0.022035994 0.05835763 -0.15373528 -0.18249759 -0.26338443 0.2997176 0.16165346 0.041265022 0.052155405 -0.1774373 0.07785617 0.09676975 0.28148058 -0.0612535 -0.18012151 0.16671488 -0.23169881 -0.035834853 0.030193442 -0.08600631 -0.05278108 0.050121453 0.05348631 0.058448132 0.3902296 -0.10787618 -0.09449077 0.1763785 -0.09101998 -0.16959058 0.16239272 0.2669127 0.017716408 -0.07455368 0.034991987 0.20201673 0.16412288 -0.17772861 -0.27579197 -0.28883097 -0.0014342701 0.22841348 0.073804624 0.14719282 -0.05560877 -0.30059826 0.0820753 0.15486833 -0.26072612 -0.19329076 0.10897612 -0.075956516 -0.17604186 0.2090306 -0.14207311 0.05082118 -0.058621544 -3.9571896e-06 0.05777377 0.03276377 0.04216126 -0.19143292 -0.0049486817 -0.14111133 0.16024026 0.13379098 0.22299081 -0.105445 -0.029703086 -0.048733354 -0.15376438 0.03949579 -0.10602253 -0.07739573 -0.017661056 0.11578102 0.025977327 0.21831453 -0.0871862 -0.030795315 0.07120786 -0.13141799
25 0.08638127 -0.051904093 -0.050716117 -0.0051355823 0.097911805 -0.053222194 -0.012062286 -0.065217525 -0.073468715 -0.06009431 0.19888824 -0.023440816 0.0659874 -0.046272468 0.050408013 -0.21354225 0.17282905 0.00065665157 -0.103901446 0.031019343 0.060337547 0.23089172 -0.10405543 0.08023749 0.027005024 -0.04104527 0.10552375 0.024507452 -0.12440625 -0.20521013 -0.06611114 0.10936905 0.060945544 0.06884365 -0.10343242 0.033994533 0.01739574 -0.0026856787 -0.026205687 -0.05124699 -0.01263504 0.19025432 -0.0790126 -0.03772838 0.02415306 -0.01853998 -0.10403866 0.05858134 -0.078070045 -0.12362035 -0.20383316 0.063883916 0.058775708 0.016258376 -0.13721406 -0.12047893 -0.018776365 0.17549016 0.20731166 0.008600842 -0.08353351 0.14424954 -0.1828288 -0.21083044 -0.0694747 -0.021085225 -0.1276438 0.15795168 -0.0012249699 0.20822799 0.28572732 -0.09786402 -0.096289076 0.11777957 0.01268348 -0.13811995 0.07286468 0.079133615 -0.0826002 -0.04759561 0.05251318 0.11588428 -0.047026947 -0.13130559 -0.1518064 -0.26363957 0.05736305 -0.0073685106 0.020287374 0.14626032 -0.024795221 -0.11740997 0.050967474 -0.052170537 -0.08700882 -0.10615953 0.0049393848 0.06811081 -0.08508016 0.11069695 -0.03187109 -0.07280852 -0.114926636 -0.02728325 0.06322948 -0.07925468 0.07661117 -0.09178391 0.0018002788 -0.0031108074 0.05027951 0.18167567 0.049778037 -0.10198901 -0.025032166 -0.111635566 -0.10020353 0.010937075 -0.10132587 -0.09051076 0.12942378 -0.024005186 0.0007905292 0.12807894 -0.1578894 -0.0074744327 -0.005953339 -0.18855605
0 0.31121945 -0.16103269 -0.1331558 -0.29672426 0.060296386 0.05798331 0.08744654 -0.22291571 0.32122657 -0.051752586 0.21176614 -0.094717525 0.26111403 0.1576237 0.18705988 -0.10828592 0.31205115 -0.107243665 -0.16358404 0.4202751 0.22067435 0.47168475 -0.3865913 0.34081978 -0.17821094 -0.102899805 0.7207459 0.39904588 0.006830708 -0.3263493 0.0269398 0.33435178 0.08997693 0.22781439 -0.14109711 -0.2061842 0.19268884 -0.11579679 -0.1524427 -0.109244734 -0.2509769 0.28421807 -0.11883801 -0.12887171 0.25444904 -0.3350852 -0.14844842 0.5631091 -0.28334388 -0.381358 -0.0954766 -0.2885653 0.25809705 0.30393738 -0.68039024 0.042921357 -0.13257039 0.40320417 0.2706833 0.074144386 -0.218735 0.15338951 -0.42050594 -0.29012862 -0.31956863 0.15325913 0.040897764 0.27385223 -0.113486595 0.40118298 0.4421247 -0.21837932 -0.22049835 0.591737 -0.09936171 -0.2461141 -0.06381013 0.15450165 -0.017629089 0.001616079 -0.09242183 0.19293453 -0.14579532 -0.051666763 -0.06415898 -0.16254112 -0.16816299 -0.029598169 -0.21873789 0.18410546 0.20660736 0.19454536 0.06774981 -0.14529386 -0.13728602 -0.2028749 0.53349054 0.15350081 -0.044922624 -0.07115901 0.20110556 -0.16375543 -0.39137706 -0.040186957 0.14645128 -0.17310953 0.37349942 0.046015806 0.21610868 -0.12209002 -0.044004418 0.34802264 -0.30410632 -0.39429027 0.15426436 -0.3254816 0.029522054 0.26022083 -0.13856485 -0.10227373 0.047366884 -0.3691507 0.15272613 0.31966114 -0.4292125 -0.13176027 0.24126832 -0.14644717
41 0.03301493 -0.047158904 -0.013399916 0.012028171 0.111562945 -0.030017685 -0.048287466 -0.037016764 -0.07181769 -0.026897604 0.20645705 -0.057743855 0.052248977 -0.055324513 0.053128522 -0.1848615 0.12691116 -0.01806884 -0.09205366 -0.012793338 0.0259865 0.21169291 -0.062810734 0.08884047 0.022750253 -0.034565892 0.01396894 0.018470734 -0.15770891 -0.2131642 -0.064257205 0.12170991 0.009232959 -0.0034656113 -0.057486154 0.08498607 -0.0054433723 0.030299323 0.0045066955 -0.03269644 0.013546194 0.20331761 -0.057735875 -0.021964116 -0.00049638806 -0.01483346 -0.14263701 -0.035136133 -0.033832755 -0.07115526 -0.22336446 0.12422271 -0.032733362 -0.004418763 -0.063295975 -0.1695183 0.0011293449 0.1480667 0.15870655 -0.000251044 -0.063834585 0.083719 -0.15848221 -0.19397002 -0.050122768 -0.08626724 -0.11452233 0.119480446 0.002749848 0.16795592 0.26810887 -0.08636299 -0.05707129 -0.009888951 0.010627441 -0.12947518 0.05294675 0.07464025 -0.112616725 -0.011031149 0.07898655 0.13163099 -0.065313525 -0.10207129 -0.097357385 -0.24757615 0.08774135 -0.038730804 0.04219594 0.17830892 -0.03917406 -0.107603915 0.08093822 -0.055190552 -0.11251566 -0.066097215 -0.0010019674 0.013704387 -0.07412885 0.13838552 -0.03925116 -0.029798273 -0.06715447 -0.040823027 0.07035615 -0.10198326 0.061296545 -0.120524116 -0.053329557 -0.0047379946 0.027785828 0.22328766 0.11882051 -0.061448198 -0.08278942 -0.10231338 -0.10069946 0.007658579 -0.1409788 -0.09549006 0.12867951 0.009803617 0.013334457 0.13958222 -0.12418235 -0.055766933 -0.050347757 -0.23232329
58 -0.042439878 -0.024499452 0.06865 0.026835848 0.16071685 -0.014499722 -0.13048506 0.029235303 -0.05977262 -0.061383843 0.24065189 -0.115734845 0.104948066 -0.062390897 0.11657626 -0.19692074 0.21000388 -0.03720313 -0.106957264 -0.065144226 -0.0021307904 0.22198 -0.05808037 0.09883203 0.115459114 -0.035679843 0.116221644 -0.027755039 -0.06279212 -0.31805012 -0.13409898 0.05072297 -0.030129086 0.01173964 -0.054577038 0.14877486 0.0075093443 0.07753729 0.023402562 -0.047775567 0.07326589 0.21329634 -0.07299265 0.030142386 0.059168156 -0.03772901 -0.24913348 -0.037744544 0.0012480493 0.008183355 -0.27494842 0.062792465 -0.1867123 -0.021511838 -0.03592184 -0.22743249 -0.09040615 0.24443951 0.10368288 -0.0069962987 -0.0071500214 0.06526422 -0.183758 -0.31570262 -0.12702002 -0.08509054 -0.13056624 0.14153832 0.014395125 0.28078803 0.26883727 -0.107660756 -0.06020415 -0.10934327 0.015428691 -0.15959999 0.010602495 0.036706712 -0.20728326 -0.024922615 0.05879291 0.122635774 -0.13358195 -0.1377041 -0.07865995 -0.35065922 0.13068895 -0.09576186 0.029953398 0.21362019 -0.020893501 -0.09645889 0.09568182 -0.18061358 -0.02729239 -0.09356328 -0.07541595 0.012377352 -0.061366443 0.1744792 -0.018365907 -0.09270434 -0.046749845 -0.11961678 0.14160755 -0.17164017 0.006022128 -0.102351286 -0.072529934 -0.01406523 0.02977951 0.3278453 0.090436384 -0.09848448 -0.09156237 -0.09245889 -0.04901402 -0.124141484 -0.123163484 -0.11301383 0.20906466 -0.03826291 -0.007848146 0.14886355 -0.197195 -0.11007304 -0.14139457 -0.26813596
26 0.119022556 -0.10793066 -0.073603936 0.008826303 0.051972248 -0.103726745 -0.003951351 -0.14936899 -0.18134172 -0.09430879 0.2285708 0.02878407 0.002573334 -0.05963375 -0.057316788 -0.30220327 0.09876146 0.0679188 -0.08606535 0.026863985 0.11130208 0.23270436 -0.107099734 -0.004562842 0.04722324 -0.07097763 -0.023772525 -0.041238904 -0.17457399 -0.16379356 0.026395427 0.13750751 0.12206425 0.073486075 -0.14565545 0.06914677 -0.0013233745 0.014078004 0.04694176 -0.07456183 0.014384281 0.12396036 -0.10438546 -0.049311224 -0.06143218 0.13460554 -0.037684176 0.051727 -0.050212156 -0.11743083 -0.24733794 0.17337677 0.0747689 -0.049845107 0.021617763 -0.18874387 0.015352651 0.11629487 0.26211506 -0.027735844 -0.11609026 0.19906339 -0.14990416 -0.17316991 -0.056631792 -0.04012786 -0.16440569 0.15255593 0.05802244 0.1919688 0.31401294 -0.06908853 -0.11513966 0.10727448 0.016980723 -0.15021561 0.15076011 0.124762155 -0.0645475 -0.10412073 0.029877817 0.13279858 0.037111085 -0.19392587 -0.26597485 -0.36319146 0.09205152 0.042610057 0.09294578 0.100317605 -0.10778149 -0.28619322 0.052064482 0.018120771 -0.11674828 -0.12315769 -0.11218481 0.060930725 -0.10796492 0.18330355 -0.13871178 -0.02961911 -0.09501954 -0.052015267 0.035009723 -0.016047657 0.034676902 -0.13817787 0.0049828915 -0.033666827 0.12549949 0.09326222 0.1392235 -0.12351177 -0.008035563 -0.057366483 -0.17366607 -0.08519766 -0.03761365 -0.13865995 0.16260348 0.06389148 -0.0434523 0.14458263 -0.18802127 0.05932006 -0.055921122 -0.19029555
24 0.08081432 -0.05489991 -0.065632455 -0.057073258 0.08585464 -0.10237078 0.004487465 -0.016099876 -0.14792004 -0.09152292 0.20347221 0.007932083 0.057303876 -0.0672187 0.090917185 -0.23555334 0.16947033 0.008965472 -0.1217237 -0.010805815 0.014022199 0.21227212 -0.13634817 0.06251742 0.070962705 -0.073954515 0.117792 0.007113048 -0.13434215 -0.19609678 -0.11261369 0.044590652 0.071260534 0.12293853 -0.11842415 0.0663934 -0.0036244392 0.04149913 -0.0372375 -0.06630566 -0.011465737 0.1620507 -0.09077149 -0.043738924 0.009437078 0.0132320095 -0.08452748 0.06078606 -0.07948486 -0.16131409 -0.20874895 0.072179586 0.08920626 0.0014427037 -0.13959067 -0.17272392 0.028584393 0.15693215 0.21457098 0.026864579 -0.069308914 0.17688859 -0.21553066 -0.22385871 -0.034064934 -0.01521554 -0.14621721 0.2053607 0.0002493117 0.16973118 0.28031287 -0.10666503 -0.10066802 0.082859434 0.014249129 -0.1483555 0.07582891 0.07232546 -0.081663124 -0.022808993 0.01098844 0.0758203 0.005241504 -0.19046782 -0.19997197 -0.27340442 0.08019577 -0.056693047 0.03137823 0.08712417 -0.06995 -0.12173286 0.002704254 -0.018804027 -0.045721196 -0.10693635 -0.053095996 0.0832942 -0.12522124 0.14994201 -0.060598172 -0.108047634 -0.10304993 -0.034766763 0.02931852 -0.07771095 0.013816762 -0.06835077 0.025980817 0.054069553 0.0664245 0.0878848 0.020065008 -0.092258856 0.032686032 -0.09794383 -0.15554173 -0.036301848 -0.08425103 -0.1050824 0.17728947 -0.0017542482 -0.047317747 0.13204798 -0.13398111 0.035818588 -0.00055376673 -0.19512795
57 -0.048553534 -0.07418679 0.08048303 0.035183486 0.10918221 0.0075788344 -0.13530849 0.00019957028 -0.06461427 -0.051699027 0.2567453 -0.10149372 0.08401611 -0.0735449 0.08967843 -0.18693493 0.1152687 -0.049280915 -0.052406963 -0.0438871 0.029714445 0.22292718 -0.025238447 0.105811134 0.10493327 -0.01448363 0.04052469 -0.02464868 -0.045620855 -0.2981953 -0.068588614 0.088543676 -0.0020522191 -0.021554656 -0.048334587 0.16887577 0.0027394479 0.08291097 0.056810167 -0.024911102 0.08239793 0.23439492 -0.06117643 0.010257223 0.017389398 0.010202801 -0.25515035 -0.067399725 0.02648045 0.06758345 -0.30894572 0.14582579 -0.23401208 -0.036660906 0.08990002 -0.25237435 -0.086353645 0.22106272 0.0672658 -0.05210282 -0.013816375 0.052760642 -0.1655473 -0.29808632 -0.110821575 -0.10324046 -0.10741498 0.08758189 0.06255546 0.24147028 0.255245 -0.09922983 -0.048919406 -0.15760669 -0.015784495 -0.15981734 0.016328977 0.079630256 -0.20885749 -0.05029994 0.056673057 0.12903202 -0.097206265 -0.13731234 -0.087813556 -0.38372946 0.13566148 -0.031403862 0.05766698 0.21177475 -0.025583893 -0.1821375 0.12289411 -0.15338083 -0.044731837 -0.11265753 -0.09799241 -0.05885581 -0.06758269 0.2085493 -0.033876516 -0.055818032 0.01919034 -0.119788036 0.1484359 -0.13832206 -0.042814385 -0.13816495 -0.09089339 -0.0750271 0.063669235 0.32872856 0.14452824 -0.091837175 -0.11026185 -0.064591564 -0.032238405 -0.17533864 -0.10448435 -0.11820412 0.17281158 -0.014734786 0.012384774 0.163978 -0.1659522 -0.137935 -0.16658211 -0.21819836
64 -0.032377318 -0.086317874 0.08216244 0.021323077 0.11223077 0.00989484 -0.13603283 -0.028790317 -0.034287147 -0.05518931 0.25885406 -0.11524151 0.09262944 -0.045205116 0.07666436 -0.19642682 0.12805402 -0.04482278 -0.056377288 -0.009543365 0.061662447 0.24678943 -0.050916623 0.12011761 0.09805008 -0.02186636 0.091632344 -0.002260807 -0.027474219 -0.31264997 -0.03959087 0.120319374 -0.0033131551 -0.0134024015 -0.05900693 0.15099551 0.023977945 0.0720634 0.06506114 -0.03893807 0.07037781 0.23989394 -0.071334414 0.013859068 0.022472091 -0.0061469045 -0.25835067 -0.018582962 0.009437372 0.049751155 -0.3023582 0.12010533 -0.2259964 -0.015748838 0.061259344 -0.2502948 -0.10517513 0.25159392 0.08535132 -0.049865577 -0.026709357 0.053316597 -0.18137373 -0.30695677 -0.15242596 -0.092567235 -0.09795725 0.1031933 0.057610303 0.28141487 0.2778395 -0.10970288 -0.066923335 -0.109964505 -0.025964374 -0.16839199 0.014540387 0.085574515 -0.21012764 -0.06344201 0.046298828 0.15081732 -0.11428526 -0.13678461 -0.08615214 -0.39723164 0.12732336 -0.02979684 0.046292193 0.22213541 -0.011052308 -0.17064023 0.13358678 -0.17789733 -0.055828273 -0.11812471 -0.06117321 -0.0517829 -0.04739123 0.18466811 -0.03190635 -0.05178691 -0.011434879 -0.14319387 0.15976684 -0.14414732 -0.0050398526 -0.13485137 -0.08792638 -0.0944261 0.05919868 0.35847417 0.13176107 -0.12570034 -0.10803076 -0.07663842 -0.021086762 -0.16591021 -0.09853139 -0.12415325 0.180496 -0.033685066 0.015983386 0.1919512 -0.22629279 -0.14897011 -0.17308228 -0.23228154
62 0.0019968054 -0.07465635 0.056035515 0.007624499 0.1149107 -0.013197193 -0.08647851 -0.0020845686 -0.040465046 -0.04521949 0.24699087 -0.09102668 0.0794091 -0.04566239 0.08409861 -0.18051766 0.14273632 -0.03245967 -0.09271738 -0.021181183 0.03948926 0.2236501 -0.047942247 0.1341409 0.07398524 -0.018399157 0.045338143 0.012187114 -0.107710324 -0.27822268 -0.06310187 0.11531964 -0.010818332 -0.0025035562 -0.046988785 0.13921396 0.0016156858 0.07726021 0.03894465 -0.047662143 0.04315139 0.24128512 -0.07352134 -0.0023939793 0.029528327 -0.008089578 -0.234523 -0.040359206 -0.0032781519 -0.012861608 -0.28333974 0.1406952 -0.15410708 -0.0051068817 0.0066856863 -0.22413006 -0.039123334 0.19410397 0.10061939 -0.02673284 -0.033142813 0.068680115 -0.17465621 -0.27189615 -0.09786904 -0.111711316 -0.10282138 0.1254294 0.020130923 0.22195974 0.26417768 -0.09047641 -0.057319134 -0.10050526 -0.009352118 -0.16317628 0.016387634 0.09621122 -0.1975634 -0.013727817 0.077912465 0.14191926 -0.09956482 -0.112948306 -0.0843085 -0.33699867 0.13180438 -0.06760398 0.027860228 0.20462422 -0.030162657 -0.13366129 0.1138523 -0.12420491 -0.0653843 -0.08201903 -0.034134038 -0.033903103 -0.07875338 0.1744544 -0.036384255 -0.03938288 -0.035815693 -0.08208098 0.11912319 -0.14350764 0.02404178 -0.14157379 -0.08102112 -0.051006164 0.03780876 0.3035943 0.11941455 -0.094526954 -0.09757175 -0.10248823 -0.071819164 -0.09364194 -0.11783277 -0.12927987 0.16266423 -0.016799707 0.030901315 0.16650999 -0.16938552 -0.11427895 -0.1321956 -0.24243769
51 0.140055 -0.0514605 -0.036736768 0.07182261 0.14820997 -0.15958045 -0.02761762 -0.17129795 -0.20548584 -0.14158224 0.19042464 0.030715253 0.03446959 -0.017766764 -0.18402977 -0.35350984 0.27171013 0.20859528 -0.18328269 -0.049104553 0.14938526 0.15405096 -0.08872375 -0.11452894 0.06953064 -0.07910476 -0.034286268 -0.15333612 -0.25771564 -0.18907547 0.06250664 0.09731638 0.07251286 0.09589811 -0.15151018 0.07817603 0.00427568 0.0028408747 0.12031221 -0.18137674 0.10392893 -0.0073234765 -0.1628262 0.030490138 0.023763767 0.19747882 -0.0078098 0.037307274 -0.013917337 -0.13214494 -0.2351321 0.10698402 0.087310925 -0.064847305 -0.021838421 -0.10968429 -0.017628338 0.081864275 0.3469888 0.0006420524 -0.118136026 0.26636285 -0.054990556 -0.1760003 -0.110520564 -0.07240891 -0.23682651 0.18851139 0.002801489 0.33135954 0.30084142 0.0016574494 -0.1490305 0.12322543 0.103918254 -0.18319032 0.18517907 0.073539846 -0.10358859 -0.10273634 0.10107007 0.14058873 -0.06585744 -0.12978342 -0.27831298 -0.37789652 0.12774877 -0.036325198 0.0699021 0.12278561 -0.14088745 -0.27222425 0.05555634 -0.065561995 -0.09755285 -0.033047426 -0.21180937 0.19423531 -0.05863514 0.120294645 -0.2263882 -0.01417333 -0.20349415 -0.05155424 0.052566648 -0.002855932 0.1428165 -0.16555697 0.0048027886 0.009427083 0.0907857 0.13241854 0.1328338 -0.15160997 0.0021450147 -0.075385034 -0.19647428 -0.10096968 0.030603928 -0.20012103 0.23257877 0.065433 -0.09355488 0.053683795 -0.31183097 0.13676868 -0.13307 -0.29274997
66 -0.080550514 -0.0692346 0.13483906 0.0070908973 0.12700197 0.02141348 -0.14019488 0.07593425 0.0029512509 -0.04875841 0.253272 -0.13937718 0.111444 -0.04600674 0.14065117 -0.13974759 0.13888197 -0.06268942 -0.07204029 -0.06191324 0.014241023 0.18733414 -0.009805139 0.16751368 0.1318124 -0.0033510686 0.08424228 -0.0069886735 -0.011575894 -0.3228179 -0.08585429 0.06356328 -0.06304437 -0.010266286 -0.010180701 0.19968963 -0.0003345849 0.123238966 0.05699107 -0.030313734 0.0769347 0.25616068 -0.07255423 0.0234412 0.058644313 -0.03525063 -0.31737152 -0.07368582 0.044288564 0.074226305 -0.29864752 0.121543415 -0.30508628 -0.0044468665 0.08115672 -0.26728705 -0.08158353 0.2322823 0.0013530226 -0.052632704 0.04112649 0.02312553 -0.16399306 -0.3316547 -0.1340381 -0.13163891 -0.07231674 0.11588061 0.035427902 0.24916609 0.21999934 -0.09716884 -0.04494808 -0.23190857 -0.016754264 -0.17751504 -0.048821613 0.08321004 -0.27026403 -0.0016219111 0.057557352 0.117201574 -0.14062731 -0.124042556 -0.038986325 -0.38660866 0.16779818 -0.1202187 0.009662921 0.21631628 0.0006472795 -0.1272393 0.12022044 -0.20745963 0.021134349 -0.0790324 -0.066425174 -0.08845699 -0.07002914 0.19482997 -0.003037767 -0.060353123 0.021005647 -0.12403118 0.15427862 -0.18457347 -0.041977912 -0.124083474 -0.10928951 -0.06885439 0.040579565 0.368147 0.09901875 -0.09364419 -0.10627846 -0.0827407 -0.019607311 -0.1821723 -0.09694417 -0.13166586 0.21896437 -0.04103743 0.028568683 0.18546256 -0.20419411 -0.19034821 -0.2149265 -0.26408812
63 -0.01222812 -0.09602154 0.056640726 -0.013000999 0.07730255 -0.018668901 -0.08936159 -0.0025917543 -0.059246797 -0.05969479 0.2505124 -0.072690494 0.07636726 -0.050721176 0.08922131 -0.17415683 0.09210146 -0.036412314 -0.05902222 -0.013623597 0.053872913 0.20668735 -0.050432317 0.12364955 0.0959822 -0.019792918 0.05509814 0.00066638296 -0.04401395 -0.25477868 -0.038502492 0.095653124 0.015338788 0.019291632 -0.059164204 0.14673615 0.0011007213 0.08540069 0.0460641 -0.03246191 0.04088614 0.22437164 -0.076513074 -0.008262251 0.012185653 0.016634146 -0.21833728 -0.021075888 0.0007541103 0.014615735 -0.27796385 0.14430636 -0.17132027 -0.015878372 0.06844707 -0.24452835 -0.05019494 0.20181558 0.07857332 -0.051802497 -0.016872907 0.08045574 -0.17854214 -0.27113646 -0.0999394 -0.09398394 -0.08548815 0.12056651 0.050914656 0.21243024 0.25235552 -0.09609889 -0.065228924 -0.11603362 -0.027443618 -0.16928203 0.011054406 0.10709598 -0.19459654 -0.03938557 0.039236356 0.11953176 -0.063175604 -0.15169674 -0.119265415 -0.37633306 0.12909406 -0.0412389 0.040226188 0.16866104 -0.031529553 -0.1787294 0.09833257 -0.12398795 -0.031441085 -0.108624995 -0.06461368 -0.05674037 -0.08896008 0.19015665 -0.042821232 -0.05390586 -0.0057880823 -0.104677595 0.120182596 -0.12442282 -0.032565042 -0.12830576 -0.063915774 -0.068393394 0.079093486 0.27725586 0.110522196 -0.10198527 -0.069495715 -0.06656731 -0.060864404 -0.15293069 -0.08366542 -0.12679663 0.18466243 -0.007341269 0.009425352 0.18329534 -0.18871027 -0.12067419 -0.14613545 -0.21765845
65 -0.013010789 -0.05130449 0.061021872 0.05335448 0.14839184 0.0067857755 -0.118813254 -0.023044765 -0.025472382 -0.04894826 0.23880261 -0.11044481 0.0863059 -0.04766879 0.052085284 -0.19903927 0.16630372 -0.009174174 -0.08900234 -0.030104732 0.053197462 0.2312055 -0.04018833 0.10623628 0.082306094 -0.0109436745 0.060206354 -0.020988585 -0.080734335 -0.30506364 -0.052892156 0.117703296 -0.016805518 -0.022709021 -0.06195058 0.13658231 0.011249894 0.054555204 0.058767416 -0.043763127 0.0744143 0.22515687 -0.07437109 0.025719628 0.038047455 -0.007373809 -0.23954065 -0.041155115 0.0048862076 0.019977817 -0.286094 0.10963483 -0.19670972 -0.009669595 0.020190379 -0.21664152 -0.088308126 0.2220422 0.110097714 -0.03780494 -0.02458213 0.059734054 -0.14495142 -0.27778366 -0.13529286 -0.10746745 -0.11273738 0.11212159 0.029073622 0.27905405 0.2707885 -0.093124256 -0.06963736 -0.08292519 0.008471058 -0.15544596 0.019142345 0.07218956 -0.20707573 -0.05400651 0.08033454 0.15586646 -0.12973817 -0.10617246 -0.07103998 -0.3537802 0.13202187 -0.047183346 0.03136065 0.23941466 -0.010930074 -0.13884963 0.12915221 -0.15902692 -0.06861932 -0.07976606 -0.055885013 -0.013355405 -0.031891182 0.16137648 -0.03378629 -0.03219305 -0.04056962 -0.10807567 0.14934213 -0.1422233 0.03763237 -0.13363217 -0.08769156 -0.0686851 0.031036174 0.34650582 0.13874334 -0.10260323 -0.12786429 -0.09092644 -0.03843527 -0.10412586 -0.10822077 -0.11165808 0.17493027 -0.019294303 0.02343425 0.15923671 -0.20128186 -0.11276667 -0.1631726 -0.25227907
70 0.012928218 -0.021445392 -0.0072374325 0.04083794 0.13820428 -0.048370674 -0.078112714 -0.021682072 -0.12654632 -0.04401985 0.22491845 -0.05502952 0.051836286 -0.08541752 0.059637725 -0.22864003 0.16297917 -0.0076295235 -0.105467714 -0.05797869 0.0028618579 0.22283982 -0.06008027 0.056885436 0.06797279 -0.04121008 0.007980187 -0.027878912 -0.15482889 -0.24599455 -0.10658591 0.09275243 0.023337098 0.007054081 -0.07756914 0.113116354 -0.010953051 0.042127844 0.012055275 -0.0338803 0.047225583 0.20815116 -0.06543974 -0.003382582 -0.0035046646 0.004921498 -0.16681254 -0.06366551 -0.020639516 -0.045093026 -0.26090327 0.1315871 -0.059323534 -0.036557544 -0.034641393 -0.2049886 -0.017596325 0.1732853 0.1750784 0.0014361488 -0.05957309 0.10217825 -0.15841472 -0.23437582 -0.046969008 -0.08220534 -0.15220854 0.13265723 0.012681552 0.19509938 0.2842769 -0.09542028 -0.06183966 -0.03166384 0.025601106 -0.1343812 0.070903644 0.05728063 -0.12702084 -0.04122212 0.08779712 0.12796547 -0.067143805 -0.13844767 -0.13010165 -0.29696283 0.11292318 -0.03772111 0.06653318 0.19227609 -0.05810948 -0.14035726 0.08872473 -0.068822026 -0.09388906 -0.07334863 -0.07140948 0.026179707 -0.07979282 0.1732284 -0.054393765 -0.050580084 -0.055606414 -0.059288345 0.082476 -0.11291116 0.02024624 -0.12382984 -0.06347022 0.013493979 0.037624184 0.22810782 0.14491555 -0.06303451 -0.100554585 -0.08735335 -0.11549481 -0.050594397 -0.14352937 -0.10017392 0.16077617 0.024853084 -0.014264286 0.1370246 -0.120837756 -0.03258902 -0.07815157 -0.24671187
49 0.099256895 -0.0151999835 -0.054612197 0.060065575 0.16926783 -0.10872064 -0.05037444 -0.10517817 -0.13082398 -0.09989753 0.20059262 -0.03331797 0.027059516 -0.032530107 -0.09604015 -0.32075936 0.2468824 0.13174617 -0.16409235 -0.040864896 0.08294594 0.21029943 -0.08565717 -0.032272607 0.07714752 -0.08756325 0.0046180156 -0.10647642 -0.21708861 -0.2197783 -0.04016069 0.10230775 0.047335967 0.0836337 -0.13323121 0.06858672 -0.009042424 0.03855152 0.07100535 -0.12804121 0.05214967 0.071764894 -0.13478796 0.03398791 0.01421281 0.10792672 -0.069323875 0.035452183 -0.018974582 -0.14457811 -0.22446682 0.097054586 0.034909282 -0.05023162 -0.071680464 -0.16536526 0.0056648953 0.09955546 0.255025 0.0012486516 -0.08500296 0.1764343 -0.09126426 -0.19024591 -0.10976639 -0.061657265 -0.18621042 0.2004558 0.0077742073 0.27085942 0.30056664 -0.042521 -0.11415307 0.08948167 0.08420987 -0.15093903 0.12972464 0.05334893 -0.12725027 -0.08763515 0.08147711 0.1638275 -0.07309007 -0.13168871 -0.19936183 -0.33761612 0.14316003 -0.0780144 0.06749272 0.16459171 -0.10523533 -0.17978369 0.053675935 -0.045816667 -0.08712949 -0.019661859 -0.13568632 0.15480493 -0.04425213 0.13881032 -0.15809911 -0.026791316 -0.16278128 -0.05936077 0.05828163 -0.05918666 0.1177753 -0.12178814 -0.038396314 0.010601094 0.0284417 0.14779034 0.12120426 -0.114493735 -0.036859963 -0.094164476 -0.18022953 -0.041729104 -0.053827737 -0.14923413 0.22536056 0.04567267 -0.043461002 0.100120805 -0.24570513 0.08609648 -0.12078904 -0.29730657
16 0.19888382 -0.19952264 -0.10195027 -0.07974451 -0.046428382 -0.060169067 0.042067897 -0.20505098 -0.12087242 -0.026044914 0.27291828 0.0796281 -0.02211896 -0.06789415 -0.03990512 -0.22812045 -0.1257422 -0.0044454914 0.0067748055 0.13345152 0.21919273 0.28087804 -0.11436213 0.11134543 -0.109554835 -0.0015212365 -0.11465867 0.10203939 -0.1595782 -0.060041603 0.15827017 0.2711697 0.18023059 -0.018057097 -0.12104725 -0.005456305 0.027360573 0.0004038174 0.04640933 0.008295064 -0.05208004 0.19709684 -0.081673905 -0.16446848 -0.1220959 0.11068897 0.024087016 0.048218235 -0.124328315 -0.15952925 -0.25249735 0.2658932 0.12527677 0.023769416 0.07909177 -0.1565679 0.062236533 0.09481659 0.25618312 -0.05725455 -0.1623091 0.16839263 -0.20301113 -0.03837719 -0.0010808206 -0.077183425 -0.06897117 0.048662785 0.057725117 0.07748237 0.34226745 -0.08852691 -0.09454875 0.14896083 -0.068772025 -0.16626869 0.15104419 0.23667699 -0.00375247 -0.07974919 0.01981108 0.17974086 0.13979115 -0.16580807 -0.26871896 -0.2896832 0.012090629 0.19188896 0.07014757 0.11710774 -0.055923223 -0.2889144 0.07635288 0.12867615 -0.21265484 -0.16981326 0.062013824 -0.06522261 -0.16611491 0.1908603 -0.14484787 0.04389526 -0.05978995 -0.004859231 0.052974783 0.023039771 0.023052769 -0.16991885 -0.0033036852 -0.12688771 0.15686017 0.11996297 0.18931028 -0.10829274 -0.017542247 -0.030832129 -0.1367818 -0.019947154 -0.056224335 -0.08946522 0.006096352 0.10560709 0.012836357 0.1919851 -0.11087962 -0.026633184 0.036841743 -0.11907608
61 -0.032717112 -0.0758639 0.082650095 0.047206793 0.10977313 0.04756553 -0.124938175 -0.036243696 0.023072846 -0.021787548 0.22964157 -0.14186296 0.07814216 -0.025656546 0.047727995 -0.1577833 0.10126961 -0.04281791 -0.053276848 0.009151815 0.06024239 0.23076406 -0.013708197 0.13670953 0.0663863 -0.008954282 0.041915044 0.011725825 -0.048779964 -0.28941244 -0.014343508 0.16047744 -0.025932375 -0.052312497 -0.037974127 0.14510617 0.018241918 0.06179471 0.07277783 -0.025399417 0.05171099 0.24529222 -0.056103945 0.023330985 0.019954821 -0.018383082 -0.27331096 -0.04597148 0.030921886 0.062256344 -0.2736661 0.13510704 -0.24475083 -0.0067552743 0.077369906 -0.2321602 -0.087558486 0.20557866 0.048155695 -0.056321107 -0.026718305 0.010374118 -0.12540112 -0.26823676 -0.14714083 -0.11210799 -0.07044817 0.075519145 0.056474768 0.24479477 0.24587347 -0.08836894 -0.052638993 -0.11573514 -0.027389875 -0.13834722 -0.0062106913 0.08974794 -0.21375746 -0.052514452 0.06851889 0.16891417 -0.13433617 -0.07116087 -0.026603943 -0.3411425 0.1280792 -0.038102273 0.030130912 0.2370204 0.0054826643 -0.14336574 0.16035235 -0.1518138 -0.07255949 -0.07586461 -0.021791687 -0.07287255 -0.008177461 0.15865369 -0.010980815 0.006808715 0.004167625 -0.112914145 0.1479287 -0.14938138 0.030072812 -0.14071816 -0.10994658 -0.11396548 0.024182307 0.36214373 0.15246138 -0.10063536 -0.14675584 -0.09530858 -0.012702774 -0.108903125 -0.12139798 -0.11170637 0.14863785 -0.038079135 0.062604144 0.18833874 -0.20462896 -0.1721056 -0.17311235 -0.23529154
59 -0.01432785 -0.07111503 0.07212884 0.054389555 0.12837152 0.020182548 -0.11422282 -0.029909248 -0.010788208 -0.043864638 0.24384318 -0.11877535 0.07115642 -0.035811644 0.02932116 -0.18867135 0.12081062 -0.013533308 -0.068723015 -0.019058166 0.06743019 0.22150795 -0.01850177 0.1200878 0.07657413 -0.010634974 0.010724563 -0.017953442 -0.09291559 -0.28692156 -0.02196605 0.14696656 -0.017178856 -0.041225396 -0.046644922 0.14709069 0.0045130174 0.06682448 0.077090375 -0.040799428 0.06649317 0.24434833 -0.072473966 0.021558786 0.013712858 0.007321268 -0.25646633 -0.060922142 0.03099908 0.044752948 -0.29901257 0.16162008 -0.22429918 -0.020195378 0.07825697 -0.23262604 -0.068761855 0.19753273 0.081511 -0.054196347 -0.024624392 0.042744663 -0.13014048 -0.27035132 -0.12643014 -0.12491232 -0.10128245 0.09973583 0.0450179 0.25090516 0.26716083 -0.0817995 -0.059262916 -0.116983406 -0.011705516 -0.16516571 0.011326362 0.09652095 -0.21673605 -0.05553729 0.09013796 0.17669667 -0.12785256 -0.09514968 -0.0678379 -0.3813948 0.1535223 -0.05103785 0.042842906 0.23768166 -0.018662315 -0.17339768 0.15322436 -0.15187056 -0.07129229 -0.07269217 -0.0536993 -0.057523437 -0.026676755 0.16560726 -0.04296946 0.0066201543 -0.0098185865 -0.09937386 0.13736396 -0.14245588 0.029763106 -0.1652638 -0.11983402 -0.096842915 0.036898166 0.35377216 0.16801515 -0.095100485 -0.14962512 -0.08880025 -0.044127766 -0.120273285 -0.11224942 -0.12867452 0.1711875 -0.009769658 0.039678454 0.18111147 -0.20482667 -0.13799247 -0.19863701 -0.2609462
69 0.006754971 -0.044036157 -0.013876987 -0.0023431673 0.09966797 -0.052277677 -0.046737783 0.011335313 -0.12524618 -0.042656597 0.2240281 -0.046027638 0.0517291 -0.089370534 0.12238217 -0.19733804 0.13578288 -0.045520004 -0.08970538 -0.03936037 -0.022717927 0.22227548 -0.07722604 0.09854915 0.069626465 -0.03911208 0.04086932 0.013186531 -0.14299656 -0.22948773 -0.12914541 0.078464456 0.03150959 0.031431627 -0.065752015 0.1102827 -0.013384813 0.049846284 -0.027011285 -0.01844683 0.0123957535 0.23256098 -0.054733872 -0.037351035 -0.007804006 -0.021568669 -0.16288671 -0.042162973 -0.037840053 -0.07222129 -0.24734707 0.13125609 -0.022722313 -0.015466657 -0.066721514 -0.2076287 0.007245947 0.17383179 0.15588666 0.008545691 -0.05422671 0.10369454 -0.2032745 -0.24384241 -0.017936707 -0.065490484 -0.13509215 0.14866321 0.00962065 0.15605515 0.27469367 -0.11078726 -0.055986673 -0.036853623 0.0033979467 -0.13402909 0.051261917 0.06563171 -0.10997108 -0.004712861 0.058364835 0.093871765 -0.025008848 -0.15439269 -0.13545142 -0.27546576 0.09705782 -0.051680423 0.049860567 0.15186666 -0.052396953 -0.116581455 0.056755736 -0.052032463 -0.07689142 -0.10206625 -0.037255157 0.005512032 -0.11618968 0.18355095 -0.033001274 -0.07954577 -0.043804582 -0.041777164 0.06626203 -0.115188114 -0.0069353203 -0.10848792 -0.035520468 0.030926557 0.04503435 0.18916196 0.105049275 -0.048454467 -0.060784653 -0.09605334 -0.12484388 -0.036353227 -0.14927751 -0.09363231 0.14467771 0.0063133077 -0.012957089 0.14130563 -0.082239516 -0.04785946 -0.041756235 -0.21112917
68 0.015356609 -0.01911935 -0.004062754 0.036438823 0.12552747 -0.055516966 -0.05324552 -0.018697552 -0.09870085 -0.059717238 0.18270877 -0.053792894 0.06624359 -0.058519203 0.06503994 -0.20706609 0.19695273 0.006791586 -0.10801822 -0.032810982 -0.007830093 0.20212807 -0.07316542 0.042305026 0.08760726 -0.052292243 0.08624719 -0.026101725 -0.121798925 -0.23963857 -0.116521664 0.059230804 0.020868445 0.053940423 -0.08789981 0.09467959 -0.009082059 0.021447634 -0.012246643 -0.049056057 0.034621935 0.1807766 -0.062469963 0.004225823 0.019075355 -0.012456811 -0.15504411 0.0016069615 -0.028562905 -0.047744524 -0.22065935 0.06998237 -0.03485442 -0.024123527 -0.07344363 -0.17082906 -0.03530494 0.18404314 0.15769064 0.0063895327 -0.04454537 0.10965337 -0.15625538 -0.24642242 -0.06373238 -0.03694133 -0.13973287 0.15490524 0.0101853 0.20829044 0.24690613 -0.09320136 -0.07619898 0.011632532 0.029529475 -0.12989165 0.0541469 0.037330654 -0.11422761 -0.043219924 0.06248911 0.09806249 -0.07009287 -0.13667396 -0.12569645 -0.2914156 0.098168045 -0.054940738 0.036422685 0.15713121 -0.04123117 -0.10893811 0.06340359 -0.09045121 -0.056743264 -0.08488802 -0.06126784 0.050539255 -0.066960804 0.13352776 -0.028220074 -0.08312421 -0.07253601 -0.05998297 0.07286593 -0.110854246 0.044442583 -0.09785053 -0.024149293 0.023066403 0.03652966 0.19681391 0.07938294 -0.08666408 -0.06303972 -0.10479257 -0.10338514 -0.046058346 -0.116462566 -0.09866904 0.17591473 -0.016357318 -0.013389899 0.13011046 -0.14588419 -0.017451221 -0.0685662 -0.22091222
60 -0.058913548 -0.050205987 0.104665905 0.035166584 0.14594066 0.008143116 -0.14061132 0.025444526 -0.021054516 -0.05600869 0.2481541 -0.1312951 0.10163844 -0.041473415 0.090850174 -0.1762814 0.16779177 -0.036457837 -0.08735294 -0.05697782 0.017697623 0.20642585 -0.027982024 0.12232569 0.12274311 -0.020834863 0.074443385 -0.031022789 -0.053337634 -0.3227417 -0.08442332 0.081480235 -0.046179872 -0.011351762 -0.03625265 0.1800891 0.0036266085 0.10032578 0.056203306 -0.047121722 0.07812348 0.2347481 -0.07208571 0.037867833 0.05203993 -0.010347893 -0.28747916 -0.06448027 0.03642306 0.053677876 -0.29640874 0.114325985 -0.25922197 -0.019985652 0.04966062 -0.25241628 -0.08972145 0.22566782 0.055949237 -0.043187935 0.0104026105 0.042216375 -0.15565017 -0.3216071 -0.14152248 -0.1193793 -0.10441337 0.12451544 0.038216054 0.27596244 0.2504511 -0.09746356 -0.054185238 -0.16604029 -0.0019269027 -0.16988744 -0.008098987 0.06496112 -0.24844956 -0.030857768 0.06793651 0.1371209 -0.1429799 -0.1181693 -0.057106897 -0.38879064 0.15605295 -0.101174615 0.030788442 0.22910076 -0.019929267 -0.1314849 0.13028406 -0.19717401 -0.020464228 -0.07968231 -0.0800798 -0.03933854 -0.047689542 0.18532567 -0.021789772 -0.05285615 -0.013869057 -0.12527344 0.15489526 -0.17382714 0.0005323853 -0.13624619 -0.10489098 -0.06426087 0.031777464 0.3634285 0.12524125 -0.10278529 -0.11736313 -0.095295005 -0.042920176 -0.15309834 -0.111326694 -0.13473718 0.2156183 -0.03606398 0.021920985 0.1766554 -0.21948159 -0.14781171 -0.2008503 -0.27695096
76 -0.024775375 -0.052891117 0.07557367 0.06420016 0.14462346 0.03770537 -0.1408192 -0.024716938 0.0052346317 -0.025744831 0.2481858 -0.13554883 0.07983318 -0.04448166 0.040015087 -0.18308161 0.122934 -0.03551001 -0.069140196 -0.024369953 0.06351701 0.24219769 -0.015671154 0.13214731 0.06420742 0.0024625575 0.018744696 -0.01172085 -0.0705756 -0.30508155 -0.035847113 0.14786159 -0.030110069 -0.06920288 -0.04232391 0.14682348 0.011165949 0.06230217 0.071167335 -0.02146368 0.07392408 0.25960925 -0.060719036 0.023489919 0.024145545 -0.023101602 -0.2661846 -0.07117397 0.013797031 0.0512349 -0.29718077 0.14456965 -0.25054383 -0.0120525 0.064952545 -0.23116964 -0.094496906 0.21583578 0.07465762 -0.049381953 -0.022274295 0.025023708 -0.1329817 -0.2709047 -0.13819371 -0.1330856 -0.092304 0.08026596 0.03824635 0.26805678 0.27584836 -0.09098107 -0.050284706 -0.11719475 -0.010947077 -0.1525066 0.017380696 0.08601385 -0.21896453 -0.05196043 0.097967416 0.18349871 -0.14177679 -0.0883468 -0.044710193 -0.35999534 0.14006276 -0.035136644 0.03957296 0.2738044 0.00062387413 -0.14107217 0.16084024 -0.16055213 -0.08901812 -0.077087745 -0.037745427 -0.057383098 -0.01845401 0.1732275 -0.030432409 -0.004018655 -0.008066345 -0.11300133 0.16180757 -0.1503153 0.033584487 -0.15703875 -0.12885574 -0.10249559 0.023550004 0.39257756 0.17708421 -0.09468588 -0.16740844 -0.08913302 -0.018813161 -0.10539033 -0.13015653 -0.106699914 0.16229399 -0.009886198 0.048067674 0.18163462 -0.19790187 -0.15694007 -0.18261252 -0.2669676
71 -0.028082198 -0.032897968 0.0118737 -0.010132087 0.11893434 -0.08271085 -0.062215492 0.054461036 -0.16345076 -0.08148924 0.2264574 -0.05332539 0.07269556 -0.09296806 0.15088406 -0.21199311 0.2048886 -0.032718442 -0.11664684 -0.08561747 -0.06292463 0.19440281 -0.09178114 0.056609116 0.13492419 -0.07396031 0.10329917 -0.026709514 -0.11073029 -0.2605946 -0.18184209 -0.0023031188 0.013172299 0.084557205 -0.07718786 0.14328161 -0.020960838 0.073673844 -0.029715424 -0.0500805 0.031152764 0.18462501 -0.070394374 -0.00067231455 0.021785686 -0.0031765003 -0.1719347 -0.02843765 -0.021581426 -0.056037415 -0.24431294 0.07845967 -0.04405417 -0.04151684 -0.08555224 -0.22696374 -0.015035344 0.1994993 0.15144394 0.014309042 -0.016260732 0.12249214 -0.20989004 -0.29735222 -0.034587365 -0.04360348 -0.15144533 0.18988468 0.008658104 0.19347306 0.25490057 -0.10847724 -0.061435886 -0.07335149 0.026013197 -0.14725034 0.04267527 0.029766306 -0.13679072 -0.008861536 0.03464144 0.057624027 -0.045031276 -0.19688639 -0.15239675 -0.31287307 0.118551716 -0.104828656 0.046881568 0.12379469 -0.07160948 -0.11383076 0.028729536 -0.09860147 -0.01716621 -0.10654121 -0.09865667 0.047025032 -0.12326086 0.18360233 -0.025714943 -0.13933659 -0.058082018 -0.077962786 0.064106144 -0.13074902 -0.0323318 -0.08341612 -0.0109455995 0.07204376 0.058027778 0.17203675 0.055865005 -0.067345425 -0.019082904 -0.09086184 -0.14052583 -0.092289895 -0.121955566 -0.116040766 0.21207285 -0.008235541 -0.04859101 0.12512976 -0.12278175 -0.019594226 -0.061600678 -0.23127046
29 -0.010596965 -0.23883764 0.05644435 -0.27705535 -0.100647494 -0.15384053 0.04101178 0.14732724 -0.21458559 -0.1693119 0.2985521 0.06641372 0.089392535 -0.09595686 0.31075037 -0.14025253 -0.016857378 -0.107053176 -0.032437235 -0.020474315 0.018080138 0.12176239 -0.15569678 0.17494409 0.17338483 -0.07180618 0.17348216 0.08210715 0.03210032 -0.15533024 -0.093277864 -0.08015698 0.100998744 0.22254318 -0.058120105 0.19772543 -0.026578989 0.19412205 -0.027991842 -0.05652417 -0.051752362 0.175484 -0.113354966 -0.13855541 0.011213198 0.08798683 -0.13165736 0.08254095 -0.04366881 -0.10436595 -0.25014105 0.17105374 -0.0029816297 0.0102135055 0.04751033 -0.32128695 0.087946594 0.17088063 0.043090314 -0.053288303 0.047647264 0.21742718 -0.35291064 -0.29266125 0.02562156 -0.034129146 -0.042562418 0.22908284 0.05593886 0.06072274 0.19231227 -0.11763588 -0.083940774 -0.19380103 -0.09546045 -0.23673111 -0.027629202 0.19695424 -0.16267273 0.078204386 -0.12939137 -0.06410324 0.16682272 -0.35911587 -0.29654142 -0.40523094 0.11038769 -0.11296907 -0.01091672 -0.10176345 -0.09391062 -0.23999076 -0.10096532 -0.05123322 0.15736008 -0.21991523 -0.11325074 -0.09134099 -0.3295707 0.28703108 -0.06420244 -0.21911521 0.030122537 -0.082609236 0.014201971 -0.07395984 -0.25275737 -0.057959832 0.08290025 0.028812604 0.23158155 -0.017762486 -0.09024304 -0.10791238 0.22060117 -0.012785316 -0.18384163 -0.29855162 0.051478267 -0.17295358 0.23885003 0.012970432 -0.08882048 0.185575 -0.13000679 -0.07116322 -0.043468133 -0.09846991
75 0.008421239 -0.008404885 -0.012784447 0.06879879 0.14226386 -0.034922775 -0.08112424 -0.02376508 -0.10853472 -0.033535235 0.22048415 -0.06305611 0.047955457 -0.09166576 0.06307759 -0.23037528 0.17363529 -0.016327726 -0.09746476 -0.050871115 -0.006540923 0.23998871 -0.056407873 0.06454478 0.07260974 -0.030483983 0.017622009 -0.027285129 -0.14352421 -0.2661539 -0.119341 0.09869044 0.024339579 -0.0094601605 -0.08284327 0.1093498 -0.008418517 0.020247879 -0.0029069558 -0.016196046 0.04958979 0.23426992 -0.05490721 0.0034542296 -0.009669894 -0.017175542 -0.17641307 -0.063151084 -0.034118112 -0.033654097 -0.2683679 0.12353279 -0.072801515 -0.037838534 -0.04639597 -0.19958477 -0.04459623 0.19585304 0.17733128 -0.004924638 -0.0605009 0.087913856 -0.15902509 -0.2557241 -0.056886703 -0.07263243 -0.15450023 0.13043416 0.017314231 0.21061459 0.29786336 -0.10910944 -0.06573533 -0.012842884 0.028960645 -0.12799415 0.07324039 0.04284984 -0.12522094 -0.05517959 0.096309446 0.13440225 -0.07280063 -0.13829373 -0.123341955 -0.3103662 0.113320276 -0.021227038 0.072349966 0.2193992 -0.044791598 -0.1315267 0.101298235 -0.080948554 -0.11206722 -0.09316146 -0.060379203 0.022231419 -0.05765707 0.17301813 -0.04164178 -0.057714533 -0.05179654 -0.064878345 0.09615794 -0.12060688 0.038850475 -0.13090289 -0.07098057 0.0029726536 0.036269974 0.26000765 0.1607813 -0.05989254 -0.12897974 -0.097443976 -0.09379658 -0.033242047 -0.1697415 -0.085388 0.16559276 0.01152743 -0.007840634 0.14337063 -0.121216364 -0.042091798 -0.07960356 -0.25635046
19 0.26532984 -0.28815955 -0.16793695 -0.09470779 -0.121264346 -0.08699234 0.072258465 -0.29777637 -0.20145865 -0.01937286 0.38370425 0.13932528 -0.07478349 -0.12836722 -0.06327021 -0.30574846 -0.275604 -0.027210696 0.05135941 0.20084172 0.29148793 0.38905215 -0.1410117 0.1647666 -0.16622022 0.012640043 -0.2588745 0.13746409 -0.23059732 -0.047555164 0.23934263 0.3963021 0.28883335 -0.06520604 -0.17064685 0.009765459 0.0061023487 -0.00028311604 0.06335802 0.051964536 -0.08442299 0.30569306 -0.078290336 -0.25762567 -0.24398358 0.17900382 0.05731885 0.03403367 -0.174124 -0.1944614 -0.35462132 0.44805568 0.17916606 0.013761903 0.19021374 -0.25152767 0.11449929 0.08130228 0.33478642 -0.101111546 -0.22084805 0.21407329 -0.26699102 -0.01013478 0.06357912 -0.1266293 -0.06894479 0.029156629 0.107819915 0.01454097 0.4663165 -0.11645972 -0.11383674 0.17822605 -0.12922205 -0.1956572 0.22364183 0.3602561 0.024385428 -0.12207242 0.027851906 0.24787137 0.25610232 -0.24703434 -0.38544413 -0.38964313 0.011650297 0.32469028 0.13602026 0.14563507 -0.0949407 -0.45462176 0.10538333 0.24298404 -0.32727703 -0.24591304 0.066628195 -0.14489381 -0.23767556 0.29642162 -0.21314405 0.089532375 -0.01854625 0.0032050293 0.046668276 0.07320886 -0.011717435 -0.25011322 -0.025332602 -0.19991541 0.24848361 0.11598414 0.32533875 -0.10469565 -0.04872528 -0.008535013 -0.20013781 -0.018826421 -0.09437941 -0.09902449 -0.02745519 0.19612673 0.025145732 0.26908195 -0.06831663 -0.033925712 0.06979993 -0.117386416
18 0.23143724 -0.25055856 -0.16218898 -0.070234 -0.10243956 -0.08603103 0.06276985 -0.2769791 -0.21416283 -0.017647695 0.34491584 0.12235925 -0.07654932 -0.12137522 -0.066549145 -0.2959041 -0.23532994 -0.016893363 0.045252003 0.1648672 0.24544504 0.35853997 -0.1260602 0.12085756 -0.14727546 -0.0024227542 -0.24309333 0.1125172 -0.23387702 -0.042145204 0.2015463 0.3544348 0.25854263 -0.06673781 -0.1622542 0.011756224 0.005938343 -0.01030543 0.060919188 0.041498497 -0.06849068 0.26216388 -0.06636627 -0.22463728 -0.22833045 0.17147116 0.06325469 0.022894453 -0.15076353 -0.18363419 -0.31668043 0.40946618 0.18176699 -0.001482489 0.15444894 -0.22359535 0.10847584 0.0709267 0.3310533 -0.08185945 -0.213168 0.1979472 -0.23948182 -0.010088118 0.061592773 -0.111380294 -0.08759631 0.032226667 0.09885815 0.019785633 0.43974558 -0.10415283 -0.09770309 0.16831924 -0.10127467 -0.17317177 0.22173414 0.30192354 0.03887227 -0.116844535 0.035938006 0.2201779 0.23184712 -0.23270915 -0.35903004 -0.34551117 0.010801004 0.2956148 0.1417744 0.12656048 -0.10722407 -0.4159354 0.094081394 0.22154528 -0.3147714 -0.22227567 0.043518003 -0.10827316 -0.21424015 0.2679447 -0.20211224 0.0812761 -0.026886016 -0.005160621 0.03269869 0.067626655 -0.0034781182 -0.2301861 -0.016729288 -0.1594789 0.21662606 0.09674247 0.3101533 -0.086664975 -0.047904283 0.0016746843 -0.19993599 -0.00620515 -0.09716505 -0.09287562 -0.03139097 0.18505245 0.0073321904 0.22288063 -0.05202423 -0.00924059 0.07411809 -0.10337493
20 0.28238997 -0.26664212 -0.18745667 -0.13816606 -0.13542317 -0.057761174 0.10335331 -0.29911953 -0.12319944 0.00080579333 0.30618882 0.12859555 -0.04795781 -0.0807177 -0.04322685 -0.22906813 -0.25230682 -0.0499298 0.051290315 0.254195 0.2793466 0.35964954 -0.167063 0.16635531 -0.21883132 0.0088640135 -0.14638059 0.20398661 -0.18820769 -0.0016640841 0.24087791 0.38307288 0.26963347 -0.041626837 -0.15373646 -0.07395825 0.039016884 -0.045718465 0.023611708 0.053987697 -0.1385001 0.2506358 -0.059422325 -0.26103523 -0.1846926 0.10121098 0.099133 0.116665885 -0.19509953 -0.23635261 -0.2452231 0.32380486 0.262207 0.06530626 0.046221685 -0.14397524 0.10671594 0.080279164 0.32008457 -0.06400808 -0.23781942 0.1821193 -0.26075682 0.03005678 0.040636454 -0.061371468 -0.026690772 0.018700488 0.0695402 -0.0007838344 0.41435033 -0.11594873 -0.10448524 0.28016385 -0.13381502 -0.17132209 0.1904504 0.3244822 0.090182275 -0.092376135 -0.0038493136 0.21259074 0.23577754 -0.19265035 -0.32910573 -0.2502217 -0.070808925 0.3116733 0.08033203 0.100157246 -0.03949435 -0.32650322 0.076898724 0.23729187 -0.31096894 -0.23704141 0.18598086 -0.09828392 -0.2063183 0.21106638 -0.135827 0.067798436 -0.07184346 0.026342293 0.031322412 0.07179527 0.049903758 -0.17480893 0.039344016 -0.18308179 0.19799009 0.07951257 0.20971723 -0.12306841 0.012926526 -0.028449053 -0.16358806 0.06929361 -0.0864244 -0.06528891 -0.082821764 0.12102746 0.0398677 0.24499218 -0.07518422 -0.02671504 0.15795718 -0.06329641
34 0.0138055775 -0.26460344 0.028376086 -0.35572168 -0.12551996 -0.17777587 0.07022985 0.16592793 -0.23356335 -0.17680107 0.31124198 0.09645287 0.10479912 -0.106314406 0.3804994 -0.13240369 -0.009202625 -0.13519058 -0.037993405 -0.003909068 0.007658071 0.12918851 -0.198673 0.20619182 0.15309374 -0.07822543 0.2306069 0.13344654 0.030806663 -0.13686661 -0.11510213 -0.093887456 0.1208376 0.271789 -0.05754394 0.1788327 -0.014076593 0.20209989 -0.06646479 -0.06269475 -0.092611924 0.16276659 -0.11818572 -0.175578 0.031276885 0.064785786 -0.10154437 0.12534884 -0.07978941 -0.17814744 -0.23407824 0.14905263 0.07944427 0.037037753 -0.03921688 -0.3048203 0.12381567 0.17152919 0.064863846 -0.024441822 0.034739174 0.24531075 -0.41072932 -0.2954194 0.04534631 -0.011673315 -0.037774127 0.25497025 0.039190315 0.033537477 0.20358236 -0.13002574 -0.091803074 -0.15826717 -0.099490926 -0.24832477 -0.0219505 0.20880812 -0.13044 0.11321043 -0.15644777 -0.09147283 0.20892996 -0.3854534 -0.32678494 -0.36224282 0.078021504 -0.12482629 -0.029548675 -0.1412088 -0.09219124 -0.20855154 -0.14595793 -0.017608583 0.17255436 -0.23802923 -0.07570731 -0.07144915 -0.37874925 0.29713055 -0.051192924 -0.2580072 -0.0024368973 -0.06337423 -0.010917206 -0.067496575 -0.27045152 -0.020546755 0.13275915 0.06486191 0.24389943 -0.06828023 -0.15741514 -0.10832091 0.2888775 -0.020142525 -0.20370139 -0.2735379 0.056829635 -0.16514578 0.2222008 0.004324668 -0.10751114 0.18334126 -0.10847734 -0.052257013 0.03049194 -0.07265153
36 -0.008562193 -0.23380588 0.055716243 -0.34239098 -0.088621005 -0.17994525 0.045545306 0.19648615 -0.21219772 -0.20213771 0.28734517 0.05999481 0.1367238 -0.08531978 0.38730568 -0.13274261 0.07946201 -0.11973285 -0.076569326 -0.02658916 -0.021051422 0.10827267 -0.20441738 0.17954628 0.20365092 -0.09950269 0.31404817 0.10165923 0.06747549 -0.17806876 -0.15697697 -0.14681394 0.08684917 0.31321794 -0.059302565 0.19099154 -0.008996377 0.20774315 -0.069264635 -0.088524856 -0.075788386 0.13858692 -0.13372692 -0.13007951 0.079531156 0.045912843 -0.13773975 0.14843331 -0.055440053 -0.15427125 -0.21951361 0.07222218 0.052911177 0.029517319 -0.07956266 -0.29885343 0.09054167 0.19846101 0.05202429 -0.010268404 0.053545088 0.24660641 -0.39249846 -0.3496354 -0.0006660911 0.016870389 -0.049406458 0.28539544 0.029766113 0.091134205 0.17293629 -0.12951513 -0.09671299 -0.16089381 -0.07989792 -0.24885999 -0.050350655 0.16404124 -0.15940464 0.112630375 -0.17134152 -0.1141444 0.14928384 -0.37654495 -0.29689005 -0.3713717 0.08616399 -0.18798731 -0.046921555 -0.15180087 -0.08661296 -0.17374566 -0.15318246 -0.08626606 0.2313586 -0.22099447 -0.09738513 -0.032289267 -0.3501165 0.27006993 -0.025734385 -0.29390278 -0.024686487 -0.0860175 0.0050375545 -0.09524484 -0.26158106 0.005721028 0.13912381 0.08812051 0.21825409 -0.05848763 -0.21467496 -0.13053021 0.3082761 -0.039953332 -0.18969677 -0.3038886 0.07139631 -0.18120575 0.2745616 -0.04430221 -0.11532501 0.17779736 -0.16766654 -0.052728802 -0.0024842476 -0.10023002
22 0.29487842 -0.26059547 -0.18532339 -0.12245036 -0.102710694 -0.056052424 0.099972375 -0.30508 -0.11598279 -0.0058521465 0.31996873 0.12023004 -0.045299657 -0.07797801 -0.049389362 -0.24703132 -0.21774712 -0.03229192 0.029077185 0.24663818 0.29149902 0.37491572 -0.16244705 0.17001975 -0.21765378 0.008510609 -0.14885361 0.19297105 -0.20909226 -0.02601615 0.23761658 0.39742944 0.2567713 -0.047083933 -0.15329805 -0.07124542 0.041072402 -0.043431718 0.0261421 0.039520327 -0.12478989 0.26844794 -0.07385843 -0.25494048 -0.17544983 0.09288953 0.07975728 0.111780114 -0.2012197 -0.24722923 -0.26670182 0.32738212 0.2483706 0.076231934 0.030164521 -0.15231441 0.1003714 0.08859042 0.33606836 -0.057424504 -0.24377915 0.19743407 -0.2693191 0.019084131 0.026107442 -0.07892751 -0.037983704 0.034896 0.056201704 0.039285515 0.43739456 -0.119566984 -0.11582016 0.2805458 -0.11979071 -0.18277547 0.18702744 0.32491243 0.06598327 -0.08614274 0.018780021 0.23943412 0.2094133 -0.18078388 -0.32066628 -0.2764116 -0.052427486 0.28809234 0.07696927 0.14137267 -0.043480348 -0.3198403 0.091578916 0.21538481 -0.3278409 -0.22190867 0.18748403 -0.08734324 -0.20255357 0.21492632 -0.15357633 0.07832861 -0.10080318 0.024162216 0.047055863 0.056902155 0.078240335 -0.19857454 0.029815547 -0.18004505 0.18561566 0.123568475 0.22096623 -0.13976829 -0.007023945 -0.052452702 -0.16660108 0.08169083 -0.10166547 -0.08080647 -0.060885925 0.11721121 0.047339056 0.25452927 -0.10124112 -0.035536796 0.13693447 -0.106397614
17 0.30033952 -0.3211694 -0.19930992 -0.1793711 -0.16407365 -0.10471977 0.13022968 -0.28387675 -0.21084327 -0.031458855 0.37237954 0.17665754 -0.06076267 -0.1171645 -0.008305566 -0.27750146 -0.28834456 -0.053525943 0.050476365 0.2330472 0.2913981 0.38297212 -0.19040063 0.18635498 -0.19670135 -2.8674724e-05 -0.19141075 0.20475458 -0.22422051 0.0005575083 0.2306922 0.37641236 0.31107467 -0.018634994 -0.17202193 -0.035005394 0.019946912 -0.005064901 0.018246938 0.053892527 -0.14303593 0.28994453 -0.08279286 -0.30428416 -0.21941656 0.15032999 0.10161282 0.09940327 -0.2153086 -0.2768408 -0.31048447 0.41321367 0.28934947 0.057923455 0.09457509 -0.21858364 0.1505799 0.08087274 0.35732543 -0.07224933 -0.23821333 0.24741691 -0.32936054 0.011275656 0.08711219 -0.08969512 -0.050132617 0.05550081 0.08020919 -0.017447246 0.47015387 -0.13170008 -0.12315072 0.23727173 -0.14027077 -0.21561505 0.2144354 0.37502852 0.07856248 -0.08018848 -0.008854528 0.20468986 0.3095617 -0.26983854 -0.4196929 -0.33083367 -0.03500342 0.31257394 0.10239874 0.082777254 -0.090580314 -0.41083634 0.05694192 0.26533067 -0.31458178 -0.2759874 0.13586399 -0.12697527 -0.2884309 0.29031542 -0.1873786 0.052506566 -0.060979296 0.026901145 0.016535886 0.08315842 -0.009260741 -0.21741797 0.042771604 -0.16845427 0.2614462 0.046945527 0.24605411 -0.12472273 0.035312906 -0.021027785 -0.23094119 0.01673825 -0.08589596 -0.10013966 -0.05090887 0.17312841 0.008931608 0.26732033 -0.059425507 -0.010587124 0.15509866 -0.08130057
21 0.3070837 -0.27264294 -0.19782117 -0.10053785 -0.10876198 -0.07828827 0.101028785 -0.32618356 -0.16561997 0.0016191194 0.34052247 0.14226711 -0.073974155 -0.10144401 -0.08989403 -0.282596 -0.24328703 -0.009792718 0.031138511 0.22979827 0.30246136 0.3849743 -0.15134384 0.15712178 -0.21119857 0.015536959 -0.22800845 0.16890335 -0.25512046 -0.02557914 0.25131282 0.4213059 0.27871788 -0.06399883 -0.16940385 -0.052092012 0.026750986 -0.032660883 0.049428754 0.051429145 -0.10687256 0.2840398 -0.078725465 -0.2621198 -0.21466666 0.13990198 0.08612576 0.06621185 -0.20067053 -0.25051552 -0.30791104 0.40286165 0.24607651 0.044010498 0.10003924 -0.18482947 0.1207299 0.07311987 0.37018782 -0.07579729 -0.2574552 0.2160867 -0.26432136 0.028966228 0.04705726 -0.10846371 -0.060149252 0.03514087 0.0781579 0.020267094 0.46829993 -0.11306118 -0.11992325 0.2617351 -0.114243224 -0.18796335 0.22380021 0.3486824 0.061927985 -0.109365396 0.043315396 0.2563157 0.2344478 -0.20628254 -0.3692114 -0.31760934 -0.022791034 0.32072985 0.11059166 0.15360902 -0.07335478 -0.3909177 0.10209581 0.2529765 -0.3586836 -0.22777997 0.1373853 -0.10476803 -0.2238257 0.2516814 -0.19508223 0.10349573 -0.08139979 0.029818619 0.04839724 0.073510155 0.063256636 -0.24128017 0.0045218053 -0.18692428 0.21455278 0.118659906 0.29312944 -0.1296674 -0.041920327 -0.03917771 -0.20109883 0.05461637 -0.11581712 -0.09595802 -0.05516377 0.17043433 0.040389393 0.26584 -0.07776589 -0.017232414 0.11786191 -0.12837245
38 0.046064984 -0.24486792 0.0042321905 -0.3358101 -0.12232962 -0.14877698 0.079860054 0.12540841 -0.18298465 -0.15588537 0.2743144 0.08855424 0.096975416 -0.078637354 0.33621803 -0.1170597 -0.014161268 -0.12686999 -0.034357704 0.033728227 0.022287 0.14562784 -0.19984256 0.19936234 0.11654714 -0.07686322 0.2417249 0.14858975 0.03691657 -0.12159273 -0.09138752 -0.05631067 0.12369975 0.2551673 -0.06359476 0.12926973 -0.003473982 0.16775502 -0.06966822 -0.051307064 -0.108806156 0.16126639 -0.108731896 -0.17311862 0.03196172 0.038324725 -0.081717335 0.15594015 -0.0991017 -0.1793185 -0.19873936 0.11134076 0.10506268 0.050996788 -0.07322876 -0.25298056 0.10861502 0.16875584 0.07229486 -0.01665525 0.012772423 0.2261634 -0.38314375 -0.2588255 0.022478854 0.01709448 -0.016027287 0.23663545 0.03288227 0.033891987 0.19375888 -0.13355881 -0.0891175 -0.08112731 -0.10464129 -0.22678122 -0.027399726 0.20043194 -0.09805227 0.09604179 -0.15486456 -0.068455115 0.1864393 -0.3440546 -0.29718217 -0.31963584 0.042552974 -0.09787218 -0.036234498 -0.12605162 -0.067304425 -0.16895118 -0.13060804 -0.010789558 0.14160301 -0.22623241 -0.018630529 -0.059993505 -0.33989722 0.2543456 -0.03040344 -0.22982647 -0.028087497 -0.052222908 -0.0047803465 -0.06201923 -0.2151308 -0.011711895 0.13819928 0.045831814 0.21897702 -0.058955543 -0.16778655 -0.12818904 0.2688137 -0.03089607 -0.17489895 -0.2183426 0.044015057 -0.1473138 0.18449992 -0.022433912 -0.077720426 0.18222556 -0.11877669 -0.0530275 0.057769906 -0.05728547
37 0.027244216 -0.26125118 0.023040982 -0.33570722 -0.14761484 -0.15675434 0.08276584 0.13787298 -0.1808101 -0.16791607 0.2681755 0.10210627 0.098078445 -0.07829 0.3345819 -0.10230787 -0.03398594 -0.11769583 -0.021642951 0.03216308 0.026741538 0.11290712 -0.19281377 0.199779 0.1500098 -0.07592517 0.23815277 0.13561223 0.06825551 -0.115168214 -0.0735491 -0.07819753 0.12762326 0.27350512 -0.07044767 0.15511154 -0.012471363 0.1718929 -0.063924484 -0.053536803 -0.09928035 0.15598519 -0.10467152 -0.16189781 0.01765718 0.0643263 -0.09546952 0.16062056 -0.08108122 -0.15694286 -0.20533577 0.12531306 0.074766755 0.046210874 -0.0127801 -0.27686596 0.10655025 0.16706938 0.039547093 -0.036758687 0.03590464 0.23174357 -0.3726259 -0.2712871 0.030579431 0.016425371 -0.0089872 0.23977639 0.04791654 0.021607734 0.16365223 -0.123915106 -0.0973477 -0.11138202 -0.114134744 -0.2285379 -0.045326613 0.20817164 -0.116071865 0.078703396 -0.17064528 -0.091606155 0.20726436 -0.3643991 -0.3005462 -0.35561347 0.06535218 -0.09874699 -0.04590997 -0.15972577 -0.06630979 -0.20474 -0.13327439 -0.012983834 0.18197829 -0.23308268 -0.060983956 -0.089992344 -0.33673835 0.25087377 -0.03002262 -0.23838136 0.012549602 -0.061811592 -0.012414435 -0.05331896 -0.2527705 -0.014125444 0.14054036 0.028944582 0.23860829 -0.08616205 -0.1685379 -0.13229625 0.2781045 -0.019090585 -0.17272615 -0.26919898 0.07787457 -0.15210244 0.20250618 -0.014491003 -0.08405463 0.18673168 -0.10969657 -0.049578182 0.029564312 -0.02445843
35 0.01576682 -0.25162077 0.036636494 -0.32359436 -0.10251022 -0.19205244 0.06320866 0.16706675 -0.26155746 -0.18194114 0.31359777 0.09631451 0.09860888 -0.11681478 0.3454554 -0.15580398 0.0020029568 -0.10544393 -0.051747803 -0.03866884 0.0063048243 0.11462604 -0.17906249 0.17889182 0.17435558 -0.0755681 0.17843844 0.094827995 0.008107112 -0.13841824 -0.11261486 -0.10713154 0.11166713 0.2621063 -0.06560771 0.18917802 -0.031024242 0.20022273 -0.046510845 -0.06291107 -0.062634364 0.15618698 -0.13076946 -0.1615943 0.016885562 0.090941004 -0.103857 0.08428007 -0.068595506 -0.16286409 -0.25309128 0.17129083 0.071096584 0.011316191 -0.0050981157 -0.31100288 0.12897465 0.15646115 0.085258804 -0.027568107 0.033436634 0.26433367 -0.38583115 -0.29058278 0.053501684 -0.0262157 -0.060097903 0.25523877 0.042042986 0.047202274 0.20231944 -0.11928697 -0.09430912 -0.17675574 -0.08137278 -0.2508975 -0.007242369 0.2008313 -0.13921845 0.10554919 -0.13666058 -0.08574694 0.1959695 -0.3898622 -0.34101582 -0.39324385 0.09843598 -0.13209175 -0.013398251 -0.13035548 -0.11038988 -0.24192858 -0.13352923 -0.023561789 0.16802524 -0.22379883 -0.11854357 -0.059487134 -0.3725061 0.30965653 -0.07893652 -0.24503976 0.0017075209 -0.059159975 -0.0035979198 -0.071549386 -0.26893875 -0.044008058 0.109514736 0.07870328 0.2500459 -0.067774475 -0.12471138 -0.10451096 0.2619237 -0.018516507 -0.22089425 -0.29169264 0.058814425 -0.1772534 0.24898769 0.025683327 -0.114673615 0.17438637 -0.109509945 -0.04164225 -0.00033563853 -0.107433066
28 -0.13007373 -0.067852415 0.004222884 -0.057568096 0.01007044 -0.023395067 -0.1372323 -0.049692906 -0.24674067 -0.10274018 0.2262777 -0.09018045 0.08450907 -0.090133525 0.1851851 -0.22325893 0.112309046 -0.12134852 0.0027932366 -0.026601229 -0.10138325 0.24132855 -0.17277943 -0.026349345 0.17632556 -0.15383169 0.26299676 -0.00089288875 0.065338135 -0.27082267 -0.16287169 -0.014623508 0.075772725 0.10485888 -0.124311574 0.14946875 0.05819385 0.05363387 -0.02852612 -0.0338558 0.037384488 0.124203704 -0.01556057 0.001944507 -0.031887703 0.0013755229 -0.1563057 0.082717136 0.023247762 0.073339626 -0.222202 0.009540261 -0.03907203 -0.098671265 -0.03504596 -0.2397663 -0.14861758 0.29435924 0.15657143 0.039888952 -0.060308155 0.06684641 -0.23876756 -0.36257634 -0.12089154 0.09546583 -0.16271363 0.11890739 0.120319456 0.22878127 0.26557043 -0.14257552 -0.0477899 -0.029869486 -0.04866261 -0.09092171 0.09003395 -0.033578582 -0.013167729 -0.09783952 -0.14302693 -0.004168886 -0.004197861 -0.28095165 -0.18615323 -0.3325132 -0.03645883 0.031291664 0.140915 0.009005998 -0.07469721 -0.1821266 0.016779438 -0.15978596 -0.034658942 -0.24203797 -0.1258121 0.045943275 -0.09589894 0.22301918 0.051814556 -0.22186781 -0.016862918 -0.20997246 0.06881315 -0.1033928 -0.16422832 0.021765158 0.060752627 0.019746035 0.14151119 0.117836535 0.021885013 -0.123502515 0.074006364 -0.0015556153 -0.093030795 -0.24923383 -0.08210165 -0.12069753 0.15743054 -0.0864915 -0.12276936 0.13766098 -0.15310672 -0.033013426 0.0014531218 -0.04732096
31 0.061374508 -0.14112441 -0.057067156 -0.09240778 -0.02731011 -0.04901705 0.0049425145 -0.10057945 -0.13189869 -0.03696463 0.26320028 0.024754543 0.022341995 -0.08580625 0.109549716 -0.17385408 -0.04908643 -0.0815708 0.00095277204 0.075217806 0.071685165 0.2540595 -0.13038243 0.114635944 -0.028024543 -0.043466292 0.024656937 0.1074186 -0.09289027 -0.12171552 0.004045903 0.1487306 0.117516264 0.00772841 -0.08714039 0.048993893 0.008564778 0.022833018 -0.017172895 0.0074337726 -0.058454387 0.19546907 -0.047720548 -0.13131475 -0.07230452 0.01507077 -0.030323286 0.055388417 -0.099727586 -0.12178075 -0.19983682 0.1627805 0.0842052 0.007820233 -0.048139207 -0.1800862 0.020192869 0.14977066 0.18617386 -0.026141072 -0.095268995 0.107350945 -0.24255446 -0.14233735 0.0062365457 -0.03309745 -0.05646756 0.08685545 0.03445229 0.0810277 0.31086242 -0.11381477 -0.06423742 0.053448085 -0.06428193 -0.14785954 0.08887633 0.14254974 -0.01252745 -0.014066746 -0.016155807 0.09679784 0.10115 -0.19722497 -0.20135054 -0.24918184 -0.009054656 0.10227887 0.061137617 0.089048564 -0.052764524 -0.1739913 0.030421922 0.02582471 -0.14931975 -0.18870607 0.05598799 -0.022886364 -0.1722701 0.1830918 -0.0513655 -0.061092988 -0.05875984 -0.04822644 0.04267236 -0.032700837 -0.023199879 -0.09300283 0.027637161 -0.043071683 0.12583095 0.11808938 0.10753762 -0.074755676 0.023283172 -0.03557914 -0.12403418 -0.010058751 -0.102379836 -0.07649715 0.047633573 0.040578194 -0.023256531 0.16551748 -0.0835713 -0.04705931 0.06341332 -0.1204591
54 0.13496783 -0.09946734 -0.05169791 -0.00076321955 0.074647315 -0.097920746 -0.008512672 -0.14087965 -0.12497032 -0.09599724 0.20930675 0.018792925 0.026198946 -0.025482535 -0.073785536 -0.27597243 0.13665159 0.099460825 -0.10524202 0.028103635 0.14076146 0.20629045 -0.09893619 0.006734414 0.035034303 -0.058570266 0.0077504595 -0.03294181 -0.1674298 -0.17018126 0.045452163 0.13185763 0.093638904 0.07741251 -0.12737611 0.053175364 0.013245579 0.022143953 0.067487225 -0.10006168 0.020158177 0.0935031 -0.1220912 -0.028270133 -0.011534339 0.12613633 -0.043875355 0.064495645 -0.044380993 -0.13079573 -0.22658771 0.12742478 0.053970315 -0.021875251 -0.011372026 -0.15447412 0.0077650496 0.10803016 0.24441664 -0.022869209 -0.0986752 0.19019245 -0.12864189 -0.16319151 -0.08835841 -0.055492595 -0.14587496 0.16058382 0.027344927 0.22964142 0.29196888 -0.05367573 -0.12016648 0.10946831 0.02517785 -0.166191 0.12259127 0.12090063 -0.09918186 -0.08199241 0.04442569 0.14060493 -0.006140505 -0.15033506 -0.23505287 -0.34768105 0.10013188 0.0016481404 0.055035032 0.11553183 -0.08913565 -0.23422253 0.052722286 -0.019358581 -0.08818702 -0.079697356 -0.08544828 0.078561015 -0.08456715 0.14164318 -0.14735013 -0.01686023 -0.12770267 -0.051091716 0.059699494 -0.029647416 0.07958773 -0.13503549 -0.0055907033 -0.042760566 0.0943976 0.13141935 0.10654936 -0.1366408 -0.0031404342 -0.074936226 -0.14890918 -0.07286456 -0.01096637 -0.144779 0.16437161 0.040590808 -0.03242609 0.1311669 -0.23363529 0.048326258 -0.0858926 -0.21655847
39 0.12683706 -0.08601675 -0.04823307 0.032171603 0.07641862 -0.08703728 -0.012927735 -0.16703878 -0.15410373 -0.07503673 0.21943161 0.026541132 0.01273061 -0.04887939 -0.10164895 -0.28936225 0.11067338 0.09094423 -0.10118549 0.017903578 0.14468683 0.21558374 -0.08124308 -0.004964711 -0.00089406804 -0.033962738 -0.07258184 -0.046008814 -0.20414941 -0.15618232 0.070480384 0.1676204 0.10003903 0.024458168 -0.12420741 0.06090933 0.0053199017 0.001686895 0.06524663 -0.08146445 0.039078124 0.119442895 -0.102070846 -0.046446905 -0.040166702 0.13207197 -0.03738797 0.0053145117 -0.044467896 -0.10540999 -0.24791141 0.17303656 0.060898848 -0.032015305 0.02150421 -0.14064506 0.001608891 0.10383898 0.27943653 -0.015920201 -0.11861838 0.19347478 -0.10632119 -0.1393405 -0.050251186 -0.07808816 -0.16969244 0.11396953 0.040622972 0.21926199 0.30485156 -0.051216464 -0.10559364 0.10603105 0.030538702 -0.15426314 0.1567197 0.12874286 -0.070095524 -0.08928919 0.08032057 0.1533379 -0.0005095383 -0.13531442 -0.23518094 -0.3303586 0.08724983 0.058218677 0.076064445 0.14426085 -0.09377684 -0.2698237 0.079214156 -0.0010336601 -0.14978752 -0.1009782 -0.09511827 0.06443621 -0.089468636 0.15312 -0.15249328 0.0072586862 -0.10880858 -0.037460964 0.058603004 -0.010501792 0.084807664 -0.16881572 -0.02666682 -0.048465006 0.10579924 0.15762655 0.17007713 -0.11494003 -0.04225519 -0.06587132 -0.15474497 -0.05677122 -0.038167223 -0.14036264 0.13561276 0.06477626 -0.032467145 0.120465234 -0.2061612 0.03313716 -0.06419781 -0.22147395
42 0.059340604 -0.018065266 -0.046975605 0.024558485 0.14141247 -0.052270852 -0.03767065 -0.038999535 -0.08815762 -0.05019353 0.19860259 -0.044769883 0.061730072 -0.0600539 0.0558306 -0.22038054 0.2084928 0.005695539 -0.12834395 -0.010991958 0.00965944 0.23119235 -0.08832179 0.06438641 0.037532732 -0.04581607 0.0673288 0.000977438 -0.16537742 -0.235818 -0.10895779 0.095314376 0.029311668 0.04283132 -0.09095676 0.058924265 0.00044229178 0.012632386 -0.017353289 -0.05175931 0.013794949 0.1882667 -0.06857861 -0.015374087 0.024060227 -0.02233361 -0.12932682 0.010846751 -0.06447699 -0.11615442 -0.21054883 0.061206013 0.028848946 0.00092263403 -0.1470725 -0.14033373 -0.006904162 0.15884687 0.20373054 0.020412553 -0.076413974 0.11969548 -0.16202907 -0.22160651 -0.05119716 -0.05046636 -0.13958445 0.15957023 -0.01811398 0.21023102 0.28468275 -0.09313428 -0.07979125 0.07133187 0.033533737 -0.13153505 0.06782618 0.054672588 -0.10367543 -0.02701873 0.07412017 0.120403774 -0.06450045 -0.11651649 -0.12793237 -0.24676163 0.080918714 -0.04719533 0.032501884 0.17446499 -0.044492632 -0.0828253 0.06421313 -0.054043498 -0.103694454 -0.06983229 -0.015672253 0.08448024 -0.072776586 0.12240863 -0.035194505 -0.06844639 -0.112495884 -0.030989971 0.070516765 -0.10192229 0.08996446 -0.09744591 -0.02036836 0.027607499 0.011177557 0.19456919 0.08436418 -0.07520842 -0.057959065 -0.12711465 -0.11760375 0.031381827 -0.1385425 -0.09435804 0.15095451 -0.01706432 -0.005407869 0.124616235 -0.13950707 0.00067240186 -0.022495797 -0.23496881
50 0.0804483 -0.042073857 -0.057407446 0.035006937 0.1303473 -0.105599634 -0.045035124 -0.08544681 -0.17928557 -0.09612134 0.22348274 -0.014028985 0.018684806 -0.07220449 -0.028598327 -0.30783698 0.17350444 0.079497635 -0.12984198 -0.048709575 0.056614682 0.21529914 -0.08941261 -0.009356458 0.07725832 -0.07668509 -0.020118617 -0.07995132 -0.20200148 -0.21040636 -0.057939164 0.085280836 0.06750901 0.058216833 -0.12594256 0.08224135 -0.0102872895 0.04973931 0.046311054 -0.09197732 0.046018455 0.11050515 -0.10321166 -0.007187439 -0.018062087 0.103900425 -0.0722487 0.0023355114 -0.037625182 -0.12990539 -0.24507836 0.13419108 0.03260213 -0.054668553 -0.045637783 -0.19660757 0.012944293 0.11145028 0.24294415 -0.0053300275 -0.08151007 0.17458926 -0.13654478 -0.20026796 -0.058170643 -0.0693788 -0.17522508 0.18255892 0.01777838 0.21958207 0.3156079 -0.06872046 -0.09520774 0.052593138 0.054932967 -0.14852445 0.12643379 0.07392143 -0.11574118 -0.06727781 0.058405805 0.14214495 -0.01919522 -0.16928326 -0.22066672 -0.337047 0.1277712 -0.034618434 0.08560258 0.14429468 -0.116373986 -0.20428494 0.042280916 -0.022036398 -0.10640145 -0.0640163 -0.13573232 0.10272881 -0.08401446 0.1730783 -0.14139883 -0.04330551 -0.11106596 -0.054346804 0.053713664 -0.052895755 0.05599155 -0.12646854 -0.03538789 0.009731102 0.06821478 0.13489376 0.13797933 -0.08381992 -0.03525611 -0.06949568 -0.17789866 -0.05364793 -0.07835132 -0.1312612 0.19743113 0.06697488 -0.05618179 0.107693695 -0.18020879 0.065260835 -0.08120081 -0.25137115
43 0.019138716 -0.115954325 -0.009545653 -0.065071575 0.01737946 -0.07484865 -0.032985672 -0.03946724 -0.16991934 -0.08220955 0.24742621 -0.005395277 0.043746397 -0.07741298 0.10398177 -0.21459542 0.05974303 -0.04031308 -0.04388804 -0.0006743467 0.031418245 0.21794726 -0.11186356 0.065815836 0.08336442 -0.072289646 0.05556419 0.02159605 -0.08888668 -0.18861815 -0.053674847 0.07507372 0.07854202 0.074176 -0.09616658 0.11411981 -6.771588e-05 0.069145665 0.005314733 -0.03353885 0.0009884919 0.17534842 -0.072456345 -0.05871646 -0.040990453 0.054909796 -0.110735774 0.029397978 -0.03151609 -0.063480526 -0.24086094 0.1481764 -0.0039507383 -0.039122038 0.010664923 -0.22882977 0.008244303 0.16837966 0.15469742 -0.022974195 -0.057990626 0.1323923 -0.21440375 -0.22722186 -0.04377256 -0.03354147 -0.114965975 0.1448112 0.059969973 0.14480492 0.27686715 -0.105509214 -0.07625696 -0.025085619 -0.026466748 -0.1573053 0.07465846 0.10625955 -0.087930754 -0.04039501 -0.016694777 0.074375235 0.036507472 -0.22075775 -0.21421131 -0.34453392 0.07109097 -0.0039527584 0.06907826 0.067390814 -0.073930316 -0.21488814 0.031226577 -0.03509157 -0.05041362 -0.15573564 -0.07180154 -0.009927826 -0.14497198 0.21195483 -0.06449635 -0.09482328 -0.034457248 -0.084403045 0.05339788 -0.074447446 -0.06512762 -0.09787706 0.009763011 -0.011448972 0.12057722 0.119895026 0.082757466 -0.09309613 0.018065238 -0.04258943 -0.13962011 -0.13324223 -0.070639536 -0.124068044 0.14801186 0.025160175 -0.046503257 0.16078612 -0.12831172 -0.033285778 -0.04634274 -0.15194435
2 0.18946551 -0.14536951 -0.09344307 -0.2525305 -0.014717759 0.013210553 0.073590584 -0.12146831 0.16466989 -0.052129377 0.16359438 -0.03677997 0.17104718 0.089764565 0.17889318 -0.06167735 0.15715206 -0.10024197 -0.08791671 0.2692741 0.11763637 0.29264444 -0.2668123 0.22619204 -0.085515335 -0.090348385 0.49276385 0.28132075 0.038877893 -0.18861815 0.0035318567 0.17923969 0.085593656 0.19446772 -0.09056037 -0.108235195 0.116587766 -0.04551289 -0.11863121 -0.056497995 -0.1813487 0.17813241 -0.072281115 -0.114160456 0.14852023 -0.2036618 -0.0823064 0.38206378 -0.19414218 -0.25894055 -0.06059741 -0.17488657 0.20169733 0.19050862 -0.4274695 -0.0020040611 -0.063651785 0.26251101 0.15695012 0.041591886 -0.12823181 0.11990119 -0.30823466 -0.20248881 -0.17923258 0.12909561 0.048703317 0.18668689 -0.05261561 0.21861044 0.26502362 -0.16194664 -0.14059132 0.3568136 -0.09577511 -0.17669652 -0.05672836 0.11623604 0.0033363793 0.010410318 -0.10755217 0.08551353 -0.03659383 -0.08613838 -0.0847602 -0.116767734 -0.122500606 -0.018438773 -0.13729218 0.056204367 0.11357559 0.101721995 0.0061822636 -0.08477356 -0.03893783 -0.17649826 0.33207366 0.07742967 -0.08558361 -0.013158137 0.12998927 -0.14572798 -0.21862902 -0.031432964 0.080409564 -0.09445342 0.16776207 0.048854496 0.16801037 -0.06279548 0.013705353 0.15652505 -0.24076498 -0.2557271 0.16693424 -0.17947361 -0.005748784 0.11741893 -0.068554886 -0.062091563 0.0346831 -0.23530869 0.07405748 0.21330734 -0.25312498 -0.08570023 0.18721427 -0.054454345
52 0.09975479 -0.076541334 -0.027461616 0.06969652 0.118883505 -0.13356611 -0.03336811 -0.15031363 -0.21329044 -0.110311665 0.23973452 0.015137923 0.015684403 -0.053051215 -0.12971205 -0.3296019 0.18051957 0.13850664 -0.1380693 -0.038380742 0.1250974 0.18442245 -0.062398843 -0.053446554 0.055370726 -0.06646862 -0.10316011 -0.104015775 -0.2648216 -0.18597445 0.044797875 0.123032846 0.07396227 0.04467784 -0.12465882 0.10159063 -0.007341429 0.018940885 0.0930965 -0.12461579 0.07735857 0.089293584 -0.12850635 -0.0036572365 -0.03162356 0.18715148 -0.045155905 -0.02739604 -0.006709312 -0.10259444 -0.26952797 0.19126993 0.048139796 -0.07536312 0.041871622 -0.17147343 0.007536497 0.08636938 0.30777457 -0.018058363 -0.103052944 0.2285531 -0.09408319 -0.18311681 -0.058259863 -0.09672648 -0.22450946 0.16085348 0.033612665 0.26233315 0.32274723 -0.032793105 -0.117959574 0.046206083 0.06396147 -0.16981216 0.17107129 0.12029154 -0.11358506 -0.09387652 0.10699878 0.14993048 -0.033971064 -0.15655114 -0.25916368 -0.39814553 0.13717334 8.7568886e-05 0.09751615 0.13958189 -0.14372243 -0.30879742 0.07427339 -0.039890654 -0.13191761 -0.07935554 -0.167577 0.105594285 -0.09439342 0.17648485 -0.19662692 0.0020169523 -0.12561011 -0.05587263 0.048971895 -0.017195622 0.08801028 -0.19721782 -0.031484377 -0.015543811 0.11450386 0.15820478 0.1976697 -0.11523451 -0.03759504 -0.070656 -0.20641993 -0.09900127 -0.0325639 -0.18472205 0.20356418 0.08920695 -0.06754155 0.105592445 -0.2419703 0.07037094 -0.12425041 -0.28501716
3 0.22385004 -0.14708965 -0.1159064 -0.21205813 -0.005096637 -0.0007704239 0.08865278 -0.17240702 0.124190666 -0.04163921 0.17721787 -0.008651964 0.13456699 0.07586372 0.11251696 -0.109220274 0.12936988 -0.06635624 -0.08804325 0.26715612 0.15336157 0.30561522 -0.24967362 0.19371942 -0.109823614 -0.08489335 0.37946385 0.2536882 -0.035635967 -0.15833329 0.040436883 0.22399238 0.11196224 0.16084272 -0.103769206 -0.11679446 0.1058726 -0.055114258 -0.09168225 -0.05501836 -0.17284122 0.18200493 -0.08643768 -0.12315589 0.09963328 -0.1436762 -0.05143363 0.3343793 -0.18981066 -0.27539006 -0.093256034 -0.101382084 0.22950047 0.1615962 -0.370678 -0.017240347 -0.028148599 0.22940022 0.20905168 0.03302224 -0.15640523 0.1400026 -0.28785813 -0.16054218 -0.1510058 0.09583364 0.0207824 0.17735745 -0.04621485 0.20177253 0.29868725 -0.14466569 -0.14234576 0.37149486 -0.07621873 -0.17842114 -0.0044905515 0.14860848 0.013510168 -0.0110637145 -0.06388624 0.118252195 -0.0059139663 -0.08501496 -0.11914112 -0.1371169 -0.09947401 0.016433246 -0.09758586 0.07282978 0.082829386 0.03510246 0.027172782 -0.031571843 -0.10259335 -0.16326083 0.30431053 0.069480866 -0.0916795 0.0121843815 0.07754002 -0.092122614 -0.22555642 -0.011250749 0.07002558 -0.06520303 0.19193001 -0.0018572556 0.13965647 -0.07580832 0.025284745 0.14853784 -0.15658024 -0.23837204 0.12570533 -0.17871426 -0.05042263 0.13606986 -0.082351945 -0.07378657 0.027413437 -0.17007735 0.074652314 0.21867396 -0.23545781 -0.055099364 0.1734431 -0.09021589
72 0.038971856 -0.07951096 -0.030344842 -0.024980938 0.06128169 -0.07885493 -0.02146287 -0.044726204 -0.15196379 -0.07314485 0.22179136 -0.0027184137 0.034297213 -0.0703092 0.0660277 -0.22323413 0.101653464 -0.007003298 -0.07760539 -0.010786146 0.02917016 0.20711131 -0.09748592 0.049697652 0.06057243 -0.06262313 0.029685121 8.3338964e-05 -0.13256337 -0.17954698 -0.058695823 0.08383446 0.070354715 0.05596708 -0.09581473 0.08839911 -0.003692551 0.041858513 0.001301033 -0.04426026 0.0050580846 0.1572345 -0.07900461 -0.051319417 -0.033919293 0.049457688 -0.09115439 0.012676598 -0.039498564 -0.08572096 -0.21975835 0.13032822 0.026454287 -0.03236887 -0.030423477 -0.19261892 0.0141003225 0.14356925 0.18476906 -0.0062782555 -0.058893286 0.14141189 -0.17633514 -0.20374008 -0.027854178 -0.04371494 -0.13471326 0.14419149 0.03142006 0.1551505 0.26846337 -0.08919268 -0.07254981 0.013092257 0.006012433 -0.14293876 0.09012415 0.09013899 -0.080367304 -0.03756401 0.018310057 0.08780377 0.014074428 -0.18244325 -0.19520198 -0.3002741 0.080029175 -0.011020465 0.057992958 0.09396117 -0.08281642 -0.18913068 0.03274591 -0.02221627 -0.07024547 -0.11187441 -0.06448459 0.030286958 -0.12338682 0.17269598 -0.07249431 -0.068370394 -0.05738087 -0.056087643 0.037970837 -0.06543712 -0.011980586 -0.10329196 -0.008843943 0.014127202 0.08617493 0.10953873 0.096569665 -0.07169376 -0.0007997609 -0.06158295 -0.14960296 -0.071297325 -0.08403131 -0.11625447 0.14483336 0.031025978 -0.038002692 0.13386688 -0.12174639 -0.0007140231 -0.0346514 -0.17854285
56 0.08850396 -0.087076955 -0.02509769 0.0073720803 0.09456945 -0.07529786 -0.05132289 -0.09619854 -0.13351677 -0.072334565 0.24573721 -0.009819429 0.031300895 -0.05844734 -0.028494116 -0.26818976 0.10078612 0.051764883 -0.09464671 -0.01968732 0.11265299 0.22284378 -0.071297735 0.04533353 0.032549705 -0.04071972 -0.044052888 -0.03809555 -0.16896911 -0.19059175 0.010077007 0.13048139 0.063259065 0.010528559 -0.09678475 0.08308071 0.0013595438 0.058936242 0.06996228 -0.067774884 0.042238303 0.14192232 -0.108355 -0.034498718 -0.015717773 0.091911815 -0.08307178 -0.009691473 -0.037380945 -0.100929864 -0.2604411 0.17229564 -0.021213453 -0.02890412 0.018165248 -0.19446942 0.0059330985 0.123572364 0.21476088 -0.02454753 -0.08833828 0.15282238 -0.15318611 -0.17586304 -0.07654131 -0.10126646 -0.13479352 0.12889831 0.021565415 0.21393913 0.30670846 -0.05976493 -0.082497336 0.012111119 0.019261293 -0.16628332 0.10968635 0.11587161 -0.12591988 -0.06007246 0.065870084 0.15227427 -0.01859469 -0.14701371 -0.20257133 -0.33301827 0.112230994 -0.00051088224 0.07088724 0.16820335 -0.0839447 -0.2125125 0.0687047 -0.026854604 -0.11009519 -0.07435593 -0.07671971 0.03905692 -0.10250671 0.18461135 -0.14182597 -0.010079511 -0.097646005 -0.0580534 0.08597695 -0.060361855 0.040795453 -0.14654465 -0.044922657 -0.04277413 0.07969955 0.20131828 0.15608256 -0.104109205 -0.045999903 -0.05770612 -0.13984005 -0.08143374 -0.06211372 -0.13086024 0.16113357 0.070619054 -0.02885152 0.13876288 -0.19191651 -0.0058319317 -0.09564327 -0.24902786
30 0.06282991 -0.15056205 -0.06412886 -0.07599296 -0.032484904 -0.07950533 0.0104984045 -0.0997499 -0.17926039 -0.04560352 0.2778127 0.04998794 0.006526624 -0.112728186 0.086070396 -0.203508 -0.05938159 -0.064350806 0.004217766 0.051351883 0.083655104 0.24719535 -0.11873748 0.09935558 -0.014473523 -0.039850026 -0.041506916 0.07296878 -0.1258506 -0.11617924 0.006868107 0.14703308 0.13292998 0.006890019 -0.09110625 0.063921675 -0.006947802 0.037341975 0.0019287016 0.005772655 -0.04222168 0.19832674 -0.05386823 -0.13637151 -0.104072206 0.06664876 -0.011352725 0.021653203 -0.09402756 -0.11626999 -0.23116493 0.2060211 0.08945694 -0.010899563 0.006687149 -0.20252584 0.040734235 0.12602451 0.20586517 -0.03668137 -0.09701689 0.13918923 -0.23986837 -0.13336891 0.02931388 -0.047326177 -0.082863584 0.09368302 0.04490773 0.075893976 0.3238491 -0.10092948 -0.057556305 0.03253813 -0.051911846 -0.15093717 0.124908954 0.15873158 -0.012837379 -0.023834644 -0.0024418845 0.09835122 0.13014255 -0.22954993 -0.2439029 -0.2840067 0.014033069 0.117028266 0.087366275 0.08437311 -0.08078236 -0.23412679 0.021664625 0.050518736 -0.15620363 -0.18938151 0.0054169637 -0.024493258 -0.18836029 0.21335405 -0.09872977 -0.055488594 -0.044769417 -0.05168887 0.034202345 -0.012382619 -0.042429317 -0.121447906 0.009678618 -0.04366338 0.14949678 0.0882355 0.14879955 -0.064803034 0.017139725 -0.02395828 -0.15746729 -0.036195178 -0.097875595 -0.08931867 0.06732478 0.08568641 -0.041256066 0.15728225 -0.07125349 -0.026483685 0.0439923 -0.1318445
47 -0.15005286 -0.03864458 0.10143985 0.014904981 0.25031406 0.018640567 -0.19782837 0.08008206 -0.20447756 -0.0021041532 0.4024561 -0.24536629 0.10061229 -0.09071383 0.20982327 -0.25444224 0.23278546 -0.12447842 -0.16963457 -0.17191553 -0.1367171 0.29387882 -0.0045030527 0.1535081 0.12867363 -0.098674215 -0.09670298 -0.00442823 -0.33458334 -0.42332044 -0.24383242 0.14910685 -0.15781742 -0.09069982 0.05221743 0.2751716 -0.031976286 0.19122536 0.03612245 -0.08088317 0.05885398 0.33310744 -0.07738507 0.015533212 0.033009518 -0.051356085 -0.38185626 -0.2707024 0.09995813 -0.017672544 -0.36520436 0.24330533 -0.21471779 -0.09021492 -0.09873196 -0.3723916 0.050129678 0.17938787 0.11899652 0.048315283 -0.060250532 -0.0064645205 -0.21575129 -0.39312553 -0.067064315 -0.2361037 -0.23501374 0.18460754 0.00125128 0.24998973 0.39507568 -0.080841035 0.03052391 -0.34956878 0.05830304 -0.19634408 0.066227995 0.038037565 -0.26876143 0.12880342 0.14617601 0.17759804 -0.20557365 -0.094545946 -0.031493414 -0.32631642 0.16155794 -0.25313473 0.1360294 0.29427087 -0.1497896 -0.10886667 0.15615605 -0.17406642 -0.1795924 -0.021758916 -0.020292081 0.01621291 -0.12622334 0.3263814 -0.037109546 -0.031741045 -0.070446394 -0.11329793 0.08475652 -0.28056428 0.030038774 -0.17333356 -0.17866838 0.06824999 -0.049577136 0.4332526 0.24685395 0.0418798 -0.16138852 -0.16173767 -0.23741618 -0.012607082 -0.31966075 -0.24502346 0.25610313 0.00032433867 0.004052021 0.186886 -0.16671525 -0.22023004 -0.18149787 -0.5057531
73 -0.1505985 0.004930655 0.18487632 -0.089455314 0.2889594 -0.049231164 -0.28942394 0.22577442 -0.25430214 -0.021185363 0.43030682 -0.14705212 0.21068044 -0.21602494 0.3652735 -0.23427701 0.25031212 -0.16839984 -0.1662455 -0.32241973 -0.052971937 0.2138605 -0.043677967 0.17406504 0.08205485 0.03671265 0.09858355 -0.019309081 -0.07176148 -0.39784166 -0.2999475 -0.11595623 -0.1552214 -0.10951088 0.07502886 0.21311797 0.033572473 0.23154022 0.059009843 -0.018166116 0.18114957 0.21833518 -0.11235033 -0.03843967 0.16862744 -0.13626069 -0.26470724 -0.28667235 -0.056788016 -0.03319355 -0.3958153 0.05060219 -0.26150092 0.014807879 -0.16530715 -0.27053824 -0.09219005 0.3490585 0.16603461 0.075053535 0.021861399 0.10035333 -0.36584067 -0.38622135 -0.09931196 -0.21581528 -0.20472175 0.08435833 -0.09175674 0.39245078 0.37826318 -0.1269603 0.006058802 -0.39458305 0.08772862 -0.2958309 0.07674601 -0.021838265 -0.28620082 0.18571976 0.097480826 0.08723453 -0.14208378 -0.22242871 -0.15000364 -0.30536452 0.078793705 -0.16333462 0.05171508 0.343694 -0.05946157 -0.0017316074 0.025508653 -0.28020248 -0.05451045 -0.13073218 -0.070250764 0.04811999 -0.28724572 0.3510569 -0.09808482 -0.22619687 -0.12455949 -0.1486047 0.2578826 -0.27001598 -0.14771602 -0.066580035 -0.1018404 0.13751389 0.0809192 0.5182538 0.087826595 -0.002316577 -0.03403586 0.019997105 -0.038395334 -0.20098597 -0.17155121 -0.08507571 0.24829912 0.054655116 -0.15132828 0.090622574 -0.17606425 -0.23211282 -0.09196755 -0.46423635
33 -0.0033058648 -0.10152144 0.0034835055 -0.12785849 0.017854631 -0.0479129 -0.025529621 0.008407198 -0.09243238 -0.08671878 0.21619073 -0.03875849 0.09244813 -0.041685976 0.19034582 -0.14820495 0.111074165 -0.086319126 -0.054246355 0.0337845 -0.012072778 0.2025823 -0.15366754 0.10758916 0.09221646 -0.08912772 0.22828662 0.07134366 0.0014584635 -0.20878099 -0.09894221 0.03606049 0.05532323 0.13310744 -0.079148784 0.09406149 0.030053517 0.059810553 -0.04769635 -0.037881378 -0.03389398 0.17234264 -0.06031506 -0.0558432 0.028655551 -0.035096075 -0.1458507 0.11298965 -0.051022053 -0.07377247 -0.18866798 0.028653327 0.0049757403 0.01183683 -0.10839359 -0.1947526 -0.029386584 0.21939182 0.11363146 0.0062340964 -0.032949083 0.11103071 -0.2518347 -0.2782792 -0.07394497 0.02538935 -0.073840186 0.1721955 0.038010065 0.16920221 0.23148443 -0.124516375 -0.08157807 0.0027302376 -0.048374526 -0.15346551 0.008006169 0.071671896 -0.08292174 -0.007523113 -0.071386054 0.029966403 0.0046973163 -0.21215893 -0.15423682 -0.28570965 0.024345757 -0.056268588 0.00876747 0.037547093 -0.026342362 -0.10252144 -0.0017372235 -0.09008635 0.011588382 -0.16786276 0.0019871916 0.009080169 -0.13913581 0.1611317 0.027327396 -0.1604794 -0.054986957 -0.09841808 0.05850025 -0.10963911 -0.057287868 -0.027401552 0.056745134 0.010423087 0.09129208 0.11745837 -0.045364745 -0.12920833 0.08343752 -0.070887186 -0.10017104 -0.116121985 -0.070435405 -0.11281244 0.15830821 -0.07469424 -0.036432184 0.16574274 -0.15535146 -0.058688384 0.005345089 -0.11855495
74 -0.15072232 0.015096355 0.17648505 -0.057025645 0.31942394 -0.06524637 -0.2769385 0.22843464 -0.26095808 -0.043714873 0.43322295 -0.14104323 0.2179603 -0.22445242 0.36151212 -0.26100844 0.3058824 -0.15033215 -0.18867698 -0.33476475 -0.06333277 0.23765147 -0.050570328 0.1704263 0.103711344 0.024489745 0.10201335 -0.040218323 -0.1160043 -0.43551886 -0.33340877 -0.11550382 -0.15555435 -0.08668381 0.05484208 0.23267901 0.02343979 0.22422056 0.044574987 -0.024290673 0.18393692 0.24455617 -0.11964725 -0.021234652 0.17472148 -0.14286423 -0.28384647 -0.2889936 -0.056643996 -0.036909744 -0.4150695 0.059235856 -0.25752676 -0.0025422587 -0.18256828 -0.2771371 -0.08993587 0.36324462 0.19310486 0.07626145 0.02760164 0.12683138 -0.36458847 -0.4216228 -0.0959338 -0.2145636 -0.22800045 0.119144455 -0.09420375 0.41151515 0.40343368 -0.14272203 -0.009339766 -0.38301566 0.099184506 -0.30625108 0.07401351 -0.01738813 -0.30450407 0.17524377 0.12537555 0.09148771 -0.1665975 -0.22827779 -0.16344245 -0.35445192 0.115372874 -0.18507151 0.045346446 0.36413965 -0.067652605 -0.0107374415 0.02955499 -0.2855991 -0.051672883 -0.13159406 -0.08775887 0.057985388 -0.28746706 0.36054316 -0.09925014 -0.23852287 -0.13338163 -0.14077678 0.25650513 -0.2770533 -0.12318351 -0.093580365 -0.10333764 0.15478417 0.07325037 0.5314522 0.09715233 -0.006700865 -0.060187455 -0.010740299 -0.06278306 -0.18102032 -0.19948223 -0.098013744 0.273751 0.052968923 -0.14783014 0.09601171 -0.17928267 -0.21257553 -0.1077028 -0.5025016
44 -6.300199e-05 -0.11353659 -0.06184792 -0.15357108 -0.045623485 -0.040197216 -0.027578067 -0.09517472 -0.16476811 -0.10303423 0.20500255 -0.027651507 0.08143706 -0.043808565 0.18328376 -0.1823225 0.07493045 -0.1185182 -0.0074866298 0.094369106 -0.024015017 0.26084766 -0.2321395 0.03935691 0.07551297 -0.14612512 0.31983662 0.09968013 0.054027088 -0.1895733 -0.08134649 0.053023413 0.12991527 0.1542211 -0.13700943 0.039416056 0.0763915 0.010670653 -0.06558122 -0.033648804 -0.069643535 0.12544799 -0.034351233 -0.06734049 -0.010944213 -0.034388028 -0.066836864 0.20320936 -0.06884703 -0.06665989 -0.1536562 -0.035339486 0.110080525 -0.020079091 -0.15473947 -0.16062082 -0.08662798 0.2656868 0.18361098 0.035760444 -0.105569296 0.10861005 -0.2749717 -0.26673582 -0.09987585 0.12957683 -0.09147494 0.14574654 0.07760964 0.17292412 0.2709266 -0.14279193 -0.087497205 0.13777137 -0.07744164 -0.11655072 0.06898418 0.03392703 0.041782178 -0.07114531 -0.16399284 0.0063498896 0.061427187 -0.25066003 -0.20240316 -0.25631347 -0.09146158 0.06067473 0.07267741 -0.03351716 -0.036695264 -0.120704316 -0.02123033 -0.070807986 -0.042303726 -0.24385399 0.019165855 0.055987373 -0.122891575 0.1556656 0.053520408 -0.19448102 -0.07982857 -0.14217743 0.044429306 -0.059812594 -0.08050663 0.03332928 0.13153903 -0.000763749 0.13093038 0.050749827 -0.06633724 -0.17098445 0.1498455 -0.03230617 -0.09983968 -0.12849429 -0.06343273 -0.09470278 0.087289885 -0.10887748 -0.082438596 0.16028157 -0.16208656 -0.007065291 0.110673286 -0.006481188
12 0.14549774 -0.17220774 -0.07593441 -0.07412331 -0.021943716 -0.045265563 0.019999735 -0.14877746 -0.10379123 -0.027460476 0.26583314 0.045981314 0.0055874516 -0.06969218 0.014933707 -0.20126182 -0.074775204 -0.023864504 -0.008896799 0.103453 0.16378096 0.2680343 -0.11063173 0.1323423 -0.07083055 -0.002888674 -0.061226565 0.094356425 -0.1281089 -0.107062355 0.09850877 0.2295928 0.1409646 -0.013012529 -0.10660345 0.02228557 0.015439137 0.013681627 0.033966362 0.006105778 -0.045001604 0.21966477 -0.07177267 -0.14173506 -0.09179547 0.0673925 -0.029245017 0.038956672 -0.10667257 -0.13146186 -0.24961808 0.22795603 0.07481662 0.024149662 0.042150993 -0.17686483 0.042086612 0.12154812 0.21343738 -0.051361192 -0.12522264 0.14388637 -0.21423379 -0.087170966 -0.007881946 -0.080301546 -0.055440735 0.069596216 0.045600466 0.09063784 0.32203424 -0.09467967 -0.085762665 0.091431394 -0.06847242 -0.16195984 0.10643792 0.2056402 -0.036179326 -0.05588974 0.025221817 0.15659177 0.10094272 -0.16442946 -0.22557528 -0.27830833 0.029083634 0.13348663 0.05678475 0.12240053 -0.03945328 -0.2419727 0.07310714 0.0777628 -0.1763127 -0.15553063 0.05203135 -0.061882455 -0.14565106 0.18469039 -0.100203246 0.013632541 -0.042076834 -0.022461347 0.060292404 -0.008284561 0.01472969 -0.14704758 -0.0069483784 -0.10562338 0.12855622 0.13914 0.1611416 -0.09909172 -0.022177849 -0.03901044 -0.11492184 -0.018983694 -0.07869218 -0.081816606 0.033574566 0.072141014 0.013105865 0.18383403 -0.09246977 -0.04342039 0.017337894 -0.119313926
67 -0.04033188 -0.057513617 0.07673463 0.011885382 0.1326105 0.027312035 -0.11797588 0.014163255 -0.008720538 -0.03679282 0.2365785 -0.13734208 0.10585315 -0.033027098 0.10465481 -0.16659334 0.1548458 -0.055396862 -0.0786075 -0.026744071 0.020070732 0.23318408 -0.038104396 0.13860357 0.09065039 -0.028526913 0.10098546 0.015985651 -0.066322856 -0.313117 -0.08969993 0.10913654 -0.04254332 -0.008484354 -0.031685386 0.14877236 0.007032805 0.078093804 0.041222725 -0.042407054 0.049226757 0.24591482 -0.058489487 0.021796618 0.05343176 -0.047832847 -0.26813224 -0.040456656 0.01889797 0.030209618 -0.271828 0.09454184 -0.20517275 -0.010192383 -0.0076567694 -0.2265389 -0.07116023 0.2241902 0.057440456 -0.02258716 -0.012165349 0.030439034 -0.1706644 -0.2943049 -0.13686338 -0.093052715 -0.08997513 0.11469322 0.02688568 0.250395 0.24679679 -0.10155247 -0.047687955 -0.120285496 -0.009668138 -0.15611845 -0.020787409 0.061677635 -0.21655585 -0.0146743385 0.054092173 0.13791241 -0.13953982 -0.094723165 -0.04016489 -0.3284676 0.12255817 -0.094460525 0.018871183 0.21755448 -0.0083217295 -0.0995574 0.12460416 -0.16822642 -0.049143035 -0.077085145 -0.018571554 -0.039120104 -0.04450661 0.15969664 0.0038592285 -0.046784785 -0.026867902 -0.11019185 0.13439724 -0.16668345 0.021796739 -0.11818089 -0.08465515 -0.05191395 0.01791478 0.33634633 0.08912996 -0.089362845 -0.11180857 -0.09573909 -0.02701143 -0.09428471 -0.12357184 -0.112862796 0.1563614 -0.057240505 0.03913513 0.16102417 -0.1846094 -0.1563767 -0.14348891 -0.23932841
53 0.15757592 -0.082488105 -0.05758105 0.053377524 0.109233394 -0.10718094 -0.010077754 -0.2065248 -0.13919693 -0.09186838 0.19608074 0.018102499 0.019714387 -0.01952589 -0.15902264 -0.30262437 0.17017758 0.14670976 -0.120799035 0.028141594 0.17136614 0.20638226 -0.09123541 -0.04820015 -0.008261025 -0.05648761 -0.046883542 -0.060392067 -0.2304614 -0.15294057 0.09481306 0.1733998 0.08900163 0.042982325 -0.13810743 0.030391525 0.022718033 -0.019833095 0.09398291 -0.11879359 0.048442945 0.055250663 -0.12472408 -0.013794551 -0.021098273 0.14277436 -0.006056082 0.05206166 -0.038536895 -0.13973929 -0.21705003 0.12399999 0.09085528 -0.026413482 -0.026028726 -0.10785106 -0.0033972498 0.086525925 0.3134758 -0.01387606 -0.1385242 0.20776223 -0.08151571 -0.12456304 -0.08928188 -0.0629178 -0.18444674 0.13978823 0.0146705685 0.26644 0.31053993 -0.02422659 -0.12748705 0.1605136 0.06330348 -0.16244356 0.17159766 0.11604133 -0.063266225 -0.099515654 0.0854366 0.16424686 -0.02694647 -0.10810326 -0.23990732 -0.3279906 0.084024064 0.037647158 0.06875012 0.14798191 -0.10186016 -0.25336432 0.07940718 -0.019415012 -0.15449606 -0.06180554 -0.086602755 0.118792236 -0.05262666 0.118076414 -0.17614539 0.021202885 -0.16927293 -0.04632839 0.06082685 0.0006889479 0.1453601 -0.15854192 -0.005051673 -0.04626067 0.082498595 0.14390618 0.15268624 -0.14135523 -0.028070884 -0.08499672 -0.167078 -0.03179294 -0.019466085 -0.15633199 0.15819983 0.062995605 -0.043418556 0.10857837 -0.26343426 0.08077131 -0.08873 -0.25231317
45 -0.047019865 -0.10709966 -0.034291826 -0.16601965 -0.05042515 -0.04984505 -0.04721343 -0.05632506 -0.18407431 -0.12122075 0.18943107 -0.036570154 0.09531774 -0.03371666 0.20218249 -0.16357596 0.09749669 -0.1185366 -0.006190827 0.049791977 -0.061299812 0.21902579 -0.22809513 0.013020303 0.12089151 -0.15754218 0.34299198 0.07231944 0.09282094 -0.19398788 -0.106138974 -0.016048186 0.10754408 0.17622276 -0.12463603 0.078411736 0.075595826 0.043278627 -0.06488218 -0.047850557 -0.050920952 0.08665437 -0.041720282 -0.03951001 0.0064809634 -0.016131574 -0.09251284 0.19701187 -0.030839775 -0.034019884 -0.15017651 -0.055088993 0.072985865 -0.039413687 -0.12641494 -0.178588 -0.10117424 0.26810464 0.14950593 0.044394325 -0.07126085 0.099467814 -0.26558518 -0.3000936 -0.10975605 0.13095653 -0.10059374 0.15872018 0.08473594 0.17896232 0.2300593 -0.13517709 -0.07622879 0.07620013 -0.06939388 -0.110526994 0.04893595 0.006079043 0.024174726 -0.06259982 -0.18993269 -0.024983045 0.047457714 -0.26863316 -0.19492766 -0.27140018 -0.07598664 0.018907646 0.075921044 -0.07172005 -0.0454758 -0.11787953 -0.035586122 -0.10546395 0.009790317 -0.24420907 -0.036448818 0.058729306 -0.12678668 0.15814923 0.06744778 -0.22621182 -0.06171334 -0.16426641 0.03811739 -0.07068251 -0.12825876 0.052033033 0.13561039 0.024399908 0.13656723 0.03225158 -0.10081109 -0.16945717 0.18093672 -0.02009028 -0.10853698 -0.19334036 -0.034316726 -0.119104855 0.12365911 -0.11680504 -0.10557689 0.14647385 -0.17327833 -0.008863774 0.07933869 -0.0007186226
8 0.22831826 -0.117486544 -0.10021679 -0.22268054 0.06501983 0.04094359 0.05863714 -0.147012 0.22672755 -0.05347091 0.18300143 -0.08039175 0.20523998 0.112828225 0.16856396 -0.10725699 0.2724474 -0.09041166 -0.1365279 0.3006433 0.13945793 0.37723652 -0.3017666 0.26409408 -0.11368473 -0.08907102 0.5751719 0.2987274 0.005819276 -0.29053882 -0.019363888 0.24317013 0.06735635 0.19290364 -0.12011773 -0.13631524 0.14192824 -0.071279325 -0.12118721 -0.08969169 -0.18567936 0.23573814 -0.09308669 -0.08653123 0.19940452 -0.27564588 -0.14278953 0.4278896 -0.22014801 -0.29421362 -0.09212462 -0.22294043 0.19137771 0.22517262 -0.5429905 5.5405428e-05 -0.10642466 0.327832 0.21584617 0.06590009 -0.16511558 0.122871324 -0.3398522 -0.2656682 -0.24124219 0.119499214 0.019047394 0.23337814 -0.090156525 0.32147178 0.35151884 -0.18537124 -0.17826127 0.44227627 -0.07280512 -0.2042603 -0.057342116 0.112954564 -0.03441477 0.0024751648 -0.07335854 0.1491346 -0.12720554 -0.061138384 -0.060111713 -0.14343356 -0.11713795 -0.052541234 -0.16176885 0.15857397 0.15203084 0.15088975 0.046748847 -0.13501063 -0.08748548 -0.16676219 0.39945266 0.12959152 -0.044615194 -0.02809287 0.16033109 -0.14385985 -0.30613425 -0.044519335 0.11177338 -0.1506975 0.27876866 0.031899497 0.17163801 -0.076680064 -0.03770526 0.28918287 -0.24652575 -0.30305457 0.11815279 -0.26442367 0.0040539475 0.18985774 -0.12715687 -0.08308501 0.06492871 -0.30049634 0.108591564 0.25819632 -0.3499113 -0.11014124 0.17781374 -0.14896335
5 0.243696 -0.14384572 -0.10483272 -0.25112662 0.04464039 0.019881323 0.0708292 -0.15309927 0.1987805 -0.05618406 0.2075593 -0.059960302 0.2025115 0.096316986 0.1739103 -0.11882956 0.24361362 -0.0905459 -0.13532625 0.31097862 0.16032062 0.37889493 -0.3138035 0.26901662 -0.116817765 -0.08414922 0.55546474 0.30860063 -0.004564372 -0.27270958 0.0034589411 0.24671729 0.084803775 0.19744875 -0.11988305 -0.12855068 0.13598178 -0.06589783 -0.11910247 -0.08838556 -0.19384247 0.24161384 -0.1011701 -0.11880522 0.19008619 -0.25171423 -0.12397255 0.42760453 -0.23137808 -0.3192844 -0.107465036 -0.1874501 0.21847579 0.22859891 -0.5264833 -0.011637892 -0.081330985 0.3284065 0.23518132 0.056102138 -0.16507187 0.1513566 -0.35989133 -0.2545432 -0.23019347 0.109579615 0.009776608 0.24314928 -0.08800814 0.30993006 0.37466338 -0.18382296 -0.18375792 0.43702707 -0.07585662 -0.22051083 -0.042966217 0.14207889 -0.031875458 0.005227704 -0.076096445 0.14554156 -0.09255736 -0.087048784 -0.100574456 -0.16335987 -0.11436845 -0.037907545 -0.15357988 0.14600739 0.13367915 0.11619118 0.036502555 -0.11405053 -0.09119197 -0.18130548 0.3891393 0.11665178 -0.077872254 -0.011120546 0.12781762 -0.14737199 -0.30312252 -0.03327339 0.10565569 -0.14029858 0.2561174 0.020378022 0.17593904 -0.075322516 -0.010106768 0.26757425 -0.24258141 -0.302027 0.13850857 -0.25111064 -0.015543134 0.17263599 -0.10999738 -0.0968078 0.06808381 -0.27196568 0.103031404 0.2645359 -0.3449032 -0.10258098 0.18767804 -0.14534822
