77 128
11 -0.002188626 0.08845974 -0.0003393036 0.16718337 0.20903963 0.0078856945 -0.15468389 0.1469701 -0.05535684 -0.10800435 -0.0028444084 -0.19716404 0.024627881 0.0068901526 0.0833802 -0.008723014 -0.077019066 -0.10442668 0.028790254 -0.10677654 -0.112873316 0.2784003 0.21785729 0.12000933 0.13108625 -0.26141518 0.004571832 0.0934523 0.21316424 -0.036140285 -0.07755181 0.12453427 -0.0070781596 0.38917315 0.027374858 0.14391288 0.09452111 -0.18637022 0.1691124 0.050190665 0.1364564 0.03334922 -0.11665281 0.30340582 0.04417599 0.062362935 0.05731752 -0.07851112 0.023575356 0.11562421 -0.08108292 0.06889125 0.0015907886 -0.022408243 0.064962104 -0.13764428 -0.0064531267 0.13486916 -0.21966259 -0.09572466 -0.021134052 -0.08325043 0.15102106 0.15176494 0.09972762 0.0019071582 0.04694752 -0.108266994 -0.14575823 0.021395192 -0.08505589 -0.18769605 -0.056995496 0.26878312 -0.10424091 -0.05612621 -0.013854842 -0.07582789 -0.24262759 -0.09687034 0.10555251 0.07275781 0.11717137 0.02898352 -0.020633454 -0.009254614 0.09005554 0.044154603 0.1252999 -0.09586763 0.11512582 0.0966834 -0.13811079 -0.44463602 0.026311599 -0.033396184 0.008578321 0.012467966 0.07215747 -0.038038716 0.053725056 -0.12487413 -0.13624491 -0.07354499 -0.006170548 -0.092777275 0.071413964 -0.06088601 -0.023494925 -0.08651026 0.046808124 0.008591587 0.022455562 -0.012471729 0.09763766 0.035713814 -0.057785682 -0.06169389 -0.06016036 -0.011256114 -0.019318921 -0.0084590465 0.2959944 -0.19869244 0.00048624474 -0.107710145 0.080738425 -0.08400279
48 -0.0077689304 0.041933596 -0.0906217 0.3186911 0.21609296 -0.03725796 0.09285827 0.17537712 0.0032980267 0.046408392 -0.1967911 -0.2412076 -0.040026616 -0.081089556 0.14011638 -0.010505298 -0.033573657 -0.17371796 -0.09807438 -0.10963684 0.011041859 0.31740227 0.0072426577 0.11438429 0.1485413 -0.07859627 0.00017955748 0.20678607 0.030571073 0.14179091 -0.015781272 0.160957 0.1711724 0.29475537 0.010502812 0.09026341 -0.03412691 -0.023238545 0.13504799 0.04767303 0.20472306 -0.04422461 -0.124646194 0.09570247 0.2064446 -0.065403 0.031482946 -0.006163751 0.11968572 -0.029591497 -0.02652581 0.087346844 -0.08657891 -0.10097512 0.00020560785 -0.122852735 0.092148304 -0.006194785 -0.16966559 -0.053748883 0.05227861 -0.0034420441 0.19155747 -0.060024023 0.18880984 0.10802227 -0.1323348 -0.18897165 -0.2447903 0.13373284 -0.10472872 0.117861874 -0.13207294 0.20150898 -0.17719801 0.04385277 0.024198245 -0.10155298 -0.05977407 -0.17678067 -0.0072257123 -0.005638529 -0.10133919 -0.010442381 -0.028971836 0.023457132 0.010373746 0.12287653 -0.036030162 0.12165341 0.08887071 -0.013035745 -0.112479255 -0.35246336 0.033327684 0.10188699 -0.0812325 0.02649193 0.21018286 -0.22237985 0.015705153 -0.0873991 0.004201656 -0.07480657 0.01114226 -0.049193814 -0.10783186 -0.06740781 0.09991944 -0.03165393 -0.066499025 0.284097 0.16520156 0.046002097 0.03619252 0.07858589 -0.10393855 0.040187016 -0.18099391 0.0833807 -0.027736777 -0.036126964 0.05692589 -0.21306217 0.15911016 0.040172074 0.17336728 -0.120989956
55 0.006175399 0.04791243 -0.090545826 0.19528209 0.13951595 -0.02520806 0.050997436 0.13951515 0.060768113 -0.019793268 -0.1105128 -0.23413208 -0.035507035 -0.039993472 0.12282647 0.0021036118 -0.014934484 -0.15156057 -0.084482364 -0.04885632 -0.027014099 0.3707679 0.026832439 0.1516791 0.08618568 -0.12905526 -0.038879775 0.19865756 0.04084999 0.14229931 -0.1233704 0.22737479 0.11712589 0.351037 0.055663723 0.17797792 -0.031103145 -0.10817975 0.11867668 0.0861553 0.1500853 -0.0050549167 -0.097387046 0.16314127 0.15460248 -0.078658044 -0.012988937 -0.019502252 0.13322157 0.0513117 -0.06109176 0.075510435 -0.12394147 -0.106094785 0.026374698 -0.081412174 0.08000828 0.0929362 -0.14156385 -0.076477416 0.07662279 -0.024415433 0.22343168 0.062173247 0.2107867 0.097638726 -0.08563519 -0.065807775 -0.2388082 0.20115393 -0.07281566 0.062160857 -0.099205054 0.11681035 -0.12371726 0.068699375 -0.04621612 -0.032482725 -0.10509298 -0.11208079 -0.010917207 -0.015263328 0.023398254 -0.007960662 -0.016384182 0.014941834 0.027882434 0.10847533 0.033519264 0.022744857 0.030088583 0.012879353 -0.1016761 -0.30214584 0.008910896 0.1495172 0.019182118 0.06304019 0.18349275 -0.13047661 -0.07023399 -0.08305934 -0.0101147685 -0.055297986 0.002500779 -0.111814335 -0.010203024 -0.014150821 0.09624145 -0.04989277 -0.029278804 0.218855 0.12918207 0.022550533 0.06867471 0.088503435 -0.12111345 0.094641805 -0.1615793 0.026781842 -0.032402266 -0.009565095 0.111386314 -0.23247439 0.029415708 0.0047103353 0.15067692 -0.21808304
27 0.0058471956 0.0671519 -0.027097132 0.19592227 0.18275027 0.01634739 -0.044070795 0.12942418 -0.004650439 -0.04967225 -0.05565856 -0.20816323 0.00929675 -0.037854712 0.09184274 -0.0042075654 -0.062384225 -0.13361315 -0.009772931 -0.09757019 -0.0628308 0.28461462 0.12903865 0.13080166 0.13140488 -0.18866679 -0.015828982 0.13812828 0.14628367 0.018478451 -0.062450066 0.13907017 0.054724157 0.34449282 0.03181664 0.13445263 0.044192836 -0.13645834 0.14132746 0.049890622 0.13356833 0.015193976 -0.105131075 0.24498954 0.093074046 0.003082968 0.032789078 -0.06358872 0.057737727 0.077064104 -0.05416303 0.07430296 -0.025907664 -0.05382553 0.047678523 -0.107814535 0.039066195 0.081237644 -0.17835274 -0.0665299 0.019534908 -0.047480218 0.15251657 0.09938294 0.13326317 0.018345473 0.0031376546 -0.10300164 -0.18881364 0.072281234 -0.07517422 -0.07685846 -0.08437878 0.23089218 -0.11009947 -0.013699435 -0.00085638615 -0.081132725 -0.16133612 -0.109615125 0.057294782 0.035512287 0.033168208 0.013291833 -0.022076786 0.0065905144 0.03743558 0.072133064 0.0765084 -0.009055524 0.09899031 0.061035495 -0.108904555 -0.40078107 0.038303427 0.010039559 -0.011742169 0.0041699493 0.1318259 -0.07546041 0.013533374 -0.10754358 -0.0872125 -0.070853285 -0.00096386106 -0.10207796 0.019005036 -0.0519883 0.03266186 -0.08388242 0.016428221 0.10540265 0.078623466 -0.016445102 0.09233998 0.053258758 -0.085287794 -0.0026702054 -0.09982368 0.0065570194 -0.014214415 -0.02455089 0.19740988 -0.20156819 0.04592427 -0.052876268 0.097646035 -0.13139395
23 0.07382178 0.022474267 -0.03836466 0.1281792 0.09894656 -0.02514411 -0.17859763 0.15211098 0.12880576 -0.2541613 0.040714454 -0.200585 0.010606256 0.030918721 0.05753911 -0.046481766 -0.013517248 -0.05294963 -0.096275136 0.031952776 -0.131758 0.35037684 0.1343447 0.17491983 -0.00092295196 -0.16231419 -0.04093847 0.100783445 0.13794021 0.13760854 -0.15399355 0.18962075 -0.0007288274 0.31622243 -0.0008591092 0.32555813 0.1292231 -0.19317038 0.19298612 0.10038634 0.1092891 0.029656535 -0.12809667 0.18622077 0.102098756 -0.0013145949 0.068729736 0.11234689 0.040646423 0.071848206 -0.08935664 -0.027435081 -0.21033007 0.021510987 0.06953229 -0.060746506 -0.047632817 0.34441388 -0.15339005 -0.17589183 0.021187333 -0.09200166 0.25325784 0.15762042 0.20360845 0.10653897 -0.020587886 0.010835749 -0.19750169 0.116734765 -0.13145187 -0.07189927 -0.09001503 -0.0022249524 -0.00024247388 0.015253576 -0.15667316 0.04793271 -0.196531 0.088721015 0.02004989 0.04979233 0.2664089 0.04501214 0.036657847 -0.011385327 0.06390173 0.04938268 0.08640671 -0.20862912 0.043055814 0.10722838 -0.13143915 -0.18699257 0.01948546 0.16928904 0.14317626 0.07581378 0.06460228 -0.09957767 -0.092054404 -0.023165338 -0.11204842 -0.055232294 -0.13800071 -0.16178107 0.13078393 -0.098996565 0.08771765 -0.013025525 0.11824799 0.039901778 0.024585271 0.13825054 0.076750115 0.24830495 -0.051919214 0.15958206 -0.10217199 -0.028583622 -0.011528118 -0.0048531434 0.26361892 -0.1361285 -0.2123646 -0.039085414 0.09825979 -0.22187097
25 0.010133633 0.047632165 -0.044171866 0.2010262 0.17078102 -0.0018137093 -0.037966695 0.13543294 0.02404924 -0.060029633 -0.078197196 -0.21728596 -0.0077683353 -0.024665741 0.09195132 -0.016636187 -0.03418614 -0.123419225 -0.05350288 -0.062140204 -0.048136793 0.30219525 0.101869464 0.1294712 0.11107006 -0.1550137 -0.013214129 0.1472874 0.10466992 0.057542544 -0.07351451 0.13835399 0.069995314 0.3146023 0.021336382 0.15436001 0.03665092 -0.108296745 0.14591883 0.057633746 0.1564806 0.009514473 -0.10841986 0.19123623 0.116531976 -0.017369948 0.045693506 -0.031630185 0.06829489 0.056574997 -0.042713113 0.054300122 -0.06416285 -0.045274753 0.037305582 -0.10666465 0.033707734 0.102618456 -0.15527979 -0.07422701 0.033240367 -0.047795955 0.18362568 0.071310975 0.1585158 0.058080826 -0.02272812 -0.09266455 -0.19670425 0.08952232 -0.089343406 -0.02724498 -0.08850948 0.17931858 -0.092165634 0.016033085 -0.018090753 -0.06418933 -0.13693152 -0.07556109 0.040600542 0.020692505 0.047784682 0.017369643 -0.01079638 0.0044996818 0.030429002 0.08165646 0.04837703 -0.0013480345 0.077850625 0.05165045 -0.10703534 -0.33565825 0.033643547 0.06537161 -0.0016031266 0.019272333 0.13365985 -0.10248493 -0.019252708 -0.07886288 -0.058569364 -0.063074045 -0.021022176 -0.08959179 0.0075196465 -0.06742947 0.056215666 -0.062513724 0.007954205 0.12508416 0.09049583 0.02072992 0.075222634 0.07572026 -0.08621295 0.034959428 -0.116928376 0.024740204 -0.018096158 -0.01599263 0.17053905 -0.19342288 0.019393887 -0.02106449 0.1188634 -0.13286324
0 -0.060520206 0.023132764 0.080601275 0.26672977 0.347307 -0.19798961 -0.4052521 0.25407523 -0.0464274 -0.10917667 -0.14730173 -0.29316562 -0.10134886 0.17485712 0.007886428 -0.15559912 -0.11806191 -0.04877807 -0.2174205 0.085218556 -0.062761806 0.19405991 0.4256475 -0.06576839 0.082054585 -0.18095903 0.21552995 0.07295693 0.22874476 -0.12849794 0.065763995 -0.1902108 0.03481428 0.22757505 -0.04601968 0.098640814 0.1822382 -0.074980736 0.19552925 -0.022322927 0.4076129 0.1455291 -0.15976241 -0.016551806 0.16016762 0.17965975 0.4389572 -0.061878953 0.13803485 0.13884382 0.01967431 -0.012386815 0.15864222 0.1514855 0.053168654 -0.33362544 -0.20843254 0.118905924 -0.26332915 0.0013770591 -0.16467355 -0.3848422 0.32038063 -0.029771479 0.17497735 0.17394121 0.116050266 -0.28521222 0.033590592 -0.089178525 -0.23471333 -0.11859653 -0.07366102 0.38070804 -0.13640957 -0.046164595 0.06674175 -0.021692695 -0.24630937 0.094605185 0.19122167 0.13852926 0.22034457 0.17679462 0.17256519 0.0121825505 0.16299312 -0.009680093 0.026260883 -0.12646635 0.135827 0.062254585 -0.26858988 -0.33254972 0.11788766 -0.15086171 -0.05231888 0.13901246 -0.028975526 -0.20391667 0.24028777 -0.069926135 -0.24159952 -0.20020553 -0.003126664 -0.038693 -0.03647459 -0.5207378 -0.024013301 0.14819273 0.14392659 -0.2910675 0.21102367 0.22655626 0.12719555 0.19780502 0.07059791 -0.15614913 -0.20869607 0.22486167 -0.10705645 0.057339966 0.4789938 -0.1683552 0.08427443 0.12543707 0.155155 0.3427827
41 -0.0041250195 0.04408408 -0.0788714 0.23529707 0.16717584 -0.023299852 0.043487795 0.13161363 0.02388598 0.0115591 -0.14364299 -0.22447082 -0.032539546 -0.0521425 0.12625782 -0.007554513 -0.016761854 -0.15437709 -0.060917526 -0.070687614 -0.008384404 0.3121408 0.052498978 0.1232693 0.117141925 -0.11584502 -0.0053790906 0.18373938 0.05360746 0.089924715 -0.06343715 0.16282845 0.12516035 0.2985843 0.03317451 0.11623314 -0.025836611 -0.05650153 0.11869968 0.042882834 0.17717749 -0.010448465 -0.10948689 0.13361299 0.16233885 -0.05631025 0.021837162 -0.040673964 0.10673576 0.018161379 -0.045106042 0.07835865 -0.06905657 -0.086349785 0.021679115 -0.10529711 0.07383576 0.035871755 -0.15261272 -0.054503035 0.038729902 -0.02211058 0.19401273 0.016454324 0.18598334 0.08242216 -0.07141956 -0.12263536 -0.20320258 0.13650604 -0.089716546 0.055064682 -0.11354557 0.18997914 -0.1267394 0.05269834 0.010841779 -0.075415246 -0.09200891 -0.12114534 0.0005641656 -0.0076522194 -0.024472551 -0.0067614843 -0.019655263 0.004252063 0.021284122 0.107664436 0.017234117 0.0681173 0.05292202 0.005989579 -0.10460188 -0.33320057 0.020613039 0.09160812 -0.052665696 0.03949678 0.17172578 -0.14790183 -0.0068756333 -0.0793477 -0.026886841 -0.07144933 0.006166665 -0.07136892 -0.050178103 -0.06513318 0.09242286 -0.046281077 -0.043066103 0.20664665 0.1321357 0.015863517 0.06045292 0.06517952 -0.10422196 0.041830536 -0.15158342 0.055018 -0.016734624 -0.01796779 0.1080787 -0.21799943 0.09383165 -0.0031818543 0.15385792 -0.13596383
58 -0.012666394 0.069636784 -0.06569033 0.28131485 0.22316276 -0.02095472 0.050973516 0.17488132 -0.05875537 0.021189066 -0.14690511 -0.19335306 -0.0049806023 -0.091452055 0.13785364 0.01424155 -0.059372988 -0.1499734 -0.024761574 -0.15134759 -0.02750831 0.27080613 0.068520024 0.12042696 0.14637534 -0.15022837 -0.005298824 0.1602916 0.07641954 0.062217366 -0.009819981 0.15092947 0.115087494 0.32557258 0.014655199 0.06784347 -0.0027704155 -0.062216487 0.14057808 0.025949536 0.16037807 -0.035219602 -0.13216822 0.16044796 0.1396687 -0.0076722363 0.00046911355 -0.03694485 0.07123646 0.0008050654 -0.05678187 0.10037594 -0.03386803 -0.08848353 0.0105756605 -0.12248435 0.08209611 0.00066428806 -0.21228518 -0.07453784 0.014025287 0.0010230858 0.1451777 -0.023130823 0.13608079 0.06794887 -0.08971303 -0.20151538 -0.18774304 0.08481702 -0.07327314 0.02056438 -0.10896982 0.23557954 -0.17548746 -0.008441759 0.036800418 -0.119801134 -0.0975468 -0.20362432 0.026377385 0.025358275 -0.0730247 -0.017592974 -0.05925611 -0.0077959034 0.040445335 0.08389444 0.013886048 0.06258368 0.105306044 0.016120758 -0.12045864 -0.41886985 0.023078747 0.055214636 -0.093263455 0.012814552 0.14910755 -0.18762398 0.07061193 -0.11221156 -0.026467573 -0.065208256 0.020598333 -0.02523765 -0.069373414 -0.048735194 0.05619453 -0.06512179 -0.05467205 0.22214903 0.10336443 0.00813102 0.044946436 0.04157804 -0.09026287 -0.02093771 -0.11895616 0.06344431 -0.0149115315 -0.032160457 0.13067463 -0.20936836 0.15080202 -0.03779949 0.16466902 -0.09162097
24 0.02968348 0.050267573 -0.05727175 0.20160939 0.1588583 -0.0045947214 -0.044187523 0.12660322 0.03886263 -0.0666381 -0.07639455 -0.2353803 -0.011009109 -0.020235347 0.09670002 -0.014682168 -0.030297067 -0.13928032 -0.051952172 -0.05419759 -0.058604028 0.32442015 0.09271329 0.14107716 0.11171099 -0.1534181 -0.029102117 0.14782484 0.117067486 0.07759665 -0.09101323 0.16441761 0.07206002 0.33661088 0.028961796 0.16636664 0.034246016 -0.1315761 0.14709903 0.07104427 0.15528059 0.006072281 -0.107553914 0.20454474 0.124004535 -0.029568309 0.027650014 -0.034257017 0.07489918 0.054228067 -0.053503383 0.059164733 -0.08418814 -0.056521073 0.037715323 -0.09860891 0.039149158 0.11725302 -0.15213953 -0.07905092 0.03602023 -0.041514408 0.19539759 0.096584044 0.16612747 0.052460987 -0.022825096 -0.07207131 -0.2079573 0.11293182 -0.08930689 -0.029106237 -0.08864248 0.1850327 -0.08954835 0.02875116 -0.026391368 -0.06280111 -0.139518 -0.07293837 0.026454497 0.01081304 0.057070494 0.016115457 -0.006028631 0.009172122 0.0298851 0.089144036 0.056390956 -0.012990061 0.07284922 0.055197135 -0.10027018 -0.33999822 0.022221379 0.07523037 0.011488068 0.024786053 0.14606507 -0.08743307 -0.033065856 -0.08793771 -0.07124191 -0.064449474 -0.02402786 -0.113031656 0.02809206 -0.061303113 0.059538506 -0.06453205 0.010551333 0.14518802 0.09354285 0.020826697 0.08960025 0.08343633 -0.09218667 0.054437656 -0.12644699 0.010241143 -0.0093280235 -0.015863735 0.17273876 -0.21126434 0.0008487001 -0.023785379 0.112881206 -0.16423784
57 -0.02340666 0.059326474 -0.08730412 0.3294244 0.22407638 -0.06170703 0.090156965 0.21219344 -0.034707125 0.02818626 -0.19816358 -0.18488385 -0.031933535 -0.11576838 0.17093244 0.00044104867 -0.05330604 -0.15956534 -0.07895874 -0.12727797 -0.005355851 0.30154544 0.035438944 0.13167165 0.12762414 -0.10516239 0.007062746 0.19736718 0.02465838 0.123771526 0.0062622773 0.16519897 0.15348776 0.2981171 0.0036216758 0.086955264 -0.029443689 -0.015034922 0.13893862 0.014255759 0.19021678 -0.056106184 -0.16837826 0.065081246 0.18732215 -0.018981123 0.0045813834 0.024896948 0.106079586 -0.043387838 -0.06537684 0.09712368 -0.08802809 -0.09374696 0.0036273608 -0.113648385 0.087641135 -0.00092827517 -0.22610961 -0.089891724 0.008206737 -0.0019139156 0.17984387 -0.10375574 0.17802368 0.12790078 -0.16064404 -0.23775868 -0.19329308 0.12532377 -0.08650444 0.11313889 -0.14465933 0.17642312 -0.19260994 0.009572185 0.024673646 -0.110747166 -0.044721145 -0.20481056 -0.010147108 0.0067147403 -0.095435984 -0.02733039 -0.064576335 -0.010263514 0.03232083 0.082735755 -0.028995574 0.08509024 0.08175005 -0.0033188453 -0.135864 -0.36438626 0.022800168 0.11864654 -0.12087071 0.041266404 0.15971324 -0.27155983 0.06906624 -0.09204655 0.0046953973 -0.0671739 0.007826441 0.003019027 -0.12185764 -0.071554765 0.11370011 -0.01091174 -0.072632164 0.26820853 0.13205194 0.06525498 0.013414053 0.09965569 -0.08727453 0.023260003 -0.14428362 0.10842288 -0.024804262 -0.05234296 0.08923468 -0.1999063 0.17860365 -0.0040722927 0.21224794 -0.08044018
26 0.026001817 0.051867303 -0.08296091 0.18240339 0.1300073 0.0038341703 0.014094957 0.1216581 0.083316304 -0.05692782 -0.07394362 -0.25567892 -0.016138041 -0.025773924 0.10770829 0.0074289297 -0.008508355 -0.15660106 -0.07435029 -0.04030211 -0.045366216 0.39145142 0.059290495 0.1675504 0.09768263 -0.15385394 -0.046223335 0.19090763 0.09067513 0.12985863 -0.14372115 0.2298422 0.09067813 0.37803483 0.05579503 0.21676351 0.0025681932 -0.14982337 0.13494448 0.09351831 0.14740916 0.0068771495 -0.08881239 0.22711486 0.14810963 -0.07666937 -0.009497798 -0.029241623 0.113040574 0.0726625 -0.06383738 0.07433892 -0.13371499 -0.09577037 0.045214176 -0.0837153 0.07257704 0.13393489 -0.14540201 -0.077158675 0.0816763 -0.035087507 0.23014513 0.115782216 0.21631014 0.07280044 -0.04605234 -0.036570996 -0.263831 0.18429512 -0.08560843 0.013583743 -0.09650368 0.14204986 -0.09838662 0.06344221 -0.06269719 -0.04469613 -0.13803758 -0.082249805 -0.0057673277 -0.00803232 0.05917618 0.0063493466 -0.006525569 0.019612078 0.02052716 0.12241253 0.06518886 -0.0015353428 0.04430106 0.046570018 -0.09790968 -0.32789144 0.019468302 0.13583882 0.043782342 0.04472112 0.19097203 -0.08537851 -0.09042512 -0.086531796 -0.03890161 -0.059052754 -0.018933823 -0.14794472 0.033917014 -0.007067439 0.08690392 -0.07302988 -0.006360913 0.20143303 0.11516918 0.003617977 0.09606339 0.08780888 -0.13086325 0.110705696 -0.14840706 -0.009794401 -0.016641486 -0.0012582703 0.1376069 -0.23499997 -0.019991597 -0.020262677 0.12990446 -0.24765505
62 -0.030249188 0.05312696 -0.08143838 0.28269428 0.20816137 -0.043029387 0.09983931 0.16094534 -0.022731815 0.09524127 -0.20195265 -0.22311892 -0.052344132 -0.07684977 0.13789493 0.0032508157 -0.03979942 -0.17515488 -0.07696611 -0.113499045 0.027509874 0.29259092 0.02772027 0.09004945 0.14480822 -0.093314 0.011564648 0.20799021 0.02034762 0.08681961 -0.011003785 0.13747925 0.1685 0.29749864 0.02998458 0.047312193 -0.06291625 -0.019553578 0.10044989 0.035780907 0.2019631 -0.024083005 -0.1101096 0.09218785 0.17660694 -0.04782298 0.01935601 -0.06218447 0.13720474 -4.4509525e-05 -0.02840344 0.111587785 -0.02526376 -0.11367667 0.0028447849 -0.13070214 0.09652111 -0.06550566 -0.17112927 -0.018587204 0.03775873 -0.018157152 0.18091652 -0.054006588 0.17640145 0.098560914 -0.10800412 -0.20025377 -0.20232734 0.13455147 -0.07667814 0.10455612 -0.11250718 0.23394886 -0.19345368 0.046363883 0.053772915 -0.09876878 -0.05802651 -0.19934653 0.00654703 -0.0023914734 -0.11896094 -0.008119976 -0.03203951 0.019952493 0.02407407 0.11212297 -0.025923887 0.14231156 0.069254726 -0.030717881 -0.10885524 -0.36579844 0.027992295 0.064133465 -0.10541311 0.03836 0.19192363 -0.20752622 0.05137965 -0.105670586 0.006468767 -0.07314349 0.058663294 -0.031028304 -0.1184006 -0.06085825 0.075226575 -0.033344682 -0.08592011 0.2450136 0.17563303 0.00969736 0.041694164 0.02802339 -0.10528187 -0.004757591 -0.1722019 0.09911025 -0.036077887 -0.019084036 0.06816825 -0.23027857 0.19886652 0.037831254 0.17352341 -0.080101974
64 -0.056067504 0.049554575 -0.057949938 0.26816708 0.23357701 -0.074658856 0.042979516 0.17638741 -0.040988993 0.078759395 -0.20958179 -0.21933517 -0.05898532 -0.03637386 0.122204855 -0.018532142 -0.04431893 -0.15427107 -0.10707597 -0.08647726 0.02922962 0.26540273 0.09271128 0.049855214 0.1314337 -0.1016236 0.05291702 0.18497762 0.035845634 0.051361058 0.008095859 0.081515856 0.15246226 0.2692604 0.019615587 0.03225284 -0.03832162 -0.008797704 0.10545176 0.00910249 0.23586686 -0.0040986026 -0.11098224 0.046964202 0.1835092 -0.01641691 0.07989324 -0.066723734 0.15297635 0.01627253 -0.01420512 0.10171539 0.024345547 -0.08215643 0.0020997652 -0.16638695 0.052049972 -0.0607208 -0.19299842 0.0031410402 0.005618354 -0.07408024 0.20130919 -0.078298025 0.17107703 0.12329131 -0.08220398 -0.23254423 -0.14414722 0.10222484 -0.10190142 0.094659165 -0.10992255 0.25667825 -0.19941811 0.035962425 0.0709821 -0.09493908 -0.07913464 -0.17782013 0.03322957 0.012202238 -0.081868246 0.014967272 3.8942642e-05 0.011045417 0.049302634 0.087410785 -0.024851574 0.10762553 0.07504289 -0.023296654 -0.13430248 -0.36031526 0.037762575 0.03453323 -0.11582524 0.06018584 0.15809083 -0.21982384 0.090092055 -0.101565234 -0.018838387 -0.09720358 0.057616282 -0.008317102 -0.11881184 -0.12791412 0.059817158 0.009251048 -0.058812566 0.16177098 0.1841468 0.036361493 0.05476387 0.037936367 -0.08303847 -0.0381918 -0.17271747 0.13490286 -0.049625095 0.0006039585 0.11383029 -0.21247892 0.20479062 0.04645678 0.18407458 0.008525306
63 -0.01742185 0.066308625 -0.07951591 0.2642621 0.20066723 -0.03554545 0.053746123 0.18162765 -0.017086586 0.007304732 -0.15405083 -0.20853785 -0.023128863 -0.075515926 0.14893039 0.0017698022 -0.04406127 -0.15097354 -0.06171136 -0.11343974 -0.023577519 0.3264769 0.061346162 0.13070223 0.12656124 -0.14042667 -0.0032312986 0.18473834 0.052883524 0.105276644 -0.047330882 0.18374127 0.13011293 0.33165592 0.024982754 0.10963657 -0.0266791 -0.06872959 0.13199094 0.037907287 0.17548157 -0.028680682 -0.13458173 0.13365954 0.16144162 -0.025558846 0.0020146272 -0.0078408625 0.107956804 0.0057860455 -0.06509876 0.09839901 -0.07143422 -0.09521652 0.020264471 -0.110770784 0.076876454 0.037149016 -0.21078758 -0.07493898 0.023968212 -0.011208144 0.18801755 -0.017642565 0.17980635 0.09992821 -0.10838364 -0.17532535 -0.2037129 0.13480332 -0.0874112 0.055889707 -0.11547946 0.18879549 -0.16469724 0.019951595 0.00051942014 -0.08664302 -0.10027593 -0.17355826 0.013919064 0.011137818 -0.038462408 -0.012593783 -0.046893798 -0.0093386825 0.044421002 0.0888736 0.009670158 0.050397303 0.07397037 0.013464412 -0.12380427 -0.3680042 0.017426267 0.099178664 -0.06557211 0.046116076 0.15706347 -0.20264688 0.033254925 -0.10282239 -0.013697272 -0.07087875 0.010229077 -0.04098686 -0.06664602 -0.048745785 0.083512284 -0.037574667 -0.049244024 0.22032769 0.113312736 0.031301536 0.041499536 0.07302646 -0.10197108 0.026489904 -0.13370565 0.06357163 -0.02538885 -0.0299685 0.11664724 -0.2108714 0.11662861 -0.024582997 0.1719015 -0.117070474
70 0.004697274 0.05285723 -0.058537524 0.23994344 0.18354343 -0.023864102 -0.0015839173 0.14938466 0.0029076454 -0.024172634 -0.11959828 -0.21137394 -0.015139329 -0.044103086 0.10441616 -0.01145155 -0.03503013 -0.13247308 -0.060206123 -0.08241013 -0.028112708 0.29419765 0.07354037 0.11449548 0.110667646 -0.12574397 -0.0043156296 0.16076191 0.08262232 0.07827686 -0.049931183 0.14686133 0.099671885 0.29706427 0.013655652 0.11851057 0.012600121 -0.07621352 0.1403148 0.043464735 0.17314868 -0.010051781 -0.12239796 0.1396744 0.14936812 -0.019276476 0.042607456 -0.012469001 0.08537387 0.013505083 -0.047104895 0.060521577 -0.06909992 -0.06123156 0.02823549 -0.1079696 0.047764886 0.06339593 -0.16852939 -0.06870961 0.020225767 -0.02733521 0.18214531 0.018627811 0.16706319 0.08103297 -0.076063335 -0.1373979 -0.18894956 0.10232471 -0.09832575 0.026308592 -0.09993788 0.1819726 -0.1214781 0.018116044 -0.001329126 -0.0711785 -0.10651273 -0.11061706 0.014681666 0.019287325 7.350283e-05 0.0023471245 -0.0174068 0.0017953387 0.029961666 0.09056515 0.013777746 0.026627196 0.07125888 0.028634591 -0.11280677 -0.32585263 0.028747112 0.07253391 -0.037540056 0.031282447 0.14453535 -0.16058035 0.012057318 -0.083874516 -0.0450653 -0.072453655 -0.009758059 -0.069082126 -0.031529203 -0.07647105 0.07317445 -0.04148076 -0.019810611 0.18025546 0.1100353 0.034173135 0.05381644 0.07744377 -0.079623155 0.029502206 -0.13367221 0.04409646 -0.020329455 -0.015888585 0.13321342 -0.1896746 0.06712597 -0.0021143437 0.13821521 -0.106399156
65 -0.04527477 0.055474427 -0.09816781 0.2563005 0.19855905 -0.059864394 0.120027386 0.16522178 4.2971344e-05 0.092787474 -0.21798475 -0.22349021 -0.06758457 -0.062193733 0.14739506 -0.0018474257 -0.01576963 -0.17744945 -0.11018379 -0.098355584 0.038189612 0.33215523 0.011449787 0.10009851 0.124666974 -0.08299924 0.011962938 0.22723646 -0.021028088 0.12591049 -0.04989461 0.17488493 0.18098496 0.30585277 0.035031565 0.06866767 -0.091818154 -0.011663474 0.09106868 0.045670252 0.2132388 -0.024212716 -0.1038852 0.06160565 0.19849862 -0.06695839 0.00575174 -0.039959755 0.17116873 -0.0025747286 -0.03425184 0.112448625 -0.047889996 -0.13032858 -0.004519082 -0.12673019 0.09584173 -0.04098523 -0.17187402 -0.017315276 0.05016356 -0.013443731 0.2217034 -0.0616144 0.21547745 0.13976125 -0.1403558 -0.19545579 -0.21019727 0.18384501 -0.09034053 0.14726233 -0.124731295 0.19048913 -0.19887897 0.071620345 0.03538757 -0.075278886 -0.06208798 -0.20064522 -0.011699813 -0.01920879 -0.09913704 -0.009465099 -0.027727546 0.013542939 0.033922933 0.11493528 -0.03491214 0.13105744 0.04055817 -0.036871582 -0.11716702 -0.33522266 0.01292957 0.12622648 -0.08661389 0.072943315 0.19950563 -0.23207822 0.02149185 -0.09503191 0.03177119 -0.07706594 0.04798044 -0.028481869 -0.119850904 -0.056241106 0.09513812 -0.010980378 -0.094529755 0.2670159 0.17965269 0.025771016 0.0401503 0.036634434 -0.116428114 0.030732116 -0.18052799 0.10965289 -0.046732508 -0.0018144639 0.053217847 -0.23535055 0.17447615 0.04100412 0.19959342 -0.09555682
51 -0.025056599 0.06221225 -0.05909966 0.10534004 0.13510242 0.026674291 0.012119416 0.089430474 0.0699204 -0.0059263296 -0.05433131 -0.29099536 -0.03516959 0.030685307 0.08593702 0.008017586 -0.024869325 -0.16482784 -0.07456652 -0.03929476 -0.020171719 0.40093902 0.08761587 0.124037124 0.11315369 -0.18527076 -0.043847002 0.20410322 0.09041316 0.078567825 -0.17608312 0.20672691 0.07200019 0.41706 0.1006363 0.17292102 -0.048930068 -0.1823169 0.085165985 0.123155355 0.14865957 0.05325872 -0.01911769 0.2867981 0.11731253 -0.08692543 -0.010845429 -0.14507759 0.15741538 0.16519776 -0.019233922 0.07977671 -0.03027565 -0.11798782 0.036782373 -0.10669589 0.071188785 0.073631294 -0.11121811 0.0013589435 0.10627033 -0.06929207 0.23532894 0.17668046 0.22336794 0.04389633 0.025433213 -0.0014353341 -0.24721108 0.19459102 -0.06007128 -0.015000901 -0.064588465 0.19082524 -0.11609747 0.08087441 -0.0417917 -0.02441076 -0.18498728 -0.10005013 0.04402449 -0.017413465 0.055686027 0.039671045 0.024497885 0.05044827 0.035504423 0.12071219 0.07738585 0.036135547 0.029290639 0.029396286 -0.07201838 -0.34065446 0.023524059 0.073053524 0.081076734 0.054134622 0.20896685 -0.002112539 -0.11542938 -0.12443343 -0.027300294 -0.0750575 0.044903018 -0.18256009 0.05226829 0.023521831 0.011898699 -0.10071738 -0.010079263 0.124907024 0.15040968 -0.054104634 0.14267659 -0.010887981 -0.14893574 0.062285583 -0.14521669 -0.018583372 -0.033149045 0.03887086 0.14184508 -0.2561733 -0.004043937 0.012819853 0.08349278 -0.21804203
59 -0.04118633 0.06282385 -0.075202756 0.25284952 0.21472165 -0.052886546 0.076938406 0.16310985 -0.029975729 0.06823352 -0.1922876 -0.21450566 -0.042117205 -0.060755916 0.1320563 -8.9772046e-05 -0.035399616 -0.16435911 -0.07505116 -0.10973587 0.012990492 0.29516363 0.055992726 0.090498514 0.13298185 -0.11658319 0.010296644 0.18759948 0.022538304 0.080746114 -0.02749427 0.14230368 0.15259704 0.30505323 0.03221343 0.05871779 -0.055232495 -0.032732897 0.10387858 0.03055991 0.20206173 -0.017246684 -0.102261834 0.09404908 0.16548851 -0.038118802 0.013299668 -0.059257418 0.14048022 0.012516091 -0.035066094 0.10986921 -0.019749679 -0.10530912 0.0038620958 -0.13755901 0.08667847 -0.039142523 -0.18977141 -0.022837667 0.032343514 -0.031685185 0.19326538 -0.04104243 0.18069577 0.10978784 -0.10190047 -0.19959252 -0.18281907 0.13314201 -0.08444194 0.08608325 -0.11073718 0.23200375 -0.19244462 0.04383452 0.04010662 -0.08797685 -0.087799616 -0.20224468 0.020736625 0.0039303154 -0.08644101 -0.00514159 -0.028307684 0.010114916 0.042098604 0.095784314 -0.011942609 0.10590183 0.066550456 -0.01490522 -0.124734215 -0.37448522 0.021958897 0.07251029 -0.089859046 0.05296629 0.17537211 -0.21038298 0.053074516 -0.11050837 -0.0044543273 -0.081708744 0.05582809 -0.025609225 -0.10237387 -0.067330375 0.07072027 -0.026999082 -0.07502885 0.22090112 0.15990236 0.014032869 0.046166576 0.033272263 -0.10264834 -0.010163028 -0.1622301 0.09870798 -0.043152057 -0.014852278 0.095834956 -0.23265265 0.17919655 0.01749519 0.17933577 -0.07055966
66 -0.013802755 0.05790931 -0.090413444 0.2894477 0.20214571 -0.025594398 0.106058165 0.17385289 -0.020902203 0.043832436 -0.18063796 -0.20344159 -0.020135801 -0.10388643 0.15512088 0.004791014 -0.037452057 -0.17371798 -0.06053415 -0.13796641 0.0038582156 0.32014635 0.024989752 0.13231547 0.1371319 -0.113428466 -0.014402614 0.19394588 0.03362822 0.113032244 -0.027993228 0.18522404 0.15645392 0.3231887 0.019988757 0.091605 -0.040590227 -0.036422197 0.12988105 0.036630705 0.17810242 -0.037997223 -0.13640267 0.11872169 0.1741502 -0.048775706 -0.012984537 -0.012911978 0.10631123 -0.013651002 -0.055704392 0.10443929 -0.07171056 -0.11340681 0.009570434 -0.1119078 0.10437937 -0.0038832382 -0.19657946 -0.07355332 0.04253023 0.009998601 0.17872982 -0.04473238 0.1815939 0.10401981 -0.1335259 -0.19792666 -0.22377877 0.14134608 -0.0785322 0.091478944 -0.13391462 0.20210625 -0.17179798 0.026000973 0.018131686 -0.10559225 -0.06821366 -0.20755859 -0.004169465 0.00094519096 -0.09256881 -0.028598625 -0.061907228 -0.00038847566 0.021608792 0.10506865 -0.010687907 0.09966499 0.08364538 -0.004699269 -0.11968509 -0.38506395 0.016649334 0.10885427 -0.09072141 0.028065639 0.18530513 -0.22411829 0.03497717 -0.101325236 0.005484144 -0.064428076 0.015066026 -0.03325718 -0.09256896 -0.036130246 0.09912837 -0.05206795 -0.07229474 0.27486014 0.13042703 0.020628436 0.028125715 0.061378643 -0.10501029 0.022574881 -0.14185593 0.0732508 -0.026792483 -0.033981826 0.08435922 -0.22492686 0.16179991 -0.00941618 0.18632491 -0.13192452
68 -0.0029897548 0.048743453 -0.063601725 0.27173665 0.20463558 -0.025650505 0.025599496 0.14869617 -0.0060903723 0.01822936 -0.15086226 -0.23392475 -0.025081253 -0.055268668 0.111087024 -0.009857203 -0.038992915 -0.15292054 -0.06553913 -0.09411242 -0.0091608865 0.28750056 0.073710054 0.10226594 0.13911566 -0.11883405 0.01129163 0.1746215 0.08292931 0.06516253 -0.026842201 0.12459747 0.12457932 0.2951218 0.020860506 0.08918785 0.00062243093 -0.05483848 0.13420618 0.034217417 0.19201386 -0.012094088 -0.11599098 0.1370855 0.16559823 -0.02885686 0.05689068 -0.045833543 0.09946952 0.015156587 -0.032718558 0.07704331 -0.03911996 -0.0721839 0.016522715 -0.12670809 0.06334193 0.010999983 -0.16406053 -0.0470039 0.023605488 -0.038609177 0.17863815 -0.005282281 0.15974884 0.07233215 -0.06423702 -0.16290528 -0.19974953 0.09696326 -0.09526589 0.038579926 -0.10421753 0.23665078 -0.14489213 0.027072659 0.03400617 -0.09779728 -0.087367065 -0.13192528 0.018772222 0.010395195 -0.042867277 0.0019577285 -0.022112895 0.017194482 0.023867326 0.10273734 0.0063204765 0.08007476 0.08922488 0.011171571 -0.117204115 -0.3668783 0.0402674 0.0430046 -0.07170827 0.022453407 0.16927144 -0.16602986 0.03786685 -0.10120641 -0.043598194 -0.07860478 0.014352035 -0.064253755 -0.06504022 -0.0922433 0.06985998 -0.040549465 -0.03557166 0.19570784 0.14192946 0.018271068 0.06456157 0.058038995 -0.09330152 0.0028516997 -0.15796638 0.06971484 -0.022815054 -0.022724908 0.11926715 -0.21425825 0.13545121 0.011086975 0.14981924 -0.09054886
16 0.070027225 0.039726667 -0.10554014 0.18479303 0.10959992 -0.00974951 -0.008481217 0.16170968 0.116651095 -0.18766716 -0.02427624 -0.21157521 0.012879531 -0.061374296 0.1358838 -0.009355823 -0.007089539 -0.10975433 -0.069967784 -0.044027947 -0.104121834 0.42697188 0.024013184 0.240581 0.044128444 -0.15686549 -0.088135034 0.17370886 0.07395946 0.2153632 -0.17870097 0.3118244 0.06649873 0.37576658 0.027633512 0.311378 0.04095595 -0.165409 0.18809447 0.11452737 0.08913998 -0.033824172 -0.14275484 0.21509795 0.1466648 -0.05870951 -0.04380818 0.12479284 0.05699097 0.016789868 -0.11574402 0.035790175 -0.2792919 -0.066101536 0.055201046 -0.029733816 0.050993934 0.2848016 -0.17282198 -0.1943676 0.07230955 0.014329641 0.23842752 0.118642524 0.23146014 0.11663003 -0.119174495 -0.020177394 -0.2855233 0.19879673 -0.10594908 0.012704121 -0.12539655 -0.011399272 -0.058527187 0.04246822 -0.15606768 0.0019024358 -0.1451289 -0.03019218 -0.030474896 0.010945183 0.15713178 -0.024692632 -0.04255702 -0.020034704 0.037120357 0.089574695 0.058396205 -0.11995769 0.04134247 0.074557476 -0.11539903 -0.2670065 -0.0068008783 0.25785348 0.096653916 0.061601374 0.15003568 -0.15208824 -0.12821676 -0.052002054 -0.03786791 -0.036742393 -0.10881271 -0.14681241 0.07278894 0.009623585 0.1381679 -0.060856 0.036860995 0.24003892 0.025407227 0.09468465 0.052778423 0.2129338 -0.1140316 0.19080722 -0.12335785 -0.043468732 -0.0036488613 -0.033365965 0.1622959 -0.19080807 -0.13987723 -0.07161333 0.14858727 -0.33943906
61 -0.027935479 0.062529035 -0.098745614 0.3072531 0.21464139 -0.037189502 0.13221174 0.18525052 -0.021338074 0.07100633 -0.20814832 -0.21869709 -0.031600762 -0.11146779 0.15851066 0.010845589 -0.03903709 -0.17747544 -0.07549009 -0.13711143 0.017900074 0.32199335 0.011628415 0.122628056 0.1459561 -0.096156515 -0.0010452324 0.21189316 0.009742666 0.12891759 -0.017611144 0.18343244 0.1709463 0.3162554 0.021909688 0.06877791 -0.06402689 -0.015116507 0.12464808 0.033885725 0.19604492 -0.049724147 -0.13273926 0.09881282 0.20011456 -0.056344647 -0.011281018 -0.01988003 0.12398118 -0.026311997 -0.039746918 0.10960086 -0.06785321 -0.12523815 0.0054890304 -0.11477755 0.112958744 -0.03478909 -0.19887328 -0.057872877 0.04763672 0.01130218 0.18742268 -0.07348962 0.19364095 0.11334809 -0.15028855 -0.21765952 -0.22831433 0.14787154 -0.08773628 0.12709321 -0.13321199 0.21294574 -0.19667871 0.036163613 0.031878017 -0.11250877 -0.051800538 -0.22628662 -0.012427094 -0.0037688913 -0.1264877 -0.03193675 -0.058165383 0.0045472346 0.01788805 0.12106537 -0.029035807 0.13433683 0.084524885 -0.023212064 -0.11997611 -0.38841254 0.023199044 0.111240864 -0.105673544 0.034885976 0.20709999 -0.2402393 0.04100327 -0.09869042 0.022154426 -0.0653232 0.030946882 -0.022385987 -0.12364339 -0.039313424 0.100821055 -0.041676063 -0.09368542 0.3070494 0.16043702 0.022311928 0.023252934 0.05607779 -0.11362681 0.023403056 -0.16251996 0.08794528 -0.031566933 -0.034276936 0.055594288 -0.23275568 0.19525774 0.011302239 0.19833966 -0.11859939
49 -0.016780626 0.068205416 -0.058101945 0.16775432 0.15543601 0.016538292 0.028981 0.10952465 0.024922442 0.021517381 -0.10124953 -0.25520265 -0.031844 -0.011991537 0.098653115 0.015476571 -0.033550017 -0.17986923 -0.052319884 -0.07289245 -0.015571587 0.35534793 0.083312266 0.11259842 0.13658826 -0.16170315 -0.027744059 0.1886557 0.094790116 0.059653927 -0.10870088 0.17877686 0.09738383 0.38112998 0.06679145 0.12110039 -0.04398914 -0.13523804 0.09488829 0.08776431 0.16510814 0.018331675 -0.06257359 0.23785572 0.12663305 -0.060696363 -0.012160072 -0.12664492 0.13557163 0.1025164 -0.03563784 0.10510914 -0.016463831 -0.11949246 0.03442885 -0.10689966 0.08817727 0.024534792 -0.14525157 -0.008765837 0.07739402 -0.03832134 0.20552124 0.10705956 0.18144242 0.04438422 -0.009639878 -0.063210525 -0.21627617 0.15874033 -0.06381504 -0.002699239 -0.07088265 0.2393463 -0.13705024 0.049092323 0.0011746102 -0.06718907 -0.15143345 -0.14794393 0.038284976 -0.005330649 -0.013054455 0.01176552 -0.00618204 0.029321805 0.02757544 0.11357799 0.056692615 0.06520339 0.053267088 0.02170715 -0.081876494 -0.36461237 0.025362141 0.04676158 0.00047446883 0.039369658 0.19014369 -0.050382964 -0.038412116 -0.12908666 -0.03804579 -0.077863656 0.05308134 -0.12564191 0.008176222 0.00050583505 0.019992009 -0.09050154 -0.03010698 0.15362822 0.14643057 -0.049370486 0.102361 -0.013867852 -0.1286021 0.022531228 -0.14042594 0.010390945 -0.028218338 0.012204609 0.13011062 -0.24480861 0.0657209 -0.000548182 0.10578517 -0.17265321
60 -0.02418994 0.07220096 -0.10266886 0.27790394 0.20139715 -0.023192028 0.124876924 0.1691392 -0.008856799 0.06407486 -0.19145098 -0.2148512 -0.031344175 -0.101263665 0.16657269 0.011791063 -0.0370623 -0.18619305 -0.05555585 -0.13561422 0.009058236 0.3461655 0.022454482 0.14291163 0.14475565 -0.1269429 -0.016364044 0.21378848 0.023405023 0.11631076 -0.052685574 0.20965315 0.1649669 0.34486938 0.042157043 0.090484165 -0.06913086 -0.041728094 0.118149966 0.044903897 0.17116505 -0.03958958 -0.12709075 0.13136564 0.17990951 -0.06276779 -0.026962215 -0.040162288 0.13401665 -0.0044113356 -0.058995176 0.1216306 -0.06629023 -0.13193744 0.010111124 -0.10888504 0.12166267 -0.01863156 -0.19483596 -0.053873185 0.047161773 0.010196218 0.19189394 -0.028299844 0.19220266 0.10169502 -0.13092689 -0.18697993 -0.23117113 0.16661094 -0.071108244 0.102637 -0.12402214 0.20921634 -0.18608999 0.04304409 0.02360402 -0.106131986 -0.07621378 -0.22456655 -0.0063752746 -0.0071743224 -0.101209745 -0.032345746 -0.059643507 -0.0008662465 0.022443315 0.11788393 -0.004108094 0.11780759 0.06531912 -0.006268886 -0.11407564 -0.39577705 0.014567692 0.11508504 -0.08886844 0.034317143 0.19787852 -0.21363665 0.015966859 -0.111647785 0.016349364 -0.06514987 0.038944125 -0.043549113 -0.097236186 -0.014057534 0.098055825 -0.05896621 -0.08401052 0.28351796 0.14520125 -0.002396189 0.0356911 0.036163967 -0.122691125 0.027566457 -0.14605701 0.07023188 -0.027484775 -0.032692783 0.06564574 -0.23714846 0.16988708 -0.012571418 0.18642011 -0.14987285
29 0.030838495 0.09107637 0.0037002724 0.16736177 0.22003482 -0.007454078 -0.22842155 0.18869595 -0.079292916 -0.23226912 0.055446126 -0.15497847 0.061190005 -0.011488778 0.098577164 -0.006654448 -0.09049462 -0.052217137 0.061188176 -0.1236834 -0.18399508 0.27132416 0.2478267 0.16819546 0.09335086 -0.3131059 -0.02326149 0.046971794 0.23753801 -0.029085381 -0.08440449 0.16498207 -0.052130047 0.4031759 0.016674371 0.21307227 0.14942928 -0.22757037 0.22327675 0.036215194 0.091777556 0.00405847 -0.16934115 0.33478275 0.003952192 0.12142124 0.03360681 0.028303508 -0.043313824 0.099778056 -0.1410017 0.03809211 -0.06436941 0.025070965 0.08079042 -0.10894759 -0.04194317 0.24856831 -0.2792096 -0.19220944 -0.0698998 -0.063530676 0.13698684 0.16856863 0.08658504 0.014449248 0.03298728 -0.10138889 -0.120451815 -0.015560765 -0.095192015 -0.25625312 -0.054920793 0.18923612 -0.07194394 -0.11576824 -0.07447657 -0.060513653 -0.27949557 -0.06401673 0.12841484 0.11060188 0.21892127 0.01653715 -0.05593046 -0.0521473 0.13189639 -0.005154563 0.15462472 -0.23238303 0.12866691 0.14900032 -0.16063565 -0.43912342 0.020681517 0.017830802 0.031464085 0.013720561 -0.0028756603 -0.073426194 0.06433689 -0.1211087 -0.17259203 -0.06583339 -0.068271115 -0.07530813 0.13414285 -0.05556106 -0.019689903 -0.09522843 0.093009375 -0.024954848 -0.06975877 0.039046634 0.07368153 0.10557273 -0.040174052 -0.037011664 -0.012907819 -0.034729984 -0.0039926074 -0.031060904 0.374816 -0.1559087 -0.0965463 -0.19226791 0.08815784 -0.106613226
76 -0.048206583 0.054317422 -0.08130622 0.3141727 0.23855802 -0.06942326 0.101862356 0.1936076 -0.05488013 0.08877462 -0.23427379 -0.2059658 -0.05467469 -0.08423021 0.14434236 -0.002013341 -0.05090557 -0.1724148 -0.094369784 -0.12335386 0.027725628 0.27910706 0.03492011 0.0838746 0.14392774 -0.08125234 0.031957306 0.198848 0.0071791853 0.094525866 0.0189981 0.12662302 0.17674945 0.27499 0.011673403 0.030631077 -0.057284314 0.011744301 0.11603749 0.016086 0.22430156 -0.03725895 -0.13000815 0.04857697 0.19518189 -0.029823182 0.030243414 -0.03748477 0.1366592 -0.031363234 -0.030954262 0.11362637 -0.026793746 -0.100200675 -0.008045539 -0.14560795 0.09017769 -0.07151822 -0.19757085 -0.0322979 0.018813027 -0.019814402 0.18137354 -0.10813104 0.17279941 0.12197133 -0.13548116 -0.25306776 -0.18185133 0.111591905 -0.08958289 0.12930165 -0.12364482 0.2386561 -0.21694595 0.03109064 0.064340524 -0.108222954 -0.048547514 -0.22135349 0.011669359 0.006605606 -0.13602883 -0.014828856 -0.035141144 0.012986333 0.040691257 0.09924643 -0.04476937 0.13241929 0.08749204 -0.03699752 -0.13179277 -0.37072986 0.03234859 0.07587265 -0.13186122 0.04791555 0.17662847 -0.25543773 0.085543185 -0.105459675 0.011320437 -0.08545116 0.052424677 0.008203783 -0.14975622 -0.087656274 0.08629557 -0.0044788555 -0.08735664 0.25213358 0.16637307 0.043010876 0.01696335 0.040682595 -0.09032196 -0.024067095 -0.16517995 0.12789343 -0.03587095 -0.023717802 0.06534747 -0.20989473 0.2256828 0.032381594 0.19949171 -0.033806264
69 -0.017139032 0.053943295 -0.05505241 0.26811337 0.21800776 -0.031328868 0.033691466 0.14648686 -0.026528865 0.05359831 -0.17356409 -0.23403879 -0.031617224 -0.051382475 0.1136034 -0.01194123 -0.039933547 -0.16107008 -0.06648727 -0.10017771 0.0059667155 0.27211156 0.0770311 0.07909238 0.14351125 -0.115988195 0.023654183 0.17780745 0.06523699 0.04476844 -0.010918297 0.104085416 0.13394406 0.28971717 0.025418982 0.059195913 -0.01993674 -0.0394952 0.115206115 0.02546083 0.20765845 -0.0036655262 -0.10483234 0.12044221 0.16679971 -0.028044198 0.057499133 -0.07346322 0.11482771 0.020624679 -0.019250792 0.08720082 -0.003228663 -0.07873174 0.006922593 -0.13922541 0.064455174 -0.030871328 -0.16306475 -0.018619418 0.023477325 -0.04162792 0.16937615 -0.021338109 0.15684414 0.071037605 -0.063153625 -0.18170558 -0.18435825 0.09150383 -0.08991283 0.04960451 -0.10435231 0.2574299 -0.1656896 0.03124969 0.060489185 -0.10406746 -0.08467791 -0.15553162 0.021395512 0.011296307 -0.07758024 0.0050085085 -0.015854174 0.015337412 0.026867652 0.10246306 -0.0008248792 0.10607088 0.08666038 -0.0032959585 -0.11396842 -0.37891257 0.04008411 0.027297987 -0.0861451 0.023360597 0.16764295 -0.1648761 0.05848402 -0.09817975 -0.030351022 -0.08231029 0.036241487 -0.04706673 -0.08980835 -0.09673992 0.06056003 -0.03508236 -0.05030431 0.18258701 0.15330939 0.008088292 0.057448115 0.02867151 -0.08587449 -0.026545204 -0.15362251 0.08234972 -0.027969643 -0.01326597 0.10859745 -0.21487887 0.16870789 0.025342347 0.14881629 -0.056299902
71 -0.0067430497 0.05166836 -0.036804684 0.22702226 0.1957432 -0.015029052 -0.026734589 0.12295555 -0.013495073 0.016022576 -0.11713522 -0.23555477 -0.026248178 -0.016320929 0.08350726 -0.019875932 -0.04093114 -0.1455364 -0.05591804 -0.076876245 -0.015712148 0.26696286 0.10987165 0.080200344 0.13662617 -0.13677427 0.01476996 0.14914064 0.1048588 0.018584626 -0.040200476 0.09061065 0.09732452 0.2963363 0.029650467 0.0803271 0.011726097 -0.0796615 0.12047497 0.04431644 0.18749364 0.01586394 -0.08841903 0.1672376 0.13334003 -0.013475889 0.07505179 -0.09071745 0.09508542 0.05404886 -0.015587413 0.06904611 0.011044564 -0.06358248 0.020380134 -0.14031607 0.03895147 0.005230422 -0.14515904 -0.016870843 0.019020049 -0.06561537 0.17321686 0.040749595 0.14576001 0.044472795 -0.014780855 -0.1334328 -0.17248958 0.07089939 -0.09198235 -0.013518112 -0.07722775 0.25947198 -0.12636542 0.02207078 0.042625763 -0.081811465 -0.1255934 -0.111405216 0.049556322 0.022935167 -0.015584 0.027187683 0.0061424426 0.018415015 0.033667393 0.08877313 0.03219384 0.059677918 0.08549299 0.020163912 -0.105837494 -0.3609923 0.042398658 -0.005615739 -0.044310447 0.022598708 0.14689924 -0.104311995 0.03673731 -0.10308258 -0.059289522 -0.08448309 0.025426863 -0.07634367 -0.034757264 -0.09962946 0.027066436 -0.052531403 -0.018606303 0.12122441 0.1357217 -0.0055494816 0.0876219 0.020650687 -0.08428458 -0.023914902 -0.14179903 0.056361407 -0.025495203 -0.0023984017 0.15485032 -0.20931633 0.10889606 0.00977543 0.115430415 -0.06396684
75 0.007905642 0.060797952 -0.04064918 0.21930163 0.19673778 -0.01210804 -0.046633076 0.13478418 -0.011542647 -0.03635173 -0.09473798 -0.2307321 -0.013490506 -0.016263537 0.093470916 -0.018851062 -0.04574051 -0.13414285 -0.039667103 -0.08425955 -0.046046384 0.2854383 0.11316021 0.10672509 0.1285377 -0.16090722 -0.0004929898 0.14083032 0.12346637 0.03663282 -0.05720141 0.12450252 0.0790347 0.3248823 0.024993729 0.11688988 0.034511868 -0.10441761 0.13988234 0.053686332 0.17123938 0.0063330517 -0.10165821 0.19765353 0.12021876 -0.0031507458 0.059700653 -0.054545887 0.0758277 0.054411903 -0.04068954 0.063559934 -0.03388213 -0.057951365 0.025536796 -0.12395563 0.029148372 0.06355948 -0.17027988 -0.054594494 0.01351654 -0.058356233 0.17327356 0.067539975 0.14922407 0.04550376 -0.021455517 -0.12237856 -0.17905061 0.071413636 -0.091420546 -0.036977753 -0.08370859 0.22574285 -0.114737764 0.0016519091 0.0080613475 -0.077625215 -0.14344433 -0.10433121 0.045331165 0.03246485 0.01921859 0.018557258 -0.01392414 0.008151944 0.043197684 0.08609654 0.0501935 0.015830845 0.090829276 0.044213247 -0.11525841 -0.36989978 0.03117351 0.025072126 -0.021773394 0.023888333 0.13751948 -0.11115481 0.02581605 -0.09744431 -0.069433466 -0.07598144 -0.0007122949 -0.08298312 -0.009568579 -0.08349146 0.03344405 -0.055968307 0.0029851482 0.124176025 0.100195155 0.0083060125 0.07892125 0.047207944 -0.07994905 -0.008822512 -0.123534486 0.034463614 -0.02450297 -0.012309866 0.1747663 -0.20679747 0.06716343 -0.020455727 0.11724414 -0.09485033
21 0.109428935 0.010043226 -0.085633054 0.16722761 0.08296708 -0.045538805 -0.15052883 0.17697072 0.1803932 -0.3110586 0.02315529 -0.20687322 0.0062195924 -0.008087117 0.09886458 -0.062200025 -0.00023364913 -0.055039894 -0.11791658 0.046631925 -0.1551091 0.43241066 0.08435652 0.24823265 -0.019861657 -0.15150583 -0.058855142 0.13261619 0.11190253 0.23346145 -0.199872 0.27825153 0.022553187 0.33678454 -0.0012524097 0.41182318 0.13464592 -0.19484544 0.23144902 0.11106615 0.10844827 0.0007293424 -0.17528747 0.17217882 0.14934255 -0.022163082 0.042187307 0.21631645 0.034688696 0.023010843 -0.13210045 -0.033637602 -0.34667432 0.013812114 0.08773762 -0.036366172 -0.034314696 0.4324925 -0.17260481 -0.25873947 0.036830712 -0.060303975 0.29525802 0.14338927 0.2553431 0.15959322 -0.08908121 0.02373592 -0.2569046 0.18476127 -0.1605812 -0.025216116 -0.13108402 -0.088863395 0.011387288 0.038171157 -0.22249 0.061814968 -0.1802711 0.11546061 -0.025692297 0.029482462 0.3130347 0.012949519 0.01121379 -0.027108828 0.06256152 0.06308359 0.077255964 -0.25872967 0.028360302 0.11804766 -0.1487819 -0.16508447 0.003003996 0.29218695 0.16606839 0.098242044 0.08938973 -0.16546169 -0.1492605 0.00655798 -0.09609856 -0.046917763 -0.19510423 -0.1697375 0.12814876 -0.09495247 0.16776337 -0.004206713 0.1240332 0.13476788 0.0010254997 0.20083646 0.05524086 0.3528797 -0.070291735 0.24993974 -0.13274491 -0.04606754 -0.0021392745 -0.029630002 0.2495614 -0.14688264 -0.26642457 -0.055404145 0.15309279 -0.32410538
17 0.1160254 0.018508086 -0.08814218 0.1625855 0.08408832 -0.027188797 -0.14242661 0.18307829 0.1839735 -0.33143288 0.04541364 -0.22706379 0.011919647 -0.012004335 0.10576093 -0.045381095 -0.0005174768 -0.06121145 -0.1162931 0.030764883 -0.1704514 0.46639502 0.07792209 0.26822662 -0.015737759 -0.16928254 -0.082893915 0.14771383 0.12539119 0.2525886 -0.22242518 0.31492063 0.020490456 0.3694312 0.010783393 0.4367666 0.1356269 -0.22111246 0.24342422 0.13183868 0.0961348 -0.009923022 -0.17944641 0.21272153 0.14524138 -0.032076508 0.0181377 0.21860595 0.033099234 0.027512249 -0.13798387 -0.024525791 -0.36728817 -0.003026546 0.09216744 -0.025996203 -0.024859134 0.45861822 -0.17903632 -0.26259586 0.05028123 -0.037925035 0.29877484 0.17100215 0.2652526 0.14785486 -0.10376886 0.037913404 -0.2909455 0.19842874 -0.1621152 -0.028858302 -0.13228786 -0.09938135 0.0052608214 0.031300113 -0.23518012 0.06713708 -0.19602881 0.11041418 -0.025542181 0.03670877 0.31902537 0.013467688 0.0068653235 -0.03143882 0.0553276 0.06905847 0.079256125 -0.27106833 0.03180645 0.12955666 -0.14465997 -0.17535868 0.0055020177 0.30850175 0.18519326 0.089155994 0.0995087 -0.14968942 -0.16903974 -0.004154408 -0.09196694 -0.039690863 -0.20142263 -0.20133887 0.15045163 -0.0639413 0.16159576 -0.02305804 0.12570614 0.16210486 -0.0028325992 0.19298697 0.05910667 0.35298857 -0.08932122 0.2702831 -0.1331095 -0.06409152 -0.0005257586 -0.024215404 0.25303397 -0.15105456 -0.2997613 -0.060687598 0.14100344 -0.3705214
20 0.104370095 0.019735755 -0.077077776 0.15467541 0.09245685 -0.04372789 -0.16778196 0.17603052 0.17119838 -0.31592023 0.03937262 -0.22135979 0.007444481 0.006759818 0.093358964 -0.05510012 -0.0060366327 -0.053965002 -0.117105484 0.04210569 -0.15797302 0.4236441 0.09674132 0.23593038 -0.014786811 -0.16246054 -0.06063667 0.12963146 0.12615588 0.21649279 -0.19483559 0.2678986 0.012300221 0.34080964 0.0015395053 0.40363702 0.14048408 -0.20386118 0.23561066 0.12060126 0.10727311 0.002914585 -0.16849631 0.18547612 0.14070758 -0.020477055 0.05555329 0.19953324 0.03316326 0.038490124 -0.12658301 -0.030732146 -0.32741302 0.021494195 0.08908532 -0.046182726 -0.038517475 0.43407446 -0.16824935 -0.2466082 0.03218684 -0.06635994 0.28856814 0.16329613 0.24411476 0.13943267 -0.07261331 0.030356845 -0.25083295 0.16624036 -0.16268659 -0.0387426 -0.1218767 -0.08252031 0.010410474 0.03221169 -0.21672681 0.061102692 -0.19081934 0.11967382 -0.014671946 0.031776663 0.31312433 0.017611613 0.01776346 -0.020050503 0.058685705 0.06131345 0.082436346 -0.25510755 0.02620606 0.11957598 -0.1414807 -0.16615616 0.007075476 0.26933247 0.16904789 0.085070506 0.08322629 -0.13532929 -0.15176454 0.002256989 -0.09474997 -0.043153014 -0.18856592 -0.17914085 0.13634698 -0.08513687 0.14671022 -0.007980339 0.12957747 0.112309314 -0.005174234 0.1878449 0.061796922 0.33381233 -0.07051357 0.23089609 -0.12418132 -0.04928915 -0.008780204 -0.027005667 0.2489476 -0.13784732 -0.26994085 -0.052147977 0.13115059 -0.31560788
22 0.08429228 0.04770343 -0.08780202 0.16879678 0.10067076 -0.0016087157 -0.07117036 0.16717622 0.11920546 -0.23221944 0.020986566 -0.21263382 0.02422559 -0.040186662 0.115688935 -0.015787497 -0.009890368 -0.08500213 -0.058545236 -0.03354347 -0.13319397 0.41799042 0.06114559 0.24528837 0.031428277 -0.18646234 -0.08887001 0.1514199 0.11236221 0.20268434 -0.19244726 0.30701983 0.030334035 0.38855034 0.023448447 0.34235507 0.07877753 -0.20137943 0.20824176 0.117015794 0.076285966 -0.021379566 -0.15335974 0.24453704 0.11468915 -0.035946827 -0.032312892 0.13162644 0.032617774 0.04114289 -0.12565523 0.013345528 -0.28344113 -0.042179827 0.06593537 -0.029167667 0.027181411 0.33805427 -0.17395246 -0.21243067 0.053020597 0.00018623508 0.2343194 0.15358762 0.21459286 0.09724404 -0.09073671 0.010028458 -0.27160132 0.18044849 -0.1184741 -0.045136724 -0.11207765 -0.023245106 -0.04136526 0.016915953 -0.17719124 0.018410927 -0.1825369 0.003240922 -0.008072285 0.025241673 0.21227914 -0.006739063 -0.030911053 -0.025985181 0.055931654 0.07128721 0.0878673 -0.17968641 0.046785712 0.10374345 -0.12126671 -0.2604085 0.0027429587 0.24105896 0.13060004 0.057572845 0.11627358 -0.12387197 -0.1342566 -0.044170525 -0.06677793 -0.030493794 -0.13011758 -0.16399662 0.10969886 0.0059094015 0.11991956 -0.06231211 0.0635633 0.18842657 0.0019292062 0.10665432 0.059034854 0.22913755 -0.10126827 0.18916842 -0.1061146 -0.0666667 0.0029917764 -0.03235945 0.20242879 -0.16663824 -0.18952237 -0.09094001 0.12598553 -0.34209433
18 0.11781421 0.029389383 -0.10299385 0.16127424 0.076049834 -0.013408937 -0.122294806 0.17542113 0.18577078 -0.32381 0.048131812 -0.23245457 0.022205403 -0.03241997 0.1206383 -0.036666103 -0.0024078533 -0.07072297 -0.08729631 0.010640121 -0.16642022 0.47961134 0.06170764 0.29005685 -0.0014420822 -0.1915802 -0.10401408 0.15153237 0.12702061 0.25281206 -0.23752448 0.34761822 0.023875225 0.40582445 0.022170136 0.44186008 0.1267017 -0.23318216 0.24705642 0.14269474 0.0796366 -0.012425881 -0.17109562 0.25453386 0.14015748 -0.04998484 -0.0077774497 0.20686314 0.032321423 0.040806357 -0.1494804 -0.017147006 -0.37484398 -0.019917531 0.09835706 -0.022403257 -0.003305738 0.46124533 -0.1779897 -0.27413133 0.0604913 -0.022140026 0.29205033 0.19229925 0.26771712 0.1326542 -0.09091904 0.051209573 -0.31197262 0.20642151 -0.15171269 -0.042849787 -0.13737915 -0.09444206 0.0043398747 0.03997883 -0.24089025 0.05247374 -0.20205945 0.08087617 -0.03256458 0.027768448 0.31066424 -0.0014307997 -0.014977283 -0.025389696 0.054455064 0.08287619 0.09443896 -0.25990477 0.030093616 0.12919964 -0.13677348 -0.21102998 -0.0022668568 0.31361225 0.18946621 0.07575453 0.11377904 -0.13563097 -0.1917091 -0.015099273 -0.08729232 -0.029142112 -0.1999172 -0.20196792 0.15897553 -0.023190234 0.1610516 -0.05524314 0.11569391 0.18281673 -0.020987157 0.1636841 0.064704 0.33361873 -0.09959656 0.26949665 -0.12516265 -0.08524863 0.0040642917 -0.040237024 0.24316734 -0.16926177 -0.28716972 -0.08679538 0.14026028 -0.41224602
19 0.11301994 0.0254833 -0.11069007 0.15812975 0.07226745 -0.013945156 -0.099852905 0.16736881 0.19376995 -0.29985836 0.031998485 -0.23927826 0.015465526 -0.020159952 0.11474276 -0.036183804 0.004642755 -0.08683558 -0.10527842 0.02542649 -0.15468696 0.49670452 0.0517006 0.28356054 -0.00028245366 -0.17660528 -0.09628096 0.17431599 0.113158554 0.26038942 -0.24393062 0.34526792 0.03857825 0.40505198 0.024248665 0.4382604 0.104755364 -0.22890623 0.23250306 0.14171049 0.086839005 -0.0075983065 -0.16122925 0.24334031 0.14980768 -0.059951898 -0.013529192 0.18999413 0.052753806 0.03862889 -0.14556277 -0.0070918393 -0.37272933 -0.029601265 0.08753422 -0.016561704 0.00346635 0.44071728 -0.17365004 -0.2593735 0.07379386 -0.027431324 0.30468786 0.19130738 0.27924138 0.1417796 -0.094672 0.05201169 -0.3127996 0.23465693 -0.14667635 -0.017099345 -0.13495143 -0.09184151 -0.003527706 0.059173744 -0.2330669 0.056971863 -0.19092451 0.078119904 -0.03934203 0.017441055 0.29360786 -0.0023903616 -0.006080752 -0.023688156 0.052919324 0.09491761 0.095411435 -0.2350488 0.014863209 0.114325024 -0.1360532 -0.20451906 0.0015779602 0.32389894 0.19045314 0.093713306 0.13349251 -0.14205581 -0.19842094 -0.013879023 -0.07532886 -0.036113963 -0.18605246 -0.20479102 0.1423318 -0.021291282 0.16782068 -0.044406574 0.10034313 0.19393247 0.006179082 0.15561664 0.06995572 0.31947938 -0.11379671 0.27796578 -0.13797925 -0.07673595 0.005034563 -0.028846376 0.2318563 -0.18564223 -0.27912527 -0.07364982 0.15308286 -0.4075789
37 0.0124941645 0.10980977 0.027446067 0.15238073 0.24634314 -0.0004667776 -0.26252228 0.19070269 -0.11994262 -0.22267725 0.07153911 -0.14218032 0.075221695 0.009385546 0.080644704 -0.01122607 -0.10994768 -0.052797288 0.09049025 -0.14150172 -0.18619607 0.24060601 0.29844493 0.13779607 0.10816878 -0.34870726 -0.0025452988 0.017525787 0.26982543 -0.08330602 -0.06972486 0.12898019 -0.077808775 0.41518208 0.010554566 0.1877007 0.15968248 -0.24647988 0.21421216 0.030994298 0.09269972 0.024737965 -0.15851322 0.3576528 -0.028518848 0.15715486 0.044045046 -0.017629892 -0.05092657 0.1270055 -0.13928412 0.05181755 -0.006342748 0.035469815 0.08273627 -0.12976214 -0.057513636 0.22993372 -0.296614 -0.17103666 -0.088736944 -0.08158733 0.12655179 0.19103812 0.048530754 -0.011353241 0.06775598 -0.12092133 -0.083066046 -0.04822426 -0.09116588 -0.31302568 -0.035152815 0.24441002 -0.08266687 -0.14478159 -0.053680208 -0.0736518 -0.31548846 -0.08192574 0.16883442 0.13578862 0.21964902 0.025701998 -0.05835029 -0.059650064 0.15139714 -0.024170326 0.1818965 -0.24243653 0.15291089 0.16054034 -0.16923933 -0.49059376 0.018099397 -0.04578891 0.02520497 0.010525157 -0.027189834 -0.056345765 0.10882615 -0.14313506 -0.20331113 -0.07475616 -0.04917495 -0.07181182 0.14517468 -0.062076822 -0.06356237 -0.10417888 0.09735342 -0.07632571 -0.0752262 0.015374808 0.0849376 0.06855287 -0.02493889 -0.092135675 0.009558187 -0.04201082 -0.013119867 -0.028417457 0.42171142 -0.16483498 -0.08318037 -0.21150796 0.07550836 -0.060041808
38 0.02506149 0.11526547 0.029369006 0.13185167 0.22574025 0.023737656 -0.24520813 0.16263814 -0.124893665 -0.21567693 0.09167084 -0.1360268 0.08701173 -0.00040717932 0.07766742 -0.0015219903 -0.108688004 -0.05172011 0.11310889 -0.15323046 -0.19191223 0.22659543 0.28277802 0.14420544 0.10869364 -0.35194346 -0.024591843 0.0146494135 0.2716117 -0.096566826 -0.074388005 0.1343386 -0.083347335 0.41053972 0.01970863 0.17303695 0.15728308 -0.25506833 0.20814855 0.032579005 0.062010337 0.022391673 -0.14651063 0.38950115 -0.049992144 0.14754616 0.016759159 -0.031552773 -0.06232292 0.13201481 -0.13287331 0.052326616 0.0019845264 0.02416526 0.075164534 -0.10881997 -0.043610547 0.2206786 -0.2842229 -0.16399151 -0.07830765 -0.06839894 0.096616805 0.20868652 0.03585726 -0.04233962 0.075943865 -0.09835693 -0.09208014 -0.05280573 -0.0679637 -0.33109146 -0.020872261 0.2511088 -0.07949443 -0.14598487 -0.04581699 -0.083906025 -0.3055617 -0.09177141 0.16493998 0.1257551 0.20429999 0.018270379 -0.06850121 -0.058956236 0.14236122 -0.022963071 0.19069794 -0.23152529 0.14789338 0.16382088 -0.15247862 -0.50277877 0.016168604 -0.055977963 0.029954392 -0.011995049 -0.02364354 -0.017759481 0.09350904 -0.15118726 -0.19939996 -0.062781036 -0.03390063 -0.067501664 0.15292253 -0.03144821 -0.07655197 -0.12439303 0.092693225 -0.07757078 -0.087449685 -0.018005196 0.09441709 0.035665497 -0.035966232 -0.10328086 0.024752308 -0.051877566 -0.0042449837 -0.027388409 0.41201806 -0.16626465 -0.07636825 -0.22745374 0.061410718 -0.076104246
36 0.03745061 0.10684276 0.029522415 0.123816736 0.20762113 0.023498496 -0.2727488 0.17104356 -0.08071195 -0.26995876 0.11098599 -0.15674478 0.08449868 0.018654468 0.081702776 -0.0024858618 -0.102613986 -0.04994439 0.09218028 -0.12135007 -0.21091269 0.28172967 0.29572105 0.16933514 0.09570858 -0.361656 -0.03242592 0.024380734 0.2909952 -0.061908454 -0.11136053 0.1671544 -0.09683939 0.4411308 0.021915097 0.23716618 0.17931513 -0.28596184 0.22354384 0.053552616 0.065885566 0.030021228 -0.15461491 0.40922844 -0.037555076 0.13688217 0.025870249 -0.013264334 -0.060158465 0.14377497 -0.14830475 0.04407051 -0.044338737 0.027976464 0.091667086 -0.10899356 -0.054193273 0.29072624 -0.28630537 -0.1897593 -0.0673844 -0.07964718 0.13503394 0.24565533 0.0641774 -0.02681234 0.083606206 -0.06135316 -0.11998751 -0.030858884 -0.089448 -0.33545822 -0.038077872 0.22011241 -0.052175045 -0.13185705 -0.09068386 -0.057354562 -0.33366355 -0.048399843 0.15412366 0.12605293 0.26062098 0.03033227 -0.052098595 -0.05334038 0.14452505 -0.016368385 0.20420688 -0.27475524 0.14395097 0.18312813 -0.15675418 -0.48151946 0.024300022 -0.017038079 0.06852868 0.0017164743 -0.01610211 -0.012477239 0.05422947 -0.1327238 -0.21044008 -0.064754836 -0.0717723 -0.11342472 0.19103868 -0.035809115 -0.053131886 -0.12322926 0.12131168 -0.078363776 -0.09153596 0.008897499 0.109656006 0.09384013 -0.038631354 -0.04956541 0.0016562899 -0.07520673 0.0027483995 -0.02802066 0.43444246 -0.16979367 -0.14783114 -0.22564627 0.056988966 -0.1365059
34 0.019245164 0.12834924 0.041613642 0.13821591 0.23876067 0.029263051 -0.2566223 0.16904125 -0.1447782 -0.21674751 0.092486 -0.14992158 0.10013369 -0.00069178536 0.077651136 0.006450393 -0.1230225 -0.06359705 0.13712122 -0.1741605 -0.19351234 0.22450508 0.3102341 0.14727451 0.13063186 -0.37644392 -0.02266333 0.00976503 0.30749446 -0.12294857 -0.06873382 0.13633299 -0.095579796 0.4493692 0.020347998 0.16447134 0.16824675 -0.27271068 0.21837053 0.03489318 0.058448765 0.026811672 -0.14441592 0.43117255 -0.061163776 0.15124594 0.013611445 -0.069657594 -0.07235954 0.15050656 -0.13425843 0.06375979 0.022851221 0.020054758 0.08174872 -0.12075937 -0.034933563 0.2115378 -0.29831487 -0.15869415 -0.07765345 -0.06630906 0.081650205 0.23227547 0.013894072 -0.06478828 0.10272375 -0.10408638 -0.097619064 -0.07269766 -0.065526895 -0.3657705 -0.016565638 0.28938147 -0.08556517 -0.15585452 -0.036214687 -0.095729716 -0.33278027 -0.10882492 0.18294314 0.13364153 0.19686735 0.015483049 -0.07253395 -0.050892897 0.14931409 -0.025370754 0.21249788 -0.22862858 0.1698837 0.17408499 -0.15128729 -0.5557612 0.022048088 -0.09186084 0.022636412 -0.023626952 -0.02552208 0.004242172 0.11373998 -0.16707678 -0.21197282 -0.065023795 -0.025791986 -0.082505144 0.15872854 -0.022321915 -0.09301203 -0.14399883 0.095317684 -0.08478355 -0.094958894 -0.042654566 0.108073436 0.015933985 -0.040824607 -0.12383335 0.027541304 -0.06775437 0.001762144 -0.036643684 0.42780316 -0.18036881 -0.06655864 -0.24185479 0.048344366 -0.088806376
35 0.034741137 0.09699092 0.039621435 0.12526837 0.21829014 0.010884733 -0.28060815 0.16547626 -0.077186614 -0.24163012 0.090285555 -0.1718429 0.06514904 0.03432148 0.06413076 -0.017820092 -0.10199345 -0.04932167 0.06444881 -0.1028798 -0.18270275 0.24396059 0.29743207 0.13953833 0.093091264 -0.33478332 -0.011777615 0.017485261 0.2824718 -0.08450233 -0.08375115 0.111028515 -0.08245791 0.40709788 0.021011049 0.21239533 0.17391706 -0.2543549 0.21615462 0.04361956 0.093836285 0.04340721 -0.13533178 0.36627686 -0.028047385 0.14020632 0.06442409 -0.03106519 -0.046002824 0.1441034 -0.11917098 0.028613465 -0.008604241 0.042457707 0.08758922 -0.12339138 -0.07152844 0.25634897 -0.2638328 -0.16232933 -0.07018568 -0.10829677 0.13969605 0.21996076 0.06029649 -0.024771221 0.101302974 -0.06841987 -0.09389637 -0.04829829 -0.0874498 -0.3174098 -0.024186546 0.23198967 -0.055939727 -0.11672263 -0.057464574 -0.057540685 -0.31247994 -0.030737525 0.16170472 0.12658772 0.24083492 0.046430882 -0.02798552 -0.043430667 0.13760526 -0.01280597 0.1855868 -0.24369287 0.13531812 0.16711968 -0.15886544 -0.45230886 0.030024 -0.051700268 0.060222846 0.0049104397 -0.02226518 -0.0034766449 0.07061025 -0.1274936 -0.20410304 -0.06721754 -0.054320086 -0.10016374 0.16446011 -0.07873609 -0.0631096 -0.10564317 0.12114655 -0.10664809 -0.060672972 0.019105306 0.11345358 0.07859402 -0.029107787 -0.06255408 -0.0065370826 -0.04776614 -0.0086616725 -0.012179116 0.42689797 -0.1642021 -0.11804927 -0.18557927 0.051291566 -0.08176419
28 0.004714135 0.045001373 0.032428563 0.18080488 0.19323413 0.00064585527 -0.20389365 0.14064662 0.019956354 -0.12259486 0.0033402604 -0.21883938 0.01966273 0.007091294 0.06133825 -0.046676602 -0.1008247 -0.08256885 -0.04052854 -0.0011650175 -0.08510251 0.22235689 0.26521295 0.07901754 0.101600654 -0.24624638 0.055839326 0.07201338 0.25211906 -0.07426775 -0.01944809 0.0017724715 -0.011287546 0.30372828 0.018580385 0.17577915 0.15277436 -0.147138 0.17528242 0.008194687 0.15283078 0.107391685 -0.119646914 0.23040107 0.074610144 0.07452218 0.17826842 -0.0971773 0.02425714 0.16669416 -0.018394819 0.034485314 0.06280387 0.04930199 0.08215629 -0.15956825 -0.047204334 0.14990985 -0.18577437 -0.06139617 -0.041396666 -0.18849967 0.15034297 0.124982305 0.11614019 -0.00084488525 0.13898006 -0.078541026 -0.101113684 -0.03308871 -0.101085156 -0.20021275 -0.07421 0.27745265 -0.038466886 -0.04637872 0.007483512 -0.08272253 -0.20195074 0.021913756 0.11664845 0.06414938 0.14916904 0.056478463 0.033880055 -0.0043938807 0.04458126 0.019866126 0.13192305 -0.08493757 0.12184291 0.12186274 -0.15179847 -0.41176865 0.09015426 -0.08820738 -0.0073869713 -0.019201629 0.05474749 0.00452908 0.04777923 -0.064373836 -0.14738853 -0.0943562 -0.024866307 -0.11555617 0.061917994 -0.1960825 0.017522989 -0.056559395 0.103046335 -0.11964306 0.086231545 0.008734365 0.15610556 0.10862789 -0.045840796 -0.043885406 -0.09696897 0.04023365 -0.025354719 -0.016329568 0.33135766 -0.17397846 0.018052194 -0.042007104 0.0895688 -0.015459118
54 -0.0053857965 0.059373956 -0.0640485 0.12537716 0.1344364 0.008988371 -0.01665424 0.09995864 0.0630662 -0.037082892 -0.058922227 -0.26850495 -0.032860514 0.020380024 0.09409274 0.00423971 -0.018229356 -0.15650418 -0.06304528 -0.03283324 -0.031959996 0.38548905 0.09784339 0.13129647 0.10161834 -0.17938341 -0.027795225 0.18674254 0.10321813 0.0769127 -0.15370889 0.20442152 0.0724424 0.396807 0.07346546 0.18669456 -0.022117551 -0.16873135 0.107596494 0.10517305 0.15885636 0.033673555 -0.05470555 0.26029983 0.12073303 -0.06287311 0.0050579077 -0.101262204 0.13629545 0.12398857 -0.05007295 0.07860976 -0.056611214 -0.10031638 0.042395882 -0.10085693 0.053835943 0.105024986 -0.13728508 -0.03237735 0.07435333 -0.06508872 0.23816529 0.15637586 0.20892726 0.0470875 0.005384747 -0.01934505 -0.22689928 0.1786054 -0.07687108 -0.02945067 -0.06352957 0.1874227 -0.10757326 0.06287226 -0.042453367 -0.032131623 -0.18181045 -0.08179731 0.033382516 -0.0032996822 0.07301778 0.029450223 0.010668886 0.026815021 0.040724203 0.11516353 0.08680061 0.005222279 0.027298497 0.040397044 -0.08973575 -0.3420798 0.024912206 0.08987803 0.058402028 0.062815584 0.17756239 -0.037557896 -0.086346775 -0.11013526 -0.048995707 -0.07720276 0.015285109 -0.14795598 0.055916533 -0.006544618 0.026864387 -0.08110011 0.003367899 0.12676415 0.12873252 -0.026203731 0.1253783 0.028963555 -0.13157536 0.07131914 -0.1390598 -0.0012062417 -0.02564247 0.024600422 0.17136334 -0.24900585 -0.0155594265 -0.019559458 0.106360346 -0.2103852
31 0.03236473 0.023441974 -0.030185085 0.17758335 0.14498548 -0.04954449 -0.15865614 0.15800956 0.07990841 -0.16184223 -0.039370004 -0.21329796 -0.023643717 0.02495485 0.06473462 -0.054848053 -0.030307943 -0.07173041 -0.10781732 0.027477227 -0.087897874 0.30731702 0.16336323 0.12607363 0.03488037 -0.14392193 0.018621871 0.111332625 0.13402587 0.07173381 -0.091593824 0.11387892 0.036958136 0.27782962 0.00040454906 0.23831563 0.11095111 -0.12730272 0.17093778 0.05037299 0.17350943 0.043433122 -0.13605617 0.12983052 0.13094105 0.01718112 0.1296066 0.04587529 0.07408581 0.06959446 -0.05905758 0.006421738 -0.10597153 0.022129653 0.062387623 -0.11870379 -0.040671248 0.22379322 -0.16787918 -0.110488735 -0.0071335677 -0.13316004 0.24132857 0.07952773 0.19572318 0.11323763 -0.0043893047 -0.076142274 -0.15507853 0.07964746 -0.14096218 -0.04559139 -0.0951904 0.10953912 -0.045367084 0.013351542 -0.06578807 0.0024578725 -0.16578783 0.04074094 0.036584903 0.048308827 0.18692721 0.05547506 0.051473837 -0.009822011 0.05934287 0.048274264 0.05557028 -0.13181314 0.05996571 0.08139344 -0.14071634 -0.24477048 0.044044625 0.08858217 0.050963476 0.07509647 0.06988793 -0.12568533 -0.018706148 -0.036676943 -0.11240812 -0.08157509 -0.08722738 -0.11684655 0.058607813 -0.17566472 0.085846625 0.01370169 0.08314451 0.015861675 0.07854915 0.11490377 0.082017 0.20035672 -0.0376421 0.08237051 -0.1288685 0.03806691 -0.021916516 -0.0018577755 0.2611749 -0.15172355 -0.08104249 -0.0074102264 0.12276627 -0.097868875
39 -0.019794835 0.063925855 -0.065185934 0.19748297 0.18199262 -0.00842731 0.030141868 0.13438323 0.026279628 0.013708723 -0.12293689 -0.2632653 -0.033229053 -0.010367236 0.10208814 -0.0059317583 -0.03348112 -0.16329148 -0.07246926 -0.07868065 -0.0060142507 0.34270945 0.080931954 0.10628946 0.12735203 -0.14319597 -0.012547335 0.19133481 0.07574949 0.07242043 -0.08875402 0.16368492 0.1075546 0.34682888 0.057946585 0.12044402 -0.031648923 -0.10544796 0.10802277 0.073781945 0.17791526 0.013364134 -0.07091427 0.19172749 0.14381263 -0.057504583 0.026761897 -0.086982384 0.13531175 0.087473966 -0.02152191 0.07871638 -0.02309231 -0.098468825 0.016495995 -0.12855615 0.06646397 0.027944576 -0.15156196 -0.015817417 0.06424386 -0.056046065 0.21252707 0.06758396 0.20124981 0.07153462 -0.033162195 -0.105976485 -0.21882795 0.14768383 -0.08437832 0.026658714 -0.090873055 0.21081135 -0.13893522 0.05124501 0.006503487 -0.055949308 -0.13662478 -0.13754295 0.037964582 -0.0036244122 -0.005208412 0.02181205 0.004856804 0.026434906 0.030066626 0.1099366 0.034871034 0.076328315 0.054654684 0.009322055 -0.10450106 -0.36488417 0.032741707 0.06659442 -0.006635379 0.037914284 0.1934132 -0.11101774 -0.029269952 -0.10987889 -0.020892479 -0.08331847 0.031173695 -0.107935965 -0.021626454 -0.041999295 0.042625688 -0.060817063 -0.026522249 0.16221806 0.15651035 -0.009702991 0.09219253 0.023084546 -0.11722361 0.026559042 -0.14980286 0.043089464 -0.0383465 0.00049214537 0.11969915 -0.23471455 0.08949497 0.020562276 0.12583242 -0.13921562
42 0.020217277 0.043696504 -0.06952415 0.21010697 0.1636806 -0.0062362533 -0.001632865 0.123551406 0.03782733 -0.03752022 -0.096292146 -0.23104444 -0.020264138 -0.0329617 0.10186427 -0.018838048 -0.02815196 -0.13819546 -0.058699638 -0.06511312 -0.03618007 0.3216613 0.066642605 0.13554807 0.10199381 -0.12536404 -0.02065159 0.15704525 0.080163665 0.09211488 -0.08531593 0.16013174 0.09210468 0.3142189 0.029392203 0.1568821 0.01076322 -0.101258144 0.13239738 0.068769075 0.15019973 -0.004619323 -0.100933924 0.16752559 0.14369202 -0.04085396 0.032103408 -0.021381628 0.09543056 0.044621572 -0.049277533 0.052248236 -0.088978894 -0.069858916 0.03346014 -0.09765346 0.055862408 0.090671234 -0.1488282 -0.07011199 0.04578905 -0.03846296 0.1978229 0.06419529 0.18428996 0.06815689 -0.055268258 -0.08757068 -0.20953096 0.123915575 -0.088756435 0.020943463 -0.100526534 0.16449857 -0.09706742 0.034254726 -0.016386025 -0.05342887 -0.11429734 -0.09015638 0.009316989 0.009985095 0.026234893 0.0025794744 -0.0069535477 0.0067215306 0.01818231 0.09746645 0.033669837 0.016458996 0.06072005 0.031063035 -0.10054036 -0.31994635 0.026123647 0.08617662 -0.0014856766 0.037505545 0.1651115 -0.12796476 -0.026398078 -0.08065987 -0.042053636 -0.06684134 -0.021902613 -0.1007163 -0.0040739225 -0.06480996 0.072804846 -0.05940345 -0.0013252653 0.17948942 0.11209346 0.023330627 0.07090477 0.09181475 -0.09493779 0.057572484 -0.13699597 0.023447705 -0.0155924 -0.019962668 0.13974635 -0.21074885 0.036609292 -0.0019453138 0.13419397 -0.15831827
2 -0.047919016 0.012955154 0.06947393 0.24036908 0.29377767 -0.17376934 -0.34426704 0.22180793 -0.017142255 -0.09238371 -0.13258372 -0.2715281 -0.09598698 0.16124867 0.009352557 -0.13724041 -0.09092052 -0.050069574 -0.22207604 0.09362936 -0.048167005 0.19607998 0.35214823 -0.05610362 0.073337615 -0.13649452 0.1870335 0.08575401 0.18891685 -0.08153378 0.040526815 -0.14894168 0.048853166 0.19888626 -0.03249829 0.094222136 0.14503321 -0.060055032 0.1687866 0.0004877562 0.36936143 0.12938055 -0.13463958 -0.015913054 0.16505499 0.1336578 0.39201167 -0.041991882 0.13670258 0.122298166 0.020465422 -0.013523072 0.11947846 0.12018265 0.04434751 -0.28976092 -0.17900795 0.10869718 -0.20759998 0.0074981814 -0.12303574 -0.33575764 0.30093828 -0.017875154 0.16820292 0.1643023 0.08790604 -0.22700691 0.0037311316 -0.047726024 -0.21667764 -0.0684499 -0.07390216 0.31349224 -0.114239596 -0.014872447 0.049287055 -0.006767989 -0.20930618 0.09016641 0.15058073 0.10557978 0.1944418 0.15305059 0.16380641 0.029306106 0.12972136 0.015120687 0.01184552 -0.09917622 0.10864041 0.047320873 -0.22506006 -0.268579 0.1025593 -0.11456714 -0.02833499 0.12822492 0.0048108464 -0.17848037 0.17033157 -0.05881578 -0.20096895 -0.18341477 -0.006321973 -0.058009755 -0.038696304 -0.4489734 -0.004392219 0.13975766 0.12052581 -0.232043 0.19598864 0.19966477 0.1111461 0.17711829 0.04724351 -0.10877443 -0.20219162 0.19930509 -0.098901555 0.053778633 0.37941825 -0.15037957 0.06781497 0.13172172 0.1349209 0.26646644
52 -0.03441074 0.06768665 -0.07138351 0.21997353 0.20233108 0.001365361 0.08026679 0.12884547 0.023269717 0.054434203 -0.1494047 -0.28132015 -0.03377808 -0.023344945 0.11671795 0.0047956496 -0.039236046 -0.19599746 -0.067681246 -0.10108463 0.019112777 0.36709818 0.048734628 0.108778805 0.15751566 -0.1521475 -0.021047642 0.21273166 0.053858027 0.077752076 -0.09471687 0.18406574 0.13825403 0.3898528 0.06851961 0.102728926 -0.0683333 -0.096213914 0.10021308 0.08510109 0.19259155 0.0173085 -0.061838504 0.2158304 0.16353956 -0.07653957 -9.4527844e-05 -0.13187736 0.16144347 0.09098202 -0.008495702 0.105954714 -0.01541362 -0.12753181 0.006548848 -0.1324266 0.1011692 -0.010537705 -0.14174065 -0.0057399743 0.090213604 -0.04101143 0.21410483 0.07041906 0.2126385 0.058742918 -0.040206213 -0.10949123 -0.24995112 0.1704378 -0.063632645 0.047158066 -0.08950208 0.24665737 -0.17139049 0.06704704 0.025743598 -0.07743818 -0.13505928 -0.18049347 0.028834235 -0.009806631 -0.06079069 0.014898761 -0.008211173 0.03805279 0.029717172 0.13393186 0.0277093 0.12553018 0.05950761 -0.0065068584 -0.09512804 -0.40441892 0.031513188 0.06261028 -0.017681262 0.038755015 0.21813825 -0.100207195 -0.031119278 -0.12481409 -0.0025470906 -0.08453253 0.053518824 -0.099587455 -0.045174293 -0.008837113 0.03581111 -0.087666474 -0.05375583 0.20559804 0.1821998 -0.040262748 0.103780575 -0.019424751 -0.14103223 0.01812975 -0.16132015 0.043055885 -0.03430392 0.016748723 0.10097944 -0.2741309 0.117861144 0.014050332 0.13061227 -0.16245517
50 -0.01767776 0.04498335 -0.04029345 0.1939675 0.19024375 -0.01698363 -0.032176703 0.11695727 0.0010550248 0.012780372 -0.10717022 -0.2443921 -0.032696318 0.0032362724 0.07562406 -0.013838245 -0.034752026 -0.14111236 -0.073053055 -0.047632527 -0.007791289 0.27993256 0.109962985 0.06976442 0.1215802 -0.13642356 0.017512191 0.14980702 0.105218776 0.03740188 -0.054521717 0.10070894 0.096738935 0.30785578 0.030670423 0.1038854 -0.0007337484 -0.097369425 0.111066945 0.05619024 0.19694467 0.024963234 -0.07486924 0.16300772 0.13467118 -0.02334859 0.06437189 -0.09840969 0.12236539 0.070410304 -0.020360785 0.078464255 0.0024390407 -0.07053032 0.02398734 -0.13883236 0.042497747 0.022464206 -0.14199057 -0.0064804014 0.03361225 -0.082112096 0.19601995 0.05723874 0.1508967 0.0510352 -0.0064516785 -0.11014143 -0.17775998 0.09972667 -0.08621152 -0.00055971707 -0.06447947 0.24554461 -0.13241065 0.03631981 0.02282081 -0.072764985 -0.13556992 -0.09960055 0.044273205 0.010976745 0.0027254047 0.035693597 0.009420399 0.028126914 0.033483233 0.10354925 0.038417947 0.05111425 0.069478326 0.028471055 -0.102335356 -0.33943984 0.03544067 0.016689887 -0.025136007 0.04192275 0.14800453 -0.09330208 0.011095496 -0.10569087 -0.05732501 -0.08169101 0.027894799 -0.09186732 -0.014507328 -0.0721654 0.018293837 -0.03827169 -0.017895235 0.108629934 0.1483737 -0.008208187 0.09381111 0.01965514 -0.09173064 -0.009999494 -0.13669306 0.048796296 -0.029205995 0.012957788 0.15277092 -0.21881579 0.08130664 0.017636431 0.12133783 -0.0807725
3 -0.045635257 0.0055669183 0.054560196 0.21644264 0.2640465 -0.15946388 -0.32198367 0.20164907 0.007713235 -0.098948166 -0.11865073 -0.27232358 -0.09680139 0.15838258 0.011610974 -0.12579022 -0.07557513 -0.052623793 -0.22069626 0.10386532 -0.051051028 0.21825886 0.3239459 -0.037207086 0.06572167 -0.12961495 0.16723984 0.09761554 0.17664532 -0.06009025 0.021883197 -0.1193617 0.04284559 0.21352212 -0.023860315 0.116162084 0.14028428 -0.07234196 0.16906187 0.010179737 0.35676372 0.11873101 -0.115046166 -0.0024579647 0.16209908 0.1147793 0.3603933 -0.040133428 0.141229 0.11975692 0.018252857 -0.0158998 0.09537174 0.10258198 0.04725717 -0.26267004 -0.1582203 0.116946965 -0.19869328 0.0024519542 -0.09711797 -0.31949133 0.3007588 -0.0034349258 0.17782481 0.16709355 0.0851239 -0.19370864 -0.017103408 -0.02699294 -0.2110658 -0.057733934 -0.0782945 0.28370368 -0.107280985 0.0021935143 0.033740595 0.0036828893 -0.20365606 0.09384651 0.14299649 0.08748333 0.19683726 0.14671195 0.15911728 0.022422189 0.12741987 0.01474182 0.010893362 -0.09537453 0.092088595 0.05298149 -0.21451399 -0.24856351 0.09687085 -0.08530509 -0.010447068 0.1310962 0.014075876 -0.15793547 0.13728006 -0.05185156 -0.18252276 -0.16827264 -0.0117029855 -0.06377127 -0.025607718 -0.40896136 0.006417316 0.12729691 0.12259364 -0.20633267 0.18958117 0.19113564 0.11452548 0.1805601 0.03462143 -0.07073722 -0.19850895 0.18027791 -0.09312495 0.05266195 0.3638556 -0.15372491 0.04560377 0.12137127 0.14221054 0.21951191
43 0.028858377 0.06988258 -0.049121212 0.19235145 0.17522824 0.014131998 -0.03722625 0.13484228 -0.0010644741 -0.08378661 -0.041163877 -0.20472004 0.018941734 -0.04560011 0.110368006 0.007719499 -0.053098835 -0.12779577 0.0037445712 -0.10657119 -0.077211924 0.31025162 0.11575762 0.15909167 0.115303114 -0.20476194 -0.04065096 0.1363106 0.14140564 0.0461496 -0.09115929 0.18561521 0.044447318 0.37005895 0.035264075 0.16418637 0.042060565 -0.1565424 0.15737744 0.06304511 0.113266654 -0.0013771113 -0.115083314 0.2664432 0.08820922 -0.0049531087 -0.005515947 -0.041282292 0.04648449 0.07392728 -0.07662463 0.07427934 -0.07414062 -0.061584312 0.04405765 -0.08915961 0.050057605 0.12336412 -0.18276349 -0.09632291 0.021808498 -0.02323505 0.15608172 0.11056153 0.13451985 0.019241918 -0.021691313 -0.082379885 -0.20804848 0.09039048 -0.067396775 -0.08178324 -0.085135154 0.19017912 -0.10347617 -0.008902606 -0.029630011 -0.07529013 -0.17026223 -0.1135657 0.043773044 0.035608046 0.052072488 -0.0043345275 -0.03991083 -0.00927682 0.04258538 0.07353597 0.08739069 -0.040015064 0.09032628 0.067449465 -0.109466195 -0.40050715 0.021337697 0.06250836 0.0032823181 0.0062554893 0.1326903 -0.07601357 -0.007745177 -0.105493814 -0.07452047 -0.051645316 -0.01689097 -0.10779568 0.04533842 -0.018624324 0.039590705 -0.103116944 0.014173302 0.14296956 0.057519194 -0.009340759 0.08276237 0.065380126 -0.09438792 0.022243831 -0.0937257 -0.008964481 -0.009464011 -0.028087609 0.1992355 -0.20875679 0.011275381 -0.08126572 0.110719524 -0.18681748
72 0.0022720827 0.06823853 -0.058124438 0.19215798 0.18027063 0.0001315267 -0.0051858304 0.13080804 0.01100761 -0.010588852 -0.091771476 -0.23843859 -0.02083074 -0.03107947 0.11064117 -0.00022579767 -0.044365525 -0.15585153 -0.04431203 -0.083159275 -0.03801669 0.32744697 0.10203534 0.12667468 0.13041212 -0.17556135 -0.017036779 0.17256802 0.11091362 0.04727721 -0.09201652 0.16716065 0.08873874 0.36131072 0.04959929 0.13750912 0.0027790961 -0.12310864 0.12709486 0.06241161 0.16264164 0.014094107 -0.09084895 0.22768234 0.12060418 -0.033344936 0.019348733 -0.08481137 0.10332297 0.08401794 -0.051882636 0.08739583 -0.03203539 -0.09034372 0.033425067 -0.11716264 0.058666296 0.062264044 -0.16789144 -0.043736193 0.041739114 -0.04695525 0.19417045 0.0848042 0.16560401 0.04017194 -0.01764301 -0.097516246 -0.20611782 0.12575714 -0.07489822 -0.030433346 -0.0866163 0.22997545 -0.12824664 0.027952876 0.005675156 -0.07085126 -0.14932571 -0.12453151 0.03787838 0.012502391 0.011443943 0.0115601 -0.018897565 0.0077325613 0.03578655 0.09675125 0.060171098 0.029944927 0.06625318 0.042134583 -0.10440482 -0.39037317 0.026506104 0.05124338 -0.017041072 0.027242104 0.15990968 -0.08588555 -0.0124789225 -0.11443314 -0.057629235 -0.06799855 0.022157768 -0.10776429 0.0017722524 -0.04422287 0.037257355 -0.08134642 -0.017220266 0.14360803 0.120694794 -0.021907872 0.096541956 0.036340307 -0.10928179 0.020135228 -0.12978707 0.028899428 -0.024626521 -0.008721155 0.17421469 -0.23396964 0.06503583 -0.023282856 0.126937 -0.15184462
56 -0.018657964 0.053853348 -0.058749963 0.2077103 0.18379447 -0.021633858 0.007694559 0.13396302 0.017178047 0.009246254 -0.122218676 -0.25085315 -0.036815803 -0.010275811 0.10217689 -0.0031049573 -0.0320076 -0.15667498 -0.08380339 -0.05694417 -0.007762288 0.32608813 0.07500895 0.097681575 0.127102 -0.13799457 0.003712431 0.18085669 0.0800698 0.075619064 -0.074645035 0.147791 0.10969944 0.33273354 0.039450865 0.12215526 -0.021688806 -0.10045547 0.11220383 0.06658632 0.1895703 0.008787632 -0.08494985 0.17159477 0.15107444 -0.043235213 0.033916768 -0.07425563 0.13112055 0.064745024 -0.032205574 0.08570056 -0.04476265 -0.09214737 0.02145352 -0.119308904 0.057769015 0.040716995 -0.15307854 -0.028198216 0.0533571 -0.054047957 0.21295233 0.047464438 0.17638275 0.070700936 -0.035841446 -0.107211955 -0.2061958 0.13036865 -0.085314795 0.033113133 -0.08593946 0.21408978 -0.1425784 0.049347557 3.990733e-05 -0.06571454 -0.12294036 -0.12131282 0.02390497 0.005965177 -0.009081115 0.019033134 -0.0059673167 0.027853671 0.030407406 0.11138446 0.029628491 0.059333954 0.064426795 0.021345697 -0.10494087 -0.33414847 0.032663118 0.06843159 -0.012977292 0.049074426 0.1707169 -0.10815225 -0.019154757 -0.10073863 -0.03578697 -0.07298515 0.022981366 -0.08833522 -0.025570882 -0.04544212 0.03937275 -0.04348844 -0.030816766 0.157227 0.14550072 0.0008243312 0.083819605 0.035385408 -0.107409395 0.028946735 -0.15237892 0.04308728 -0.03182267 0.0072389953 0.12639825 -0.22487567 0.075753115 0.011909653 0.13186818 -0.12652862
30 0.049130023 0.027483653 -0.028995238 0.14564256 0.115878105 -0.034205757 -0.173429 0.1458036 0.09268421 -0.1932213 -0.0003430919 -0.19902414 -0.002576913 0.02655569 0.055466756 -0.041560423 -0.027135758 -0.0633959 -0.09309671 0.028088491 -0.10430314 0.29699638 0.16149431 0.14037137 0.018116685 -0.157588 -0.008593423 0.09729993 0.1416466 0.07502261 -0.11132559 0.12581596 0.011819058 0.27598345 0.0042894464 0.26662254 0.123150684 -0.15723933 0.17719634 0.06306981 0.1439087 0.041071966 -0.12551874 0.15144613 0.10558852 0.020903535 0.10580026 0.065117404 0.05460989 0.067721024 -0.0729411 -0.0035427283 -0.12719801 0.0276647 0.0729695 -0.100188576 -0.040387012 0.2686138 -0.16324952 -0.12866256 0.002639433 -0.11668227 0.23532057 0.114544585 0.18362187 0.096857995 -0.0022398233 -0.03714855 -0.15717013 0.08337917 -0.13482761 -0.07207855 -0.09058077 0.07125698 -0.024363674 0.0025982503 -0.09908626 0.016745673 -0.17653936 0.059813164 0.035317723 0.04660105 0.21340637 0.052814756 0.04296324 -0.01322776 0.05475088 0.03830368 0.07561866 -0.16722485 0.04802409 0.096122205 -0.13543917 -0.22572005 0.0354682 0.10508906 0.07944989 0.0644358 0.056764383 -0.10517389 -0.037475172 -0.035357177 -0.11934979 -0.06851597 -0.10684849 -0.13313943 0.095379874 -0.1408675 0.08308292 -0.0045998837 0.10208664 0.008850824 0.045295626 0.116422616 0.085542336 0.20826939 -0.045571238 0.10220071 -0.102656886 0.004602129 -0.014503425 -0.0026329062 0.2680575 -0.1415631 -0.12711291 -0.025350284 0.10378101 -0.14086726
74 -0.007271833 0.033772502 -0.10827539 0.42669857 0.26622638 -0.0026369113 0.18807542 0.20432033 -0.010222482 0.12454638 -0.25548965 -0.28376555 -0.03548523 -0.15165192 0.14784864 0.011786975 -0.048177607 -0.2116172 -0.11721764 -0.1819282 0.059058636 0.32191208 -0.06410855 0.12505294 0.21716204 -0.036016006 -0.008862315 0.26389682 0.019618206 0.18950686 0.03268869 0.17401691 0.24209256 0.31231907 -0.003918514 0.030990984 -0.04925255 0.007940921 0.15572721 0.063501835 0.2248046 -0.09406236 -0.12647048 0.1197987 0.2597511 -0.086964294 0.01702457 -0.009701788 0.11376353 -0.09745418 0.015031564 0.10435124 -0.10466626 -0.15315197 -0.019374188 -0.11923892 0.14775346 -0.110892385 -0.15949816 -0.038674187 0.081581324 0.057126667 0.1626537 -0.13103133 0.18823735 0.08795949 -0.20427898 -0.26606593 -0.34058055 0.122963265 -0.105480544 0.18377404 -0.15456802 0.24751185 -0.23562217 0.029182244 0.06490315 -0.15491222 0.0034723815 -0.24665608 -0.046325512 0.002773239 -0.22429277 -0.018099142 -0.0741814 0.059887674 -0.029670013 0.17203736 -0.10552173 0.24121048 0.13289946 -0.03855274 -0.107710175 -0.40310192 0.056178138 0.091867894 -0.111606926 -0.024537284 0.29173255 -0.27552155 0.03810268 -0.121898405 0.054403182 -0.07480205 0.02387623 -0.049070116 -0.18100853 -0.037322 0.10477556 -0.05675795 -0.12689732 0.42948934 0.2193168 0.03672624 0.02060665 0.04582723 -0.13083433 0.023476554 -0.21538468 0.081795916 -0.017481647 -0.04231306 -0.037402574 -0.2221378 0.26102263 0.09156916 0.19005185 -0.13998798
67 -0.030889621 0.062358905 -0.07958038 0.28991094 0.2070992 -0.05124639 0.068478346 0.18601575 -0.020702569 0.039038375 -0.18624464 -0.21358685 -0.037149116 -0.078353055 0.14816047 0.006981284 -0.047241557 -0.15952882 -0.079094335 -0.10693723 0.000993039 0.30692863 0.046022784 0.11226649 0.12735428 -0.12119625 0.015220756 0.20268978 0.03541826 0.10269522 -0.022688108 0.15355293 0.1455347 0.32118744 0.0320056 0.07569085 -0.045032293 -0.040360935 0.12515718 0.029232278 0.19487801 -0.030141592 -0.13043573 0.106581494 0.17579405 -0.032641735 0.016738394 -0.03539626 0.123265535 0.0027800174 -0.048066102 0.101766296 -0.048620716 -0.09464697 0.0045256075 -0.120049015 0.08402286 -0.017447773 -0.20355096 -0.051459584 0.028000781 -0.02763795 0.18640633 -0.05145814 0.1808383 0.110740945 -0.11453129 -0.20243117 -0.19811898 0.13092831 -0.08104922 0.07979347 -0.12193565 0.20623416 -0.19012086 0.027477551 0.024976697 -0.09788231 -0.07749978 -0.18879299 0.007988489 0.0020004644 -0.069048524 -0.013537296 -0.036101904 0.009548667 0.039502658 0.09385619 -0.006895302 0.08727655 0.06900238 -0.00935014 -0.12237979 -0.37042838 0.026819669 0.0922758 -0.08628065 0.044534538 0.17107068 -0.20884526 0.05218357 -0.11061185 -0.00092298514 -0.08085509 0.036788095 -0.028339695 -0.09242807 -0.06059404 0.08860989 -0.025360556 -0.06791415 0.23057316 0.15609999 0.03758323 0.043878105 0.05951119 -0.10747333 0.008057423 -0.15669589 0.09388803 -0.034162592 -0.023245778 0.10049737 -0.2212959 0.16329695 0.0025287154 0.17920288 -0.082676895
47 -0.03761813 0.064112134 -0.08879789 0.38314146 0.26415187 -0.043121215 0.14757271 0.19768924 -0.03060896 0.091542564 -0.2501325 -0.25869092 -0.035535052 -0.099155 0.16484328 -0.0034441536 -0.059958506 -0.20261121 -0.09303764 -0.16992988 0.030727847 0.31401312 -0.022868887 0.11026949 0.2037912 -0.07287824 -0.00032426114 0.21660122 0.023876512 0.15338796 0.034754463 0.13777396 0.19593248 0.3082317 -0.0071204673 0.030363817 -0.057383094 0.0005023611 0.1440713 0.048948936 0.22570607 -0.0629211 -0.1376396 0.08316142 0.21792082 -0.08190476 0.009223142 -0.040946905 0.1383234 -0.03832996 0.0014881825 0.10502488 -0.0680852 -0.11749975 -0.015143186 -0.15302427 0.13855727 -0.069694676 -0.1762247 -0.032381233 0.07451833 0.014363459 0.16858512 -0.099980555 0.1705986 0.09667178 -0.14155169 -0.23786087 -0.2727469 0.11205847 -0.098465025 0.13822962 -0.15191004 0.269416 -0.22209106 0.03924864 0.050251022 -0.14442486 -0.049064048 -0.26425865 0.011539743 -0.020044714 -0.18785422 -0.009801759 -0.050208233 0.045009516 0.013469847 0.14122178 -0.062184308 0.19390081 0.1289515 -0.040808707 -0.11676615 -0.43531072 0.03555595 0.07959786 -0.13545096 0.005985077 0.24326573 -0.24726416 0.044717196 -0.103417434 0.02168114 -0.061549284 0.036377385 -0.007417315 -0.1605693 -0.04324068 0.08781622 -0.04516975 -0.09258541 0.33417714 0.17806157 0.034054354 0.0326781 0.04754884 -0.11367637 -0.002793565 -0.18641144 0.09674997 -0.027627068 -0.056230452 0.009719978 -0.242188 0.24380265 0.04456121 0.19002934 -0.10069739
73 0.0013470884 0.03280993 -0.079904094 0.3930127 0.25807562 -0.013156801 0.12923741 0.19937973 -0.020669198 0.07882711 -0.21839619 -0.24939114 -0.039034545 -0.12205362 0.12948304 -0.013559804 -0.06047568 -0.17865111 -0.12735525 -0.16361389 0.03376228 0.2897668 -0.024393925 0.1055093 0.18365969 -0.037556447 0.0021074908 0.22947298 0.03754628 0.15726162 0.035180006 0.14070573 0.20908415 0.28319788 -0.0075161885 0.03352946 -0.023592014 0.0064553013 0.15620025 0.062094975 0.22764648 -0.08068538 -0.13156767 0.09936339 0.24009815 -0.049024455 0.056981124 0.0021210015 0.09788332 -0.087114856 0.0038424889 0.0798637 -0.09108353 -0.11516293 -0.020882634 -0.12502882 0.09949678 -0.071660876 -0.16910732 -0.03580169 0.057442557 0.029473823 0.16045928 -0.12044837 0.18020153 0.10224631 -0.18514672 -0.2605091 -0.2954875 0.093678035 -0.11241998 0.14787813 -0.13649705 0.22662771 -0.21553156 0.0088170385 0.05112601 -0.12692448 -0.023173677 -0.20400707 -0.022093007 0.023548167 -0.17225076 -0.001966953 -0.054553885 0.049918156 -0.014418695 0.13122645 -0.10040569 0.18593015 0.13297611 -0.020871405 -0.110283844 -0.3540497 0.054366857 0.07484139 -0.09723022 -0.006408348 0.24705955 -0.27103028 0.049003214 -0.11258838 0.02180578 -0.080337025 0.014419287 -0.048056506 -0.16310821 -0.065998234 0.08995127 -0.035729975 -0.07983839 0.3497638 0.20108588 0.06885653 0.012384145 0.07780008 -0.09798248 0.009690326 -0.19892125 0.090455785 -0.021978017 -0.03523825 0.010567073 -0.18418278 0.21608941 0.09207111 0.17040177 -0.0956984
33 0.012155658 0.057267442 -0.01990579 0.18524165 0.18530501 -0.02079936 -0.10772179 0.1442475 0.006134172 -0.098050445 -0.044803675 -0.20822291 0.00019426111 0.0020943494 0.085802555 -0.022781087 -0.057088837 -0.104186244 -0.04374724 -0.05611603 -0.07693889 0.27829248 0.16400912 0.11889554 0.09977046 -0.18685663 0.00323243 0.118257485 0.15069596 0.016225599 -0.0730068 0.11365466 0.036560226 0.32819924 0.02409352 0.15843631 0.07402018 -0.1348277 0.1587169 0.04850276 0.15302986 0.02886942 -0.11704088 0.20629254 0.09613157 0.026756318 0.07518301 -0.03483038 0.06230005 0.08534477 -0.05854621 0.05148451 -0.0334813 -0.020647466 0.047361907 -0.12437412 -0.0071897516 0.13786043 -0.18435334 -0.08052499 -0.00724287 -0.09196733 0.18232995 0.100871444 0.14517239 0.05284695 0.010576389 -0.09404815 -0.16017123 0.055494487 -0.10268211 -0.08858491 -0.07974675 0.20386384 -0.09421313 -0.01529995 -0.018262284 -0.049113054 -0.18118168 -0.05284202 0.06384031 0.050072342 0.10256642 0.031533137 0.005426985 -0.007822523 0.06399027 0.056446508 0.075725645 -0.06861986 0.086404674 0.07021641 -0.13214336 -0.36229098 0.036403935 0.028241176 0.008275613 0.029563392 0.094825104 -0.08538145 0.015901955 -0.09324073 -0.100709334 -0.07202955 -0.021393953 -0.09527494 0.038816217 -0.10650938 0.030400192 -0.048253164 0.040828377 0.05175914 0.07392066 0.030631626 0.09359649 0.09326348 -0.05992177 0.003453191 -0.10756607 0.022449836 -0.02676939 -0.00074362336 0.24330458 -0.19096884 0.0028365715 -0.042739138 0.11129248 -0.09291909
44 0.0045564654 0.026831407 0.008770392 0.1733564 0.16766171 -0.019425401 -0.14576907 0.13490294 0.037222553 -0.09258959 -0.034895677 -0.21962382 0.0002905082 0.017059918 0.054244194 -0.04332042 -0.06662604 -0.09031265 -0.07174922 0.011251224 -0.062487192 0.23697712 0.20098382 0.07736324 0.08877131 -0.1807598 0.048101854 0.09956222 0.17889173 -0.018964797 -0.03478457 0.026949365 0.016283609 0.2689215 0.011725808 0.16234818 0.11291818 -0.11966131 0.14842956 0.023229783 0.16936238 0.08020001 -0.104440056 0.17430393 0.10181697 0.03497039 0.15592119 -0.05887785 0.054001134 0.120919146 -0.01698274 0.028424159 0.013187152 0.027019406 0.06316497 -0.14203833 -0.03506763 0.13197756 -0.15679523 -0.058211632 -0.021742743 -0.1559282 0.17621408 0.0913108 0.1389096 0.037604567 0.07957642 -0.08092566 -0.11870563 0.0155320205 -0.10943903 -0.106426574 -0.07908716 0.21356882 -0.050248463 -0.005654621 -0.0063229706 -0.05453278 -0.16534828 0.01849367 0.07377153 0.04760955 0.120366514 0.0504463 0.044968408 0.010489335 0.037754506 0.045865327 0.08672997 -0.0578906 0.09124906 0.08176571 -0.13357392 -0.33111605 0.07108066 -0.028985936 0.0077091223 0.011835538 0.07667941 -0.04228634 0.017927403 -0.054042634 -0.12044941 -0.08597989 -0.026108157 -0.11004437 0.034595314 -0.18180494 0.042535212 -0.023594487 0.07699792 -0.049969498 0.10224947 0.044227492 0.123833776 0.11422979 -0.0526089 -0.0055567473 -0.113038555 0.050827183 -0.02563092 -0.0073132594 0.26718155 -0.17220572 0.011336199 -0.0036817663 0.10123812 -0.03219652
12 0.058424376 0.02756789 -0.024418307 0.15036961 0.13256158 -0.054300506 -0.21468526 0.16499056 0.07232158 -0.2375395 0.018871544 -0.18371731 0.003530585 0.037331488 0.058019422 -0.05676067 -0.033065904 -0.0339125 -0.08985759 0.026687607 -0.1361129 0.29274127 0.17616962 0.13871023 0.0135928355 -0.16090728 0.0027986837 0.08011924 0.15178065 0.088167 -0.107966505 0.13248979 -0.00057333615 0.27945188 -0.007907878 0.2788058 0.14585401 -0.1655551 0.20264846 0.06885609 0.14295897 0.03066145 -0.14884157 0.148128 0.09545428 0.049889747 0.114586785 0.111443646 0.02811223 0.05446592 -0.086620554 -0.016486682 -0.15967841 0.050218664 0.07283696 -0.0958437 -0.07680372 0.30828774 -0.17800227 -0.16346323 -0.028217474 -0.1207611 0.22968061 0.10882229 0.16960768 0.107790746 -0.015924804 -0.046810362 -0.14505893 0.06451561 -0.1457804 -0.091327906 -0.0834212 0.046482835 -0.027488928 -0.015199518 -0.12159368 0.025611859 -0.19295101 0.087860174 0.05151698 0.06638566 0.26246223 0.05330028 0.038425926 -0.025576178 0.09012803 0.023226783 0.07303113 -0.22007492 0.05724843 0.10699675 -0.15225244 -0.20427845 0.031154223 0.12310203 0.09412448 0.07845402 0.024804404 -0.120661266 -0.025495147 -0.028816978 -0.12763856 -0.06787125 -0.12447022 -0.11659278 0.103147164 -0.15220205 0.07265723 0.00898218 0.11786213 -0.0027104602 0.01905009 0.15553898 0.06918435 0.23973882 -0.02086222 0.097758085 -0.10147619 0.003205542 -0.017995032 0.00028819824 0.287521 -0.12445778 -0.16568111 -0.04115378 0.11241053 -0.12594058
53 -0.017604847 0.06243195 -0.06536953 0.14861424 0.15164398 -0.0015639614 0.015615159 0.11570155 0.06049085 -0.010300535 -0.0854989 -0.2782518 -0.036619913 0.006020793 0.097902685 0.0074344915 -0.025097152 -0.16405652 -0.084005445 -0.058140572 -0.012490761 0.39349332 0.07341754 0.120807685 0.114438795 -0.16686659 -0.02950987 0.20397843 0.074785784 0.09973237 -0.1448022 0.21431337 0.09771104 0.40051594 0.07039141 0.17175545 -0.04455379 -0.15373625 0.110354595 0.1121521 0.16405 0.023656951 -0.05604087 0.24447447 0.13590506 -0.076429866 -0.0025018489 -0.09478978 0.15295707 0.11825365 -0.033381555 0.07631322 -0.059698347 -0.11894162 0.021980591 -0.1095321 0.06657693 0.08151862 -0.13760553 -0.020411806 0.09082692 -0.057245333 0.24961218 0.1295695 0.22217336 0.06468322 -0.022614367 -0.05190911 -0.24449804 0.19025478 -0.08597369 0.0073145437 -0.08284414 0.1892038 -0.13626343 0.06519177 -0.03746669 -0.03683653 -0.17611116 -0.11482867 0.029882718 -0.0007341791 0.041727785 0.024917044 0.008370496 0.03807943 0.037154317 0.12462144 0.05282405 0.0428386 0.030682985 0.023844931 -0.09126023 -0.35296065 0.029090902 0.10143837 0.04970518 0.059524298 0.20083869 -0.06457563 -0.07688121 -0.112105936 -0.023709375 -0.08770224 0.01846635 -0.1508621 0.028409725 0.00023791322 0.03151563 -0.07654895 -0.014288794 0.16185401 0.15555105 -0.015347537 0.11802625 0.020143658 -0.14179046 0.071432054 -0.1531963 0.012434762 -0.040071286 0.027229346 0.13825536 -0.2500967 0.017699484 0.006589616 0.10799853 -0.20619299
45 -0.01852504 0.031489927 0.028258324 0.19136742 0.20052575 -0.031346116 -0.17072639 0.14866897 0.010956896 -0.07964914 -0.04960249 -0.22541839 -0.0056473394 0.023368878 0.05411161 -0.056714192 -0.09437995 -0.09102732 -0.072701685 0.004640583 -0.055510737 0.221605 0.24724424 0.05560554 0.11147847 -0.19383158 0.07801475 0.09794982 0.208881 -0.057764117 -0.0009435254 -0.01987033 0.014131198 0.26694965 0.012495854 0.13358772 0.12159152 -0.116017744 0.15547095 0.002586158 0.19402173 0.09372599 -0.10972265 0.17112446 0.1002062 0.067285806 0.19245556 -0.08540667 0.059787296 0.13885708 -0.0044538705 0.037359707 0.07068585 0.04386365 0.0686973 -0.16943745 -0.05111372 0.1003242 -0.18442856 -0.040273987 -0.03593708 -0.18686089 0.16559142 0.080152534 0.124800056 0.03614636 0.10461084 -0.119398996 -0.09224013 -0.016659822 -0.1096819 -0.13588755 -0.07801021 0.27489635 -0.06796018 -0.025324011 0.016607117 -0.07006599 -0.17687586 0.0030321386 0.11064949 0.06275456 0.115322374 0.06723218 0.046510216 0.018366 0.048751857 0.03719302 0.08199051 -0.048799314 0.11500074 0.08816409 -0.14294635 -0.36754903 0.089043915 -0.0796469 -0.012275881 0.0072805067 0.0594804 -0.048685227 0.060153726 -0.07202731 -0.13634336 -0.10310096 -0.0134835085 -0.08888602 0.019982232 -0.22068897 0.018375844 -0.016473092 0.085589334 -0.09658025 0.1171086 0.04342909 0.13796452 0.10541334 -0.04227828 -0.052469183 -0.11983579 0.06840646 -0.040652335 -0.007106569 0.30037215 -0.1736967 0.050515153 0.0015413436 0.100363284 0.025803784
5 -0.068517976 0.025633462 0.093114525 0.27734825 0.3682677 -0.19683503 -0.41475216 0.26574036 -0.056762505 -0.11090825 -0.14250906 -0.29939592 -0.095586196 0.17877397 0.008990491 -0.15396212 -0.12093084 -0.048891023 -0.22850546 0.08363658 -0.062265847 0.20343933 0.43090135 -0.07531977 0.096087225 -0.17934415 0.21642709 0.07449279 0.24114023 -0.12969127 0.07504241 -0.19685787 0.038071766 0.22793715 -0.045561906 0.09569319 0.18372583 -0.07012424 0.20260194 -0.01748969 0.42831966 0.14518158 -0.16143371 -0.010018083 0.16695242 0.18332537 0.44762483 -0.060230326 0.14022383 0.14579408 0.017739337 -0.016881736 0.16695015 0.1557534 0.05424292 -0.3373514 -0.21027389 0.102767974 -0.26464435 0.0037675332 -0.1598898 -0.38111597 0.3150282 -0.030247802 0.16692002 0.1748938 0.11005738 -0.2899339 0.026850004 -0.095094934 -0.24002151 -0.11308972 -0.07980717 0.39338735 -0.14483762 -0.048645075 0.074292995 -0.019097917 -0.2576584 0.0877548 0.20196699 0.13738352 0.21483599 0.17651944 0.17711152 0.022352533 0.16897653 -0.0077759633 0.017521929 -0.13038683 0.14381123 0.06855508 -0.26579195 -0.3453033 0.11323988 -0.16304801 -0.060756885 0.13797028 -0.028118847 -0.20493549 0.24141756 -0.071171165 -0.23548047 -0.21141596 -0.005246316 -0.035239853 -0.03831394 -0.5129756 -0.024680058 0.15289116 0.14221844 -0.2893643 0.20638536 0.22154625 0.1251265 0.19286306 0.067873925 -0.16870895 -0.20968993 0.23385972 -0.10810764 0.055363756 0.46869567 -0.16303179 0.094515145 0.12749809 0.16235809 0.34686145
4 -0.05870543 0.0047248425 0.091748305 0.29108822 0.36459988 -0.22894746 -0.4468141 0.27372685 -0.025491152 -0.124875285 -0.16179778 -0.31426308 -0.12347336 0.2056062 -0.0035677422 -0.18069267 -0.11242046 -0.035838727 -0.27658966 0.12430745 -0.058960866 0.2031064 0.44001094 -0.08845994 0.07568375 -0.14826933 0.23972595 0.078723975 0.23006295 -0.110048644 0.079239294 -0.22189613 0.043634444 0.19593246 -0.064087555 0.10964387 0.20176983 -0.05165514 0.20591593 -0.017667731 0.45788318 0.15752317 -0.17002521 -0.07316637 0.19226485 0.18116732 0.50014484 -0.030004464 0.15356946 0.1356146 0.03239263 -0.03708059 0.14975718 0.17852244 0.048833825 -0.35214174 -0.24023005 0.13151501 -0.2483838 0.005122115 -0.16965951 -0.41945156 0.35182887 -0.049457524 0.19772765 0.21146168 0.10664467 -0.2887526 0.036273148 -0.094501466 -0.2721838 -0.0842552 -0.088630855 0.3645425 -0.13061011 -0.031657614 0.05989471 0.00769021 -0.2471535 0.13871998 0.19555539 0.13049154 0.24741891 0.1908582 0.21350399 0.022826873 0.16773956 -0.006363659 -0.0033103644 -0.14436588 0.1335412 0.062055204 -0.2800369 -0.28914857 0.11891348 -0.14433597 -0.04777883 0.16038875 -0.028255193 -0.2269645 0.22894576 -0.047235977 -0.24450403 -0.21829441 -0.0244288 -0.047127746 -0.05259682 -0.5764433 -0.008309331 0.19329444 0.16239041 -0.30857125 0.23172967 0.27284783 0.12825859 0.24072295 0.08057927 -0.142108 -0.23821308 0.25763938 -0.11669564 0.06766868 0.46560314 -0.14346717 0.07372781 0.17018476 0.16623525 0.37333047
9 -0.07122498 0.007469017 0.08668668 0.27814513 0.3557836 -0.21318355 -0.4169239 0.26541713 -0.029150438 -0.09708764 -0.15951887 -0.31050357 -0.122348696 0.19488125 0.0050693178 -0.17386322 -0.104233555 -0.047989015 -0.26723364 0.12388612 -0.051950686 0.21421291 0.4207861 -0.087357104 0.08902792 -0.14966005 0.23109363 0.08585977 0.2221266 -0.10325421 0.08122879 -0.21116921 0.050374277 0.2036674 -0.0541685 0.101521835 0.18220125 -0.05083609 0.20050809 -0.0142224785 0.45433146 0.15317017 -0.1541785 -0.058581546 0.19283421 0.16444409 0.47713965 -0.0491284 0.15861419 0.13689415 0.038463533 -0.027802749 0.15640464 0.16266158 0.052619487 -0.34421644 -0.2203764 0.1093906 -0.23800789 0.011279506 -0.14899309 -0.39991808 0.33963993 -0.049479563 0.19313465 0.2067839 0.106160715 -0.2799359 0.02817065 -0.082689926 -0.26298976 -0.07057477 -0.09030339 0.3740814 -0.13531756 -0.019492337 0.06498311 -0.0039678654 -0.23986392 0.11853041 0.19205105 0.12128388 0.22679226 0.18184175 0.20290487 0.03355441 0.16147538 -0.0038986148 -0.00413203 -0.1166781 0.12838022 0.05573458 -0.26150253 -0.29381666 0.11981801 -0.14895552 -0.050435867 0.15341194 -0.019222325 -0.21404286 0.21748699 -0.05227926 -0.22585815 -0.21751224 -0.009871657 -0.045506924 -0.052156214 -0.542728 -0.0058264714 0.17973389 0.14897507 -0.29494613 0.2314909 0.24785845 0.1293878 0.21009478 0.07357332 -0.1435726 -0.23318143 0.24833597 -0.118325815 0.06317801 0.43757275 -0.14839269 0.08788844 0.16109149 0.16763312 0.35733476
