77 128
11 0.030873377 -0.019388273 0.038534865 0.09769301 0.05677902 0.14562976 0.015039401 -0.15792672 -0.084402345 0.021870608 0.11160315 -0.06520371 -0.09195166 0.040928926 -0.02144058 0.092624396 0.120302215 0.2786386 -0.13951276 0.1378599 -0.19756806 -0.3045646 0.13119368 -0.034708824 -0.090309374 0.05627521 0.14543045 -0.12216475 -0.06636581 -0.13090031 -0.18412356 0.14382675 -0.08979857 0.23366341 -0.0027200803 0.09693755 -0.24976487 -0.097429305 -0.12830399 -0.08169062 0.010366579 -0.024066245 0.0059892125 0.033673197 -0.1180797 0.027386032 0.1569356 -0.06674317 -0.05484607 0.09753221 0.029346477 0.02453171 0.07449139 -0.03223215 0.001038286 0.16672584 0.050399438 0.12428709 0.06956663 0.31211567 -0.2502009 -0.2599504 0.020678364 -0.1255226 -0.009283382 0.1537715 -0.08349277 0.16325518 -0.1635197 -0.19455838 0.049474895 0.012915855 -0.026325695 -0.047409136 0.17028338 -0.0115643665 0.022149883 0.066359036 -0.042804893 -0.09243641 -0.01643474 0.05545302 -0.07253397 0.23981962 0.08911519 0.100169905 0.19688082 0.08879486 0.18700872 -0.09487169 -0.08204773 0.052886482 0.2789841 -0.17102043 0.18910363 -0.05096521 -0.050747596 -0.13358815 -0.07018125 0.08424132 -0.0017071061 -0.11196732 -0.03467658 -0.053526897 0.093297824 0.048063304 0.016298912 0.09161227 0.08863127 -0.088540725 0.016810713 -0.049239777 -0.12657718 0.02701398 0.097739086 -0.008677357 0.07904517 -0.16335794 0.0026312917 0.09421719 0.039925236 0.058431633 0.15720874 0.07696387 -0.1061899 -0.17989199 0.08593304 0.033110093
48 0.1003414 0.13165717 -0.13309583 -0.02092202 -0.07888812 0.21548729 0.011619839 -0.19862539 -0.20233162 -0.0953866 -0.114823006 0.11279432 -0.025491606 0.0701595 -0.26130006 0.1829992 0.0036401656 0.33181006 -0.05150387 -0.03576335 -0.03450119 -0.04686019 0.112853676 -0.17654644 0.04361029 0.08535501 0.21600449 -0.12422239 -0.12659818 -0.08615739 -0.07424373 0.2130978 -0.11588652 0.19788073 -0.030342808 0.10986067 -0.23964827 -0.009864815 0.05186202 0.2613297 -0.024515705 -0.03031981 0.04537255 -0.034216832 0.017740682 -0.1277712 0.18715066 -0.21594638 5.613033e-05 0.17531621 -0.02485409 0.048750147 0.07509991 -0.040890068 0.075853415 0.0040472443 0.0905635 -0.022965372 0.098418936 0.10144833 -0.3562908 -0.33028644 0.072280645 -0.21172546 0.049827963 0.18573888 -0.000793809 0.18728264 -0.04786718 -0.16812243 0.05083889 0.15642421 -0.009939453 0.084660396 0.1788486 -0.2510847 -0.13914466 0.13341703 -0.3144931 -0.07372113 -0.052357852 0.14680582 -0.11429386 -0.01605894 -0.08390626 -0.22094996 0.13276625 0.20674357 0.021112181 -0.03702267 -0.10068868 0.045363653 0.14907095 -0.11982651 0.08830333 -0.20936687 -0.28553596 -0.07682813 -0.0073928535 0.0026317546 -0.15977448 -0.21401894 -0.028304184 0.02549177 0.02006919 0.11556733 0.14866856 0.07321887 -0.030536097 -0.108768895 0.22191513 -0.044845004 -0.21563545 0.024383744 0.17573455 0.038751323 0.22773103 -0.035452683 0.030081455 0.04829093 -0.17101006 0.113881595 -0.04133705 0.16898917 -0.065806724 -0.0773466 0.13061331 -0.15350005
55 -0.031980764 -0.026284372 -0.0992629 -0.050817106 -0.05775767 0.15301614 -0.06297045 -0.101338595 -0.204999 -0.10446661 0.008330436 0.098657034 0.014189093 0.12926322 -0.31447983 0.09285612 -0.10502374 0.2977893 0.049634203 -0.0509229 0.06871677 -0.09146081 0.14352627 -0.045355428 3.882585e-05 0.0035577412 0.18867597 -0.124257565 -0.09991277 0.11073529 -0.015831048 0.08788096 -0.09021557 0.080491394 0.04593791 0.08699892 -0.31966707 -0.05008989 0.02886214 0.1554044 -0.015984196 -0.031016203 -0.09458867 -0.067355394 0.0049377787 0.11031844 0.14598167 -0.21140395 -0.0050759567 0.088397294 -0.029575968 0.08248985 0.031057304 -0.12466736 0.030410089 0.13449173 -0.08847634 0.13704191 0.095185444 0.19097644 -0.3563254 -0.17953922 0.032827783 -0.078453556 0.030413503 0.1602683 -0.0062796366 0.117007665 -0.012157363 -0.11940827 0.089115635 0.11873897 -0.13070628 0.03748058 0.11727851 -0.31652018 -0.34014323 0.03770835 -0.20185897 -0.13617902 -0.16004947 0.054812018 0.07868904 0.042856935 -0.19669783 -0.24382527 0.04678691 0.09057059 0.10465313 0.0038824705 -0.028890084 -0.0043714577 0.14088964 -0.04350311 -0.015001923 -0.107331716 -0.22050396 -0.18975556 -0.07790009 0.05549023 -0.027278783 -0.18229301 -0.004506574 -0.01063481 -0.0697367 0.048129916 0.13355991 0.04846468 -0.017217703 -0.23581977 0.17656629 -0.022234835 -0.2216708 0.11581901 0.049942296 -0.04185939 0.20972654 -0.001276577 0.11786557 0.049931582 -0.25526768 0.22609347 -0.043382425 0.23780136 -0.09085726 -0.10331887 0.018738482 -0.05457776
27 0.0012756459 0.08124694 0.035250098 0.105166025 -0.021517193 0.09248533 -0.016465584 -0.10425308 -0.09407383 -0.060782745 -0.022554189 0.035290807 -0.05243095 0.08090888 -0.110450685 0.13605513 0.0621899 0.2430496 -0.119912416 0.10372509 -0.14583671 -0.22220652 0.08940791 -0.05753815 -0.039941993 0.03020797 0.12229797 -0.12858815 -0.04671703 -0.09842363 -0.07082122 0.14625168 -0.05813158 0.25659811 -0.031650215 0.11345644 -0.19494766 -0.040157042 -0.023880044 0.02746213 0.0077282935 -0.02940635 -0.025258616 -0.015221227 -0.043572504 -0.051150337 0.12539946 -0.10770997 0.010872399 0.159495 -0.026272025 0.039608356 0.11491158 -0.015557015 0.10794389 0.11898472 0.03259215 0.017572332 0.11834814 0.24066658 -0.29530537 -0.19812559 0.057729103 -0.13058436 0.040441964 0.08843408 -0.11371527 0.1536715 -0.07008094 -0.17881963 0.0115877995 0.06670011 -0.029927837 -0.050609183 0.22505355 -0.0991779 -0.07169368 0.020429177 -0.02886603 -0.026301445 -0.023474334 0.10699257 -0.09196124 0.16249932 -0.015386498 -0.008562342 0.029253524 0.06939568 0.14694464 -0.044496026 -0.12087041 0.11736764 0.18784212 -0.1892913 0.08614114 -0.07702344 -0.14282396 -0.12637685 -0.047624245 0.093532965 -0.013559171 -0.10486884 0.043296687 -0.027501376 0.0071317665 0.013250843 -0.024684247 0.10402015 0.035118207 -0.10502135 0.025347468 -0.015529828 -0.18059304 0.025077766 0.08060355 0.057832085 0.14924638 -0.01977211 0.09714134 0.08130746 -0.018248916 0.12740166 0.11492747 0.06537625 -0.10561358 -0.13254541 0.10717651 -0.052409347
25 0.0044427393 0.041561466 -0.06831522 0.019493235 -0.07112618 0.11475523 -0.020996414 -0.14695105 -0.18549655 0.013016636 -0.013500747 0.03926736 -0.0042932853 0.14805502 -0.21885835 0.21848978 0.0031970595 0.27687678 -0.1142523 0.004590961 -0.08393966 -0.18755908 0.11709223 -0.12495226 -0.0038856028 0.102127634 0.19495441 -0.14357628 -0.12974836 -0.051181708 -0.08585652 0.13972217 -0.096080504 0.16865422 -0.0057744067 0.07434448 -0.24833381 -0.03532025 -0.0089457175 0.11209032 0.016137483 0.031564217 0.006973976 -0.021705618 -0.087390065 -0.01039714 0.1380766 -0.13562086 0.021419326 0.12959899 -0.022502733 0.030024396 0.081633724 -0.06764563 0.10850281 0.06863556 0.051503852 0.061314713 0.08017234 0.19467036 -0.31432173 -0.23307027 0.08980089 -0.10565411 -0.0035752063 0.07826488 -0.052295588 0.12715635 -0.057789173 -0.20726232 0.069310315 0.07531065 -0.020500686 0.03258697 0.19490273 -0.16625439 -0.16888726 0.07650592 -0.15552321 -0.095443115 -0.10240698 0.087203234 -0.079480246 0.10352359 0.0057912148 -0.09488961 0.09380235 0.05840432 0.034472857 -0.05654285 -0.102080554 0.09058942 0.19360487 -0.12729013 0.085122555 -0.16135783 -0.1821933 -0.13515733 -0.06364098 0.08043939 -0.02840781 -0.17619151 0.01748383 -0.049317837 0.03775346 0.044283397 0.046979778 0.15247072 0.040553577 -0.13097568 0.11425553 -0.05195872 -0.1859873 0.039516233 0.07109257 -0.008942843 0.15510009 0.0012967064 0.07555276 0.08191884 -0.06051109 0.11112857 0.06090018 0.16351435 -0.13405938 -0.117449634 0.10659228 -0.06677139
58 0.021312047 0.095394276 -0.17365572 -0.05472012 -0.04943039 0.2513668 0.01456342 -0.17081822 -0.23863144 -0.108215414 -0.089318365 0.16522661 -0.05729072 0.0727878 -0.33339328 0.1692229 -0.078507476 0.27496746 -0.028523946 -0.08277147 0.054469936 -0.046515897 0.118576705 -0.121438935 0.042962454 0.030146906 0.1896017 -0.14096257 -0.11795239 0.03103904 -0.044724435 0.177621 -0.08503826 0.10705822 -0.0051096505 0.1216006 -0.297779 -0.011970318 0.039687935 0.2680323 -0.032093365 -0.014495948 -0.05209961 -0.054804187 0.051119853 -0.03293109 0.15958215 -0.23064773 -0.012605867 0.15838076 -0.047901258 0.037116993 0.09865153 -0.12547909 0.05480769 0.03532113 0.02434078 0.07063108 0.016249511 0.09878305 -0.35084805 -0.258402 0.056354467 -0.15243547 0.083055854 0.20521034 -0.010672087 0.22370441 -0.053010967 -0.12354437 0.07117832 0.121720985 -0.07124924 0.05262372 0.11048894 -0.2859392 -0.24980076 0.14023744 -0.30824795 -0.08358041 -0.11742715 0.11790164 0.0070645916 -0.038512062 -0.18382545 -0.28735036 0.089802265 0.18926893 0.009066252 -0.009371647 -0.04326533 0.014677223 0.12080805 -0.07433138 0.026474584 -0.1762089 -0.28868425 -0.085101165 -0.063890986 0.010853972 -0.13494185 -0.19648811 -0.076318756 0.024857147 0.0020826114 0.09039901 0.15854429 0.0406804 -0.068281785 -0.18306063 0.20785293 -0.031964693 -0.1763246 0.08703954 0.14831553 -0.020205706 0.2837928 -0.03069596 0.050363306 0.0045987195 -0.25814202 0.19212559 -0.052805714 0.27280504 -0.05171814 -0.09290949 0.075629495 -0.12281894
23 0.009598314 0.09724578 0.18782784 0.17480063 -0.0030957854 -0.029775126 -0.059140153 -0.04733271 -0.024455745 -0.20058827 -0.042153914 0.0289332 -0.018438889 0.068119965 -0.0655214 -0.031981923 0.07143057 0.2869526 0.0017164462 0.18386544 -0.19301917 -0.23430379 0.06502239 0.059844866 -0.03915001 -0.059935674 0.10306595 -0.11265554 0.028048962 -0.010530404 -0.011160099 0.07727201 -0.013099467 0.34900624 -0.007212521 0.15956661 -0.12970872 -0.08969614 0.029713321 -0.02566485 -0.028827047 -0.14595446 -0.09356495 -0.022672554 0.005894168 -0.0429441 0.12975724 -0.09701471 -0.012351947 0.1728541 -0.015825901 0.09056531 0.068915315 -0.014462334 0.09329477 0.25422123 -0.10088194 -0.038147707 0.27641946 0.31208292 -0.3465345 -0.16230138 0.011276768 -0.15433753 0.07323243 0.12282862 -0.10095736 0.110829726 -0.0006726478 -0.10886704 -0.019068575 0.0821199 -0.056642193 -0.110205844 0.32225943 -0.17272767 -0.0837082 -0.10235993 0.15460865 -0.019496577 0.038566895 0.14195955 -0.043081906 0.23700379 -0.13124272 0.0070513133 -0.078276396 0.082295075 0.35600784 0.010833904 -0.15596838 0.12041475 0.14557321 -0.21538033 0.013682221 0.00039637147 -0.10861686 -0.24452431 0.009541017 0.10030657 0.02431772 -0.060204066 0.14500523 -0.0073639266 -0.16958126 -0.024714788 -0.05604745 0.007046842 0.010070313 -0.10068234 -0.007124525 0.04437307 -0.2559264 0.050029777 0.022379631 0.102646045 0.13824892 0.037852556 0.20058897 0.12619805 -0.079744846 0.19407314 0.1324335 -0.024924621 -0.08530266 -0.140238 0.052822363 -0.048906624
62 0.044174053 0.103829056 -0.15690745 -0.049105443 -0.053631302 0.25683776 0.007109424 -0.17049322 -0.22613332 -0.17126887 -0.1115497 0.18703623 -0.055655796 0.04945717 -0.34089133 0.12114137 -0.0901095 0.29320985 0.02273443 -0.07748424 0.0505397 -0.011404358 0.11111542 -0.09857013 0.04240128 0.004298564 0.18752892 -0.119596116 -0.1030725 0.05114575 -0.022899976 0.18028189 -0.083478406 0.109198675 0.0014551712 0.14022137 -0.29914874 -0.021980245 0.06941048 0.29562408 -0.048836265 -0.052043047 -0.05226314 -0.063025445 0.087953225 -0.048281327 0.17582221 -0.24374036 -0.014763114 0.17496307 -0.04279041 0.038664628 0.078498974 -0.12993363 0.045266394 0.055763163 0.004720874 0.04520007 0.051758625 0.0661092 -0.34706706 -0.25917456 0.04724621 -0.16849075 0.11947448 0.24829854 0.01683266 0.22560331 -0.040892612 -0.086813025 0.060650386 0.14452703 -0.07574831 0.04649385 0.10500382 -0.31358865 -0.26318598 0.13348144 -0.31205735 -0.081008255 -0.10377075 0.13855226 0.016528962 -0.059662078 -0.22713827 -0.32568645 0.085943535 0.22347137 0.049705923 0.01609677 -0.0372869 0.00236576 0.0783384 -0.06741043 0.0021763472 -0.16891626 -0.30612972 -0.10291018 -0.048216633 -0.006845177 -0.16488746 -0.19149427 -0.058648862 0.04054874 -0.040376782 0.109288394 0.18502805 0.004920023 -0.08989475 -0.17735277 0.22570808 -0.025631083 -0.18709981 0.10764735 0.15301697 -0.005671321 0.3155311 -0.035380974 0.05070523 0.003956746 -0.29982135 0.21422333 -0.07477768 0.27683282 -0.024935663 -0.07850983 0.06999041 -0.13666156
0 0.14806075 0.0671286 0.17220634 0.27022627 0.22769044 0.06048226 0.25062153 -0.28997532 -0.17996968 -0.08127168 0.07456172 -0.16307522 -0.29274732 -0.04458681 -0.02301089 -0.16184722 0.17081812 0.3245961 -0.11089734 0.20253016 -0.38169354 -0.44497728 0.06289114 0.17599761 -0.018089537 0.0055575836 0.21802749 -0.21817979 -0.07647889 0.06447114 -0.33733597 0.032498416 0.06356032 0.3926305 0.029528676 0.2584356 -0.2371529 -0.33781964 -0.12009673 -0.09281268 -0.19174948 -0.09645461 -0.11573854 0.1508266 -0.04148997 -0.06703437 0.1283748 0.0024865088 -0.27439517 0.100249104 0.18417838 -0.06919468 0.015811415 -0.28128496 -0.18328188 0.39146745 -0.13272555 0.18993743 0.057940647 0.3507324 -0.17903067 -0.42768657 -0.08136847 -0.22207157 -0.02456218 0.4149287 0.11973065 0.31179297 -0.23969448 -0.012007403 0.14713582 -0.21253936 0.054335073 -0.19438699 0.21304792 -0.025727987 0.25244144 0.18768698 0.16720712 -0.17775938 0.07452826 0.15436652 0.116224356 0.5141889 0.026183669 0.16127773 0.37818542 0.3179314 0.49173346 -0.049360394 -0.16215684 0.017709607 0.24673356 -0.2721633 0.17946106 -0.017928217 0.09696428 -0.3524923 -0.024893519 -0.007253866 -0.04481196 -0.09277768 -0.18314004 -0.079427294 -0.1198276 0.078122154 -0.011020329 -0.18253459 0.04472586 0.025566477 0.009153996 -0.0594638 -0.07559719 0.1223163 0.064069465 -0.13859604 0.14587252 -0.27679098 0.008135718 0.13663344 -0.08595834 0.11786852 0.42465225 0.21656941 -0.032879554 -0.37798652 -0.05576444 0.15025112
64 0.038169 0.10156056 -0.12803082 -0.05670256 -0.03958488 0.28609577 -0.040515937 -0.119769216 -0.15799452 -0.20089462 -0.09499607 0.20014244 -0.036941636 0.012444574 -0.27266276 0.103004426 -0.054090776 0.28564674 0.040545125 -0.02547232 0.077440426 0.0061392235 0.12576702 -0.09947917 0.007254622 -0.02771917 0.13995284 -0.07723102 -0.04386149 -0.019045629 0.0002713261 0.22134562 -0.1032904 0.13205346 -0.014004462 0.13251035 -0.27613556 0.007815356 0.049409606 0.24217917 -0.0074567306 -0.09709142 -0.039171193 -0.08485543 0.10835836 -0.031638954 0.1987368 -0.250859 0.0012157555 0.18923663 -0.07790316 0.066997714 0.10143982 -0.035817876 0.043495562 0.04576191 0.017007373 0.023916775 0.07534463 0.10724234 -0.37196666 -0.22757894 0.034214087 -0.17896292 0.15756643 0.23512001 -0.065005705 0.2160873 -0.048659265 -0.11322668 0.010287395 0.19275312 -0.11761335 0.046751246 0.11734806 -0.28717315 -0.23973663 0.0815658 -0.31036603 -0.028374456 -0.07759324 0.1186113 -0.010661707 -0.081157304 -0.23434645 -0.28665605 0.04100725 0.19613895 0.06847612 0.005360364 -0.0182104 -0.021047354 0.11926794 -0.07146255 0.03052553 -0.11606479 -0.31744787 -0.048076723 -0.049460232 0.023766315 -0.15966634 -0.15675765 -0.05080671 0.06526963 -0.016420748 0.09959967 0.17435443 0.009696969 -0.092055045 -0.1978708 0.20267166 0.0038873467 -0.19997686 0.08729774 0.18422481 0.064985536 0.2810557 -0.061770733 0.04152395 -0.0022315362 -0.27537948 0.20929341 -0.110849574 0.18812054 -0.019885033 -0.059061028 0.09484008 -0.1513031
65 0.049227953 0.08828401 -0.16544071 -0.07572599 -0.07040278 0.3072106 -0.041672807 -0.1583122 -0.19649683 -0.17159826 -0.0864898 0.20110622 -0.021647718 0.04081901 -0.30383432 0.15613632 -0.058142968 0.3305302 0.024130827 -0.052740663 0.07296253 -0.004164414 0.15299064 -0.14122872 0.011549111 0.001958592 0.18646052 -0.09924987 -0.07998375 -0.03729803 -0.017111704 0.23984218 -0.13630484 0.12587456 -0.0071164053 0.11817319 -0.31656602 0.012788206 0.049432945 0.27966166 -0.0037455822 -0.07352923 -0.017350309 -0.09224044 0.07638199 -0.033459358 0.22352624 -0.27291834 0.01769391 0.19352901 -0.07139996 0.07441073 0.09927903 -0.047862325 0.057860136 0.032255094 0.042199224 0.0327185 0.089247905 0.110596254 -0.41396284 -0.26255816 0.06136352 -0.1926953 0.13811626 0.23916456 -0.05043283 0.21789761 -0.045374352 -0.1479906 0.02991855 0.21773948 -0.10842216 0.08334269 0.12003051 -0.32169414 -0.27857733 0.10108246 -0.37089476 -0.05743539 -0.10025001 0.12133538 -0.03557318 -0.08573618 -0.21561158 -0.31024227 0.079692654 0.20786288 0.04177122 -0.0034113324 -0.019173892 -0.010191648 0.13943794 -0.072512336 0.05214614 -0.16196582 -0.34424254 -0.06492174 -0.04654309 0.022312623 -0.17728402 -0.19923683 -0.038304623 0.049315445 0.009770917 0.123716496 0.20472665 0.046527173 -0.075770386 -0.21501534 0.23767954 -0.011436579 -0.22906238 0.08629742 0.19955605 0.045737516 0.30016252 -0.063522086 0.040221307 0.013295488 -0.28412095 0.20587757 -0.1286117 0.21505967 -0.042581685 -0.060841803 0.114503846 -0.16760696
63 0.055557914 0.09552153 -0.17402463 -0.052994236 -0.038066313 0.28160438 0.028390326 -0.18354596 -0.22745252 -0.13962641 -0.09024381 0.17123257 -0.07160291 0.031780537 -0.31735793 0.12103552 -0.07180692 0.2792052 -0.0014374866 -0.08304736 0.0546126 -0.016005121 0.12328713 -0.11467875 0.037673295 0.00790323 0.18943647 -0.11296936 -0.108268365 0.025946807 -0.04809578 0.19391242 -0.08825862 0.09709945 0.0003200254 0.13340126 -0.29713148 -0.019904694 0.045623805 0.28171358 -0.042115543 -0.035793632 -0.038430806 -0.048324853 0.08150875 -0.046092797 0.17665203 -0.23426607 -0.025120316 0.1579316 -0.040906403 0.027495397 0.08186782 -0.11996402 0.020768313 0.028572313 0.027159007 0.06812184 0.016185204 0.07129962 -0.3275417 -0.2724018 0.046638593 -0.16957532 0.10603067 0.2547621 0.014911273 0.24064115 -0.062168702 -0.09184151 0.060867507 0.12351047 -0.067458175 0.053624086 0.0809949 -0.2807945 -0.22438972 0.15295672 -0.3365998 -0.07953794 -0.10228612 0.12337323 0.015443377 -0.060550317 -0.19985564 -0.29769954 0.12592891 0.22810973 0.020760631 -0.0020643978 -0.02776091 -0.012420889 0.098322995 -0.06366523 0.035407968 -0.16853887 -0.2910095 -0.077557795 -0.059938554 -0.0069316737 -0.16939823 -0.19160427 -0.097024634 0.042740244 0.0020112682 0.12312958 0.18864271 -0.0010127012 -0.090283975 -0.16795318 0.22720599 -0.028685091 -0.15521203 0.09915328 0.1700953 -0.013601994 0.29859653 -0.06705777 0.019408755 -0.0070651835 -0.28498295 0.18071501 -0.06738884 0.28066528 -0.017508287 -0.09483265 0.07402117 -0.12103137
26 -0.053131506 -0.07315277 -0.056656707 -0.009131978 -0.009035224 0.12779844 -0.039936792 -0.1210244 -0.19927429 -0.0018526769 0.091858126 0.0051014745 -0.027196508 0.1478538 -0.24715291 0.123521656 -0.04478927 0.2872482 -0.042287257 -0.0030246926 -0.018557137 -0.22247192 0.14196752 -0.027845105 -0.037708003 0.050555732 0.18585165 -0.15743758 -0.11041275 0.07839943 -0.09670639 0.06468453 -0.086742945 0.10762568 0.045012176 0.076367214 -0.32907695 -0.0775538 -0.056579575 0.038723934 -0.00039292633 0.007845837 -0.08884316 -0.028438624 -0.09041262 0.14144088 0.12667301 -0.1528907 -0.033196572 0.06150402 0.0027671645 0.046110872 0.03931218 -0.14637579 0.01835485 0.17279989 -0.06147727 0.19529015 0.05024042 0.2574797 -0.2975744 -0.19046684 0.04190963 -0.04869977 -0.028917551 0.13152124 -0.029765526 0.12376491 -0.0772514 -0.15928315 0.108911276 0.048228957 -0.09944769 0.0074838805 0.12982957 -0.20074047 -0.25215697 0.055860505 -0.13166532 -0.16240633 -0.14816481 0.024312133 0.05322448 0.1509957 -0.05771799 -0.095696464 0.11905118 0.0452444 0.11695342 -0.039998736 -0.043942492 0.018697409 0.20985515 -0.06742455 0.05001062 -0.0968387 -0.12019265 -0.20500036 -0.10608443 0.07728523 0.029894678 -0.15366575 -0.02545565 -0.054755483 -0.008310308 0.03295043 0.07983613 0.08879437 0.045000866 -0.19675002 0.10932165 -0.048726905 -0.17289557 0.0902833 0.028588796 -0.07886448 0.13569203 -0.053960618 0.08576886 0.07409345 -0.13075987 0.16660385 0.057149965 0.21836586 -0.12688768 -0.1438158 0.012918847 0.023862159
57 0.026670787 0.09290385 -0.20647179 -0.09226995 -0.07585392 0.30303794 -0.029914418 -0.16655865 -0.25213605 -0.15857312 -0.10771163 0.22644797 -0.029701479 0.07134194 -0.3868655 0.16871405 -0.10430591 0.3128112 0.018199045 -0.10527604 0.10939253 0.00928455 0.14080732 -0.13995934 0.03747481 0.010633316 0.19724575 -0.123417675 -0.11299042 0.03069375 -0.010533784 0.21074666 -0.1083383 0.08881653 -0.0014338316 0.12542936 -0.33394256 0.0049333824 0.06988962 0.32913506 -0.01989962 -0.041705165 -0.05288491 -0.08912902 0.087311454 -0.022855192 0.19409028 -0.27705124 0.0076088826 0.18498433 -0.074676685 0.051753737 0.097039744 -0.108169064 0.06937732 0.025467487 0.027004415 0.06093508 0.037719898 0.08226949 -0.39949492 -0.25516674 0.06269107 -0.16890228 0.12457624 0.22857335 -0.01833479 0.2295842 -0.034219235 -0.1266116 0.06249216 0.17781503 -0.10532875 0.07836781 0.09735775 -0.35338214 -0.3305902 0.13152936 -0.38799787 -0.082260326 -0.13326547 0.13009891 0.0019714916 -0.109913245 -0.24693751 -0.36841568 0.067519136 0.2018585 -0.005392458 0.01370767 -0.024335243 -0.007276139 0.108432494 -0.045390304 0.0027745962 -0.18613286 -0.35367125 -0.07631892 -0.069084354 0.009052156 -0.15750962 -0.21188997 -0.074893884 0.049033534 -0.010705595 0.110709906 0.20784904 0.037806246 -0.102200426 -0.21698868 0.25630844 -0.019896341 -0.1978976 0.10061975 0.16888532 0.0023096737 0.32186735 -0.022273349 0.055731498 -0.0032048868 -0.3137446 0.22338146 -0.1253537 0.28595054 -0.043043792 -0.063785404 0.09065455 -0.15317833
24 -0.032406233 0.06805074 -0.0012440602 0.032994147 -0.078502625 0.070032716 -0.08438413 -0.0755273 -0.13364884 -0.10365446 -0.04817183 0.08505624 0.018913856 0.12571615 -0.22186188 0.13934052 -0.0140573345 0.27068847 -0.033470467 0.04038699 -0.047545537 -0.14564325 0.09516961 -0.06545346 -0.014236185 0.01669194 0.14056753 -0.12505578 -0.05670303 -0.00760727 -0.0047898507 0.12399605 -0.07564881 0.20689066 -0.011128972 0.095581755 -0.21381515 -0.019820295 0.03547688 0.10545099 0.012344303 -0.042215347 -0.05103653 -0.055871725 -0.022161078 0.0010806511 0.12495789 -0.1663582 0.041688148 0.15634069 -0.051247988 0.08289371 0.07869327 -0.03038224 0.12982985 0.117137544 -0.019377917 0.016798835 0.15510145 0.22065476 -0.3552868 -0.1659953 0.06560363 -0.112894446 0.042388465 0.06403788 -0.09988075 0.104711 -0.0013721029 -0.17504007 0.025311733 0.1291224 -0.07976001 -0.0046665375 0.23140204 -0.22246869 -0.23207124 -0.016176432 -0.085295774 -0.058280952 -0.0844271 0.105133116 -0.056340918 0.086716734 -0.11309822 -0.13507548 -0.035472296 0.045682985 0.12280931 -0.01308279 -0.10379578 0.09436432 0.14815488 -0.13090661 0.012970916 -0.08993663 -0.207767 -0.15912077 -0.043825425 0.08909252 -0.00094298495 -0.13588981 0.07612108 -0.008611211 -0.055202268 0.01019238 0.023270946 0.107477985 0.0040814998 -0.17457822 0.09508747 0.00064509816 -0.23640041 0.051800847 0.048650213 0.051290445 0.16799365 0.062001187 0.1561001 0.07962281 -0.11780453 0.18722896 0.017101469 0.09762604 -0.11878216 -0.08664221 0.0874734 -0.09196231
41 0.03285561 0.1257609 -0.06463919 0.03261272 -0.076506175 0.11221699 -0.020194108 -0.15529159 -0.17437409 -0.019217353 -0.079876855 0.071940385 -0.008050143 0.12312375 -0.20652927 0.22975501 0.03621441 0.27834004 -0.1191028 0.019848885 -0.08665094 -0.13614699 0.095298074 -0.17016383 0.03228982 0.10340737 0.18082762 -0.1489908 -0.11621667 -0.09940472 -0.07440188 0.18522853 -0.09278319 0.24696025 -0.046658266 0.09224521 -0.18059869 -0.015007661 0.016291281 0.1588297 0.0069180755 0.0041190716 0.036468092 -0.028170612 -0.055120703 -0.111706115 0.13749109 -0.15252797 0.03406716 0.16402937 -0.03979046 0.04082121 0.09976081 -0.025816202 0.13649653 0.024422597 0.09105006 -0.025551138 0.10035505 0.16587698 -0.32543206 -0.25194603 0.0823712 -0.16598645 0.006788343 0.057826888 -0.078757115 0.12659429 -0.04382272 -0.20722258 0.046221565 0.09750784 0.0066267382 0.043085497 0.23429477 -0.15624073 -0.10133299 0.07214881 -0.16640912 -0.04463615 -0.06380052 0.124619596 -0.14453906 0.07928239 0.0008434674 -0.10300872 0.068875 0.09576023 0.014956545 -0.048674982 -0.14924815 0.105979785 0.17980509 -0.14865941 0.08449471 -0.1662999 -0.21327652 -0.09355972 -0.029569741 0.065914355 -0.056356184 -0.1740354 0.019400407 -0.013915078 0.03252203 0.049070347 0.029736102 0.13552904 0.013573933 -0.0973723 0.119476005 -0.041862216 -0.19818124 0.003958016 0.104263015 0.04289893 0.1548736 0.016395476 0.07823058 0.075684115 -0.052834995 0.09235574 0.044962376 0.107474886 -0.11786826 -0.08848155 0.13855506 -0.12029289
59 0.023486229 0.05467406 -0.12985955 -0.061818413 -0.037886605 0.28357416 -0.054266866 -0.12323915 -0.15594502 -0.17630151 -0.047427796 0.17785724 -0.027315432 0.022779554 -0.26697657 0.09858794 -0.05203429 0.29511544 0.039302934 -0.027221704 0.08461984 -0.011364484 0.14610365 -0.09455328 -0.006827562 -0.023325225 0.14928202 -0.08095603 -0.04765756 -0.011948483 -0.009294689 0.21089493 -0.110874526 0.1139207 -0.000539673 0.110772416 -0.2963498 0.0039151344 0.036322683 0.21932197 0.004830484 -0.08709466 -0.044651855 -0.09110601 0.086925685 0.006390064 0.20152237 -0.24207798 0.0021771707 0.16669211 -0.07215142 0.07793269 0.085220896 -0.037598114 0.03848409 0.06151607 0.008198517 0.05460086 0.07678679 0.1281818 -0.3696812 -0.21517512 0.031909853 -0.1612374 0.13809496 0.22487174 -0.05972572 0.1943687 -0.05118894 -0.11569007 0.020620847 0.20040566 -0.13443771 0.053937536 0.10217957 -0.28751162 -0.26366678 0.07466785 -0.31202248 -0.051518235 -0.103030056 0.09836386 0.0033324107 -0.064372085 -0.2194264 -0.2713243 0.05877995 0.17354886 0.06939248 0.00413869 -0.0037411624 -0.023541823 0.13328288 -0.05602663 0.04077828 -0.10846916 -0.29710478 -0.06667142 -0.053724814 0.030610701 -0.14172567 -0.1653732 -0.042485643 0.053137597 -0.00240377 0.10464277 0.18178447 0.017174343 -0.07398592 -0.21267606 0.20297526 0.0056532575 -0.20162512 0.08879588 0.17223068 0.04880497 0.2646484 -0.075373925 0.04389097 0.009055662 -0.26667738 0.21253075 -0.11382994 0.19571179 -0.039023742 -0.0649188 0.09189893 -0.124454424
61 0.03725218 0.09118662 -0.16957556 -0.062443983 -0.052506633 0.25717437 0.00041412917 -0.16815265 -0.22727264 -0.12550174 -0.08515603 0.16903058 -0.050664384 0.05459141 -0.33205345 0.14117166 -0.07795082 0.29207742 -0.004107631 -0.077954866 0.06611207 -0.027412843 0.12852879 -0.11421938 0.039998673 0.021723807 0.18666855 -0.12791823 -0.10231705 0.022719294 -0.040738642 0.19232567 -0.095887326 0.11163918 -0.0038929835 0.12593 -0.29712012 -0.012343212 0.0427851 0.2731504 -0.02795238 -0.035803102 -0.045767006 -0.06138645 0.06923483 -0.03265482 0.17190568 -0.23939423 -0.013862028 0.16086559 -0.053125422 0.04032855 0.08755671 -0.10892235 0.040943343 0.036935978 0.02640344 0.059043378 0.028483791 0.09130675 -0.351888 -0.25893557 0.046794232 -0.16767171 0.09245569 0.22082491 -0.009013112 0.2154148 -0.046455495 -0.11900332 0.06339307 0.1437181 -0.07972719 0.0601324 0.102397926 -0.29241762 -0.24831903 0.13126673 -0.32398087 -0.07719396 -0.111514606 0.11564688 0.003772218 -0.051008873 -0.19755942 -0.28921577 0.09614335 0.19761513 0.018923383 0.0014491242 -0.03285787 -7.985362e-05 0.11044961 -0.056377128 0.029063504 -0.16695754 -0.28983447 -0.08188822 -0.059172697 0.008810158 -0.14691538 -0.19039987 -0.07503799 0.039271962 -0.010937027 0.10795013 0.1702921 0.024161339 -0.07528092 -0.18297657 0.22241338 -0.025254428 -0.18005049 0.09014315 0.15335089 -0.010117248 0.28202546 -0.046181224 0.043195467 0.0016476042 -0.2719981 0.18639155 -0.07860843 0.24818847 -0.044404782 -0.0841297 0.07491009 -0.12610596
66 0.06370808 0.08030842 -0.20400184 -0.07715634 -0.027637072 0.33388764 0.019512732 -0.19937713 -0.23906407 -0.12931827 -0.06591665 0.17185698 -0.06998589 0.019612767 -0.3208723 0.1404456 -0.06741729 0.30762517 0.0013650698 -0.089128956 0.069564015 -0.018705815 0.14815935 -0.13284008 0.022109961 0.019459553 0.20004988 -0.11251205 -0.11601407 -0.0006363513 -0.0698553 0.22466037 -0.11434 0.094330825 -0.0029926389 0.12729809 -0.3376226 -0.021433098 0.021352932 0.28277364 -0.033136223 -0.04762569 -0.018671466 -0.056861144 0.073904455 -0.029362809 0.20256428 -0.2546965 -0.030038724 0.15964003 -0.041079998 0.035137277 0.0827787 -0.11094775 0.0021451702 0.022003634 0.046559267 0.08289915 -0.0018082373 0.07873807 -0.3506587 -0.30451244 0.045503955 -0.17922309 0.11431222 0.28680527 0.010455489 0.2533541 -0.091765314 -0.11706522 0.06325564 0.15175198 -0.08020076 0.07482151 0.06727995 -0.29232907 -0.2263168 0.1736329 -0.39839903 -0.09256697 -0.11138083 0.1157179 0.0049679712 -0.06944254 -0.18974727 -0.3091456 0.1690933 0.24963182 0.01811727 -0.018804766 -0.0039517684 -0.038728967 0.13439734 -0.053551443 0.06711401 -0.17816679 -0.3097197 -0.060980998 -0.06396153 -0.010989317 -0.19511645 -0.21048275 -0.12268738 0.045272395 0.042594604 0.14654838 0.22093655 0.007195084 -0.08527921 -0.18354183 0.2517088 -0.042750694 -0.16693793 0.1007416 0.20241205 -0.016409298 0.29962113 -0.11569128 -0.013076772 -0.0100031225 -0.28922987 0.17906654 -0.092008784 0.29193303 -0.019709151 -0.095408686 0.08288603 -0.12288866
70 0.031286553 0.12526427 -0.056139052 0.05051201 -0.039506268 0.09727812 0.03533006 -0.16374137 -0.19312836 -0.031254184 -0.080574036 0.057831768 -0.05447121 0.103680596 -0.2159496 0.1665176 0.015802657 0.24921274 -0.104793765 0.0067826826 -0.09752999 -0.15261546 0.07909075 -0.10109446 0.04337183 0.07988151 0.18369085 -0.160194 -0.11971418 -0.030604426 -0.09821391 0.13344966 -0.050221935 0.21710016 -0.029119588 0.117564194 -0.1895567 -0.05356444 0.011990427 0.15535289 -0.035736583 0.006579689 -0.016036859 -0.00068801746 -0.033723295 -0.10097091 0.11115392 -0.12423993 -0.01760421 0.14091478 -0.001304238 0.0098327845 0.09035105 -0.09782872 0.09021585 0.063736826 0.041773405 0.01807231 0.056727763 0.15256274 -0.28109345 -0.26074633 0.062438548 -0.15661232 0.003087229 0.112486236 -0.024086677 0.16265063 -0.0577942 -0.15146178 0.072116375 0.03408796 0.016315259 0.009321117 0.19894065 -0.15812932 -0.080542855 0.10375872 -0.1322486 -0.07031287 -0.05115541 0.12684453 -0.06919544 0.10770998 -0.0324065 -0.10312752 0.09292062 0.12732412 0.059325162 -0.03635435 -0.1349535 0.09246823 0.14792433 -0.1445032 0.060220342 -0.15758225 -0.17241316 -0.13181493 -0.033768006 0.038076855 -0.059463874 -0.15567093 -0.021732673 -0.021914326 -0.006254897 0.05072007 0.0274523 0.06656636 -0.0035802813 -0.07942422 0.11407713 -0.043002296 -0.15704104 0.027765976 0.083769724 -0.008000637 0.17595214 -0.004334489 0.068226315 0.05759224 -0.08607194 0.11009652 0.07970595 0.16353618 -0.09186083 -0.12241607 0.083229885 -0.0776659
69 -0.00016551767 0.115075216 0.011689752 0.065586165 -0.029247403 0.08287441 -0.031781524 -0.112091385 -0.12202534 -0.079739995 -0.05373082 0.060810808 -0.033237107 0.088275574 -0.16099168 0.13600396 0.037300292 0.2605991 -0.07952897 0.07010936 -0.10026682 -0.16508566 0.0799869 -0.07863398 0.0020893125 0.03288368 0.13520612 -0.13701318 -0.05962599 -0.057668865 -0.062401015 0.15283655 -0.056757603 0.25752416 -0.026826367 0.11317467 -0.183027 -0.03367066 9.445095e-06 0.08263821 -0.010318892 -0.044131834 -0.030691767 -0.024276314 -0.021379892 -0.060883366 0.12385102 -0.13621888 0.0034257423 0.16619688 -0.03213466 0.05299593 0.1002618 -0.041897416 0.10037712 0.10147266 0.021184929 0.0012870282 0.11164267 0.20932041 -0.30968016 -0.21515411 0.049362432 -0.14824845 0.038995028 0.08971022 -0.09286628 0.13811904 -0.048599046 -0.16657986 0.028338687 0.0848743 -0.027643012 -0.018301276 0.23176311 -0.14578432 -0.094087705 0.032500386 -0.07782208 -0.037825845 -0.040916756 0.118973054 -0.08555712 0.11919433 -0.042341687 -0.07194731 0.03744111 0.10227794 0.11834425 -0.037509892 -0.12810299 0.0923719 0.16541086 -0.15945657 0.06181984 -0.09540521 -0.16865711 -0.1155185 -0.033926215 0.062419455 -0.03582864 -0.11936586 0.021793209 -0.008055302 -0.018059645 0.030722462 0.011664416 0.069937594 -0.0007853856 -0.10599599 0.07639427 -0.017833117 -0.19428472 0.026241746 0.07932422 0.0471296 0.15637182 -0.010796361 0.10002265 0.0711171 -0.074095935 0.13777116 0.074915335 0.09545025 -0.09706722 -0.119052365 0.09633697 -0.078058355
68 -0.00573995 0.089768276 0.0041739494 0.067880735 -0.052484766 0.070568375 -0.04005801 -0.117622815 -0.13875858 -0.031459104 -0.0338088 0.03476817 -0.008472276 0.12892081 -0.17015085 0.1811537 0.044291772 0.28449535 -0.109047905 0.07429825 -0.11496811 -0.20434014 0.10597279 -0.10811904 -0.008143194 0.07448778 0.16361727 -0.14816274 -0.08466893 -0.07696015 -0.07741465 0.15339813 -0.08496743 0.26860353 -0.027964981 0.09783124 -0.20081013 -0.038133543 -0.0068523404 0.07562701 0.010506967 -0.0111399675 -0.0039588492 -0.025506008 -0.06991982 -0.048617147 0.13144284 -0.13010277 0.024306126 0.15122253 -0.027547259 0.056041364 0.09666017 -0.026296217 0.123912446 0.09404176 0.035909586 0.010946205 0.126407 0.24507722 -0.33815888 -0.23040189 0.07002557 -0.14011665 -0.0007351493 0.060692158 -0.10577362 0.1127935 -0.05120058 -0.21400896 0.04050002 0.08825523 -0.024120675 0.002718387 0.2590036 -0.14353275 -0.10648727 0.026497098 -0.08402057 -0.057703044 -0.060178723 0.10524553 -0.11366908 0.1442937 -0.0024632707 -0.04903763 0.04173139 0.058383334 0.10438761 -0.05088501 -0.13931066 0.109596506 0.20780207 -0.17036204 0.0845224 -0.12050291 -0.17640011 -0.14308122 -0.04153228 0.089858025 -0.010880333 -0.14555241 0.050706625 -0.030531455 0.0029839613 0.02996234 -0.0035241395 0.12504472 0.04149847 -0.122953326 0.074894935 -0.032846197 -0.21730094 0.012682692 0.07238981 0.04399876 0.13084497 0.010206717 0.112396084 0.09213674 -0.0370991 0.12784603 0.08506732 0.082650274 -0.1351349 -0.116400644 0.1190788 -0.07611825
71 0.02253617 0.0875752 -0.021746663 0.063503236 -0.04708133 0.07794119 -0.0006225797 -0.15325192 -0.18239473 -0.03020932 -0.0411134 0.031042287 -0.025738738 0.12543191 -0.20844233 0.16114041 0.020696318 0.28247938 -0.09754564 0.034391787 -0.1184666 -0.19217783 0.09134459 -0.093160346 0.017194819 0.075322926 0.19273867 -0.15756989 -0.11735469 -0.027029835 -0.094968356 0.12251777 -0.07141195 0.2354751 -0.015289262 0.11337809 -0.21917656 -0.06479749 0.0072656637 0.11572068 -0.023739824 0.0016533023 -0.013640557 -0.008869871 -0.06125914 -0.06411149 0.12688184 -0.13123554 -0.007559297 0.13848954 0.001001362 0.032820955 0.06995256 -0.08445865 0.09334559 0.098630555 0.016500251 0.032928687 0.11070939 0.19601798 -0.3149066 -0.26024884 0.069976486 -0.1407898 -0.011524994 0.10260131 -0.026725717 0.13823834 -0.051232222 -0.17110541 0.066157795 0.052470308 -0.0054266597 0.0006104317 0.23147498 -0.1694495 -0.11557849 0.068494715 -0.102998175 -0.09068178 -0.06675547 0.11515838 -0.07315194 0.14771453 -0.02230954 -0.08815183 0.08740468 0.10225191 0.101401806 -0.042367175 -0.1366052 0.10113044 0.17343442 -0.14997333 0.0628386 -0.14877526 -0.16533817 -0.16554986 -0.041319147 0.06306424 -0.03309581 -0.1711263 0.016879445 -0.03577287 -0.020125031 0.03973977 0.02738518 0.10174058 0.03153107 -0.099367075 0.10640886 -0.04484246 -0.1936536 0.036826782 0.067376405 -6.509409e-05 0.15702118 0.010021984 0.09784514 0.08712819 -0.076374404 0.12559542 0.090734504 0.14786932 -0.11205559 -0.12520652 0.09149202 -0.06868681
16 -0.06409728 0.04473913 0.18602194 0.10559145 -0.052369673 -0.041762207 -0.16358401 0.043939117 -0.010272843 -0.28089604 -0.038741834 0.08156928 0.04606618 0.10134806 -0.13808103 -0.060321614 -0.013092179 0.30209002 0.11970951 0.17455333 -0.06108881 -0.16704893 0.082833335 0.08899345 -0.06277355 -0.11731082 0.06965312 -0.09107637 0.072318956 0.08455807 0.082276896 0.07805649 -0.04817562 0.2947614 0.012975308 0.14584 -0.17118621 -0.046060596 0.06909792 -0.009517544 0.013203175 -0.19918184 -0.15325108 -0.103784345 0.046517 0.07415864 0.14608805 -0.16374306 0.035923734 0.17551082 -0.068789974 0.14834267 0.05257878 0.005071901 0.11631556 0.2888387 -0.19680691 -0.014864769 0.3414967 0.34703234 -0.43280703 -0.06674983 0.014934489 -0.11528641 0.12459151 0.09409703 -0.16652985 0.054025766 0.06361451 -0.11912575 -0.040611755 0.18530205 -0.16791466 -0.087016664 0.31861627 -0.2930338 -0.2771183 -0.19464307 0.12337498 -0.024901746 -0.036893062 0.10589034 0.022885667 0.15834121 -0.25285923 -0.10651061 -0.20333624 0.021905476 0.37674972 0.048069146 -0.10047505 0.0702315 0.12863985 -0.16576803 -0.06672671 0.051214837 -0.17986849 -0.26975018 -0.010574722 0.1346631 0.053619325 -0.040053982 0.20373528 0.010720975 -0.23895814 -0.048809987 -0.016731039 0.0081655625 -0.018473314 -0.22426125 0.026137542 0.08148115 -0.33497605 0.09345593 -0.002321325 0.14487654 0.15251897 0.08893067 0.28073007 0.121304885 -0.18823074 0.30364504 0.02758734 -0.025953917 -0.097011805 -0.091437824 0.034356274 -0.06846225
60 0.114788845 0.12256038 -0.17592156 -0.040688425 -0.029994056 0.32940993 0.043635853 -0.22306238 -0.18816026 -0.106110856 -0.089562304 0.14994287 -0.078632414 -0.014227796 -0.22410688 0.16427088 0.00279438 0.29940543 -0.055459492 -0.052388176 -0.0077731987 -0.02439727 0.13510059 -0.1736245 0.015739521 0.04721292 0.18840034 -0.08275037 -0.11214589 -0.113184676 -0.09096428 0.26094106 -0.11971819 0.13572614 -0.025889589 0.12117278 -0.27765772 -0.0046369936 0.011732745 0.26259005 -0.023142165 -0.037492786 0.043606278 -0.027238809 0.052637793 -0.11380132 0.21035108 -0.20821308 -0.020256538 0.18126257 -0.026621891 0.01792627 0.09413878 -0.045783166 0.019862732 -0.027279194 0.12151343 0.017275678 0.018921262 0.060492825 -0.31882107 -0.32982758 0.0541286 -0.21631923 0.11080856 0.26713893 -0.001244241 0.25354338 -0.11058998 -0.13021654 0.036386166 0.1389441 -0.024848405 0.07465639 0.09627057 -0.21540524 -0.105150975 0.18832965 -0.3862222 -0.056975693 -0.04712794 0.14282559 -0.0789498 -0.06510457 -0.10847956 -0.23495387 0.19558474 0.26073015 0.0010667986 -0.039323974 -0.03450206 0.0007781627 0.15576841 -0.099269435 0.12029995 -0.19559549 -0.300424 -0.010877837 -0.041451298 -0.01455794 -0.22272168 -0.20477001 -0.103995405 0.048299856 0.09038446 0.1570819 0.19975099 0.035157166 -0.0670083 -0.11533307 0.23105532 -0.044231486 -0.15125743 0.050940942 0.2305317 0.02833685 0.28092527 -0.12763102 -0.04464112 0.0037923343 -0.20897351 0.11965141 -0.066331096 0.22695088 -0.021742845 -0.098305695 0.13377908 -0.14501004
29 0.02224794 -0.013350024 0.17077021 0.10792599 0.09842289 0.16566288 -0.09637359 -0.057465058 0.089801826 -0.057744313 0.15513657 -0.07557305 -0.058711547 -0.04634177 0.16147916 0.051193777 0.23229371 0.31032157 -0.09589778 0.28575364 -0.21379209 -0.30542392 0.15403514 -0.033270493 -0.17349258 -0.011337798 0.051176917 -0.035162557 0.066762194 -0.27051067 -0.15975122 0.24105777 -0.1368508 0.35585642 -0.028369835 0.08074241 -0.20066506 -0.04725836 -0.17314777 -0.22683983 0.09437694 -0.14955698 0.039200194 -0.01799191 -0.09752926 0.04451108 0.20953342 -0.07212307 -0.024748374 0.15558746 -0.026162533 0.092243 0.09965924 0.15876047 0.0068310173 0.17930827 0.07515372 0.040648732 0.17522144 0.43183446 -0.3017985 -0.21608968 0.00067288283 -0.16558048 0.079725035 0.1458152 -0.25799355 0.12732504 -0.17587902 -0.2582194 -0.063660465 0.15020992 -0.10306189 -0.072502665 0.24663177 0.0665824 0.12217126 -0.073364444 0.024593202 0.005910969 0.048176873 0.031772096 -0.16862017 0.24271648 0.12886602 0.23239836 0.12520541 0.0517486 0.29567567 -0.12970363 -0.06486618 0.0258241 0.3687595 -0.21062256 0.25238436 0.069508776 -0.053579062 -0.0612296 -0.041482616 0.13529389 3.8112776e-05 -0.019426325 0.058299635 -0.004283672 0.13162775 0.049429823 -0.003439425 0.088332325 0.1056297 -0.120584056 -0.049069334 0.017684184 -0.20563632 -0.008364165 0.15453401 0.15592854 0.0009281592 -0.24288188 0.010714699 0.11048157 0.10449868 0.08174995 0.13382125 -0.12631223 -0.11676558 -0.16969834 0.14926289 0.007821168
51 -0.09235933 -0.14657775 -0.01584124 0.0028049126 -0.027518835 0.054175183 -0.07375353 -0.07226235 -0.2103797 -0.058652505 0.11683643 0.0021017627 0.0067922417 0.20166987 -0.30990553 0.028213175 -0.12138542 0.29425544 0.04590372 -0.01834998 0.011620931 -0.23060508 0.13662218 0.066306755 -0.049406476 -0.0035574255 0.19391268 -0.158186 -0.09292404 0.21914189 -0.035533007 -0.03977553 -0.061426263 0.051023286 0.09908759 0.072492965 -0.3625479 -0.11001279 -0.01736356 0.02528762 -0.017893894 -0.0124494545 -0.16905847 -0.043558467 -0.074604794 0.23798399 0.114435315 -0.1556372 -0.030163022 0.021247294 0.006806006 0.065976836 -0.0057885344 -0.21144915 0.004353066 0.27333677 -0.20027795 0.24999718 0.12157523 0.29062024 -0.32511663 -0.124719426 0.033496056 0.017858004 -0.024855746 0.15138108 0.018440237 0.09078817 -0.008017726 -0.11064015 0.13108194 0.055529613 -0.15429176 -0.01168955 0.12346422 -0.30590722 -0.40859038 -0.011322457 -0.04674703 -0.20631075 -0.18573536 0.011311672 0.16009712 0.18031217 -0.16557465 -0.15656355 0.039179258 0.005373765 0.20950584 0.012614418 -0.01852386 0.007859958 0.16333653 -0.04710302 -0.037317876 -0.06987286 -0.102962464 -0.3287236 -0.10747973 0.093717076 0.088967 -0.15382718 0.04523832 -0.07928613 -0.12838243 -0.00062551023 0.08944704 0.06901303 0.046313185 -0.2611529 0.10783066 -0.02251189 -0.21938066 0.15601975 -0.047123395 -0.11185264 0.15557985 0.011149948 0.17517133 0.09252519 -0.21710955 0.25099877 0.0520294 0.25939244 -0.132791 -0.14814588 -0.05230649 0.057118163
18 -0.07285425 0.04056917 0.27076522 0.14509709 -0.031255975 -0.04986365 -0.22401641 0.06894665 0.05776339 -0.30370516 -0.00202494 0.05868984 0.059850227 0.08589468 -0.060261548 -0.073049344 0.048460305 0.3492917 0.10834054 0.27023718 -0.11910024 -0.24020952 0.10374965 0.10334243 -0.11155167 -0.14408 0.049919456 -0.07852734 0.11648232 0.026308285 0.0737571 0.11083293 -0.06683977 0.38922906 0.014136095 0.16012995 -0.18201943 -0.052605048 0.038260482 -0.10968867 0.045795284 -0.23973665 -0.15023382 -0.11827012 0.0303688 0.08696822 0.18515807 -0.1568827 0.040683728 0.20599288 -0.089622594 0.18813631 0.0752153 0.07243993 0.12932245 0.33393127 -0.19601071 -0.031630654 0.40931642 0.45516127 -0.49234983 -0.072385654 0.010047648 -0.13822943 0.15043868 0.09329796 -0.2444955 0.04508996 0.043910347 -0.16469868 -0.077880286 0.22765633 -0.19308202 -0.11009911 0.3872923 -0.24968258 -0.23945273 -0.25815067 0.18948479 -0.01002854 -0.012425409 0.10866716 -0.017372137 0.22837046 -0.21900758 -0.023098752 -0.2267132 -0.0046752975 0.45828784 0.022008635 -0.10801449 0.08762654 0.20409097 -0.22027293 -0.023032866 0.09643172 -0.167561 -0.28394282 -0.01698156 0.1903525 0.08068977 -0.02491005 0.25432268 0.008980292 -0.22728156 -0.060292736 -0.055722516 0.03938998 0.009684787 -0.23973288 -0.023696773 0.10329972 -0.38803056 0.08566481 0.008538852 0.20510909 0.12734187 0.056049123 0.30831507 0.15062417 -0.14137007 0.31797525 0.0634176 -0.112980746 -0.12179811 -0.11390098 0.07113085 -0.07273975
22 -0.08943666 0.044395115 0.197617 0.096291155 -0.07369341 -0.017061219 -0.229841 0.08176225 0.01914596 -0.3244668 -0.03404126 0.11647409 0.07277352 0.10553576 -0.15479109 -0.050229695 -0.026031027 0.3289731 0.13900864 0.20288064 -0.029072016 -0.16173156 0.10138885 0.084179595 -0.08446493 -0.14563133 0.054571576 -0.07769885 0.09641756 0.07426749 0.11866146 0.11181855 -0.06571407 0.321398 0.01441971 0.15254569 -0.20581354 -0.017178256 0.07758247 -0.022959417 0.042647798 -0.22794165 -0.16530146 -0.14506601 0.06599302 0.101692006 0.17962521 -0.2041098 0.05755749 0.20756274 -0.11297271 0.18633083 0.07448654 0.045387305 0.14896795 0.30326504 -0.21200795 -0.02194918 0.38782707 0.3933595 -0.51066506 -0.04950165 0.020170828 -0.12226827 0.1695728 0.086980805 -0.23261696 0.050705172 0.07525521 -0.1537255 -0.075042784 0.25344634 -0.22051682 -0.084788196 0.3499663 -0.32872206 -0.33839327 -0.2384999 0.11505891 -0.006728078 -0.05891407 0.111862235 0.018529106 0.14517936 -0.29273528 -0.13129975 -0.26017767 0.0007483647 0.39869645 0.05426155 -0.086333685 0.07717274 0.15532207 -0.18606217 -0.06956691 0.07005715 -0.23085897 -0.2746929 -0.021433106 0.17559823 0.055620544 -0.04220615 0.2447682 0.025585735 -0.24251428 -0.057142816 -0.012512774 0.033434365 -0.02094994 -0.2804941 0.020324668 0.10647372 -0.39350802 0.102587186 0.017401522 0.18762846 0.17006671 0.099450484 0.3174525 0.12448029 -0.22099836 0.35109395 0.00071820966 -0.05319353 -0.10734361 -0.07982096 0.06307564 -0.10214012
49 -0.08548646 -0.16295943 -0.053062353 -0.034067404 0.0017858671 0.10177225 -0.057564747 -0.09043176 -0.2197566 -0.002788032 0.16115722 -0.020504402 -0.007877956 0.17344505 -0.2949156 0.050895754 -0.09410711 0.28397068 0.02703678 -0.023148462 0.030344063 -0.228774 0.157853 0.047965415 -0.05040666 0.021328054 0.19091493 -0.16357669 -0.11657161 0.19080149 -0.08346968 -0.027231833 -0.06802571 0.039305743 0.098069325 0.06454347 -0.3735134 -0.123359606 -0.054811526 -0.0036023308 -0.018777423 0.0079881335 -0.1541867 -0.021713981 -0.09049851 0.26332414 0.10040968 -0.15184878 -0.059814274 -0.0029816495 0.02014231 0.0742394 -0.008380506 -0.20561768 -0.02958907 0.2529496 -0.160674 0.28900173 0.04411127 0.29217872 -0.29187357 -0.14840747 0.0031294967 0.016504843 -0.056981884 0.14239475 0.019814774 0.088907145 -0.05399247 -0.124205895 0.1521927 0.024655119 -0.15914322 -0.0024232066 0.08019416 -0.25707445 -0.35516226 0.021918373 -0.093423694 -0.21584491 -0.19582571 -0.025215812 0.16435786 0.18634424 -0.122045636 -0.126485 0.1074115 0.012585541 0.17970075 -0.021791488 -0.0066717453 -0.02257408 0.20589438 -0.014821254 0.0028301533 -0.04809869 -0.06932116 -0.28349653 -0.120312475 0.080400094 0.09961156 -0.15615577 -0.041444518 -0.08046013 -0.07202891 0.006716486 0.09887747 0.061428335 0.057281505 -0.2538651 0.11214876 -0.0421184 -0.18279605 0.13733377 -0.03618867 -0.14147553 0.12105196 -0.038194314 0.11738533 0.07590391 -0.19727059 0.20599106 0.04859891 0.26162496 -0.13584374 -0.16086602 -0.055823024 0.07744279
20 -0.06885909 0.075006396 0.2883593 0.17403711 -0.07748258 -0.11378246 -0.21063787 0.0718583 0.030879242 -0.34509256 -0.06757393 0.09130126 0.08192878 0.13197806 -0.11740897 -0.07860764 0.012061159 0.34334216 0.11380633 0.249817 -0.13863544 -0.22757804 0.07250898 0.11320808 -0.08035864 -0.14721388 0.06494056 -0.09750639 0.10361321 0.073308334 0.12405953 0.07232238 -0.03891068 0.39282256 0.006951106 0.17709702 -0.15838094 -0.05695816 0.10593025 -0.04873123 0.020276718 -0.23819709 -0.17352086 -0.12339709 0.044021964 0.046098217 0.16206796 -0.16352384 0.05932323 0.23060353 -0.08710749 0.18089283 0.07722749 0.039342098 0.17799419 0.35056108 -0.23042198 -0.06818467 0.45682937 0.42071933 -0.51438606 -0.054267183 0.031195844 -0.1407969 0.15372275 0.07031355 -0.21037391 0.04537336 0.09690661 -0.13428308 -0.080615625 0.2165862 -0.17453362 -0.12779473 0.43276328 -0.31784126 -0.2949118 -0.26629668 0.23464134 -0.007555264 -0.012242777 0.15072615 -0.0073677134 0.23300685 -0.285048 -0.071815476 -0.29427874 -0.0026176427 0.48084188 0.06311284 -0.15225013 0.14092046 0.14468071 -0.24093749 -0.08633168 0.064118855 -0.20029415 -0.340786 0.00036100717 0.1910137 0.07972331 -0.038505934 0.30504242 0.002318272 -0.30596557 -0.08320715 -0.08429281 0.042243734 -0.004158401 -0.22483714 -0.022007197 0.1144657 -0.41125658 0.08756836 -0.02242289 0.21304213 0.1706746 0.15198655 0.37204322 0.16843466 -0.17562994 0.35048583 0.07281828 -0.089538604 -0.12052376 -0.10748521 0.058714166 -0.097583845
76 0.06863909 0.09642605 -0.17262761 -0.05467443 -0.041406777 0.29870248 0.012589546 -0.19140023 -0.21162306 -0.12921456 -0.08118105 0.15451911 -0.057425126 0.029071448 -0.28751054 0.15724356 -0.03604511 0.31858325 -0.017098898 -0.062268626 0.03661095 -0.02722554 0.13781112 -0.15066014 0.026244871 0.03477472 0.19914111 -0.10487616 -0.106590375 -0.03764308 -0.07025157 0.22944698 -0.11131207 0.13320081 -0.012708259 0.12649412 -0.30673134 -0.010257421 0.028910257 0.27265194 -0.026021237 -0.046588406 -0.0036012563 -0.049334433 0.061137382 -0.06340923 0.2019124 -0.23466074 -0.017167447 0.16895914 -0.035967506 0.04358743 0.085455626 -0.07609351 0.029160993 0.016130462 0.06251367 0.040002033 0.0357234 0.09209041 -0.35064197 -0.3035985 0.053765617 -0.1902497 0.10355065 0.25453666 -0.007280854 0.23750697 -0.08197364 -0.13266188 0.048400223 0.15695319 -0.06777904 0.07486467 0.109772146 -0.27038234 -0.1967493 0.15193981 -0.36446646 -0.07672216 -0.088624306 0.1249839 -0.041169807 -0.05603941 -0.1535526 -0.27560353 0.14944538 0.23014362 0.02675928 -0.021847254 -0.03827238 -0.00922247 0.14762378 -0.07962358 0.07494894 -0.17963488 -0.30814144 -0.063151576 -0.047623936 0.0025094983 -0.17893067 -0.2120725 -0.08150687 0.044405155 0.033930857 0.13503397 0.1995324 0.028705776 -0.06623899 -0.16772391 0.2383265 -0.033174165 -0.19060585 0.07498805 0.19626522 0.014110106 0.28739706 -0.09564362 0.009455896 0.009853233 -0.25695124 0.17211397 -0.07422567 0.25357816 -0.04338467 -0.09693245 0.11160092 -0.13606468
17 -0.08017864 0.027645515 0.21206822 0.12927553 -0.05438001 -0.04640068 -0.19316463 0.049020287 -0.009684083 -0.28208056 -0.018589692 0.08111494 0.05561738 0.12646542 -0.14303939 -0.05516096 -0.01517644 0.32766548 0.10491335 0.20109215 -0.08466858 -0.2248116 0.0964119 0.10737598 -0.07911742 -0.12246967 0.076728754 -0.10737139 0.074594796 0.08870593 0.086600326 0.078505605 -0.05334366 0.32057628 0.019149322 0.15684395 -0.20221882 -0.05560659 0.059106644 -0.045171276 0.021498721 -0.20366953 -0.16925927 -0.109872766 0.024253262 0.1031341 0.16381785 -0.16733311 0.043510336 0.19098012 -0.083414465 0.16011278 0.07061666 -0.0043846057 0.1314479 0.33140653 -0.21580172 0.00990497 0.37044385 0.4059362 -0.48008588 -0.057550702 0.020168424 -0.11032364 0.12747005 0.09508289 -0.19610009 0.060524587 0.057167917 -0.13998576 -0.035990454 0.18645614 -0.18541926 -0.10355392 0.35072744 -0.2956793 -0.31081036 -0.21148102 0.16413468 -0.036230877 -0.046570465 0.113769956 0.034039833 0.21039212 -0.25861698 -0.08456422 -0.21892951 -0.0039080465 0.41742638 0.051651232 -0.10826769 0.09598372 0.16232549 -0.19583112 -0.062143177 0.05742308 -0.18180041 -0.30590498 -0.03224205 0.17623281 0.07924512 -0.04386726 0.23084435 -0.0043009953 -0.2484495 -0.070647806 -0.04893256 0.03654457 -0.0033711218 -0.24517928 0.0021755924 0.08619061 -0.3584118 0.10284729 -0.013464537 0.14800805 0.16536857 0.09835362 0.31225437 0.14177302 -0.18340194 0.32378095 0.056279793 -0.026832333 -0.11760253 -0.11009714 0.036747355 -0.06382647
19 -0.08482562 0.0532747 0.32302213 0.18369268 -0.048252765 -0.117169455 -0.22846515 0.090163365 0.060571384 -0.35613883 -0.025108285 0.06722088 0.06876245 0.11146285 -0.08348469 -0.12424586 0.023442483 0.34697318 0.135847 0.28498632 -0.14015794 -0.25659445 0.077355914 0.15249538 -0.10485671 -0.16798937 0.05031231 -0.08873669 0.12759075 0.08885264 0.10492595 0.069323786 -0.035814025 0.40824813 0.02124256 0.18796314 -0.16708098 -0.07190546 0.07162204 -0.10901409 0.022966696 -0.26540968 -0.19577804 -0.12183295 0.049142126 0.0896655 0.16848181 -0.15382874 0.040355872 0.21314847 -0.08051507 0.18943906 0.06894262 0.040708974 0.14952625 0.39393052 -0.2657559 -0.038629025 0.46261844 0.4712172 -0.5102218 -0.04211693 0.0015707037 -0.12952486 0.15828033 0.08880859 -0.23052128 0.042710908 0.08224893 -0.13029504 -0.08313371 0.20788822 -0.19587937 -0.15078968 0.42275906 -0.29225343 -0.2838544 -0.29464146 0.2766063 -0.010859098 -0.006270085 0.1340097 0.018332465 0.26905632 -0.28643763 -0.04264239 -0.29215127 -0.008848004 0.53049624 0.060476396 -0.1343608 0.112928264 0.16781868 -0.24167396 -0.08234153 0.118875 -0.15820193 -0.35054693 -0.006580039 0.20049568 0.1051954 -0.014308907 0.29455048 0.008851486 -0.3168353 -0.09109059 -0.09229995 0.014214625 -0.006629389 -0.2455421 -0.04711777 0.1228145 -0.41233042 0.1062903 -0.032182593 0.21085693 0.14228229 0.12032488 0.37404126 0.17086665 -0.16856368 0.36061543 0.09706062 -0.11077024 -0.11447189 -0.12352247 0.03778914 -0.059698116
21 -0.08585862 0.04929592 0.2905983 0.16275439 -0.06683385 -0.08464724 -0.24690902 0.085461184 0.053282883 -0.34585163 -0.024785992 0.08527314 0.08522269 0.11909822 -0.10093877 -0.0785331 0.017733011 0.36035562 0.12959774 0.27028862 -0.11764782 -0.2409391 0.103299 0.11774974 -0.107848056 -0.16149712 0.06064782 -0.083888374 0.11835914 0.059591234 0.11526937 0.10222071 -0.05516859 0.40687767 0.01465329 0.16840293 -0.1929204 -0.051749136 0.073286325 -0.089714535 0.039068528 -0.25773898 -0.17677298 -0.12907343 0.039179116 0.0895299 0.18812875 -0.18254468 0.061520237 0.22380584 -0.098029934 0.20280334 0.07460177 0.06203399 0.16470675 0.36752942 -0.23625983 -0.04270747 0.46520844 0.47000927 -0.5373738 -0.057443302 0.018920759 -0.13008553 0.15862888 0.07729939 -0.25536284 0.041331705 0.07984143 -0.16449492 -0.08457121 0.24204373 -0.21123858 -0.12344002 0.43140936 -0.31564564 -0.31426418 -0.29399356 0.22000101 -0.009869285 -0.02734945 0.13068262 -0.00053744926 0.23795146 -0.27993876 -0.06308425 -0.28960422 -0.020456696 0.49977404 0.046245676 -0.12748386 0.11620608 0.1818053 -0.23993747 -0.06710772 0.09995386 -0.19827497 -0.3315279 -0.0144651085 0.2073522 0.09056939 -0.02855023 0.30247247 0.007590713 -0.28006425 -0.07870474 -0.06438613 0.045055684 0.0031293102 -0.27096814 -0.023856714 0.115286484 -0.43289256 0.09879139 -0.014912156 0.22102937 0.15656088 0.117744066 0.36641443 0.16469923 -0.17783298 0.36962086 0.060053714 -0.10575069 -0.13258997 -0.11111848 0.06453298 -0.0884405
75 0.028393628 0.102288835 -0.082040586 0.010515866 -0.05331654 0.15058133 -0.012337635 -0.16248158 -0.17247926 -0.011542948 -0.039246865 0.054484677 -0.023276864 0.10144208 -0.20095518 0.21347734 0.041874535 0.2840866 -0.1142586 0.012826742 -0.072127104 -0.13425826 0.117084354 -0.16358924 0.017231753 0.09720988 0.18534988 -0.14197467 -0.116911314 -0.102011584 -0.1020303 0.19142887 -0.10172224 0.22400999 -0.034773998 0.08079409 -0.2192022 -0.019630458 -0.018301627 0.144853 0.0021087313 0.007060579 0.03529489 -0.015955815 -0.05684585 -0.07826186 0.14311181 -0.15454431 0.010097964 0.13954026 -0.024210332 0.045089 0.088545196 -0.02603772 0.09303499 0.027527245 0.094506055 0.013291559 0.0636004 0.1744297 -0.30480084 -0.27143508 0.06702181 -0.16060826 -0.000948954 0.09051373 -0.06938806 0.14044239 -0.073372096 -0.20884362 0.05028207 0.09586277 -0.011283524 0.040893994 0.19856998 -0.1403908 -0.08276014 0.09213525 -0.19946006 -0.0673188 -0.060936727 0.100504555 -0.12981793 0.07119796 0.017019106 -0.085771 0.11589284 0.10418482 0.02640149 -0.06361576 -0.118752874 0.07296675 0.19776848 -0.13000472 0.10571571 -0.1500487 -0.19670446 -0.075211525 -0.03930982 0.047333702 -0.056615043 -0.16301048 -0.018057644 -0.0056645963 0.056724697 0.07143386 0.05825481 0.11399711 0.024678104 -0.11004901 0.12489144 -0.0502048 -0.17725033 0.0024738277 0.11002672 0.024804527 0.13378067 -0.032062035 0.04217432 0.060805775 -0.05616933 0.093220994 0.036131304 0.11919753 -0.11605565 -0.101565786 0.12884527 -0.09267587
38 0.022638064 -0.056187622 0.08966909 0.045188043 0.13936263 0.33051792 -0.09927626 -0.10662719 0.07012105 -0.016120296 0.23049966 -0.06332309 -0.08391586 -0.07640572 0.1660587 0.1116341 0.24609597 0.3507437 -0.13056642 0.26502624 -0.17039697 -0.31551144 0.21627893 -0.09066011 -0.21107596 0.005950389 0.069495276 -0.025332266 0.055164285 -0.34196836 -0.21847306 0.32734314 -0.19871788 0.3126463 -0.01856315 0.065264925 -0.30563065 -0.02049965 -0.24953274 -0.22552507 0.12957254 -0.13868712 0.07092166 -0.021798965 -0.11705424 0.099842675 0.26963207 -0.10776882 -0.03668641 0.16240424 -0.03349031 0.09353181 0.12260425 0.17399415 -0.030787364 0.13994265 0.15767038 0.11017762 0.091402374 0.4560747 -0.32687417 -0.27481 0.0009984109 -0.17495938 0.09998405 0.21374696 -0.29057017 0.19513942 -0.26541477 -0.3165581 -0.0494165 0.19636793 -0.13458191 -0.03355096 0.1836889 0.09134554 0.11768252 -0.0154188555 -0.13197148 -0.013812238 0.015039245 0.007202157 -0.18853423 0.20660667 0.18049987 0.22914395 0.24358891 0.08700142 0.24562892 -0.17869642 -0.006642976 -0.023846654 0.45764625 -0.17959724 0.3339096 0.055906724 -0.08818381 0.008570828 -0.09378912 0.13114221 -0.043540496 -0.046759404 -0.022201903 0.012481603 0.26126054 0.108706504 0.08554602 0.114080496 0.11519428 -0.17042501 -0.004286461 -0.0008779982 -0.1901385 -0.0045981095 0.2393608 0.13909219 0.02702951 -0.36934403 -0.076567896 0.08440702 0.09467689 0.0811606 0.09523385 -0.061176192 -0.12453712 -0.20078644 0.19235551 0.017653808
34 0.009067315 -0.05115678 0.1498688 0.0680215 0.13427056 0.2452621 -0.1143682 -0.052512348 0.11917749 -0.052543446 0.20881094 -0.07742533 -0.06568221 -0.09302485 0.20791417 0.0478269 0.24722412 0.3163252 -0.09258795 0.30033237 -0.17371161 -0.29381746 0.18160653 -0.051068418 -0.20727994 -0.029694274 0.025443112 -0.0035092449 0.09020005 -0.31818974 -0.17875767 0.2842876 -0.16881196 0.33246753 -0.022385081 0.0592608 -0.2394825 -0.022565996 -0.22325154 -0.26847064 0.12822264 -0.17207584 0.0506751 -0.028923007 -0.089998186 0.09729706 0.24037953 -0.0891461 -0.040795945 0.14643969 -0.03864285 0.108521186 0.10313324 0.20058486 -0.03399637 0.1706909 0.10714675 0.07546178 0.13555047 0.45808733 -0.30150172 -0.21612225 -0.009601254 -0.16340798 0.103781275 0.17691162 -0.30452418 0.15020148 -0.22537775 -0.28731713 -0.084157415 0.19585027 -0.14425668 -0.06827627 0.20667842 0.09800315 0.13094656 -0.0734228 -0.04013262 0.006430541 0.04128413 -0.005178149 -0.17539433 0.22597912 0.15330887 0.2509064 0.16747524 0.056726515 0.29898635 -0.15422142 -0.019667702 -0.017776595 0.42645633 -0.19378418 0.29904312 0.10708889 -0.05690578 -0.012412272 -0.06663088 0.13793717 -0.016732272 -0.011608425 0.012264881 0.020342685 0.19363213 0.07331847 0.04093538 0.08070116 0.10919203 -0.16484967 -0.040206548 0.025296474 -0.20454119 -0.008860915 0.20749442 0.1691149 -0.0034726546 -0.32923374 -0.030146701 0.09433755 0.09639083 0.0952411 0.107633464 -0.13123372 -0.11323089 -0.18351676 0.16690221 0.024973216
36 0.018975684 -0.031826716 0.09117402 0.057656042 0.117736235 0.26236767 -0.08765215 -0.10356147 0.042569764 -0.024332711 0.18403712 -0.066212334 -0.07780178 -0.053251386 0.11497811 0.09737282 0.21709265 0.33385456 -0.11682236 0.24855931 -0.159244 -0.29281154 0.18918069 -0.079123996 -0.17212166 0.008991217 0.08172416 -0.043728758 0.04004484 -0.27886334 -0.20515893 0.28067222 -0.16818868 0.31304008 -0.0124019375 0.07596504 -0.27981058 -0.033888046 -0.20687614 -0.19487855 0.105781496 -0.13120976 0.046782807 -0.019391427 -0.09914607 0.0817459 0.23873922 -0.10674397 -0.044198643 0.14901504 -0.022954011 0.086699046 0.10707998 0.13997178 -0.026798794 0.15549931 0.114251025 0.09696702 0.09453812 0.42276907 -0.3136431 -0.26242405 -0.00032012747 -0.16729672 0.074061334 0.18964325 -0.24572529 0.17255892 -0.2289572 -0.28036353 -0.04095719 0.17114276 -0.12105172 -0.036496866 0.19860011 0.05456241 0.09014625 -0.01587888 -0.1042177 -0.031942014 0.00154432 0.017849622 -0.16694163 0.21708593 0.1417487 0.18921305 0.21136893 0.08173582 0.24267651 -0.15671223 -0.0343116 -0.009970213 0.41718832 -0.1823126 0.28988934 0.047207054 -0.08601612 -0.030188207 -0.081834845 0.12180251 -0.032534424 -0.057152282 -0.025649726 0.0044778083 0.19282515 0.09331847 0.06345711 0.09241657 0.09779408 -0.17103355 0.0046898182 -0.00448171 -0.19560671 0.001836178 0.20801078 0.11728172 0.041524682 -0.31461996 -0.03616123 0.0949787 0.055904947 0.10471187 0.11036924 -0.039221995 -0.120451 -0.19537567 0.16729598 0.013524149
35 0.02937752 -0.065849714 0.090261236 0.04325769 0.1394656 0.32175085 -0.09780984 -0.10130698 0.08124566 0.0015441866 0.23910439 -0.08326203 -0.08539776 -0.08886057 0.18425696 0.11235236 0.26209837 0.34432635 -0.14248599 0.27204022 -0.1721499 -0.31386223 0.21053804 -0.09581947 -0.21251057 0.014320908 0.06351615 -0.016189855 0.052909475 -0.36013505 -0.23200938 0.32661468 -0.20032507 0.31468606 -0.019030513 0.053072132 -0.2977259 -0.020942025 -0.2598124 -0.23820388 0.13371164 -0.13639161 0.08787968 -0.01791405 -0.12199961 0.102105334 0.26589003 -0.099794656 -0.04167124 0.14899322 -0.025648175 0.09160888 0.11256294 0.18909518 -0.037016552 0.1341031 0.16542259 0.108879864 0.08306067 0.44946882 -0.3001107 -0.27028078 5.225523e-05 -0.17083524 0.08388967 0.20247991 -0.28663078 0.18012847 -0.26669413 -0.31938177 -0.055701256 0.19407563 -0.13347183 -0.027818877 0.17079856 0.1153255 0.14123231 -0.01104183 -0.13215159 -0.01250353 0.016127298 -0.007531802 -0.19742876 0.20366314 0.20275286 0.25096166 0.25801423 0.076120764 0.23128645 -0.18410331 -0.003915067 -0.024053898 0.46433353 -0.17595185 0.3476675 0.060068555 -0.079032935 0.021598535 -0.08573407 0.1310517 -0.043009922 -0.04975315 -0.029750574 0.012265671 0.27378154 0.10844288 0.0800599 0.11825186 0.12494702 -0.16442989 -0.009431488 -0.0062942496 -0.18214986 -0.0110541 0.24396831 0.13994922 0.01017897 -0.37440225 -0.08758933 0.092145406 0.11845199 0.065291874 0.09730514 -0.07904654 -0.12869442 -0.19713013 0.19322921 0.027687594
37 0.021380486 -0.061262004 0.09392085 0.06329653 0.14500397 0.25823903 -0.05602411 -0.11555886 0.030413529 0.0033385681 0.21911353 -0.09536854 -0.09926702 -0.057695802 0.13639969 0.08107122 0.2269423 0.32551262 -0.12794743 0.23931314 -0.18062973 -0.327343 0.18703736 -0.05714553 -0.17569026 0.021239072 0.087179154 -0.04957439 0.024440328 -0.262829 -0.2305169 0.25696546 -0.15502222 0.29612973 -0.009369294 0.06925703 -0.2804683 -0.063501514 -0.236586 -0.21400766 0.08518536 -0.113725014 0.044741094 0.0055580167 -0.11840499 0.0936154 0.22401826 -0.08203071 -0.068824306 0.12082428 -0.0029336037 0.06558851 0.09913475 0.10871044 -0.057049457 0.16414213 0.10505335 0.13829009 0.06872635 0.42918986 -0.27194762 -0.26344123 -0.004395436 -0.14893214 0.050679848 0.20788899 -0.22520219 0.18140782 -0.25114655 -0.26652634 -0.01406728 0.121783935 -0.10879678 -0.047371566 0.1669151 0.07900741 0.12622717 0.010508162 -0.08566502 -0.053818073 0.006895862 -0.0019575418 -0.1380624 0.2427022 0.17662083 0.2214739 0.2502772 0.087042026 0.2470597 -0.1631518 -0.030924639 -0.024864314 0.41792145 -0.17432584 0.3043669 0.048096765 -0.04206851 -0.04575436 -0.086068876 0.1124427 -0.019155217 -0.04880089 -0.049428705 -0.0058919257 0.20930165 0.09550984 0.064325035 0.08507462 0.11117047 -0.1425959 -0.00482273 -0.017887529 -0.15789613 0.00810063 0.18874092 0.077560045 0.00968417 -0.33833164 -0.05880214 0.09121866 0.088533744 0.07394631 0.14035179 -0.0233218 -0.11335454 -0.2092495 0.13572565 0.04997418
28 0.120737664 -0.023152184 0.0732025 0.18839394 -0.07716357 0.054993108 0.052667238 -0.20824805 -0.098105736 0.0335609 0.03492284 -0.073334016 -0.009826997 0.13479319 -0.00039382232 0.15443218 0.10584958 0.27644625 -0.22091225 0.07760827 -0.36202785 -0.3361669 0.08130682 -0.07187786 -0.092532076 0.13812436 0.21410528 -0.080509566 -0.1182467 -0.19800457 -0.118394874 0.09541619 -0.10877384 0.18937227 -0.0108452225 0.07249031 -0.2219844 -0.06391455 -0.012753129 -0.0051953425 0.011369751 0.03121555 0.103902996 0.061274458 -0.17340386 -0.07289223 0.18141115 -0.006897643 0.041774258 0.13888755 0.045677267 -0.025205217 0.0675947 -0.0194618 0.114128284 0.12139804 0.102457635 0.029160848 0.22495894 0.19492431 -0.2455391 -0.26611856 0.15069778 -0.08389059 0.0020299256 0.12798096 0.00978453 0.15359594 -0.08448792 -0.18998812 0.032727104 0.006346865 0.08691256 -0.023945792 0.24482225 -0.04526794 -0.044271808 0.067485325 0.025320422 -0.091513455 0.016830511 0.13701345 -0.16238151 0.23670824 0.1544999 0.0837183 0.15005684 0.058935877 0.16376628 -0.069750436 -0.12647396 0.19773932 0.19937395 -0.26015085 0.18536204 -0.19434258 -0.10361851 -0.204634 -0.023635617 0.11257418 -0.05697343 -0.19697197 0.18000475 -0.1325723 0.068004936 0.043160245 -0.011132505 0.25767276 0.13904758 0.00014274253 0.03035125 -0.08431136 -0.17589508 0.024665777 0.07112382 0.027425185 0.16355336 -0.015851764 0.07394936 0.1759863 0.12346993 0.02577973 0.2204547 0.11264723 -0.14158906 -0.17293905 0.15267026 -0.034046184
54 -0.07520898 -0.12121149 -0.08142538 -0.04768838 -0.026825907 0.11492933 -0.052114554 -0.083253756 -0.23247936 -0.08003428 0.083776906 0.05169134 -0.0056812335 0.16039704 -0.33963785 0.0313484 -0.14882278 0.27579582 0.070507206 -0.06061299 0.082830645 -0.15180524 0.14139828 0.048496913 -0.021035831 -0.009713907 0.18908535 -0.14798346 -0.10298706 0.2328607 -0.032730818 -0.005490568 -0.06669615 0.009806175 0.09076804 0.081168175 -0.36861092 -0.09694138 -0.003682233 0.08984266 -0.03292556 -0.014850657 -0.16533756 -0.051796827 -0.023146996 0.223213 0.1126001 -0.18813613 -0.041441873 0.023932474 -0.0019084647 0.06835996 -0.0010394439 -0.21475567 -0.019584151 0.22801028 -0.18102354 0.24440008 0.060116045 0.22564587 -0.31070957 -0.13506494 0.015763562 -0.0012459669 -0.004131361 0.18356094 0.038601764 0.11197133 -0.017277826 -0.0862869 0.12683646 0.06506824 -0.15817827 0.0052042515 0.06846806 -0.32810462 -0.40923125 0.033484872 -0.14251535 -0.20363213 -0.1948866 0.011067303 0.18508944 0.10666247 -0.21304259 -0.22459601 0.058887247 0.050818216 0.16518554 0.022083996 0.0118519245 -0.037765615 0.13861147 -0.0103342775 -0.044381365 -0.06872645 -0.13730586 -0.27448305 -0.1110956 0.061642043 0.03725947 -0.157621 -0.029618248 -0.043307997 -0.11562769 0.024481833 0.12979901 0.02314716 0.0010624162 -0.2597187 0.15410712 -0.023682203 -0.1889085 0.1530403 -0.012988496 -0.117725946 0.18658409 -0.0069829617 0.13479817 0.05016302 -0.27584442 0.24293602 -0.0061822617 0.28974032 -0.093974255 -0.12126868 -0.05685948 0.03036955
31 0.00871251 0.10798306 0.15047179 0.17702912 0.022642434 -0.007923836 0.0035169232 -0.06749122 -0.06338956 -0.18198065 -0.04383556 0.014322465 -0.06947351 0.053545456 -0.08525533 -0.026478404 0.068130404 0.24916495 -0.022846052 0.16739982 -0.18723801 -0.23668742 0.050173186 0.06937473 -0.028222121 -0.05698916 0.09641224 -0.12532263 0.013672333 0.010361545 -0.04368751 0.062995866 0.012724941 0.32744595 -0.013762446 0.16399777 -0.123063035 -0.10616974 0.025303815 -0.01201929 -0.057041153 -0.109630264 -0.09250144 -0.0028191458 0.015250735 -0.05787168 0.10529675 -0.09022347 -0.040165313 0.16217111 0.0049855257 0.054884374 0.068780854 -0.053857718 0.06837818 0.24830379 -0.094845556 -0.005516237 0.21242961 0.27406448 -0.2970173 -0.18716206 0.010770674 -0.15108943 0.0662441 0.13586092 -0.07537956 0.13985914 -0.029062161 -0.09298891 -0.004335217 0.033447888 -0.04900918 -0.12599511 0.28690723 -0.15194154 -0.045360073 -0.04642261 0.13509287 -0.025389101 0.025610616 0.13655142 -0.012479421 0.23487529 -0.11445963 -0.00034421403 -0.02778905 0.11127249 0.32455063 0.012190076 -0.15381213 0.10811962 0.12678288 -0.21476372 0.018700676 -0.0038150558 -0.08820294 -0.23229511 -0.0022269175 0.07364336 0.011868715 -0.056829546 0.08106491 -0.01663658 -0.15057628 -0.014540967 -0.058077816 -0.016161958 0.0070797056 -0.08501777 -0.0010626274 0.027142998 -0.2136568 0.061132494 0.023797844 0.06301808 0.147607 0.017502798 0.1744507 0.10450707 -0.08853953 0.19530281 0.15831456 0.03286639 -0.07509155 -0.16122167 0.048171844 -0.027962787
2 0.13979426 0.0818343 0.09140409 0.20068029 0.1574279 0.11182742 0.20552649 -0.25608218 -0.14204174 -0.051660184 0.035270266 -0.10189682 -0.22753225 -0.0462661 -0.020074163 -0.06849496 0.15071477 0.2649825 -0.13354781 0.14195214 -0.30687833 -0.3313498 0.058911134 0.079035915 -0.018742707 0.035945684 0.1824485 -0.16295564 -0.07443555 -0.023213454 -0.2727619 0.08800051 0.019690773 0.31615627 0.0075774165 0.20544028 -0.1919531 -0.2272833 -0.09924957 -0.03244106 -0.13519761 -0.064759254 -0.045641225 0.11410597 -0.028352398 -0.106275454 0.13431704 -0.0154101495 -0.19853607 0.11279563 0.12899505 -0.054830115 0.045074515 -0.19625461 -0.11123538 0.25098616 -0.02552877 0.1218703 0.031217191 0.24679774 -0.16586135 -0.3801578 -0.035850987 -0.21081775 0.0074411146 0.33409148 0.07781739 0.27695805 -0.20237797 -0.04168629 0.09977806 -0.13836035 0.05854841 -0.12919621 0.16600965 -0.00087359553 0.21653973 0.1916004 0.05447154 -0.1155503 0.0715261 0.14580977 0.02543929 0.35951015 0.042173017 0.103444055 0.32468438 0.28044477 0.32707694 -0.053949755 -0.13300078 0.0365988 0.21194565 -0.22965692 0.17652251 -0.051950548 0.026069224 -0.22803375 -0.012747294 -0.012305759 -0.091106094 -0.10087221 -0.15410097 -0.045221362 -0.03570411 0.08435097 0.009719415 -0.10530353 0.02999625 0.025159465 0.022556234 -0.05829043 -0.06719305 0.077696264 0.101832256 -0.09015181 0.1537066 -0.23324993 -0.018357519 0.100509174 -0.055285722 0.07450374 0.31066874 0.17608733 -0.030105138 -0.29216105 0.012193802 0.07766541
3 0.10573061 0.04963335 0.106261015 0.18828985 0.15169829 0.08930361 0.17645644 -0.23635168 -0.14782229 -0.04878908 0.06824385 -0.112158224 -0.20966545 -0.0149704255 -0.039335858 -0.075025335 0.12737586 0.28627792 -0.10679833 0.14914805 -0.28658757 -0.3477526 0.07117779 0.09544217 -0.02098708 0.021535683 0.1805797 -0.17199701 -0.07570867 0.012921587 -0.2567643 0.048309498 0.026726391 0.30228114 0.023175731 0.19178574 -0.20713425 -0.2369666 -0.10151192 -0.06408926 -0.1315478 -0.057068646 -0.07496316 0.10555621 -0.046229634 -0.04827254 0.1242689 -0.015861908 -0.19962208 0.08969435 0.1316691 -0.04588703 0.024318988 -0.20241183 -0.11799197 0.2828065 -0.06857347 0.15359923 0.044851866 0.289011 -0.16764118 -0.35328627 -0.044707976 -0.1799897 -0.013902898 0.31443167 0.07716947 0.25378633 -0.18969966 -0.047444925 0.10460475 -0.14213134 0.031005956 -0.13264483 0.18081369 -0.022176245 0.1680013 0.15651582 0.086206205 -0.13714112 0.046072762 0.11160208 0.054620713 0.38524303 0.032723792 0.11136323 0.30500615 0.24683739 0.34915435 -0.055254612 -0.13403346 0.030016974 0.21900058 -0.21539357 0.15840547 -0.03168242 0.04983349 -0.2624917 -0.027720915 0.010955066 -0.044944476 -0.09325676 -0.13392136 -0.058395397 -0.062641576 0.06622107 -0.0021733074 -0.10094733 0.039611474 0.002138071 0.02166597 -0.04743613 -0.08094315 0.085070506 0.06138041 -0.10134106 0.1280136 -0.2242724 0.0060976013 0.10787357 -0.0655392 0.09300656 0.31377846 0.17245567 -0.04250325 -0.2938216 -0.009098025 0.10033333
43 -0.026199542 0.0067042536 0.09179747 0.084228255 0.010880827 0.07925763 -0.069239594 -0.06750782 -0.04372348 -0.08346923 0.05597373 0.0010102543 -0.029258559 0.07106615 -0.064140506 0.05588204 0.06480567 0.2746654 -0.0496311 0.14959295 -0.12703046 -0.24390928 0.114422694 0.00158287 -0.07568637 -0.01382618 0.11064901 -0.09951355 -0.008542071 -0.055592313 -0.07167864 0.11660156 -0.07594831 0.25187817 0.0033997584 0.10074938 -0.22189866 -0.06321536 -0.053733338 -0.06422891 0.024557237 -0.084923945 -0.060164236 -0.025494846 -0.05793237 0.057667043 0.14103588 -0.111699626 -0.012516715 0.12746525 -0.018168781 0.082605995 0.075775884 -0.0015710788 0.058633696 0.19729826 -0.034140863 0.06593596 0.16223562 0.32815167 -0.31240687 -0.17128445 0.022523422 -0.10864184 0.03655556 0.108339645 -0.13787277 0.110106796 -0.06789977 -0.1796046 0.0073293755 0.093456745 -0.09360001 -0.055318594 0.2297134 -0.11032079 -0.09992404 -0.052135393 0.021347873 -0.055322304 -0.02763872 0.06523362 -0.051098503 0.19857836 -0.02770029 0.029516922 0.023671659 0.040882424 0.24290758 -0.04451525 -0.08532289 0.063540876 0.22392966 -0.16187868 0.08571596 -0.0058956905 -0.09895683 -0.1605581 -0.05124902 0.108769044 0.032532953 -0.07326476 0.06343744 -0.02045938 -0.020147637 0.0035470284 -0.0048255106 0.07469706 0.053897154 -0.14806634 0.016563218 0.008538163 -0.21091047 0.03885081 0.05609325 0.061229583 0.09632265 -0.060604118 0.11168609 0.09581117 -0.033411913 0.15944058 0.10019124 0.026439616 -0.11334058 -0.14386238 0.070891425 -0.014044503
39 -0.05740324 -0.06398355 -0.14038381 -0.07468747 -0.055869583 0.16481465 -0.066833034 -0.11725616 -0.2543066 -0.021320704 0.047251675 0.061355866 0.0005142435 0.17595114 -0.35470656 0.1581794 -0.09930857 0.30745062 0.005990561 -0.07323619 0.068538524 -0.12769443 0.14647296 -0.07815989 -0.0064079207 0.06045019 0.20959094 -0.16767368 -0.125333 0.11705081 -0.07022917 0.090568654 -0.11584216 0.07036655 0.0482145 0.047412787 -0.35155123 -0.054145575 -0.02532872 0.16243628 0.00012629792 0.013781291 -0.0753968 -0.064503826 -0.0634446 0.13921797 0.13418914 -0.21230125 -0.01012731 0.06803948 -0.029959127 0.054216802 0.041079402 -0.16148461 0.030184068 0.12391217 -0.0508985 0.177105 0.032353826 0.20769991 -0.33145422 -0.20389725 0.05852449 -0.055193804 -0.014266404 0.1401042 -0.018135987 0.12367448 -0.04360242 -0.17769857 0.12549579 0.12618043 -0.11518568 0.07262014 0.10734465 -0.2846998 -0.34909916 0.07068651 -0.24779616 -0.17858106 -0.18857108 0.027273618 0.04633698 0.05462054 -0.10194701 -0.22183509 0.103035875 0.066968895 0.03544732 -0.020463968 -0.03280106 -0.014587256 0.17375469 -0.012557847 0.021591924 -0.14155014 -0.20193955 -0.19592582 -0.09523481 0.051578 -0.0010406165 -0.1793466 -0.02995647 -0.03290077 -0.02092796 0.06590626 0.14375134 0.08040875 0.019829787 -0.24484424 0.18818742 -0.05023517 -0.1900919 0.10001694 0.053465392 -0.0814757 0.16136624 -0.02654824 0.0772019 0.03515403 -0.2118747 0.17672507 -0.02499628 0.2627681 -0.12036945 -0.101875044 0.011837945 -0.01891216
42 -0.0061015054 0.06865771 -0.07746221 0.00023462868 -0.05018238 0.120779075 -0.01532367 -0.141914 -0.19768639 -0.025509467 -0.032964353 0.06133095 -0.02668316 0.1211876 -0.24544561 0.17457587 -0.01714785 0.26252067 -0.07933789 -0.01069469 -0.046018317 -0.14599806 0.10372133 -0.10612587 0.020616291 0.074530184 0.17717756 -0.15685505 -0.11709885 -0.0023545357 -0.07552237 0.13242608 -0.081425264 0.1713919 -0.008956391 0.0914221 -0.23026791 -0.043546747 -0.0008982334 0.13645247 -0.01556893 0.005099492 -0.025938004 -0.021597156 -0.047172546 -0.017408883 0.11355019 -0.15311727 0.0033682324 0.12696102 -0.02447472 0.034615047 0.0715023 -0.09374292 0.08680634 0.071343936 0.030955225 0.059033494 0.05267619 0.1753598 -0.30242598 -0.2239055 0.062349744 -0.11683384 0.0025932272 0.09462592 -0.04603334 0.12965675 -0.049425807 -0.17103522 0.07817884 0.07158165 -0.034923345 0.024946107 0.17092541 -0.18498199 -0.1669746 0.07328634 -0.15842849 -0.09348906 -0.09333419 0.09136147 -0.05108788 0.0788758 -0.047287304 -0.1305431 0.078261286 0.09361067 0.042202413 -0.03591118 -0.097874545 0.06390668 0.15634903 -0.10035286 0.050471846 -0.14022085 -0.18266712 -0.12598532 -0.06020857 0.04991831 -0.033119846 -0.15460448 -0.017494833 -0.022745531 0.006128595 0.04309817 0.054863535 0.093567654 0.004877739 -0.13204394 0.12016969 -0.042707503 -0.1713262 0.047529727 0.06947797 -0.018918566 0.15803392 -0.0029154988 0.07440852 0.05611656 -0.10650922 0.12480138 0.03883633 0.16845758 -0.108730495 -0.10695518 0.07199525 -0.07170176
72 0.034154564 0.0049507287 -0.014659867 0.07003408 -0.025861338 0.09788676 0.027241608 -0.17047155 -0.16716115 0.012131463 0.02879336 -0.017668357 -0.044146325 0.119888104 -0.15215789 0.13404 0.032986194 0.26995948 -0.12281073 0.03343398 -0.15561137 -0.23907372 0.10233404 -0.061000694 -0.023189142 0.08929769 0.19475095 -0.13249399 -0.11699335 -0.04341551 -0.12110747 0.07966609 -0.07415813 0.16776103 0.013697926 0.081397414 -0.2476588 -0.077122144 -0.032118075 0.044910535 -0.014155153 0.017198589 -0.008005031 0.02120547 -0.102621086 -0.0008885848 0.1307766 -0.09351427 -0.017730033 0.09907063 0.030035436 0.012177439 0.05373568 -0.093592905 0.05467624 0.13099651 0.020512491 0.095266946 0.09522141 0.2088702 -0.2579428 -0.24607639 0.06611378 -0.08892282 -0.028640538 0.12485535 0.0011245436 0.14343604 -0.08311809 -0.15886001 0.08193133 0.017496899 -0.0010426359 -0.008202396 0.17932647 -0.121824086 -0.10815103 0.08033295 -0.072954476 -0.11783306 -0.05679954 0.085654326 -0.047076453 0.17875504 0.029084733 -0.02268626 0.14392805 0.07995474 0.12439689 -0.047384482 -0.103664555 0.08922237 0.18889599 -0.14177717 0.105778895 -0.13745594 -0.10330952 -0.17787808 -0.055641685 0.064696915 -0.013027284 -0.16490948 0.015311745 -0.06699708 0.017064352 0.043998856 0.037583392 0.11463115 0.06864987 -0.08797855 0.08464972 -0.05785145 -0.15400621 0.044082038 0.052648626 -0.03590537 0.14306131 -0.044984452 0.06545157 0.10006686 -0.030654848 0.08951954 0.121276155 0.16092008 -0.11812024 -0.15434802 0.06785807 -0.010061717
47 0.17745452 0.14974123 -0.23244244 -0.090312764 -0.10161867 0.26883972 0.00778334 -0.2621734 -0.2151763 -0.06168392 -0.11888307 0.0873605 0.035127588 0.07173344 -0.2684972 0.24506928 0.06618562 0.4435257 -0.031094717 -0.061717633 0.0094561875 0.032068558 0.16762093 -0.3138749 0.080664165 0.15295482 0.2856422 -0.11156742 -0.18714418 -0.18402183 -0.11778087 0.28443396 -0.18255305 0.24345855 -0.044256806 0.06677665 -0.23791629 0.0072930376 0.04874252 0.34422523 -0.016731365 -0.019000998 0.15968007 -0.03571023 -0.015612689 -0.18652722 0.23860417 -0.25642377 0.0029381674 0.1535348 0.0013794379 0.08610523 0.009126433 0.04160186 0.04857258 -0.093327664 0.17159753 -0.1010266 0.118506014 0.07755681 -0.38479665 -0.46001384 0.072141655 -0.28381145 -0.016424807 0.17432526 0.032302964 0.1366736 -0.052814294 -0.23619103 0.05466951 0.24470332 0.0066640307 0.20018435 0.206891 -0.2993985 -0.08228083 0.19131698 -0.5169733 -0.09804749 -0.048025843 0.14320213 -0.2121239 -0.076339215 -0.011324044 -0.24719882 0.26560196 0.25736952 -0.048198897 -0.08758463 -0.13318443 -0.008519426 0.2045853 -0.087784834 0.17329806 -0.30143765 -0.33889693 -0.040559098 0.03152222 -0.036120005 -0.216093 -0.31028557 -0.05944175 0.057047214 0.10296441 0.20442757 0.24634857 0.07493883 -0.0017131818 -0.09099133 0.34625584 -0.08109443 -0.27213916 -0.03927149 0.24099822 0.06365363 0.18277958 -0.09271141 -0.05186255 0.052602123 -0.17561917 0.05608131 -0.12729906 0.15689829 -0.10220217 -0.046086263 0.19987229 -0.20923293
44 0.08553215 -0.04271777 0.054028448 0.1296515 -0.05446917 0.10786645 -0.0081957 -0.16387464 -0.053607557 0.024085112 0.071977824 -0.05466885 0.0029320528 0.10338797 0.015251875 0.16557042 0.11088005 0.28702956 -0.18699941 0.10206668 -0.28938016 -0.30568022 0.11065896 -0.07661132 -0.116014466 0.11464646 0.17774956 -0.05735526 -0.08512067 -0.21984595 -0.11663444 0.13091046 -0.13148157 0.18346186 -0.0071038906 0.061127536 -0.24086449 -0.03132704 -0.049131528 -0.04160367 0.049313292 0.005655463 0.08817771 0.018510131 -0.16043591 -0.018727006 0.19455709 -0.039020155 0.046720255 0.13165793 0.024716213 0.010924215 0.069099784 0.033106346 0.096863285 0.11407163 0.1112607 0.037305202 0.20109111 0.22537905 -0.27004027 -0.24415559 0.12581119 -0.084470525 0.021551786 0.12387514 -0.05378511 0.13419758 -0.10137163 -0.21284354 0.007511024 0.07784334 0.028010583 0.00022307204 0.21297705 -0.030299863 -0.057433005 0.043493226 -0.03989681 -0.071821354 0.006798745 0.10814526 -0.17104204 0.1830138 0.13868476 0.08789645 0.1407196 0.042206097 0.15263236 -0.08174085 -0.08577159 0.15073293 0.2445484 -0.21271463 0.20203492 -0.14608267 -0.121175 -0.14134401 -0.03544747 0.112433605 -0.048227966 -0.16996518 0.15693218 -0.10046317 0.11036165 0.055990618 0.024936775 0.24506825 0.13220423 -0.054487552 0.034747727 -0.063873574 -0.18383935 0.01593572 0.10203877 0.046926633 0.13800731 -0.07090331 0.045304798 0.14932024 0.106394924 0.049459223 0.15601942 0.06819411 -0.13918011 -0.1506809 0.15163136 -0.0382097
52 -0.13101561 -0.1956425 -0.102777995 -0.105185024 -0.022089059 0.136707 -0.108199626 -0.06278717 -0.24886799 -0.016591625 0.17136481 0.007257317 0.024933344 0.20859562 -0.358456 0.09402548 -0.1392967 0.32213297 0.07020584 -0.056211043 0.113172695 -0.19420998 0.17499433 0.0058717937 -0.048821416 0.018210262 0.20840958 -0.1654532 -0.099401735 0.22650135 -0.07832782 0.009759373 -0.113689505 0.015440922 0.101772346 0.02536336 -0.42870173 -0.089938976 -0.06721058 0.054282196 0.022409797 0.0015141062 -0.14589986 -0.078567445 -0.093024485 0.31008285 0.13894998 -0.21712458 -0.031209659 0.00829493 -0.0137422085 0.085837215 -0.006948249 -0.19239786 -0.0204782 0.23786923 -0.16568102 0.28590474 0.0412174 0.31444362 -0.3375559 -0.15403815 0.025939975 0.014470171 -0.044505943 0.15988 -0.025191871 0.08395548 -0.04474445 -0.17342122 0.13767187 0.12759502 -0.20803156 0.052142277 0.087089896 -0.3293423 -0.44880855 0.0017256951 -0.19069003 -0.24093708 -0.25185907 -0.04818114 0.16079125 0.11123605 -0.13034898 -0.20011584 0.09196722 -0.0054210294 0.13300991 -0.014938936 0.02319896 -0.0697516 0.21660462 0.031866577 0.0010839468 -0.07026256 -0.13049406 -0.28641555 -0.1340372 0.075129226 0.088948235 -0.15811346 -0.016156837 -0.057404097 -0.062483545 0.03473951 0.16542964 0.0632777 0.059327748 -0.31992137 0.173553 -0.036784407 -0.2210119 0.14743236 -0.014767782 -0.13487808 0.11155321 -0.051768728 0.11352104 0.052036636 -0.24488167 0.23040935 -0.019271336 0.28163558 -0.13562202 -0.12093741 -0.057086106 0.061772436
74 0.051813398 0.16494039 -0.11702038 -0.033642035 -0.081083246 0.16082984 -0.0016523433 -0.16954634 -0.22730938 -0.18146838 -0.14966516 0.11971152 -0.01626601 0.098637156 -0.34432715 0.15531148 -0.03693562 0.33592233 0.020473411 -0.050594117 0.004594833 -0.020462034 0.08005235 -0.14545606 0.069286354 0.046317417 0.2009748 -0.13887466 -0.112038866 0.038859494 -0.04566609 0.16844827 -0.09898081 0.21253128 -0.022652686 0.1535435 -0.24194986 -0.019926203 0.091728956 0.28853807 -0.054046597 -0.05787769 -0.013361552 -0.05442348 0.050366595 -0.10583678 0.1649727 -0.2537306 -0.013869897 0.17616023 -0.023830049 0.06324198 0.04659292 -0.092832476 0.08430334 0.050858535 0.016353138 -0.042473257 0.1190295 0.096153386 -0.37527335 -0.34139103 0.05254911 -0.19914562 0.049422316 0.18600285 0.020571345 0.16718325 -0.009813826 -0.14636959 0.041032746 0.16901878 -0.04607102 0.057372678 0.2323097 -0.33299747 -0.21469663 0.10150679 -0.2850682 -0.083618745 -0.07207986 0.15355934 -0.0723163 -0.012890321 -0.16451605 -0.2950374 0.07245665 0.22088923 0.07925808 -0.017694917 -0.13357398 0.04088814 0.097670555 -0.09852479 -0.0009404365 -0.19475602 -0.3048834 -0.1457861 0.0048111463 -0.020448392 -0.13373843 -0.22687888 -0.0056781424 0.04785775 -0.0770582 0.10258943 0.16269788 0.023587996 -0.05760208 -0.15087137 0.23881009 -0.0380715 -0.2795707 0.054796454 0.13948123 0.031631943 0.26173916 0.015573626 0.09004653 0.05091471 -0.27738345 0.21009494 -0.054840926 0.21206917 -0.06438123 -0.07456142 0.110395975 -0.15512836
73 0.055154223 0.14778931 -0.1415913 -0.05878536 -0.07648373 0.21251042 -0.0114929965 -0.16368634 -0.21572965 -0.18260111 -0.13278668 0.12722355 -0.017355058 0.08225804 -0.3380576 0.16197015 -0.032238327 0.33331132 0.016079184 -0.061642263 0.025905466 -0.009533812 0.08925537 -0.15199143 0.046765853 0.0377424 0.19531752 -0.11575718 -0.1092454 0.011912904 -0.040913682 0.19433849 -0.1214059 0.18214545 -0.028072253 0.14372553 -0.26626918 0.0014368267 0.07335172 0.29069066 -0.032268777 -0.061250802 0.004796562 -0.06886725 0.05690984 -0.08003203 0.17251514 -0.2715373 -0.013707858 0.18017979 -0.036349304 0.0641109 0.04967358 -0.06642934 0.071354516 0.03294652 0.039342597 -0.03181007 0.11036284 0.0866615 -0.37371552 -0.34001693 0.059485607 -0.20056774 0.064470865 0.19198906 0.008323925 0.17523062 -0.026661277 -0.1561221 0.025307097 0.20924363 -0.06428729 0.076086424 0.19936499 -0.32483873 -0.21732935 0.10390008 -0.3347899 -0.0863737 -0.08167396 0.13683313 -0.07683999 -0.05171713 -0.15786701 -0.3008987 0.0957453 0.21885124 0.053936522 -0.030212194 -0.103480384 0.022312285 0.11346583 -0.08209895 0.014101669 -0.19555439 -0.32181412 -0.11654565 -0.0035758503 -0.026292708 -0.15692237 -0.22524367 -0.016202386 0.04869908 -0.035370927 0.12727363 0.19567306 0.03138744 -0.060250282 -0.16498381 0.2608984 -0.042724468 -0.2752326 0.04671059 0.16879578 0.038399346 0.26940864 -0.008966188 0.06258967 0.036688622 -0.2809927 0.20906664 -0.08208971 0.21034811 -0.058980677 -0.07246465 0.11920934 -0.15071067
56 -0.042446293 -0.08945348 -0.053564638 -0.02041614 -0.014282264 0.10141047 -0.040638298 -0.10427846 -0.20645383 -0.052484795 0.08633412 0.017097717 -0.008990241 0.15304168 -0.28128323 0.05469891 -0.06981331 0.29296726 0.03312479 -0.020401638 0.015012016 -0.18242332 0.13640705 0.023836236 -0.028584702 0.020771094 0.18814673 -0.15019827 -0.09949733 0.1460225 -0.067265294 0.016809449 -0.061185643 0.070124365 0.07220143 0.078153506 -0.3321399 -0.105294205 -0.014510553 0.059225995 -0.031470086 -0.016500968 -0.118980005 -0.034818906 -0.052161623 0.17358178 0.1191017 -0.16296488 -0.046894208 0.038471624 0.015695198 0.06623425 -0.0009914052 -0.16973305 -0.008301783 0.21468994 -0.12820417 0.20563763 0.07933459 0.23911719 -0.3001991 -0.1769821 0.011832161 -0.038933683 -0.020904496 0.15945053 0.019972572 0.10276581 -0.03698374 -0.11302347 0.12228695 0.048549138 -0.12891471 0.00784591 0.11287358 -0.2696472 -0.31073758 0.03828714 -0.11573338 -0.17686303 -0.14723659 0.028666692 0.11547675 0.14310066 -0.13434395 -0.15270805 0.09706978 0.056186512 0.16986623 -0.010889389 -0.03355601 -0.01474563 0.17488673 -0.03753266 0.005373708 -0.08003226 -0.11616519 -0.2485943 -0.08419454 0.06348296 0.043787226 -0.15931349 -0.0178975 -0.05239142 -0.081256896 0.025765093 0.10964918 0.04055335 0.025822878 -0.21545845 0.12732063 -0.027082607 -0.19463395 0.11733958 -0.004730728 -0.09714544 0.15157707 -0.033723865 0.11320075 0.08046315 -0.20633054 0.20436932 0.034542542 0.23721808 -0.11104131 -0.13487777 -0.01869721 0.02981225
30 -0.027749833 0.044383332 0.28628233 0.23518184 0.050327428 -0.054698765 -0.068504564 -0.023012942 0.015073892 -0.19640449 0.046993293 -0.042272534 -0.055091698 0.0626446 0.0068408754 -0.07394586 0.12569664 0.2917402 -0.019753683 0.27803952 -0.26591846 -0.3556136 0.075911224 0.13109371 -0.10654859 -0.08838233 0.070220254 -0.12798914 0.07335027 -0.018409949 -0.053751197 0.06746778 -0.0113545675 0.41266885 -0.007705393 0.16554634 -0.15160465 -0.13513993 -0.03811774 -0.16112472 -0.020561157 -0.17191248 -0.120454706 -0.012969508 -0.038977377 0.02714946 0.12778112 -0.0647664 -0.033026684 0.17708889 0.0026566363 0.10363147 0.07763598 -0.014303163 0.06891809 0.36094344 -0.14481862 0.025144795 0.29392785 0.43167993 -0.3494688 -0.15162273 -0.0018019831 -0.14113332 0.06928166 0.12984861 -0.16774844 0.12248848 -0.049002144 -0.14583327 -0.024148604 0.0610777 -0.09585227 -0.1795544 0.35449433 -0.112657644 -0.032072727 -0.14330375 0.26334757 -0.02427453 0.043152735 0.11271934 -0.021649549 0.35993496 -0.086120114 0.12439608 -0.06632899 0.053682204 0.46458834 -0.0022708857 -0.16102815 0.11635646 0.22193737 -0.263604 0.052406035 0.07634436 -0.044343274 -0.2942919 -0.008852142 0.1377782 0.08864965 -0.0130664585 0.15085714 -0.040028214 -0.16328757 -0.047330853 -0.10759851 0.0052830707 0.05891893 -0.12421385 -0.090186544 0.05578103 -0.26316085 0.06393088 0.0053988304 0.10356198 0.09020375 -0.012240939 0.22054996 0.15669802 -0.022266146 0.22661564 0.22528985 -0.06595165 -0.11413147 -0.19507812 0.04218567 0.01702234
12 0.014466219 0.019299513 0.12513724 0.13872856 0.03037195 0.058575694 -0.01634859 -0.08734372 -0.049427338 -0.09635681 0.047453668 -0.024286482 -0.05896875 0.0555385 -0.03836646 0.023095656 0.095407836 0.2734489 -0.06500708 0.16538383 -0.191804 -0.27536315 0.0875332 0.03226108 -0.073576406 -0.009698201 0.11302647 -0.10194239 -0.009201818 -0.06131457 -0.095335834 0.10386855 -0.048238475 0.28444606 0.0009103022 0.12432342 -0.19417875 -0.09524517 -0.045872387 -0.06923235 -0.00260257 -0.08912043 -0.04987766 -0.0028786112 -0.049329218 0.015686132 0.14414066 -0.08140753 -0.038157757 0.14068751 0.0049133217 0.05333944 0.07452161 -0.02680363 0.039344043 0.22537312 -0.045254927 0.052637484 0.17962323 0.31412804 -0.28850386 -0.19228166 0.02623601 -0.12314209 0.04867805 0.14240444 -0.10407792 0.1384458 -0.08224402 -0.15179318 0.009207802 0.050340217 -0.06137012 -0.08878369 0.23923676 -0.09094326 -0.036026835 -0.02484416 0.07416337 -0.049658295 0.005230051 0.09162221 -0.03986262 0.24914654 -0.015645394 0.062558375 0.048342995 0.076085374 0.2868519 -0.03928511 -0.101838455 0.08511049 0.21025613 -0.19969732 0.09500996 -0.013653323 -0.07027991 -0.19380932 -0.028665243 0.09949584 0.009340927 -0.070295 0.065939054 -0.042569384 -0.051526703 0.004913052 -0.017038392 0.04959378 0.055748288 -0.109309584 -0.004153539 -0.00039385998 -0.1963669 0.04685302 0.05576141 0.052168097 0.106977455 -0.07096404 0.11180053 0.11837497 -0.022909166 0.15130378 0.1622344 0.030283477 -0.103178866 -0.1708812 0.06607444 -0.0016957114
33 0.03433813 0.022677578 0.013149182 0.0667756 0.044857737 0.1537327 0.022527901 -0.15186518 -0.09609385 0.0013392016 0.064160556 -0.028721083 -0.085062146 0.03751539 -0.05249605 0.101316765 0.09443576 0.2571117 -0.11697332 0.098286346 -0.14691873 -0.2291597 0.11397762 -0.05607675 -0.051613808 0.05021276 0.13727427 -0.10285081 -0.0627572 -0.10859691 -0.15003867 0.14125246 -0.078199424 0.21694992 -0.0026442395 0.08623015 -0.22366709 -0.07507094 -0.09082724 -0.0127665205 -0.0026336596 -0.027057774 0.0046065245 0.018027093 -0.07522306 -0.00503674 0.14325547 -0.08605032 -0.050896663 0.110280395 0.017316345 0.019993527 0.0764387 -0.031937774 0.010012572 0.116922244 0.056233294 0.08249829 0.05530748 0.24805985 -0.23541553 -0.25030532 0.02748302 -0.13096978 0.011016173 0.15757333 -0.06763021 0.16250242 -0.13874693 -0.168727 0.04396806 0.036211632 -0.02712558 -0.025042342 0.16044648 -0.042859983 0.013678737 0.07316627 -0.07635879 -0.075781435 -0.016314644 0.06348611 -0.06777673 0.17554739 0.06228751 0.050734892 0.17332825 0.10853073 0.15057118 -0.07519819 -0.08080281 0.040159527 0.23746619 -0.14655145 0.15424192 -0.065440506 -0.08104675 -0.104211256 -0.05450849 0.058811683 -0.033218343 -0.107606314 -0.033188276 -0.02604889 0.06785798 0.05752037 0.035786558 0.06430881 0.058287993 -0.0839045 0.04825832 -0.035786018 -0.1264309 0.025837902 0.10640614 0.0051579587 0.09955392 -0.13991474 0.007062174 0.07623619 -0.002307897 0.071198866 0.12679784 0.09412804 -0.08609307 -0.1569012 0.08255668 -5.065807e-05
50 0.0015348531 -0.010174583 -0.048531678 0.013226223 -0.003738718 0.1309044 -0.0019078502 -0.13404086 -0.18398628 -0.033041265 0.047623366 0.010026709 -0.045142293 0.10826859 -0.21236333 0.09751494 -0.0007335399 0.28363466 -0.037694827 0.008973362 -0.050518464 -0.18335578 0.11751826 -0.03664097 -0.010654003 0.050936807 0.17527483 -0.14209172 -0.10007807 0.034696452 -0.10349662 0.082767695 -0.073587015 0.14758603 0.030827858 0.09108795 -0.27116314 -0.08227705 -0.0372701 0.07109955 -0.027145775 -0.011633987 -0.05674996 -0.013257372 -0.05329065 0.061090034 0.12515251 -0.14487487 -0.045964293 0.080613926 0.010881089 0.04632256 0.031386577 -0.11919485 0.008623014 0.15023851 -0.03350136 0.1243241 0.057764452 0.21991916 -0.2794822 -0.23248696 0.027721634 -0.098098725 -0.012227536 0.1550158 -0.011761605 0.13846786 -0.070935756 -0.13938189 0.09127251 0.046854734 -0.06990363 0.009613975 0.15190002 -0.18697768 -0.15680271 0.07736692 -0.13248615 -0.12770835 -0.092504084 0.054261178 0.020159239 0.14232674 -0.05638276 -0.09334393 0.13606218 0.10302573 0.1283516 -0.035919193 -0.070058085 0.018055663 0.19343887 -0.08717318 0.065564275 -0.098081656 -0.1280456 -0.17492436 -0.061640088 0.043848164 -0.0069959657 -0.14856108 -0.03491066 -0.037672892 -0.013081971 0.05557512 0.07917738 0.051310096 0.02508092 -0.14812456 0.111815386 -0.035834815 -0.17707959 0.068902984 0.057726175 -0.052085254 0.1456448 -0.06803389 0.06516685 0.076942354 -0.13545811 0.14618912 0.06597143 0.18227309 -0.10925172 -0.14457603 0.038561396 -0.004199243
7 0.16869554 0.08432242 0.14486304 0.2667421 0.19237067 0.03786426 0.2818814 -0.3068035 -0.20546941 -0.052324142 0.03754946 -0.16368985 -0.28516153 -0.02332876 -0.04788913 -0.13572052 0.16224267 0.30389127 -0.14009963 0.16700643 -0.39895937 -0.4186351 0.035529606 0.15061763 0.00034528738 0.04126241 0.23154208 -0.2213056 -0.10812407 0.05972684 -0.32793283 0.009011834 0.06577073 0.3708341 0.02531934 0.25266957 -0.20486686 -0.329936 -0.09473324 -0.05178609 -0.20648311 -0.06220066 -0.0843668 0.16517815 -0.043543488 -0.1124937 0.117622666 0.016184667 -0.26425844 0.100516945 0.20054471 -0.08867101 0.0060089002 -0.3016189 -0.16564885 0.3460694 -0.1103824 0.16782384 0.054347586 0.28733107 -0.14870802 -0.44598654 -0.050509315 -0.2199438 -0.039429758 0.40130755 0.16693169 0.31010652 -0.22373189 0.003320304 0.16035345 -0.23104568 0.09727125 -0.174124 0.21204136 -0.027797082 0.25397354 0.22506967 0.14802106 -0.18305406 0.07808279 0.16743746 0.09191969 0.49527732 0.038661543 0.1346611 0.38782474 0.33253878 0.434057 -0.045043796 -0.18649867 0.044360016 0.20993021 -0.27326784 0.16975132 -0.062371742 0.09270827 -0.35374275 -0.0074930387 -0.024511905 -0.07195092 -0.109911814 -0.17518425 -0.084428765 -0.12054349 0.08348747 -0.009797155 -0.16610058 0.039171 0.057360962 0.02217109 -0.07042954 -0.06508156 0.10763433 0.052682254 -0.15466653 0.17524762 -0.25067833 0.013279696 0.14186914 -0.085496984 0.09251254 0.42883897 0.24285503 -0.031463068 -0.36891425 -0.045268945 0.1281353
46 0.20438287 0.164226 -0.27694666 -0.09299372 -0.13673894 0.27825922 0.015901037 -0.2990311 -0.27209046 -0.027488569 -0.13582076 0.09082888 0.0470285 0.104037195 -0.31595492 0.29088292 0.0551253 0.47513413 -0.06291488 -0.097622275 -0.0160768 0.022665055 0.17570503 -0.35613814 0.097348176 0.20232764 0.3339581 -0.13941741 -0.22652231 -0.20148443 -0.13017844 0.29661748 -0.20575655 0.2470174 -0.044144 0.06648261 -0.25600353 0.0015542381 0.06444794 0.39762592 -0.026489424 0.019782007 0.18775819 -0.03388925 -0.03451645 -0.21657768 0.25127295 -0.2723539 0.009569855 0.16226782 0.009661347 0.07429131 0.015437685 0.029057413 0.06797891 -0.12155343 0.20242037 -0.10553685 0.12265125 0.06999448 -0.4077354 -0.5055528 0.098288536 -0.30309796 -0.038319554 0.18491086 0.0623934 0.14998405 -0.0564664 -0.253473 0.08179543 0.2373137 0.043166112 0.23142269 0.2213516 -0.32629678 -0.10403338 0.22032067 -0.5671999 -0.122990556 -0.058999855 0.16531149 -0.23955274 -0.08503546 0.002426769 -0.27167898 0.29209638 0.271972 -0.09103388 -0.088765204 -0.15609299 0.010391212 0.21842688 -0.097470075 0.19160585 -0.3569609 -0.37747 -0.04992273 0.03946923 -0.042299524 -0.23506045 -0.35111 -0.052471362 0.04475768 0.11237676 0.22035308 0.24905296 0.11048173 0.013221223 -0.08103248 0.37930888 -0.09532984 -0.27827182 -0.04496268 0.24972121 0.05773937 0.19842945 -0.06460296 -0.04972264 0.0698774 -0.16628486 0.029032778 -0.13437736 0.18123558 -0.10852319 -0.045513093 0.22536488 -0.22503768
5 0.19554898 0.08868526 0.14531288 0.28568372 0.22975782 0.06258343 0.3295896 -0.35459432 -0.21666381 -0.029003492 0.05593645 -0.18980053 -0.32145444 -0.046368696 -0.024136534 -0.14923988 0.19340307 0.30513453 -0.17293066 0.17534092 -0.43685248 -0.4546011 0.043692097 0.15618898 0.0028740657 0.04878865 0.24692638 -0.22679366 -0.12528467 0.04345774 -0.3859371 0.014259674 0.07456103 0.38429412 0.026154341 0.2664086 -0.2112133 -0.3535954 -0.1258353 -0.0663211 -0.2252176 -0.04814863 -0.07125713 0.19179268 -0.055549312 -0.13137847 0.11782387 0.031598806 -0.30052605 0.094810285 0.22959606 -0.110349365 0.0002584797 -0.32304776 -0.19906127 0.3519455 -0.08693483 0.19136356 0.018173214 0.29476097 -0.12086726 -0.49260598 -0.06528045 -0.24173282 -0.053692617 0.44036406 0.19741456 0.33915782 -0.26563817 0.0072011775 0.17933895 -0.2785873 0.11979148 -0.18564974 0.19780917 0.018121088 0.3279965 0.26785833 0.14973868 -0.19584696 0.09798638 0.16808918 0.09267487 0.53065944 0.0824411 0.17332068 0.45770374 0.36812514 0.4492232 -0.05533005 -0.19209296 0.039294098 0.23528582 -0.28222954 0.20886889 -0.06535575 0.12020235 -0.35055727 -0.008200953 -0.04015924 -0.08418317 -0.11476127 -0.22654526 -0.0901471 -0.09390861 0.106359996 -0.003487545 -0.1831234 0.049875952 0.089408055 0.013371174 -0.08324725 -0.030200982 0.109002404 0.07289665 -0.18375972 0.16985364 -0.3068693 -0.026147857 0.14453486 -0.0625114 0.06790022 0.46928692 0.26562765 -0.021280913 -0.39840233 -0.04393904 0.14972925
4 0.17169742 0.060388226 0.09604528 0.25513357 0.19748798 0.079090476 0.30717394 -0.3497913 -0.25345767 -0.008657757 0.062107977 -0.16955076 -0.29861242 -0.010063863 -0.08957465 -0.10718435 0.15189813 0.3169832 -0.16230865 0.12426544 -0.38951355 -0.43910664 0.05956032 0.13496816 0.012779402 0.065992564 0.26730207 -0.24500342 -0.14928864 0.0773873 -0.36755484 0.005916023 0.063598275 0.3418239 0.036431514 0.24741994 -0.25122327 -0.34031746 -0.11421403 -0.024293873 -0.21936053 -0.027548257 -0.07909586 0.17968869 -0.07068342 -0.10057684 0.12017279 0.0027440647 -0.2860708 0.08152256 0.21712422 -0.10169017 0.0034270273 -0.34547392 -0.17960417 0.3418714 -0.093297265 0.21364653 0.006968971 0.28369105 -0.14093727 -0.47757354 -0.05197575 -0.22131811 -0.06569288 0.42263004 0.20465294 0.33226573 -0.24847507 -0.0045755142 0.19553334 -0.2604408 0.10269683 -0.16364498 0.18232651 -0.02716823 0.2443687 0.27087453 0.09843115 -0.21536435 0.049970567 0.16233413 0.10428057 0.5015148 0.06278 0.11444522 0.45239806 0.34991035 0.40195572 -0.04884485 -0.18096578 0.03657739 0.22745973 -0.25143823 0.18759625 -0.0909899 0.094787665 -0.35744497 -0.02668701 -0.036142714 -0.078239605 -0.14619946 -0.22686014 -0.0961238 -0.093038954 0.100456506 0.0146364095 -0.14992805 0.051728915 0.054143704 0.042626392 -0.09507909 -0.04129729 0.11589654 0.05811751 -0.2059884 0.18778737 -0.2695784 -0.014939909 0.14226522 -0.09445486 0.0778554 0.43344438 0.30375415 -0.038057044 -0.3848167 -0.051896684 0.1435836
8 0.16346596 0.066135995 0.15837654 0.2794113 0.20696355 0.064050145 0.2665157 -0.31876191 -0.19971417 -0.038397737 0.0753315 -0.17322087 -0.28951785 -0.0229274 -0.028354978 -0.115251176 0.18813507 0.33501735 -0.1625067 0.18830739 -0.41865692 -0.46782166 0.0599061 0.14234985 -0.02159972 0.04520756 0.23960808 -0.22233684 -0.102829196 0.023717104 -0.35641682 0.03511174 0.052160572 0.4002177 0.025707072 0.24911708 -0.23895383 -0.32942772 -0.12213876 -0.08433397 -0.18758596 -0.06274248 -0.079637624 0.16282386 -0.073402904 -0.09891053 0.1375036 0.009883246 -0.26535082 0.11118304 0.19643484 -0.08059585 0.017373372 -0.27719837 -0.15813589 0.35659957 -0.082443394 0.18400356 0.061778206 0.34369624 -0.1780076 -0.46296114 -0.045558475 -0.2297273 -0.046227224 0.40418318 0.13629335 0.3222041 -0.24637097 -0.037297606 0.15858817 -0.22470921 0.0868489 -0.17701344 0.23845442 -0.0052399733 0.26792476 0.21875718 0.15110074 -0.18376076 0.0816884 0.15694301 0.06625539 0.518405 0.07245696 0.16829796 0.40583095 0.32176772 0.4539125 -0.06154591 -0.19246125 0.05086405 0.26602578 -0.28547168 0.20583428 -0.056897637 0.09518765 -0.35077474 -0.019895103 -0.0014726073 -0.055038743 -0.11592195 -0.17702429 -0.09231189 -0.09116492 0.08790026 -0.011571645 -0.13956024 0.06736669 0.04595807 0.010091208 -0.07898958 -0.08217866 0.10032279 0.06763025 -0.14501624 0.16147768 -0.28081572 0.004951297 0.15664718 -0.04670582 0.093017966 0.4516414 0.23476936 -0.05567975 -0.39164016 -0.022145176 0.13873051
1 0.1552591 0.049963802 0.10426497 0.22342001 0.2144158 0.11167157 0.2677104 -0.3078148 -0.19290543 -0.018913269 0.083854504 -0.1613418 -0.29015273 -0.046328086 -0.034214046 -0.11196236 0.16305614 0.30187458 -0.14679725 0.1539483 -0.35389313 -0.40594432 0.065322004 0.1250057 -0.018225279 0.04205093 0.21709988 -0.20203647 -0.10866797 0.027159251 -0.351415 0.046725363 0.038656753 0.32712048 0.026475381 0.225211 -0.23343591 -0.3065079 -0.1427682 -0.06766618 -0.18159166 -0.052917838 -0.06756475 0.15864044 -0.053032346 -0.07599574 0.13132131 0.0036406089 -0.263597 0.08348736 0.18756174 -0.08342247 0.010780988 -0.27718034 -0.18570545 0.31991342 -0.06765354 0.19799958 0.0014412357 0.29374045 -0.1399062 -0.4388878 -0.058169696 -0.21136095 -0.042016204 0.4017229 0.1436734 0.3181767 -0.25361332 -0.026030647 0.15730768 -0.21113357 0.072259836 -0.15557231 0.16451216 0.0039330265 0.25996897 0.23591262 0.08179958 -0.17722143 0.06511557 0.13073313 0.0886311 0.45621276 0.06364908 0.14707029 0.42605835 0.32543242 0.39129272 -0.061549395 -0.14576477 0.00882651 0.24562374 -0.23627624 0.20036802 -0.047584824 0.08992676 -0.2980626 -0.03268128 -0.028536519 -0.078059204 -0.11251324 -0.21634206 -0.07179284 -0.05006469 0.10302078 0.018946357 -0.15483475 0.04885135 0.040800624 0.029066356 -0.074912235 -0.037652772 0.10657075 0.082945466 -0.16371074 0.14937176 -0.30685827 -0.046209287 0.11943041 -0.070654936 0.07046137 0.38965017 0.24482724 -0.024928942 -0.35990995 -0.033914585 0.14020549
