77 128
11 -0.20721106 0.055613786 -0.16192359 -0.05917412 -0.11891218 0.08242917 0.055521905 0.067151554 0.16769618 0.2194981 -0.00043182785 -0.08946496 0.15883864 -0.14838627 -0.0320494 0.106884584 -0.19883414 -0.072017595 -0.0075609954 0.10133649 0.1419356 0.06792092 -0.011785419 0.03649414 0.2338754 0.027318826 0.0011125582 0.013648104 -0.01685449 0.19803335 -0.108853385 -0.016292578 -0.1279537 -0.18048465 -0.13229202 0.1018579 0.08277135 -0.015907845 0.023962377 0.10214268 -0.030430397 0.13402948 0.12852345 -0.099074274 -0.04665496 0.11254253 0.187406 -0.05499973 -0.06505767 0.14675969 -0.20249175 0.06369926 0.08635872 0.14290658 0.1767371 -0.051673837 0.116813615 0.15187274 -0.15504773 0.17968942 -0.03242009 0.19066685 -0.07298141 -0.25203812 0.24302785 0.087691374 0.017458921 -0.11620186 0.08300584 -0.006720454 -0.045945685 0.1035938 -0.11380589 0.048195932 0.17836596 0.09246104 -0.24283044 0.07159612 0.072721876 -0.06286354 0.035040118 -0.04047589 0.03720753 0.08759504 0.15576269 -0.09558382 0.0029666014 0.42406335 0.037322566 -0.022222204 0.05149215 -0.10780736 -0.07930781 -0.10497513 0.07084791 -0.014849672 -0.103687435 -0.11466965 0.26720423 0.12168738 0.0488707 0.019053359 -0.10064224 -0.07933013 -0.08349685 0.26695523 0.16647387 0.053510778 -0.08030725 -0.0754956 -0.12239644 -0.016555846 -0.104007185 -0.113886304 0.029098455 0.06955953 -0.06842048 -0.049934693 0.076747544 0.16769178 -0.0338572 0.053999864 0.0040040407 -0.050058797 0.03809229 -0.012953401 0.0019034941 -0.084713496
48 -0.099462405 0.30617836 0.05820641 0.15364839 0.20980445 0.09575724 0.16704434 0.021044828 0.17098342 0.07173131 0.052589655 -0.011598469 0.09709354 -0.18036117 -0.04462337 -0.12294171 -0.052194238 -0.084923334 -0.06712808 0.16163261 -0.03491267 -0.09613933 0.02543986 -0.15016532 0.34543 0.06193925 0.095067225 -0.15400903 0.20242079 -0.13620964 -0.366649 -0.13126224 -0.013294024 -0.09231592 -0.2810931 -0.15623789 -0.19105357 0.039982915 -0.13902853 -0.24085784 -0.08667363 0.07195215 0.07028408 -0.15325937 0.110484764 -0.09916624 0.032381862 -0.3142187 -0.2260424 -0.088391036 -0.2599578 0.01394264 0.18417217 0.18846865 0.050963312 -0.07742276 -0.28643462 0.23762359 -0.1444857 0.27935228 -0.15301953 0.046092663 -0.14143667 -0.0040175715 0.38835716 -0.044492558 -0.15749945 -0.37781337 0.102708496 0.07302907 0.026546476 -0.016714329 0.11132903 -0.040201135 -0.05309945 0.17216003 -0.14923066 0.16579391 -0.14005013 0.14352687 -0.24273072 0.11636302 -0.08557855 0.08626521 0.23703696 -0.13054706 -0.076790914 0.32691666 -0.00100107 -0.10347786 0.102795556 -0.020522699 0.19204043 0.03208407 0.007112392 -0.12538442 -0.0167706 -0.07563382 0.29303476 0.19520748 0.2048829 0.13215943 -0.13188961 0.14007851 0.10532324 0.18443869 0.27047464 -0.08927968 0.075480685 0.056536414 -0.016960556 -0.45308718 0.016868925 -0.03540301 -0.063836515 0.33496654 0.038397096 -0.106988214 -0.32372156 0.24618174 0.11990713 0.21034162 0.01816256 0.11933916 -0.054886952 -0.061029464 -0.03681627 -0.3178764
55 -0.13902317 0.08537425 -0.09539533 0.18635017 0.061852314 0.03179551 0.12052373 -0.03124779 0.18352494 0.21171674 0.006268294 0.181668 -0.08361145 -0.104738876 0.010843123 -0.13521123 0.029885482 -0.026803933 -0.058920193 0.035940994 -0.015623883 -0.02243672 0.060683858 -0.02705702 0.28993723 0.058196355 -0.08550688 -0.15426469 0.24387015 -0.05864265 -0.2453283 -0.26592422 -0.07743024 -0.0088085905 -0.0922407 -0.15294124 0.05202044 0.017277945 -0.049297627 -0.089177944 -0.06654773 -0.034184072 0.11736089 -0.108517654 -0.10066091 0.12542814 0.0545109 -0.16686106 -0.020381656 -0.04368028 -0.24652006 -0.070835106 0.01213913 0.22395693 0.123700425 -0.016647352 -0.24320126 0.36223614 -0.18179388 0.22990666 0.028654823 -0.09742687 -0.1586955 -0.056440834 0.31791827 0.090347864 -0.08646927 -0.22132254 0.13585155 0.09393706 -0.08680989 0.13575998 -0.015834728 -0.013143559 -0.046787236 0.010270072 -0.2237146 0.086500466 -0.10650215 0.09615049 -0.2550477 0.057556465 0.004540875 -0.0164926 0.18306345 -0.2194078 0.053164925 0.19507584 0.0812293 -0.12112825 -0.043650452 -0.0892194 0.050966345 0.04988657 0.007491096 -0.060629908 -0.1558187 -0.08011152 0.051453635 -0.018120822 0.13840881 0.0375411 -0.16163105 0.047182046 -0.01648105 0.04650018 0.10643816 -0.010039516 -0.033549868 0.12706062 -0.008330285 -0.3505877 -0.022595307 -0.12622651 0.14854117 0.13211279 0.086185254 -0.052083284 0.019725194 0.20099863 0.056173846 0.16681533 -0.03580922 0.06085428 0.1522386 -0.0934816 -0.094236486 -0.17506512
25 -0.08283019 0.019111712 -0.1365393 -0.080756515 -0.19692546 0.06001667 0.057208125 -0.060192496 0.17970002 0.2258129 0.05127887 -0.04204001 0.042469133 -0.16960427 -0.14996967 0.059875835 -0.12267528 -0.01570522 0.09554019 0.13570118 0.17385672 0.010158758 0.12235631 -0.1625716 0.22312814 0.0469827 0.03170654 -0.017100666 0.06483893 0.17242031 -0.1801767 -0.14896722 -0.0732918 -0.07202388 -0.20086814 -0.02660816 -0.0039695892 0.030799951 0.077625684 -0.076768786 -0.033114932 -0.031120405 0.3254925 -0.07580975 -0.04167601 0.033532433 0.15890573 -0.08570115 -0.2627936 0.038707796 -0.02922769 0.13549651 0.041200083 0.084138 0.21916178 -0.060935702 -0.065423734 0.30041692 -0.25001696 0.19491205 -0.07843631 -0.058351118 -0.036877926 -0.17437622 0.18930906 -0.03814202 -0.13812317 -0.12769674 0.22055428 0.16386598 0.00290257 0.02698417 -0.1103674 0.08517096 0.0983436 0.18913323 -0.22093122 0.08650847 0.028356798 -0.0024077683 -0.058848076 -0.11015751 0.13296059 0.033911638 0.21847631 -0.07886911 -0.09873223 0.31331453 0.14749803 0.049528595 0.113587566 -0.19449367 0.009932363 0.0019706152 -0.08061388 -0.1295804 -0.060979877 0.008111259 0.19652575 0.26317322 0.0189885 -0.08394641 -0.07965621 -0.108390965 0.020253606 0.33198357 0.18312363 0.124118425 -0.015506408 0.1403997 -0.07498082 -0.18078001 0.029219422 -0.12799735 0.12127801 -0.015411516 0.014562174 -0.07881882 0.0638394 0.13957223 -0.0939661 0.07363842 -0.018936744 -0.12085672 0.04416501 -0.08230594 0.07671921 -0.1469623
58 -0.14529209 0.25381377 0.038278244 0.19666404 0.14744657 0.07857943 0.13552906 -0.060460564 0.23022395 0.067161895 -0.0018858425 0.11745838 0.011052237 -0.16736677 -0.0509669 -0.18107678 0.015071594 -0.12543276 -0.11746391 0.1319332 -0.03521522 -0.031873867 0.04011732 -0.079007246 0.30297744 0.061348625 0.046688534 -0.1674763 0.23108372 -0.16202357 -0.34161362 -0.18351491 0.02253626 -0.069203526 -0.22902459 -0.1178153 -0.060804304 0.05790461 -0.15401274 -0.25231573 -0.011795502 -0.006479668 0.013942477 -0.083324015 0.014501331 -0.04070852 0.0042219446 -0.27212864 -0.107777365 -0.08705843 -0.24557562 -0.08532797 0.094484985 0.14974234 0.05289564 -0.04466735 -0.28706506 0.3753912 -0.13227943 0.22577474 -0.106444806 0.003453239 -0.1675117 -0.0461465 0.39260006 -0.043502826 -0.060734987 -0.313005 0.081847675 0.11891543 0.03160043 0.09307674 0.08880929 -0.072879314 -0.10104759 0.114163674 -0.11952722 0.16236492 -0.19596879 0.14616965 -0.3199112 0.16025366 -0.021248534 0.0820896 0.20727094 -0.14079319 -0.023815144 0.23088156 0.0726516 -0.05026578 0.036854383 -0.016659664 0.14759292 0.14464755 0.013495378 -0.100725874 -0.05936824 -0.072963335 0.19157021 0.12488896 0.20682299 0.1608654 -0.16004354 0.10577032 0.046748597 0.14471222 0.1851682 -0.105508484 -0.01871323 0.103001505 -0.06642184 -0.48681766 -0.04225097 -0.04099111 0.06612312 0.22048058 0.07353053 -0.030682134 -0.33122012 0.2605154 0.1554872 0.23070714 0.009499626 0.007019966 -0.033150516 -0.07112122 -0.08587838 -0.29672584
27 -0.24041949 0.041430913 -0.17266893 -0.058523074 -0.19513682 0.020827018 0.05455968 -0.025943788 0.11836663 0.2643666 -0.020327386 -0.042601217 0.08514917 -0.23057747 -0.09107207 0.06457644 -0.13598199 -0.066900335 0.038170923 0.14833388 0.16846325 0.07824025 0.11100196 -0.04721807 0.1658696 0.055022858 -0.011091748 -0.007398839 0.035779793 0.21248056 -0.1014577 -0.11528726 -0.0839003 -0.08148266 -0.12087854 0.060554504 0.040970996 0.016951777 0.04983252 -0.01486019 0.003950114 0.06620687 0.27371693 -0.105908126 -0.0695266 0.101243354 0.18027341 -0.054645978 -0.15065418 0.13374117 -0.10215316 0.11562951 0.015980864 0.13772233 0.16565189 -0.085735604 0.04524438 0.24942261 -0.22932197 0.17400934 -0.009829756 0.06665443 -0.059671875 -0.24179374 0.21807672 0.039993316 -0.055132452 -0.20749934 0.18324187 0.06966 -0.03193352 0.08687084 -0.20608148 0.076729536 0.1401942 0.1921409 -0.23526038 0.07185355 0.00081989134 -0.05966617 -0.04438325 -0.09530793 0.15379967 0.080677494 0.18341707 -0.105259135 -0.09000498 0.39578503 0.0837953 -0.007255946 0.09312504 -0.19391297 -0.06022432 -0.04066179 -0.056395356 -0.062816694 -0.0543942 -0.118168876 0.23576668 0.23191768 0.015495893 -0.054478824 -0.10437347 -0.1306036 -0.07078653 0.3005005 0.2083035 0.1191918 -0.09950085 0.032231968 -0.1578457 -0.13077754 -0.037431058 -0.16726252 0.12875958 -0.020725278 -0.010384931 -0.02724352 0.16208716 0.15824549 -0.082690306 0.049580682 0.00033085118 -0.11353515 0.052181643 -0.05461682 0.03632539 -0.059919525
64 -0.112321794 0.2722967 0.05223424 0.21459779 0.19302437 0.10721107 0.14689417 -0.020561768 0.25911495 0.046459906 0.008901429 0.12304961 0.057319354 -0.1145436 -0.019061202 -0.1669556 -0.015630743 -0.123079926 -0.13421902 0.11086936 -0.06598498 -0.0466085 -0.02842681 -0.030041637 0.3371499 0.044216998 0.065959886 -0.15653096 0.21552452 -0.18921496 -0.35897872 -0.14530726 0.0018914694 -0.1280969 -0.2303198 -0.11215915 -0.034438945 0.05231539 -0.18066369 -0.20072785 -0.012451011 0.04173504 -0.056194168 -0.08709292 0.03312938 -0.04978423 0.011166784 -0.29469264 -0.06841925 -0.09829289 -0.28962106 -0.12698415 0.121599205 0.16229096 0.074791774 -0.026805704 -0.26953802 0.35173935 -0.11109888 0.23830664 -0.124897525 0.060368516 -0.17927302 -0.045698013 0.44040862 -0.019601887 -0.030817853 -0.27069178 0.031740967 0.11198849 0.022605471 0.113553636 0.13590848 -0.09680285 -0.086579494 0.05803212 -0.13473433 0.16247405 -0.15614034 0.14753479 -0.291358 0.18412435 -0.07587893 0.090864226 0.19933845 -0.13964 0.02715199 0.2760398 0.0746186 -0.06390526 0.009902975 0.019123375 0.12945773 0.12305252 0.08691537 -0.06815566 -0.09904184 -0.07154359 0.22551723 0.06396615 0.2291038 0.20922813 -0.17463024 0.126367 0.046347484 0.1540992 0.18727542 -0.13239618 -0.0092315795 0.056664318 -0.057001173 -0.44729266 -0.079709455 -0.008061053 0.03454432 0.27637365 0.04078067 -0.04571314 -0.382923 0.28179032 0.20678075 0.24987331 0.002715059 0.037371553 -0.036164418 -0.056070823 -0.13446453 -0.31844342
62 -0.16260287 0.27849263 0.05323814 0.21259673 0.15928248 0.10038209 0.14830136 -0.050759606 0.23870188 0.070300676 -0.01499849 0.11500084 0.038974166 -0.16716199 -0.041930363 -0.1810671 -0.011690402 -0.14734976 -0.12754121 0.14735097 -0.038013507 -0.02640192 0.014570168 -0.04735041 0.3156825 0.058230843 0.057325605 -0.16138032 0.21840213 -0.17108704 -0.3529171 -0.16103765 0.024694039 -0.099342436 -0.24958618 -0.09527341 -0.06515793 0.058131892 -0.17055659 -0.23983301 0.0001190929 0.03426735 -0.019704688 -0.09824296 0.031596854 -0.051436312 0.016729344 -0.28626016 -0.088011935 -0.07411248 -0.2739909 -0.10259182 0.11224058 0.15633066 0.03960823 -0.05045987 -0.25938967 0.3602861 -0.13320561 0.22259063 -0.108488075 0.0647028 -0.1672599 -0.070463836 0.4319062 -0.038217302 -0.037604097 -0.32277474 0.065627135 0.10946093 0.035726085 0.10516254 0.09798912 -0.08909769 -0.087501064 0.11894422 -0.1258193 0.16029318 -0.18565628 0.14667833 -0.31048605 0.1787651 -0.029093258 0.09958209 0.2087331 -0.14209476 -0.022266302 0.2640301 0.06609479 -0.056300897 0.04153068 -0.0031494587 0.14496382 0.12789458 0.045426108 -0.070837125 -0.06529957 -0.0963732 0.22724994 0.120193385 0.22056471 0.18202458 -0.16526 0.111473955 0.039537746 0.15482219 0.19682738 -0.120418146 -0.015714392 0.07612657 -0.07305436 -0.4766006 -0.06378955 -0.024465302 0.048228346 0.2461119 0.054574143 -0.02580804 -0.36414367 0.28096482 0.18275316 0.22895268 0.014266137 0.016935576 -0.053405885 -0.05794036 -0.10546621 -0.28461385
63 -0.14280811 0.320472 0.044311374 0.21799472 0.1715555 0.0655253 0.16434838 -0.08383467 0.24833922 0.08172357 0.04011085 0.14377268 0.03284124 -0.1907992 -0.06508165 -0.23848332 0.072163284 -0.13342634 -0.12245066 0.13975789 -0.07731879 -0.07029345 0.07064771 -0.1629811 0.34813848 0.065822445 0.07894851 -0.19590287 0.27160454 -0.19909333 -0.38286012 -0.23577952 0.031272642 -0.0642651 -0.26956612 -0.1936374 -0.0886601 0.08081251 -0.20296344 -0.3389959 -0.00040782284 -0.014984397 0.04336419 -0.0975881 0.04239363 -0.08911379 -0.0033526947 -0.3585542 -0.18864994 -0.16081414 -0.2283626 -0.076029964 0.09884588 0.18101722 0.062506855 -0.061227914 -0.3768862 0.46940485 -0.17664425 0.26931772 -0.12946877 -0.048274934 -0.20762098 -0.011653419 0.4178182 -0.050716344 -0.11321661 -0.4079437 0.12278255 0.14489552 0.051592864 0.056445103 0.09236829 -0.09345675 -0.110481694 0.1346355 -0.144341 0.21010573 -0.22322391 0.1642733 -0.39136067 0.15860093 -0.03237571 0.08890908 0.2321529 -0.1564362 -0.048679654 0.22688848 0.11095429 -0.08768745 0.06468806 -0.03410121 0.18063195 0.19932254 -0.02521454 -0.15507397 -0.055545792 -0.04439422 0.23527873 0.16696276 0.22406447 0.145202 -0.19893758 0.13409877 0.056198094 0.144117 0.22168592 -0.1146277 0.019605698 0.1469805 -0.07107833 -0.6065311 -0.01654717 -0.04966447 0.09501311 0.23747289 0.10797163 -0.04580981 -0.37014395 0.28238916 0.14254558 0.29932004 0.013336835 0.0041877497 -0.024059584 -0.06288034 -0.07792639 -0.35675853
65 -0.10580152 0.21052942 0.036359053 0.14852096 0.06697786 0.0886412 0.11592853 -0.08982095 0.25075877 0.060966197 -0.0037336482 0.11666331 0.013492625 -0.1357432 -0.08287488 -0.14850047 -0.012472515 -0.121972635 -0.07382586 0.14055642 0.0063128937 -0.0076595875 0.04548978 -0.085866585 0.26023903 0.048967186 0.07738968 -0.1259337 0.19097091 -0.13068457 -0.3195297 -0.16449536 0.03306433 -0.08554494 -0.24055919 -0.08577585 -0.033759087 0.07694459 -0.12610346 -0.24163401 0.018672489 -0.02234146 0.038823936 -0.057836518 0.0126514 -0.06409956 0.02065739 -0.23706903 -0.12850787 -0.09151038 -0.16702494 -0.08646161 0.081068836 0.09628055 0.081039414 -0.029509325 -0.24731782 0.3850683 -0.14240523 0.19028567 -0.12820908 -0.006941754 -0.12273117 -0.062319074 0.3704839 -0.08675982 -0.051042497 -0.23322184 0.09132059 0.17365095 0.05865486 0.09449389 0.07994864 -0.06357923 -0.09229759 0.11835224 -0.111752026 0.14597441 -0.14898518 0.12401447 -0.2859045 0.12577516 0.025993293 0.08441582 0.20163588 -0.08983209 -0.041425515 0.22290204 0.13171826 0.015837958 0.0463159 -0.026457295 0.11309465 0.16429847 0.016771754 -0.09838263 -0.06534517 -0.03146934 0.1909028 0.1492515 0.1704662 0.15078197 -0.14356196 0.05635621 0.05758109 0.21907474 0.18235761 -0.07726705 -0.02311026 0.12615031 -0.08102006 -0.43756485 -0.038754534 -0.008996072 0.09720314 0.15355319 0.06457099 -0.021937044 -0.3430945 0.2460609 0.15975365 0.21154706 -0.007100651 -0.06381318 -0.05368336 -0.076464504 -0.07225912 -0.28177062
23 -0.062178947 -0.077854834 -0.10621014 -0.02067221 -0.27558357 0.12979172 0.038356796 -0.14758252 0.26984802 0.18996029 -0.110290006 0.06282103 0.0031684109 -0.08785035 -0.12895684 0.100704625 -0.27283052 -0.04800172 0.11326579 0.20472027 0.25135058 0.101707175 0.026658585 0.06663405 0.12224052 0.044451583 0.08375082 0.0887327 0.007070041 0.113420114 -0.22016567 -0.08371854 0.0068851113 -0.16842994 -0.15205942 0.15066239 0.10827673 0.07265988 0.09034523 -0.010127239 0.049513012 0.00037940842 0.23408465 -0.04940082 -0.06542394 0.059279185 0.18173993 0.038013157 -0.053794466 0.1164486 -0.03590769 -0.055830117 -0.026711382 -0.010507049 0.24318466 0.026867008 0.06382531 0.30322066 -0.20249833 0.081205845 -0.098090194 0.07213715 0.044700034 -0.28353512 0.33853364 -0.105057284 0.023450451 0.103605285 0.118053176 0.33809406 0.018208044 0.23283121 -0.06982836 0.041523147 0.00790055 0.10965753 -0.16894644 -0.00012455974 0.06494908 -0.01286272 -0.013396762 -0.035371624 0.23601623 0.06581464 0.18841882 0.020324627 -0.016068853 0.37830234 0.26099882 0.2212435 -0.004829553 -0.115739 -0.12468212 0.05747904 0.058486402 0.05250742 -0.12740402 -0.035410915 0.14475921 0.15487213 0.02104513 0.08678279 -0.03855733 -0.21497916 0.0433666 0.5013718 0.15333317 0.10593603 -0.16388492 0.10701948 -0.15346289 -0.026110755 -0.080611795 0.0050768447 0.20833145 -0.059760813 -0.064140655 0.030871594 -0.10751304 0.1695175 0.11621418 0.01661957 -0.07601062 -0.18751562 -0.039324127 -0.10538966 -0.08595717 -0.062008176
61 -0.15580796 0.26935428 0.045967802 0.19329318 0.07773281 0.09553634 0.12271342 -0.11267989 0.2559842 0.046928994 -0.032509748 0.1520912 0.03106718 -0.1649045 -0.07353974 -0.18896405 -0.003665757 -0.15564178 -0.12066972 0.16680987 -0.024397278 0.0077979607 0.033343796 -0.049838178 0.2637553 0.06603144 0.10497872 -0.12083039 0.20449136 -0.18318757 -0.3421446 -0.16650437 0.072374225 -0.10979356 -0.2344312 -0.05449109 -0.014174024 0.08493566 -0.1847063 -0.29057068 0.066632904 -0.006858513 -0.012606655 -0.06316464 0.029185712 -0.070862494 0.0026055458 -0.27132472 -0.09509225 -0.089427024 -0.18283165 -0.12969314 0.06023379 0.106852934 0.0688321 -0.028301416 -0.23556559 0.42840654 -0.14288987 0.17913087 -0.1284212 0.045307122 -0.1569693 -0.074836016 0.4146617 -0.09358906 -0.015029913 -0.26902705 0.060458176 0.17359245 0.07231547 0.14298317 0.07813862 -0.100836106 -0.12525012 0.10215573 -0.08807529 0.15372428 -0.19279048 0.12423277 -0.32610065 0.1702012 0.038561765 0.121763065 0.17808363 -0.08495644 -0.043720264 0.23742096 0.14999573 0.0076984726 0.03311878 0.0013702589 0.08389362 0.2186471 0.023863258 -0.07817764 -0.0469072 -0.07074021 0.2036363 0.13650246 0.18729085 0.1972605 -0.1620728 0.05721633 0.043008722 0.2086683 0.18379323 -0.11326507 -0.0665738 0.09858345 -0.1220772 -0.46242446 -0.07209863 0.006342285 0.122306794 0.14811863 0.064415865 0.032077562 -0.40344888 0.23701337 0.21503384 0.2425325 0.0068788915 -0.088843815 -0.07562234 -0.043418147 -0.114227 -0.27701718
59 -0.17609292 0.2962004 0.07252015 0.22375798 0.17230107 0.07778998 0.15199086 -0.057514545 0.20025219 0.050061267 -0.0311352 0.107815124 0.028366167 -0.19055039 -0.039307054 -0.20010342 0.0042521064 -0.14565964 -0.13419445 0.1624156 -0.049858324 -0.026479611 0.028475022 -0.061784174 0.281691 0.073116824 0.06349523 -0.16140549 0.22892354 -0.19670908 -0.35107398 -0.1617969 0.04859083 -0.07557039 -0.23245026 -0.096166864 -0.095871724 0.06398651 -0.18217662 -0.27771512 -0.0013317084 0.02365193 -0.01158307 -0.10423131 0.04489126 -0.061704442 -0.0032863554 -0.28374505 -0.10120286 -0.07761337 -0.25611225 -0.09428074 0.10759803 0.15811165 0.008260713 -0.05688272 -0.2703462 0.3421829 -0.12298687 0.21078397 -0.10260601 0.053864595 -0.16739297 -0.036956698 0.40930656 -0.049126457 -0.055454608 -0.3648482 0.0675417 0.10191883 0.036794852 0.08406081 0.08631626 -0.089816205 -0.1167008 0.13535906 -0.09803708 0.15620331 -0.21952584 0.15366381 -0.32951856 0.17724638 -0.021701321 0.10406619 0.19634064 -0.13844104 -0.052176133 0.24652418 0.05040476 -0.061724152 0.046868846 0.0069842944 0.14966996 0.14002466 0.018626241 -0.07902739 -0.031240894 -0.10872461 0.21769841 0.13445346 0.2139678 0.18205114 -0.15915161 0.10844081 0.04800955 0.14079344 0.20568717 -0.122694515 -0.021106083 0.08327087 -0.082502306 -0.49056715 -0.04054951 -0.029863622 0.053332683 0.24196485 0.07272576 -0.010691159 -0.3630684 0.2628207 0.18148409 0.22269638 0.019159542 0.023281075 -0.05840955 -0.055721764 -0.102202184 -0.27172112
0 0.081196904 -0.018796468 -0.07653368 -0.009946867 0.06987344 0.3024438 0.12206324 0.1876335 0.3797294 0.20102167 0.00399 -0.12561223 0.19436452 0.12246611 0.023439743 0.27427635 -0.50450486 0.024338573 0.057828497 0.14371867 0.20452139 -0.03926047 -0.27027345 0.2193092 0.45433125 -0.015397788 0.076906584 0.07579807 -0.030364186 0.09661434 -0.37653795 0.09581876 -0.2232928 -0.37974456 -0.24130234 0.09797603 0.05048233 -0.04953464 0.07461524 0.30892393 -0.20386703 0.23987074 0.043913465 -0.1656326 0.042883713 0.10250786 0.26968873 -0.06263068 0.056801707 0.16028313 -0.4606957 -0.08039688 0.23778902 0.13573784 0.31657162 0.05148981 0.10701244 -0.0057613067 -0.102957875 0.2788906 -0.18736613 0.34071764 0.002035888 -0.3004861 0.5624003 0.046991467 0.042351086 0.19844288 -0.050412733 0.16927004 -0.06891031 0.21384485 0.18395182 0.05657287 0.14081737 -0.04338362 -0.34402242 0.014668084 0.27577284 0.04123638 0.20047829 0.06909493 -0.15043753 0.022322226 0.26811522 -0.05746752 0.20036842 0.6591807 0.047466706 0.09102253 -0.07872977 0.0353422 -0.05227422 -0.28721982 0.38628325 0.15768674 -0.29871872 -0.057215847 0.33564603 -0.037513208 0.18762368 0.24871439 -0.04379394 0.015164535 0.1292129 0.52637273 0.19849305 -0.004726319 -0.0036649085 -0.11604845 0.057612292 0.14408772 -0.18853657 0.05713048 -0.16088977 0.3901419 -0.24039902 -0.19225849 -0.2401522 0.3070927 0.22932793 0.04726218 -0.11072577 0.2059693 -0.018732982 -0.11426827 -0.1959843 -0.22094254
68 -0.098905586 0.10585742 -0.0674984 -0.11285711 -0.16968894 0.07730833 0.068129264 -0.050579865 0.1874168 0.15349796 0.080823526 -0.11220497 0.11382957 -0.20531408 -0.19010328 0.04057298 -0.13068502 -0.07836711 0.07909015 0.17562097 0.18147571 0.025428126 0.11068968 -0.21554868 0.22201157 0.029077804 0.0713015 -0.020097168 0.01998703 0.1640323 -0.18844956 -0.10451567 -0.04621973 -0.08132144 -0.28888825 -0.011498193 -0.078046605 0.043455247 0.050257053 -0.12341206 -0.023046842 0.0011798291 0.28663796 -0.06223751 0.018661935 -0.058230557 0.14951609 -0.12856983 -0.3369779 0.025297446 -0.010241834 0.17762074 0.116069555 0.049023487 0.1652234 -0.09126274 -0.058468446 0.27986774 -0.22774021 0.20034723 -0.13075043 -0.0030582596 -0.026600147 -0.18035321 0.200398 -0.095818065 -0.13457677 -0.18074864 0.20496324 0.13476764 0.07119335 -0.032191828 -0.07582099 0.07255158 0.109262645 0.27275953 -0.20126027 0.1266617 0.0054518753 0.012581199 -0.06974618 -0.088360086 0.12988149 0.082055286 0.22398731 -0.04935471 -0.16002364 0.3330756 0.13113557 0.08810174 0.18394987 -0.18288964 0.07840529 -0.0008761543 -0.080291025 -0.15563235 -0.026702339 0.015517431 0.27706775 0.3516658 0.039013606 -0.056066755 -0.066489965 -0.08463895 0.048852585 0.39150307 0.24114835 0.11579384 0.013997904 0.12299949 -0.097178765 -0.24658038 0.038830113 -0.10919728 0.048483543 0.026209796 -0.0057262 -0.10844219 -0.07556921 0.1958126 -0.086902834 0.07265961 0.012438696 -0.15185958 -0.047187816 -0.084935635 0.12722044 -0.20387337
69 -0.18093538 0.13365035 -0.117506355 -0.13816017 -0.1611677 0.05409336 0.06660315 0.018839631 0.14552133 0.20036848 0.115478314 -0.15014233 0.16815136 -0.2519107 -0.15382735 0.048425604 -0.110642664 -0.0954634 0.04653592 0.14669695 0.15971722 0.018979695 0.11783291 -0.22468452 0.25615633 0.021116212 0.029847516 -0.034741543 0.0029976654 0.22253396 -0.12708908 -0.10196475 -0.1024357 -0.086080864 -0.2744511 -0.016055686 -0.06547528 0.015416383 0.041809905 -0.07865804 -0.042907383 0.043590244 0.29133207 -0.08587899 0.001589932 -0.019513432 0.16767627 -0.14751363 -0.3413605 0.044977523 -0.054155663 0.23064843 0.12966621 0.11473992 0.16334487 -0.119068034 -0.03391168 0.26226792 -0.23476155 0.24028471 -0.088411756 0.037830763 -0.07660395 -0.20099993 0.17298183 -0.009490965 -0.13410586 -0.27349308 0.21613641 0.033859637 0.040594906 -0.052751146 -0.13019183 0.08448446 0.19287279 0.28346747 -0.24855287 0.15283024 0.008500945 -0.017264256 -0.057194363 -0.10605777 0.091797546 0.08385419 0.22449827 -0.10728355 -0.16128811 0.37126902 0.08017067 0.008973958 0.20170528 -0.21045806 0.06852779 -0.04510602 -0.087571636 -0.17984316 -0.018455999 -0.02173064 0.337667 0.35934964 0.03703048 -0.102794655 -0.10193415 -0.06433375 -0.022992948 0.32992938 0.24754228 0.1242175 0.018202439 0.07244492 -0.116880514 -0.25149983 0.026309716 -0.17408966 0.023278616 0.03838769 -0.0013326489 -0.1370822 0.043971043 0.20894435 -0.1635812 0.089518934 0.047140233 -0.1251013 -0.005230613 -0.06247682 0.15594208 -0.19181564
70 -0.053737547 0.08270898 -0.09062599 -0.11716937 -0.11114766 0.09323242 0.06668722 0.02124396 0.20498231 0.16662036 0.11443551 -0.12198315 0.14568704 -0.13199578 -0.13578762 0.07406783 -0.14585027 -0.044036973 0.06514112 0.121086225 0.14975075 -0.012921785 0.050827585 -0.17536491 0.2845595 0.006766759 0.058376275 -0.016828418 0.011371496 0.17473108 -0.17628087 -0.07347814 -0.115847655 -0.12298385 -0.26821178 -0.034901917 -0.040126123 0.021960875 0.049839526 -0.027220858 -0.06986824 0.037731815 0.24278603 -0.06636741 0.010389399 -0.02522356 0.16208835 -0.13354735 -0.2808995 0.015873507 -0.073164225 0.15378445 0.1369032 0.079145774 0.20199086 -0.06962477 -0.048711244 0.22534777 -0.19211292 0.22548465 -0.1298019 0.018004185 -0.045903474 -0.17174165 0.20366403 -0.031038007 -0.12475301 -0.13067102 0.16814472 0.102199785 0.042903975 -0.02472812 -0.04055869 0.068189055 0.15412308 0.19225083 -0.23808646 0.12521578 0.06329387 0.0016671985 -0.017443981 -0.0782849 0.04365092 0.058585875 0.21247034 -0.06312154 -0.07707809 0.33625993 0.108901925 0.05410512 0.14096572 -0.15342058 0.06388143 -0.053792495 -0.014701668 -0.12939113 -0.069975995 0.035287324 0.2902939 0.27014074 0.04729212 -0.051792137 -0.07763383 -0.04502801 0.03868882 0.3440893 0.1982159 0.0968757 0.04313321 0.07793981 -0.047667377 -0.17391181 0.011406661 -0.08836244 0.006776078 0.0658469 -0.029141024 -0.14314912 -0.0445862 0.1938184 -0.09233777 0.089221105 0.0073944987 -0.07403011 -0.0076719816 -0.07825571 0.10063501 -0.20725818
57 -0.17175052 0.22977762 0.034492947 0.18098351 0.057158418 0.08090298 0.13136275 -0.104804434 0.21303976 0.09360829 -0.055618305 0.11258477 0.014700003 -0.20093621 -0.08004576 -0.15578504 -0.043083053 -0.14124013 -0.07816033 0.19495018 0.027456451 0.01397754 0.060061548 -0.054297112 0.23656648 0.08259716 0.076202825 -0.11556934 0.19799584 -0.13502319 -0.3428242 -0.17409208 0.060810477 -0.078300595 -0.22920041 -0.05014997 -0.057385534 0.0798637 -0.1321975 -0.26704255 0.029035976 0.0054482976 0.071200274 -0.0933902 0.017644446 -0.04420269 0.036721144 -0.230729 -0.121147364 -0.035305094 -0.18926202 -0.07786346 0.06649153 0.124880776 0.04926451 -0.056933407 -0.21964839 0.38089284 -0.17480494 0.18649134 -0.099998325 0.03428103 -0.13063645 -0.091750935 0.40867597 -0.081028946 -0.053305537 -0.3104835 0.109877385 0.16879709 0.042274766 0.117651805 0.032112896 -0.059654936 -0.10859109 0.1673381 -0.11319125 0.12412587 -0.1823076 0.12399209 -0.30399722 0.12686718 0.071768366 0.101473875 0.20728013 -0.11218614 -0.07993487 0.28014645 0.10721526 -0.0018063011 0.056737524 -0.04418571 0.10140651 0.15206452 -0.005271851 -0.06461854 -0.033295844 -0.10403589 0.20644169 0.18012175 0.17140019 0.15312883 -0.13449444 0.029112406 0.05362213 0.23538503 0.21877451 -0.07130984 -0.05484543 0.1146563 -0.116417155 -0.4444557 -0.03729519 -0.037226766 0.11150837 0.1600174 0.068067715 0.011364679 -0.3182348 0.24586312 0.1700663 0.19064048 0.0003291449 -0.05057719 -0.06829225 -0.06859037 -0.08573766 -0.22157058
66 -0.15036066 0.26239923 0.043199364 0.2156753 0.11829199 0.09566063 0.1419397 -0.08803144 0.25487205 0.0695615 -0.027649391 0.15361841 0.014795106 -0.16901435 -0.052000392 -0.190209 0.0024885808 -0.13817339 -0.118006386 0.15596265 -0.031750742 -0.008767749 0.031102555 -0.057423126 0.29609266 0.06657266 0.06688534 -0.15449123 0.22802775 -0.18145779 -0.3574501 -0.18669277 0.046483006 -0.09626219 -0.23633891 -0.08733124 -0.03330143 0.07368253 -0.17330517 -0.26932785 0.026272582 0.001991238 0.004673482 -0.08050989 0.017558249 -0.052510947 0.009361376 -0.27338 -0.08945012 -0.08618935 -0.23269472 -0.11883173 0.07901712 0.13777673 0.063890845 -0.03624036 -0.27166462 0.41213176 -0.14494349 0.20921811 -0.11440776 0.02898328 -0.1658624 -0.06303291 0.43105537 -0.059207994 -0.04142031 -0.29490635 0.07069067 0.15664305 0.040540792 0.12466115 0.08419037 -0.09009518 -0.11665083 0.10449088 -0.1136363 0.15816683 -0.1956013 0.14025106 -0.33730084 0.17310187 0.011106054 0.103476 0.20346309 -0.1226275 -0.023068575 0.2493362 0.11213941 -0.025291404 0.023849316 -0.008218594 0.11566928 0.17783616 0.03185881 -0.08126038 -0.072892055 -0.083918184 0.20213863 0.12261415 0.20526901 0.18217912 -0.16719654 0.082593076 0.045723636 0.184956 0.19895275 -0.11737623 -0.046500873 0.099024884 -0.098610684 -0.48930013 -0.062346973 -0.021836428 0.09839608 0.20273669 0.070774734 -0.00012299174 -0.36615956 0.26443505 0.19676547 0.24097154 0.0033184928 -0.02219697 -0.044052187 -0.060172893 -0.1199278 -0.2927776
24 -0.06905279 0.076345704 -0.095281556 -0.11040002 -0.15793616 0.07138 0.0709956 -0.02961741 0.20176025 0.19788623 0.11091485 -0.08862327 0.112725325 -0.16587503 -0.18255807 0.04131628 -0.11538909 -0.048529766 0.09122035 0.14588957 0.16722457 -0.003698759 0.10938874 -0.23108926 0.2608431 0.008586882 0.046816006 -0.025368027 0.035404213 0.18477741 -0.17968257 -0.13764699 -0.10009297 -0.08278854 -0.28637323 -0.06524743 -0.048191648 0.039685994 0.072745405 -0.08557283 -0.053323712 -0.009739232 0.31875408 -0.07292169 -0.009774816 -0.039498918 0.16938345 -0.13925017 -0.32634136 -0.0066107917 -0.027724508 0.17758165 0.12094486 0.073225036 0.2000449 -0.08260899 -0.09426846 0.30299076 -0.24249439 0.22814682 -0.11280282 -0.044363495 -0.039409768 -0.17042191 0.19774853 -0.047674164 -0.15430483 -0.17796357 0.2320289 0.14324723 0.04463211 -0.041989204 -0.080489695 0.0816045 0.14842845 0.24600838 -0.25625232 0.13035247 0.033574965 0.011911807 -0.06191542 -0.1012217 0.097681776 0.04434076 0.24021704 -0.08220734 -0.12921393 0.32184315 0.14255211 0.058325943 0.17557088 -0.19947469 0.08377021 -0.01678404 -0.07504498 -0.16556495 -0.0634069 0.03939073 0.28697678 0.32656953 0.03935304 -0.0872443 -0.08970041 -0.058828335 0.03735078 0.37281704 0.2259561 0.12719144 0.043993708 0.15048394 -0.061417904 -0.26042926 0.042546038 -0.121161886 0.060039748 0.027733933 0.015942069 -0.14572185 -0.024789236 0.21948633 -0.116426565 0.09788571 0.0017490003 -0.10565557 -0.0023032145 -0.10901146 0.12411519 -0.21966001
71 -0.1800265 0.12501365 -0.13351132 -0.13383141 -0.13140371 0.058294248 0.06777578 0.06526389 0.15026157 0.20775871 0.11909258 -0.16358331 0.19148983 -0.20724377 -0.13085058 0.069482125 -0.127475 -0.08298376 0.02506887 0.110047944 0.15305455 0.023819586 0.07351458 -0.18152736 0.27305123 0.015139196 0.011100162 -0.032777335 -0.0062027946 0.23181492 -0.11881879 -0.075165205 -0.13983676 -0.10834755 -0.25312325 -0.0055862004 -0.03610736 -0.0075285356 0.043811947 -0.009002367 -0.061692342 0.074123435 0.24577783 -0.09425175 -0.007987341 0.01172041 0.1712511 -0.14423424 -0.29098323 0.06692908 -0.10980613 0.20894305 0.15164399 0.13566428 0.16854729 -0.11453166 0.005030009 0.21193592 -0.2200014 0.24924406 -0.07426231 0.07326833 -0.08907518 -0.20184657 0.17448029 0.030029789 -0.1123213 -0.24464947 0.19004355 -0.011403639 0.011580208 -0.03806183 -0.114083394 0.08447151 0.21855488 0.23666933 -0.2754283 0.14384069 0.04050889 -0.024480615 -0.02402481 -0.09577193 0.04348932 0.08228613 0.20635138 -0.12215488 -0.112254106 0.388578 0.041743368 -0.023808911 0.17483778 -0.18278341 0.051529687 -0.09922125 -0.045050703 -0.1561485 -0.05378465 -0.03431598 0.3341266 0.29676938 0.04606782 -0.08956084 -0.10147416 -0.045114182 -0.034311984 0.29693052 0.22821149 0.106755294 0.022635376 0.03407016 -0.087935545 -0.19676879 0.003590419 -0.17399107 -0.010791344 0.064581916 -0.01593937 -0.1480494 0.066642985 0.1988383 -0.15070748 0.07826546 0.042777732 -0.09102175 0.017390264 -0.049501184 0.1389843 -0.19013345
26 -0.1001439 -0.076014414 -0.18366128 0.05758356 -0.10823069 0.026898922 0.08377887 -0.03452008 0.1519805 0.3072779 -0.01606111 0.0994074 -0.075957835 -0.09229211 -0.027344408 0.014015776 -0.09424917 0.029307878 0.07562816 0.069579944 0.12271358 0.005102008 0.08171176 -0.0055359704 0.21521874 0.05289398 -0.096498564 -0.052011374 0.14575583 0.13426296 -0.16821663 -0.22029383 -0.13219823 -0.024053827 -0.060546763 -0.07475569 0.06884951 0.0040115677 0.10652896 0.046986863 -0.087970495 -0.014797089 0.28599054 -0.12252494 -0.1330509 0.18163417 0.16340514 -0.02402231 -0.034392208 0.059478804 -0.16337648 0.01809372 -0.01976249 0.16813026 0.1997741 -0.02029522 -0.09330153 0.26038188 -0.22122085 0.19684659 0.044862326 -0.094400056 -0.054328926 -0.14737366 0.24730451 0.10381681 -0.10835265 -0.09623422 0.18931825 0.14978817 -0.11120989 0.12471238 -0.12724814 0.07113231 0.064718276 0.056018386 -0.2812534 0.022600174 0.022654805 0.010216814 -0.077293485 -0.075635776 0.08686347 -0.03711993 0.19519143 -0.17193832 0.038219076 0.27441022 0.10135098 -0.043986496 -0.021369977 -0.16809916 -0.033208538 -0.06937377 -0.013902342 -0.017639643 -0.1624269 -0.057262782 0.049550027 0.043720048 0.043148946 -0.06066258 -0.1084764 -0.07853177 -0.02324069 0.17684679 0.098779775 0.11630586 -0.042197544 0.12776425 -0.015952475 -0.14018418 -0.0032557368 -0.1424606 0.1681522 0.029475125 0.034891862 -0.061657995 0.21506651 0.16419297 -0.050095446 0.049660612 -0.07222791 0.04064646 0.17053813 -0.12434784 -0.045924768 -0.053510174
60 -0.15019307 0.28245297 0.042860273 0.2132256 0.1889184 0.083037265 0.16714549 -0.026020057 0.2234377 0.09338631 0.011457181 0.093201056 0.034004405 -0.16881718 -0.042525705 -0.18550779 -0.0023989198 -0.12205425 -0.11552384 0.14918424 -0.034675136 -0.053568363 0.03257121 -0.09010944 0.35463318 0.06891028 0.049212065 -0.18279201 0.2490789 -0.16185333 -0.3842874 -0.19135027 -0.009556901 -0.08053738 -0.2555817 -0.14624353 -0.09875908 0.05573521 -0.15514803 -0.2470132 -0.04896566 0.030656274 0.027600426 -0.12769476 0.041716497 -0.04309166 0.021696227 -0.311815 -0.12853362 -0.090313345 -0.2947987 -0.07424849 0.1378076 0.1974983 0.059692632 -0.058660317 -0.30977714 0.35593784 -0.15257668 0.274991 -0.109079555 0.021754226 -0.17675959 -0.03261953 0.43810079 -0.015861083 -0.0980634 -0.3640358 0.0962587 0.11498071 0.011606883 0.07456737 0.09854359 -0.07030893 -0.08701591 0.13275404 -0.16048093 0.16995794 -0.18583351 0.16269772 -0.3238424 0.16165705 -0.057101138 0.08561846 0.23940657 -0.17215654 -0.018824592 0.2869894 0.048275255 -0.08489532 0.04699215 -0.012722998 0.17143239 0.09486949 0.029283952 -0.102052696 -0.06767433 -0.08625923 0.23226981 0.13605253 0.23253126 0.16692515 -0.16958153 0.13239476 0.06299174 0.15572241 0.22108951 -0.112637945 0.015394825 0.09456704 -0.041660085 -0.50971425 -0.034288444 -0.052981332 0.02834005 0.28934315 0.07161078 -0.067079075 -0.33552808 0.2947372 0.15811887 0.24031773 0.0073517724 0.066373564 -0.029645687 -0.08083553 -0.08993816 -0.31548303
41 -0.12722242 0.11772422 -0.07817065 -0.07917177 -0.12930362 0.058453742 0.06976661 -0.030039228 0.16686954 0.16211952 0.083994575 -0.08693606 0.10775844 -0.20400795 -0.1645204 0.008820273 -0.092814855 -0.079613775 0.047979806 0.14712062 0.15442395 0.012357717 0.113647245 -0.20646085 0.23516119 0.036263004 0.03732649 -0.04800803 0.05299512 0.14670889 -0.17605361 -0.12664053 -0.07159317 -0.0680151 -0.26286316 -0.036195382 -0.06455205 0.03801734 0.03781249 -0.120777905 -0.030242657 0.00089618034 0.2704283 -0.074931785 0.0040065083 -0.03489416 0.13811429 -0.14735 -0.305812 0.0155449165 -0.043691907 0.16355073 0.1108994 0.09065649 0.15010604 -0.09728174 -0.08202886 0.2780527 -0.2187573 0.21046901 -0.09974944 -0.016857868 -0.054694824 -0.15639326 0.19246864 -0.04953629 -0.1319717 -0.2289645 0.20455566 0.10268825 0.04394093 -0.031073784 -0.083983704 0.061784036 0.111280605 0.24486998 -0.21061042 0.13422835 -0.012900668 0.01808331 -0.09746137 -0.0740401 0.105186984 0.068286106 0.21629326 -0.09349633 -0.13756876 0.3078572 0.09822476 0.033112176 0.16647981 -0.17360878 0.09050244 -0.010409916 -0.08078148 -0.1605271 -0.029271571 0.0039699893 0.26731646 0.31725398 0.05390569 -0.055098277 -0.09511013 -0.051061805 0.023174 0.3101952 0.22081959 0.10076416 0.024053853 0.114872485 -0.08802926 -0.27290565 0.032485675 -0.12170746 0.05375101 0.039944496 0.026594691 -0.109010294 -0.036975402 0.19418985 -0.097807534 0.09363266 0.02492574 -0.110586084 -0.016561309 -0.078088194 0.1136734 -0.19854091
16 -0.058658224 -0.14516759 -0.1025062 0.15500878 -0.34283176 0.15331492 0.071330965 -0.3535237 0.3833641 0.23980197 -0.24625766 0.29838848 -0.21301009 -0.09038113 -0.169762 -0.015949573 -0.2596457 -0.05632231 0.12550837 0.2906305 0.31637284 0.16789593 0.09545398 0.13389167 0.09531309 0.11062214 0.059206035 0.06285575 0.16113743 -0.0016815045 -0.38040757 -0.2503508 0.10490677 -0.12711056 -0.14983143 0.1544521 0.18957272 0.14241725 0.0997824 -0.15718822 0.1341083 -0.1313948 0.31672606 -0.032397248 -0.15401767 0.107368134 0.1788361 0.062326886 0.04531435 0.116804354 -0.034632187 -0.22236565 -0.15627144 -0.028738959 0.26989895 0.06947541 -0.04716664 0.5541644 -0.2967283 0.04910745 -0.07128517 -0.04936282 0.059228517 -0.30973864 0.50728184 -0.1989087 0.03587552 0.15290236 0.17040856 0.58090943 0.01953065 0.40957308 -0.074708015 0.0061323848 -0.18420357 0.077032976 -0.15483877 -0.038247693 -0.031464696 0.046148606 -0.20776781 0.035290297 0.40985575 0.043810572 0.2355208 0.0062635215 -0.0038208456 0.33857888 0.4219481 0.31268904 -0.105440706 -0.117000856 -0.15156686 0.2123727 0.04069337 0.121324964 -0.20283668 -0.060310174 -0.006153605 0.111610055 0.06664549 0.16767868 -0.061369266 -0.29579723 0.10527201 0.60513663 0.14959718 0.09845987 -0.27500927 0.26559228 -0.18585941 -0.17357585 -0.086327426 0.0396863 0.4411323 -0.13728532 0.020341912 0.15439616 -0.203844 0.2089214 0.27665544 0.042990588 -0.16321583 -0.28656158 -0.018919567 -0.1826396 -0.22213283 -0.04601626
29 -0.4226393 0.038617954 -0.2405357 0.06732265 -0.14945173 0.0487601 0.054549046 0.054890245 0.12952735 0.3025293 -0.10339393 0.08323501 0.09129164 -0.19488375 0.06575663 0.054979205 -0.1591892 -0.13258551 -0.12979788 0.06359684 0.08661006 0.1928507 -0.019459346 0.22246026 0.16994321 0.042646583 -0.111907676 0.0005919784 0.028205682 0.151447 -0.04286371 -0.094142124 -0.10024966 -0.1424658 0.0102935415 0.1950909 0.2517816 -0.04012112 -0.039492734 0.14127538 0.050368104 0.14667757 0.027617283 -0.11053355 -0.15481257 0.27358463 0.16686575 -0.016563494 0.17200865 0.24148169 -0.30143592 -0.051132016 -0.041188464 0.24949142 0.12356975 -0.038264908 0.20023292 0.23012936 -0.18859065 0.13578334 0.13405877 0.26627898 -0.16623022 -0.32808766 0.32282177 0.20615807 0.15276483 -0.16847967 0.043406095 -0.068666205 -0.123269744 0.2965789 -0.21857847 0.028841827 0.14169249 0.013031352 -0.28117132 0.025387857 0.0009217445 -0.09216075 -0.06205414 0.0057899044 0.13258342 0.09274704 0.09666373 -0.2111071 0.05083427 0.43627983 0.03941601 -0.102422826 -0.084319465 -0.096321866 -0.2147717 -0.069553114 0.0985381 0.09760132 -0.17537518 -0.28812975 0.1636092 -0.039294332 0.066330984 0.05492497 -0.14966643 -0.12747896 -0.21689364 0.14777663 0.13532478 0.04615046 -0.23802568 -0.12359337 -0.20447738 -0.038440354 -0.19374879 -0.2087263 0.14553212 0.016177747 -0.061194584 0.053403948 0.253568 0.17805105 0.0565887 0.058155753 -0.011251444 -0.0879637 0.14871556 0.020441592 -0.121353135 0.016261559
18 -0.12111356 -0.158582 -0.14193957 0.10537772 -0.38094962 0.12815359 0.05193274 -0.30941436 0.33532265 0.26792926 -0.23972735 0.2646358 -0.17272341 -0.11109557 -0.15071997 0.026001256 -0.25791553 -0.07151721 0.10870019 0.25862175 0.30171543 0.1939606 0.092977196 0.16007808 0.06169237 0.09504991 0.035004638 0.074818425 0.11442257 0.05147377 -0.29457346 -0.21644947 0.07837061 -0.12846102 -0.11007023 0.19715172 0.2242933 0.11730593 0.10341501 -0.094702095 0.14208503 -0.0969075 0.29082382 -0.035045613 -0.16702911 0.1400825 0.18513599 0.09037416 0.06549572 0.15560369 -0.029362893 -0.18567309 -0.16070563 -0.011506914 0.25005263 0.05402748 0.039488375 0.4999248 -0.2852246 0.028457513 -0.031267997 -9.848413e-05 0.040070925 -0.33214357 0.4535934 -0.14734167 0.07107397 0.13731861 0.1527934 0.49293083 -0.0002331796 0.40076897 -0.13150434 0.023295682 -0.11802994 0.073372304 -0.16556771 -0.049763378 -0.011212834 0.0018516964 -0.15523708 -0.0053204177 0.40820715 0.05399552 0.20103091 -0.005539758 -0.009816202 0.34083658 0.3793524 0.2763858 -0.091916144 -0.13073587 -0.19475503 0.17941758 0.039016824 0.12552737 -0.1868475 -0.08880247 -0.0019240915 0.09575356 0.036706794 0.13359296 -0.066156104 -0.30650616 0.04357206 0.5439721 0.12813511 0.119340606 -0.28815407 0.21414062 -0.2118855 -0.10613789 -0.103506535 2.461324e-05 0.42244625 -0.17302963 0.0010136439 0.15769926 -0.09766438 0.17636067 0.22418515 0.019087903 -0.14243248 -0.2948187 -0.0018660714 -0.14879604 -0.19401342 0.004527325
75 -0.1144318 0.12246281 -0.09815838 -0.15476674 -0.11315339 0.070474744 0.07517061 0.048748273 0.14573377 0.18961994 0.14004962 -0.19331826 0.16747485 -0.20290768 -0.15823655 0.07832585 -0.13121974 -0.056525122 0.07011371 0.1422449 0.17220199 -0.015002969 0.09327681 -0.23811883 0.29033354 0.024352834 0.035165206 -0.04243256 0.005328819 0.22236112 -0.15728839 -0.083844565 -0.12931274 -0.08554572 -0.29764488 -0.050670028 -0.114977814 0.0072460994 0.061901283 -0.0531768 -0.09186816 0.04449217 0.30327028 -0.09363209 0.026317496 -0.030927204 0.17374332 -0.15359585 -0.3688173 0.04089311 -0.07593088 0.24969982 0.17133777 0.10823545 0.17304394 -0.124177754 -0.04957217 0.2075267 -0.22059545 0.25615266 -0.11030236 0.017874666 -0.0529953 -0.17546129 0.17440465 -0.025185289 -0.1729171 -0.24679732 0.22048074 0.042676657 0.041740935 -0.0859178 -0.08336101 0.094121315 0.1944526 0.28936473 -0.25512272 0.14893937 0.032686327 0.009567502 -0.022706814 -0.10973956 0.046765327 0.0707328 0.2379994 -0.09585386 -0.14573936 0.37035117 0.045302447 0.0126157645 0.20187461 -0.19064532 0.11142636 -0.09524164 -0.063869484 -0.17551918 -0.0225156 0.0015045675 0.34131113 0.3563327 0.054596007 -0.1027273 -0.07477465 -0.033808537 0.027288103 0.3441898 0.24823964 0.11981763 0.064844556 0.07813889 -0.052609865 -0.2325168 0.04437328 -0.15038304 -0.03432275 0.08790107 -0.014757272 -0.17894082 0.015230197 0.20719698 -0.15725803 0.06708121 0.03822766 -0.06282074 -0.010414932 -0.080722876 0.16529487 -0.22234161
19 -0.055395957 -0.2491265 -0.18163845 0.11105864 -0.50217503 0.1597391 0.05790379 -0.41702098 0.43306372 0.3433909 -0.26890337 0.3345503 -0.2610104 -0.105345555 -0.2259378 0.031392343 -0.3060698 -0.025900476 0.20320402 0.31814975 0.4085925 0.20300402 0.15566087 0.11590506 0.09249846 0.120911874 0.05465113 0.09399921 0.15850376 0.07659569 -0.3927772 -0.31335136 0.09661858 -0.12342827 -0.1552449 0.1780481 0.24535948 0.15717861 0.17585075 -0.15213788 0.14088845 -0.18371639 0.46583423 -0.039195646 -0.21418275 0.15516849 0.23217343 0.12521397 -0.0007755648 0.14689782 0.02274575 -0.19897977 -0.2113901 -0.038623624 0.35280246 0.07386371 -0.031437393 0.6484022 -0.38716078 0.050207563 -0.06566667 -0.12239559 0.08787222 -0.36663082 0.54131174 -0.22054131 0.0048998306 0.21197847 0.24400564 0.6858437 0.0010404405 0.45831043 -0.14613743 0.05487729 -0.17464827 0.09966865 -0.2194628 -0.066895716 0.003753203 0.016317468 -0.20140928 -0.045597438 0.5204489 0.028439771 0.28756833 0.00729864 -0.023164937 0.3922671 0.51504815 0.36573863 -0.107331455 -0.19914569 -0.21529323 0.22484533 0.010465581 0.124617666 -0.24784024 -0.046822906 -0.037073087 0.15475626 0.025355974 0.11774908 -0.06588309 -0.39252377 0.119314946 0.7178026 0.1604488 0.18500823 -0.30907643 0.34999478 -0.20766382 -0.1556305 -0.06439854 0.0069323014 0.5422739 -0.2254943 0.020992864 0.15683681 -0.10324409 0.19785374 0.24633068 0.011306851 -0.19858326 -0.3578737 0.026888942 -0.22871928 -0.21285361 -0.02591112
21 -0.12182502 -0.15991664 -0.1405807 0.14715698 -0.42750412 0.14693575 0.0630632 -0.39076898 0.3939909 0.294188 -0.2754597 0.32703674 -0.21896458 -0.13905928 -0.19779572 -0.01463047 -0.26793948 -0.07738291 0.1342177 0.31153107 0.34827983 0.20226148 0.13299824 0.1384153 0.080056325 0.12515037 0.061044753 0.07079842 0.16569655 0.029194025 -0.37909907 -0.28828806 0.11301113 -0.12294833 -0.1508903 0.1865498 0.22539866 0.15096374 0.10561734 -0.17745458 0.16344152 -0.14277793 0.36016864 -0.04069203 -0.18070495 0.13811404 0.19816886 0.07452379 0.030296188 0.13996726 -0.007493516 -0.21752681 -0.19189024 -0.017687663 0.28901887 0.06019695 -0.022865942 0.61979663 -0.34488556 0.04796592 -0.059720427 -0.057551388 0.04529276 -0.35104814 0.5296864 -0.20062606 0.039011564 0.12346041 0.19934455 0.60991746 0.016286265 0.44502 -0.13687286 0.01052156 -0.17443596 0.10486951 -0.1713809 -0.041045666 -0.04630474 0.030147197 -0.23555155 0.0114214085 0.4727215 0.060927037 0.24772851 -0.00573559 -0.028418768 0.372378 0.45888594 0.32720903 -0.09693926 -0.1544016 -0.19073331 0.24547966 0.016554136 0.11620633 -0.19782907 -0.07998442 -0.0030352918 0.14763068 0.05334669 0.15545163 -0.08060895 -0.3445649 0.083505034 0.63615716 0.162905 0.12657781 -0.3167396 0.29374185 -0.23047149 -0.19632147 -0.095567174 0.009379996 0.50451785 -0.19386327 0.028228562 0.17798887 -0.16634122 0.206067 0.2632485 0.049458716 -0.16440779 -0.34453323 -0.008765501 -0.18286897 -0.21961072 -0.029593397
20 -0.12760472 -0.21071577 -0.17227937 0.13637799 -0.4719713 0.1525248 0.06151401 -0.40274537 0.41459414 0.33571467 -0.29719564 0.34035563 -0.24559838 -0.12778197 -0.19135924 0.014413172 -0.2951311 -0.066213734 0.1456123 0.3173272 0.37961018 0.224199 0.12924291 0.17457226 0.07444817 0.12411455 0.03740543 0.08564796 0.15526907 0.05980823 -0.3679549 -0.29570198 0.1058374 -0.13616306 -0.12949657 0.2105391 0.26548603 0.15054253 0.13973542 -0.13935404 0.16232042 -0.14975859 0.39059138 -0.043219473 -0.21858718 0.17688084 0.2197916 0.10685343 0.06596662 0.16793528 -0.01782875 -0.22590056 -0.20966996 -0.021932801 0.31473088 0.071286865 0.008899206 0.6327982 -0.3585237 0.04002782 -0.033881802 -0.05355253 0.057307623 -0.38737458 0.54708713 -0.1885478 0.054007437 0.17300586 0.20942178 0.62622184 -0.0014494272 0.48332888 -0.16125746 0.032987922 -0.16836968 0.08485353 -0.19569176 -0.060136437 -0.019443832 0.009348527 -0.21108907 -0.009313262 0.5067564 0.05074611 0.25621784 -0.013365544 -0.011005953 0.388714 0.47516635 0.34141088 -0.12418772 -0.1666244 -0.22822884 0.22842191 0.02534867 0.14732978 -0.23027514 -0.094725415 -0.029711908 0.12227823 0.038183767 0.14400011 -0.074424066 -0.37325943 0.065420866 0.65717614 0.15263231 0.15358976 -0.34354407 0.29399535 -0.23600364 -0.14863737 -0.109334745 -0.0026542714 0.5347138 -0.21714856 0.016181078 0.18856832 -0.110882334 0.20753673 0.2658042 0.019868601 -0.1796082 -0.35031018 0.017828953 -0.19656888 -0.23181066 -0.001145293
17 -0.08767724 -0.23468745 -0.15994534 0.16555361 -0.44514227 0.18015985 0.06831531 -0.40136954 0.43623552 0.326746 -0.31426597 0.357109 -0.26539698 -0.08859369 -0.17466962 0.020882962 -0.327039 -0.047087424 0.15426856 0.3204745 0.38241294 0.21328379 0.097789496 0.2078335 0.09300969 0.12887935 0.042306457 0.086906806 0.17303574 0.030334495 -0.40509874 -0.29122883 0.10652498 -0.15098567 -0.13098368 0.21146 0.26449725 0.1470425 0.14524087 -0.119914606 0.14474522 -0.14260377 0.37688267 -0.049191713 -0.21224555 0.18459815 0.22523823 0.11905527 0.09711186 0.16915329 -0.045388814 -0.26679143 -0.21105221 -0.026527468 0.3259239 0.094090044 -0.0018838854 0.6151612 -0.34672135 0.037459653 -0.04476376 -0.05330064 0.07660484 -0.37909552 0.58717567 -0.19638535 0.060896512 0.21920718 0.19192784 0.6605229 -0.010449174 0.50892884 -0.11592409 0.024263285 -0.1974176 0.057628624 -0.19668007 -0.07708438 -0.005892833 0.031671733 -0.20600677 0.01569773 0.4881442 0.03930896 0.26358417 -0.006585147 0.022791415 0.40005407 0.48284605 0.35658154 -0.15152413 -0.14080535 -0.22450882 0.21845731 0.06255514 0.18237916 -0.25776243 -0.09254298 -0.04638806 0.0806704 0.05905029 0.18340135 -0.06965678 -0.36520892 0.10313862 0.677532 0.142539 0.13788544 -0.3407675 0.30095038 -0.21512362 -0.13796431 -0.11624434 0.02956735 0.52351415 -0.18362284 0.0094897635 0.18131591 -0.15358695 0.21600515 0.31007856 0.016308418 -0.19932777 -0.32399437 0.013298655 -0.20751911 -0.27252662 -0.0032854513
76 -0.098997585 0.3133082 0.09800105 0.23079142 0.17361884 0.115118645 0.1630027 -0.10297463 0.27001446 0.038063727 -0.00035655702 0.12680346 0.0135221295 -0.179527 -0.08351966 -0.211146 -0.0005647735 -0.13274336 -0.09855769 0.19254912 -0.03429171 -0.060308136 0.047496706 -0.12173928 0.3363184 0.077483945 0.1163935 -0.17068067 0.25624844 -0.23161988 -0.4373077 -0.19408143 0.07201802 -0.094784506 -0.3026838 -0.14031543 -0.12325785 0.088588946 -0.19105081 -0.34893405 0.00068192254 -0.016476046 0.020944815 -0.094704494 0.07103376 -0.12373841 -0.009063513 -0.33272883 -0.18598087 -0.14390554 -0.22625014 -0.09835076 0.121105656 0.12491975 0.044471223 -0.04548486 -0.35481036 0.41485 -0.14845262 0.23812455 -0.16774245 -0.0044513596 -0.16286168 -0.012593212 0.4548046 -0.122941196 -0.1013831 -0.34271562 0.09133664 0.18908015 0.07088461 0.06811704 0.14569072 -0.09711311 -0.15896474 0.15220954 -0.095980234 0.17401393 -0.22412659 0.18786949 -0.3690131 0.1890445 -0.018826105 0.10113218 0.23744686 -0.110695004 -0.07097552 0.24893701 0.108849086 -0.024607696 0.0716172 -9.926391e-05 0.18674849 0.19308482 0.011367239 -0.12200242 -0.041859042 -0.055898417 0.23357128 0.17500171 0.23375602 0.19701523 -0.16056907 0.11773362 0.11324307 0.21446045 0.23577332 -0.12674944 0.0075703207 0.14416553 -0.06575123 -0.56435144 -0.012698893 0.0054708254 0.062187877 0.26180187 0.078698255 -0.035461847 -0.48437667 0.2824738 0.21503896 0.26786867 0.007978498 -0.0012946348 -0.08938798 -0.07773113 -0.09838286 -0.35244974
22 -0.09219901 -0.21686976 -0.16527015 0.16232997 -0.42927712 0.153499 0.06392078 -0.38861942 0.40890253 0.32747957 -0.28522095 0.36103642 -0.2659577 -0.09600018 -0.17045179 -0.0032237307 -0.2715391 -0.042435944 0.13842614 0.29130343 0.34097144 0.20398031 0.1190307 0.1698342 0.08613237 0.12101519 0.03117035 0.071805134 0.18370067 0.02464721 -0.37955698 -0.30513543 0.09964253 -0.12236452 -0.11491111 0.17654562 0.25738704 0.14231469 0.13357338 -0.13556515 0.14549616 -0.1606844 0.37001094 -0.040543646 -0.2143284 0.17547624 0.20054756 0.104602404 0.08452997 0.14789848 -0.030069955 -0.24348265 -0.21559776 -0.013756026 0.30755147 0.08721999 -0.02556787 0.6195065 -0.3450809 0.046510294 -0.031723272 -0.0792965 0.056306146 -0.34638548 0.53772324 -0.17867109 0.047354583 0.18401039 0.19359668 0.62067986 -0.0165737 0.47620472 -0.12906824 0.020219104 -0.19337775 0.05210676 -0.18581423 -0.07077274 -0.027052185 0.031511407 -0.2199584 0.004321171 0.46941042 0.030628255 0.25139812 -0.017169226 0.011560079 0.3493978 0.46982905 0.31532508 -0.14543459 -0.15179436 -0.21639468 0.22451666 0.039534785 0.14976771 -0.24295095 -0.082085036 -0.060434375 0.07849124 0.04945513 0.14633827 -0.07311976 -0.3413578 0.08451255 0.6120219 0.12604809 0.13841209 -0.323454 0.302279 -0.19771332 -0.1554728 -0.09742552 0.0097586 0.520952 -0.19729269 0.02888112 0.18427055 -0.11356526 0.19378717 0.27822605 0.022940677 -0.18951069 -0.320324 0.03120374 -0.19799422 -0.24831174 -0.008160219
35 -0.5374315 0.11215499 -0.26330307 0.07124052 -0.14821391 0.059691086 0.07053382 0.105369665 0.14128163 0.32763985 -0.11134514 0.057077814 0.17185432 -0.26287177 0.07829885 0.05148923 -0.17411892 -0.19859941 -0.19265169 0.06899887 0.08255658 0.2282453 -0.040253785 0.26014632 0.2086034 0.045618366 -0.12141015 -0.003199686 0.0073652123 0.17686068 -0.021543192 -0.07247708 -0.12130644 -0.18655786 -0.011225956 0.24144326 0.28638452 -0.05467803 -0.08534872 0.16609801 0.07427974 0.21701077 -0.0197546 -0.13234493 -0.16612038 0.3036948 0.18586925 -0.0633904 0.19179979 0.28443947 -0.370804 -0.045381196 -0.011770629 0.29914093 0.11908817 -0.062242337 0.25563937 0.25327978 -0.20597894 0.17686614 0.14499082 0.3748278 -0.22395654 -0.38993183 0.36489815 0.25324205 0.20046362 -0.26387873 0.025648257 -0.15646856 -0.12347766 0.3181537 -0.25257105 0.00857227 0.19353683 0.034790136 -0.31379864 0.061192676 -0.019021131 -0.115356654 -0.07736329 0.033347405 0.11209612 0.1457572 0.09450484 -0.24964705 0.046661 0.50526375 0.00022422583 -0.15438691 -0.06774012 -0.094500236 -0.2295618 -0.07493951 0.11327861 0.09612224 -0.16235277 -0.35331103 0.25173753 -0.025770528 0.08447676 0.076403566 -0.19044414 -0.11086005 -0.29164273 0.13534103 0.17044455 0.020202132 -0.2694797 -0.20262678 -0.26363754 -0.06936578 -0.24485563 -0.24338454 0.119579405 0.03504843 -0.075352356 0.062789604 0.25918832 0.20867984 0.051609796 0.09396763 0.03006721 -0.10825433 0.14141975 0.055039775 -0.12431434 0.00156226
38 -0.52622366 0.13387132 -0.23607889 0.078596324 -0.12873554 0.049548876 0.06236035 0.084758036 0.1396008 0.29008952 -0.11698446 0.056085195 0.16658078 -0.266183 0.071271144 0.023330806 -0.1507162 -0.20706399 -0.20321274 0.07867933 0.06176541 0.2147309 -0.025038365 0.2419262 0.20002946 0.055698976 -0.09789149 -0.012678384 0.020783937 0.14191484 -0.03947666 -0.067623325 -0.09387851 -0.18087745 -0.020164553 0.23004733 0.26272973 -0.04411462 -0.11129945 0.11819552 0.08479558 0.20359933 -0.03554061 -0.12142045 -0.14840616 0.27230468 0.15546978 -0.08279441 0.16623893 0.25996304 -0.35380894 -0.049643457 -0.009411377 0.2865728 0.10373975 -0.066051945 0.22655825 0.2639339 -0.18358995 0.16826937 0.12340433 0.36081958 -0.22474007 -0.3651755 0.36388507 0.22437514 0.18990076 -0.2722721 0.023105359 -0.1413778 -0.104067355 0.30513415 -0.22932023 -0.010072641 0.16852525 0.0479576 -0.2747698 0.07372682 -0.047504626 -0.099535026 -0.10089173 0.04715231 0.11044985 0.15318932 0.091248155 -0.22843476 0.033690568 0.48320636 0.00285477 -0.137005 -0.060241707 -0.08382571 -0.205939 -0.038785145 0.102589734 0.072001174 -0.14074387 -0.3307135 0.24773487 -0.0070724096 0.09131103 0.09384926 -0.19162987 -0.09833713 -0.27200508 0.13173467 0.16605219 -0.005272085 -0.26579767 -0.19694506 -0.27084762 -0.09725563 -0.23463106 -0.22177072 0.120005906 0.03521758 -0.06349375 0.07641638 0.19564395 0.20037438 0.057576083 0.10443928 0.04326426 -0.1220633 0.11194556 0.059123456 -0.12242064 -0.011748748
34 -0.5012266 0.14374015 -0.24065836 0.062134124 -0.08232178 0.051947825 0.075356245 0.14470546 0.12308901 0.29311612 -0.06936845 0.02792978 0.18824099 -0.2425919 0.0850597 0.03887011 -0.14221653 -0.18550774 -0.20324008 0.04389082 0.046348587 0.18333007 -0.056342516 0.22291428 0.23860416 0.032130156 -0.11263904 -0.025701417 0.017998762 0.15423553 -0.035808973 -0.059085306 -0.13773379 -0.18017918 -0.02202065 0.19624028 0.24450357 -0.057325076 -0.10283338 0.16123194 0.031560455 0.22317693 -0.04295833 -0.13664758 -0.12936276 0.26997015 0.16045815 -0.09385436 0.1583481 0.24954033 -0.38163185 -0.01759995 0.030328464 0.31322056 0.10180443 -0.06940427 0.21540156 0.20433393 -0.17692244 0.18806475 0.12862895 0.35587454 -0.23361027 -0.3419335 0.34214166 0.25784692 0.1708482 -0.28225157 0.013794977 -0.19465722 -0.11900181 0.26188087 -0.20353983 0.008582757 0.2009089 0.028352287 -0.30460072 0.07794333 -0.0117507195 -0.09790502 -0.06750507 0.036585327 0.052250482 0.13462602 0.0911098 -0.2524262 0.052766282 0.4872713 -0.04235787 -0.18916161 -0.048642814 -0.07321616 -0.17773685 -0.09820607 0.12218703 0.07170024 -0.15689997 -0.32500476 0.26156685 -0.029194176 0.10083117 0.07295095 -0.187926 -0.054106887 -0.2690872 0.09323434 0.169266 0.0013789401 -0.21309759 -0.20780924 -0.22212742 -0.0891789 -0.21812955 -0.23444699 0.059321757 0.09696867 -0.06836612 0.026786005 0.22425093 0.21088277 0.039431214 0.10137585 0.037105624 -0.049192388 0.13775465 0.061713394 -0.108272135 -0.03596994
49 -0.10133622 -0.07847305 -0.23416626 0.12108199 -0.049165778 0.019690476 0.108252645 -0.013337497 0.1780374 0.38343 0.048621714 0.19706002 -0.14268242 -0.066393025 0.0059121014 -0.055855513 -0.004979411 0.06773742 0.048478883 -0.015084555 0.061609905 -0.021715317 0.102127515 -0.05985143 0.33269545 0.05282222 -0.19705862 -0.13457255 0.24432747 0.1101678 -0.19897981 -0.35788435 -0.19713855 0.0348135 -0.050727054 -0.20016569 0.117183834 -0.0062017357 0.10240993 0.04333944 -0.1346424 -0.07077026 0.32247594 -0.14016326 -0.20136468 0.25298652 0.14477083 -0.08963816 -0.030664587 0.0076238196 -0.23981819 0.008444596 -0.019453298 0.28277475 0.22736621 -0.011885842 -0.21470414 0.38468468 -0.2870062 0.28516436 0.11732031 -0.21589057 -0.13134453 -0.10143041 0.29068655 0.18308082 -0.16753337 -0.1625575 0.24699819 0.12212629 -0.17730168 0.13271716 -0.11384973 0.07112954 0.057905633 0.0016734598 -0.38269043 0.04975602 0.0059012114 0.054338045 -0.18744414 -0.061898157 0.046582162 -0.109875955 0.2327729 -0.293565 0.090201445 0.22542396 0.10856197 -0.15344252 -0.0687424 -0.1867548 0.015206814 -0.06574735 -0.026603395 -0.06647711 -0.24949577 -0.047046352 -0.0025319848 -0.046975527 0.09486401 -0.10398247 -0.1712116 -0.008591891 -0.035429075 0.063538656 0.08474846 0.115100905 0.0019562347 0.20203789 0.06049248 -0.28133222 0.032665595 -0.22041781 0.2007667 0.07902791 0.105930634 -0.11746929 0.32305613 0.1998065 -0.086681634 0.114949755 -0.09374186 0.11508269 0.3024873 -0.1582298 -0.06387667 -0.13068631
37 -0.525466 0.10765509 -0.25149372 0.05616275 -0.16952178 0.0550406 0.059761096 0.07348315 0.1464841 0.29679558 -0.12533623 0.062916726 0.1647701 -0.26218346 0.062574774 0.053417433 -0.17177865 -0.20556903 -0.185794 0.09256083 0.092114694 0.23280081 -0.030210873 0.2613718 0.17829214 0.05127435 -0.089094944 0.006871033 0.0021888555 0.15855749 -0.032702442 -0.06542482 -0.09289958 -0.18594508 -0.006150025 0.26560012 0.2869414 -0.03677546 -0.09584499 0.13199404 0.0917445 0.20178112 -0.021392703 -0.11558141 -0.15210043 0.27864984 0.1727831 -0.050034128 0.18141736 0.28155288 -0.33711892 -0.055822227 -0.03127874 0.2732409 0.11945522 -0.058869377 0.25676885 0.26649687 -0.19622806 0.14697456 0.12209445 0.3717315 -0.21117243 -0.39445564 0.36376688 0.20956962 0.20668104 -0.24195541 0.02290689 -0.11949799 -0.09439436 0.32246605 -0.24281657 0.003774893 0.16633919 0.03958876 -0.27768102 0.057794794 -0.030437896 -0.11447788 -0.07787968 0.037619155 0.14379439 0.15957555 0.086269364 -0.21874969 0.037470754 0.4979611 0.022434574 -0.11013978 -0.067635216 -0.08521442 -0.23732194 -0.039803635 0.108560726 0.09820793 -0.1451528 -0.34021604 0.24184863 0.002164383 0.076108806 0.09310678 -0.17997079 -0.12912068 -0.2705302 0.17388338 0.16706975 0.016658695 -0.28718212 -0.19611625 -0.2872512 -0.06272143 -0.24745269 -0.22160476 0.14343092 0.013708884 -0.07239332 0.088083275 0.20936663 0.20161009 0.06488231 0.0849593 0.027282072 -0.15288392 0.11323615 0.06574605 -0.1308549 0.009739928
36 -0.5982206 0.16816886 -0.21323268 0.09341861 -0.11482106 0.05217936 0.07462112 0.09899808 0.10845877 0.27709773 -0.14408667 0.048334904 0.1808044 -0.31351197 0.078725435 0.015680453 -0.16263957 -0.2510768 -0.23062687 0.10173737 0.06427741 0.24865021 -0.03995126 0.273293 0.17165896 0.057882205 -0.10892249 -0.023987079 0.011531737 0.13503201 -0.0344433 -0.053470433 -0.07490658 -0.17398822 -0.02159659 0.27296197 0.24341944 -0.044526275 -0.12903413 0.106255695 0.09482785 0.22403857 -0.072618954 -0.1299127 -0.13929044 0.2669387 0.15284948 -0.07069603 0.19129373 0.29299498 -0.37723517 -0.045393523 0.0019662736 0.28834638 0.055943668 -0.08406172 0.26173753 0.22499415 -0.17562295 0.14662734 0.14411388 0.42323405 -0.2304799 -0.38027084 0.36852232 0.22491355 0.2232046 -0.32555023 0.0057898914 -0.18061599 -0.09463446 0.30839822 -0.2414173 -0.010707161 0.17325673 0.07696135 -0.25377586 0.0674506 -0.078769326 -0.09323968 -0.10359597 0.06454227 0.12451067 0.17596304 0.08127177 -0.24713667 0.0077715367 0.5083217 -0.043619264 -0.14954 -0.039511666 -0.06519209 -0.20219548 -0.05927987 0.11122864 0.094617754 -0.11541439 -0.38568783 0.26728716 0.008179066 0.103611045 0.11384648 -0.17843957 -0.10019242 -0.29300395 0.112813905 0.18473728 -0.013326823 -0.27631992 -0.22797647 -0.2969707 -0.10570237 -0.25041896 -0.23296066 0.09322433 0.05577151 -0.06379738 0.093800396 0.18404621 0.21998283 0.08314943 0.08278975 0.060086444 -0.12203177 0.082825355 0.07465464 -0.12052815 0.016091323
51 -0.085656784 -0.07671324 -0.21635552 0.12744798 -0.039384093 0.024211995 0.11462499 -0.023046907 0.18200958 0.37035078 0.036538504 0.1962681 -0.16649579 -0.067306206 0.006463403 -0.052768998 -0.016177751 0.07350148 0.03667536 -0.01254979 0.055027585 -0.028283786 0.09204879 -0.046831623 0.3352129 0.058252983 -0.18690298 -0.13948804 0.25633383 0.07480105 -0.21992998 -0.35762945 -0.16884284 0.03874361 -0.058968104 -0.19803528 0.098388165 -0.0035272962 0.08665868 0.024576323 -0.14259194 -0.092157595 0.30420315 -0.14001931 -0.19221008 0.24585891 0.13052005 -0.08422432 -0.03983531 0.0055431714 -0.25143728 0.0030022198 -0.018252712 0.26876795 0.22030638 -0.011948851 -0.23529032 0.36864173 -0.27465102 0.27335316 0.10390586 -0.21847504 -0.12735492 -0.08581396 0.2875569 0.16392238 -0.17140728 -0.15348552 0.23298313 0.12447552 -0.17291301 0.14222457 -0.08706723 0.0728909 0.01640786 -0.007975333 -0.36103675 0.04505679 -0.007996272 0.07361825 -0.19370931 -0.04964635 0.040928036 -0.101207875 0.23550697 -0.29120195 0.08069503 0.22131689 0.10199169 -0.15139891 -0.07828714 -0.18176535 0.010879716 -0.059021782 -0.0145082865 -0.06440296 -0.24425893 -0.05563967 -0.035597682 -0.05894893 0.09552251 -0.08863344 -0.14782423 -0.0055939015 -0.012265994 0.057889022 0.088752344 0.11037192 -0.004857178 0.21331756 0.072792076 -0.28183687 0.03604795 -0.22170728 0.19035378 0.09697904 0.097180456 -0.12109759 0.28410414 0.18345185 -0.051446047 0.10487894 -0.09301565 0.11066347 0.2978773 -0.15722191 -0.06523979 -0.14349155
3 0.071968965 -0.019315884 -0.08633584 -0.028429195 0.04979699 0.22131963 0.09015283 0.16623314 0.28977442 0.15834457 0.01513702 -0.11823289 0.17508039 0.09341235 0.030206848 0.22686988 -0.3768321 0.036872003 0.04618257 0.092660636 0.14468068 -0.046436433 -0.20637932 0.15351221 0.35067242 -0.015546274 0.05585817 0.062441338 -0.03581577 0.111140214 -0.25758338 0.086884834 -0.18991603 -0.30542815 -0.17981729 0.065456025 0.051450323 -0.04353742 0.06924791 0.26063895 -0.16256815 0.19399557 0.045569573 -0.12634121 0.021943154 0.091728486 0.21131608 -0.044528726 0.028987724 0.1205704 -0.35771552 -0.03564792 0.19120647 0.11634544 0.2647802 0.04131138 0.08353028 -0.012681441 -0.07636643 0.22673057 -0.14240193 0.2560453 0.003400412 -0.23897934 0.41552714 0.057183083 0.018942142 0.15085845 -0.028704511 0.10782573 -0.060973383 0.15594676 0.13751759 0.046213724 0.133085 -0.043498173 -0.2687121 0.01360281 0.22702822 0.017436411 0.17410038 0.04371948 -0.13866866 0.015651159 0.20674674 -0.043798946 0.16778305 0.52245295 0.02682074 0.048402097 -0.056276843 0.016299548 -0.04623023 -0.2297093 0.29469314 0.11323357 -0.22876361 -0.04115204 0.28403944 -0.03132518 0.13884775 0.16797203 -0.038701482 0.0058615026 0.0693332 0.39257786 0.1558276 -0.00034402357 0.00014730585 -0.10811252 0.042927142 0.12972268 -0.14333065 0.03355263 -0.13706714 0.30456486 -0.18891573 -0.15306787 -0.13501842 0.2246671 0.14727971 0.040307775 -0.08045801 0.16256642 0.007633296 -0.07564473 -0.14200489 -0.18194391
2 -0.011363195 -0.018185899 -0.11664245 0.0078090006 0.025602944 0.20920517 0.08951959 0.16547468 0.27732515 0.19021353 -0.019345013 -0.07336126 0.1745553 0.06559502 0.053755887 0.21007735 -0.3716123 0.011885583 0.0078115943 0.08726307 0.14221871 0.00026835542 -0.20886709 0.22646004 0.3245297 -0.007988565 0.022519805 0.06336837 -0.035345256 0.108600795 -0.22960272 0.06940894 -0.18579511 -0.30845308 -0.1301116 0.118789606 0.11500271 -0.047726337 0.050087802 0.27953464 -0.12757598 0.21611692 0.014241759 -0.13449815 -0.019063426 0.14594902 0.22168176 -0.022290614 0.1019787 0.15511744 -0.3886143 -0.07700796 0.15099642 0.15151668 0.24813478 0.043460265 0.12806863 0.010047296 -0.09349478 0.20757689 -0.09230427 0.30009758 -0.029561676 -0.27451843 0.43672445 0.10066764 0.070436545 0.13135867 -0.039754257 0.07284363 -0.08942299 0.21558094 0.08342271 0.034004647 0.13170797 -0.07120526 -0.28454915 -0.00021881721 0.20349228 -0.008220402 0.15136513 0.050321218 -0.10968645 0.022883518 0.18331042 -0.07542997 0.17853066 0.5355834 0.03431251 0.014584036 -0.087796204 0.015802152 -0.0952102 -0.21748255 0.3062406 0.15128838 -0.24484563 -0.10708363 0.2670054 -0.073487505 0.13718751 0.1846272 -0.06022182 -0.01713838 0.020501973 0.3593937 0.15201426 -0.0021087178 -0.058745235 -0.13655117 0.0043127746 0.14418392 -0.18281737 0.005448142 -0.09336571 0.27909017 -0.18224864 -0.109346576 -0.08703544 0.22161968 0.16571605 0.035697207 -0.07154778 0.14212224 0.02976603 -0.057072587 -0.1789678 -0.13426642
54 -0.05231116 -0.075701505 -0.21026325 0.15707603 -0.0060664625 0.006317781 0.122934766 -0.04016294 0.15663378 0.3744921 0.032714777 0.20002061 -0.19629669 -0.066816255 0.0049451236 -0.08143712 0.012189301 0.10003021 0.07280868 0.0056216405 0.051415466 -0.070766315 0.121275775 -0.09148082 0.33498898 0.0744376 -0.1830676 -0.15712899 0.28981194 0.06126859 -0.25722235 -0.3844536 -0.17343572 0.0653492 -0.057098247 -0.2609434 0.04079226 0.0042024846 0.10564675 -0.0109233195 -0.16879044 -0.10233113 0.35987505 -0.1623894 -0.17751066 0.23366416 0.117442034 -0.101116955 -0.06736187 -0.022922084 -0.23882711 0.012428418 -0.024671512 0.27867323 0.21522382 -0.01830421 -0.29932475 0.36979666 -0.28746352 0.2978201 0.09751735 -0.28285348 -0.120853476 -0.04521894 0.2894553 0.15757847 -0.22730474 -0.1917628 0.26846805 0.16403428 -0.1839716 0.10338867 -0.09013633 0.068832085 0.0013981292 0.006132433 -0.35770097 0.049326815 -0.024992958 0.0932195 -0.21446519 -0.060518008 0.032094833 -0.12528166 0.25872797 -0.29656568 0.07902791 0.20839894 0.10201879 -0.16591386 -0.06486098 -0.1885306 0.051519178 -0.06455661 -0.049547072 -0.08156679 -0.22779287 -0.035857316 -0.036220517 -0.030137656 0.10142852 -0.100633785 -0.1579988 0.004315874 0.01813951 0.05569314 0.09433546 0.10928413 0.030083802 0.2490051 0.10139159 -0.32336423 0.074381806 -0.21101281 0.19906828 0.12337107 0.1231764 -0.13323763 0.29109433 0.18779472 -0.07161513 0.118645996 -0.10332204 0.16372454 0.30393994 -0.17601497 -0.06428446 -0.14401825
28 -0.145633 0.010996397 -0.24034931 -0.11758122 -0.11812324 0.010427387 0.037568826 0.06991244 0.121090256 0.2612999 -0.0067082834 -0.14249973 0.11810262 -0.18932745 -0.010857716 0.15737964 -0.16903362 0.03155976 0.048543874 0.12366489 0.13923594 -0.027122563 0.09143494 -0.014775754 0.24601099 0.085272275 0.00962671 -0.004418229 0.04346022 0.23422916 -0.1455233 -0.047513273 -0.14162867 -0.14501658 -0.068161614 0.021613508 -0.009002281 -0.031887867 0.038183738 0.057129122 -0.08281927 0.12354331 0.27547964 -0.14720623 -0.017382646 0.13893436 0.20001066 -0.052709837 -0.17346802 0.16391684 -0.18793623 0.15788311 0.02577738 0.18225296 0.25184256 -0.057971254 0.04241291 0.13687402 -0.17357193 0.23813795 -0.07979356 0.081901036 -0.061116364 -0.21890485 0.2133409 0.09464815 -0.11309283 -0.16891846 0.14246415 0.07928379 -0.056835998 0.06272157 -0.16611871 0.07737887 0.1661808 0.12838338 -0.21311568 0.114778765 0.046207815 -0.068665475 0.049084786 -0.100501925 0.05663719 0.08605725 0.20724767 -0.08406726 0.007995047 0.48006755 0.03848499 -0.031956423 0.044088297 -0.17662989 -0.06921085 -0.11116171 -0.03807253 -0.07948343 -0.04081146 -0.06134383 0.280961 0.22182864 0.044463597 -0.045569688 -0.10447194 -0.085134394 -0.04196009 0.28581208 0.18153758 0.07398923 -0.08280867 -0.081883475 -0.11747786 -0.007901682 -0.055294145 -0.15296544 0.0585384 0.05481907 -0.06817256 -0.052307032 0.22397266 0.10004864 -0.1374189 0.06360983 0.00083939487 0.012739266 0.0955425 -0.0047608954 0.0037583066 -0.093803905
31 -0.14658214 -0.06314775 -0.17128637 -0.092476025 -0.31801707 0.09954025 0.03492849 -0.10078812 0.25650522 0.26112273 -0.06870686 -0.015329216 0.06346464 -0.16567552 -0.13955227 0.15496455 -0.2887946 -0.06272397 0.120712414 0.19696057 0.27486542 0.12003593 0.062001556 0.02453392 0.15853538 0.053073026 0.060614217 0.076580584 -0.011540715 0.23154065 -0.17025807 -0.082387924 -0.053262837 -0.17836833 -0.15526742 0.15935142 0.11619894 0.04957456 0.10038952 0.024147164 0.037933093 0.046769585 0.29150698 -0.07940274 -0.07638679 0.09603299 0.22851066 0.020448726 -0.13470797 0.16547404 -0.045544278 0.034446027 -0.006459472 0.046751734 0.2711054 -0.017625466 0.11117058 0.30068648 -0.23679486 0.12715703 -0.08444806 0.08399435 0.024598649 -0.32251874 0.31929368 -0.05458292 0.004429618 0.014373026 0.1732561 0.25583676 -0.008763522 0.18873727 -0.15952434 0.08447057 0.10852669 0.15874083 -0.24702969 0.031376723 0.097795874 -0.061194494 0.017744362 -0.1030538 0.23399751 0.086380854 0.20711188 -0.021334684 -0.049882974 0.48024705 0.2235313 0.16147518 0.053420305 -0.19268669 -0.14517596 0.004186261 0.024506994 -0.003726336 -0.12784654 -0.06337278 0.22114699 0.22241463 0.00090862135 0.021290401 -0.08075387 -0.23563163 -0.006699286 0.52245116 0.21259615 0.15108566 -0.16488549 0.07168304 -0.19250035 -0.01898984 -0.07538007 -0.0802314 0.20979297 -0.06978598 -0.07059735 -0.007657948 0.036781948 0.17532805 0.018222123 0.025601692 -0.055526517 -0.20411426 -0.00073882233 -0.09842673 -0.020273615 -0.055506475
72 -0.2189694 0.005181339 -0.1745817 0.025846971 -0.10988021 0.026715713 0.070620336 0.0053408113 0.12562627 0.27340105 -0.015785456 0.045060582 0.011528384 -0.15690918 -0.011342521 0.018982083 -0.096840054 -0.04419326 0.0016887303 0.07036662 0.09834068 0.05778477 0.058986377 0.0048050373 0.20298979 0.036774043 -0.09682753 -0.047536567 0.088982 0.15361547 -0.108326726 -0.16308515 -0.121961646 -0.052439824 -0.08123674 0.002543848 0.07955476 -0.0026965488 0.04749156 0.04453687 -0.039504312 0.042664874 0.20118614 -0.109475926 -0.1088624 0.17163369 0.15142041 -0.05729092 -0.027480088 0.10497777 -0.19233227 0.03806113 0.009960787 0.18341942 0.15657037 -0.05294017 -0.010708857 0.2428666 -0.19932124 0.19385059 0.05450045 0.028684793 -0.09072549 -0.20511644 0.23982 0.12153747 -0.03812137 -0.17143708 0.14677006 0.047235146 -0.08229736 0.122654796 -0.15414575 0.052305166 0.11608952 0.09372958 -0.268541 0.059446134 -0.0010481819 -0.014352189 -0.08518166 -0.04744443 0.08550437 0.022708965 0.17605987 -0.17443013 0.0008693833 0.32885274 0.06015043 -0.060510006 0.010242919 -0.15284546 -0.050369915 -0.06267947 -0.0078095756 -0.02831584 -0.12304618 -0.12326057 0.13662648 0.07884947 0.050430402 -0.03820105 -0.124703914 -0.06850027 -0.088027306 0.1742976 0.13504103 0.08386499 -0.07609722 0.037278738 -0.08580218 -0.15056747 -0.053223472 -0.16976053 0.11810817 0.034012023 0.005007132 -0.040534392 0.20096675 0.18018587 -0.0567756 0.059918556 -0.019753259 -0.008270954 0.13260637 -0.07137119 -0.018568998 -0.062104743
39 -0.065448895 0.018138425 -0.18662786 0.05848151 -0.041620977 0.01667401 0.088220716 -0.009433997 0.15919478 0.30135587 0.09344133 0.09789701 -0.13615966 -0.15719056 -0.04311195 -0.038442563 0.014574507 0.08971816 0.039105285 -0.011812714 0.04428184 -0.0518349 0.15473832 -0.21021603 0.35457644 0.075630195 -0.13123356 -0.16255371 0.25305808 0.06600887 -0.22132458 -0.34436023 -0.13130535 0.06781906 -0.127001 -0.23540261 -0.0019383872 -0.0071667037 0.042606153 -0.11264628 -0.13763018 -0.13620812 0.34835613 -0.11455771 -0.13654092 0.15063718 0.078327134 -0.14172126 -0.25049528 -0.04791433 -0.20143586 0.121219575 0.012312574 0.23803547 0.21326637 -0.07579566 -0.31493992 0.38184467 -0.31041068 0.31934273 0.017699905 -0.28015062 -0.15183593 -0.024477987 0.23204954 0.078097574 -0.24658483 -0.2318387 0.2697054 0.061144006 -0.120294064 0.016173486 -0.06510278 0.10799651 0.0036430664 0.0613819 -0.31620434 0.09974614 -0.06561184 0.081640966 -0.23585176 -0.070936635 0.031742994 -0.0731953 0.26539633 -0.27302647 -0.03947524 0.21710628 0.07115055 -0.16211689 0.016918728 -0.20661199 0.06682036 -0.01645184 -0.107923925 -0.19502555 -0.17603488 -0.03743695 0.0068303477 0.07843796 0.085976884 -0.13403603 -0.14230186 0.0071451794 0.025621623 0.08805338 0.16980675 0.10701333 0.044217106 0.23176268 0.05424254 -0.37222096 0.10256409 -0.25171092 0.14019077 0.13327967 0.103661165 -0.1678258 0.24622673 0.12638222 -0.10062688 0.14854158 -0.041170787 0.04433086 0.26561156 -0.117678456 0.038774863 -0.25485104
43 -0.20103596 0.048453473 -0.17507829 -0.027843812 -0.0732521 0.048610266 0.0726086 0.08101824 0.1255109 0.25208375 0.021775821 -0.05261229 0.10791291 -0.1510562 0.0017231858 0.07155015 -0.13809462 -0.040492013 -0.006488276 0.0696605 0.08663578 0.021439698 0.020438341 0.005726505 0.25501212 0.023124164 -0.060934138 -0.027669128 0.037177157 0.18738815 -0.10735261 -0.09012662 -0.16193016 -0.113936864 -0.099198595 0.011529021 0.05042239 -0.024263697 0.03105101 0.10180406 -0.07227035 0.1062037 0.17287041 -0.12602957 -0.06326022 0.14068672 0.17540865 -0.07722309 -0.06502819 0.11441679 -0.22304186 0.08590942 0.07317571 0.19197632 0.17763045 -0.059032697 0.027687669 0.16133304 -0.16984256 0.22465387 0.008754814 0.11060442 -0.09472265 -0.20838276 0.23097005 0.14216982 -0.0440014 -0.17941791 0.12082526 -0.006684968 -0.077630214 0.07723355 -0.12599082 0.05938237 0.17670806 0.092859626 -0.27541876 0.082931906 0.04584252 -0.031523935 -0.007603599 -0.05239654 0.017050235 0.04157234 0.17538631 -0.15772255 0.012642315 0.39370516 0.014321212 -0.0762798 0.03946224 -0.13697976 -0.037638757 -0.12250899 0.02991984 -0.040634938 -0.11207634 -0.110131815 0.23208687 0.101646945 0.056186076 -0.030772906 -0.115623616 -0.0409633 -0.08996082 0.1914134 0.16086309 0.06835205 -0.04346025 -0.03958208 -0.072142005 -0.08835938 -0.067736514 -0.1666129 0.027926356 0.09235597 -0.04238542 -0.08769734 0.1821105 0.18653329 -0.07558645 0.06744133 5.5308745e-05 0.033075504 0.11187325 -0.04502888 0.003720603 -0.08994385
42 -0.10081183 0.094713636 -0.14142346 -0.13681336 -0.14016452 0.04754796 0.071355976 0.024168884 0.16024554 0.23917128 0.1517989 -0.13214143 0.11670663 -0.20962441 -0.15317687 0.04648767 -0.08968802 -0.02045127 0.08221692 0.102372535 0.14738671 -0.032705363 0.1470611 -0.27465624 0.31189606 0.029844966 0.002882898 -0.0655351 0.054103117 0.22660977 -0.1511016 -0.16459496 -0.14343902 -0.04296932 -0.26970166 -0.11931753 -0.06954482 0.010640316 0.06927699 -0.06976297 -0.10050479 -0.009000743 0.36697176 -0.0936032 -0.024063244 0.009217906 0.16049856 -0.15989475 -0.38944596 -0.0013694096 -0.06158979 0.25166783 0.13026187 0.13449013 0.20532696 -0.11250069 -0.12527701 0.2921396 -0.27654552 0.2889282 -0.08628489 -0.091038026 -0.085183 -0.15012102 0.15820445 0.005706739 -0.21336547 -0.25980785 0.2679717 0.052204452 0.0116551295 -0.093243405 -0.11601928 0.11307815 0.18428198 0.25474045 -0.2968093 0.14929712 0.025748774 0.011467107 -0.06486877 -0.136514 0.063213825 0.026435131 0.25621778 -0.14513087 -0.14290564 0.33106318 0.08533225 -0.030960474 0.18910524 -0.23904635 0.10466078 -0.06573728 -0.109990716 -0.22630599 -0.05173586 0.031064657 0.28225997 0.32856217 0.03473879 -0.15339912 -0.11146087 -0.045516245 0.011975073 0.2943175 0.23354357 0.14368343 0.08058535 0.140698 -0.039507035 -0.2840059 0.082370766 -0.19252883 0.029558644 0.053452633 0.026849724 -0.19081044 0.10635752 0.1912504 -0.20085774 0.10636765 0.022470819 -0.056521222 0.07348387 -0.091236785 0.17264533 -0.22637022
47 -0.3000026 0.25800753 0.2640515 0.44053316 0.33678094 0.07166227 0.24677312 -0.07758721 0.01830734 0.05306902 -0.2876792 0.04897799 -0.22007795 -0.33946413 -0.0070254356 -0.2469573 -0.17477946 -0.1718009 -0.075353906 0.3731123 0.13243935 0.021449793 0.05795857 0.078823596 0.1990798 0.21716295 -0.10884105 -0.29570526 0.38572353 -0.2550424 -0.5671716 -0.21119733 0.07055197 0.10498448 -0.29209355 -0.05598693 -0.45160082 0.071756236 -0.03531566 -0.33258343 -0.16157566 0.070328586 0.117563 -0.26228225 0.04471602 0.014280119 0.027276946 -0.16788094 -0.01594076 0.17209333 -0.5316952 -0.10725637 0.22209808 0.2029266 -0.20097661 -0.17972054 -0.3533435 0.07578589 -0.14658216 0.22424656 -0.009788294 0.111490525 -0.027135558 -0.039431684 0.638892 -0.095044486 -0.14146808 -0.57288724 0.13091752 0.15545945 -0.0688001 0.08516552 0.093007855 -0.015975602 -0.2435134 0.38945946 -0.07178937 0.030108113 -0.39378503 0.3448884 -0.3984516 0.26004735 0.07169331 0.10612327 0.37984908 -0.3082763 -0.13688582 0.45895207 -0.23810147 -0.07605873 0.06775881 0.005307213 0.32676005 -0.14547004 0.026409399 0.074088715 0.027950563 -0.39026633 0.13987583 0.22226293 0.34765613 0.30513006 -0.04367123 0.09050907 0.20942229 0.2011212 0.36580357 -0.102161534 -0.00016908027 0.09512412 -0.020677332 -0.58281785 0.012381949 -0.08902847 -0.047697093 0.5334828 0.10793787 -0.036319125 -0.38078815 0.42463723 0.29666054 -0.042184334 -0.00999647 0.32511178 -0.15635815 -0.22962621 -0.16097428 -0.124681406
44 -0.11951984 -0.004151046 -0.20584947 -0.037346795 -0.069560856 0.052730493 0.04950745 0.060105868 0.154242 0.250389 -0.03758218 -0.06763458 0.08550066 -0.1267029 0.018394984 0.13521756 -0.18791983 0.021972496 0.03184478 0.10602051 0.12607956 -0.009716533 0.029794827 0.055902153 0.24772242 0.069169536 -0.011578746 -0.0015498374 0.057654906 0.16755763 -0.16700171 -0.054557875 -0.13729858 -0.14995922 -0.057505567 0.035273034 0.040624876 -0.028443119 0.034264445 0.091738306 -0.07975603 0.11900882 0.20115177 -0.14122908 -0.037628982 0.15833381 0.18617165 -0.048557147 -0.06343153 0.15433028 -0.23432688 0.059511136 0.024969073 0.1845745 0.2352879 -0.031646453 0.04355888 0.14026566 -0.16409871 0.21636127 -0.052816305 0.111376755 -0.05970886 -0.21991304 0.28513992 0.10327089 -0.057841625 -0.09995039 0.100217775 0.09414046 -0.08264691 0.12711576 -0.10462218 0.0569889 0.12328274 0.06891284 -0.22250707 0.06709578 0.06366525 -0.046910957 0.035978366 -0.043163806 0.033455882 0.059630014 0.18667993 -0.09907762 0.057611745 0.4533868 0.03904583 -0.021401882 -0.017161567 -0.11543062 -0.07729532 -0.108965114 0.03751819 -0.0039625503 -0.1024397 -0.08915157 0.23213205 0.10536473 0.06973515 0.015486534 -0.10213175 -0.071377076 -0.040350463 0.27476507 0.15902844 0.04979352 -0.089009315 -0.071372636 -0.08875156 -3.6031008e-05 -0.08786196 -0.11574384 0.053353667 0.09864424 -0.07786336 -0.0488373 0.15379773 0.13447447 -0.03877473 0.06555059 -0.02455236 0.04140484 0.0964985 -0.02465807 -0.06526626 -0.092177756
74 0.033020545 0.2641513 0.054859575 0.19581613 0.21159332 0.10116095 0.2129751 -0.029994322 0.1030376 0.13717796 0.036976475 -0.013219609 0.07463391 -0.14247113 -0.05227998 -0.07925054 -0.123436436 0.032444034 0.043549236 0.24475528 -0.018938242 -0.16046792 0.04060459 -0.17841332 0.28647017 0.0918053 0.17833465 -0.08656912 0.21421695 -0.18330055 -0.44213748 -0.16093649 0.031828374 -0.067598954 -0.26525104 -0.19981362 -0.28233716 0.048882663 -0.09981589 -0.30294693 -0.114271745 0.090254314 0.2271857 -0.231176 0.18217173 -0.13229929 0.053067885 -0.30350974 -0.28314048 -0.099436074 -0.21231934 0.029101897 0.14619093 0.20303917 0.0446295 -0.066837385 -0.32443514 0.16458154 -0.22696082 0.272383 -0.15860444 -0.009205941 -0.07786929 0.065265484 0.4390082 -0.10368009 -0.27538842 -0.4003791 0.1560002 0.17753686 0.0053189253 -0.045638587 0.115959644 -0.010338198 -0.14454511 0.18930462 -0.16525592 0.08211721 -0.09890408 0.14202672 -0.21881643 0.063873336 -0.04939217 0.03497804 0.27209434 -0.08193416 -0.13578515 0.37306613 0.03137981 -0.14523742 0.090021774 -0.02565859 0.1677487 -0.006114271 -0.01967502 -0.0694633 0.020120282 -0.11157115 0.28573734 0.22289024 0.19226526 0.1196344 -0.07257529 0.1197007 0.23180929 0.2893657 0.3616024 -0.05056295 0.13236839 0.13191004 0.059856202 -0.4561949 0.11549973 0.00018543536 -0.068539456 0.40640703 0.03580196 -0.11844911 -0.32692787 0.17722332 0.19071701 0.2071613 -0.05909902 0.23965229 -0.04424694 -0.081061624 -0.08921987 -0.2840135
12 -0.11316721 -0.06910114 -0.14432164 -0.033570502 -0.20053934 0.1125175 0.041482586 -0.024875715 0.21992965 0.21082915 -0.07721763 0.0029429337 0.0646108 -0.06546613 -0.057082307 0.14511971 -0.2648737 -0.034737103 0.056820277 0.1415179 0.21050255 0.093732424 -0.02192929 0.11852091 0.15662609 0.02991948 0.019001156 0.07993496 -0.019782938 0.16502918 -0.14617404 -0.033003733 -0.0763074 -0.18772551 -0.102573775 0.1586123 0.13497573 0.009153924 0.08380356 0.10764594 0.0025759165 0.08214568 0.15620297 -0.07425352 -0.07397952 0.1236537 0.20003568 0.030024832 0.015444994 0.16766365 -0.14013311 -0.028283179 0.0038377931 0.061973616 0.21749002 0.013955556 0.1401986 0.182716 -0.15884906 0.10971883 -0.04882236 0.15137663 0.009718536 -0.28429607 0.30619827 0.01077745 0.053058315 0.07150685 0.07251815 0.17231417 -0.032916136 0.21241231 -0.089145355 0.047127094 0.08788896 0.053058226 -0.2105369 -0.0006045697 0.11330908 -0.056342565 0.057662625 -0.032851607 0.1370399 0.05801843 0.15376921 -0.026955483 0.040609147 0.40657994 0.1504922 0.108611956 -0.027191965 -0.097097985 -0.14402537 -0.05299127 0.10953107 0.07480322 -0.14941593 -0.07972371 0.16791005 0.07253003 0.032743692 0.069069386 -0.05717081 -0.15499863 -0.02230836 0.38823476 0.12884864 0.07918456 -0.1435511 -0.011106789 -0.122234076 0.055544965 -0.12054371 -0.0400785 0.12161627 0.00030410977 -0.08911823 0.004199337 0.02068756 0.15049037 0.06761776 0.0063083055 -0.056463316 -0.10384738 0.014546571 -0.0664054 -0.0848396 -0.035852775
52 -1.3695098e-06 -0.08893933 -0.2339425 0.13989462 -0.013677407 0.03368041 0.11847292 -0.027005145 0.18671015 0.39894274 0.067893766 0.18815011 -0.2637124 -0.08980315 -0.0073765167 -0.034852978 -0.015764864 0.17290883 0.08787768 -0.034763098 0.052277207 -0.08762768 0.15449926 -0.15970063 0.41948438 0.09675973 -0.20545185 -0.19046484 0.3459272 0.05197674 -0.30058104 -0.43988836 -0.17844026 0.098571114 -0.079483524 -0.3082255 0.029719343 -0.022060985 0.10352728 -0.06262427 -0.21388376 -0.18406579 0.42286465 -0.15954563 -0.19970101 0.2528036 0.09414234 -0.105798654 -0.18145557 -0.05016965 -0.28777155 0.064927086 -0.018990671 0.29017165 0.26239988 -0.0428325 -0.3939681 0.40038964 -0.3595246 0.3535683 0.071269244 -0.37931788 -0.15132432 -0.001097549 0.29644188 0.12989025 -0.303803 -0.1780709 0.3114391 0.12456723 -0.20881362 0.07731082 -0.048033454 0.13426323 -0.038881514 -0.020902665 -0.38135394 0.04189406 -0.052315634 0.1272256 -0.2483233 -0.07864063 0.01325138 -0.1526309 0.31229827 -0.34469458 0.04130726 0.22649883 0.0763625 -0.20648028 -0.06264094 -0.21459916 0.056632005 -0.067110054 -0.07853261 -0.15472567 -0.26180324 -0.041875705 -0.11118895 -0.03997422 0.11417837 -0.14851668 -0.15055773 0.014463214 0.06537005 0.044644907 0.14084056 0.12491362 0.06210961 0.30942428 0.14266485 -0.36629212 0.12810563 -0.2745276 0.18329798 0.18740503 0.12859443 -0.19067083 0.34500614 0.12580843 -0.07527894 0.1336245 -0.11226574 0.16084589 0.3746526 -0.17519882 -0.022266597 -0.23740134
73 -0.008767677 0.29043257 0.08233373 0.2046703 0.24030574 0.09678147 0.22701555 -0.022567675 0.08887425 0.13260876 0.032871597 -0.029103272 0.058312647 -0.17280883 -0.058744475 -0.10729268 -0.108955756 0.012573378 0.032005798 0.2538485 -0.015398595 -0.15933219 0.059180398 -0.19931448 0.3058046 0.1096482 0.14761274 -0.12794977 0.22665389 -0.17697401 -0.4522518 -0.17470875 0.018399632 -0.037023894 -0.2903644 -0.21557613 -0.32795775 0.05002252 -0.09995163 -0.31560376 -0.13557729 0.08948093 0.22898917 -0.24193822 0.1731125 -0.13204375 0.04233963 -0.3185686 -0.29181 -0.08775326 -0.24766965 0.04770673 0.18046196 0.21432081 0.016951174 -0.09665579 -0.35464853 0.16255489 -0.2260369 0.29435006 -0.15704326 -0.0109167695 -0.091142796 0.05881843 0.44918773 -0.09881776 -0.28974614 -0.46072447 0.17668936 0.15183406 0.00026011077 -0.06058778 0.115815975 -0.010580424 -0.13701211 0.23198521 -0.17478843 0.1044239 -0.13566467 0.16165265 -0.25888962 0.084374964 -0.059743464 0.049480792 0.29010597 -0.11379433 -0.1507398 0.38931054 -0.0101132365 -0.15204611 0.10943851 -0.031474415 0.2145447 -0.014990271 -0.037661888 -0.088495515 0.0338247 -0.13072748 0.3087095 0.25728464 0.21472669 0.11173108 -0.07258671 0.14323105 0.22676963 0.273868 0.37359226 -0.057252422 0.14432429 0.13017939 0.05599808 -0.5064334 0.120101 -0.015826512 -0.078585155 0.43349573 0.044912905 -0.13480875 -0.32969132 0.2163243 0.17433931 0.19823264 -0.04668895 0.25617555 -0.0447077 -0.09429507 -0.0681854 -0.29211158
56 -0.16647814 -0.003206685 -0.17595981 0.15701422 0.014461974 0.023624854 0.12036923 0.010549002 0.16362761 0.3209343 0.025671775 0.18353492 -0.094699666 -0.08154539 0.029365154 -0.09092368 0.0020507227 0.0075283065 -0.020508785 0.0040829144 0.02864327 0.0008905092 0.060254574 -0.006625209 0.31219482 0.055889998 -0.16683768 -0.1362154 0.22588651 0.03898335 -0.20393667 -0.3092768 -0.15533045 0.01328909 -0.057077628 -0.1594994 0.10150425 -0.012934435 0.033614814 0.019816443 -0.10897612 -0.022456389 0.19195129 -0.13829254 -0.15900765 0.22276065 0.1038162 -0.12003916 0.01714498 0.01654204 -0.2748148 -0.03908453 0.009849184 0.28146362 0.15668601 -0.01962222 -0.19368935 0.343869 -0.23627985 0.25705448 0.109858364 -0.118506946 -0.16087183 -0.09287989 0.30824423 0.17979755 -0.09776082 -0.20836979 0.17416498 0.06568896 -0.1568801 0.14685744 -0.08205251 0.0225995 0.023443192 0.0031600357 -0.32621586 0.057052214 -0.034133017 0.068410285 -0.21070096 -0.002526651 0.010182007 -0.06768915 0.19874449 -0.28756818 0.08678103 0.21836713 0.06529113 -0.16685127 -0.07028518 -0.1327291 0.030493468 -0.04733793 0.018969186 -0.029422717 -0.22340047 -0.10081897 0.029804865 -0.05884358 0.12237507 -0.027951138 -0.1601181 0.029130362 -0.048979677 0.02957575 0.09496221 0.05477491 -0.020259285 0.14317255 0.034793865 -0.30247244 -0.011940407 -0.19690073 0.15684511 0.121876605 0.09132544 -0.094989836 0.20234323 0.22341323 -0.015137249 0.12551741 -0.062423706 0.10983826 0.24320309 -0.13094777 -0.08218948 -0.13176253
33 -0.21729025 0.039176576 -0.1674267 -0.055699013 -0.15518636 0.048327487 0.057003394 0.02802757 0.13177536 0.24110773 -0.0103147505 -0.05742929 0.11621237 -0.17874332 -0.04512542 0.09556425 -0.17704163 -0.06542141 0.017013924 0.1207862 0.13643491 0.070586324 0.041410998 0.010081325 0.18625377 0.036829825 -0.010887966 0.012593581 0.0015053584 0.19196382 -0.09262644 -0.06423491 -0.10884164 -0.12215677 -0.109951064 0.082700714 0.06560152 -0.010296388 0.03639887 0.057096105 -0.015535578 0.10991337 0.18974173 -0.11329481 -0.055735238 0.115945905 0.17422406 -0.05039284 -0.09019032 0.14682175 -0.15569563 0.08318425 0.036965333 0.15036026 0.17418031 -0.05859558 0.08681816 0.1851002 -0.18842383 0.17416173 -0.013170182 0.13229337 -0.06681598 -0.24605705 0.24257441 0.07561116 -0.013995301 -0.15152884 0.12477631 0.039645597 -0.04149177 0.107642174 -0.15300547 0.06605574 0.15957446 0.13419613 -0.24047238 0.06234542 0.044585783 -0.060072295 0.00166177 -0.06744948 0.10105673 0.07994251 0.16732323 -0.10669459 -0.03348192 0.41784546 0.063879766 -0.018755376 0.05361719 -0.14499731 -0.08023159 -0.07743486 0.008015333 -0.028030932 -0.08015256 -0.12248161 0.24383354 0.15805514 0.034507506 -0.017125592 -0.09942777 -0.09845483 -0.07786542 0.28143668 0.18188666 0.08526708 -0.088011846 -0.03196595 -0.14005801 -0.06868662 -0.07177474 -0.13952224 0.07200391 0.030067153 -0.051471107 -0.041838225 0.13896357 0.1574928 -0.04957948 0.05062721 -0.0022752758 -0.06126249 0.05498939 -0.027496194 0.0023281123 -0.06601056
7 0.12956612 -0.030239554 -0.08377936 -0.065307304 0.09995716 0.31414 0.12254788 0.24213585 0.3745071 0.18024778 0.06356339 -0.19979686 0.2359416 0.14522806 0.022263873 0.3163949 -0.5148239 0.05207134 0.08394644 0.11047893 0.20167576 -0.07694041 -0.2876752 0.16832517 0.49159068 -0.03212543 0.07752973 0.07776995 -0.058763698 0.14181347 -0.35049117 0.12429416 -0.2680955 -0.39009005 -0.26405075 0.06754319 0.022823596 -0.07103757 0.106923126 0.36122534 -0.24787913 0.24893925 0.055525597 -0.16403343 0.0585245 0.08196768 0.27840897 -0.05951924 0.0012740956 0.14907177 -0.45850435 -0.014205877 0.29190254 0.13718602 0.33763027 0.042637113 0.107067384 -0.07139026 -0.08778807 0.30434757 -0.19999495 0.33693406 0.018450083 -0.28075483 0.5151494 0.07319843 0.003942399 0.21439259 -0.04443337 0.12749697 -0.07961618 0.16097808 0.20892702 0.08288182 0.193714 -0.035793737 -0.3657881 0.029443229 0.320043 0.035835102 0.2581157 0.043346174 -0.20058443 0.016254934 0.27456167 -0.058792975 0.20645553 0.673861 0.017026484 0.064908564 -0.0545879 0.031018747 -0.013033672 -0.344853 0.39116627 0.13225314 -0.30558598 -0.030293608 0.36206296 -0.027478175 0.18428758 0.2143429 -0.031211773 0.038352743 0.13809331 0.51494116 0.19960262 0.015615782 0.043271825 -0.13124055 0.09788256 0.18153137 -0.16374603 0.041679066 -0.23826472 0.4363434 -0.2592999 -0.2559578 -0.21533267 0.31787914 0.17883512 0.029786516 -0.10183319 0.23976049 -0.009640236 -0.11685006 -0.15019903 -0.25080252
5 0.0487315 -0.009748651 -0.09353663 -0.016264224 0.097723715 0.31491384 0.12557288 0.22248514 0.3873915 0.1863712 0.0015533275 -0.1558018 0.23317948 0.114905566 0.047788516 0.30276632 -0.52739245 0.01535146 0.03688415 0.12915404 0.1951766 -0.030220896 -0.29554853 0.2505048 0.4834548 -0.017975615 0.08010379 0.07017029 -0.03338876 0.11092075 -0.37575263 0.12137269 -0.23169151 -0.4098979 -0.23316918 0.12639247 0.059360765 -0.064835966 0.06661062 0.3402882 -0.2096423 0.2714979 0.0044179 -0.17825595 0.048639078 0.114404805 0.2758845 -0.06033688 0.065923184 0.18663774 -0.49808183 -0.074443385 0.2576084 0.1602369 0.314173 0.043738738 0.143179 -0.046668485 -0.09628472 0.28942618 -0.17215899 0.38836238 -0.008694551 -0.31443802 0.57161194 0.08421728 0.0635405 0.1845445 -0.07129336 0.13116096 -0.08916377 0.22565301 0.1943641 0.052037343 0.15919788 -0.0459149 -0.348099 0.020504097 0.2758294 0.028262043 0.2208845 0.07705379 -0.16609848 0.04091755 0.25979394 -0.07294136 0.2220697 0.7013692 0.020323582 0.054904614 -0.09106416 0.049820706 -0.05169767 -0.31760556 0.41172317 0.17188911 -0.30445608 -0.08981271 0.36312562 -0.06073558 0.20218928 0.25923246 -0.054602906 0.018080924 0.105196655 0.51202965 0.20869832 -0.010815999 -0.0214111 -0.16132346 0.048301626 0.17060912 -0.2098276 0.040539686 -0.1990052 0.44001848 -0.2543835 -0.20036204 -0.22584379 0.33056366 0.24047644 0.037888847 -0.10570028 0.21959415 -0.018973723 -0.103182726 -0.20129761 -0.22469538
6 0.09802932 -0.03034821 -0.0661887 0.015734818 0.1171673 0.32354203 0.13810863 0.1864397 0.39633763 0.1851047 -0.012856916 -0.11399317 0.16828184 0.14240782 0.045741778 0.28076503 -0.5196561 0.0371353 0.06405144 0.14313348 0.18865101 -0.045796834 -0.2875827 0.24101442 0.47866657 -0.012618388 0.07851593 0.05942097 -0.0027215604 0.067159295 -0.41280952 0.08621002 -0.21818839 -0.38770598 -0.24286969 0.08828306 0.028660135 -0.05190506 0.074164465 0.31705505 -0.21758121 0.22978434 0.024297366 -0.17153111 0.05013645 0.10133788 0.25565737 -0.05618853 0.0651777 0.15943365 -0.48889434 -0.089840904 0.24965101 0.14023912 0.3145293 0.057050377 0.08263719 -0.03763853 -0.092407346 0.27537683 -0.18389529 0.3296556 0.0097899325 -0.27712056 0.58393055 0.057077806 0.039604522 0.20436952 -0.06639202 0.18527843 -0.0918053 0.22895585 0.22337767 0.05058363 0.118783385 -0.048390247 -0.33687386 0.017271064 0.26638046 0.061311733 0.19221015 0.08302107 -0.15424137 0.01815824 0.2755436 -0.07385486 0.22563231 0.67093855 0.034430124 0.07760425 -0.10570477 0.06308114 -0.031733576 -0.3016794 0.39869633 0.17350386 -0.31272465 -0.06645187 0.3132251 -0.07578258 0.2127667 0.26791805 -0.034916393 0.025333805 0.15177266 0.5071799 0.20219664 -0.0086389305 0.00021147625 -0.10915651 0.07902102 0.13313164 -0.18790428 0.054773238 -0.1911039 0.45051256 -0.2413624 -0.2020642 -0.2592034 0.33912852 0.2587272 0.03222818 -0.12368034 0.2505234 -0.013256895 -0.12611325 -0.21513371 -0.23045638
8 0.18195096 -0.13372473 -0.08809106 -0.021670546 0.03013064 0.35462224 0.11944411 0.14869304 0.4364154 0.19857566 -0.033138208 -0.113596804 0.148812 0.1990876 0.020085087 0.35792914 -0.60448116 0.07218776 0.13456453 0.16463792 0.26409394 -0.039455287 -0.30118328 0.27278665 0.44887236 -0.013657462 0.10551025 0.12298032 -0.032133672 0.11294649 -0.43132377 0.10324836 -0.21920438 -0.42098546 -0.237237 0.12461897 0.06452402 -0.048042897 0.14407666 0.37249038 -0.21754095 0.21943155 0.08964694 -0.16089803 0.04222742 0.110864885 0.30479518 0.016414002 0.07788689 0.17821398 -0.43913126 -0.10401685 0.2330678 0.089624226 0.38722 0.0941773 0.13597603 -0.04794911 -0.115600966 0.24869646 -0.20799556 0.31560344 0.08175407 -0.32410574 0.5981703 0.013047143 0.045042366 0.34946218 -0.061857585 0.28573382 -0.09378287 0.26523286 0.23243405 0.08102164 0.11944798 -0.06982476 -0.34202605 -0.026445892 0.348494 0.047988266 0.27002862 0.044376373 -0.113627166 -0.004782329 0.29338786 -0.016379427 0.25253013 0.7027932 0.10609797 0.17168702 -0.12756129 0.05286994 -0.08222949 -0.3147468 0.4321645 0.21818744 -0.35553965 -0.020032607 0.28988445 -0.07570643 0.19166453 0.27200133 0.00013117 -0.033432934 0.19247162 0.6194946 0.19090371 0.0336971 -0.015437786 -0.089811295 0.08255573 0.24419536 -0.19248894 0.100830935 -0.16046326 0.40974885 -0.28187212 -0.2006297 -0.26200098 0.32137218 0.28059745 -0.009737499 -0.1650186 0.22130854 -0.018149242 -0.14865142 -0.24452865 -0.2001533
1 0.15341486 -0.08004548 -0.068678215 0.041348733 0.11597297 0.32160458 0.1376121 0.15792099 0.40489262 0.18964192 -0.021157278 -0.075192995 0.1204232 0.18260203 0.04937767 0.27486363 -0.510927 0.07249625 0.088137746 0.13258407 0.19121377 -0.06521886 -0.2823816 0.2387735 0.46831346 -0.007484869 0.070160955 0.061335023 0.024078257 0.046779495 -0.4324502 0.05697103 -0.21829891 -0.36865574 -0.2180352 0.053431105 0.047276743 -0.04333627 0.101917714 0.31595907 -0.22613846 0.19766195 0.04847051 -0.17170838 0.03483556 0.115156 0.25744447 -0.036214024 0.08748128 0.1317953 -0.47757035 -0.124592595 0.22526842 0.13321759 0.3333876 0.08103864 0.047730993 -0.014654003 -0.10264035 0.27435336 -0.17540519 0.2780657 0.026368985 -0.25600296 0.5927604 0.048388526 0.016492086 0.25504696 -0.05662839 0.2378328 -0.10565903 0.24822898 0.23940389 0.056989748 0.08332229 -0.08255035 -0.33585685 -0.0051895343 0.2714181 0.07847643 0.18657263 0.08437953 -0.15158242 -0.0106378915 0.2858472 -0.07054389 0.25074956 0.6335575 0.064613745 0.09077309 -0.13693473 0.060297195 -0.032836035 -0.2883348 0.4005991 0.18823007 -0.33913726 -0.042891853 0.2604529 -0.111148864 0.21604866 0.2728569 -0.031737797 0.024240496 0.17244013 0.5062914 0.17342463 -0.00096392655 0.0052234596 -0.07241618 0.106152676 0.14087322 -0.17278796 0.076043695 -0.156933 0.4391792 -0.23239744 -0.20380065 -0.2561868 0.32363093 0.27724436 0.030151112 -0.1522548 0.26012212 0.011826555 -0.15223905 -0.24487662 -0.21970254
4 0.11861982 -0.09891393 -0.11172785 0.0041918545 0.058772266 0.33829793 0.13608815 0.18348496 0.43033507 0.23296718 -0.016512018 -0.107294664 0.15735328 0.15945157 0.034034498 0.32106763 -0.56504756 0.05916805 0.10079642 0.1439459 0.24078123 -0.04201568 -0.29300392 0.25698608 0.49536955 -0.015043849 0.06475975 0.08570295 -0.00922623 0.119794115 -0.42633235 0.06754869 -0.24756818 -0.4051029 -0.2389433 0.0939944 0.06677632 -0.058176603 0.13137679 0.37215543 -0.23961762 0.23341879 0.084729955 -0.18201602 0.01886411 0.14053553 0.30316508 -0.022000307 0.07744339 0.17907186 -0.49829927 -0.09113208 0.23691843 0.14634527 0.3785116 0.06705917 0.109855965 -0.018424043 -0.13002256 0.2960466 -0.17548805 0.3149546 0.031191714 -0.3221537 0.6082077 0.06686552 0.0276903 0.26530063 -0.04444488 0.23484385 -0.11519838 0.25815067 0.20266762 0.07785919 0.13986717 -0.06877502 -0.38279355 -0.0021201929 0.31320122 0.05009313 0.23336977 0.050193403 -0.13115142 0.0014936563 0.30782467 -0.07511993 0.25522113 0.71928614 0.07482377 0.106452465 -0.12281338 0.035131752 -0.061941665 -0.33395952 0.41727763 0.19650683 -0.36591774 -0.05780707 0.30587676 -0.087763175 0.20728098 0.25419283 -0.038144674 -0.01375591 0.15716915 0.5688702 0.19876707 0.031346235 -0.013064801 -0.094063014 0.08126085 0.18867429 -0.19642879 0.047233373 -0.15898302 0.4314046 -0.25963593 -0.2199607 -0.20534068 0.34324944 0.24756385 0.015126261 -0.15244557 0.24953721 0.0153867 -0.14978258 -0.23338298 -0.21581717
9 0.11507329 -0.08798627 -0.123022586 -0.034890383 0.060117513 0.32334566 0.1285001 0.21654172 0.40226063 0.23608235 0.0003303333 -0.15236063 0.19720711 0.15279356 0.046532955 0.3516847 -0.5727897 0.068140894 0.10150366 0.13321567 0.235746 -0.04885027 -0.2922196 0.25301075 0.48790166 -0.023372142 0.057187207 0.09088328 -0.040633645 0.15833318 -0.3848158 0.10287471 -0.27070084 -0.4115598 -0.22661877 0.110696346 0.06597913 -0.069186665 0.13227424 0.40435934 -0.24676716 0.26010096 0.08796849 -0.18402885 0.022690441 0.14410321 0.31140688 -0.016055707 0.060750205 0.19875112 -0.49317953 -0.06169658 0.2553613 0.1532982 0.37433416 0.057539698 0.13956322 -0.059368312 -0.121462226 0.29831344 -0.17258547 0.3425091 0.029906813 -0.32760575 0.5795789 0.0899219 0.03082507 0.25986585 -0.04070371 0.18530734 -0.12132289 0.23356102 0.18670286 0.093498096 0.18709446 -0.06356765 -0.39192435 -2.8633629e-05 0.34023502 0.027599335 0.27213424 0.035029676 -0.153635 0.0025386564 0.29267722 -0.07703811 0.2452218 0.74024653 0.045484867 0.08660839 -0.104394056 0.026130367 -0.06943441 -0.3620731 0.42160708 0.18857515 -0.35112035 -0.06146542 0.3411461 -0.07310843 0.18914385 0.22939752 -0.041870646 -0.007152696 0.1271382 0.5630974 0.20969184 0.03598734 -0.0064870287 -0.13003404 0.081947885 0.22859988 -0.1925119 0.038341697 -0.18610835 0.43423826 -0.27756 -0.23125501 -0.16349041 0.33448243 0.21734713 0.009673626 -0.13313223 0.2577606 0.022864258 -0.1292739 -0.21214116 -0.2041335
46 -0.3496517 0.30614093 0.2971434 0.52538985 0.44809857 0.0937694 0.30048692 -0.038727917 0.034950256 0.065283895 -0.3288043 0.058263514 -0.24654768 -0.37638873 0.025996184 -0.27986196 -0.22006118 -0.19876213 -0.105590545 0.4177518 0.13717946 0.008490791 0.03400319 0.12365289 0.27400744 0.24361694 -0.14733103 -0.35137358 0.46313545 -0.2990312 -0.66978663 -0.23863386 0.054734465 0.103692345 -0.32533675 -0.07453473 -0.5166186 0.0633764 -0.048684277 -0.34158012 -0.2242132 0.10322025 0.107346885 -0.32657465 0.05244283 0.046530876 0.030852761 -0.20402044 0.022403093 0.21001478 -0.6861155 -0.1353646 0.284523 0.27985898 -0.2254938 -0.2056565 -0.41444334 0.059518907 -0.14991333 0.28370264 -0.0081843715 0.15080105 -0.04778015 -0.042156905 0.77452725 -0.06747079 -0.16096745 -0.6598063 0.13211475 0.1472922 -0.10302387 0.121621825 0.12740155 -0.016569538 -0.27766058 0.4202056 -0.113289334 0.038164586 -0.4400889 0.41357192 -0.45232418 0.32110858 0.035242826 0.11002993 0.44084713 -0.3847083 -0.11377037 0.56858647 -0.30597463 -0.11737817 0.0436658 0.031134319 0.3877669 -0.2109676 0.07287248 0.105056174 0.008603802 -0.46668386 0.16432628 0.20905834 0.42664996 0.36648905 -0.056320477 0.13076863 0.23209353 0.20401813 0.42330533 -0.13773017 0.008530645 0.07553112 0.008333213 -0.65428483 0.0031830026 -0.10762368 -0.09607935 0.671639 0.11462707 -0.056595493 -0.42970592 0.5125986 0.3582545 -0.044458844 -0.009057792 0.43805766 -0.16106668 -0.26306722 -0.20724908 -0.15851854
