77 128
11 -0.15581422 0.005830517 -0.097804464 0.11257721 0.053533852 -0.06907543 0.18351375 0.07522246 -0.12756503 -0.012212164 0.17188613 0.09596773 0.050118312 0.13485764 0.06663076 0.111048795 0.10373999 -0.08979654 -0.039370306 -0.1600852 -0.13653837 -0.018669626 -0.06045394 0.0042398116 0.05252121 0.15415503 -0.010146064 0.1771701 -0.07322851 -0.038630772 0.031288695 0.080611244 -0.035297867 0.14079638 -0.18398306 -0.10470861 0.14649774 -0.008340309 -0.029552026 0.068746865 -0.022846773 -0.01091784 -0.0333864 -0.07186279 -0.17559963 -0.008809105 -0.019337477 -0.002356805 0.08153563 -0.17395805 -0.15180568 0.010163554 0.115361385 0.03534906 -0.14473681 0.14973797 -0.13976803 -0.026410034 -0.02569225 0.18679942 -0.057355776 -0.231565 0.0043073418 -0.09143957 0.06600874 -0.043595493 0.07509918 -0.23495243 0.21350609 -0.024390161 0.19189562 -0.14828156 -0.084494136 0.068415195 0.010874696 0.023907853 -0.05470196 0.060763985 -0.06508313 -0.15147981 -0.0697181 0.005849249 0.07240411 0.091642395 -0.0740464 0.2193738 -0.046816546 -0.02522113 -0.015303419 -0.018808113 0.15885963 -0.0022537408 -0.017326986 0.10446047 0.07789758 0.13359398 0.06386983 -0.04253508 0.11413567 0.099035375 -0.08158038 0.12352588 0.031147547 -0.16698897 -0.10636459 -0.11879967 0.036195733 -0.022556853 -0.020249283 0.08944237 -0.012641446 0.046262674 -0.05911138 -0.057035677 -0.059181057 0.017608223 -0.1893669 0.08898553 0.105810754 -0.047803424 -0.18315394 -0.017297015 -0.09107062 -0.01307039 0.14240761 0.06508352 -0.028026111 -0.03591878
48 -0.25298735 0.06531744 -0.19825362 0.2349101 -0.056199525 0.04152596 0.29757035 -0.02488305 -0.09954308 -0.13071314 0.1209257 0.06114603 0.08539215 0.013078447 -0.014934756 -0.049765103 0.12428237 -0.1775665 -0.048729602 -0.31117052 -0.07293131 -0.034468465 0.11170832 -0.10980194 0.11184141 0.2866106 0.031739004 0.2455988 -0.25639918 -0.05081347 0.09079605 0.06032677 -0.024823552 0.17919356 -0.23449507 -0.121275425 0.16242215 0.033651445 0.023634965 0.08979054 0.059554175 -0.041136406 -0.06588929 -0.10127926 -0.07284084 -0.13756453 0.06349001 -0.104819104 -0.049934447 -0.19127919 -0.15080208 0.16584198 0.12714896 0.06407993 -0.14278123 0.10612072 -0.1336688 -0.04287783 0.07294356 0.06853121 -0.07636454 -0.075631715 -0.016823964 -0.042290945 0.18998085 0.11428785 0.1599165 -0.18066283 0.21798208 0.13077803 0.16918616 -0.32975966 -0.19078337 0.13723594 -0.028396612 -0.04324354 0.075568944 0.1129425 -0.1519351 0.060799494 -0.16523112 -0.04614862 0.080836184 0.12752676 0.000547982 0.07675419 0.053200983 -0.08085567 0.11751414 -0.16436233 0.30141306 0.14245273 -0.012237946 0.058469303 0.14382263 0.0002167027 -0.051531542 -0.036650095 0.21328457 0.108852565 -0.19923954 -0.10405754 -0.036431246 0.20769252 -0.09646064 -0.012726923 -0.031587414 0.034121897 -0.11970744 -0.054839075 -0.0011687924 -0.16676816 0.037599068 0.04415212 -0.13663085 0.15178958 0.0037524651 0.08040153 0.12081073 0.078694426 -0.08450648 -0.08178882 -0.0721941 -0.072694056 0.1155824 0.28797746 -0.026862198 0.025557818
55 -0.1961011 0.075132385 -0.16548896 0.19579856 -0.02820233 -0.008711362 0.25856107 0.021155138 -0.072760485 -0.079166085 0.10356186 0.05253302 0.05172046 0.102543935 0.026348598 0.01966437 0.08576706 -0.10408245 -0.025710909 -0.28108734 -0.12327111 -0.023114247 0.004539096 -0.07404043 0.05067751 0.21828197 -0.0076971687 0.19045676 -0.21213253 -0.05617802 0.10214432 0.048488513 -0.024489135 0.15187523 -0.16382316 -0.14158565 0.111771554 0.02696211 0.0069331364 0.10071871 0.0032987606 -0.004288587 -0.03155794 -0.039269727 -0.09294242 -0.13097566 0.021306502 -0.08430487 0.014091748 -0.15434462 -0.17951645 0.07265509 0.12807792 0.050085377 -0.16597717 0.13023987 -0.1244307 -0.039583184 0.04214871 0.12778683 -0.053089824 -0.12615494 -0.037769888 -0.043621 0.11039743 0.036122795 0.07862921 -0.18633975 0.1657631 0.07414777 0.17413114 -0.28504962 -0.18706954 0.08957553 0.02499917 0.001736308 0.02066979 0.11642776 -0.08873315 -0.013326736 -0.13931003 -0.031879596 0.046257734 0.07402867 -0.012224065 0.097575866 -0.0022864644 -0.057480633 0.09568 -0.14327314 0.24948673 0.08021435 -0.046869744 0.07202945 0.12264863 0.041453063 -0.007838744 -0.0561296 0.13678938 0.0998767 -0.124436125 -0.0180756 -0.0009070618 0.03255039 -0.07944795 -0.04794437 0.028105637 -0.014344927 -0.0602113 0.007294452 0.0357617 -0.05918739 -0.006488684 0.0028691236 -0.07707384 0.058237147 -0.064301215 0.012003748 0.10464371 0.059892368 -0.09915166 -0.0499697 -0.050453957 0.0120736305 0.078773305 0.20658171 -0.036405575 -0.023118634
27 -0.14802404 0.0686067 -0.12822783 0.20649594 -0.0013341845 0.023156777 0.19443277 0.050741833 -0.095964186 -0.05383751 0.10420601 0.1277392 0.07991872 0.120943435 0.07892859 0.056549862 0.10121775 -0.09631628 -0.048793044 -0.25252596 -0.13796775 0.017093979 0.020197207 -0.0673924 0.11120774 0.18299736 -0.054430224 0.18424588 -0.14799719 0.0065540266 0.0374679 0.043831065 -0.0057762596 0.11737893 -0.19456351 -0.084898256 0.123844706 0.012801321 -0.012031712 0.10065973 -0.061642885 0.04089712 -0.03182828 -0.072391346 -0.18161307 -0.09229224 0.063378505 -0.045725726 -0.0015196233 -0.19259794 -0.13138436 0.03782362 0.08050948 0.09965117 -0.12684926 0.11905739 -0.18683258 0.007888743 -0.035284773 0.10062464 -0.1032761 -0.15681598 -0.028399883 -0.078342594 0.09431973 0.0131149115 0.033671 -0.20372334 0.18789665 0.02149219 0.1433108 -0.25236654 -0.17964098 0.06243663 -0.02723574 -0.03814692 -0.0011871888 0.0674899 -0.08054563 -0.049036134 -0.15086836 0.028377213 0.04322435 0.080799244 -0.04634216 0.15947275 -0.09185451 -0.09922892 0.022301316 -0.10208957 0.25906223 0.052929126 -0.0060574664 0.05986319 0.09600327 0.073703945 0.050455954 -0.09407701 0.1740454 0.090011805 -0.13888356 -0.02572242 -0.00019237239 -0.017945647 -0.09478745 -0.032840736 -0.016450658 -0.058553044 -0.017845055 0.033517748 -0.05821347 -0.03982513 -0.06921621 -0.014920647 -0.12904401 0.030340532 -0.08873145 0.04305918 0.1887596 0.013765597 -0.09262855 -0.09004914 -0.07904831 -0.034940094 0.13275275 0.17663813 -0.04782463 -0.021846294
25 -0.18251486 0.09463227 -0.1642638 0.22082418 -0.023472408 0.046616934 0.22047104 0.044024885 -0.068375975 -0.063172735 0.07840457 0.09020766 0.067807615 0.12387082 0.06317664 0.047684994 0.08740768 -0.08412641 -0.0548253 -0.2987999 -0.1345303 0.020337583 0.014273499 -0.08114355 0.092970125 0.19767499 -0.044959437 0.17024559 -0.20339336 -0.009242556 0.08018793 0.032491732 -0.016728785 0.14653294 -0.14989887 -0.12700821 0.0868926 0.029166386 0.022269992 0.1240218 -0.06309867 0.03838598 -0.030741747 -0.044082236 -0.16285099 -0.14139812 0.05270416 -0.0707915 0.010904605 -0.17157744 -0.14799733 0.03593748 0.09471802 0.09425317 -0.14780633 0.12716201 -0.1742701 0.005850509 -0.011028216 0.08064158 -0.0810012 -0.14314424 -0.05293506 -0.08246639 0.095610745 0.038290307 0.01249414 -0.20005728 0.15352726 0.032454837 0.13538006 -0.2943162 -0.19793014 0.070517115 0.0055850646 -0.033444684 0.019981975 0.09595802 -0.054942355 -0.026262047 -0.1281878 0.017820926 0.029050652 0.046980012 -0.020954186 0.12568109 -0.07815521 -0.10203974 0.05741548 -0.12175028 0.26642537 0.077255964 -0.027856521 0.039183907 0.09302524 0.04730098 0.025020566 -0.07578787 0.1515567 0.11307416 -0.12584203 -0.05151769 0.006254472 0.024617828 -0.08694782 -0.028418701 -0.009671158 -0.036915533 -0.009283063 0.023917021 -0.011220789 -0.057395864 -0.042608865 -0.0053911386 -0.12899877 0.022061039 -0.052196067 0.012923305 0.15183966 0.03266115 -0.07722659 -0.08878476 -0.071267344 -0.017788248 0.114200525 0.19654085 -0.049654663 -0.021346943
23 0.08964603 0.20413736 -0.028196165 0.23590732 0.04022869 -0.0013963856 0.16453461 0.11135211 -0.059952416 -0.10748138 -0.050972864 0.19928592 0.06907752 0.3039132 0.13939923 0.17947355 0.044797268 -0.079492785 -0.068398096 -0.31224746 -0.31882262 -0.02742118 -0.005762943 -0.018801708 0.07540976 -0.004830839 -0.18080641 0.12141573 -0.16311806 -0.00994701 -0.018030632 0.045909945 -0.051680967 0.17957562 -0.12550731 -0.107337564 -0.004725665 -0.003259277 0.048855647 0.06819922 -0.25410774 0.11206186 0.07369772 -0.039010406 -0.2519621 -0.15354764 0.0029770937 -0.094319046 -0.02670866 -0.2754478 -0.23478845 -0.029192641 0.050973576 0.15981446 -0.08822458 0.12859073 -0.2527354 0.074225076 -0.15673192 0.23828395 -0.04466011 -0.21869037 -0.1006612 -0.052184492 0.056900337 -0.03363567 -0.12763609 -0.2827725 0.096744634 -0.07430049 0.2194797 -0.2842618 -0.16942237 -0.08449835 -0.040777415 -0.03436162 -0.11563168 0.15107842 0.007735639 -0.04665098 -0.1184103 -0.047358572 0.08379462 0.04400138 -0.069305815 0.1970791 -0.19452836 -0.13453741 -0.035652373 -0.08523838 0.31283903 -0.045854665 -0.06392856 0.11443754 0.109215215 0.060374096 0.09048212 -0.051323533 0.13907613 0.06265645 -0.013849067 -0.0011790637 0.11232257 -0.2642307 -0.042970452 0.038754344 0.046462163 -0.11906904 -0.018575363 0.16525835 -0.01783815 0.042848848 -0.12800655 -0.037685715 -0.01287689 -0.076064534 -0.086140394 -0.0844664 0.28142565 -0.005503043 0.019150045 -0.18979125 -0.06932744 0.029865386 0.061787494 0.04892334 -0.05617298 -0.16706298
58 -0.27427563 0.042403173 -0.21007065 0.22557627 -0.05927324 0.028092569 0.2983546 -0.012369757 -0.10152464 -0.10596137 0.14169052 0.053399682 0.068484016 0.0010214252 -0.01398994 -0.056035265 0.1305043 -0.16658902 -0.033964317 -0.29509422 -0.05548049 -0.013518518 0.08333457 -0.10800983 0.1020999 0.30216897 0.040806465 0.2535537 -0.24153693 -0.05403219 0.0969408 0.05669773 -0.02083323 0.1553697 -0.23402302 -0.12508518 0.17663868 0.03725306 0.0090693515 0.10302037 0.069806546 -0.05045984 -0.079143256 -0.09426682 -0.07439878 -0.12717322 0.06625846 -0.09910408 -0.023645997 -0.1584321 -0.14390606 0.1544593 0.14160344 0.04712434 -0.16618174 0.12964858 -0.12458937 -0.061884206 0.085419625 0.06254243 -0.08005104 -0.092499994 -0.0052448693 -0.05137076 0.17065655 0.087824054 0.16453189 -0.18528727 0.22596627 0.12227146 0.16153346 -0.30996364 -0.1968807 0.14827216 -0.005682524 -0.031405825 0.071271144 0.10969308 -0.16003673 0.033550855 -0.18051484 -0.031134712 0.06325969 0.11931235 -0.0053480733 0.08861649 0.045838136 -0.07348704 0.11881768 -0.1617896 0.288402 0.13997328 -0.015379837 0.058772355 0.1308949 0.020523475 -0.044362072 -0.06171184 0.19951054 0.11419228 -0.20611602 -0.08086981 -0.048236873 0.18688105 -0.10183564 -0.037124023 -0.013470519 0.01977789 -0.0944155 -0.05838111 0.004259421 -0.13869697 0.042751003 0.027431328 -0.14918242 0.14754651 -0.025550323 0.078150004 0.090314604 0.08114342 -0.11927739 -0.049446132 -0.0686346 -0.054660223 0.12235594 0.2716884 -0.03735555 0.03229191
0 -0.37184623 -0.07557368 -0.19402231 0.025334528 0.14099135 -0.23515417 0.3049544 0.21386825 -0.22869332 0.013482545 0.34319776 -0.011537365 0.053333733 0.15393128 -0.0064785006 0.17624359 0.16231172 -0.11933187 -0.02062108 -0.12035951 -0.15405372 -0.05642076 -0.26402512 0.08064247 -0.07531768 0.25051534 0.22889593 0.27490187 -0.09490815 -0.19397217 0.13377027 0.17026672 -0.09448794 0.31055593 -0.19940591 -0.25591245 0.2173388 -0.07209914 0.013898874 0.092666306 0.055870444 -0.17936786 -0.056481052 0.0345364 -0.19831344 0.11175126 -0.23368539 0.046681963 0.29434785 -0.13198721 -0.2986166 0.007159685 0.29835743 -0.06237492 -0.27449188 0.28354365 -0.07319819 -0.15893905 0.12311014 0.33797497 0.052941095 -0.3906773 0.03074293 -0.18216988 0.06153706 -0.11771426 0.22436653 -0.4213913 0.30773476 -0.044093516 0.3157958 -0.11669276 -0.019451374 0.15361066 0.1942799 0.2148771 -0.12471356 0.16477947 -0.059130926 -0.37442893 0.0048219995 -0.013421612 0.09306316 0.12823002 -0.10812742 0.35290554 0.0641939 0.09719207 0.0331591 0.05613037 0.0981086 -0.034361925 -0.06367463 0.15862128 0.07309317 0.24687283 0.056820724 0.009273021 0.101032786 0.22906958 -0.06273142 0.343279 0.06887219 -0.32917163 -0.14835508 -0.32088578 0.11172549 0.067088425 -0.06206861 0.23363969 0.119534925 0.20601112 0.037175395 -0.12340013 -0.029221365 0.081707776 -0.46525943 0.19127613 -0.05175711 -0.11270434 -0.46419823 0.11568208 -0.15988863 0.03383064 0.27699873 -0.04240127 -0.0018213978 -0.03024562
26 -0.1622245 0.07510785 -0.13076676 0.17475513 0.011801902 -0.02236469 0.20852117 0.06137571 -0.08353305 -0.05245343 0.10337752 0.08097368 0.062393628 0.14459123 0.0626108 0.0832028 0.081941575 -0.08242297 -0.041582566 -0.25397262 -0.15510295 -0.009972186 -0.037587866 -0.048033092 0.05412965 0.16842127 -0.033101633 0.15931682 -0.16786791 -0.03404478 0.07437355 0.04893768 -0.024137504 0.15770459 -0.14737055 -0.13524798 0.0966762 0.008441298 0.006845849 0.09897156 -0.055661954 0.011388534 -0.010756258 -0.02665559 -0.16110583 -0.09985144 0.0015522545 -0.051038314 0.0401699 -0.16606836 -0.16806214 0.012947658 0.10632877 0.062122658 -0.14845619 0.1366449 -0.15618834 -0.009826178 -0.016096786 0.14686885 -0.055411395 -0.17234477 -0.052612964 -0.079773754 0.07522804 -0.0018359938 0.026015239 -0.22461088 0.16274415 0.01699693 0.1701117 -0.24273548 -0.15506378 0.061593994 0.021816058 0.0037761973 -0.023377584 0.10199455 -0.040611494 -0.080828756 -0.10695202 0.0056745955 0.042858332 0.06532164 -0.042991687 0.15563224 -0.06038622 -0.06211325 0.046265725 -0.092638746 0.22419545 0.04028839 -0.03298777 0.074041516 0.09589447 0.074012026 0.043063488 -0.04920378 0.12383677 0.11280023 -0.09928205 0.028434506 0.03180159 -0.078288466 -0.08315865 -0.06820803 0.022893626 -0.03402733 -0.015270496 0.0649386 0.009883618 0.0028568904 -0.052489728 -0.021330629 -0.08056556 0.011824244 -0.12649304 0.013837209 0.14151081 0.0022183813 -0.11887295 -0.060992338 -0.076256335 0.0063597164 0.12683575 0.15363216 -0.03994494 -0.040195886
41 -0.2689075 0.038802575 -0.19939575 0.16761625 -0.00792334 0.0060535925 0.2504205 0.04308115 -0.09036593 -0.057533797 0.14855753 0.03198577 0.060780436 0.049032208 0.0062946165 0.004333951 0.10948334 -0.10762622 -0.04361086 -0.25931898 -0.08917861 0.0002439643 -0.0026116185 -0.07233247 0.063900895 0.25351712 0.056761153 0.21193555 -0.19562806 -0.064399995 0.10753735 0.053037588 -0.0131095685 0.16614327 -0.16617347 -0.13739051 0.13296194 0.013633613 0.024849059 0.11172656 0.019282278 -0.02996109 -0.06260942 -0.026890434 -0.10827871 -0.09418716 0.009210181 -0.0496441 0.05079625 -0.12785992 -0.15649977 0.069203414 0.14652073 0.041950416 -0.17276089 0.14122728 -0.11487847 -0.046691414 0.06878958 0.088050514 -0.05732747 -0.13725778 -0.020275291 -0.08198756 0.12133267 0.04452779 0.10417307 -0.20316264 0.17640255 0.06769056 0.14704308 -0.25627753 -0.16163017 0.121394955 0.040679436 0.014371632 0.03190156 0.10284815 -0.087354146 -0.054722764 -0.11634457 0.0055034193 0.029136976 0.06706691 -0.017738432 0.12873827 0.0046906834 -0.045068216 0.09474447 -0.11326988 0.21802765 0.09671195 -0.02813869 0.04771539 0.09551454 0.0556782 -0.01288495 -0.052201677 0.15184663 0.13284644 -0.14416921 -0.016255071 -0.019079776 0.06666512 -0.103270285 -0.08037498 -0.005431499 0.008605504 -0.045428123 0.015644755 0.029478066 -0.046017125 0.020552976 0.0039402833 -0.13408431 0.088601984 -0.099059895 0.06427736 0.068397336 0.034526918 -0.16141576 -0.020305611 -0.081085466 -0.023209453 0.14825085 0.18956155 -0.032255918 0.011685801
64 -0.23225571 0.03218595 -0.18424042 0.19233781 -0.04482521 -0.017574586 0.2900148 0.00080912 -0.107476726 -0.10498334 0.14634117 0.04741101 0.05742554 0.028933305 -0.012350991 -0.027853495 0.12286052 -0.16729692 -0.02722783 -0.2552764 -0.07487255 -0.045353282 0.069588155 -0.07252275 0.069939084 0.25651038 0.0540389 0.25333178 -0.21129327 -0.07917004 0.08799538 0.07839407 -0.040277485 0.16612642 -0.2284573 -0.123386644 0.17235808 0.026091574 0.016417585 0.08186662 0.075128786 -0.073352136 -0.06024253 -0.098269865 -0.07119603 -0.091399945 0.023696415 -0.096088074 -0.0053705364 -0.16813487 -0.17009695 0.15362719 0.15101784 0.028814549 -0.16234143 0.12619257 -0.10115219 -0.07250864 0.09083017 0.123684995 -0.05044285 -0.117743544 0.0026308713 -0.03808061 0.1642236 0.06751501 0.179407 -0.20079215 0.21576698 0.10472775 0.19754402 -0.27429256 -0.1586021 0.1306471 -0.005001004 -0.0047353515 0.04091588 0.116102725 -0.16146734 0.013572548 -0.15309906 -0.06633315 0.087289244 0.13264343 -0.014002987 0.10615576 0.065414056 -0.040102623 0.102628596 -0.13287158 0.25739956 0.10860484 -0.02382718 0.0884221 0.13646945 0.034260787 -0.04614081 -0.037800215 0.17277184 0.10889177 -0.16716526 -0.026170155 -0.028484976 0.11283885 -0.09240516 -0.045245215 0.014205391 0.02610258 -0.11833404 -0.029205691 0.029668337 -0.11549308 0.055844042 0.008516893 -0.103048004 0.1451429 -0.057557493 0.088052556 0.072663374 0.07361758 -0.1334783 -0.035568018 -0.06662742 -0.04116889 0.10710119 0.22046815 -0.025632873 0.012925726
24 -0.17829043 0.08272152 -0.15538499 0.20376062 -0.007617188 0.04580554 0.19849531 0.047356397 -0.06928046 -0.042835724 0.094263464 0.101969026 0.065962106 0.119664975 0.07490349 0.052936073 0.09237332 -0.07189333 -0.05509196 -0.2796373 -0.13235226 0.029766645 0.011715162 -0.082051754 0.10359198 0.1938771 -0.06324255 0.1669211 -0.1736068 0.0075898953 0.06860902 0.03431789 -0.012625953 0.1310423 -0.15867776 -0.11453868 0.10241876 0.030317456 0.005114489 0.12496911 -0.06985942 0.05336383 -0.032370377 -0.051943865 -0.17625628 -0.1281487 0.07143961 -0.056481387 0.013510079 -0.18314964 -0.13235717 0.016605172 0.08571299 0.09245813 -0.15013163 0.12895262 -0.1857812 0.015666628 -0.037711315 0.08521049 -0.10324555 -0.15558304 -0.050374735 -0.08678452 0.09130001 0.031750426 0.0035027168 -0.2026412 0.16373695 0.020394746 0.13068 -0.27916452 -0.1978322 0.07189285 -0.0051458892 -0.044111963 0.010511024 0.078854606 -0.0613783 -0.04292352 -0.12810436 0.040429994 0.024693461 0.048885606 -0.031605452 0.15610142 -0.097780466 -0.10824733 0.036668893 -0.108497284 0.2585286 0.06736789 -0.011640144 0.046997096 0.084041856 0.06973496 0.046396628 -0.08131117 0.14641173 0.11151261 -0.1316117 -0.03653848 0.010684487 -0.0011064531 -0.09354884 -0.031131398 -0.010228229 -0.048656892 0.002787096 0.025519887 -0.028213128 -0.05033237 -0.070347615 -0.013176497 -0.13803244 0.010728826 -0.069799 0.018278558 0.17442691 0.01458755 -0.08959553 -0.082251005 -0.075897105 -0.020295467 0.13341461 0.2001534 -0.055419702 -0.017731844
57 -0.17055804 0.10139743 -0.18463796 0.2439478 -0.055143762 0.021318106 0.2940229 0.013562744 -0.0806938 -0.14734897 0.058860637 0.067085095 0.05905746 0.04404258 -0.0017379245 -0.041253995 0.10823155 -0.16433127 -0.041649308 -0.32657212 -0.12090349 -0.042037502 0.10131791 -0.0872266 0.06901257 0.21646874 0.022636132 0.24479179 -0.24505796 -0.083946325 0.07210968 0.06115921 -0.046139706 0.17652147 -0.1865854 -0.121989645 0.117011026 0.017720701 0.06262094 0.087967865 0.008225156 -0.04617253 -0.023927221 -0.06535691 -0.07113051 -0.15493122 0.02903904 -0.1288948 -0.040368754 -0.17197001 -0.18093212 0.16453892 0.13978241 0.07148874 -0.14052841 0.119206496 -0.12120938 -0.052418113 0.06859686 0.10935467 -0.043195177 -0.09428298 -0.019337231 -0.020371728 0.1691096 0.074327365 0.113627985 -0.20468406 0.15403071 0.107514195 0.1740368 -0.320086 -0.19379385 0.08381263 -0.010493627 -0.014087667 0.038339067 0.15422949 -0.13530706 0.062106393 -0.16942154 -0.0838034 0.0823932 0.10286896 -0.00635205 0.06642375 0.021748776 -0.07805371 0.121273 -0.16683426 0.3061442 0.10351883 -0.041641876 0.07157901 0.13908824 -0.0077209226 -0.059319485 -0.04624292 0.18240313 0.091020264 -0.1541725 -0.10028526 -0.015373054 0.123875484 -0.06645115 0.01756054 0.01211679 0.0036573936 -0.11223606 -0.014723628 0.037631683 -0.11553832 0.05618819 0.022173751 -0.102454714 0.13162386 -0.0037646045 0.026596371 0.09846379 0.10293464 -0.06554652 -0.083079666 -0.055699173 -0.01706573 0.06879066 0.20874797 -0.033785656 -0.025777731
62 -0.25300652 0.040687945 -0.20680979 0.21308991 -0.064489685 0.004267953 0.3051686 -0.0072408263 -0.101318255 -0.12324843 0.13181186 0.0400007 0.06545436 0.0020155981 -0.026287021 -0.063151956 0.12483309 -0.17880604 -0.02568211 -0.28125367 -0.060431205 -0.038807485 0.088113666 -0.087202504 0.0636247 0.27468526 0.07432364 0.25838327 -0.23648113 -0.09173782 0.09342391 0.064954914 -0.039330322 0.1691392 -0.2177763 -0.12649179 0.16300274 0.027761037 0.029522572 0.090222344 0.08971564 -0.08245971 -0.06355827 -0.082860544 -0.04723691 -0.11541044 0.03238571 -0.112353764 -0.01645008 -0.14449027 -0.16507216 0.17730719 0.1560447 0.029462248 -0.16385187 0.12443179 -0.08824698 -0.086276315 0.11508435 0.092949905 -0.044808485 -0.08803758 0.004560581 -0.027110746 0.16821547 0.076680966 0.18745764 -0.18404697 0.1992535 0.13324256 0.17872347 -0.29392213 -0.1705438 0.13942 0.006967146 -0.0013457158 0.058867954 0.12945206 -0.16571568 0.033197924 -0.16894546 -0.0666235 0.07365822 0.121355936 -0.00019505201 0.074444324 0.08134887 -0.046049602 0.13189653 -0.15720566 0.26389116 0.120832734 -0.030951917 0.07315595 0.13882634 0.013296321 -0.06660658 -0.045821276 0.1760796 0.102497876 -0.18509474 -0.059895866 -0.039808523 0.16796023 -0.083019 -0.037657317 0.011325432 0.029669346 -0.12296579 -0.038073815 0.03539669 -0.121221304 0.076652355 0.02841953 -0.114769526 0.16419809 -0.02910937 0.07436003 0.05401316 0.09548414 -0.11941658 -0.030741517 -0.060389183 -0.036951605 0.09182955 0.23604243 -0.02427791 0.023923934
63 -0.29073125 0.04931737 -0.23266141 0.24357736 -0.075286314 0.026446456 0.32978883 -0.026261067 -0.09576388 -0.13161375 0.13936183 0.043175768 0.07802068 -0.00357683 -0.026500313 -0.0778578 0.13412833 -0.18828262 -0.027145727 -0.32331687 -0.05957912 -0.031845015 0.108981065 -0.12006187 0.098744914 0.32220975 0.05917636 0.2791626 -0.2718113 -0.07551005 0.10670985 0.06266405 -0.025922095 0.17486987 -0.2437379 -0.13509168 0.18010828 0.03116969 0.02445767 0.10199216 0.09047864 -0.067538835 -0.07474779 -0.092859544 -0.054655038 -0.14245959 0.06448962 -0.11997275 -0.032503847 -0.16376744 -0.16063926 0.18829736 0.15966448 0.044742435 -0.17902483 0.12676124 -0.11602476 -0.075870655 0.117721364 0.07165334 -0.07900095 -0.07275938 -0.00915473 -0.036650445 0.19159685 0.104949266 0.18606082 -0.18028425 0.22472557 0.15877913 0.17593668 -0.34143963 -0.21194312 0.15390772 -0.0061529335 -0.027717616 0.09028554 0.12404955 -0.17422858 0.06177569 -0.19213629 -0.055364203 0.0696235 0.13290392 0.003919075 0.068706244 0.0723535 -0.06634537 0.15345748 -0.18779525 0.3069292 0.15101469 -0.021223353 0.061540958 0.15123005 0.0004349449 -0.06801333 -0.058603466 0.2074499 0.11436794 -0.21689683 -0.10579237 -0.056160036 0.22956364 -0.0986765 -0.028602242 -0.011104077 0.030224768 -0.12203451 -0.06581077 0.018770782 -0.16217598 0.0665923 0.045604266 -0.15021332 0.17762066 -0.0060079927 0.07371732 0.08116115 0.11165998 -0.11591808 -0.055323962 -0.05893508 -0.05362534 0.10802662 0.30071074 -0.031371027 0.034492906
70 -0.23897462 0.04696258 -0.19313367 0.2030272 -0.022798056 0.038570058 0.24440235 0.03479217 -0.09072335 -0.06700596 0.12614156 0.063585 0.07323602 0.048316404 0.02077589 -0.008556642 0.11394991 -0.12021233 -0.049391184 -0.2679823 -0.09429275 0.016205799 0.038485266 -0.09084728 0.09771216 0.25130302 0.020494243 0.22030741 -0.19796184 -0.026212776 0.079411946 0.05120569 -0.017158972 0.15212367 -0.19009955 -0.11849896 0.14088093 0.018384915 0.019513039 0.120600685 0.0004976012 -0.01154306 -0.0636256 -0.057128187 -0.1354488 -0.113435075 0.046617415 -0.0586228 0.022516988 -0.15757099 -0.14295693 0.08066415 0.121282585 0.062117156 -0.16166137 0.13518749 -0.14401989 -0.025619254 0.044932697 0.070111 -0.08717052 -0.1311172 -0.025161883 -0.08730625 0.12653002 0.052002657 0.08850857 -0.1991517 0.19217339 0.06808492 0.13323405 -0.27677298 -0.18063788 0.116825834 0.012998659 -0.0137865925 0.037043143 0.09492945 -0.102153726 -0.030286271 -0.14510821 0.010384598 0.033160266 0.06964738 -0.023188893 0.13212682 -0.025897663 -0.07883139 0.080416985 -0.12073045 0.26244685 0.09448584 -0.008135727 0.042481687 0.09434453 0.051045835 -0.0023820815 -0.07574698 0.17236307 0.12491833 -0.16893725 -0.054754008 -0.01781544 0.08085568 -0.1083996 -0.050149675 -0.020760372 -0.014402557 -0.041650463 0.007402148 -0.01230297 -0.06673872 -0.00416377 0.0033196397 -0.15376833 0.08640567 -0.07404398 0.06962246 0.11352165 0.032768928 -0.14030321 -0.0499598 -0.0829379 -0.04023883 0.14970177 0.20829715 -0.040710308 0.010666473
65 -0.26297435 0.083400026 -0.2354447 0.27247846 -0.09419821 0.053828165 0.34354836 -0.040346015 -0.079235815 -0.15773092 0.09934636 0.045805834 0.073926084 -0.010117695 -0.030726392 -0.100690976 0.121372655 -0.19991155 -0.026332106 -0.36392215 -0.07252851 -0.029637681 0.13959739 -0.1369626 0.10309541 0.31941152 0.04287478 0.2784643 -0.3105656 -0.08721127 0.107447356 0.045938518 -0.021330277 0.17518052 -0.23626162 -0.12945159 0.15846092 0.045910597 0.03961684 0.10077111 0.079119496 -0.051742863 -0.06690323 -0.08800974 -0.038121145 -0.18645976 0.07663276 -0.14950861 -0.07064258 -0.1597902 -0.17434788 0.2037023 0.15320472 0.057147946 -0.17363906 0.12576263 -0.11999995 -0.06836475 0.11422093 0.060252856 -0.074296795 -0.046421263 -0.02057887 -0.012947014 0.20334245 0.12430848 0.1680524 -0.16838537 0.19198534 0.17414252 0.17368087 -0.3776981 -0.23267622 0.14658794 -0.015601829 -0.042269856 0.09816257 0.1461728 -0.18543704 0.112554505 -0.21884829 -0.07700727 0.07128162 0.12069815 0.015158082 0.030086199 0.070154816 -0.08393099 0.17664838 -0.21568458 0.33704314 0.16862984 -0.037836928 0.059389967 0.16492926 -0.028708853 -0.088386655 -0.057563532 0.21107535 0.10754399 -0.22356138 -0.14454414 -0.06418785 0.2630269 -0.08735365 0.0035715285 -0.0062294267 0.022478612 -0.12893704 -0.07985961 0.029299738 -0.18971182 0.07799956 0.0587068 -0.1471764 0.18202026 0.03737725 0.03461483 0.09262503 0.14104284 -0.06490552 -0.07414098 -0.045572974 -0.040960442 0.07527914 0.3235591 -0.033489782 0.022427592
61 -0.20968796 0.07068176 -0.18392855 0.23721004 -0.067735106 0.020521924 0.2927183 -0.011507954 -0.08711328 -0.1134483 0.106955916 0.07416054 0.06696968 0.045209132 0.008868001 -0.03155891 0.11336696 -0.16089386 -0.028878879 -0.31404892 -0.09110949 -0.030743057 0.09173348 -0.106622435 0.098324865 0.26379734 -0.0058477316 0.24295363 -0.24377482 -0.0551192 0.08809337 0.055227157 -0.026505383 0.14366816 -0.22380394 -0.11720908 0.15307477 0.0439065 0.011844909 0.09889567 0.03569109 -0.023739235 -0.05100177 -0.09678699 -0.084899455 -0.14576298 0.07114013 -0.120786354 -0.047878906 -0.17374617 -0.15977745 0.15127245 0.12646283 0.062330056 -0.15991907 0.12233236 -0.13149366 -0.044361934 0.058675952 0.09014785 -0.07675797 -0.09671242 -0.017931955 -0.028126074 0.16296151 0.07514621 0.13148108 -0.18144828 0.19892517 0.11849946 0.17309697 -0.32530245 -0.20693949 0.11252137 -0.02964051 -0.04322384 0.062412016 0.11799749 -0.15318732 0.055321366 -0.18206099 -0.05298235 0.070517994 0.11491081 0.00067192456 0.08109667 0.03053406 -0.08279929 0.11437405 -0.17269737 0.30059344 0.12713309 -0.027795522 0.06829141 0.14902136 0.008414367 -0.03845931 -0.06134204 0.17955427 0.09475146 -0.18148729 -0.078629956 -0.037954945 0.15034397 -0.084592916 -0.0051893396 0.009953344 -0.0035932218 -0.102814935 -0.051866982 0.0136215575 -0.14575842 0.02455544 0.026764248 -0.12302298 0.12904435 -0.009562596 0.039879773 0.123521134 0.09465497 -0.07976048 -0.07213133 -0.04945335 -0.03354727 0.08797361 0.2668252 -0.046349563 -0.0025938225
59 -0.23344262 0.076478906 -0.20376197 0.24825759 -0.0715623 0.03466473 0.31449237 -0.028503489 -0.090513825 -0.14061332 0.104597986 0.057083435 0.07597723 0.0053538284 -0.022014532 -0.0663718 0.12456155 -0.18342188 -0.035868075 -0.33138484 -0.08087729 -0.03360066 0.123773746 -0.11202755 0.09913422 0.28370184 0.030594386 0.2624574 -0.2660119 -0.07703171 0.092908725 0.05616067 -0.026611196 0.16890532 -0.22795244 -0.11563676 0.15522125 0.038528793 0.03446555 0.092483014 0.06579427 -0.048338618 -0.060617723 -0.09079092 -0.051670153 -0.15640105 0.06409782 -0.13041437 -0.059324156 -0.16952382 -0.16423744 0.18573444 0.14107822 0.05450024 -0.14726986 0.11391655 -0.12352163 -0.054218877 0.09223992 0.070626415 -0.07132161 -0.06902483 -0.011144061 -0.022074377 0.1954899 0.106866136 0.16009326 -0.1754653 0.19297856 0.14401329 0.16814788 -0.34304088 -0.19826835 0.12945233 -0.026094366 -0.038303763 0.0796726 0.13615605 -0.16510014 0.08863011 -0.18180269 -0.07191206 0.08386229 0.12762657 0.006555336 0.058450926 0.059006847 -0.08051056 0.14347832 -0.18181352 0.31631306 0.14666952 -0.027504176 0.064033434 0.15663943 -0.01102791 -0.06652398 -0.04948488 0.20811789 0.10130661 -0.19500697 -0.11587144 -0.045465656 0.20916131 -0.088726364 0.0044076615 -0.008933957 0.0204617 -0.12960628 -0.061562378 0.02275306 -0.16926675 0.06186618 0.04717506 -0.12780252 0.16464119 0.011236353 0.057710115 0.10673197 0.10750532 -0.07490447 -0.080313765 -0.057610713 -0.05580221 0.09509456 0.28159195 -0.03522718 0.010832385
66 -0.2643913 0.040509284 -0.20642833 0.19855353 -0.0445578 -0.007529567 0.31238052 0.00075956824 -0.11052563 -0.11254188 0.14611468 0.026678808 0.067428574 -0.0024121138 -0.03764403 -0.055800002 0.1267279 -0.17162077 -0.027763257 -0.27486634 -0.062017143 -0.036607243 0.066627614 -0.08524264 0.06561274 0.29063898 0.094481714 0.2589212 -0.23983155 -0.0989904 0.101348616 0.0742212 -0.039216585 0.18581884 -0.21471098 -0.13529103 0.16279605 0.015512977 0.032100618 0.07978751 0.08407737 -0.09047331 -0.07124175 -0.07166899 -0.052941546 -0.09828116 0.008912828 -0.097689584 -0.004252336 -0.14667384 -0.16927923 0.16525683 0.16446218 0.028788805 -0.16514121 0.13348213 -0.095016204 -0.08349647 0.11664493 0.102503985 -0.04335898 -0.105653085 0.003185577 -0.048624627 0.17331642 0.07899517 0.18631883 -0.20079221 0.21304418 0.12760861 0.17991918 -0.2889032 -0.16863863 0.14658964 0.017719716 0.012906299 0.059487205 0.13512835 -0.15769732 0.019929303 -0.15054384 -0.0626797 0.07659098 0.12881282 -0.0065543493 0.0892789 0.0863005 -0.042167205 0.1374121 -0.14389816 0.26207185 0.12784816 -0.026710749 0.07141058 0.13408649 0.014567083 -0.06454416 -0.03496084 0.18162832 0.115767814 -0.1738107 -0.053494617 -0.038811166 0.15517811 -0.08909879 -0.05639631 0.0077829915 0.047984153 -0.118748605 -0.024119625 0.04254879 -0.117651746 0.080042295 0.022878831 -0.11355627 0.16345067 -0.054951034 0.086179726 0.048643973 0.07763161 -0.14725494 -0.034458887 -0.065436415 -0.040490475 0.118883505 0.22522902 -0.02614777 0.019987093
68 -0.18481278 0.059151616 -0.15740567 0.19631352 -0.016212206 0.041345958 0.20893584 0.039789308 -0.091338836 -0.052144203 0.11542334 0.093202084 0.069307394 0.07893002 0.05359599 0.029884381 0.10974959 -0.100573726 -0.054493543 -0.2577692 -0.10881518 0.01020695 0.033620972 -0.07687675 0.103160836 0.20827244 -0.025077235 0.19250773 -0.16587609 -0.0026561404 0.06429411 0.044419557 -0.019964935 0.13605453 -0.1891782 -0.09707877 0.12345151 0.023772417 0.0059549324 0.11019633 -0.0352492 0.018295579 -0.044104412 -0.07250979 -0.16484654 -0.10031057 0.058101248 -0.051553372 0.008840584 -0.18528973 -0.12546739 0.051867303 0.09654465 0.0838282 -0.13945863 0.124412775 -0.16890289 0.0012353446 -0.00787714 0.09140125 -0.09439768 -0.15058215 -0.025473291 -0.08860785 0.11177948 0.041339166 0.05849303 -0.20147024 0.19035158 0.03837235 0.14300658 -0.2658137 -0.17936814 0.091980755 -0.015933897 -0.03241526 0.012547383 0.074699454 -0.08856862 -0.04411237 -0.13792926 0.015096734 0.04670375 0.0752141 -0.036807932 0.15711018 -0.061118945 -0.09324733 0.04146222 -0.10743176 0.26813132 0.0748896 0.001159498 0.054174665 0.09487172 0.069450356 0.024989486 -0.07702525 0.171086 0.11012418 -0.14344235 -0.03210206 -0.00051584234 0.024136681 -0.099844456 -0.037084132 -0.018777914 -0.027193604 -0.03420306 0.019958988 -0.03638811 -0.068690345 -0.034504775 -0.012239789 -0.14385201 0.051953066 -0.071444035 0.06055888 0.15149346 0.011915504 -0.12030163 -0.077291206 -0.08313197 -0.041444078 0.14859304 0.19755611 -0.050195806 -0.0065764673
69 -0.17903008 0.058347743 -0.14745536 0.20158224 -0.022782529 0.032176577 0.21960701 0.029443838 -0.09230275 -0.07821994 0.104342006 0.096901186 0.0675647 0.06553629 0.03781944 0.014219511 0.114391886 -0.12823737 -0.05240226 -0.25372633 -0.104818076 -4.5149405e-05 0.055754036 -0.0676854 0.107146196 0.20543878 -0.018258968 0.20270374 -0.17399332 -0.015219854 0.047841776 0.04999137 -0.017851042 0.13702832 -0.19759586 -0.0933401 0.13526645 0.022989953 0.015352448 0.09689477 -0.018535176 -0.0021884397 -0.04277765 -0.09033954 -0.14507312 -0.098413356 0.063687585 -0.068393275 -0.009743499 -0.18268308 -0.12934099 0.08760434 0.09882723 0.0738194 -0.1312147 0.12138648 -0.15857047 -0.012097231 -0.0021664351 0.08220745 -0.080751896 -0.13417348 -0.020758735 -0.07362223 0.1255744 0.04433371 0.07982965 -0.20638777 0.19483525 0.05049375 0.15286262 -0.26640323 -0.16436814 0.088722475 -0.027051447 -0.04275066 0.023829168 0.08866312 -0.10584049 -0.014755057 -0.14082192 -0.005935688 0.059395697 0.08843607 -0.02772999 0.13960779 -0.03707087 -0.090970576 0.046551064 -0.10125801 0.259213 0.08239162 -0.0057670684 0.055577043 0.09958933 0.05140393 0.011866324 -0.06019373 0.16975473 0.1013113 -0.15251693 -0.046275947 -0.012820216 0.052932214 -0.09538739 -0.026970414 -0.019026836 -0.01883627 -0.053398747 -0.0038726865 -0.027099302 -0.08197339 -0.013352732 -0.0025060792 -0.13310935 0.07385695 -0.050246354 0.06106593 0.13390367 0.02305872 -0.0971797 -0.07358724 -0.08150782 -0.049452595 0.13277784 0.18223587 -0.043523986 -0.002699441
51 -0.24540475 0.044371452 -0.17214607 0.17915912 -0.020421058 -0.0051528537 0.23492073 0.026683958 -0.064020135 -0.007712977 0.14432722 0.044646014 0.05959113 0.14201766 0.07236307 0.073431425 0.083857894 -0.04670771 -0.018225733 -0.26773235 -0.11494777 0.020378148 -0.07670807 -0.08441722 0.05952913 0.2449276 -0.047220603 0.14979488 -0.19119728 -0.019194582 0.14291187 0.0221613 -0.005027508 0.12506188 -0.1505665 -0.14829482 0.109423414 0.05090519 -0.047971036 0.12621114 -0.008566077 0.04100132 -0.0420586 -0.027568001 -0.140329 -0.12833744 0.040948473 -0.049738515 0.06620198 -0.14421928 -0.1500548 -0.0069114985 0.11531269 0.047894426 -0.1975335 0.14152288 -0.14913712 -0.021866927 0.010838607 0.115339 -0.090223424 -0.15571438 -0.06541864 -0.082837194 0.055695754 0.007884241 0.033616174 -0.17624088 0.17651974 0.04437639 0.16093437 -0.27253258 -0.20878391 0.10143598 0.038438354 0.00066270056 0.024161201 0.0694773 -0.040778324 -0.087666854 -0.1276715 0.045545094 0.007910229 0.04876497 -0.020307228 0.13912338 -0.056947514 -0.06781965 0.078634925 -0.13970338 0.2302883 0.07940945 -0.03505258 0.057953507 0.103517585 0.09130708 0.05142557 -0.08500992 0.105244376 0.122091874 -0.1234673 0.034108743 0.009182406 -0.0159296 -0.10311473 -0.09841473 0.029095825 -0.035664953 0.0037437845 0.023699708 0.012554138 -0.032084536 -0.0828819 -0.003206343 -0.1141874 0.00035943423 -0.12167282 0.0056011947 0.14563587 0.019362247 -0.14194518 -0.03363087 -0.055381592 0.024078272 0.12231906 0.2579969 -0.053495493 -0.009829316
60 -0.26448637 0.049037334 -0.22050884 0.23534743 -0.07821108 0.016275648 0.3231918 -0.023385001 -0.094208814 -0.13322984 0.12531662 0.035297625 0.067423105 -0.013005481 -0.036749426 -0.08279624 0.12702592 -0.18929122 -0.024553623 -0.31213936 -0.05545119 -0.036257178 0.10844713 -0.11357411 0.08045231 0.30957204 0.06275099 0.27270764 -0.26941824 -0.08429167 0.10261519 0.06304949 -0.030306386 0.17143403 -0.23273271 -0.1324534 0.17558885 0.03264455 0.028620033 0.095087394 0.09627217 -0.076202154 -0.069683924 -0.09593345 -0.03905247 -0.13875084 0.05491326 -0.12481169 -0.04052716 -0.15216741 -0.16568945 0.19763729 0.1604355 0.03667535 -0.16905949 0.120110705 -0.096001044 -0.08351696 0.119960316 0.07817715 -0.056656808 -0.07300025 -0.0012989314 -0.027353592 0.18617192 0.09828731 0.19010551 -0.17230062 0.20395324 0.15339427 0.17471209 -0.32440123 -0.1969517 0.14615792 -0.004213547 -0.019984297 0.085460424 0.13302226 -0.17694719 0.07027795 -0.18449731 -0.069061436 0.07387761 0.1232027 0.009806403 0.05395154 0.08739008 -0.05815313 0.15258701 -0.18393889 0.29221362 0.14586732 -0.030126354 0.062760845 0.15154122 -0.0090069575 -0.07785072 -0.04886595 0.19578075 0.10388161 -0.20664896 -0.09524482 -0.059067223 0.22119056 -0.08829823 -0.017811676 0.00032879636 0.03783153 -0.12597787 -0.06937253 0.035400074 -0.15941624 0.07606108 0.03851673 -0.13139445 0.17786303 0.0035539889 0.066755496 0.066155545 0.11120484 -0.104499884 -0.047029026 -0.05433458 -0.04738228 0.08764016 0.274187 -0.032090377 0.029018495
71 -0.22537465 0.057237867 -0.17699087 0.21641421 -0.030443948 0.05178612 0.22925878 0.019140799 -0.09346944 -0.06329184 0.12440307 0.09096202 0.0665952 0.054871555 0.035213813 0.0043280106 0.11461314 -0.12189786 -0.058749285 -0.27519786 -0.09195275 0.012395939 0.0540928 -0.089210495 0.11695934 0.24400283 -0.022091638 0.20713186 -0.19624828 -0.00501758 0.076998584 0.040537365 -0.007823684 0.12841481 -0.19826421 -0.10518386 0.14732786 0.03417591 -0.0014624239 0.10997151 -0.008195359 0.011014119 -0.06212021 -0.08767877 -0.14358261 -0.11333153 0.07839332 -0.061161824 -0.009368987 -0.17578897 -0.11709704 0.07851593 0.095133655 0.07720774 -0.14760613 0.12079671 -0.1627586 -0.004680333 0.008272744 0.05918865 -0.09850343 -0.12160652 -0.024626352 -0.0800157 0.12671869 0.05836228 0.07765103 -0.19239374 0.19899876 0.063659675 0.13725232 -0.28579083 -0.19030598 0.112923555 -0.015876139 -0.049087107 0.03933885 0.07568124 -0.10961404 -0.011986752 -0.1452742 0.018762475 0.04359253 0.07819397 -0.016180487 0.13025823 -0.042122733 -0.09593571 0.060356617 -0.126405 0.26678282 0.10161535 0.0012523424 0.04269285 0.10081389 0.048222143 0.007840682 -0.07477928 0.17727026 0.109247714 -0.16922328 -0.068864435 -0.02529288 0.09575376 -0.1038493 -0.032859337 -0.028907062 -0.01732676 -0.038248118 -0.019534169 -0.034761854 -0.10292971 -0.02638833 0.008084968 -0.16190365 0.07417353 -0.04439889 0.06084587 0.14341544 0.036118194 -0.105211444 -0.07066632 -0.08071771 -0.05146249 0.14055045 0.23941343 -0.05149216 0.00914057
49 -0.19702904 0.0663633 -0.14126012 0.17966048 -0.0007340525 -0.0017397307 0.20836078 0.041451566 -0.061389275 -0.007914726 0.121272534 0.07793345 0.05185933 0.17053062 0.09371388 0.09233684 0.07619071 -0.0378883 -0.037165247 -0.26537564 -0.14010653 0.024399852 -0.0593319 -0.06850132 0.07905989 0.20568441 -0.08388825 0.13931924 -0.16855724 0.00031399477 0.10687352 0.025045183 0.0046132724 0.10902113 -0.14061853 -0.13346861 0.10541981 0.04586331 -0.041639548 0.12859164 -0.054114874 0.058479197 -0.028245691 -0.033951968 -0.17524332 -0.12290989 0.056457803 -0.044594485 0.04912963 -0.17065415 -0.15076439 -0.026006505 0.08395979 0.06499805 -0.18159503 0.14101858 -0.1707886 0.013176307 -0.029635884 0.11975748 -0.09349842 -0.16342218 -0.06266466 -0.083905704 0.048795186 0.003402428 0.004243954 -0.1825495 0.16690691 0.019534968 0.15969126 -0.2654233 -0.2012568 0.07821022 0.023509715 -0.026067905 -0.0005601879 0.06504909 -0.040907193 -0.086282924 -0.12186635 0.051711068 0.014301255 0.0444531 -0.031953596 0.15675892 -0.09112445 -0.08502938 0.038043607 -0.12385169 0.22870219 0.0563698 -0.031659875 0.0573098 0.09685515 0.09693504 0.06370693 -0.08686948 0.10977251 0.1165571 -0.112620845 0.030156575 0.01718867 -0.059548687 -0.10076598 -0.076434076 0.02363969 -0.05889086 0.023298988 0.03140596 -0.0020989983 -0.029990999 -0.10283088 -0.016332218 -0.10268898 -0.02612138 -0.10719922 -0.0032105967 0.17190658 0.0077711297 -0.10469484 -0.060556415 -0.064063646 0.015723294 0.10880507 0.21988559 -0.05201854 -0.029349627
16 0.07549177 0.29996407 -0.09219731 0.3183733 -0.023435418 0.07585752 0.2320615 0.086864896 -0.0013307212 -0.19622572 -0.16109885 0.18199216 0.08094913 0.27355453 0.090097524 0.08683354 0.028199745 -0.11993516 -0.067310594 -0.45839038 -0.35321328 -0.029667955 0.06730229 -0.084453836 0.06723701 0.025166605 -0.15334225 0.14536709 -0.3007936 -0.06337777 0.012309888 0.021448623 -0.04666624 0.23210137 -0.08096665 -0.14956021 -0.06786533 -0.0075618294 0.13063619 0.09400598 -0.267274 0.11498717 0.09966954 0.023719296 -0.1900114 -0.27535868 0.014148267 -0.1686789 -0.078307875 -0.247808 -0.27691233 0.04009258 0.072312094 0.19434991 -0.102792084 0.11709919 -0.2354133 0.07495595 -0.09186818 0.18336265 -0.016101632 -0.12690592 -0.14114857 -0.007450224 0.09874796 0.024471182 -0.15381935 -0.267949 0.022584664 0.0055483 0.20291525 -0.40632978 -0.24283202 -0.105437934 -0.027669368 -0.030245826 -0.068842076 0.23650487 0.014819735 0.08554631 -0.17306276 -0.091807924 0.055076998 0.007445071 -0.02894484 0.0804881 -0.16585155 -0.16512734 0.07763218 -0.1912127 0.40259627 0.007135805 -0.10512057 0.080852106 0.14022173 -0.04823401 -0.0014912058 -0.044570465 0.16871412 0.07187817 -0.048810467 -0.15303981 0.10376386 -0.08593914 -0.013184221 0.11651247 0.037992373 -0.11524805 -0.05348586 0.13447581 0.039122194 -0.018116225 -0.06360732 0.02869905 -0.047740206 -0.03489683 0.024605444 -0.17374942 0.2593573 0.088067845 0.109278366 -0.23804273 -0.037464317 0.06562417 0.0019114427 0.1223319 -0.046815496 -0.1899558
29 -0.0038171161 0.02967252 -0.0049610557 0.12832849 0.08077009 -0.094499744 0.12520716 0.0889088 -0.14698759 -0.0110552255 0.15190671 0.18160444 0.06507812 0.2287285 0.13945417 0.20880206 0.10379878 -0.07200174 -0.059323173 -0.11805797 -0.1971159 -0.04890664 -0.047901895 0.03910086 0.08997728 0.044397313 -0.1346049 0.1404619 -0.010003327 0.030204654 -0.036297437 0.09380677 -0.058422204 0.11836334 -0.22254284 -0.06252445 0.14479445 -0.00017349565 -0.055168543 0.027484512 -0.10698855 0.03629416 0.0030388536 -0.16104321 -0.2676918 0.019215588 0.0054471954 0.008485895 0.03463082 -0.28426227 -0.15727904 -0.029691663 0.047260433 0.06855895 -0.083039895 0.12791021 -0.20879377 0.028457938 -0.14900962 0.25176302 -0.07596189 -0.2905692 -0.0071561504 -0.10608484 0.04775088 -0.06409568 0.02587113 -0.27896175 0.24228568 -0.111030184 0.23720367 -0.12985802 -0.075738326 0.010198324 -0.06835656 -0.03823027 -0.103682846 0.03597922 -0.06431581 -0.1595825 -0.054471143 -0.0031835856 0.12975933 0.13332997 -0.109681346 0.30419728 -0.1262846 -0.067300625 -0.12599085 0.03945442 0.20029047 -0.0581487 0.015513601 0.14575246 0.093008794 0.16899204 0.14227043 -0.025579121 0.11815566 0.06376764 -0.030437268 0.17346211 0.08368606 -0.32670668 -0.09828511 -0.07241999 0.046483923 -0.06783547 -0.020820955 0.12208111 -0.085632026 0.053195 -0.14636837 -0.09159519 -0.012503519 -0.04848003 -0.19432504 0.09243637 0.2325066 -0.10517032 -0.1252941 -0.08942261 -0.09977949 -0.050033547 0.15609115 0.009474096 -0.051048156 -0.08387994
76 -0.20585828 0.07394068 -0.18680705 0.24039355 -0.064640716 0.019246044 0.29828492 -0.015539368 -0.09461316 -0.13370666 0.104261756 0.06422431 0.07408056 0.025590107 -0.010822078 -0.040797774 0.1196239 -0.17601135 -0.038324356 -0.31671113 -0.0919982 -0.03130725 0.10599395 -0.09603281 0.09057416 0.26366517 0.024872072 0.25513697 -0.24991988 -0.0687101 0.07683114 0.05972057 -0.03175702 0.16631399 -0.22844447 -0.119096465 0.15469058 0.03480929 0.026591467 0.08364925 0.04333448 -0.04797748 -0.0532324 -0.094134636 -0.07407882 -0.14154255 0.05720619 -0.12464345 -0.05182401 -0.17476529 -0.16925459 0.17476328 0.13436593 0.055632092 -0.14228751 0.12262779 -0.123819396 -0.053518496 0.066971734 0.0892667 -0.06699476 -0.08381241 -0.009800419 -0.025914213 0.17581262 0.0856358 0.14593849 -0.187598 0.19928657 0.11817059 0.1794731 -0.3250233 -0.19486398 0.11168167 -0.029263977 -0.036560886 0.06468988 0.13456106 -0.1621809 0.07045819 -0.18108028 -0.069825545 0.08240689 0.11866246 0.002189279 0.07115903 0.046866473 -0.076181635 0.12114056 -0.16688055 0.297936 0.12599732 -0.02492549 0.067241885 0.15047733 -0.0029179151 -0.04919781 -0.049060453 0.19670612 0.09176674 -0.18607938 -0.093001746 -0.034838203 0.16035663 -0.083773345 -0.0003653596 0.004740447 0.009840189 -0.12141167 -0.046066537 0.014496843 -0.14695841 0.04684044 0.03381242 -0.11998789 0.14615555 -0.0034394378 0.052474767 0.10902067 0.09393604 -0.07634359 -0.07621641 -0.058295213 -0.04878274 0.09329382 0.25197265 -0.038470976 0.0033607865
75 -0.18308432 0.080286175 -0.15609923 0.2049859 -0.00710837 0.041560628 0.20937043 0.045883168 -0.06682582 -0.05933152 0.082446426 0.08970776 0.07029688 0.10263045 0.053527437 0.040238857 0.092602395 -0.096335955 -0.057505757 -0.2826753 -0.13614371 0.01926304 0.0142434435 -0.081050016 0.09345291 0.19533022 -0.038613465 0.17557847 -0.1930911 -0.016976677 0.07210204 0.031874128 -0.013233766 0.15102755 -0.15593834 -0.12144747 0.09214565 0.0147690205 0.017338853 0.1137718 -0.054393847 0.034236338 -0.03652685 -0.03930276 -0.1582505 -0.12628613 0.046148784 -0.058386866 0.012502019 -0.167782 -0.13939434 0.031597167 0.09834655 0.089911595 -0.14967956 0.12447551 -0.16785198 0.0031114374 -0.009122621 0.08181381 -0.08781687 -0.14090966 -0.047948934 -0.08382278 0.103351615 0.041196115 0.027009519 -0.2046519 0.16345076 0.03457576 0.13340606 -0.27492005 -0.1832178 0.07048005 -0.00022619331 -0.025450004 0.015259928 0.09107114 -0.057182938 -0.02807231 -0.123096414 0.022408763 0.030976778 0.051804557 -0.027246712 0.13189214 -0.07255455 -0.09890811 0.06179671 -0.111455105 0.26067284 0.073017605 -0.02102292 0.043111794 0.08653116 0.045077235 0.023492979 -0.07182109 0.15938105 0.11289777 -0.13259985 -0.043217372 0.008367551 0.026402652 -0.09060677 -0.035440225 -0.010850988 -0.040433444 -0.012804596 0.026767224 -0.01396604 -0.04723002 -0.04981485 0.00303619 -0.13723437 0.03158208 -0.07341118 0.016339084 0.15408772 0.024218336 -0.09245549 -0.08276576 -0.077303536 -0.020090144 0.12587376 0.20044589 -0.047590066 -0.020853154
21 0.18150426 0.34684145 -0.042929403 0.30935737 0.040347293 0.028367553 0.20973897 0.16787972 -0.016151803 -0.20554197 -0.19881156 0.23462054 0.08399612 0.38037533 0.1405614 0.19166204 0.009894077 -0.10772116 -0.07694422 -0.4584282 -0.46858305 -0.041874826 0.0031757725 -0.034767218 0.036059212 -0.08168972 -0.18477277 0.124337524 -0.26156935 -0.07728345 -0.03470971 0.039734013 -0.07547592 0.2743294 -0.05177134 -0.16786467 -0.11825328 -0.046048142 0.1621739 0.07641431 -0.37986505 0.13229811 0.1538774 0.062625855 -0.2681687 -0.25930375 -0.059180595 -0.15463392 -0.04532042 -0.28549668 -0.33815935 -0.017782953 0.06812444 0.22316335 -0.0883537 0.15359037 -0.28446752 0.09083137 -0.15893477 0.2825252 0.01367468 -0.21242821 -0.16160534 -0.031298034 0.0622529 -0.04199665 -0.2325719 -0.3570041 0.0072504687 -0.08306611 0.2495848 -0.37864542 -0.21435766 -0.18050765 -0.011659942 0.0077186287 -0.1570232 0.28161934 0.073650695 0.009828689 -0.13778369 -0.10493673 0.07691741 -0.0058024586 -0.06716871 0.16031024 -0.24706545 -0.17567566 0.025303038 -0.14187346 0.41238275 -0.07269872 -0.12193387 0.114300676 0.13176028 -0.011381633 0.054325197 -0.035964128 0.15906562 0.069882646 0.019386036 -0.07766634 0.17880051 -0.30838513 -0.005334681 0.102956444 0.07604125 -0.1556644 -0.03074925 0.2552714 0.04677391 0.10281826 -0.103113055 -0.0093374755 0.016382167 -0.101851635 -0.06483861 -0.20566884 0.29982826 0.038016625 0.09576706 -0.26367432 -0.06301061 0.10071888 0.018014044 -0.0071082544 -0.05052838 -0.2671218
19 0.17538099 0.3237602 -0.042232625 0.30768135 0.010514905 0.048677787 0.19842647 0.12171296 -0.0066680023 -0.197089 -0.19486971 0.21941522 0.08117847 0.32897305 0.123479106 0.14041021 0.014142128 -0.10904168 -0.07611756 -0.43760473 -0.40363505 -0.036302283 0.04826866 -0.05132474 0.056689892 -0.057142682 -0.18998805 0.11787858 -0.26264796 -0.062026724 -0.03927033 0.029691014 -0.065565705 0.23311763 -0.07003554 -0.13542156 -0.10572183 -0.017975383 0.13304426 0.061393704 -0.3260968 0.13505521 0.13148339 0.027968492 -0.22721258 -0.2609939 -0.011781438 -0.16870552 -0.08249531 -0.27355325 -0.2966639 0.017522184 0.05286107 0.20934686 -0.07518519 0.12217239 -0.26410443 0.09478853 -0.15089314 0.23344465 -0.0059156837 -0.1622549 -0.1459085 -0.011629076 0.08063095 -0.012565016 -0.20217185 -0.30377656 0.011570472 -0.043023143 0.22404294 -0.37726983 -0.216191 -0.15451527 -0.03339119 -0.02110487 -0.12359819 0.2521179 0.038539536 0.057644114 -0.1556994 -0.10541163 0.07977927 0.009321662 -0.047206175 0.11549515 -0.20677228 -0.17549598 0.02861056 -0.15662843 0.39854777 -0.038056355 -0.105418496 0.10250844 0.13623789 -0.029684922 0.037811603 -0.0419311 0.16077226 0.04471784 -0.0039748843 -0.11915665 0.14311762 -0.2184606 -0.0012129806 0.12161177 0.06114468 -0.14190051 -0.038551964 0.1912386 0.03075986 0.04398629 -0.0957531 0.0014007292 0.0019349342 -0.07210366 0.0010318619 -0.1878676 0.29334417 0.05480892 0.12126881 -0.26146856 -0.042750563 0.07373014 -0.011313172 0.04470308 -0.049157444 -0.23884845
17 0.19575202 0.3212661 -0.015699347 0.30907735 0.01688317 0.035280023 0.18078491 0.11859234 -0.014397509 -0.18251362 -0.18336388 0.23179309 0.07788537 0.3642955 0.14451647 0.17744033 0.014507034 -0.09153177 -0.08054586 -0.42712024 -0.4177991 -0.036163457 0.0315199 -0.046261825 0.06963035 -0.069653936 -0.23447475 0.100752726 -0.24363947 -0.029948609 -0.035220034 0.021769678 -0.05996484 0.21990806 -0.081718534 -0.1304398 -0.09500292 -0.01367533 0.11520204 0.06431196 -0.35135075 0.1454487 0.13171253 0.0052095843 -0.25789732 -0.25666732 -0.0038914357 -0.16150603 -0.08007507 -0.30255085 -0.29869348 -0.013743953 0.026669573 0.21066585 -0.07190352 0.124174714 -0.28254116 0.10463926 -0.18817556 0.25303194 -0.01831162 -0.18750565 -0.15627614 -0.024264272 0.063926086 -0.02122104 -0.22166815 -0.30930415 0.022132661 -0.07535213 0.2345974 -0.37669763 -0.220046 -0.16727352 -0.057602298 -0.04650595 -0.13232352 0.23760724 0.04906293 0.049858104 -0.15126103 -0.09054632 0.08290214 0.010145501 -0.056430634 0.14262478 -0.23976818 -0.18698311 0.004259391 -0.14303926 0.40511015 -0.056413528 -0.09774151 0.113870084 0.13930693 -0.011192281 0.07255402 -0.044777434 0.15609278 0.050045535 -0.00059119926 -0.089833565 0.15735087 -0.26744986 -0.0114185475 0.12145965 0.0690581 -0.15387464 -0.031169709 0.19275816 0.01566513 0.045880385 -0.12878409 -0.0063783955 0.010158682 -0.105496116 -0.013530599 -0.19619532 0.3266756 0.038041644 0.1332914 -0.2738279 -0.042089418 0.074244134 -0.0025352435 0.045359243 -0.05723648 -0.24298741
38 0.009087319 0.037715614 0.0063714758 0.15082087 0.056544423 -0.06766192 0.1197779 0.042777214 -0.14231639 0.0003446605 0.15983343 0.19523239 0.06308272 0.24100727 0.16440205 0.21271946 0.11102814 -0.06185754 -0.06561546 -0.13572529 -0.1813693 -0.04338893 -0.010903942 0.021100698 0.12731153 0.06728926 -0.18981056 0.13216552 -0.020259071 0.060054846 -0.026727553 0.08402458 -0.044567846 0.086379506 -0.24193098 -0.04154438 0.15837955 0.031814944 -0.09641425 0.03443411 -0.094132006 0.0645386 -0.0067698397 -0.20280986 -0.2747148 -0.0037193897 0.056896795 -0.006508371 -0.0028228583 -0.31586885 -0.13677017 -0.035500657 0.01543902 0.07464912 -0.083415665 0.10666932 -0.23742129 0.048531476 -0.1760276 0.23771012 -0.11001023 -0.27423134 -0.01653577 -0.09564644 0.056106642 -0.037534155 0.026305936 -0.24546176 0.26090533 -0.098735094 0.23518945 -0.15367226 -0.101860546 0.027460868 -0.10744183 -0.087368675 -0.07612146 0.007639165 -0.08648916 -0.124335565 -0.074214704 0.006894246 0.13749847 0.14336327 -0.10126292 0.29268542 -0.1367743 -0.08751996 -0.13858913 0.01155461 0.21169147 -0.031735964 0.026998317 0.14010885 0.112625584 0.16099623 0.14826697 -0.03859372 0.123649225 0.046632502 -0.04540704 0.15261741 0.06619365 -0.28297916 -0.10743843 -0.04708873 0.039915584 -0.07022887 -0.026486533 0.07542636 -0.11791569 -0.0038116823 -0.16899262 -0.08197278 -0.020825138 -0.059996482 -0.14724213 0.08477858 0.27967727 -0.089744374 -0.082025 -0.11449827 -0.08959373 -0.06651832 0.14239337 0.075944915 -0.069386914 -0.06646588
22 0.19959837 0.3660923 -0.033313908 0.35285395 0.00568318 0.07050849 0.20276977 0.12022521 -0.002323098 -0.20790875 -0.22091393 0.2514846 0.08973057 0.38346153 0.15831836 0.17390047 0.015862744 -0.10774089 -0.08995882 -0.49379918 -0.45624247 -0.027577765 0.059568092 -0.06662217 0.08169903 -0.06729767 -0.25588727 0.11406877 -0.28605536 -0.038140718 -0.043138575 0.021219734 -0.058392864 0.24611217 -0.07622182 -0.14166571 -0.11573436 -0.013750589 0.13779686 0.08724975 -0.38753843 0.17440487 0.14472128 0.01466301 -0.27180237 -0.31015766 0.010384451 -0.17686136 -0.097379886 -0.32264143 -0.32054496 -0.01209399 0.03629754 0.24712491 -0.08180992 0.12618354 -0.31831777 0.12833983 -0.19476967 0.23787537 -0.028940914 -0.18094312 -0.17761485 -0.02273969 0.08195932 -0.001007671 -0.25093985 -0.32372656 0.009195695 -0.065808885 0.23400235 -0.42782384 -0.25305074 -0.17867148 -0.06412634 -0.06309736 -0.12234735 0.26171616 0.05271781 0.07446457 -0.17320998 -0.09289255 0.07950728 0.0010796674 -0.050027654 0.13053764 -0.261845 -0.20805092 0.023140168 -0.17924221 0.4500624 -0.045326427 -0.11460083 0.103449985 0.1496893 -0.02878382 0.06156135 -0.05073777 0.18203564 0.054229576 -0.011361695 -0.13955823 0.16220549 -0.24061468 -0.009718919 0.15033916 0.050721724 -0.1758531 -0.027829481 0.19374134 0.014227536 0.03393202 -0.13149834 0.0034955405 -0.008119694 -0.11126311 0.0140449535 -0.21953918 0.35548225 0.05652024 0.16967498 -0.30697432 -0.046642773 0.077177204 -0.002736271 0.07050826 -0.06748955 -0.25696528
18 0.19371483 0.35516363 -0.038471647 0.33576083 0.009748708 0.054884303 0.21141708 0.12412679 -0.0050068684 -0.21250391 -0.20637016 0.23862341 0.08462595 0.36312476 0.1384342 0.16821624 0.013825512 -0.11711623 -0.08091584 -0.47506914 -0.43962982 -0.041397624 0.054971598 -0.053920083 0.070592925 -0.0682815 -0.22701763 0.1178179 -0.28261968 -0.049199883 -0.03864388 0.030237775 -0.066886894 0.25366777 -0.08319455 -0.14387721 -0.11140196 -0.012288791 0.14901319 0.07207876 -0.36927578 0.15285741 0.1422194 0.020171508 -0.25750872 -0.2892595 -0.0077914563 -0.17963968 -0.093431145 -0.30296984 -0.32165846 0.01189033 0.04942874 0.22659215 -0.07879769 0.13072486 -0.29044995 0.110454366 -0.1749497 0.24211875 -0.012868835 -0.17603293 -0.16868289 -0.013268689 0.081698045 -0.00533606 -0.22748806 -0.320172 0.007816799 -0.054178566 0.24246815 -0.4117594 -0.23957339 -0.1724572 -0.056052197 -0.04744559 -0.1310915 0.26708108 0.044900715 0.06840224 -0.16345727 -0.110161364 0.08686144 0.010824602 -0.048182596 0.1315145 -0.23594287 -0.1975849 0.026693976 -0.16733533 0.4420375 -0.041298836 -0.11464919 0.10801419 0.15124026 -0.028563023 0.047532354 -0.03968466 0.17967074 0.054870035 -0.010761468 -0.13261572 0.15373579 -0.24007885 -0.004390036 0.14079899 0.057642423 -0.15870066 -0.0451795 0.19916691 0.026325978 0.030914668 -0.11347735 0.0014689803 0.0036120708 -0.09273543 0.0036220415 -0.20803273 0.33115214 0.05435041 0.15055692 -0.2957507 -0.052233353 0.07143089 -0.009992117 0.05548902 -0.058740746 -0.2511719
20 0.20773071 0.36899215 -0.043411456 0.34703788 0.011394399 0.068154454 0.20429726 0.13195342 0.007290909 -0.21275079 -0.22791271 0.24814689 0.082111314 0.38515466 0.15085153 0.17142504 0.0010703546 -0.10733732 -0.07950373 -0.49661073 -0.4620703 -0.030747563 0.046844006 -0.062440667 0.06400781 -0.08109995 -0.23703778 0.10827982 -0.2921305 -0.05394713 -0.037736207 0.01664308 -0.06652713 0.25309455 -0.05631086 -0.15061845 -0.12914495 -0.012267823 0.15183043 0.08288763 -0.39071482 0.17185496 0.15195529 0.035758633 -0.2589322 -0.3062229 -0.0067403894 -0.18393366 -0.09162284 -0.2969456 -0.32644334 -0.008096126 0.045778323 0.23965085 -0.08450436 0.1309277 -0.30170473 0.11822881 -0.183118 0.2517455 -0.009095364 -0.18245238 -0.17658171 -0.01749513 0.07682511 -0.012145225 -0.25836617 -0.3284136 -0.014074743 -0.056995403 0.23454611 -0.42451122 -0.2473533 -0.18809779 -0.045560654 -0.039850626 -0.13821554 0.27473888 0.061166614 0.065668724 -0.16692208 -0.101848476 0.07035624 -0.006657801 -0.04571371 0.12288103 -0.2565664 -0.2039993 0.031152695 -0.17709698 0.44393986 -0.052485183 -0.12408964 0.10838165 0.14206593 -0.038402 0.047786552 -0.045981213 0.16189934 0.05148255 -0.0024003386 -0.1382525 0.16632637 -0.25311166 0.002775879 0.14838876 0.06421933 -0.17497453 -0.027952801 0.2106746 0.03468419 0.05295683 -0.12081568 0.0059694867 -0.0023572757 -0.10823731 0.012090886 -0.23675129 0.3333704 0.063522406 0.1590689 -0.2938093 -0.042820517 0.0954878 -0.01896911 0.048801046 -0.05863532 -0.26547903
37 0.03207002 0.041102387 0.018144174 0.14336494 0.07401741 -0.09001181 0.124315456 0.06471048 -0.14887135 -0.007733316 0.15152167 0.20801988 0.064515196 0.2611001 0.16894454 0.22975676 0.11268788 -0.062061805 -0.066013895 -0.123153515 -0.2091769 -0.051684678 -0.026486805 0.038139764 0.11861992 0.03847027 -0.19524859 0.13714118 -0.0026416015 0.052235313 -0.044429548 0.08972447 -0.050206255 0.096482046 -0.2401893 -0.05194417 0.14928047 0.0113404 -0.08479218 0.023269353 -0.120600626 0.05760783 0.0105874 -0.20088015 -0.29069683 0.0036910449 0.038985144 -5.6231074e-05 0.010539625 -0.32856604 -0.15325552 -0.04101464 0.028282236 0.080769196 -0.07958157 0.11689913 -0.24087279 0.050895683 -0.187424 0.27201107 -0.09894975 -0.30562806 -0.019531278 -0.10087897 0.044495054 -0.06202157 0.014706287 -0.27343953 0.2633805 -0.12086069 0.2519585 -0.14813423 -0.09276339 0.0058395215 -0.09919376 -0.06767405 -0.10773597 0.02761036 -0.071814284 -0.14773881 -0.061267503 -0.0023262806 0.14791837 0.14464623 -0.10852594 0.32516098 -0.14681436 -0.08996984 -0.15554024 0.030067924 0.21788907 -0.057832353 0.02324285 0.15517811 0.10321307 0.17894678 0.15942313 -0.033349555 0.1266926 0.04388874 -0.0296771 0.17793661 0.084948495 -0.3495497 -0.0992939 -0.058361486 0.050475165 -0.07816778 -0.021012245 0.10590593 -0.11179156 0.03441197 -0.18099402 -0.09178704 0.0013345336 -0.0634109 -0.17248002 0.08907902 0.28165832 -0.10613268 -0.08930627 -0.115770146 -0.08701442 -0.0630037 0.14641091 0.02746303 -0.06778943 -0.09285415
34 0.03318449 0.056982975 0.009943358 0.16711667 0.055697624 -0.06118947 0.123334646 0.04988197 -0.13775526 -0.015743995 0.13226137 0.20617867 0.07118191 0.24841602 0.16353802 0.21131481 0.10739257 -0.06332861 -0.0726602 -0.143743 -0.19661102 -0.04286915 -0.008564957 0.024037063 0.12934749 0.046835463 -0.19966038 0.13116881 -0.020182319 0.056515854 -0.039734785 0.07579142 -0.049567245 0.09092055 -0.23684503 -0.04488897 0.1400368 0.019982504 -0.08150403 0.028689245 -0.12289833 0.06962825 0.0027198787 -0.19701646 -0.2772705 -0.012270323 0.056425884 -0.0088684885 -0.010575349 -0.31841305 -0.14599109 -0.03240536 0.017330837 0.08732452 -0.07012995 0.11298476 -0.2446846 0.052074715 -0.18280694 0.2428229 -0.10434809 -0.2776537 -0.018791255 -0.09770443 0.05737316 -0.04417052 0.0048271264 -0.2569091 0.25243968 -0.10746429 0.23066652 -0.16549364 -0.10809905 0.004843767 -0.106550924 -0.08540739 -0.09099134 0.025208756 -0.080901206 -0.114974596 -0.07724409 -0.004328275 0.13690118 0.13159913 -0.0981794 0.29459473 -0.14697063 -0.09941295 -0.14087833 0.00458966 0.23247062 -0.04235499 0.020429755 0.13975127 0.111683056 0.15791835 0.14881061 -0.0445451 0.13322367 0.04066228 -0.04501877 0.13512222 0.07379064 -0.2933894 -0.096928425 -0.030495778 0.035046633 -0.084084906 -0.024450142 0.08336848 -0.12229652 0.005953232 -0.171722 -0.081653066 -0.017639656 -0.062202908 -0.14662182 0.07781816 0.2859492 -0.09044538 -0.06552167 -0.13007332 -0.087086886 -0.064460054 0.13680631 0.060765266 -0.062768266 -0.07817083
35 -0.01208828 0.0040753656 0.010722356 0.11224338 0.08693155 -0.10957599 0.116417624 0.07559157 -0.16502848 0.023789195 0.19675764 0.18065956 0.06382004 0.24284069 0.15749958 0.23618723 0.11928947 -0.048788402 -0.06050395 -0.08754858 -0.17434028 -0.040382963 -0.06313913 0.046205007 0.10940153 0.060964633 -0.16201742 0.13674788 0.01630099 0.051128745 -0.021595947 0.10135295 -0.04599777 0.08712549 -0.24087723 -0.046897788 0.16682322 0.010340749 -0.10118077 0.03074894 -0.0926803 0.03841274 -0.0071827015 -0.19062884 -0.28795573 0.03610511 0.02373869 0.026965367 0.049282495 -0.3076191 -0.14077792 -0.04758634 0.03272336 0.0571144 -0.09025333 0.12693436 -0.23026259 0.030880423 -0.16128078 0.27165687 -0.10092125 -0.3179014 -0.0066821417 -0.11824077 0.0417694 -0.069753654 0.044308268 -0.27431116 0.27951258 -0.122388385 0.24716514 -0.121845216 -0.0817575 0.028449668 -0.07919619 -0.0519022 -0.099476285 0.00717228 -0.07949965 -0.18932836 -0.047477346 0.0116201695 0.13944055 0.14428928 -0.11020444 0.33706114 -0.13764381 -0.064928725 -0.15412658 0.049528267 0.18732473 -0.05153434 0.03189619 0.1498011 0.09644061 0.19661598 0.1658717 -0.03601118 0.11101154 0.066752546 -0.031118426 0.21400057 0.07748627 -0.35640475 -0.111695245 -0.09309439 0.04838237 -0.07096335 -0.016824039 0.10834539 -0.11539465 0.043629847 -0.17220548 -0.10282159 -0.009607027 -0.062848255 -0.21342796 0.112447105 0.25730813 -0.12447199 -0.14058554 -0.08889255 -0.10090105 -0.06754415 0.17171481 0.020489002 -0.06908103 -0.06922293
36 0.06445212 0.059996396 0.036089033 0.1477616 0.08102036 -0.08897022 0.097119935 0.079740345 -0.13837738 0.01003827 0.13215883 0.22301508 0.06851131 0.30048698 0.19451913 0.2612714 0.099242315 -0.036127266 -0.0692545 -0.12921627 -0.22921175 -0.037364952 -0.050371025 0.041366372 0.116694435 0.013423918 -0.23051822 0.11369347 0.008318904 0.0701986 -0.042801842 0.08317851 -0.046214096 0.08731662 -0.22561544 -0.04716326 0.13041742 0.015509741 -0.097745575 0.029580746 -0.15762596 0.091656454 0.02119276 -0.19035845 -0.3129929 -0.00012957989 0.03908628 0.005403287 0.014832658 -0.33375934 -0.15843625 -0.07187323 0.008051097 0.089066364 -0.08233398 0.121490665 -0.26146683 0.06922842 -0.21507002 0.28447667 -0.10034495 -0.31644353 -0.028711908 -0.1066993 0.02585453 -0.08058046 -0.023964597 -0.28256708 0.2527352 -0.14196254 0.24936038 -0.14626324 -0.104278356 -0.012910593 -0.100003 -0.07056546 -0.123852536 0.016204765 -0.048179112 -0.16621314 -0.06077114 0.012051593 0.13745764 0.12607358 -0.118101105 0.33725652 -0.18178764 -0.09965336 -0.17258617 0.033043753 0.22376178 -0.077276535 0.014344854 0.1533972 0.10250101 0.18878292 0.18589368 -0.046248443 0.11465495 0.042198323 -0.012222748 0.18821125 0.10282176 -0.39743575 -0.09783415 -0.054097623 0.05238942 -0.103519104 -0.0006861945 0.12505285 -0.119089656 0.047390353 -0.21365832 -0.100344986 0.0037152036 -0.1003857 -0.18743789 0.06748295 0.31074393 -0.11671767 -0.07741638 -0.13015321 -0.087483704 -0.046537086 0.14094082 0.02687125 -0.06960841 -0.10891595
28 -0.14652659 0.004815589 -0.09672118 0.17682378 0.04663195 0.010604833 0.1387371 0.07926828 -0.120600864 0.00897375 0.14958873 0.179271 0.084407665 0.15727307 0.1491188 0.12354239 0.118472494 -0.064172 -0.049206786 -0.19217479 -0.14957525 0.046055146 -0.05272256 -0.032521002 0.12115391 0.16381364 -0.09282349 0.16057098 -0.045362305 0.056802336 -0.0047826683 0.055928808 0.00842598 0.071726836 -0.2046567 -0.06014827 0.1645637 -0.0036819892 -0.07428041 0.11503178 -0.09255494 0.08427145 -0.043309934 -0.09552604 -0.2616431 -0.026736984 0.08675534 0.013593224 0.052267283 -0.20943576 -0.10001706 -0.044748314 0.048313778 0.09796104 -0.12617758 0.1544179 -0.21783811 0.02252406 -0.09555896 0.11913969 -0.142786 -0.22106987 -0.013890276 -0.12042899 0.03932261 -0.05435433 0.0052647153 -0.22865328 0.24354021 -0.05804306 0.15061635 -0.16793378 -0.14379704 0.04362351 -0.037835434 -0.028753221 -0.044057205 0.015101894 -0.0695258 -0.14522772 -0.15012129 0.09903314 0.038851667 0.07156625 -0.08604914 0.25706008 -0.16487572 -0.10780287 -0.0462834 -0.037199933 0.23568752 -0.0054835537 0.019428568 0.076756984 0.059953373 0.16288702 0.12951757 -0.12203193 0.16424331 0.09823683 -0.1372437 0.06373548 0.02144658 -0.16211067 -0.12583317 -0.10084468 -0.0162166 -0.111687995 0.040280025 0.07985418 -0.13090947 0.042937033 -0.15069793 -0.046739843 -0.1345459 -0.035392314 -0.18975656 0.07326503 0.21306467 -0.06348925 -0.14110969 -0.06010151 -0.09121202 -0.03593168 0.17860645 0.1178338 -0.048894487 -0.028581256
54 -0.19000143 0.0767909 -0.14383794 0.18168113 -0.0052846223 0.007742468 0.22146833 0.03354303 -0.0633973 -0.047849048 0.10239443 0.07494047 0.057578355 0.13926327 0.058922812 0.05510782 0.07848709 -0.07248156 -0.03623292 -0.27236995 -0.13401291 0.008060572 -0.023386296 -0.07899243 0.07033551 0.20220043 -0.045525473 0.15710081 -0.1918286 -0.022524046 0.09687633 0.038770184 -0.007784843 0.14310603 -0.15193513 -0.12579969 0.100105904 0.027732197 -0.00859533 0.10688613 -0.041643947 0.03892873 -0.026541766 -0.033770025 -0.14311224 -0.12460291 0.03691521 -0.055795044 0.024982488 -0.16684267 -0.16251314 0.014398073 0.1007816 0.070904896 -0.16763064 0.12624608 -0.15882972 -0.0019697032 0.0014593623 0.12056721 -0.07844643 -0.1451822 -0.059814796 -0.06325771 0.08547318 0.025502723 0.03206879 -0.18913473 0.15837233 0.043868538 0.16342029 -0.2730415 -0.1850549 0.07444961 0.014327915 -0.012454852 0.011748081 0.09254165 -0.052247137 -0.04543611 -0.12238147 0.016302591 0.027760372 0.056394875 -0.0341676 0.13691461 -0.060764432 -0.07417261 0.07014272 -0.12677251 0.24967118 0.068034604 -0.037585177 0.058736015 0.11022716 0.06130603 0.02755286 -0.06684982 0.13402832 0.11484304 -0.11674943 -0.0026883578 0.014244193 -0.008945889 -0.09176263 -0.052091517 0.00877191 -0.03677041 -0.015586786 0.03266968 0.0020561654 -0.045194197 -0.057168294 0.00093768886 -0.10458147 0.01910349 -0.09164313 0.004986848 0.14589444 0.027352976 -0.098736666 -0.06740271 -0.06859556 -0.00054052746 0.10837512 0.21275023 -0.043899287 -0.028838795
31 0.016549133 0.16816624 -0.063152224 0.22566023 0.034548864 0.011545029 0.1699922 0.11581585 -0.05400148 -0.094725534 -0.031247828 0.17947635 0.07564574 0.252362 0.11674291 0.1434774 0.05207339 -0.07994402 -0.056133147 -0.30297297 -0.28097218 -0.0084759835 -0.011748605 -0.027377747 0.07351793 0.03666758 -0.12223707 0.12830095 -0.16838595 -0.015672654 -0.005616404 0.03835984 -0.03367049 0.17276202 -0.12223719 -0.11971398 0.007559047 -0.017913941 0.04779304 0.083630756 -0.21834198 0.09059561 0.045346744 -0.010000565 -0.223363 -0.13465793 -0.0030765957 -0.076705486 -8.8089524e-05 -0.22662358 -0.20221123 -0.02372527 0.07147568 0.14992018 -0.09995041 0.13690367 -0.22622949 0.047699876 -0.11234108 0.18958877 -0.04498737 -0.18546315 -0.08717259 -0.068578154 0.053303365 -0.034705274 -0.0991731 -0.26555294 0.105177924 -0.053162914 0.17804265 -0.26644525 -0.17077109 -0.059700493 -0.019537682 -0.0091997 -0.095609665 0.13939434 0.011131078 -0.054908615 -0.12261863 -0.011696175 0.049317874 0.03171607 -0.064285845 0.17700501 -0.17693087 -0.1205952 -0.007293402 -0.09021006 0.29720733 -0.029074105 -0.054615453 0.09226319 0.09160249 0.05385022 0.07722273 -0.06377314 0.14621268 0.07668979 -0.04628286 -0.013923128 0.0864365 -0.20119669 -0.046978287 0.012507976 0.031993616 -0.11236201 0.0015800804 0.14875968 -0.013496508 0.053948533 -0.10966278 -0.025292903 -0.0472142 -0.05430571 -0.10525909 -0.062699445 0.24298507 -0.0018674445 -0.016307479 -0.15637487 -0.07333205 0.03260957 0.074795954 0.061883014 -0.050140962 -0.12717734
39 -0.23052125 0.05481289 -0.16752715 0.17536019 -0.0057144817 -0.0036494082 0.22606947 0.04499363 -0.07038253 -0.018883778 0.12899041 0.048016846 0.062086303 0.1294149 0.060100224 0.061750446 0.0839977 -0.054474603 -0.030681444 -0.26805514 -0.13043866 0.02315073 -0.06515043 -0.07759505 0.06299067 0.2270968 -0.028799715 0.15560485 -0.18592769 -0.028190333 0.11607074 0.026790796 -0.0034184908 0.13272868 -0.14348695 -0.14331907 0.09850057 0.031804547 -0.021602951 0.121628426 -0.02854881 0.028425962 -0.03267456 -0.018847262 -0.14936863 -0.123283036 0.024132038 -0.046574842 0.05913234 -0.14137036 -0.15922783 -0.0048560193 0.10699226 0.053069275 -0.18848164 0.14035255 -0.14358264 -0.015222834 0.009218365 0.110527664 -0.07649336 -0.1575552 -0.05993184 -0.090344526 0.06589308 0.0019721426 0.03184972 -0.19285615 0.16588713 0.042299923 0.14975789 -0.25866628 -0.19510347 0.09130356 0.044190794 0.007264021 0.0130802905 0.07855938 -0.03393451 -0.08501611 -0.11419095 0.042107817 0.010930987 0.042317554 -0.026071314 0.14259586 -0.054300215 -0.06608937 0.07757157 -0.12116259 0.23058946 0.07309077 -0.031490125 0.052248493 0.091048226 0.086204715 0.045366228 -0.075666964 0.114782974 0.12985417 -0.117120706 0.021758266 0.014163145 -0.023367217 -0.10127525 -0.09546827 0.019466495 -0.031721134 0.010241693 0.04753341 0.01547677 -0.014261528 -0.0682605 -0.0077382373 -0.11567156 0.0039015678 -0.11669151 0.009740637 0.13434945 0.007873439 -0.14658944 -0.041323196 -0.069928445 0.013759742 0.13228917 0.21704808 -0.045883704 -0.019751813
42 -0.18956986 0.07780819 -0.16370863 0.18912025 -0.007956878 0.026976611 0.21565947 0.057376362 -0.07300658 -0.04846399 0.09686314 0.07286104 0.060011618 0.096223034 0.04687485 0.035125785 0.0873667 -0.08637152 -0.04953681 -0.27031747 -0.12675409 0.015083578 -0.007765581 -0.071546674 0.0712958 0.20060806 -0.008980702 0.17905676 -0.18468763 -0.024842558 0.08499707 0.037944622 -0.018742433 0.14699648 -0.14333999 -0.12582958 0.091931865 0.012260056 0.020511935 0.1127118 -0.050120883 0.019981917 -0.030476885 -0.027317237 -0.14925936 -0.114007816 0.028798934 -0.06030567 0.035647213 -0.1535401 -0.15217786 0.03447408 0.10542155 0.074375115 -0.15466158 0.13596065 -0.14774537 -0.007898485 0.011546561 0.09374308 -0.067571834 -0.15047818 -0.04185988 -0.08483949 0.09185946 0.02514731 0.03499858 -0.20108469 0.15532431 0.030125137 0.13919234 -0.2582426 -0.17962982 0.07708177 0.026802152 0.0003292084 0.009402194 0.09795148 -0.056228373 -0.048997488 -0.12370556 0.016111279 0.028397452 0.042067334 -0.024558319 0.13450618 -0.06220659 -0.080990076 0.06521465 -0.11329142 0.24434273 0.068783134 -0.027997162 0.046142153 0.08439107 0.057945505 0.02195537 -0.07305961 0.14586675 0.114983425 -0.11897103 -0.02240164 0.009896763 0.00082529266 -0.09141879 -0.052876607 5.5057317e-06 -0.031275537 -0.012801987 0.04593105 0.005216591 -0.027927054 -0.031913117 -0.011525227 -0.12603384 0.0334615 -0.09075662 0.028421614 0.12820786 0.024964327 -0.122835696 -0.061392818 -0.075318255 -0.0101820845 0.13307482 0.17925082 -0.045497093 -0.023928713
3 -0.23831491 -0.024064409 -0.12492031 0.04226801 0.11999917 -0.17978029 0.24085717 0.18191053 -0.1834344 -0.014563398 0.24241227 0.028603395 0.047002416 0.16028942 0.0137580875 0.1597125 0.11721859 -0.09546969 -0.024309853 -0.11634176 -0.1768477 -0.057196233 -0.20231186 0.07688076 -0.05167932 0.16550909 0.14607148 0.21358213 -0.07639846 -0.1527263 0.0786369 0.13822661 -0.081179574 0.25655285 -0.15849018 -0.20109396 0.15052417 -0.060835164 0.018408021 0.058277953 -0.0001673578 -0.11812751 -0.023360627 0.024504283 -0.17939997 0.076428324 -0.18944559 0.033005655 0.21509488 -0.13550888 -0.24705742 0.0025674219 0.22026306 -0.020206286 -0.1967792 0.21328425 -0.08503066 -0.10161348 0.0632434 0.30364922 0.04121366 -0.3239726 0.015967922 -0.13485499 0.053820323 -0.10631458 0.14849694 -0.35279876 0.2390452 -0.056525905 0.2659989 -0.1032046 -0.018911237 0.08004998 0.13214555 0.17187448 -0.12707458 0.14198308 -0.031245999 -0.2930303 -0.006508034 -0.029690085 0.088428535 0.10255279 -0.095907494 0.29333547 0.017327793 0.05919197 0.010427989 0.046686035 0.105456196 -0.044237025 -0.056230295 0.14286092 0.06711848 0.18950196 0.055714697 0.007851673 0.083755516 0.17088324 -0.03093611 0.2585638 0.07525383 -0.3073972 -0.11888096 -0.2352152 0.08126552 0.03412473 -0.049019676 0.20646657 0.085154936 0.17927223 0.015142552 -0.10022485 -0.00658566 0.050777834 -0.369508 0.13331224 -0.0012152818 -0.09581456 -0.35039875 0.060043998 -0.13307229 0.030486997 0.21019265 -0.0541235 -0.0006388464 -0.06231903
43 -0.17947508 0.062188573 -0.15151644 0.17803977 -0.0018158695 -0.006481193 0.22830556 0.05762102 -0.08633736 -0.064795196 0.10760607 0.07649878 0.06728764 0.107761286 0.04061263 0.04926984 0.096539855 -0.10061407 -0.03959735 -0.24869347 -0.13856256 -0.010228831 -0.010220568 -0.053942617 0.061940916 0.19277947 0.0006873998 0.17929551 -0.17863174 -0.04580263 0.073598675 0.053984206 -0.03081291 0.16602342 -0.16451114 -0.13321295 0.10594874 0.0036226637 0.01585018 0.09263208 -0.026647076 -0.003831899 -0.028285302 -0.036219902 -0.13745922 -0.09755821 0.0053945063 -0.0562737 0.037507832 -0.1619544 -0.16313878 0.05159804 0.12437293 0.06296551 -0.15721521 0.13584642 -0.1447641 -0.024957301 0.017235776 0.13070852 -0.050373197 -0.15359941 -0.032392193 -0.07141237 0.09054346 0.010971024 0.06334153 -0.21481177 0.17214984 0.033171564 0.17109054 -0.24535495 -0.15353774 0.07038078 0.01991419 0.013671718 -0.0085358145 0.1030798 -0.06737147 -0.059998143 -0.118234195 -0.00219942 0.047601115 0.075307816 -0.034312904 0.14966856 -0.034716234 -0.06335613 0.06497769 -0.09888018 0.24019003 0.051849946 -0.025978323 0.07325985 0.10169864 0.06830029 0.01491665 -0.051036417 0.1433313 0.111828305 -0.11282486 0.003651943 0.016088212 -0.019998178 -0.0841018 -0.061669603 0.01043079 -0.018236993 -0.037000846 0.050044194 0.013291656 -0.021041868 -0.024332855 -0.006003346 -0.09534763 0.051885296 -0.10750368 0.03574871 0.11978475 0.022050811 -0.12688203 -0.058118362 -0.0780987 -0.010859841 0.12165603 0.15919675 -0.039032932 -0.027264073
2 -0.23330985 -0.015181892 -0.12935 0.0514902 0.12721822 -0.17175873 0.23163955 0.19310243 -0.1678686 0.008011713 0.23469208 0.03712487 0.050193693 0.19071048 0.043000903 0.18034795 0.10582002 -0.06534506 -0.029068612 -0.12566005 -0.18859126 -0.039935336 -0.22103819 0.07288832 -0.046497498 0.15134566 0.1147175 0.19205944 -0.07325298 -0.12584066 0.080660425 0.12504706 -0.067985006 0.2471997 -0.1400659 -0.2014635 0.13474052 -0.056751832 0.019006925 0.078289434 -0.038716577 -0.09118317 -0.017331664 0.03783148 -0.20058201 0.06216725 -0.17694484 0.04036666 0.21978748 -0.13862503 -0.24368082 -0.038398817 0.2141211 -0.007052719 -0.19894244 0.22312662 -0.10516491 -0.08880612 0.04022217 0.29288286 0.03073673 -0.33555964 0.00019189517 -0.14554636 0.037456598 -0.11540815 0.106363595 -0.35320163 0.21989252 -0.06791095 0.24999209 -0.11496064 -0.040836602 0.07742607 0.14326161 0.15719897 -0.12683706 0.13167883 -0.0066755586 -0.303136 -0.0012125297 0.0039163893 0.067324914 0.08194428 -0.10014171 0.30670485 -0.01985451 0.046613388 0.0060342858 0.04230109 0.10516135 -0.049922336 -0.054947242 0.13758264 0.05845372 0.20009832 0.07865804 -0.007782397 0.07841147 0.17000555 -0.023297166 0.2711739 0.088022575 -0.3415081 -0.11787944 -0.23325457 0.08739717 0.008284781 -0.014827373 0.2188499 0.081956446 0.2007056 -0.023103496 -0.10369911 -0.014173182 0.017365208 -0.37371063 0.11027233 0.017236108 -0.096887246 -0.3451995 0.054161552 -0.13241833 0.036366407 0.21586767 -0.051596496 -0.011934735 -0.06536776
72 -0.14830607 0.04833131 -0.1135997 0.16125669 0.019293278 -0.018319516 0.18428016 0.060816724 -0.09135721 -0.021655168 0.12307268 0.10574871 0.064718366 0.15028083 0.08510255 0.09921016 0.09427274 -0.06882916 -0.04395018 -0.21728435 -0.14742139 0.0033990166 -0.043967023 -0.034032337 0.0795776 0.16622482 -0.06410051 0.15319014 -0.12432359 -0.0014555971 0.053928155 0.052803002 -0.022153566 0.124532975 -0.16631448 -0.11172147 0.11858706 0.013004286 -0.024557117 0.0961918 -0.058552373 0.033601906 -0.02725931 -0.06615656 -0.18519235 -0.07194489 0.027721088 -0.026349517 0.04175789 -0.18622126 -0.14378865 -0.0028028435 0.0901386 0.070971616 -0.14559986 0.13577005 -0.17673318 0.00031085947 -0.041968025 0.14538759 -0.07647927 -0.19632146 -0.033858582 -0.08775109 0.06410977 -0.011773358 0.026312921 -0.21831146 0.19336839 -0.009125933 0.17252092 -0.22215867 -0.1528175 0.061661538 0.00084971276 -0.01528974 -0.029183073 0.06599989 -0.05631735 -0.09659849 -0.11051195 0.022751803 0.052228313 0.06622647 -0.059929956 0.19275425 -0.092181 -0.07336511 0.0003439771 -0.069196574 0.22590567 0.030311339 -0.013107456 0.0763038 0.08688798 0.1074523 0.070915215 -0.06647641 0.12401764 0.10259365 -0.09854989 0.045962956 0.026902527 -0.10688438 -0.09275911 -0.07278824 0.016643137 -0.0459547 -0.0012438801 0.060673986 -0.02632173 0.0017220476 -0.086493686 -0.036817174 -0.090227515 -0.0056947498 -0.13836718 0.04156181 0.1637586 -0.018950848 -0.13031948 -0.059303377 -0.07830215 -0.01152288 0.13762097 0.14120498 -0.04582555 -0.036081236
52 -0.22602901 0.06854205 -0.17100757 0.1914512 -0.025477074 0.02388863 0.23292826 0.029846704 -0.05710573 -0.03428156 0.112655714 0.057528965 0.059991024 0.13755699 0.060621474 0.047234714 0.07472013 -0.06342526 -0.031764966 -0.29190558 -0.12490979 0.025477504 -0.044517472 -0.09496939 0.07476386 0.23685098 -0.052195895 0.15726233 -0.21684642 -0.015281785 0.12789781 0.021592025 0.001060352 0.13532476 -0.14110209 -0.14460334 0.09831185 0.044987693 -0.022491204 0.13239774 -0.037711952 0.05292399 -0.03956693 -0.028480167 -0.14439064 -0.14521849 0.05349654 -0.06999489 0.037076395 -0.15102464 -0.15944535 0.003306421 0.110001415 0.073628314 -0.18972804 0.14290164 -0.16523227 -0.002819377 0.0059109093 0.10109355 -0.08331842 -0.13959281 -0.07124108 -0.07282093 0.0726368 0.028121257 0.01901638 -0.1735242 0.16486518 0.05263023 0.15258013 -0.29094404 -0.20930594 0.090710856 0.025556974 -0.020137323 0.030505918 0.08509471 -0.051966827 -0.05443443 -0.14374065 0.03730363 0.010605791 0.04147255 -0.019601602 0.11907257 -0.06281484 -0.08007337 0.084295966 -0.14752705 0.2492836 0.081893474 -0.04160556 0.051906403 0.107261315 0.061402272 0.035949674 -0.0778051 0.125887 0.11372639 -0.12760635 -0.013372075 0.0014355809 0.019613035 -0.0968173 -0.06971769 0.009667184 -0.045527827 0.001604433 0.017473284 0.016654626 -0.049139064 -0.06954277 0.0031052378 -0.12318671 0.0083622215 -0.078507684 -0.01642127 0.15074146 0.037441973 -0.10284013 -0.058396794 -0.053311553 0.014855495 0.1003555 0.25089887 -0.046279635 -0.019827317
50 -0.19482465 0.033591047 -0.13344496 0.1419033 0.018937863 -0.024503212 0.19186269 0.057317816 -0.08486096 -0.010210808 0.14555596 0.068217054 0.048503846 0.13965179 0.07451926 0.09397283 0.08796438 -0.05090754 -0.033246867 -0.21185032 -0.12259021 0.005968931 -0.06340563 -0.035591435 0.061151683 0.1871659 -0.031220578 0.14709039 -0.12982169 -0.018018253 0.086199395 0.048792213 -0.011607422 0.12410116 -0.14773673 -0.12748303 0.11831286 0.0206563 -0.022467522 0.10723514 -0.030856557 0.024091344 -0.032132577 -0.035888158 -0.16196866 -0.066359036 0.015589683 -0.028646735 0.072472565 -0.16053721 -0.14718205 -0.01018624 0.10881577 0.044424683 -0.16552027 0.14386159 -0.14855109 -0.016180525 -0.015498133 0.13644889 -0.070441425 -0.18300049 -0.038590986 -0.09199608 0.055822697 -0.010585349 0.03566688 -0.20696007 0.175897 0.0009760956 0.16439225 -0.21560985 -0.15095696 0.08257773 0.027565803 0.0027305225 -0.012616118 0.06966207 -0.045836136 -0.1138583 -0.0972904 0.038349606 0.035690796 0.054983128 -0.042526696 0.18170394 -0.06793573 -0.054009754 0.021721467 -0.0759208 0.19092184 0.039206933 -0.02335121 0.068633646 0.07984752 0.11104316 0.058049068 -0.06234962 0.10746313 0.11184407 -0.09476928 0.06461428 0.016051285 -0.09161577 -0.10169939 -0.09187014 0.018896196 -0.03663729 -0.0003054304 0.05745332 -0.0011818425 0.0014280509 -0.07193311 -0.028692095 -0.09388974 0.001583111 -0.1447935 0.037120678 0.13470216 -0.015774842 -0.1530742 -0.03676957 -0.07381717 -0.004712147 0.13785672 0.1584471 -0.04376643 -0.02623734
56 -0.18120249 0.07927312 -0.15284294 0.20091845 -0.02675803 0.011444553 0.23087563 0.030320423 -0.05602235 -0.054508593 0.09286254 0.07618419 0.05510251 0.13431774 0.06919282 0.05180384 0.08209035 -0.07678923 -0.030740432 -0.28633165 -0.1363881 0.012814696 -0.0025596786 -0.07711892 0.07643785 0.20127487 -0.056668445 0.16687311 -0.20013255 -0.025337862 0.10002384 0.032346275 -0.0047279783 0.13111125 -0.15240395 -0.12266192 0.10054231 0.033883367 -0.008840401 0.12045871 -0.040051583 0.03768623 -0.026874814 -0.044208534 -0.13305394 -0.13727064 0.054613862 -0.07888821 0.016188342 -0.16804925 -0.16148366 0.025416248 0.098383166 0.07382467 -0.16487119 0.13202268 -0.15739278 -0.00967879 -0.0004726034 0.107303284 -0.0843733 -0.12534608 -0.059100263 -0.055202644 0.084412605 0.03176678 0.027930984 -0.17735109 0.14887974 0.053832464 0.15489823 -0.2880673 -0.20002937 0.07564586 0.007381267 -0.026227964 0.023877278 0.09649869 -0.06363124 -0.026136937 -0.14569843 0.014274262 0.027804285 0.06059504 -0.02040075 0.12470128 -0.056491926 -0.08410024 0.07583064 -0.14286315 0.2614477 0.07455845 -0.03693646 0.05718591 0.11432408 0.058235683 0.024115954 -0.07219283 0.13241972 0.10864639 -0.12790819 -0.017335013 0.0026933246 0.003997254 -0.08471051 -0.03445615 0.016883194 -0.045458734 -0.022900876 0.019667834 0.005297034 -0.06322369 -0.05893555 0.0005179898 -0.10614726 0.018673113 -0.07144908 -0.00974638 0.1518523 0.041512247 -0.07316771 -0.071076795 -0.051530644 0.001967856 0.09104853 0.22729886 -0.04669581 -0.029113157
44 -0.2113827 -0.0018533682 -0.12965807 0.15830341 0.038974978 -0.009484532 0.17660911 0.0791572 -0.12901348 -0.00764748 0.17587903 0.11974438 0.07580399 0.11902752 0.09491724 0.09025678 0.12014623 -0.08008694 -0.03413476 -0.19551583 -0.12730089 0.03148589 -0.06296563 -0.03512184 0.091159895 0.20755878 -0.019452047 0.1826638 -0.09404372 0.0040499223 0.038272776 0.05711292 0.00021434735 0.10479612 -0.1915811 -0.09723513 0.1600822 0.0015418521 -0.0468251 0.11474387 -0.03434574 0.026486648 -0.05374782 -0.06397408 -0.20664509 -0.026172442 0.034540698 0.004484011 0.07471554 -0.16618302 -0.118685484 -0.0034816703 0.0945383 0.06783392 -0.15696456 0.15546739 -0.1728235 -0.01698279 -0.021394718 0.12106708 -0.106099784 -0.20161285 -0.006186515 -0.11134217 0.057255108 -0.027785076 0.057218075 -0.22483559 0.23797715 -0.0077923173 0.1479376 -0.18498982 -0.1371766 0.07882433 0.007171827 0.0022402168 -0.02593362 0.039696 -0.075413026 -0.14410794 -0.1312355 0.06444925 0.034139354 0.07111319 -0.07190563 0.2191866 -0.09764032 -0.070516184 0.0074579045 -0.05072692 0.20782937 0.021986343 0.0050184974 0.066103905 0.06636741 0.13558352 0.080810316 -0.10347821 0.15152332 0.12051647 -0.14097483 0.060745675 0.0034513532 -0.089095265 -0.12166175 -0.118378475 -0.013544186 -0.061025888 0.010940569 0.06616548 -0.06892574 0.03080348 -0.08424288 -0.041506544 -0.13542578 0.01773827 -0.18914571 0.08212713 0.14053811 -0.045357857 -0.18832645 -0.023985798 -0.09471546 -0.026226642 0.17804143 0.13603155 -0.03517075 -0.0066727446
74 -0.26503012 0.11652782 -0.21684419 0.26452777 -0.07989018 0.059532486 0.34213865 -0.032689888 -0.07752235 -0.18896978 0.07540049 0.051169388 0.079220526 0.009055883 -0.04296818 -0.0795331 0.12588145 -0.20453279 -0.046737485 -0.38035637 -0.089312464 -0.036047284 0.13950208 -0.12521297 0.0975103 0.30469874 0.052834842 0.25962275 -0.33585218 -0.09792211 0.108898155 0.052022286 -0.027018227 0.22367318 -0.21502864 -0.14560094 0.13016647 0.03643218 0.06343433 0.098573476 0.059139274 -0.05608862 -0.048214097 -0.060342398 -0.04933587 -0.18896571 0.057895437 -0.14973722 -0.06786103 -0.18435717 -0.18285689 0.20420909 0.1482155 0.0810776 -0.15994966 0.11815123 -0.12642495 -0.049516056 0.105708025 0.0650737 -0.05806023 -0.03904843 -0.041551095 -0.023597302 0.20860434 0.14257753 0.15398511 -0.19571392 0.19412552 0.17078121 0.18783107 -0.388658 -0.21594916 0.13632031 -0.011733435 -0.04089047 0.08263211 0.17366776 -0.152954 0.11862558 -0.19388622 -0.08166795 0.08396214 0.123567015 0.017726121 0.038179696 0.070379585 -0.09231333 0.17648615 -0.21488544 0.34930825 0.16859654 -0.034402613 0.04699439 0.16595341 -0.04314192 -0.088300124 -0.024578242 0.2356634 0.119179 -0.21412998 -0.16072318 -0.040633768 0.27303874 -0.08593041 0.014495356 -0.03270684 0.04494318 -0.14618796 -0.068579115 0.043621007 -0.19800922 0.07218404 0.07080053 -0.14110805 0.18046883 0.04101063 0.02930237 0.10887637 0.121873245 -0.039745767 -0.09965914 -0.058233082 -0.055042356 0.0905563 0.32670632 -0.018439556 0.01794027
33 -0.17378041 0.06503064 -0.14779915 0.19149333 -0.020385643 0.02302486 0.21421371 0.030580405 -0.082083225 -0.06803598 0.09864753 0.087896176 0.06681531 0.08932235 0.047263734 0.025674365 0.100480385 -0.10720158 -0.036226064 -0.25031543 -0.120239206 -0.004730541 0.031153824 -0.07018431 0.08974282 0.19040434 -0.02107192 0.18747456 -0.17045166 -0.019561592 0.059204787 0.053144995 -0.022403616 0.1354339 -0.18045865 -0.108448915 0.11509254 0.01564335 0.003545435 0.09676718 -0.023472052 0.0053422847 -0.032954745 -0.06855533 -0.13080719 -0.10612276 0.045990217 -0.06549693 0.004519278 -0.17428516 -0.13239835 0.06220898 0.10256208 0.07228934 -0.13666095 0.11814624 -0.14840803 -0.013455056 0.0011112257 0.100639105 -0.07611111 -0.12919863 -0.023279104 -0.06525031 0.106255226 0.032440834 0.06491115 -0.19534779 0.17328325 0.04624329 0.14812216 -0.25287038 -0.17100221 0.07287394 -0.010142938 -0.019598268 0.010736466 0.08485799 -0.09200853 -0.024243243 -0.13681427 -0.0061896304 0.0477634 0.08121385 -0.03065381 0.13513641 -0.040645648 -0.08060471 0.055665083 -0.108747885 0.24981482 0.07138475 -0.013005094 0.06300274 0.0981492 0.05181035 0.012008497 -0.06378142 0.15324862 0.09417783 -0.1342551 -0.033236668 -0.0027723287 0.025087938 -0.08385721 -0.036584377 -0.0072242967 -0.02638696 -0.042709146 0.01488277 -0.018947544 -0.06030712 -0.023119641 0.0019039302 -0.1145148 0.061259415 -0.066530116 0.042595007 0.1418211 0.029007887 -0.098931275 -0.06806013 -0.06573824 -0.022891704 0.11755972 0.18645634 -0.043624192 -0.014734449
30 0.065850526 0.18188466 -0.039613195 0.22650914 0.03152575 -0.003989348 0.16663018 0.11483364 -0.05967779 -0.100434035 -0.04513911 0.20085457 0.06970149 0.27589923 0.12591262 0.16028263 0.050300196 -0.08985874 -0.06621761 -0.30725393 -0.310526 -0.024829643 -0.006772511 -0.0125942705 0.06532942 0.000647055 -0.15427107 0.12464806 -0.16081585 -0.020865683 -0.018449789 0.043905534 -0.05455628 0.17694266 -0.12862599 -0.106907174 -0.0022917758 -0.009274011 0.054427527 0.06511277 -0.23701651 0.094104715 0.06346933 -0.036312368 -0.2336728 -0.1370177 0.00088613154 -0.08953771 -0.022069966 -0.24908696 -0.22717449 -0.01648249 0.061346333 0.15275447 -0.093001224 0.1301171 -0.23305146 0.060413327 -0.14122367 0.21874872 -0.045512605 -0.20442791 -0.08884023 -0.05623974 0.05395959 -0.035987042 -0.107871026 -0.28569067 0.10276313 -0.069873676 0.21065602 -0.27109528 -0.16474083 -0.08091995 -0.03155164 -0.017836923 -0.113421775 0.15196827 0.004018889 -0.050013382 -0.12180927 -0.03724444 0.07237366 0.042493187 -0.067881405 0.19366416 -0.17638193 -0.12982064 -0.020429494 -0.081385665 0.3109055 -0.038650256 -0.06500137 0.11160822 0.11078521 0.06698876 0.078235365 -0.0506482 0.14850368 0.061740987 -0.03195808 0.0026175436 0.10312865 -0.25457436 -0.046150222 0.028779874 0.041459773 -0.12079067 -0.011681476 0.16132364 -0.0210939 0.054360136 -0.11730264 -0.034209557 -0.024715154 -0.058137577 -0.09735145 -0.0740289 0.26122543 -0.0028404454 0.008621562 -0.16770181 -0.0622765 0.035701904 0.056002792 0.039510816 -0.05106711 -0.15084991
47 -0.24475427 0.14850388 -0.21586856 0.30700797 -0.101033755 0.10576547 0.33440682 -0.07382359 -0.06702892 -0.21196258 0.04534229 0.07126448 0.12178618 0.045921996 -0.022548651 -0.07385383 0.105169564 -0.21886028 -0.062900245 -0.42317563 -0.11879479 -0.06217263 0.19050093 -0.16070428 0.14214045 0.29132593 -0.0019022604 0.24737416 -0.3640338 -0.069218755 0.10368599 0.056507755 -0.021965431 0.23361608 -0.22494586 -0.14290929 0.12507059 0.039070744 0.050420564 0.08498757 0.03686642 -0.008530757 -0.05361309 -0.085894 -0.065473825 -0.23167646 0.07249263 -0.16144472 -0.11087318 -0.24988493 -0.17733684 0.18953015 0.1277894 0.122260936 -0.13547328 0.07210029 -0.18589154 -0.004143392 0.08050211 0.04640431 -0.06943657 -0.0005191427 -0.06848598 -0.0061637345 0.23737526 0.19602893 0.14727597 -0.17166935 0.1934072 0.16746692 0.19135092 -0.4387261 -0.23755375 0.10423292 -0.077894986 -0.087065555 0.111007415 0.15104872 -0.14176618 0.1540091 -0.2120343 -0.07846135 0.08303345 0.15688944 0.022864088 0.009477205 0.05547944 -0.12088493 0.18476348 -0.23659171 0.39881754 0.16886352 -0.036353517 0.053492468 0.19548254 -0.07080584 -0.089797646 -0.012434271 0.27021316 0.098479636 -0.22327799 -0.22325931 -0.020948326 0.32862467 -0.086884856 0.064836755 -0.066756815 0.029501898 -0.16656363 -0.07268128 0.010705402 -0.2519392 0.02841115 0.117784545 -0.1384099 0.1570341 0.087175034 0.019186491 0.1928393 0.13304031 0.020875959 -0.18727675 -0.06937307 -0.079938434 0.08783147 0.39840707 -0.019303653 0.003679289
12 -0.020091344 0.118557155 -0.063340835 0.14950319 0.0677636 -0.056826968 0.1637603 0.13441259 -0.08612004 -0.0635049 0.031697117 0.118274614 0.057392016 0.23068233 0.08644659 0.16076605 0.05401913 -0.06791412 -0.04780501 -0.22398826 -0.25669062 -0.025796996 -0.08329048 0.017642934 0.016385557 0.037660897 -0.050667793 0.12640761 -0.12027446 -0.061901197 0.0100113945 0.06631207 -0.054498985 0.18659206 -0.10025279 -0.13341299 0.020294687 -0.030924082 0.048991192 0.06368727 -0.16858874 0.03146348 0.044035673 0.017439 -0.20688975 -0.07375444 -0.07232249 -0.04332165 0.07020501 -0.18560317 -0.22157992 -0.02490192 0.10292268 0.088204585 -0.11150028 0.15107128 -0.17175081 0.009739508 -0.06977938 0.22921756 -0.005305828 -0.22819532 -0.058080524 -0.08302357 0.04146116 -0.063508615 -0.049117524 -0.2876791 0.11430205 -0.06379873 0.19693354 -0.20024712 -0.10988332 -0.036312237 0.03881341 0.054746475 -0.113058686 0.14621116 0.014632806 -0.13159302 -0.06128127 -0.024464982 0.057836708 0.037215114 -0.06989734 0.20618862 -0.11731822 -0.061414905 -0.00889724 -0.03510295 0.21498995 -0.045657583 -0.061897002 0.10401325 0.08011686 0.09574157 0.07281999 -0.03196224 0.103187636 0.09363003 -0.011523227 0.08809367 0.100446746 -0.27299774 -0.060886748 -0.06086706 0.063009515 -0.0684843 -0.0073419195 0.1819913 0.027881868 0.11386834 -0.07430136 -0.05071454 -0.008782598 -0.042863674 -0.18346512 -0.020949205 0.15526752 -0.04100831 -0.10068293 -0.08833216 -0.077744655 0.046043772 0.102462865 -0.00667969 -0.030112218 -0.12933588
73 -0.27564517 0.13576865 -0.23820291 0.28965583 -0.084813006 0.08519983 0.36796558 -0.04335228 -0.0724655 -0.21593018 0.063701935 0.037429314 0.08882146 -0.006290289 -0.051181406 -0.0952168 0.12625375 -0.22249618 -0.05545889 -0.4097225 -0.08984252 -0.046482984 0.1642806 -0.14010653 0.10652003 0.32494292 0.06289307 0.26824635 -0.37630334 -0.111803524 0.11172522 0.050715446 -0.036448672 0.24798156 -0.21676606 -0.15833211 0.12431684 0.03703273 0.08403171 0.09168582 0.058317456 -0.057671547 -0.05240494 -0.055288345 -0.031844597 -0.21794364 0.053484946 -0.16362555 -0.092091404 -0.19236027 -0.19224186 0.22361848 0.1584425 0.08518495 -0.15387355 0.11736689 -0.13722676 -0.044050492 0.12383903 0.06022097 -0.0548141 -0.01664118 -0.053380862 -0.016816186 0.24095275 0.17066765 0.16138068 -0.20155044 0.19122472 0.1921022 0.1805167 -0.42681834 -0.23251703 0.14539704 -0.009612691 -0.041383807 0.105008535 0.1952309 -0.15547174 0.14644471 -0.19760513 -0.09534509 0.08677467 0.12464579 0.023034021 0.021319648 0.0849866 -0.09419042 0.19403633 -0.23551482 0.37923312 0.1910032 -0.03469596 0.042439517 0.17580411 -0.072839856 -0.11040533 -0.010130609 0.25463462 0.12780271 -0.22241206 -0.20268548 -0.035389364 0.32444292 -0.08965614 0.024068559 -0.042711817 0.06289623 -0.15955397 -0.08214307 0.05241793 -0.22731103 0.09396983 0.09355405 -0.14793059 0.2040425 0.06748193 0.030011846 0.1044111 0.13391905 -0.025164029 -0.11807644 -0.068829946 -0.067487516 0.09317238 0.35019276 -0.023933772 0.018767143
5 -0.36599794 -0.0757471 -0.1891532 -0.0071250494 0.1587985 -0.23668373 0.29244134 0.23438783 -0.209861 0.03284861 0.33505085 -0.02933598 0.04354922 0.15638983 -0.0020140044 0.18184051 0.1383937 -0.08389514 -0.020283349 -0.09182775 -0.16373959 -0.04607613 -0.3014229 0.09909654 -0.097515896 0.23696703 0.24672233 0.24016689 -0.07283109 -0.1900532 0.13239475 0.15956129 -0.08090601 0.30657384 -0.15004884 -0.26467964 0.18226686 -0.083057374 0.024907047 0.09430823 0.03721022 -0.17361414 -0.050091665 0.075204656 -0.19227956 0.11670847 -0.266242 0.06915742 0.31611398 -0.101356424 -0.28468138 -0.022968087 0.30041412 -0.06449201 -0.2650955 0.27113867 -0.06329332 -0.15629606 0.12508896 0.3379642 0.06667614 -0.3914724 0.02086749 -0.18066655 0.043864682 -0.14533566 0.1982384 -0.41103128 0.27374908 -0.058454003 0.28791618 -0.084247924 -0.009876717 0.14170824 0.2192222 0.24838336 -0.14042263 0.15213351 -0.0106480755 -0.40223116 0.030834338 0.0024984393 0.06537829 0.09642664 -0.11359655 0.35231745 0.050188478 0.11410642 0.032931276 0.07603641 0.06159719 -0.046014536 -0.06144467 0.15185547 0.05214507 0.24912216 0.06528375 0.013389831 0.06778702 0.22538243 -0.031364102 0.35709637 0.080389395 -0.36765838 -0.15223773 -0.3436687 0.10682527 0.0649083 -0.025297586 0.25170037 0.14105545 0.26448122 0.036602452 -0.12544104 -0.01080893 0.061404686 -0.48232692 0.18993396 -0.079012215 -0.12813734 -0.4909769 0.13836733 -0.16228803 0.047261544 0.2822522 -0.08305976 0.00828295 -0.041475106
53 -0.22107561 0.045904968 -0.15251423 0.17137076 -0.0035781711 -0.020620182 0.22985826 0.04032468 -0.070341974 -0.020069133 0.1431725 0.049335543 0.054635543 0.14813954 0.05814065 0.07318746 0.080228865 -0.060451157 -0.02408583 -0.24805264 -0.12460187 0.012046829 -0.07045442 -0.076417655 0.058098115 0.22380559 -0.043698505 0.15250602 -0.18985556 -0.021115167 0.12521453 0.029965451 -0.0030578778 0.12798978 -0.14850004 -0.14204456 0.109761685 0.032942325 -0.036840685 0.1200887 -0.015084358 0.03360968 -0.030573474 -0.032850735 -0.1433458 -0.1163822 0.0247139 -0.044660743 0.055373512 -0.1495364 -0.16669472 -0.0067808116 0.1064605 0.051033307 -0.1944852 0.13705935 -0.14370422 -0.012649579 0.011829895 0.1282199 -0.07226843 -0.16233987 -0.053665884 -0.074365854 0.06623732 0.010004274 0.04348756 -0.18064786 0.18017335 0.047831483 0.1641111 -0.25880367 -0.18697833 0.09459269 0.039376996 0.00023786305 0.009046276 0.07395349 -0.043189127 -0.07927449 -0.11439202 0.02851045 0.014777614 0.055237606 -0.031044548 0.14008275 -0.05015891 -0.05973298 0.074713565 -0.12512985 0.2225263 0.06999525 -0.037092645 0.0617946 0.10231057 0.08806762 0.04831412 -0.07328353 0.1159688 0.11880211 -0.111282416 0.039379213 0.007265975 -0.024979949 -0.10313532 -0.09546284 0.02697585 -0.036110133 0.0018467004 0.031821355 0.021996954 -0.02133414 -0.06929999 -0.014715989 -0.093241185 0.009963425 -0.11696894 0.005753143 0.13489266 0.017166477 -0.13735624 -0.03452132 -0.059298888 0.019528868 0.11618129 0.2253114 -0.04714137 -0.02441969
45 -0.1823439 -0.016235724 -0.094663985 0.14243522 0.056592457 -0.021298768 0.14665669 0.07613442 -0.14349428 0.02123851 0.20166403 0.15282354 0.07864604 0.15655503 0.13135013 0.13321216 0.13124922 -0.06689774 -0.042463556 -0.1573821 -0.131604 0.026469313 -0.073193826 -0.023073884 0.11213546 0.18723547 -0.07800355 0.17762432 -0.04136368 0.03597157 0.016516605 0.059900388 0.0035320607 0.078917325 -0.22528894 -0.07388164 0.18835652 0.0036186355 -0.09236634 0.100715294 -0.041240893 0.049005844 -0.052998587 -0.11357167 -0.25432685 -0.010024645 0.0642929 0.029419687 0.072318904 -0.21096793 -0.10535604 -0.035378 0.06828919 0.070896365 -0.15327883 0.15021342 -0.19644363 0.010238222 -0.07507172 0.15203582 -0.13406397 -0.24641663 0.004795186 -0.122869805 0.03993068 -0.050112482 0.04675732 -0.2358982 0.27228555 -0.045291975 0.17353149 -0.15525843 -0.12534258 0.06944039 -0.025391249 -0.028891781 -0.047384985 -0.002254692 -0.07169316 -0.16980243 -0.122035876 0.08353309 0.055609882 0.09449575 -0.09401524 0.27096903 -0.13605285 -0.07254681 -0.04699947 -0.024467567 0.2062517 -0.0042348695 0.01756618 0.085044935 0.071433246 0.17616476 0.11851191 -0.107713245 0.149031 0.10871414 -0.12183898 0.109792985 0.022648297 -0.17145137 -0.14126003 -0.12668978 -0.011320397 -0.08002606 0.020046914 0.0665547 -0.11118919 0.03560562 -0.14292528 -0.055270232 -0.1272599 -0.015226331 -0.21006596 0.107347585 0.1854316 -0.08112209 -0.18770266 -0.04188661 -0.10366178 -0.041735668 0.20019606 0.124135524 -0.04686026 -0.021590391
67 -0.14465661 0.11847907 -0.16102257 0.24934214 -0.05921427 0.026793288 0.26938176 0.004501742 -0.06300012 -0.13782266 0.048508294 0.087230764 0.062273685 0.076102115 0.020640237 -0.024462089 0.09935325 -0.16272447 -0.030352112 -0.33630422 -0.14024894 -0.041995857 0.1024959 -0.08670487 0.082951106 0.20529507 -0.02930019 0.22871451 -0.2446201 -0.06561386 0.06163453 0.054992534 -0.026688391 0.1580035 -0.1916489 -0.10953349 0.102617465 0.030881565 0.042492937 0.09001399 -0.006453872 -0.015225241 -0.022070164 -0.07405133 -0.088366285 -0.16845265 0.05734738 -0.13788384 -0.061124258 -0.1798842 -0.18613587 0.14667296 0.114511974 0.08085485 -0.1373768 0.11428592 -0.1342007 -0.030012934 0.039822288 0.10540225 -0.052113153 -0.08427155 -0.032457165 -0.009073332 0.15741451 0.074504 0.0934651 -0.18913634 0.15826428 0.09663973 0.18082196 -0.33438542 -0.20444345 0.07139189 -0.030540958 -0.033391517 0.035634764 0.14224775 -0.13490516 0.07393045 -0.17817545 -0.082321115 0.07649266 0.09980634 -0.010484797 0.066238396 0.005327898 -0.094213605 0.10410859 -0.17813204 0.30778578 0.09540218 -0.050442908 0.07008067 0.14850433 -0.0060578873 -0.03744661 -0.04625347 0.17875986 0.08649466 -0.15203226 -0.0945629 -0.013804244 0.10881492 -0.061725732 0.028841158 0.013522904 -0.019410506 -0.10924778 -0.02338354 0.019686535 -0.12086709 0.028080005 0.029801259 -0.09886618 0.108686924 0.009001543 -0.0009530323 0.13588476 0.09439751 -0.035019107 -0.0978525 -0.05040422 -0.015526707 0.0545947 0.221709 -0.03925946 -0.031376477
6 -0.354471 -0.070853084 -0.17247078 0.009427126 0.17455526 -0.24494185 0.29212013 0.2422878 -0.23732594 0.038295995 0.35601643 0.0023912163 0.057821233 0.19525082 0.023563333 0.22114693 0.15425439 -0.08368733 -0.03288271 -0.10240501 -0.18747014 -0.053999 -0.30473864 0.10925878 -0.06843012 0.22753917 0.21318184 0.25744048 -0.061655425 -0.1764608 0.11363985 0.17081007 -0.08332521 0.30379957 -0.18690832 -0.25541446 0.20778301 -0.077180915 0.005785242 0.08753276 0.01932241 -0.15732686 -0.048371203 0.04034854 -0.23503248 0.13279915 -0.25516853 0.07988341 0.31852514 -0.14620417 -0.29509154 -0.037532702 0.2872689 -0.048189994 -0.26404262 0.28712258 -0.09882708 -0.14364913 0.091165476 0.37448913 0.04624664 -0.4328313 0.026800223 -0.19749315 0.051133145 -0.15523581 0.19506809 -0.44173217 0.31349763 -0.084064715 0.31342056 -0.094731435 -0.013689699 0.13308537 0.20271067 0.2348492 -0.15286642 0.1440464 -0.018798832 -0.42942104 0.027607575 0.00792837 0.087134466 0.11773182 -0.13095516 0.39772606 0.018651407 0.09812947 0.004817578 0.08764555 0.082586445 -0.060350418 -0.053866513 0.1730891 0.063986875 0.27392018 0.09506679 0.0031896832 0.090036705 0.23143758 -0.02712306 0.3850273 0.091729395 -0.42429367 -0.1612724 -0.34759974 0.10459293 0.04938412 -0.025746731 0.27282846 0.10575063 0.27102873 0.0048204 -0.14102854 -0.011815014 0.04496435 -0.51335007 0.19888563 -0.029182224 -0.14695935 -0.502475 0.11382435 -0.17671509 0.03395252 0.30425286 -0.08180489 -0.004976373 -0.054009743
