77 128
11 0.035279047 0.08296274 -0.15350819 -0.10061937 -0.053368494 -0.03223672 -0.09303835 0.013406491 0.15059388 0.054770183 0.053377755 -0.11040614 0.06520594 0.17610909 -0.016615473 -0.08520196 0.13528998 -0.0519403 -0.009430499 0.2331557 0.025545036 -0.16868843 -0.1030608 0.009732057 -0.0430528 0.18788572 -0.12207529 0.10215656 -0.090677865 0.11569524 0.09162323 -0.02831337 0.08499493 0.05752001 -0.18755835 -0.021270052 0.09760174 0.14486742 0.21788548 -0.023040585 -0.049693663 -0.14396651 0.06261696 -0.05846955 -0.021859448 0.10736705 -0.10885848 -0.03534214 0.07549483 -0.10107743 -0.25312486 -0.08042727 -0.07606603 0.06961453 -0.23031554 0.0075136996 0.0041191108 -0.12949261 0.008673074 -0.050390072 0.0860336 -0.052517027 -0.109066464 0.002155159 -0.09897857 -0.016330235 0.28341186 -0.1090334 0.03613732 0.012551961 -0.06402135 0.12335467 -0.17745946 -0.0845406 -0.19649485 -0.003860158 0.10634256 0.077764526 -0.10816039 0.1813402 0.0106432745 -0.16885667 0.11877924 -0.015446239 -0.20898469 -0.050186712 -0.07659132 -0.091557324 0.121826425 0.063046314 0.18793912 0.04942843 -0.077908106 -0.02018067 0.03805881 0.12306504 0.18592572 -0.021305785 -0.05399391 0.0001500948 -0.056197632 -0.036426794 0.014344838 -0.23396252 0.03220491 -0.005427796 -0.13965486 -0.008873505 0.15074347 0.029928468 -0.06657004 0.08162072 0.06560441 0.010576356 -0.081763916 0.124932334 -0.051134653 -0.003930164 -0.1638974 -0.0045835422 0.015498689 -0.056001943 -0.041341905 -0.010451966 -0.09241358 -0.13170795 0.100300804 0.06812541
48 0.027290963 0.034900587 -0.05991454 -0.17945886 -0.027770154 0.0002762488 -0.0581423 -0.042765442 0.21848167 -0.025727583 0.064005435 -0.1169828 0.099055514 0.15385163 -0.07212191 -0.07061786 0.13002075 -0.14633434 0.08848776 0.16096573 0.02090582 -0.08804494 -0.10008493 0.020956712 0.040346928 0.27852958 -0.061929625 0.08457022 -0.020790499 0.15031648 0.16774897 -0.04127894 0.16582063 -0.041158866 -0.20188576 -0.018669412 0.1654638 0.29198635 0.2243053 -0.020499146 0.042667195 -0.0061686547 -0.018146843 -0.056639344 0.009209873 -0.0312527 -0.0024921827 -0.16533835 0.0617782 -0.031688314 -0.21394266 -0.020455202 -0.1148122 0.028151061 -0.16686468 0.16888997 0.03251042 -0.09790762 -0.03872816 -0.12778874 0.05162403 0.15812579 0.10983837 -0.021199014 -0.097593665 -0.011561512 0.32215768 -0.11526716 -0.07135081 0.16217726 -0.13709877 0.081129216 -0.03172582 0.009048813 -0.147301 0.08172173 0.027573297 0.061607357 -0.06650022 0.079502046 0.015033006 -0.06686741 0.06833252 0.034530185 -0.28542063 -0.102015644 -0.11702665 0.075753085 0.23543249 0.05770824 0.11449233 0.20666343 -0.16543548 -0.041723356 0.06611282 0.20602235 0.2279568 -0.027559329 -0.13198768 0.020929728 0.08893179 0.056827076 0.028402552 -0.10172907 0.04389992 0.023747703 -0.053064078 -0.0029238649 0.11815384 0.053347588 0.026647102 0.07995497 0.1503477 0.043840855 -0.050532945 0.16685554 0.061713737 -0.03303749 -0.2924012 -0.05461952 0.023270862 -0.10679435 -0.0019656636 0.05587658 -0.053053424 -0.07967618 0.11838839 0.30364674
55 -0.09131579 0.08321788 -0.039977886 -0.14923158 -0.057979763 0.0031815832 -0.110763796 -0.03843457 0.18993993 0.015786797 -0.030793477 -0.0094496375 0.20869029 0.09699282 0.012026607 -0.061676558 0.06908543 -0.0842851 0.105675854 0.10112948 -0.09605331 -0.017380675 -0.08373685 0.042598348 0.032634437 0.15711398 -0.009332498 0.21601236 -0.08966249 0.06677249 0.119609855 -0.08688541 -0.0061519803 6.921677e-05 -0.1864229 0.0807098 0.14503485 0.25489596 0.14534499 0.06810419 0.0072781257 0.028360128 0.07168944 -0.0055094645 0.005875321 -0.024575433 -0.06559891 -0.13623342 0.025075125 -0.063282155 -0.20659119 -0.02337378 0.014272001 -0.0043614735 -0.21280348 0.17482033 0.1588774 -0.06573002 -0.0030529306 -0.073788345 0.057445005 0.092480555 0.16995244 -0.020533826 -0.065326974 0.04132222 0.33435082 -0.13913341 -0.03126893 0.06371107 -0.081087954 0.13483706 -0.009217898 0.013800396 -0.01818903 0.08108162 0.08825494 -0.028491361 -0.1827403 -0.04876394 -0.011355181 -0.039205644 0.029364767 0.10018231 -0.25400886 -0.035419933 -0.14187974 0.14926612 0.10077898 0.13197826 0.08703549 0.1743499 -0.10380973 0.022706963 0.13945135 0.18021522 0.2489901 -0.011552704 -0.1797304 0.043438274 0.07614346 -0.06792319 0.06835406 -0.16892798 0.06311885 0.07738933 -0.0048639746 -0.13331771 0.1364389 0.11237017 -0.03548256 0.071590506 0.20577404 -0.061214846 -0.1279285 0.19689383 0.09972662 -0.080082655 -0.18898846 -0.13113493 -0.09036774 -0.18173991 0.13977547 0.034567762 -0.030858006 -0.116543636 0.121161915 0.27398014
27 0.0013731894 0.1071129 -0.15124224 -0.120394886 -0.06753098 -0.056133345 -0.078544945 0.022094566 0.13869897 0.052151375 0.040750746 -0.10756199 0.08474871 0.13732634 -0.010042852 -0.06820093 0.10290861 -0.034116033 0.019019136 0.2116504 0.024387373 -0.15224822 -0.08969676 -0.0052363877 -0.050835323 0.21338393 -0.120741986 0.115664504 -0.103352055 0.109784566 0.11161403 -0.04743739 0.1084056 0.04018102 -0.2002915 -0.0014518887 0.11713453 0.180944 0.20869707 -0.066452816 -0.036920972 -0.14519578 0.06840309 -0.06849188 0.008106769 0.08016061 -0.08586778 -0.01656223 0.0837463 -0.08645039 -0.24006198 -0.074220344 -0.09482746 0.046342913 -0.2141537 0.011967795 0.02039323 -0.14465877 0.010126552 -0.039795473 0.08699496 -0.020828731 -0.05439427 0.01246283 -0.10775556 -0.015945313 0.2969671 -0.09806961 0.025708934 0.0014325549 -0.045983847 0.13365623 -0.1746288 -0.087466605 -0.20267187 -0.02022462 0.110531576 0.041059636 -0.13125837 0.18755074 -5.442022e-05 -0.14395194 0.07496387 0.029644698 -0.17050555 -0.05207631 -0.0621602 -0.08870144 0.14451677 0.058056537 0.1966313 0.08454569 -0.084526286 -0.009597768 0.05233919 0.11491289 0.17931533 -0.031512022 -0.07046976 0.024641536 -0.056973085 -0.011795546 0.014964586 -0.22757259 0.0276109 0.012920202 -0.108950734 -0.012678123 0.16193362 0.07132355 -0.059422206 0.077108294 0.07968426 0.011007207 -0.088964894 0.1473193 -0.03762922 -0.017071951 -0.18244949 -0.010502691 -0.013067458 -0.081169955 -0.020841723 -0.018105881 -0.091194965 -0.12661567 0.10002743 0.08639147
25 -0.13747923 0.1843152 -0.13673417 -0.1521214 -0.12465979 -0.10755157 -0.046458695 0.006409609 0.09491073 0.019634027 -0.015796375 -0.05867716 0.209934 0.04893668 0.046077855 -0.03146023 0.00828913 -0.023290398 0.11558058 0.1403138 -0.030216854 -0.06101005 -0.07166032 -0.037511446 -0.0029728361 0.23237768 -0.077624105 0.18802442 -0.1297626 0.07100407 0.09981947 -0.13569811 0.09942258 -0.033158883 -0.25099352 0.09903092 0.18510212 0.2662012 0.15669793 -0.08046611 0.01617807 -0.08471295 0.13902144 -0.06970374 0.059593055 -0.040651683 -0.09624034 -0.064195506 0.04974023 -0.05592162 -0.21827643 -0.0469062 -0.06294414 0.016627127 -0.19240534 0.11318991 0.11572278 -0.11861867 -0.0108564785 -0.024072021 0.06297125 0.026635585 0.15007372 0.017705385 -0.1209422 0.067239955 0.3496144 -0.091549575 0.0050779325 0.013628871 -0.0048312517 0.16754301 -0.08865367 -0.069153786 -0.13743044 -0.03262871 0.14952803 -0.0718703 -0.2022672 0.112605326 -0.021644183 -0.066361494 0.015401001 0.15422256 -0.14821294 -0.0029179277 -0.05403377 0.014865172 0.13247815 0.043939628 0.14467339 0.174802 -0.077675834 0.009316924 0.09473234 0.08369068 0.19091469 -0.03336023 -0.119862564 0.09707297 -0.018883958 0.010197753 0.041077103 -0.18837486 0.020675324 0.06602504 0.032626916 -0.040248457 0.15402527 0.16763343 -0.05749544 0.10350371 0.14279279 -0.021554412 -0.1431916 0.24567708 0.022174163 -0.046596028 -0.17503752 -0.02573594 -0.12393624 -0.16558142 0.07885963 -0.05031534 -0.050012663 -0.20444082 0.1068407 0.13631372
58 -0.027185747 0.037676957 -0.016641358 -0.20236564 -0.026050303 0.03222707 -0.08124148 -0.069893695 0.24780941 -0.04106453 0.040919997 -0.09175941 0.15677772 0.11717487 -0.069606185 -0.068366945 0.09683725 -0.15846801 0.12611276 0.13285033 -0.040558837 -0.009748773 -0.081958726 0.06763857 0.06322508 0.27242452 0.007053446 0.16978554 -0.01967403 0.12889688 0.20063153 -0.048313208 0.10815698 -0.052983347 -0.21335559 0.0026741815 0.18647332 0.35014692 0.20446114 0.023149334 0.080486536 0.07939013 -0.020574028 -0.026298398 0.028596774 -0.08721307 0.018678222 -0.19264373 0.045742482 -0.020895146 -0.19281933 0.013922649 -0.061828554 -0.020113837 -0.17634426 0.22952262 0.10326574 -0.078513116 -0.024510916 -0.13070695 0.05542153 0.22364964 0.24052484 -0.062264152 -0.08344978 0.007559742 0.3474056 -0.13042073 -0.090892516 0.1746744 -0.13781592 0.08249674 0.05152017 0.046368513 -0.060047355 0.13717963 0.0012981298 0.013559315 -0.1321075 -0.021174142 0.0010142359 0.0063543026 0.0243674 0.0907745 -0.3258639 -0.1314025 -0.14374836 0.2135768 0.25088468 0.113162726 0.08717847 0.2711489 -0.19298306 -0.006615125 0.13413101 0.250484 0.269104 -0.018127501 -0.2043945 0.057871122 0.14016221 0.02272198 0.066652976 -0.087037325 0.050444867 0.087687604 0.00815063 -0.08602232 0.1230185 0.095574684 0.045009993 0.073323935 0.2301141 -0.004220297 -0.07260398 0.23648752 0.13601163 -0.060510043 -0.3108037 -0.13165015 -0.036309775 -0.18586607 0.10053831 0.066249825 0.00022475107 -0.065579355 0.13801031 0.42039743
23 -0.06633318 0.06887904 -0.15080576 -0.12789035 -0.09958413 -0.0660396 -0.18199584 -0.014832585 0.08329243 0.0570208 -0.083501644 -0.041595556 0.1420213 0.005567422 0.037736014 -0.07367907 0.015455129 0.06856931 0.041910872 0.16615815 -0.08410473 -0.020806368 -0.08174572 0.10063012 -0.08587446 0.08130392 -0.07697204 0.28794357 -0.16165699 0.004701754 0.24459337 -0.08323065 -0.04651875 0.18397814 -0.16601056 0.022122435 0.009214676 0.16209948 0.17136061 -0.03384254 -0.092131995 -0.10414418 0.07266334 -0.06576764 -0.052544396 0.10879527 -0.11451516 0.09006094 0.121113375 -0.051838674 -0.21219724 -0.098266244 -0.043773454 -0.038052533 -0.17741409 -0.02983373 0.21949953 -0.13728967 0.044817235 -0.0036306162 0.16896348 -0.028627384 -0.024519067 0.02070954 -0.12132532 -0.069922924 0.2673252 -0.049852278 0.061674595 -0.104093894 -0.012879442 0.22082898 -0.17010695 -0.130298 -0.060063135 0.0283523 0.037851688 -0.0925042 -0.24822508 0.06366182 -0.044262536 -0.15110983 -0.077469975 0.041224755 -0.15727225 -0.13822941 -0.13175243 -0.014898343 0.082527176 0.20355593 0.22151089 0.030846192 -0.047658715 0.069046885 0.04118653 0.154096 0.18586752 0.017540928 -0.1924605 0.022437342 -0.1777269 -0.13045894 0.09794107 -0.29812065 -0.018012572 0.19485888 -0.14846015 -0.13412993 0.2031517 0.1951569 -0.11900902 -0.058902144 0.07532426 -0.07963361 -0.06756195 0.22356136 -0.032504935 -0.066595964 -0.12910658 -0.17012458 -0.045941755 -0.14486575 0.050725993 -0.059513975 -0.03986663 -0.042638488 0.092613965 0.07206596
62 -0.069319114 0.06408826 -0.027017893 -0.17962061 -0.048950195 0.0034279313 -0.079755515 -0.061105814 0.21325286 -0.01801429 -0.0005675007 -0.055247474 0.18436696 0.10525511 -0.025970308 -0.059189517 0.079130605 -0.12742496 0.13070123 0.10198699 -0.059040006 -0.015718678 -0.09333223 0.034292042 0.06270875 0.23559502 -0.01436416 0.17975119 -0.05348133 0.10795931 0.16343622 -0.08481097 0.08093856 -0.047518186 -0.20626216 0.052949023 0.18081339 0.31541952 0.17506804 0.021590708 0.04497484 0.05375925 0.027487783 -0.029420335 0.033777393 -0.07256556 -0.01795742 -0.17352705 0.038134266 -0.035622627 -0.19554771 -0.004327075 -0.042363003 -0.0058932486 -0.18259625 0.21387096 0.12800096 -0.07389602 -0.02489239 -0.115279905 0.050480895 0.1792342 0.22671118 -0.032228194 -0.08119044 0.028327785 0.34559473 -0.12242555 -0.07341243 0.13707952 -0.11104107 0.10734178 0.028717956 0.03416413 -0.055943303 0.09142689 0.05447622 -0.014568821 -0.13847363 -0.023000931 -0.010600695 -0.012933599 0.022981886 0.10135424 -0.27890983 -0.07043279 -0.1376382 0.16473396 0.18826877 0.09456278 0.08033452 0.23165625 -0.15302208 -0.0052698823 0.12260895 0.1997749 0.25018167 -0.0226753 -0.18153262 0.06057545 0.10967499 0.004995627 0.060716063 -0.11292582 0.058495607 0.07152381 0.014583175 -0.08273616 0.1205973 0.11592239 0.007556239 0.07932305 0.20812806 -0.0135367345 -0.09684995 0.21256584 0.12464613 -0.0743871 -0.26332214 -0.11786138 -0.05930489 -0.17544532 0.11289324 0.051210698 -0.023056975 -0.10700795 0.12190049 0.34602243
64 -0.05784771 0.03546615 0.0047390284 -0.19431587 -0.026823126 0.036642276 -0.09532969 -0.07236427 0.2462316 -0.03744699 0.003730171 -0.05014537 0.19592358 0.0984362 -0.041875847 -0.061757416 0.07808986 -0.14929031 0.13409707 0.098882005 -0.072274946 0.014902588 -0.07948137 0.06406197 0.07661888 0.22674114 0.021081233 0.19099574 -0.039194103 0.09528629 0.17800143 -0.06589159 0.068116575 -0.043596033 -0.19214286 0.040322844 0.17750823 0.3381592 0.17056185 0.05668909 0.064798474 0.09852855 -0.0008120452 -0.010292785 0.021103097 -0.09261917 0.0015056982 -0.20178327 0.033592198 -0.021494387 -0.18641366 0.014778255 -0.024547504 -0.030684827 -0.176556 0.24218775 0.13870963 -0.061958957 -0.02524263 -0.1257093 0.0457336 0.21706909 0.2619504 -0.050093886 -0.067018546 0.015629817 0.34322995 -0.13631187 -0.09736257 0.15868431 -0.12992625 0.08845627 0.068513826 0.06201553 -0.0019212576 0.13209529 0.017518422 -0.013664217 -0.14562565 -0.07834184 -0.008682573 0.018304422 0.012445221 0.10532844 -0.30937812 -0.09436017 -0.15171565 0.23021968 0.19130085 0.11832967 0.055881754 0.24881913 -0.17353302 0.004486555 0.1448071 0.23112026 0.26783016 -0.016662668 -0.21207798 0.053964872 0.14677268 -0.0063198386 0.08006295 -0.09266727 0.061682012 0.09626682 0.024186108 -0.11715891 0.113804035 0.108565785 0.03018417 0.06769542 0.23576255 -0.027340906 -0.09820321 0.2239164 0.15224247 -0.079681225 -0.27269316 -0.15136184 -0.059888184 -0.1973521 0.13287942 0.07132797 -0.0006503616 -0.0692605 0.1289633 0.4030834
0 0.19097951 -0.16839583 0.021529661 -0.1332034 0.012009228 0.18416353 -0.22945946 -0.03933466 0.43572548 0.070584014 -0.010210852 0.06272781 0.13379201 0.45860213 0.006969888 -0.18780336 0.42843053 -0.19797 0.0015077415 0.20832716 -0.0068188147 -0.25717196 -0.25268018 0.10589592 0.019776253 0.1044576 -0.13803203 0.10668214 -0.048064537 0.20642011 0.098645486 -0.021310527 -0.017913833 0.19697914 -0.07245369 0.03800697 0.02825914 0.105453834 0.2622511 0.29230466 -0.25155646 -0.10064134 0.053419255 0.023181971 -0.2598267 0.27535197 -0.16327703 -0.25115493 0.05345545 -0.18626285 -0.4077112 -0.11390861 -0.03591986 0.17622344 -0.3979622 0.16245694 0.12876089 -0.0021924484 -0.077082224 -0.21078606 0.04394 -0.032540638 -0.33705047 0.10188206 -0.00075723144 -0.10175406 0.3322492 -0.26166114 -0.04119134 0.13866995 -0.3105692 0.14668009 -0.18065563 0.07464874 -0.039552744 0.0902643 0.10940981 0.25087726 0.007893325 -0.08653601 0.036355242 -0.27437007 0.23109369 -0.14833698 -0.40012336 0.13242339 -0.36231428 0.023581082 -0.10108451 0.13674295 0.025400054 -0.043521654 -0.08422293 -0.06334638 0.069811955 0.26319864 0.26173577 -0.010504302 -0.11614554 -0.22285686 0.17718509 -0.20960702 -0.030304823 -0.26289448 0.20299497 -0.14214322 -0.33853483 -0.11939125 0.141744 -0.10160688 -0.117251344 0.109061144 0.21694706 -0.019585485 -0.18762976 -0.13949445 0.08868168 -0.08929056 -0.25314155 -0.19722514 0.15438353 -0.0025128345 0.045183074 0.21888869 -0.18354145 -0.036795035 0.14266351 0.2951986
63 -0.008478835 0.012974075 -0.009444099 -0.1839443 -0.014853094 0.046838846 -0.08358933 -0.068113245 0.24921305 -0.024861475 0.037925053 -0.07992247 0.13645421 0.12545979 -0.075975485 -0.08154318 0.113667846 -0.15187892 0.09709129 0.13055 -0.054150112 -0.013129081 -0.08248537 0.0837406 0.05258599 0.23539515 -0.0021148196 0.16131528 -0.021500936 0.13163985 0.19375944 -0.03501906 0.08008431 -0.025480757 -0.19389355 -0.00039911678 0.15171628 0.30694002 0.20394461 0.055375356 0.050553214 0.06724958 -0.030319436 -0.022014441 0.0023172707 -0.0480365 0.015698688 -0.18023482 0.045766126 -0.028446881 -0.18144295 0.004710817 -0.05251855 -0.024490448 -0.16890107 0.20595689 0.10593719 -0.071994804 -0.018966325 -0.12615609 0.06175134 0.20368005 0.19211404 -0.05607892 -0.07754774 -0.007816366 0.31998968 -0.1261811 -0.080241606 0.1565412 -0.14328815 0.075280204 0.043555196 0.045294072 -0.04528967 0.1442876 -0.010271329 0.022295773 -0.11724687 -0.04301741 0.011899768 -0.018816203 0.03926485 0.045443416 -0.31662798 -0.13122733 -0.14634393 0.19047505 0.22408593 0.12828998 0.083239675 0.22650884 -0.17962381 -0.0022551918 0.119435936 0.24819797 0.2548343 -0.008808299 -0.1924605 0.033782143 0.12179317 0.009757521 0.063153334 -0.09017412 0.05258429 0.079140544 -0.02981456 -0.087274045 0.114585415 0.06454587 0.042001314 0.054806884 0.19579554 -0.0003209758 -0.06553868 0.19271734 0.11771485 -0.059563488 -0.27787644 -0.13124907 -0.011345942 -0.14553861 0.08011067 0.075108774 -0.00035851248 -0.036404874 0.11758358 0.3733756
65 -0.07082155 0.07051496 -0.03391862 -0.20624217 -0.037861247 0.0028515847 -0.08267353 -0.073368646 0.22442944 -0.039039865 0.024406822 -0.093238786 0.17622952 0.080557026 -0.05893984 -0.061869476 0.06417175 -0.14328961 0.13526456 0.1315266 -0.059194308 0.018452024 -0.080064885 0.061589517 0.06081747 0.2760198 0.0072018984 0.19850752 -0.04425658 0.11238346 0.20603384 -0.06445357 0.10525226 -0.06268939 -0.23918192 0.01448275 0.20030878 0.36994517 0.20768033 0.0054387366 0.09435079 0.08005141 -0.0043071015 -0.035107024 0.054313634 -0.10900976 0.011837304 -0.18613842 0.04346126 -0.015696712 -0.18922083 0.011002032 -0.058480166 -0.03759468 -0.17081565 0.23127206 0.12024999 -0.08839652 -0.016833715 -0.112583436 0.060533114 0.2316068 0.29339218 -0.07020427 -0.09830258 0.023620736 0.3647335 -0.118427604 -0.08243584 0.16189276 -0.11119459 0.09601224 0.049848273 0.036005735 -0.060064677 0.13176882 0.012470672 -0.023231661 -0.16540876 -0.015163716 -0.010405195 0.011425047 0.006643474 0.11301391 -0.31416732 -0.14199232 -0.12376392 0.21075115 0.26759475 0.11403365 0.10714601 0.28538442 -0.19705912 0.0016121477 0.13624397 0.2348406 0.27495518 -0.016236756 -0.20971234 0.08863705 0.10902906 0.031078372 0.085177384 -0.1013442 0.03676648 0.11629725 0.03394179 -0.090225995 0.12997817 0.12817886 0.03835886 0.069332756 0.21772851 -0.0038358397 -0.06929375 0.27497512 0.12663253 -0.066601954 -0.29963028 -0.12765779 -0.065862425 -0.2007604 0.1049306 0.04939485 0.0031113792 -0.0827921 0.13275722 0.3979165
57 -0.096934125 0.0452157 0.011909242 -0.22341596 -0.04086377 0.029626288 -0.10249163 -0.09100269 0.25238228 -0.052868336 -0.008947368 -0.061397325 0.21317661 0.061916977 -0.056899562 -0.056259386 0.06371102 -0.15794277 0.16882086 0.08301901 -0.093563065 0.05949272 -0.07466482 0.082990974 0.08595705 0.25213355 0.04138391 0.23386736 -0.035790976 0.09242914 0.22325717 -0.07894112 0.06222923 -0.061530028 -0.22274277 0.046941165 0.19943695 0.39493054 0.18896158 0.046284497 0.09673047 0.1395282 -0.012768052 -0.01769204 0.043064408 -0.13444048 0.033053305 -0.21284236 0.032290407 -0.0036592996 -0.17810774 0.025553219 -0.025820304 -0.0648025 -0.17236467 0.28654125 0.1734988 -0.072947465 -0.01870402 -0.13180688 0.05462666 0.27701777 0.35768327 -0.07820366 -0.07938964 0.026509186 0.37056226 -0.1388255 -0.11346629 0.1711 -0.13008371 0.09535649 0.105508655 0.06957997 0.012572976 0.17060481 -0.00530045 -0.047707684 -0.18084352 -0.10001757 -0.011854939 0.044237014 -0.02089825 0.13703607 -0.3517766 -0.14631407 -0.1710841 0.29404998 0.2517683 0.16059707 0.07080426 0.31666404 -0.20660801 0.02130196 0.16864647 0.28213847 0.30935794 -0.0041527753 -0.26326412 0.08238362 0.15898287 0.006018131 0.10592849 -0.09452443 0.057461914 0.14339384 0.040118616 -0.13626562 0.12921038 0.14832991 0.04696894 0.06395116 0.27439776 -0.036560304 -0.086465485 0.28793165 0.1729612 -0.102126166 -0.3153033 -0.19187479 -0.08170046 -0.24913226 0.16255455 0.0734763 0.017073335 -0.061069362 0.15497987 0.4798608
26 -0.09710419 0.15634649 -0.13652956 -0.09522082 -0.10696198 -0.07515205 -0.08557873 0.00888836 0.09783524 0.0756614 -0.03255087 -0.025726546 0.18054257 0.09483647 0.06783596 -0.06042085 0.046430707 -0.0051348074 0.055223353 0.15325548 -0.056779005 -0.09592548 -0.07634076 -0.018707538 -0.022418916 0.13278966 -0.083910294 0.19539015 -0.15037939 0.05490172 0.059375398 -0.10356754 0.010533098 0.04053576 -0.20882404 0.088196754 0.12454258 0.16655809 0.14931315 -0.0033635248 -0.047057167 -0.11052247 0.15549149 -0.05128319 0.002337047 0.047201328 -0.1393595 -0.039855674 0.040792346 -0.09865582 -0.23827493 -0.07485294 -0.003489015 0.04373157 -0.23332234 0.05419887 0.10924456 -0.10391373 0.018129699 -0.018099476 0.077917725 -0.06520127 0.01682388 0.034688964 -0.09792696 0.042713895 0.30125216 -0.113020316 0.04644657 -0.04490966 0.00078107597 0.16880566 -0.13030496 -0.07056484 -0.10317157 -0.023392446 0.16759521 -0.030770544 -0.18461145 0.09088731 -0.018247943 -0.1130719 0.05798898 0.08266484 -0.14258839 0.023645055 -0.07229096 -0.028828379 0.039549384 0.0796257 0.14371282 0.072048664 -0.023664203 0.027036862 0.084116735 0.080260105 0.17059067 -0.028005341 -0.095105544 0.03176121 -0.061092887 -0.077750355 0.04082116 -0.242876 0.042533655 0.036713872 -0.034539655 -0.07595322 0.15000302 0.10736142 -0.10757734 0.06934906 0.10523776 -0.056784917 -0.14420307 0.17314209 -0.006064313 -0.03988679 -0.09578107 -0.039991457 -0.0967696 -0.12814458 0.07715239 -0.039539106 -0.07302584 -0.17830446 0.09674969 0.05938867
61 -0.074374735 0.042829134 0.011264104 -0.20433185 -0.03273156 0.032392815 -0.10120507 -0.08668318 0.2630823 -0.041682273 0.0029717474 -0.05017977 0.21281265 0.107156456 -0.04732005 -0.06689634 0.09197686 -0.16262186 0.15265894 0.10082419 -0.080261625 0.023898004 -0.08465652 0.065985925 0.08246792 0.23783433 0.029962061 0.20645912 -0.037898574 0.10618511 0.18144022 -0.07858123 0.06428118 -0.05874708 -0.20891902 0.048863284 0.19688001 0.3587577 0.17816389 0.071402624 0.07742349 0.114647634 0.0049285674 -0.008773975 0.030871024 -0.10666139 0.010158941 -0.22871837 0.02046898 -0.023656482 -0.19200237 0.016512688 -0.020601887 -0.028875412 -0.191689 0.275869 0.14800344 -0.05246094 -0.030032124 -0.13073479 0.038938396 0.23430689 0.30259115 -0.0648694 -0.059561588 0.029254876 0.35774913 -0.14696959 -0.10046661 0.17887095 -0.13816185 0.08772135 0.08779408 0.07881477 0.0002550067 0.1433658 0.02303015 -0.017130435 -0.1564407 -0.09657732 -0.0048475666 0.025911193 0.021683725 0.122393504 -0.33318418 -0.10191209 -0.16537745 0.26139477 0.208856 0.1259278 0.05642112 0.27830023 -0.18930563 0.004648887 0.16416143 0.24531084 0.28973445 -0.011116944 -0.22023687 0.06529744 0.1739342 -0.0002345111 0.08328651 -0.090251975 0.069986224 0.09639444 0.03748749 -0.1281633 0.11211425 0.11180365 0.03636862 0.085127525 0.25318864 -0.025457207 -0.10518312 0.23309934 0.17198125 -0.08547209 -0.2851944 -0.16195594 -0.07227234 -0.21536668 0.15445545 0.07886135 0.001664095 -0.075577185 0.14065926 0.43759117
24 -0.10034237 0.1701525 -0.13269943 -0.114922605 -0.11632631 -0.08191168 -0.069136254 0.028047618 0.11356056 0.06134587 -0.024961628 -0.027043426 0.20189571 0.11818926 0.07227862 -0.06422583 0.07359399 -0.030539053 0.08397477 0.15581413 -0.029608354 -0.13117054 -0.09924773 -0.04383704 -0.0048715044 0.181333 -0.0940672 0.1590309 -0.14060189 0.085479565 0.031178402 -0.1245031 0.056982663 -0.0038622022 -0.2161813 0.11188524 0.15573134 0.19359386 0.15372615 -0.019292124 -0.034397326 -0.12118286 0.16579358 -0.0429588 0.011204764 0.03295284 -0.13863944 -0.075964384 0.044509158 -0.09372538 -0.2480307 -0.07000139 -0.024229147 0.071144976 -0.23948915 0.095093206 0.100410625 -0.104507126 -0.014293126 -0.03307529 0.055290546 -0.052983947 0.031569928 0.042618398 -0.09670254 0.071402356 0.3304694 -0.13137333 0.021960445 -0.0065172943 -0.021957945 0.17086248 -0.13069585 -0.06555652 -0.12983862 -0.042822395 0.1925842 -0.011346906 -0.16962604 0.10576579 -0.010504946 -0.11013338 0.07910607 0.11321202 -0.14786088 0.069940686 -0.083413534 -0.032767117 0.045811884 0.04724405 0.11557821 0.103283636 -0.037786003 0.00067558483 0.09106319 0.076977625 0.18622056 -0.041784696 -0.07920207 0.03982671 -0.00023629435 -0.04505822 0.008574084 -0.22183943 0.057461776 -0.0056023123 -0.015638648 -0.051277533 0.15119475 0.10222183 -0.09562378 0.120470695 0.14317852 -0.046637528 -0.18177922 0.1506946 0.014062529 -0.043865144 -0.14335021 -0.015118092 -0.10004843 -0.12648883 0.07658855 -0.022539796 -0.092881024 -0.20727354 0.11713844 0.103736214
41 -0.11591476 0.12277476 -0.06828573 -0.14386538 -0.09894226 -0.048162445 -0.08864544 -0.0021353667 0.15163378 0.013005545 -0.044297952 0.0027732686 0.232613 0.09626757 0.060305055 -0.048350144 0.060251158 -0.057813644 0.12545484 0.09680573 -0.04286985 -0.06099819 -0.09858496 -0.023249863 0.01859046 0.17191657 -0.050444815 0.18232684 -0.11087368 0.06949123 0.06809829 -0.12848799 0.053665217 -0.010515134 -0.19098492 0.12692542 0.15998542 0.23832734 0.12582041 0.0017783546 -0.02417926 -0.04750094 0.13715975 -0.024457399 0.018402085 -0.02180307 -0.09908036 -0.11637033 0.037051503 -0.066259585 -0.22859602 -0.050347865 -0.032560535 0.046154793 -0.21469523 0.15689076 0.14762565 -0.065810435 -0.036857016 -0.06317408 0.039886747 0.02480873 0.11840062 0.035460815 -0.07265955 0.059539996 0.33271608 -0.12919714 -0.025898898 0.042491503 -0.052948616 0.16185564 -0.07131523 -0.014740462 -0.07402903 -0.014421232 0.14960562 -0.038686212 -0.16639431 0.023300163 -0.023916643 -0.06777867 0.03727889 0.13469574 -0.18013364 0.061116505 -0.12037167 0.057363484 0.051915962 0.05671071 0.08499469 0.15407681 -0.07372718 0.0032695006 0.10878646 0.09711157 0.20172219 -0.022404406 -0.12072983 0.04910417 0.05833499 -0.042677622 0.030798638 -0.17368625 0.07289427 0.026605638 0.009196 -0.07971006 0.13349953 0.13202845 -0.07064213 0.118871875 0.1905851 -0.041962504 -0.17152692 0.15882003 0.06528994 -0.07074669 -0.17454517 -0.07498246 -0.106830455 -0.16279617 0.12342198 0.0036860828 -0.07074005 -0.17819546 0.11229371 0.19005711
59 -0.016563307 0.031748798 -0.022964384 -0.18752782 -0.023047306 0.02566669 -0.07891291 -0.0663678 0.2499711 -0.03160125 0.038276784 -0.08399393 0.14669318 0.12595314 -0.06834264 -0.0762737 0.113526836 -0.16557594 0.11470514 0.13064913 -0.034266934 -0.023794383 -0.08519545 0.059196223 0.06378575 0.26492143 -0.0027971107 0.14954866 -0.022263372 0.13620907 0.18919574 -0.047196988 0.11258425 -0.051926058 -0.20258914 0.004220539 0.1724293 0.32812035 0.20942992 0.029711826 0.066984065 0.059607506 -0.018000452 -0.030525608 0.018783016 -0.069959566 0.017872777 -0.19018734 0.04207076 -0.027683362 -0.19884649 0.007735551 -0.06772666 -0.0141678015 -0.17457226 0.22231254 0.093774214 -0.07851046 -0.030082613 -0.1295497 0.050428182 0.2075893 0.21094112 -0.05268281 -0.08644247 0.0025659767 0.34072393 -0.12797946 -0.086960405 0.1673598 -0.14512958 0.07483746 0.035772298 0.04608004 -0.0632552 0.12900734 0.010163484 0.024010492 -0.11378075 -0.013799938 0.008374981 -0.019386744 0.040313404 0.07063886 -0.3179112 -0.11242543 -0.14369829 0.18484901 0.24195005 0.101904064 0.090291865 0.2506235 -0.18650596 -0.010990263 0.11890227 0.24218681 0.26061052 -0.018836495 -0.18927565 0.042276517 0.12883455 0.028566614 0.057414696 -0.0907053 0.056774955 0.066525735 -0.01162743 -0.07135035 0.12069002 0.07940914 0.036730718 0.075297415 0.21276778 0.0018351894 -0.07333029 0.20937462 0.11971724 -0.059395272 -0.30705306 -0.115508005 -0.022343548 -0.16291228 0.08024241 0.07293238 -0.017393121 -0.06489018 0.13609819 0.39078552
69 -0.09531297 0.1404294 -0.087784186 -0.15945068 -0.096926905 -0.064025156 -0.04387356 0.0049331146 0.16859138 0.0032669683 0.0055892924 -0.03137106 0.21067275 0.13628943 0.04199247 -0.049612276 0.08486705 -0.087980606 0.12720089 0.13111825 0.012427083 -0.10913524 -0.10733664 -0.059474226 0.03176393 0.25156265 -0.07575568 0.12580796 -0.0940519 0.111666046 0.049351234 -0.1269427 0.13285741 -0.054302312 -0.21409355 0.110597245 0.20501748 0.26252624 0.16129848 -0.032563556 -0.0013604145 -0.07348963 0.1348092 -0.04613141 0.039053287 -0.027964186 -0.09261893 -0.1384651 0.035420652 -0.06509808 -0.24273573 -0.04567233 -0.07044421 0.07519041 -0.2280051 0.16325702 0.081042185 -0.07919231 -0.049910877 -0.07893619 0.023256645 0.026429314 0.10601419 0.034517966 -0.08780364 0.07580378 0.3519094 -0.1385733 -0.036486242 0.07895209 -0.061768394 0.13776831 -0.07820262 -0.015196389 -0.13821933 -0.037434574 0.16783464 0.00057058467 -0.13022128 0.092753135 -0.008779743 -0.071842365 0.07582642 0.13254157 -0.17841376 0.077570885 -0.08722074 0.025343146 0.09540838 -0.0061782817 0.084696814 0.17695808 -0.07906779 -0.02745101 0.103237554 0.0840148 0.18886042 -0.03716938 -0.08151683 0.05475049 0.08464892 0.01614891 -0.004635111 -0.14849293 0.07583376 -0.033151448 0.020663813 -0.023378711 0.122718595 0.100981936 -0.05025445 0.16265932 0.17731336 0.007291775 -0.16897695 0.1425197 0.054894734 -0.053506978 -0.203831 -0.008734851 -0.08358568 -0.12985702 0.07084397 0.0034359023 -0.083282426 -0.20920876 0.11239164 0.18027893
70 -0.10312294 0.17227496 -0.12341184 -0.14301053 -0.107270904 -0.09124008 -0.033940796 0.014591726 0.11896304 0.019472336 0.011837197 -0.07005081 0.1789679 0.0828992 0.03516965 -0.037703265 0.039137937 -0.047616027 0.105271496 0.15007886 -0.0040249345 -0.09307452 -0.07175349 -0.045555502 0.003413368 0.24272361 -0.07316165 0.14574122 -0.110456966 0.085679024 0.06923489 -0.11249302 0.11916233 -0.0458453 -0.2345816 0.08317894 0.18203183 0.24083564 0.15797152 -0.07520126 0.020929258 -0.086550005 0.12227055 -0.063811354 0.06108607 -0.034871288 -0.08513819 -0.08000236 0.042282652 -0.05053807 -0.21755393 -0.041850884 -0.070626244 0.036333088 -0.19291346 0.115075275 0.071339376 -0.11372508 -0.015856037 -0.034478806 0.049642395 0.018813739 0.12315824 0.010669967 -0.11498433 0.0685861 0.3337297 -0.10814865 -0.0073624672 0.032583248 -0.019144915 0.13653359 -0.09160494 -0.053292394 -0.15186478 -0.03384757 0.14979629 -0.02929847 -0.1658715 0.12694182 -0.005725929 -0.06782959 0.04386906 0.13767253 -0.16326964 0.0110556325 -0.04315702 0.0057933945 0.13993543 0.025335124 0.13749295 0.17597695 -0.08454292 -0.0008550903 0.09109785 0.08638856 0.18157585 -0.030731171 -0.089930765 0.087111376 0.008116506 0.0261657 0.025496935 -0.17192915 0.03413913 0.02183616 0.024520814 -0.019736493 0.14167492 0.12423371 -0.041904546 0.12542747 0.14021449 -0.008412891 -0.13497421 0.19666812 0.017356168 -0.035722528 -0.18425244 1.3996705e-05 -0.10077764 -0.14174582 0.056635704 -0.039306328 -0.060259137 -0.19547246 0.113088414 0.13485295
68 -0.09233504 0.19384007 -0.16440831 -0.13757972 -0.115177736 -0.10273965 -0.031959627 0.020887837 0.100073695 0.03824404 0.028857954 -0.10087782 0.16070099 0.0961469 0.026666954 -0.05118108 0.041513454 -0.034586854 0.07888717 0.18425164 0.008504591 -0.12296158 -0.07108868 -0.05391453 -0.012194295 0.24856621 -0.09879759 0.14083868 -0.11690521 0.100196205 0.07237082 -0.10529875 0.12971339 -0.036536686 -0.2560168 0.06340481 0.18710595 0.23098633 0.18732841 -0.09252617 0.024603229 -0.12213996 0.12438321 -0.07627001 0.055508092 -0.0059329025 -0.09623141 -0.058822308 0.055125 -0.06522477 -0.23551948 -0.052852787 -0.07479577 0.04826206 -0.21015748 0.08188133 0.045729585 -0.1375623 -0.00434762 -0.027259933 0.062105004 -0.011312521 0.0784496 0.0074776886 -0.13109379 0.06733928 0.33768505 -0.104687415 0.015422641 0.007308222 0.00014125291 0.14327501 -0.11893724 -0.07655643 -0.19111252 -0.039212808 0.15415616 -0.022560155 -0.16771162 0.17740272 0.002420548 -0.09156116 0.0621646 0.114171505 -0.15078405 -0.0047770473 -0.029325549 -0.042990725 0.15133348 0.020178838 0.16088785 0.15208745 -0.072938085 -0.0065276287 0.07526443 0.08443642 0.17414415 -0.038713105 -0.07698266 0.07659675 -0.030342687 0.029707598 0.013349725 -0.19157127 0.01893783 0.019398276 0.008492812 -0.0054834727 0.15401553 0.109594256 -0.057075404 0.11850467 0.11183957 0.0004098354 -0.129166 0.21484335 -0.019221827 -0.011339763 -0.16878013 0.0323887 -0.091751345 -0.12232863 0.025084535 -0.0499774 -0.06663281 -0.20353188 0.10465811 0.09131531
66 -0.06311391 0.090668544 -0.052354466 -0.20734532 -0.043494884 -0.008718304 -0.058733568 -0.068311125 0.2180322 -0.028439503 0.046828862 -0.12213491 0.16624749 0.08689328 -0.073717095 -0.05966938 0.059865676 -0.14813298 0.12503162 0.14502451 -0.04931601 0.0034770854 -0.06864123 0.04176153 0.057797838 0.30412573 -0.0052009523 0.1897099 -0.043933958 0.122842334 0.20388454 -0.06108948 0.12837197 -0.082543634 -0.2590235 0.005663386 0.2150241 0.37360746 0.22063187 -0.012817983 0.10630151 0.06132062 -0.0063163624 -0.049763158 0.071976066 -0.11087215 0.022508094 -0.17954843 0.046767287 -0.018039174 -0.19246718 0.012946691 -0.06383057 -0.043506533 -0.17070894 0.21521977 0.0912928 -0.10946599 -0.0040949397 -0.110387295 0.06752902 0.22982986 0.29695362 -0.07810548 -0.11144184 0.029558968 0.37195417 -0.119103685 -0.07951935 0.16269612 -0.094438136 0.08885327 0.050329678 0.027866622 -0.0937835 0.12767202 0.01974885 -0.018305466 -0.16340302 0.016401378 -0.0051719877 0.011821191 0.024946703 0.11451736 -0.31357265 -0.15895581 -0.099379845 0.19417587 0.2995671 0.10750165 0.12107364 0.29650664 -0.20071436 0.005055851 0.1418598 0.23952465 0.27012062 -0.025442984 -0.20078522 0.09756328 0.10134881 0.05367011 0.07964514 -0.10154119 0.03522285 0.10286862 0.0438291 -0.06733906 0.13143636 0.11916168 0.04890449 0.08016315 0.20911933 0.0037847518 -0.06643563 0.28861418 0.121521614 -0.0539134 -0.30375308 -0.09645602 -0.06318077 -0.19171964 0.0950013 0.03523822 0.008085031 -0.09103972 0.13479543 0.39281243
60 -0.05968346 0.059252363 -0.023324532 -0.21948281 -0.022434138 0.014545041 -0.069089495 -0.09138222 0.23454161 -0.05200641 0.041800283 -0.1172322 0.16678339 0.06418825 -0.08635547 -0.05814886 0.052509136 -0.16618732 0.14066985 0.12144338 -0.07115806 0.0459227 -0.059866734 0.07999277 0.07112299 0.29081234 0.026893763 0.19922185 -0.024447728 0.11480675 0.23555674 -0.056269877 0.115166925 -0.07832048 -0.25055394 -0.008345812 0.21108621 0.40103093 0.21803957 0.0028529807 0.1250707 0.114587605 -0.039127346 -0.037643187 0.065408684 -0.1393911 0.04529955 -0.20044656 0.039383005 0.0012518461 -0.17549713 0.029235935 -0.05763629 -0.067245506 -0.15385085 0.24729915 0.11471214 -0.099127084 -0.011976288 -0.12644188 0.06593017 0.28649879 0.34913662 -0.08829286 -0.09977645 0.012393855 0.36512235 -0.10980628 -0.10203149 0.18764454 -0.1153545 0.078339085 0.09112162 0.053740524 -0.046698056 0.17250565 -0.021767585 -0.032001443 -0.1608626 -0.035910282 -0.008688104 0.030849056 -0.0032938742 0.11097497 -0.33732152 -0.19771685 -0.11801146 0.25399503 0.31959698 0.1321898 0.108705536 0.3198982 -0.21688735 0.0056669465 0.14773983 0.27202263 0.29030797 -0.017810548 -0.23961101 0.092678964 0.12438268 0.05791989 0.10169533 -0.07962038 0.0335312 0.13697584 0.049293324 -0.09177534 0.12108095 0.12363703 0.06943995 0.053698663 0.22676976 0.0015866659 -0.044861145 0.30867544 0.14958714 -0.061925724 -0.32203472 -0.1336189 -0.057041362 -0.21552156 0.108515844 0.05695759 0.026209075 -0.05612287 0.13994381 0.4559909
29 0.13113745 0.09606244 -0.3046606 -0.081960924 -0.07395008 -0.06870087 -0.09603565 0.03621836 0.08776121 0.126198 0.10025353 -0.23003635 -0.05926299 0.15003054 -0.05871785 -0.12790358 0.14302152 0.021661626 -0.120128855 0.37557063 0.032676667 -0.22882462 -0.07020363 0.06874846 -0.14819667 0.20536356 -0.18331863 0.12293893 -0.119987175 0.127216 0.21583988 0.030046279 0.08492961 0.16944018 -0.25495565 -0.13620985 0.010200571 0.07956011 0.3293711 -0.09435268 -0.07424994 -0.27983528 0.01300964 -0.13205774 -0.062402267 0.23652607 -0.12505332 0.13707592 0.13628407 -0.11279276 -0.27562407 -0.12568484 -0.13595685 0.025446365 -0.22629283 -0.17879471 -0.030407092 -0.23351298 0.099794 0.0060608764 0.19410759 -0.12508802 -0.27049798 -0.028502597 -0.18634193 -0.10884887 0.2520767 -0.061671287 0.13660243 -0.10809928 -0.015191987 0.15671176 -0.30727386 -0.20300612 -0.29821527 0.029071474 0.045285936 0.07575599 -0.15189828 0.32965946 0.026514571 -0.28239405 0.09928459 -0.1333959 -0.1793264 -0.23100872 -0.030339414 -0.23202999 0.22371171 0.14478041 0.34779018 -0.048431937 -0.06776202 0.013325934 -0.03335236 0.16684379 0.13549305 -0.0069398116 -0.06261207 -0.024564901 -0.28441748 -0.03747969 0.033824116 -0.34416944 -0.0539908 0.07028145 -0.28497234 0.04262613 0.22030678 0.008517072 -0.08674647 -0.034336742 -0.07023436 0.011614941 0.013738046 0.17687623 -0.19205879 0.06102981 -0.14486389 0.027653992 0.08731936 0.009290033 -0.16937557 -0.073759876 -0.09539866 -0.05100848 0.10860398 -0.06981012
16 -0.17246558 0.13350576 -0.19286418 -0.14859618 -0.15611894 -0.113068 -0.24635457 -0.011920685 0.03309921 0.075787105 -0.18887271 0.010366794 0.24230248 -0.0714859 0.11575859 -0.0658706 -0.063624 0.15310483 0.08515487 0.14772868 -0.16636117 0.03620096 -0.0838022 0.11795272 -0.11175903 0.022171644 -0.07570846 0.43287733 -0.2545742 -0.06095866 0.28291366 -0.15599819 -0.13979417 0.25247627 -0.20922177 0.09786951 0.0020224608 0.1940881 0.14894769 -0.04401594 -0.13837034 -0.11697725 0.1517585 -0.06756802 -0.06012524 0.11305565 -0.18191876 0.15725479 0.13509694 -0.06521209 -0.24044818 -0.12832934 -0.009037689 -0.0745855 -0.20630881 -0.055355135 0.36361575 -0.16057536 0.05660642 0.05171086 0.22061695 -0.07725073 0.017297752 0.059800357 -0.15217537 -0.05645153 0.33289862 -0.033875104 0.10108798 -0.20385908 0.037224717 0.33210427 -0.2058097 -0.18653516 -0.012832473 0.0039712572 0.08247152 -0.20496036 -0.37366349 0.034944586 -0.087320656 -0.17322053 -0.15756771 0.11588174 -0.14226635 -0.13656427 -0.16311684 0.002174744 0.026025863 0.28359613 0.27155808 0.030389296 -0.01466264 0.1177017 0.074455164 0.14575565 0.22859804 0.022394177 -0.2660894 0.055731565 -0.26731905 -0.2037316 0.15072133 -0.40577492 -0.036427017 0.2950343 -0.13501878 -0.22058654 0.25459218 0.31597188 -0.18419546 -0.08753456 0.10309433 -0.1559178 -0.12636064 0.31933245 -0.03666876 -0.10811698 -0.08941261 -0.2464456 -0.1343754 -0.22906262 0.14623024 -0.11552255 -0.03644663 -0.09332921 0.10401726 0.04016981
71 -0.07961385 0.12558214 -0.091737345 -0.15873009 -0.08859397 -0.06803948 -0.041910753 0.004608423 0.15222429 0.0020770102 0.010346673 -0.04892724 0.18142441 0.11619225 0.024455983 -0.040162668 0.06965168 -0.082472086 0.113139994 0.13547415 0.013081311 -0.09613999 -0.09644718 -0.035705518 0.021734653 0.24944955 -0.07761002 0.12026562 -0.08649593 0.108004905 0.08047937 -0.11060682 0.13739789 -0.04218955 -0.21403077 0.07862415 0.17555398 0.25732478 0.16060063 -0.053808916 0.0058734915 -0.06867368 0.107943475 -0.054127485 0.039975293 -0.031244026 -0.07245959 -0.115341224 0.049555115 -0.050954234 -0.2307591 -0.044358365 -0.082455456 0.058585342 -0.19405971 0.14163801 0.076470494 -0.09615339 -0.041660428 -0.0731515 0.035944108 0.046509184 0.107138515 0.03169884 -0.10075211 0.050448567 0.33984414 -0.11511769 -0.03850405 0.072281435 -0.0607203 0.13128799 -0.083570495 -0.03042307 -0.14274924 -0.022193048 0.13537414 -0.0083048865 -0.12673008 0.104087815 -0.008822532 -0.07383933 0.056970976 0.11730903 -0.18866093 0.030788971 -0.08516172 0.022023119 0.13516386 0.012905995 0.10860593 0.17602551 -0.09045783 -0.022682987 0.07984517 0.10715097 0.19264545 -0.03690499 -0.092928655 0.061624255 0.053960558 0.02238239 0.008022368 -0.14572063 0.06080841 -0.0014795883 0.008882996 -0.01364694 0.138876 0.10572684 -0.043579973 0.12549941 0.1651328 0.008502433 -0.13924018 0.16598925 0.038711946 -0.041937605 -0.21772552 -0.015669499 -0.06623996 -0.1304744 0.052719224 -0.0030605423 -0.071996845 -0.1856889 0.11268593 0.18691267
51 -0.15540168 0.25335371 -0.16477193 -0.11059612 -0.11647468 -0.08961566 -0.04868491 0.005434738 0.09332813 0.0825215 0.013049971 -0.078317836 0.2279994 0.0818167 0.05201169 -0.059635293 0.010726983 -0.03168357 0.05503127 0.16908057 -0.09228556 -0.0728676 -0.034326766 -0.03970184 -0.011841276 0.19303115 -0.06800721 0.23587331 -0.16654196 0.055600304 0.025270676 -0.106202886 0.014144741 -0.054782636 -0.29076272 0.09832376 0.20728517 0.23156044 0.16249493 0.0008846127 0.03556607 -0.09226195 0.1835116 -0.054649957 0.079942524 -0.031713333 -0.14124647 -0.08327434 -0.0030022361 -0.10600093 -0.2419776 -0.037901327 0.03207072 0.008051343 -0.26825374 0.091429904 0.07947591 -0.13629913 0.05305041 0.015753413 0.08101662 -0.035262905 0.17109984 -0.03012136 -0.117418036 0.12153632 0.3719924 -0.1349193 0.05968238 -0.024104942 0.05030134 0.16108689 -0.06894787 -0.06848971 -0.13271973 0.009886698 0.1921278 -0.067335814 -0.23266841 0.093485095 0.0048727803 -0.06594818 0.10034784 0.13450485 -0.16425212 -0.019066544 -0.012554089 0.024194896 0.11186153 0.08826639 0.15025215 0.1538518 -0.055914577 0.03473439 0.14758733 0.08219967 0.20911975 -0.04780002 -0.10760076 0.10089721 -0.03458089 -0.03343062 0.0560939 -0.22493958 0.02589862 0.04389696 0.06508597 -0.080562435 0.14237443 0.11192025 -0.06651313 0.11373206 0.13363858 -0.067350954 -0.15707265 0.26436907 0.010785734 -0.025845971 -0.07942201 0.007488699 -0.16182764 -0.16820572 0.11528687 -0.065092035 -0.0355184 -0.23279755 0.09227228 0.08969058
49 -0.15431449 0.20843524 -0.137428 -0.11649457 -0.112024605 -0.090128966 -0.064907044 -0.011041077 0.09014674 0.068071075 -0.024738174 -0.049830083 0.22358866 0.05427725 0.057012744 -0.058651187 0.008549897 -0.031633873 0.084288776 0.15039556 -0.09297786 -0.04159309 -0.052730042 -0.025958927 0.006796063 0.1807888 -0.054248042 0.2300365 -0.1490648 0.053683165 0.06807781 -0.11355772 0.021649793 -0.03403926 -0.26753432 0.10023376 0.18604997 0.2369175 0.16737795 -0.011855196 0.025874715 -0.06517039 0.14579949 -0.059625287 0.058501534 -0.029260913 -0.118671805 -0.07755107 0.016092202 -0.086131774 -0.23119475 -0.046333343 0.017866872 0.0019148721 -0.23679982 0.11544743 0.122554086 -0.11554508 0.027978746 -0.0088653555 0.07369058 0.011894043 0.17758787 -0.013757509 -0.10948797 0.095758274 0.35232982 -0.11301609 0.03950689 -0.01345886 0.026777266 0.16161317 -0.06337064 -0.060402315 -0.10743625 0.013108298 0.16637269 -0.07054274 -0.22194481 0.071961865 -0.010932421 -0.059277836 0.046093866 0.1288707 -0.17123564 -0.017771086 -0.053894863 0.040957987 0.107565895 0.08623672 0.1399188 0.15769264 -0.061689515 0.033154517 0.12984228 0.0943119 0.20265484 -0.04035158 -0.12830973 0.08226278 -0.023546763 -0.039966647 0.060571425 -0.21058661 0.023751732 0.07770579 0.05435885 -0.08847498 0.14663023 0.13122304 -0.07284953 0.09042776 0.14192146 -0.06725084 -0.13877153 0.26192242 0.025431033 -0.036816433 -0.11721586 -0.032974236 -0.14907424 -0.17988817 0.11936109 -0.045673415 -0.03749524 -0.20070738 0.09619726 0.13409403
37 0.14998351 0.14004461 -0.32095265 -0.09632497 -0.070479006 -0.08606412 -0.019117396 0.05083054 0.10526414 0.104419954 0.18900198 -0.30735484 -0.09630178 0.17682762 -0.11193559 -0.11479642 0.1637582 -0.035018045 -0.11461432 0.40961692 0.103680275 -0.27577934 -0.05995471 0.012046061 -0.12766032 0.33098406 -0.18758525 0.030418154 -0.07932434 0.19006373 0.18795323 0.049128138 0.20988305 0.06721202 -0.29528466 -0.16100794 0.088591024 0.13651773 0.36353585 -0.1674238 0.0033642824 -0.2830013 -0.01113783 -0.15514812 0.00573354 0.18352933 -0.07220613 0.0929025 0.1407545 -0.0998208 -0.26736358 -0.09306344 -0.18969211 0.04004709 -0.20868775 -0.13740516 -0.14333399 -0.25544772 0.08142759 -0.014101702 0.15952355 -0.07252598 -0.21372472 -0.06697495 -0.20548238 -0.07414507 0.2743086 -0.073836006 0.110304914 -0.038289633 -0.025294915 0.09438812 -0.27960095 -0.19377866 -0.39110336 0.014184745 0.05010808 0.11891116 -0.10307019 0.4241508 0.05506412 -0.24662392 0.14115468 -0.11766912 -0.18924694 -0.23899078 0.03145721 -0.2482149 0.33718312 0.05935731 0.3525661 0.03196324 -0.108309925 -0.025326926 -0.039917707 0.16442338 0.1320924 -0.027033271 -0.010830547 0.010593569 -0.23123476 0.070481956 -0.00314513 -0.27689946 -0.05425011 0.015232636 -0.23055516 0.121858515 0.20594667 -0.028218348 -0.029699288 0.033464957 -0.06616253 0.08018374 0.025805486 0.18754068 -0.18876123 0.09504307 -0.20714977 0.124909684 0.09022182 0.030883716 -0.2311817 -0.072881125 -0.0995633 -0.07494759 0.110094115 -0.039162263
17 -0.106592804 0.09885597 -0.20903191 -0.1408597 -0.14205585 -0.10698389 -0.22852649 -0.0037725614 0.024133485 0.07349489 -0.15997335 -0.022071725 0.17764963 -0.064734556 0.09515706 -0.0701791 -0.047807768 0.15371911 0.050346464 0.17386499 -0.12569603 0.008259823 -0.07408977 0.12678741 -0.13865517 0.029408108 -0.0880889 0.38750586 -0.22849748 -0.045518037 0.30706686 -0.12519664 -0.110977106 0.27372655 -0.18617299 0.053297143 -0.03287345 0.15770626 0.16266531 -0.079067156 -0.14395458 -0.15033524 0.10892265 -0.08445974 -0.080423325 0.1488474 -0.16279697 0.19509567 0.15060326 -0.04827607 -0.2284631 -0.13567677 -0.050592043 -0.06751175 -0.17482904 -0.10241047 0.31515127 -0.1704475 0.059413042 0.05458561 0.22360127 -0.08413524 -0.057901412 0.056440175 -0.16093382 -0.09296433 0.29793978 -0.01918635 0.09813831 -0.20962042 0.02858262 0.31510404 -0.24645416 -0.20347652 -0.04766852 0.006412002 0.049829256 -0.17228779 -0.34614754 0.08000594 -0.07576252 -0.19820559 -0.1585939 0.069930196 -0.13182572 -0.1590416 -0.150234 -0.038750894 0.047428507 0.27579412 0.2930834 -3.73004e-05 -0.021115433 0.11026917 0.039496537 0.1446638 0.19674225 0.03065697 -0.25116268 0.032245833 -0.29933518 -0.19101688 0.13753176 -0.40346867 -0.04926223 0.28948495 -0.18933497 -0.18273011 0.26578942 0.28622997 -0.17513044 -0.111192845 0.06410416 -0.13623105 -0.08850139 0.28837204 -0.07899603 -0.08207566 -0.110499196 -0.23131253 -0.08535162 -0.1844831 0.07987618 -0.11695896 -0.041487183 -0.05027638 0.11115985 0.009138487
76 -0.07179867 0.06982798 -0.028459892 -0.21276826 -0.04036143 -0.0032356433 -0.07278018 -0.065090254 0.22424598 -0.04867138 0.019534938 -0.080756664 0.19106917 0.083336994 -0.054366972 -0.054023944 0.06416534 -0.15525308 0.14998028 0.10967703 -0.04872012 0.006709484 -0.08484334 0.04168538 0.072976395 0.2852673 0.0051953346 0.18012853 -0.03454166 0.12117405 0.19483075 -0.083202474 0.12634407 -0.08251919 -0.23057355 0.03857288 0.20789018 0.37362647 0.19815555 -0.0005330468 0.087191746 0.075789474 -0.0012342813 -0.036736753 0.055061802 -0.11648429 0.020210711 -0.19514742 0.046582397 -0.01327397 -0.18816097 0.012890672 -0.0672692 -0.027854864 -0.16093764 0.24325103 0.12013548 -0.088056095 -0.031948835 -0.122796446 0.046325136 0.23405594 0.29321635 -0.05378479 -0.09557771 0.02683328 0.3673218 -0.118129395 -0.09950287 0.17690727 -0.119674385 0.09283132 0.05633912 0.037831713 -0.064930126 0.115698785 0.028155329 -0.021081684 -0.1515037 -0.012061813 -0.012181876 0.007406578 0.011941583 0.12631704 -0.3100181 -0.11738397 -0.13103305 0.2075088 0.25391454 0.09544349 0.08617055 0.2908346 -0.19382775 -0.0052470462 0.13847193 0.22579634 0.27078786 -0.020187613 -0.20108691 0.08062517 0.13202763 0.048236083 0.07384866 -0.089287326 0.0506042 0.09376446 0.040352996 -0.07671541 0.12736753 0.12167214 0.043082315 0.08784753 0.22469819 -0.004309037 -0.09015662 0.25364053 0.13578852 -0.07064617 -0.31396973 -0.12084883 -0.063292176 -0.19999927 0.10997369 0.04852685 -0.008206086 -0.09203652 0.13171051 0.40120682
38 0.13047118 0.11961088 -0.32345295 -0.08308947 -0.08139025 -0.08983699 -0.063577496 0.03788247 0.07949811 0.11812328 0.120055206 -0.26251444 -0.066297255 0.15136449 -0.06806351 -0.124642245 0.1452228 0.017218232 -0.11765214 0.38998044 0.058035016 -0.24443696 -0.06717078 0.047864363 -0.14929909 0.24806297 -0.1860393 0.09459333 -0.11240247 0.15287133 0.21123552 0.02198287 0.13290817 0.13903247 -0.27536517 -0.14579797 0.036271855 0.100659035 0.34730867 -0.13407807 -0.04442743 -0.28945708 0.009114831 -0.15094447 -0.036915354 0.21617278 -0.10716259 0.12430073 0.1396486 -0.10532901 -0.27257577 -0.12092463 -0.15432829 0.030399648 -0.2177984 -0.16966297 -0.060135577 -0.25259614 0.09185011 0.0045709466 0.1833836 -0.113612644 -0.24717015 -0.038634002 -0.20841946 -0.0984727 0.26456147 -0.06017779 0.13519256 -0.092023656 -0.012926182 0.14271903 -0.30258086 -0.21096751 -0.33290696 0.017717332 0.043420844 0.07850293 -0.14569129 0.36769998 0.038590133 -0.27933964 0.09978854 -0.12270974 -0.1730049 -0.24176809 -0.0054944903 -0.24340646 0.26604894 0.11624772 0.3580263 -0.02019765 -0.077639304 -0.003647469 -0.0401774 0.15929084 0.13257837 -0.017973792 -0.04589469 -0.0070261876 -0.2854775 0.0066138795 0.020492738 -0.324777 -0.0571622 0.06047095 -0.26434496 0.07478661 0.21873385 0.0027273623 -0.06836316 -0.01360843 -0.07479148 0.038504004 0.01838047 0.1982652 -0.19620702 0.072186574 -0.17120178 0.06857093 0.08783232 0.014138697 -0.195692 -0.08626835 -0.09303283 -0.061291862 0.11374798 -0.068908125
20 -0.14204273 0.11979952 -0.24779263 -0.15962633 -0.17194988 -0.13038622 -0.28394482 -0.0037822092 0.014520855 0.094569266 -0.19966473 -0.014255333 0.22148763 -0.10051091 0.115841836 -0.07345091 -0.07387651 0.20363565 0.061541952 0.18503025 -0.16390474 0.03142539 -0.08990715 0.15112211 -0.1625553 0.012898194 -0.09998668 0.4703574 -0.2727811 -0.07253753 0.35663798 -0.14964856 -0.14924933 0.33407345 -0.2209181 0.06985224 -0.039581038 0.1714235 0.17370965 -0.08976427 -0.17889528 -0.17368814 0.13771811 -0.09783739 -0.09313563 0.17168061 -0.20652226 0.2451132 0.16917211 -0.059226032 -0.25773662 -0.1595927 -0.048602283 -0.09075106 -0.19612306 -0.12981099 0.38793164 -0.18868096 0.07395815 0.07294353 0.26592216 -0.10687893 -0.06153562 0.067962065 -0.17829852 -0.110667095 0.32784903 -0.0070091425 0.13190377 -0.25782958 0.04187687 0.3789474 -0.2833596 -0.24081884 -0.03978973 -0.0017840475 0.056907386 -0.21694827 -0.4091429 0.08348894 -0.09803406 -0.22512896 -0.20097701 0.080886334 -0.1287469 -0.1892958 -0.17947671 -0.046539888 0.036761925 0.31743956 0.33957422 -0.021950578 -0.008617774 0.13393475 0.035654154 0.15383072 0.21649909 0.042022847 -0.2840335 0.051132537 -0.364389 -0.22859617 0.16920497 -0.4664878 -0.065105334 0.34622243 -0.2103476 -0.21209887 0.29969576 0.3388 -0.20360607 -0.14164484 0.070049874 -0.16487224 -0.097970575 0.3469279 -0.088446476 -0.10372722 -0.09227274 -0.27595744 -0.1083218 -0.22691962 0.10779647 -0.13916993 -0.04782424 -0.06373139 0.103226386 -0.017576614
19 -0.16163255 0.12673089 -0.18352376 -0.15308288 -0.151869 -0.10878757 -0.22946584 -0.010496322 0.04060757 0.06622755 -0.1723772 -0.00027402508 0.23848216 -0.06452872 0.11456894 -0.061655886 -0.056830414 0.1398353 0.08226807 0.147083 -0.15195386 0.03195207 -0.08155915 0.111320645 -0.11140566 0.034802854 -0.07021699 0.41284072 -0.2439548 -0.057081793 0.27468985 -0.15195705 -0.12588423 0.2345314 -0.20396739 0.09831432 0.00867472 0.18932138 0.14175011 -0.049229864 -0.12618199 -0.11192867 0.14276233 -0.06545244 -0.053055562 0.10125055 -0.17387573 0.14118032 0.1290475 -0.058167268 -0.23710728 -0.11456189 -0.013122392 -0.06445046 -0.20277435 -0.04113301 0.34295613 -0.15066193 0.051874645 0.04434605 0.20817836 -0.06614393 0.029369129 0.048608936 -0.1478105 -0.050690956 0.33620453 -0.04324488 0.088085085 -0.1880212 0.035672158 0.31438214 -0.19533533 -0.16790736 -0.010539907 0.006714403 0.07957556 -0.19622388 -0.36091006 0.037195195 -0.07771474 -0.15230173 -0.15071431 0.12360764 -0.14700575 -0.12282997 -0.16092426 0.01288676 0.029299134 0.2681528 0.25808215 0.04516015 -0.024083367 0.11253797 0.08157561 0.14131834 0.21927935 0.025425794 -0.2603263 0.05398536 -0.24197744 -0.19031219 0.14614782 -0.3800787 -0.031022519 0.27968907 -0.12290207 -0.20882012 0.25058314 0.30167535 -0.17210512 -0.07253986 0.11524993 -0.15043995 -0.124870166 0.30484158 -0.030684963 -0.10004247 -0.0984245 -0.23316368 -0.13588427 -0.21597743 0.14138776 -0.108155094 -0.030126382 -0.09358487 0.106669724 0.051221196
34 0.112635665 0.1595524 -0.31331497 -0.09132083 -0.07488429 -0.10104996 -0.024622366 0.042454153 0.086113214 0.10239169 0.15962653 -0.28062427 -0.05716679 0.15866373 -0.089214355 -0.10940711 0.13623446 -0.018409897 -0.095963426 0.38797686 0.07796869 -0.2543113 -0.06075918 0.0043372083 -0.12174006 0.3100042 -0.18495671 0.06194576 -0.10042663 0.16260701 0.1762117 0.027018573 0.18061793 0.06572094 -0.30392203 -0.13503562 0.08957099 0.1387865 0.34646976 -0.15019995 0.0070607336 -0.27252012 0.019035688 -0.14920342 0.005417842 0.15669264 -0.0874677 0.08182505 0.12136557 -0.1013615 -0.26771125 -0.094800696 -0.16252711 0.035593223 -0.21720059 -0.124136806 -0.11468217 -0.25515145 0.08765927 -0.006964754 0.15810673 -0.07977122 -0.17178679 -0.060508016 -0.2087509 -0.047145896 0.28739315 -0.075811006 0.1117278 -0.050379056 -0.0022838712 0.11329052 -0.26231542 -0.18693765 -0.36132982 0.014494577 0.06533687 0.090935186 -0.12326943 0.39211988 0.04824956 -0.23747498 0.13852078 -0.09219639 -0.17685227 -0.21774651 0.03431697 -0.22385296 0.3039251 0.066019386 0.33490628 0.028011657 -0.09822924 -0.019601785 -0.022083685 0.14941803 0.13459782 -0.032889884 -0.022199761 0.023547638 -0.23083588 0.05698105 0.011894107 -0.27669755 -0.05330137 0.026467992 -0.19982386 0.10351142 0.2032502 -0.008527002 -0.035830796 0.02803599 -0.056013662 0.048676368 0.008207178 0.2037695 -0.1774149 0.07779937 -0.18265596 0.11410273 0.057808697 0.009386664 -0.19330534 -0.08586499 -0.08904119 -0.10070186 0.11788242 -0.044529513
75 -0.09053489 0.14058071 -0.10572612 -0.14531101 -0.09865439 -0.062561505 -0.036896635 -0.0002531659 0.14355704 0.017110994 0.012417829 -0.051755346 0.18608937 0.11359073 0.03299795 -0.051225524 0.0690118 -0.067056976 0.1061319 0.13482478 0.0012615488 -0.10160258 -0.088158794 -0.046408184 0.014759326 0.2365264 -0.06942958 0.13146438 -0.09205459 0.09670228 0.06406534 -0.11276041 0.1137332 -0.04559254 -0.21777432 0.087363265 0.18516898 0.23980625 0.16124718 -0.03558784 0.009613339 -0.07671407 0.117765546 -0.05370187 0.041667897 -0.028022127 -0.08372393 -0.11025434 0.040441275 -0.06231992 -0.22391398 -0.043126423 -0.059437472 0.054393627 -0.20718935 0.13673998 0.07202044 -0.10051835 -0.028233543 -0.059066046 0.034819502 0.027401067 0.10690572 0.014659069 -0.096951835 0.06276708 0.3341487 -0.12522276 -0.016351659 0.057782378 -0.04182352 0.12992322 -0.07712763 -0.032176793 -0.14239633 -0.021865137 0.14371726 -0.00911469 -0.14011873 0.10109351 -0.0049200985 -0.072931334 0.066873856 0.11865236 -0.1762874 0.03351115 -0.067732565 0.01643596 0.11277613 0.023865795 0.106176935 0.16605948 -0.07965964 -0.00999113 0.09684083 0.09885584 0.18688273 -0.03669733 -0.08618279 0.058260728 0.038653098 0.013861262 0.0077092266 -0.16048804 0.05313319 -0.004063917 0.009652281 -0.021739228 0.13247521 0.10325535 -0.046805624 0.13241029 0.15261929 -0.002040704 -0.14271955 0.16534403 0.03130142 -0.039283548 -0.1845351 -0.008333401 -0.08477462 -0.125394 0.06265796 -0.010702217 -0.07158815 -0.1868473 0.111942284 0.16504624
18 -0.19745493 0.16519322 -0.256776 -0.17256436 -0.18349361 -0.16123208 -0.2672049 -0.0029191803 -0.003632425 0.0876512 -0.20859359 -0.01643574 0.25313392 -0.13283633 0.13062705 -0.061962467 -0.11967863 0.21269172 0.0870126 0.17058612 -0.1801937 0.055458985 -0.075859725 0.13130327 -0.15578768 0.031513743 -0.09219424 0.49500355 -0.29310247 -0.084162444 0.35525337 -0.17099912 -0.14478219 0.296887 -0.2476499 0.09806663 -0.008538392 0.21570644 0.16877867 -0.11459467 -0.14761586 -0.1618616 0.1600521 -0.10226023 -0.052463222 0.13360305 -0.2043519 0.24488011 0.17230979 -0.05030796 -0.2508389 -0.1548474 -0.042602316 -0.113991104 -0.19898438 -0.112576686 0.4053975 -0.20537868 0.08856311 0.08647522 0.2726614 -0.09252306 0.014258629 0.06262983 -0.19814688 -0.081535585 0.35850084 -0.006027279 0.13101985 -0.26986694 0.08137336 0.39386192 -0.26871127 -0.24908985 -0.03768893 -0.011742984 0.07662812 -0.26309994 -0.45559373 0.083113916 -0.109193645 -0.1969745 -0.23097235 0.13411611 -0.119097516 -0.19684814 -0.15617737 -0.0337088 0.053162433 0.32673734 0.3505844 0.019730907 -0.018481364 0.14622627 0.06376883 0.14232644 0.234274 0.032716233 -0.31070036 0.085771605 -0.37226778 -0.21826851 0.18450679 -0.4736559 -0.07508637 0.37567952 -0.1597432 -0.23224072 0.31190228 0.39065972 -0.20607609 -0.1389664 0.082344435 -0.1746278 -0.111726895 0.40448746 -0.07596899 -0.10573971 -0.09484447 -0.2695865 -0.1584575 -0.2597936 0.13661507 -0.16780253 -0.030654373 -0.09366839 0.11138837 -0.012274163
22 -0.16588633 0.15708509 -0.23039141 -0.16455977 -0.17210671 -0.14040376 -0.23608671 0.00085429614 0.017538564 0.071774684 -0.16319025 -0.030898938 0.23186764 -0.095352486 0.112430155 -0.06199059 -0.08551937 0.16259347 0.08224291 0.17932767 -0.1424334 0.031415086 -0.06879889 0.10759782 -0.13400455 0.05177114 -0.08464801 0.4320117 -0.2593137 -0.06451267 0.30408335 -0.14947365 -0.10651352 0.2565572 -0.23006715 0.08317592 0.0063488446 0.20018184 0.16641514 -0.10114983 -0.121874705 -0.15131807 0.14788467 -0.09225555 -0.043989774 0.11013146 -0.17918472 0.19223987 0.14843297 -0.052067924 -0.24215105 -0.1353301 -0.043507352 -0.0814248 -0.19233955 -0.086882405 0.33550134 -0.18163234 0.06898449 0.06446075 0.23496509 -0.09011296 0.010478342 0.052340675 -0.17768902 -0.059296515 0.3467675 -0.025679477 0.11049934 -0.22262724 0.061522238 0.34257382 -0.2394707 -0.21543069 -0.052566152 -0.010608657 0.07745289 -0.21480842 -0.39005047 0.092550114 -0.08630684 -0.18110885 -0.17296796 0.11718616 -0.13490708 -0.16059446 -0.13401034 -0.027921997 0.060663987 0.2776413 0.31123933 0.036203213 -0.021865638 0.120706454 0.058941666 0.14247122 0.22040176 0.023098217 -0.2636178 0.07026199 -0.3106267 -0.18648154 0.1544034 -0.42295298 -0.061040185 0.31249776 -0.13771449 -0.19446287 0.28038576 0.3260677 -0.18066254 -0.09729259 0.08647073 -0.14382337 -0.11164728 0.35274324 -0.07016406 -0.09146153 -0.102053 -0.2237433 -0.13490157 -0.22875464 0.11038267 -0.13879998 -0.035594273 -0.100449555 0.10566192 0.014059119
36 0.116001725 0.08727655 -0.24792407 -0.08956353 -0.053746965 -0.05277116 -0.059959255 0.022971056 0.1083453 0.089737564 0.12109812 -0.2247962 -0.048681006 0.14738296 -0.078792326 -0.10422524 0.14166304 -0.021132547 -0.08669186 0.32825977 0.050999235 -0.20107149 -0.063170515 0.055657722 -0.10799927 0.23977032 -0.1516928 0.08963073 -0.082742296 0.14775667 0.19430263 0.026819034 0.1251594 0.09904181 -0.24439447 -0.1297144 0.05288479 0.1272075 0.3081129 -0.098016985 -0.02546752 -0.2166127 -0.0066948785 -0.11604592 -0.03363246 0.16499843 -0.07946085 0.07315735 0.12335413 -0.08758475 -0.2473638 -0.08616929 -0.1409719 0.023009626 -0.1996608 -0.104540475 -0.048870847 -0.21633479 0.0739864 -0.024101034 0.15384942 -0.051217377 -0.17562377 -0.041769587 -0.17363192 -0.082518704 0.25210717 -0.06782478 0.09198746 -0.035331547 -0.03660284 0.10947652 -0.2341333 -0.15713508 -0.28048545 0.042711828 0.03277642 0.07972671 -0.11816906 0.29349014 0.037301984 -0.22209994 0.10016959 -0.09929302 -0.19556578 -0.21400782 -0.01966923 -0.16525039 0.25586206 0.110310525 0.29628444 0.018708864 -0.098603815 -0.00383317 -0.01935516 0.17248073 0.14242104 -0.01654284 -0.06575973 0.00013308787 -0.19575515 0.0067561963 0.028553383 -0.26289743 -0.034235 0.049877454 -0.22064759 0.05466881 0.186538 0.0017041434 -0.045714192 -0.0036788564 -0.029425565 0.02982653 0.012556274 0.17256476 -0.14091542 0.054644495 -0.18054758 0.03820603 0.07671475 -0.0030957186 -0.15231515 -0.054963615 -0.073915124 -0.048344653 0.11172306 0.010332316
35 0.1434261 0.11554293 -0.30516422 -0.074667566 -0.06707519 -0.072399534 -0.047819335 0.052209705 0.089569226 0.120320685 0.14377366 -0.2558971 -0.081309214 0.17338225 -0.074718505 -0.11253965 0.15745541 -0.003737999 -0.11966845 0.38261762 0.07822562 -0.26245528 -0.06968427 0.030400367 -0.14075175 0.2503636 -0.18895273 0.05805698 -0.10155678 0.16276866 0.16990934 0.0333093 0.13578126 0.11854577 -0.25909007 -0.13880664 0.043382425 0.08307329 0.33035812 -0.121671334 -0.04241979 -0.29095393 0.017666882 -0.13763052 -0.036186274 0.21887086 -0.10341028 0.11216736 0.13382342 -0.11216602 -0.26729313 -0.11091385 -0.1524392 0.04391832 -0.21145563 -0.16593936 -0.094618164 -0.24070396 0.08798832 -0.00039909605 0.16193105 -0.12151993 -0.26475036 -0.030256156 -0.19264366 -0.08794495 0.25344786 -0.06809176 0.12350085 -0.08039635 -0.0132547505 0.12160558 -0.294811 -0.19232607 -0.3368282 0.0047698673 0.06182533 0.10476926 -0.12154579 0.37672615 0.039674938 -0.26577598 0.12673853 -0.12042955 -0.16586429 -0.20200303 0.0009954495 -0.255264 0.24944727 0.08936359 0.33599776 -0.02858746 -0.0744758 -0.011570974 -0.039096925 0.14746846 0.118114054 -0.020573646 -0.017554127 -0.007117623 -0.2535267 0.0126347365 -0.0004607656 -0.29940343 -0.048610304 0.018886268 -0.25170636 0.08122706 0.2053534 -0.024896428 -0.062065296 0.008021831 -0.0679974 0.048893973 0.007749752 0.16255526 -0.19356242 0.07761067 -0.16447659 0.091954105 0.08509591 0.03357956 -0.19963342 -0.07824313 -0.09971542 -0.06868426 0.10092277 -0.08184492
21 -0.17169414 0.11768283 -0.19247496 -0.14154513 -0.1622874 -0.12329321 -0.24347849 -0.005930789 0.017092012 0.07882394 -0.20211333 0.023131827 0.24521966 -0.082901016 0.13441606 -0.063522406 -0.06932362 0.17760536 0.08034161 0.13848773 -0.15532726 0.03140568 -0.0835637 0.110317044 -0.13093588 0.006834288 -0.08185797 0.42754886 -0.2531644 -0.07493981 0.27791432 -0.16286051 -0.1423961 0.2753716 -0.19025058 0.11382005 -0.017150838 0.16861959 0.13099994 -0.061001886 -0.16735128 -0.14554636 0.1628711 -0.06752402 -0.066003785 0.13517629 -0.19843365 0.18064515 0.14424051 -0.064207196 -0.23991731 -0.13486394 -0.023141246 -0.07068267 -0.2008026 -0.076462984 0.3702799 -0.15562092 0.053357475 0.058320194 0.21499304 -0.105091184 -0.02326101 0.08112355 -0.15009752 -0.06854081 0.31388676 -0.02896929 0.104677096 -0.2256998 0.03934169 0.34856513 -0.23878145 -0.19319747 -0.0073808003 -0.024339711 0.08813719 -0.20836747 -0.37623054 0.037578076 -0.09179645 -0.17683798 -0.17852733 0.114730395 -0.11458352 -0.10880837 -0.16584286 -0.020366158 -0.014473187 0.27958867 0.27099136 -0.00092353043 -0.0003821092 0.12055261 0.061551798 0.12354754 0.21215206 0.029240154 -0.26529923 0.04569766 -0.28418326 -0.22155692 0.14513168 -0.41837224 -0.03788517 0.2948032 -0.15647446 -0.21216458 0.25855622 0.3306785 -0.19865707 -0.09540321 0.097277336 -0.15946579 -0.13448383 0.29728812 -0.05171453 -0.11256698 -0.08135023 -0.2550829 -0.13346685 -0.21774644 0.14124003 -0.11926544 -0.048938315 -0.08826876 0.10761398 0.004561062
31 -0.02283495 0.08393278 -0.20133558 -0.1121302 -0.097209476 -0.078821376 -0.17909785 0.016256174 0.07501902 0.08794038 -0.07016496 -0.05718708 0.10900965 0.04832147 0.05279083 -0.08127442 0.04187442 0.092505306 0.00023585826 0.21648647 -0.050680336 -0.09186357 -0.097182184 0.07786411 -0.1201387 0.08205714 -0.12381592 0.2553627 -0.18119775 0.018747907 0.20911877 -0.06997411 -0.032431576 0.22209828 -0.17601942 0.010815893 -0.0023110022 0.11741506 0.1956655 -0.056542974 -0.13558738 -0.19125521 0.09095881 -0.0746369 -0.07046215 0.17440668 -0.15564317 0.12691869 0.13680789 -0.080745324 -0.24248992 -0.1253503 -0.071455985 -0.0027636217 -0.20162731 -0.1136532 0.17643507 -0.15875342 0.049725056 0.020994749 0.17035301 -0.1119593 -0.15532172 0.059789244 -0.13341089 -0.08611214 0.27120516 -0.05297187 0.100404374 -0.13777822 -0.011247409 0.2515853 -0.26981947 -0.17437 -0.1302136 -0.015826622 0.075738 -0.04768473 -0.23162183 0.14132562 -0.045154642 -0.21184188 -0.03184735 0.0053927395 -0.12607479 -0.09784198 -0.11304167 -0.11769425 0.046071306 0.18164071 0.26613355 -0.025016349 -0.023556003 0.051660895 0.019678192 0.11327157 0.16199812 0.0007928122 -0.14260612 0.0005563374 -0.22488591 -0.14498287 0.0735579 -0.3561398 -0.015320516 0.14520319 -0.19877549 -0.09753225 0.22284591 0.16758785 -0.14663114 -0.04346933 0.03684072 -0.07441088 -0.08494599 0.1825358 -0.08534172 -0.037551202 -0.105521426 -0.12785634 -0.018314142 -0.10097827 0.0061914856 -0.0681145 -0.085735664 -0.07426457 0.086911924 -0.025882225
54 -0.063856035 0.11993902 -0.07987287 -0.1304013 -0.067794584 -0.010013097 -0.07429716 -0.030076636 0.18071857 0.048072815 0.02128415 -0.06251157 0.17813814 0.15127724 0.0073584775 -0.08540877 0.09968472 -0.10014521 0.06711868 0.15597555 -0.0671843 -0.07973594 -0.077752806 0.004752783 0.02752778 0.19162557 -0.05178936 0.1706851 -0.09820127 0.10232882 0.06347513 -0.07242101 0.04163178 -0.038923834 -0.23271553 0.053848825 0.17920384 0.23950139 0.18540992 0.061458062 0.018319301 -0.028921694 0.10086519 -0.033125874 0.016384514 -0.011774893 -0.08844769 -0.159935 0.012254106 -0.09143804 -0.2424993 -0.031935375 0.0033280372 0.028837733 -0.24813911 0.15490909 0.07606083 -0.08831329 0.0078249965 -0.07570788 0.055123508 0.048837584 0.12202948 -0.020017048 -0.0799112 0.06359931 0.3428708 -0.15180981 -0.003421848 0.07624464 -0.056716762 0.11569754 -0.031002041 0.0010256347 -0.09084961 0.05791719 0.12628308 0.0129846325 -0.14264746 0.02959311 0.010390604 -0.06895416 0.11412349 0.06785091 -0.23960225 -0.024328621 -0.09606294 0.07664733 0.122619644 0.08483902 0.092053734 0.15923534 -0.09447263 -0.0018003953 0.12451743 0.1513294 0.22244531 -0.04232868 -0.1179422 0.03589692 0.06097032 -0.032369304 0.046490375 -0.16496205 0.06628015 0.014173931 0.0025062554 -0.07262083 0.11747232 0.051141765 -0.036850113 0.103145294 0.16594623 -0.037076045 -0.12827538 0.18736261 0.063677534 -0.038254257 -0.168559 -0.041373536 -0.074177615 -0.14554639 0.09298748 0.03115326 -0.044180308 -0.16109814 0.117170855 0.22198504
28 0.05960123 0.102995545 -0.18962239 -0.09938402 -0.05343894 -0.04104592 -0.08974394 0.038624853 0.1404523 0.08212543 0.06976873 -0.13463642 0.04631181 0.18363433 -0.019817587 -0.09353912 0.15098903 -0.0257448 -0.040125348 0.26790562 0.045517053 -0.21760927 -0.10247099 -0.0063378075 -0.086706325 0.20410348 -0.15637931 0.0916571 -0.11571848 0.13060156 0.09735788 -0.017188739 0.097989105 0.06912832 -0.20180915 -0.0358094 0.1077715 0.14317384 0.24721463 -0.059495565 -0.06966086 -0.20468222 0.065855086 -0.08043219 -0.015633008 0.1449172 -0.11810664 0.013382896 0.0846642 -0.12711963 -0.26664048 -0.09079754 -0.105255 0.06196779 -0.2498377 -0.05422509 -0.029804002 -0.16812092 0.037569776 -0.025114372 0.11641405 -0.087818325 -0.17974246 0.01344946 -0.110310934 -0.028912252 0.29440007 -0.09810208 0.06319878 -0.02205541 -0.043663144 0.13351315 -0.23054692 -0.1208766 -0.24597083 -0.035160612 0.11679431 0.09136887 -0.12090391 0.23604341 0.010530422 -0.19153659 0.12209337 -0.02241205 -0.17095292 -0.05841576 -0.047270287 -0.14824691 0.12233619 0.046302147 0.23349512 0.024348807 -0.080445506 -0.029761428 0.044778995 0.097225554 0.17741834 -0.03853843 -0.033359535 0.007607269 -0.092080235 -0.030044604 0.00974882 -0.27974206 0.020749463 -0.012157578 -0.16577154 -0.0021492944 0.16877191 0.023596728 -0.06593815 0.09648957 0.04602788 0.015661255 -0.08650082 0.11809301 -0.07736454 0.004088347 -0.16007215 0.016058724 0.022065032 -0.03236188 -0.06254721 -0.024984319 -0.10055165 -0.12604456 0.09115357 0.0053680893
2 0.1794197 -0.1448408 0.008910114 -0.09227601 0.013447624 0.1669049 -0.20171292 -0.029500555 0.37069628 0.07061316 -0.0023457028 0.04688235 0.09302276 0.39677513 0.00041140366 -0.16505124 0.37163216 -0.16371757 -0.022030473 0.18424197 0.0063918475 -0.2307986 -0.20942737 0.09555461 0.01189449 0.06783978 -0.11854946 0.07569271 -0.033323053 0.18831742 0.08120327 -0.006441092 -0.020037737 0.17595606 -0.045161366 0.009928062 0.002948727 0.06283879 0.21747367 0.25394523 -0.21868572 -0.091096416 0.029359818 0.034281377 -0.23016784 0.25207937 -0.14236009 -0.20155147 0.053402714 -0.15810438 -0.33937317 -0.10220619 -0.02060129 0.16419911 -0.33242625 0.12206576 0.09484565 -0.0068094074 -0.061611276 -0.18103227 0.046963554 -0.04346298 -0.31636062 0.07904564 0.0077872663 -0.094369516 0.2695248 -0.2213158 -0.029643182 0.10465807 -0.2731856 0.113055065 -0.1646066 0.04958068 -0.042928904 0.08415091 0.082888186 0.22711644 0.02607927 -0.06502668 0.038154732 -0.23859593 0.20566638 -0.14914091 -0.33297423 0.09689082 -0.3074729 0.005102288 -0.092659414 0.11587358 0.027928986 -0.05880848 -0.060757134 -0.05851972 0.04379597 0.22043768 0.22386032 -0.0063368212 -0.08351228 -0.20118265 0.14362486 -0.19171938 -0.029166413 -0.23118189 0.17853932 -0.11882323 -0.30954173 -0.093994536 0.12022056 -0.109986156 -0.105617054 0.075188026 0.16643699 -0.012222514 -0.14477226 -0.13481164 0.068067014 -0.07340384 -0.20347437 -0.16306128 0.14075482 0.0019798786 0.023636328 0.1818482 -0.1628201 -0.026940508 0.13032904 0.23627098
3 0.18143965 -0.14061971 -0.00424216 -0.09329626 0.0066026887 0.15428516 -0.19061852 -0.03395312 0.35544297 0.069479 0.0006045389 0.028376972 0.09003605 0.38027915 0.0012114719 -0.16626121 0.354158 -0.14834748 -0.033192813 0.19833462 -0.0036001382 -0.22901596 -0.19316776 0.10104336 0.0011516633 0.067431934 -0.119736336 0.08357139 -0.039874952 0.17752622 0.09070682 -0.009619387 -0.026016247 0.18278328 -0.05155316 0.004476882 0.00016452472 0.06169401 0.22120205 0.23831984 -0.21504524 -0.103222854 0.02637022 0.022655053 -0.22337662 0.25600323 -0.14296299 -0.17141823 0.059669893 -0.15817544 -0.3292801 -0.09765523 -0.026836868 0.15216199 -0.31825387 0.098266445 0.10135133 -0.017682765 -0.04825116 -0.16410959 0.06133963 -0.051980328 -0.3183757 0.08214549 -0.0034944352 -0.10015099 0.2569527 -0.20582098 -0.0148399845 0.08968814 -0.25782996 0.11943322 -0.17496374 0.037295748 -0.039988406 0.08083585 0.07519854 0.21413614 0.008899592 -0.051861882 0.029566936 -0.24666473 0.19612241 -0.15146174 -0.322772 0.07755945 -0.2967677 -0.0053148735 -0.08289744 0.12948678 0.052032325 -0.07192948 -0.05923161 -0.04678227 0.042124424 0.21701641 0.21905525 -0.0078547485 -0.09538503 -0.1887535 0.10906404 -0.18894085 -0.016627463 -0.2406102 0.1616085 -0.098725244 -0.3149222 -0.0899165 0.12772596 -0.0942512 -0.11075431 0.06091334 0.1500036 -0.013587606 -0.14360467 -0.11837195 0.050124723 -0.06777319 -0.18972991 -0.15527701 0.14428356 0.009038028 0.015267984 0.1664003 -0.15598428 -0.020269524 0.1267348 0.21389237
43 0.023728272 0.072688505 -0.12635098 -0.099473916 -0.053932972 -0.011769806 -0.08741333 0.0066390107 0.16192995 0.05905247 0.027091447 -0.07938277 0.08706519 0.17256044 -0.004197084 -0.086607665 0.13612527 -0.05241621 0.0061318367 0.20794597 -0.0027586927 -0.15371317 -0.10042735 0.019996362 -0.03692671 0.16881412 -0.10896734 0.11894296 -0.09287083 0.11079848 0.096255384 -0.042423323 0.05438038 0.05988651 -0.17474262 -0.0013724482 0.08935118 0.14344591 0.20187229 0.010645444 -0.05944997 -0.12652023 0.06588899 -0.050792374 -0.042013846 0.09911363 -0.09880222 -0.049101893 0.06392676 -0.09528955 -0.24218331 -0.07530069 -0.05907082 0.05424394 -0.22770716 0.026676994 0.039424986 -0.115878366 0.01332601 -0.053862534 0.07983585 -0.035447124 -0.08864609 0.014558378 -0.0907156 -0.013260381 0.2735604 -0.11435206 0.032782096 0.00904053 -0.067025125 0.12632248 -0.15287681 -0.05651547 -0.14952524 0.015211897 0.10044959 0.0652955 -0.11034606 0.12268023 0.010238743 -0.15116966 0.10289065 -0.010359369 -0.18742903 -0.029764038 -0.091829084 -0.04960434 0.09242545 0.0728471 0.15532205 0.04647613 -0.06676697 -0.0055923094 0.050522137 0.12337448 0.1687496 -0.026543317 -0.07466405 -0.010934176 -0.029155433 -0.046760067 0.013737768 -0.2181464 0.044838846 -0.00026651594 -0.12241444 -0.029931754 0.13801382 0.026280202 -0.06764778 0.064940944 0.07806561 -0.0109437425 -0.090805486 0.09742442 -0.022372873 -0.015088747 -0.1526244 -0.031241184 0.006784158 -0.057111744 -0.005436081 0.0034351032 -0.0793984 -0.10489042 0.102728404 0.08465926
72 -0.07947182 0.17132325 -0.1569187 -0.10648795 -0.102077626 -0.080892436 -0.07682146 0.01574002 0.09169787 0.0695484 -0.0069402196 -0.06725884 0.15573478 0.08800108 0.045452833 -0.05744741 0.041183166 -0.0061094495 0.044643298 0.18251348 -0.043266132 -0.10858289 -0.074864216 -0.014687699 -0.034102112 0.17167206 -0.0931718 0.18106136 -0.14306018 0.06313668 0.08023443 -0.0940859 0.038437556 0.020687873 -0.22519349 0.05603148 0.12953484 0.18604715 0.16838293 -0.042378698 -0.019225013 -0.121181354 0.13467546 -0.059387304 0.019055769 0.03687471 -0.121650025 -0.019425089 0.05125892 -0.08466329 -0.23374894 -0.06472597 -0.03140458 0.027423698 -0.2236174 0.029331487 0.08620436 -0.13331611 0.02655926 -0.00224374 0.08915778 -0.04864105 0.036952168 0.016547263 -0.1169637 0.044449434 0.31110886 -0.09739471 0.050543953 -0.03537645 0.0054073273 0.16759424 -0.13710412 -0.088673204 -0.1472294 -0.018691802 0.15513937 -0.027301319 -0.18804148 0.13434164 -0.013596631 -0.110797204 0.05914686 0.0819119 -0.14807998 -0.018077599 -0.049218085 -0.040812194 0.097571574 0.07696439 0.17378256 0.095781796 -0.04603318 0.014576867 0.08134906 0.084790915 0.17677736 -0.03401211 -0.094963916 0.059544653 -0.0735142 -0.043597817 0.040778086 -0.23743062 0.01986081 0.04821358 -0.029386425 -0.050020196 0.15801632 0.10710263 -0.08342273 0.07727215 0.09507209 -0.045727257 -0.12803806 0.19531558 -0.022458702 -0.019701658 -0.12011576 -0.014578565 -0.089784004 -0.12343248 0.044271555 -0.0551285 -0.059494592 -0.17843509 0.09970958 0.055606842
39 -0.14120418 0.21385719 -0.15009011 -0.14377734 -0.12229561 -0.096572325 -0.041757427 0.00011382598 0.09498145 0.046980474 0.0014884291 -0.08237818 0.20893848 0.04927978 0.032492537 -0.05339071 -0.003804157 -0.02630684 0.08902893 0.15065762 -0.061790843 -0.042895317 -0.04734229 -0.025812803 -0.0037673048 0.2202648 -0.05637204 0.218234 -0.14210178 0.059382062 0.08799425 -0.11977639 0.068705715 -0.04426339 -0.2862731 0.09166449 0.19565819 0.2604317 0.16826893 -0.04443176 0.04137558 -0.07700109 0.14277008 -0.06365844 0.074225664 -0.051790565 -0.10600196 -0.06571259 0.022787543 -0.0706802 -0.21759497 -0.036014847 -0.02104749 -0.006529823 -0.22173215 0.10818346 0.09486581 -0.13475895 0.02124657 -0.0082297735 0.0828949 0.023900181 0.19348124 -0.019374335 -0.12556022 0.09047965 0.36123246 -0.10759125 0.026187165 0.002230596 0.02414629 0.16023688 -0.06667068 -0.06279978 -0.14060198 0.00923261 0.15129703 -0.08372865 -0.21700208 0.10770342 -0.0061394004 -0.058585618 0.04349088 0.13346641 -0.16206563 -0.046233345 -0.02423343 0.03524474 0.15186691 0.07583755 0.15294631 0.1850182 -0.073150925 0.020218845 0.123197064 0.09498504 0.19252759 -0.041181993 -0.12820393 0.1070691 -0.037320636 0.005676454 0.058031853 -0.1980769 0.01852055 0.07030212 0.054005448 -0.051465474 0.13864738 0.14011934 -0.04597408 0.10262336 0.13767469 -0.034684535 -0.12510124 0.27407718 0.017760351 -0.035776407 -0.13537134 -0.005685614 -0.14179178 -0.17030443 0.09552477 -0.0598351 -0.03166914 -0.20060696 0.101301506 0.13040583
42 -0.09200966 0.11073666 -0.072069466 -0.13326687 -0.09693981 -0.04394958 -0.08167315 0.011366032 0.15734981 0.018965427 -0.036422975 0.010467397 0.21473469 0.13171738 0.06624716 -0.049503673 0.10053015 -0.065410666 0.11101197 0.11651558 -0.014703969 -0.1083416 -0.11869568 -0.03052012 0.02161773 0.17363642 -0.06729433 0.15097424 -0.10571529 0.08660035 0.036681164 -0.12903093 0.06486043 -0.008168848 -0.17126574 0.12857343 0.15117489 0.20415278 0.12979056 0.014173137 -0.047818355 -0.06668531 0.14731272 -0.019580938 -0.0008646059 0.009807983 -0.110125884 -0.12507515 0.03771836 -0.077925116 -0.23977922 -0.05224397 -0.03229768 0.07663207 -0.23087196 0.14839624 0.113194786 -0.06611821 -0.048898343 -0.070455536 0.028208481 -0.007884528 0.04905988 0.050590497 -0.063345484 0.05764044 0.321315 -0.14027727 -0.026364658 0.038758036 -0.06828587 0.15522267 -0.09842442 -0.016088206 -0.08509773 -0.036118295 0.17170425 0.0017928046 -0.13674462 0.04854005 -0.012739912 -0.08708793 0.06552065 0.1185369 -0.17969206 0.101562954 -0.12029119 0.025966672 0.026235402 0.038163036 0.07827626 0.1260254 -0.057372797 -0.009392578 0.100145094 0.09475222 0.19868582 -0.025735816 -0.08810962 0.029311366 0.06925574 -0.045838367 0.0062029287 -0.1812132 0.08845592 -0.020822467 -0.013432497 -0.06238165 0.13399467 0.09871163 -0.0833252 0.13992578 0.18250385 -0.034060903 -0.18654263 0.11467527 0.050733127 -0.07192417 -0.17320506 -0.056280546 -0.082496904 -0.13627306 0.09712632 0.016418556 -0.09299317 -0.19699645 0.11930626 0.16315341
73 -0.042925056 0.08200026 -0.04509291 -0.21123472 -0.052115735 -0.017023833 -0.016282583 -0.060649477 0.2300898 -0.03487847 0.06661405 -0.10673837 0.15114708 0.15159181 -0.053815752 -0.05102175 0.10371216 -0.17592686 0.13430515 0.13065377 0.0041306987 -0.057162352 -0.08671084 -0.00980404 0.08781657 0.33413666 -0.05300529 0.104089394 -0.018935075 0.16342683 0.14998798 -0.08652167 0.19851452 -0.11465676 -0.25166824 0.028117929 0.23671983 0.36035833 0.20822474 -0.031685375 0.09171676 0.03274293 0.007950078 -0.06510105 0.06473214 -0.11320384 0.0118305115 -0.22983955 0.026750984 -0.020733804 -0.22262396 -0.0068630986 -0.094628975 0.036273666 -0.18143784 0.23997216 0.04576383 -0.0930944 -0.0556672 -0.13671641 0.021257874 0.20650263 0.2284303 -0.02176437 -0.09751528 0.045076758 0.3738733 -0.12022407 -0.09424582 0.20234953 -0.124545135 0.07440063 0.035852257 0.040140174 -0.1429391 0.0752762 0.05638267 0.026854329 -0.083338246 0.055453558 0.016140172 -0.02367858 0.06539697 0.09738112 -0.2777716 -0.057798777 -0.104312524 0.1292096 0.2516598 0.019330932 0.07395825 0.28252426 -0.167532 -0.04254833 0.09809479 0.19112355 0.2392942 -0.044903893 -0.1366433 0.0580412 0.13914832 0.104409166 0.02193747 -0.062502645 0.054290604 -0.00075271854 0.030048033 -0.0062285867 0.10690201 0.06853928 0.04407651 0.11312763 0.1904529 0.058886647 -0.083831385 0.21238425 0.10140956 -0.037775606 -0.30914834 -0.028453272 -0.032906797 -0.14465903 0.039601635 0.05343474 -0.021856163 -0.14445758 0.12626301 0.36920628
33 0.0041258764 0.05452782 -0.11278395 -0.112285845 -0.06293064 -0.016255457 -0.11994853 0.00083223695 0.17230068 0.054724533 -0.009952412 -0.03621765 0.12533592 0.16423875 0.024385916 -0.08608888 0.13552119 -0.036015738 0.030467317 0.1791113 -0.01513969 -0.1371018 -0.113979876 0.026772061 -0.034078 0.13849065 -0.10098072 0.14859322 -0.10826579 0.09178837 0.101389796 -0.06679159 0.022347044 0.09179363 -0.15441638 0.034180854 0.07327321 0.13808452 0.17754741 0.025466483 -0.09550958 -0.11969659 0.089710236 -0.04042527 -0.060008604 0.114485025 -0.11816482 -0.04535485 0.06792672 -0.10279905 -0.2539949 -0.08565165 -0.048122752 0.062014643 -0.23424365 0.037982 0.099343404 -0.09474081 -0.009144623 -0.053742073 0.08215428 -0.047404204 -0.09334637 0.04544289 -0.0767719 -0.021301141 0.2791122 -0.116602115 0.024851654 -0.005857381 -0.075909555 0.15867579 -0.16240005 -0.058388237 -0.106888555 0.00174085 0.11337239 0.04214967 -0.120909445 0.08077424 -0.001979678 -0.15645003 0.07490777 0.0056906296 -0.18883403 0.006070641 -0.1293728 -0.033069465 0.04275967 0.092922576 0.14484239 0.03927874 -0.05371448 0.0023402774 0.055826463 0.12652415 0.18121186 -0.02162993 -0.09506284 -0.021504162 -0.028225783 -0.08484879 0.024952512 -0.23282161 0.059264988 0.010107671 -0.13482837 -0.06424154 0.14936498 0.062546484 -0.08894929 0.05982428 0.11076789 -0.029415358 -0.119773746 0.0945186 -0.0030170586 -0.04012428 -0.15230523 -0.07788342 -0.00376687 -0.07967298 0.02967592 0.01014217 -0.09215824 -0.11465662 0.10085437 0.101306334
74 -0.04770518 0.074386485 -0.040756993 -0.21882442 -0.053551853 -0.021788687 -0.04492457 -0.05797478 0.2104474 -0.043220423 0.04233846 -0.09358816 0.15873714 0.11043677 -0.039223872 -0.041618075 0.06968316 -0.15412267 0.14577088 0.10439001 -0.0026103805 -0.03365672 -0.08978064 -0.003483008 0.065092176 0.30003 -0.047465865 0.12743412 -0.038233694 0.13448678 0.16705717 -0.08924676 0.17346923 -0.08498594 -0.24198276 0.036699288 0.21595436 0.35448623 0.19049057 -0.04338852 0.07609596 0.025393598 0.023750063 -0.0574686 0.058336016 -0.1067435 0.000849064 -0.18853089 0.04132352 -0.022390306 -0.21361075 -0.008271148 -0.10484604 0.01571337 -0.1538261 0.22785603 0.08606674 -0.08705783 -0.053927418 -0.13265236 0.03575756 0.19878282 0.24340917 -0.010685651 -0.09515393 0.038117178 0.3655594 -0.10364158 -0.09403357 0.17157137 -0.10990113 0.099856704 0.022543147 0.029048951 -0.12270141 0.0654344 0.046408996 -0.008202515 -0.09607841 0.047568567 -0.0019643155 -0.022280578 0.02474621 0.096015744 -0.25938112 -0.072911166 -0.11286613 0.12643144 0.24256697 0.03500581 0.08655306 0.26885524 -0.16425775 -0.031164074 0.089056276 0.18332334 0.23586114 -0.030431237 -0.14929385 0.07212418 0.118154764 0.08462316 0.030030692 -0.06958235 0.042811256 0.030369958 0.026436884 -0.012702418 0.11259004 0.10217327 0.037967693 0.09270702 0.18954635 0.038054667 -0.06981632 0.22746426 0.0958756 -0.050511602 -0.28711012 -0.050469555 -0.041422162 -0.15515663 0.058031656 0.048378296 -0.019556979 -0.13127393 0.1086727 0.35684803
56 -0.11588454 0.15127431 -0.08988175 -0.13970403 -0.08411593 -0.047611345 -0.070774056 -0.035630625 0.14094399 0.036507122 -0.0026571697 -0.06405436 0.20666908 0.065146476 0.013464724 -0.057053365 0.033768155 -0.06571158 0.091918066 0.13500308 -0.09421078 -0.02331279 -0.055323806 0.016025089 0.019009994 0.19704309 -0.02905318 0.22324893 -0.12009523 0.062479988 0.11826477 -0.09145597 0.027870191 -0.037432164 -0.2495537 0.06624904 0.17800349 0.27485543 0.16702648 0.014444958 0.0479421 -0.0043880907 0.10142295 -0.04878 0.051298127 -0.055317383 -0.07628991 -0.120812595 0.0180951 -0.06773031 -0.21128257 -0.0179525 0.010457011 -0.014651602 -0.2129967 0.1442263 0.12322894 -0.10716929 0.0232181 -0.051509157 0.07544887 0.080044836 0.20954494 -0.036056526 -0.10319974 0.06453474 0.34895355 -0.11954937 0.00339385 0.042346314 -0.019383399 0.13277665 -0.009131056 -0.016099077 -0.071930856 0.06913676 0.10779886 -0.050124917 -0.19809772 0.016473709 -0.009735426 -0.026866328 0.041371413 0.11110891 -0.21283744 -0.071250506 -0.07452909 0.11457202 0.1515596 0.11334597 0.12105777 0.19264245 -0.09360843 0.029590704 0.13595106 0.15431449 0.2294836 -0.033770885 -0.15666498 0.07508709 0.019629534 -0.028768275 0.077138394 -0.17160422 0.034953568 0.08629974 0.037302848 -0.09935192 0.13198578 0.12975682 -0.03942719 0.06813646 0.16303024 -0.056576934 -0.11194669 0.262411 0.06514031 -0.051608738 -0.16106455 -0.06822267 -0.11632605 -0.18965957 0.12357791 -0.0049943277 -0.013025623 -0.15496105 0.114560075 0.2315225
52 -0.14042744 0.25285769 -0.18239486 -0.13046823 -0.12522534 -0.11107404 -0.026028976 0.0052032107 0.09002201 0.073293775 0.049665764 -0.12218398 0.18790047 0.07749697 0.027924173 -0.05472357 0.01898523 -0.039543234 0.05355525 0.19232869 -0.057569765 -0.07943484 -0.031169694 -0.05181978 -0.010294216 0.24794437 -0.07769123 0.19976981 -0.14590777 0.07687525 0.041381042 -0.09761942 0.08990421 -0.08055533 -0.3225689 0.07181346 0.2288844 0.2602896 0.19918475 -0.050760098 0.06000011 -0.09693462 0.16149001 -0.068880044 0.08925342 -0.041985214 -0.11326383 -0.08377552 0.016009783 -0.096723124 -0.2342593 -0.038529433 -0.010646309 0.012869957 -0.25421083 0.094980046 0.042796463 -0.15065637 0.039716378 0.0055521685 0.07830141 -0.0067042 0.1796445 -0.03481791 -0.12950787 0.11385422 0.3758282 -0.119130716 0.050868817 0.003498366 0.04062869 0.1369849 -0.07020819 -0.07467423 -0.17426974 0.008114344 0.17607589 -0.05984473 -0.21191464 0.14613459 0.0131015275 -0.06577212 0.093038484 0.122320674 -0.17287372 -0.055569753 0.013479389 0.0048209345 0.17763408 0.06835923 0.16464037 0.18718368 -0.07340633 0.008320315 0.1300314 0.09361101 0.20113626 -0.04769965 -0.093552634 0.11279616 -0.041014045 0.01915981 0.047933042 -0.19995506 0.009417488 0.039332245 0.058714658 -0.032404274 0.14170162 0.10455992 -0.048436683 0.12472018 0.11823327 -0.02926575 -0.13059917 0.27952978 -0.01406736 -0.0068040094 -0.11865862 0.05064502 -0.13787086 -0.16641508 0.06603594 -0.06389852 -0.031217095 -0.23492503 0.09321459 0.10502525
12 -0.02169861 0.05988669 -0.15515783 -0.09452423 -0.08715965 -0.045754362 -0.16749208 0.007201754 0.09033053 0.07950787 -0.073599465 -0.031115055 0.116721034 0.064760335 0.054912787 -0.0805778 0.060937118 0.0647485 0.005462076 0.17513092 -0.06419472 -0.07999647 -0.08443271 0.07784594 -0.08938101 0.055593252 -0.09681244 0.24324873 -0.15453498 0.028156461 0.18179964 -0.06849441 -0.055253163 0.19613138 -0.15580846 0.026194729 0.0023478048 0.10426597 0.16603735 -0.004870341 -0.13320829 -0.15061244 0.09162659 -0.056450237 -0.083594605 0.15885033 -0.14689095 0.07981684 0.095731616 -0.083581075 -0.22467022 -0.10648896 -0.03822033 -0.0016013162 -0.19596912 -0.05675722 0.17772388 -0.12728782 0.040496744 0.004505218 0.14857455 -0.08914229 -0.12993897 0.047836818 -0.10361884 -0.067787774 0.25173843 -0.06500603 0.081744224 -0.11445426 -0.026398899 0.21907622 -0.20836678 -0.1239081 -0.08047306 0.01181578 0.07266743 -0.039462212 -0.20788267 0.07623758 -0.028274605 -0.19060138 -0.016909188 -0.0025060312 -0.13757083 -0.07450696 -0.126209 -0.059282336 0.017108498 0.18116716 0.20750761 -0.022152899 -0.021908807 0.05123102 0.035848662 0.12542684 0.16174969 0.008889283 -0.14510576 -0.015022513 -0.17098702 -0.14344166 0.06611849 -0.3080759 0.0040351423 0.12706819 -0.18634729 -0.10616677 0.18592612 0.127412 -0.12791972 -0.039299153 0.05619391 -0.07545231 -0.08979916 0.15113585 -0.05905549 -0.045486856 -0.09589722 -0.13242118 -0.02175261 -0.10151422 0.036741856 -0.041988656 -0.07287114 -0.061242472 0.08760436 0.011739369
30 -0.03832201 0.098471455 -0.20627958 -0.10577079 -0.11178564 -0.09399776 -0.17349215 0.020271212 0.057631537 0.087620236 -0.06646515 -0.06329125 0.11582458 0.019643832 0.057240974 -0.07155457 0.022042789 0.097557746 0.0027737666 0.21595556 -0.05265186 -0.08149467 -0.08324484 0.07538825 -0.11649994 0.08252478 -0.11188182 0.26183257 -0.18714102 0.009396987 0.21335411 -0.078666314 -0.029689552 0.21001706 -0.17881735 0.0107040815 -0.0037479051 0.114910565 0.18690671 -0.07600973 -0.11768607 -0.18087403 0.09751318 -0.075808376 -0.061231557 0.16119656 -0.14575869 0.13931774 0.1332101 -0.07519948 -0.23055421 -0.124336764 -0.062438894 -0.011376336 -0.18665579 -0.110346384 0.1729588 -0.16906269 0.05903974 0.035043877 0.17735621 -0.11172322 -0.11865176 0.04044762 -0.13867106 -0.07779483 0.27070558 -0.04237002 0.099125445 -0.14807977 0.012622708 0.24150026 -0.2528615 -0.17302062 -0.12196922 -0.016776035 0.080760375 -0.069520146 -0.24602696 0.15073724 -0.038956072 -0.20657447 -0.048244152 0.0219316 -0.120977536 -0.11870419 -0.10273855 -0.10963795 0.06367263 0.18903694 0.26923656 -0.009134926 -0.020538429 0.064750984 0.017432885 0.117779195 0.16576931 0.003316765 -0.1462942 0.010837863 -0.23384936 -0.13181292 0.08244885 -0.35298318 -0.02398839 0.16316985 -0.1858909 -0.09955089 0.22147277 0.1778656 -0.14751026 -0.05128123 0.03559855 -0.08099384 -0.07782344 0.20390524 -0.09961271 -0.035425894 -0.11017409 -0.11980333 -0.0405395 -0.118821345 0.01461938 -0.08835181 -0.07613949 -0.07601395 0.09091457 -0.017360069
44 0.08748875 0.065153316 -0.16380253 -0.097146206 -0.04404853 -0.011941991 -0.09931645 0.026289832 0.17406267 0.0889783 0.06868049 -0.11649397 0.042384338 0.2362289 -0.014735814 -0.112599455 0.19235033 -0.05108144 -0.052495822 0.26809302 0.046667244 -0.2316114 -0.12244036 0.0036149092 -0.070864685 0.18721154 -0.16478206 0.08220221 -0.09576776 0.14238632 0.07305592 -0.009225375 0.096610986 0.08516069 -0.18382534 -0.03524921 0.094129324 0.118484914 0.24680392 -0.010139723 -0.09919628 -0.20226578 0.069702476 -0.06439812 -0.04820291 0.16529973 -0.13228457 -0.03266569 0.0773505 -0.1382034 -0.29302475 -0.0966278 -0.09111563 0.09919084 -0.26926035 -0.024459172 -0.027761057 -0.13987337 0.011726115 -0.058096275 0.0984861 -0.09468763 -0.22244397 0.03072301 -0.09230069 -0.04327626 0.2828146 -0.12543264 0.060571756 -7.508315e-05 -0.07571932 0.12993596 -0.22751424 -0.08981938 -0.23119074 -0.017877132 0.12190499 0.12896529 -0.072200306 0.2017684 0.017510127 -0.20729095 0.15665029 -0.06006497 -0.1843208 -0.01627702 -0.08131358 -0.15355213 0.08580754 0.039292444 0.19059248 -0.00089766143 -0.0656915 -0.042518996 0.03379628 0.10427632 0.16672991 -0.03602602 -0.015831603 -0.036749583 -0.0578721 -0.05215789 -0.016188761 -0.25973395 0.048457384 -0.059207648 -0.18735756 0.0074475394 0.14407808 -0.016609292 -0.080661125 0.095154986 0.052512188 0.023367217 -0.09513264 0.06248353 -0.06962321 0.0036966759 -0.15239306 0.010426603 0.050192773 -0.0111952005 -0.06434516 0.017079396 -0.11713936 -0.12363779 0.088169895 0.032839507
47 -0.019205917 0.11270441 -0.06534935 -0.26346973 -0.05636011 -0.05286277 0.044169147 -0.0835484 0.25717193 -0.039370477 0.13286589 -0.18783854 0.16741416 0.22055757 -0.099104546 -0.09016227 0.181761 -0.29269043 0.17530647 0.16156502 0.05262783 -0.101433545 -0.14283426 -0.09308134 0.15969925 0.5092599 -0.089244924 0.047725976 0.007909826 0.26141164 0.13339214 -0.095040485 0.37083918 -0.27011195 -0.3788374 0.015534044 0.3915291 0.48908466 0.3234206 -0.022050656 0.17165995 0.020072918 0.024639556 -0.11418669 0.12854017 -0.20748566 0.017408226 -0.41225815 0.0113912355 -0.0520325 -0.29169142 0.014421238 -0.14081186 0.080909304 -0.23422498 0.35691234 -0.030121246 -0.08544094 -0.06736847 -0.23830089 -0.017917452 0.29641324 0.3722882 -0.0230538 -0.12967338 0.09275656 0.45362118 -0.1580762 -0.11263153 0.36816454 -0.14759555 0.066388264 0.071904704 0.0809545 -0.27299067 0.09660227 0.09718805 0.084878 0.013716044 0.10376236 0.011974493 -0.0014641217 0.1675095 0.07814191 -0.32309857 -0.08196778 -0.07699482 0.11430642 0.37341273 -0.0724435 0.036759764 0.3675604 -0.2330651 -0.11070002 0.110628374 0.20437339 0.2548312 -0.1060741 -0.08644921 0.07859711 0.21923772 0.22195168 -0.012847389 0.0061377017 0.07661581 -0.105897315 0.12194717 0.11451277 0.04481313 0.014054943 0.07814928 0.19323283 0.1892743 0.15049654 -0.06202074 0.27460647 0.16236456 -0.037690416 -0.39439163 0.08326647 -0.0072425604 -0.15398219 0.021924222 0.1310091 -0.058534827 -0.22353123 0.12989365 0.5189605
50 -0.08026141 0.16753633 -0.1329992 -0.107131824 -0.104632944 -0.07240905 -0.04230199 0.0136570595 0.12121521 0.064751506 0.012749175 -0.06009343 0.18199408 0.14472172 0.04704799 -0.06620182 0.094387844 -0.06249859 0.06596934 0.1730881 -0.020574685 -0.13957 -0.092192784 -0.053854123 0.00035887287 0.2005505 -0.09818044 0.13942905 -0.12740679 0.09820363 0.021163091 -0.10674588 0.07219034 -0.035817634 -0.23802906 0.08629009 0.17882314 0.19203004 0.17930347 -0.0025374545 -0.010601896 -0.113721766 0.16090277 -0.061066978 0.020932607 0.017785955 -0.12818426 -0.11443847 0.026474921 -0.10649025 -0.25656885 -0.057253543 -0.0162747 0.070990585 -0.2483968 0.10657402 0.056263927 -0.10679726 -0.00614306 -0.051421173 0.04402897 -0.04162561 0.050112423 0.01704221 -0.09847893 0.07762259 0.3311121 -0.13956858 0.031808786 0.015076533 -0.016297076 0.13620396 -0.109309874 -0.0478579 -0.15325761 -0.017548442 0.18751633 0.0148422625 -0.14573364 0.11798246 0.005515555 -0.10317297 0.117223606 0.08002571 -0.16105996 0.04336199 -0.054226894 -0.024269836 0.080775484 0.032643013 0.111106135 0.1120796 -0.041293 -0.0050383173 0.088091835 0.08628664 0.17485766 -0.047711182 -0.059443444 0.032912403 0.0039553368 -0.016733268 0.012474571 -0.1957984 0.058313835 -0.024050275 -0.0018903641 -0.023332654 0.12823217 0.069110624 -0.08155438 0.122102275 0.12445606 -0.031708278 -0.15678966 0.16371147 0.00977326 -0.026676003 -0.13713771 0.012476239 -0.08795601 -0.112641886 0.060003154 -0.016555592 -0.07991701 -0.21942042 0.115900606 0.10337076
1 0.1976468 -0.20446561 0.043086413 -0.11584733 0.011432862 0.20202188 -0.25907734 -0.049464345 0.44644716 0.07142155 -0.052775305 0.09947004 0.14021361 0.45249113 0.01768547 -0.19847776 0.43744934 -0.18666853 -0.0026107524 0.18088509 -0.016066065 -0.2407504 -0.2586004 0.119433545 0.028265465 0.04355012 -0.127685 0.11316413 -0.051874444 0.20140637 0.11029488 -0.02900049 -0.058203697 0.22565535 -0.021074645 0.044766422 -0.007426639 0.083467565 0.22800106 0.327723 -0.28864467 -0.0846804 0.04247735 0.049828663 -0.28902563 0.29391387 -0.16845366 -0.24245703 0.066258736 -0.1890414 -0.38898915 -0.11486211 -0.015039537 0.18061271 -0.37950507 0.16395584 0.17478904 0.024763621 -0.08737193 -0.22610272 0.05542511 -0.043803234 -0.36652344 0.12606798 0.024085399 -0.1293489 0.30869067 -0.2576673 -0.04783912 0.1319166 -0.3373229 0.15874568 -0.17943968 0.07859909 0.005216308 0.09479284 0.08836388 0.24427693 0.025692532 -0.13463901 0.021137582 -0.28018746 0.21007247 -0.16037014 -0.3886385 0.13725965 -0.4035741 0.034003697 -0.154253 0.15549485 0.009058212 -0.08408337 -0.072748125 -0.061667588 0.058095906 0.26622376 0.26286405 -0.007706286 -0.12859195 -0.249238 0.18380715 -0.2476697 -0.024629476 -0.2697271 0.22495137 -0.13034394 -0.36336666 -0.14024867 0.13464469 -0.102164276 -0.14286073 0.07561125 0.22191578 -0.035313502 -0.19283529 -0.16623321 0.10941815 -0.11644404 -0.24839905 -0.2468195 0.16135718 -0.020326871 0.064774334 0.22925067 -0.1970677 -0.023264445 0.15319142 0.3123078
4 0.23218705 -0.22607036 0.04413657 -0.11571238 0.017762834 0.2348705 -0.29982054 -0.045697592 0.49839926 0.085167475 -0.049295884 0.11317952 0.14935055 0.516247 0.02206985 -0.23110037 0.5027443 -0.2019821 -0.02379458 0.22166395 -0.015930513 -0.2874115 -0.28515315 0.13638665 0.019401362 0.029874885 -0.14324565 0.12056478 -0.05704198 0.22446917 0.106300816 -0.018145096 -0.079072386 0.27023542 -0.013599799 0.042089686 -0.024104977 0.06350109 0.25244927 0.37515348 -0.32841918 -0.1076644 0.050382506 0.06119501 -0.3359218 0.35032806 -0.20055048 -0.25254312 0.06786447 -0.22140548 -0.43705842 -0.13532229 -0.005316371 0.20973387 -0.43951386 0.16578533 0.17686732 0.020053621 -0.08577566 -0.23834234 0.06852146 -0.077782854 -0.45090917 0.13744809 0.026098795 -0.14813071 0.33177775 -0.28698668 -0.03399129 0.1218622 -0.37343618 0.17365985 -0.21279082 0.077120036 0.008932147 0.109455965 0.10179426 0.28706166 0.024036441 -0.1360596 0.03412105 -0.32068825 0.24890426 -0.19247855 -0.43438 0.1529114 -0.44667122 0.01950801 -0.18730927 0.18581134 0.015354021 -0.116960905 -0.072214045 -0.0658771 0.068653375 0.2948001 0.28759232 -2.5064706e-05 -0.13022105 -0.2867082 0.19357893 -0.29586744 -0.031078102 -0.30996582 0.24775231 -0.14975901 -0.4278294 -0.16471437 0.14659394 -0.13190426 -0.16744214 0.09080688 0.23398113 -0.0459794 -0.21682005 -0.19759409 0.104644075 -0.12356779 -0.2503777 -0.27241316 0.18405417 -0.0063053947 0.06298887 0.25255036 -0.21837512 -0.019936979 0.1727586 0.31229687
7 0.22879359 -0.18282713 0.008380742 -0.09678006 0.014810009 0.20194907 -0.23944546 -0.027541798 0.4431077 0.09576369 -0.00457592 0.064339615 0.09894862 0.49316838 0.00049171003 -0.20906758 0.47205243 -0.19350089 -0.043378364 0.23225607 0.0076877265 -0.29568553 -0.25451037 0.106450364 0.009787864 0.06893971 -0.14939237 0.071537994 -0.043778807 0.23066479 0.069908656 0.002972586 -0.037569746 0.21722683 -0.036728527 0.01457043 -0.005719917 0.05136613 0.2527359 0.31875637 -0.2843338 -0.126642 0.049716886 0.041808907 -0.2828569 0.31929526 -0.17991738 -0.2356181 0.05714052 -0.20829377 -0.40059233 -0.122119635 -0.020969316 0.20493911 -0.403813 0.13223505 0.09900983 0.0009923774 -0.07239732 -0.21642862 0.056650702 -0.089066364 -0.42501622 0.11273586 0.013992695 -0.123511344 0.30181143 -0.2683067 -0.017010657 0.11561838 -0.32742167 0.13745447 -0.2094961 0.061267853 -0.048237 0.089177966 0.104197286 0.2843465 0.04862187 -0.0715353 0.042832065 -0.30263737 0.26573932 -0.1968652 -0.38366207 0.13429302 -0.36527714 -0.017602984 -0.14040925 0.13273704 0.027366009 -0.11000201 -0.061883476 -0.0713817 0.050798066 0.24979827 0.24541889 -0.016490865 -0.083609514 -0.25832233 0.16423962 -0.23326266 -0.04605492 -0.27962962 0.22343986 -0.17221712 -0.3827434 -0.100413166 0.12888126 -0.15284722 -0.14212747 0.10180103 0.18585195 -0.019550642 -0.18139978 -0.1883878 0.06884587 -0.0856281 -0.2311984 -0.18928826 0.18501729 0.025168614 0.020328626 0.21994166 -0.20924252 -0.034652695 0.15839869 0.259717
5 0.23560168 -0.18851103 0.015062242 -0.10897653 0.017083528 0.20825292 -0.25291848 -0.03347747 0.47299457 0.09092501 -0.007592682 0.07029042 0.12158978 0.5232897 0.008607144 -0.22324026 0.49884504 -0.21111235 -0.0380873 0.24279596 0.009491762 -0.31411424 -0.27003035 0.103948966 0.011554836 0.07164106 -0.152755 0.07510688 -0.049612295 0.23893745 0.07546885 -0.011507814 -0.034505423 0.22364959 -0.04199554 0.02347287 0.0018911818 0.053238574 0.26574722 0.3393716 -0.30012387 -0.12837914 0.05303572 0.045527052 -0.30254403 0.34066683 -0.1925221 -0.25537777 0.06560806 -0.21375212 -0.4309024 -0.13226818 -0.022200748 0.22281824 -0.4291081 0.14831659 0.11828991 0.0044686645 -0.08035406 -0.2304207 0.053137865 -0.092352904 -0.44496992 0.11931139 0.010156741 -0.12728544 0.31938154 -0.2871093 -0.03110277 0.126285 -0.34825635 0.14566475 -0.2231371 0.06567851 -0.045948863 0.08730456 0.11739778 0.3038403 0.044124793 -0.07542302 0.050205804 -0.32222643 0.2809955 -0.19736326 -0.41464674 0.15701523 -0.3941172 -0.0172282 -0.14683206 0.13711922 0.030352186 -0.10989236 -0.070058145 -0.0785697 0.05484675 0.27021232 0.2650538 -0.011802666 -0.094079874 -0.27267304 0.18053095 -0.24793091 -0.045340873 -0.2914889 0.23751159 -0.17948541 -0.40471092 -0.11473193 0.14031826 -0.15813878 -0.15171579 0.110220745 0.21006577 -0.019238787 -0.20715895 -0.19470842 0.07798623 -0.08846183 -0.24367186 -0.19954798 0.18786545 0.021753885 0.0203093 0.23358221 -0.22071035 -0.046246495 0.16802682 0.2752385
8 0.21610633 -0.19755594 0.009984973 -0.09746121 0.009118917 0.19275367 -0.27587518 -0.031831007 0.43131292 0.091516234 -0.04989436 0.088422015 0.12211526 0.46443924 0.02552763 -0.21171273 0.44646308 -0.15413581 -0.034573685 0.21631855 -0.012166505 -0.27633077 -0.26140994 0.12571481 -0.00936527 0.023970501 -0.14814487 0.1204089 -0.06627179 0.19639885 0.107995935 -0.018019687 -0.08032025 0.27514243 -0.021724572 0.03151421 -0.043369047 0.030186307 0.23925689 0.3160928 -0.31421673 -0.13380903 0.05295713 0.04388111 -0.31453887 0.3468287 -0.19495478 -0.1944397 0.07272316 -0.20103933 -0.40868628 -0.14330456 -0.015306716 0.19606113 -0.3994154 0.10460487 0.16371807 0.0028573321 -0.07187689 -0.20282713 0.07668312 -0.10793923 -0.45338744 0.13014054 0.015757952 -0.1422816 0.29799822 -0.24982907 -0.00988448 0.074248485 -0.3192387 0.1722394 -0.2335024 0.045735013 -0.021634053 0.08199447 0.10280889 0.25144044 0.014427309 -0.09159798 0.02892606 -0.32665965 0.2256947 -0.18777643 -0.37601513 0.13719697 -0.3978572 -0.020281121 -0.17762983 0.16951832 0.045722898 -0.13643403 -0.0427894 -0.052356035 0.04117887 0.25671297 0.2548918 -0.0022835068 -0.1110491 -0.2659347 0.12364334 -0.27732158 -0.027037773 -0.31368124 0.21434456 -0.12548803 -0.41170028 -0.13517085 0.1497209 -0.1136992 -0.16492625 0.06684477 0.18245064 -0.04169344 -0.19326785 -0.18363814 0.058470864 -0.10091378 -0.21255551 -0.23702775 0.17471604 0.00878276 0.0385887 0.20466745 -0.2083513 -0.022387756 0.14848277 0.23360947
14 0.064461194 0.02421795 -0.09481654 -0.097910784 -0.043291148 0.026632639 -0.10925798 -0.0058680563 0.20682758 0.070941195 0.030567404 -0.059130177 0.082660355 0.22579645 -0.004433708 -0.11514544 0.20098557 -0.08160655 -0.010603671 0.20295784 0.00025736517 -0.17023273 -0.11948354 0.031513628 -0.018326718 0.14891066 -0.10803136 0.10520787 -0.08088845 0.13352384 0.09667196 -0.028744157 0.040179178 0.08474312 -0.15714091 -0.0031043766 0.077346735 0.12590158 0.21733865 0.06799592 -0.095932834 -0.11467667 0.0574647 -0.03856581 -0.08298003 0.1367113 -0.11200757 -0.09445126 0.055326853 -0.118110605 -0.26950416 -0.07613677 -0.04666896 0.08402997 -0.2553517 0.050719637 0.051569074 -0.08763472 -0.0011442024 -0.08431827 0.079122655 -0.033234205 -0.13772868 0.027579134 -0.06627003 -0.032102454 0.2738336 -0.14366855 0.021394841 0.033632703 -0.11266689 0.117804855 -0.15274239 -0.033577938 -0.12943426 0.033991657 0.090761535 0.09669356 -0.07297568 0.08207079 0.019180726 -0.17320815 0.13170658 -0.048684556 -0.22071375 -0.01019139 -0.13535391 -0.042848736 0.054535322 0.08815565 0.12504402 0.018265566 -0.06565883 -0.01923832 0.053643145 0.15153874 0.1754312 -0.023766363 -0.07900935 -0.057621103 0.0056659123 -0.07865852 0.004305569 -0.22161871 0.076160766 -0.03041111 -0.16901416 -0.042130634 0.1291311 -0.012883779 -0.0751289 0.066574275 0.09568883 -0.003291981 -0.100958794 0.056362215 -0.005141081 -0.024156023 -0.16618724 -0.058806043 0.04332529 -0.046098 -0.0017409778 0.05528498 -0.10629576 -0.08412843 0.10341803 0.13458817
