77 128
11 0.04877937 0.008321825 -0.010222931 -0.07987112 -0.054651618 0.029820781 0.025327845 0.08617462 0.055391446 0.0074711875 -0.039608732 -0.01125776 0.05330082 -0.18219244 0.014136953 -0.05949438 -0.012994551 0.14714827 0.038933326 0.050669935 -0.02461087 0.07669052 -0.23613517 -0.061206125 0.074827634 -0.024816418 0.026122086 0.16832462 -0.15548225 0.029784242 -0.19343834 -0.14629835 -0.12007391 -0.16186775 -0.06033116 -0.0339162 0.016632797 -0.24404603 0.08605756 -0.025916226 0.093181126 -0.16711995 0.034829266 -0.12706879 -0.14143474 -0.017492542 0.050026495 -0.043865625 -0.22315624 -0.073807456 -0.094939515 0.10138879 -0.035999995 0.09089259 -0.035308037 0.057725795 0.01534637 -0.13412446 0.084100135 0.0070154737 -0.062838666 -0.05867393 -0.00958414 0.092799746 -0.0007956192 -0.05247105 -0.0313485 -0.09031932 0.005040869 -0.17055996 -0.24180984 0.09107792 -0.03492941 0.04209581 -0.10984879 -0.055060472 0.10227975 -0.110658586 -0.066871144 0.018755041 -0.12224936 0.12599564 0.17112316 -0.011613352 0.2256672 0.0556437 -0.14052945 0.100420825 -0.111725494 -0.13873106 0.0063217785 0.04015989 0.042440265 -0.0035700735 0.12420446 0.2004428 0.014514661 -0.015513929 -0.20670052 -0.07166173 -0.13757572 -0.044773888 -0.082807474 0.12005329 0.0626359 -0.03922999 0.040003166 0.037162956 -0.04094833 -0.057336383 -0.06217164 0.1563135 -0.073342524 -0.25933766 0.31940213 0.009017923 -0.10905581 -0.09412506 -0.119751774 0.12041374 0.06750961 -0.020679124 -0.14138173 0.1068261 0.018700065 0.00989894 0.090851694 -0.0017605069
48 -0.1815497 -0.03257183 -0.0051243957 -0.098162554 -0.059611488 -0.10740131 -0.079946816 0.06409172 -0.037481062 0.06997217 -0.066456564 -0.06300776 -0.052595552 -0.014497641 0.17432407 -0.13792695 -0.19657062 0.14175268 -0.13392483 0.035295118 0.1138102 -0.016076514 -0.1684768 -0.06934533 0.07159248 0.08544055 -0.098531395 0.094621286 -0.22288218 0.031675614 -0.36881536 -0.07745392 0.013114323 -0.22130679 -0.07358409 -0.05470312 0.046189938 -0.33582366 0.07077844 0.18933533 0.032646824 -0.17481492 -0.06418711 0.08410388 -0.22724672 0.086325 0.040043168 -0.02426037 0.05940279 -0.12203159 -0.06934707 -0.040970527 -0.034052525 0.27472615 0.10115348 -0.08129016 0.18911551 0.006657903 0.13922173 -0.084519625 -0.014199803 -0.09266043 -0.0005532477 0.16469516 -0.04462586 -0.0044032945 -0.028291827 -0.1301265 0.15620354 -0.16831261 -0.18977669 0.12659222 0.050092403 -0.07044913 -0.06527332 -0.008556556 0.11230292 -0.043398578 0.064904206 0.023384504 -0.07875522 0.22699074 -0.016262693 -0.117383204 0.3236492 -0.062788524 -0.17933999 0.107267834 -0.34978816 0.07199415 0.14267696 0.09757366 0.046833374 0.004405415 0.06546125 0.24555857 0.032231383 0.15240118 -0.29526007 -0.02444686 -0.103200324 -0.1262068 -0.08508384 0.27281764 0.18021515 0.0740443 -0.034488585 -0.03747839 0.11245313 -0.2008987 -0.029560879 0.12218229 0.11382829 -0.17016807 0.1798471 -0.08164372 -0.095363826 -0.117360204 0.12595952 0.08723945 0.137493 -0.06620157 -0.2574204 0.1006387 -0.1771969 -0.061479777 -0.06416756 0.024971608
55 -0.16942778 -0.040437166 -0.10078344 -0.07660741 -0.07211955 -0.10320393 -0.009025322 0.07589394 -0.06142055 0.0117900865 -0.099162504 -0.04502147 0.07111813 0.034872286 0.058389828 -0.12225803 -0.13132092 0.12539577 -0.1327928 0.048739117 0.048202097 -0.068439476 -0.14802879 -0.1010465 0.0147339655 0.089316405 -0.121768184 0.046622448 -0.26533315 -0.035176016 -0.23192532 -0.031421162 -0.06178654 -0.2058742 -0.08145337 -0.0030034992 0.047678452 -0.2837463 0.03233441 0.15894352 0.08394406 -0.099807516 -0.06806136 0.017649382 -0.22699243 0.10490938 0.06560028 0.025978249 -0.00420687 -0.0581935 -0.07052097 0.062033836 -0.14696524 0.2168282 0.04583831 -0.0010323265 0.15675215 -0.038942862 0.077293776 -0.11451215 0.025043182 -0.07020075 -0.029847644 0.182037 -0.006741804 0.02796186 -0.09756 -0.026462365 0.042207308 -0.1191039 -0.17964666 0.094409406 -0.06575742 -0.0056049787 0.016615426 -0.028287483 0.056250457 -0.05365459 -0.010204011 0.012408327 -0.027809318 0.20052943 0.121825546 -0.16580677 0.3481275 -0.028176991 -0.17357023 0.09932849 -0.23653117 0.022252806 0.048422776 0.107279755 0.08932466 0.017154735 0.088128574 0.28262118 0.0025431733 0.1498281 -0.21826954 0.00087043206 -0.095245615 -0.1423078 -0.077494614 0.254739 -0.0061655943 0.09236708 0.055876657 -0.06008445 0.050517604 -0.22675121 -0.02249234 0.09937111 0.07716179 -0.1105467 0.12534583 -0.033812307 -0.060144443 -0.102833696 0.1665444 -0.03553332 0.14026435 -0.033241197 -0.17366266 0.12086793 -0.17908148 -0.028679403 -0.0027177182 0.017831953
27 0.034305185 0.01151287 -0.0038578901 -0.17133398 -0.07928311 0.022209428 -0.100882754 0.20114562 0.08548337 0.053712368 -0.032905817 -0.063183725 -0.0067441715 -0.17199525 0.039744206 -0.15637483 -0.10099852 0.14450434 0.063877605 0.042597223 -0.002743078 0.17703047 -0.19293226 -0.07133368 0.10163719 0.02442519 0.014847639 0.11927888 -0.17604366 0.021998787 -0.22509032 -0.09537274 -0.11722084 -0.20579696 -0.11217287 -0.035686787 -0.021810934 -0.3902478 0.17226765 -0.0038723685 0.08272217 -0.21838962 0.042635407 -0.17856921 -0.14757292 -0.007208835 0.059496332 -0.066243336 -0.1614485 -0.06988515 -0.11340719 0.06869223 0.032197602 0.06852633 0.04086538 0.06292602 -0.004970985 -0.09573684 0.12651113 0.015566682 -0.00879982 0.018469702 -0.062600665 0.11810185 -0.104338266 -0.08010906 -0.03201976 -0.1139559 0.16325614 -0.14086378 -0.2652702 0.17242198 0.001984697 -0.028352927 -0.032106858 -0.050728127 0.063425116 -0.07250526 -0.09750936 0.018574758 -0.06576048 0.17359143 0.11211011 0.0019538314 0.17152058 0.011631371 -0.1229303 0.122291125 -0.15936421 -0.10410657 0.1659999 0.046835914 0.08793909 0.0707985 0.21619573 0.2673842 0.045013275 0.0014038647 -0.33471766 0.0014890602 -0.15558647 -0.014120197 -0.08359739 0.26096123 0.12638298 -0.065191664 -0.001411638 0.11384916 0.013076014 -0.006624088 0.025094481 0.16335571 0.008816233 -0.17683542 0.33578438 -0.08135472 -0.15320987 -0.15369827 -0.10187484 0.17404206 0.12247579 -0.042884815 -0.1469186 0.10976116 0.010232367 -0.033766434 0.03652956 0.0012170525
25 -0.10467827 -0.012987534 -0.10324358 -0.16734761 -0.06146443 -0.011314727 -0.15140828 0.15501967 0.14512894 0.12008453 -0.0532852 -0.13753743 -0.12033162 -0.11901323 0.029399393 -0.19868332 -0.17527571 0.17777614 0.023207951 0.06955671 0.07827571 0.184382 -0.11330595 -0.16405591 0.050556477 0.04062067 -0.063580774 0.14794505 -0.1779374 0.025232706 -0.3113723 0.008722403 -0.05035534 -0.2602056 -0.10679196 0.06366404 0.05640078 -0.3714709 0.18084787 0.067351885 0.09684596 -0.12676536 0.07714984 -0.028456673 -0.28310508 0.12331291 -0.06231333 -0.040083256 0.040831756 -0.10063238 -0.060562246 -0.0073764166 -0.067394465 0.14734033 -0.0011538642 0.11474529 0.05941216 -0.13867062 0.08320472 0.022110537 -0.006814658 -0.001996477 -0.08999967 0.21872902 -0.120554864 0.06459246 -0.10812586 -0.12877026 0.17929718 -0.03976511 -0.13515574 0.18605466 0.0005475413 -0.078048825 0.11723978 0.0067199403 -0.054851104 -0.03169598 -0.09912466 0.02742591 0.0662214 0.12559387 0.052554425 -0.21244088 0.25782153 -0.06038178 -0.21370098 0.0037548866 -0.27252945 0.008842357 0.24453054 0.07314466 0.24807969 0.25717127 0.16566987 0.18706104 0.18985301 -0.0004204013 -0.35651046 0.087750845 -0.074650995 0.011979648 0.052290108 0.25455147 0.15146764 0.008464225 0.073762454 0.2062829 0.0108298035 -0.07752968 0.12926513 0.114543825 0.051077824 -0.073903374 0.29191822 -0.12973323 -0.12953229 -0.33538258 0.13648437 0.043991253 0.21216056 -0.009535846 -0.22204375 0.12347011 -0.09698712 -0.1585215 0.054138366 0.008160223
58 -0.21537963 -0.036212213 -0.04693849 -0.097279444 -0.051445387 -0.14038286 -0.031119183 0.05541183 -0.057465658 0.034899782 -0.12618098 -0.08246225 -0.008368788 0.057267368 0.11629956 -0.12648995 -0.2087109 0.15075703 -0.21251915 0.06525682 0.119255655 -0.099084266 -0.16225566 -0.10818768 0.032778047 0.09838975 -0.12867601 0.08973647 -0.27813783 0.013630726 -0.35812324 -0.048834965 -0.0014485884 -0.23524864 -0.066537604 -0.017560162 0.06681547 -0.30655485 0.056603316 0.22154197 0.061132442 -0.13917533 -0.07256098 0.07263022 -0.26837793 0.1294361 0.055042636 -0.02785275 0.08928878 -0.101119116 -0.04264039 0.0031766156 -0.10818554 0.30674434 0.040587515 -0.05154639 0.20455584 0.0063622366 0.09518856 -0.101597786 0.022688238 -0.11490526 -0.023056699 0.20279545 -0.012413273 0.035748117 -0.06561262 -0.08335356 0.10721869 -0.13134418 -0.16683827 0.1159546 -0.019394271 -0.032997694 0.015081054 -0.016806204 0.08411165 -0.04449205 0.0386587 0.015267325 -0.051432595 0.23027822 0.03359979 -0.18310358 0.38136098 -0.08754957 -0.2042895 0.09939012 -0.33708203 0.086008996 0.08048962 0.121322066 0.09140988 0.011740618 0.05288695 0.25511056 0.024977181 0.16154009 -0.27644646 -0.004944517 -0.107824944 -0.17692386 -0.0702778 0.28345898 0.08914777 0.08675384 0.07047816 -0.07091421 0.14492555 -0.27888376 -0.038223263 0.11268771 0.13132292 -0.11992589 0.109564915 -0.08348898 -0.07219106 -0.13773875 0.24968393 0.0034734588 0.14827609 -0.04729096 -0.24764825 0.097290345 -0.22572494 -0.047415245 -0.068977535 0.047182605
64 -0.23400907 -0.038218938 -0.01788177 -0.073820405 -0.07468715 -0.14562263 -0.016994348 0.00774156 -0.10313556 0.05303463 -0.08917376 -0.045576703 -0.013334413 0.057488903 0.17900805 -0.10538675 -0.1911437 0.14397845 -0.22390676 0.038694277 0.13757801 -0.10648763 -0.18076839 -0.0686473 0.05063405 0.10658135 -0.11278678 0.09938845 -0.25636688 0.02608248 -0.38150316 -0.0838986 0.029868184 -0.21856923 -0.048758335 -0.064089686 0.068760484 -0.30524194 -0.014945358 0.22267973 0.03481697 -0.15736908 -0.0996289 0.1552362 -0.25364104 0.112146504 0.05238634 -0.0010106929 0.09565287 -0.1281008 -0.056080766 -0.014422782 -0.07325746 0.35133246 0.081006266 -0.10486984 0.24501793 0.030747859 0.13728642 -0.12867595 -0.033369325 -0.14681399 0.011571873 0.16251196 0.006944315 0.021536296 -0.043362048 -0.12692814 0.109472476 -0.18631443 -0.1751388 0.09243881 0.008655884 -0.05026414 -0.09491117 -0.013635207 0.12908709 -0.081479125 0.1042283 0.018040182 -0.11397693 0.24369258 0.006979433 -0.1816418 0.39272296 -0.06459864 -0.19669159 0.116724275 -0.391432 0.09536116 0.07790267 0.11285055 0.018796684 -0.053334713 0.007180039 0.24949306 0.0017884654 0.19304472 -0.26192302 -0.057058815 -0.09751535 -0.19405511 -0.10724736 0.24720286 0.13505681 0.13821469 0.004452129 -0.10716409 0.14834654 -0.28900763 -0.08330523 0.11361893 0.12872925 -0.1904556 0.11378315 -0.054313384 -0.071952775 -0.09659303 0.20961486 0.033576943 0.13395943 -0.08079287 -0.28689632 0.09415367 -0.23728895 -0.063283056 -0.08402691 0.028653432
23 -0.049064804 -0.01184014 -0.1485763 -0.04128909 -0.20323339 0.05766013 -0.07939982 0.16861422 -0.06133315 0.13625333 0.13255711 0.14078268 0.18727916 -0.105343364 0.05330644 -0.18496466 0.09264136 0.117337264 0.17465806 -0.08511515 -0.094741374 0.2530645 -0.198761 -0.0021961788 0.08467425 0.09357663 -0.026876697 0.002998338 -0.166983 -0.15407743 -0.032352418 -0.11095872 -0.18770441 -0.13394909 -0.1192943 -0.04249331 -0.08081979 -0.402167 -0.09809727 -0.12816128 0.06488825 -0.11382608 -0.035690363 -0.008997595 -0.14812897 -0.026620856 0.039883077 0.21662404 -0.2922812 -0.030258283 -0.20875025 0.14493375 -0.06728156 0.016891005 0.24552879 0.07842955 0.08039661 -0.14009197 0.18679282 -0.1344105 -0.08383799 0.047849383 0.01716045 0.043696314 -0.09522289 -0.073502086 -0.15874161 -0.073555924 0.02390408 -0.2144185 -0.2612276 0.0810433 -0.03869128 -0.06739085 -0.20006378 -0.022831632 0.027091246 -0.23007151 -0.09586386 0.022743301 -0.085834585 0.19523458 0.30098033 -0.1385298 0.23290539 0.20326535 -0.09475248 0.1463625 -0.16520314 -0.13259703 0.15547106 0.05987634 -0.01634161 0.0033826432 0.19787338 0.36686966 -0.038974736 0.10835105 -0.16777189 -0.02945968 -0.054357454 0.0050026863 -0.14418732 0.18249957 0.0032998682 0.19722754 -0.18894789 0.03069844 -0.16552061 -0.0124905845 0.057447523 0.10632555 -0.05540786 -0.2894658 0.33803353 0.0906306 -0.1156286 -0.064398505 -0.24110979 0.033242356 0.1469686 -0.07573007 -0.092267275 0.1529185 -0.016913816 -0.096364416 0.10052926 -0.1381898
62 -0.21489508 -0.03743645 -0.027965393 -0.08537383 -0.037955422 -0.13708809 -0.011406942 0.0147642465 -0.051800337 0.023911327 -0.1394716 -0.090602495 -0.026774976 0.028085597 0.13897549 -0.10210578 -0.20763302 0.15401196 -0.21783605 0.075145334 0.13456316 -0.11925389 -0.17667219 -0.10125463 0.033148687 0.07781452 -0.120305985 0.1205749 -0.26628053 0.04417011 -0.3876974 -0.07277022 0.017001301 -0.24034795 -0.05182618 -0.032703742 0.08495723 -0.2766582 0.04821062 0.23294264 0.059320595 -0.15340914 -0.07189817 0.09719764 -0.26412478 0.12507182 0.04886819 -0.045766253 0.10013809 -0.12265692 -0.027974645 -0.008591814 -0.09114357 0.3292778 0.009646742 -0.07786581 0.20968309 0.014397316 0.0970212 -0.09446386 -0.010324245 -0.13262165 -0.009918744 0.18646738 0.018211776 0.034873694 -0.042080145 -0.10985497 0.092468075 -0.15292995 -0.16447969 0.105679974 -0.013467706 -0.026962215 -0.024562897 -0.018052317 0.11291332 -0.043138698 0.07031629 0.014872005 -0.07757504 0.21209367 0.0023268391 -0.16198075 0.38222888 -0.08936861 -0.20573072 0.08963918 -0.34715757 0.08694131 0.055597432 0.10595404 0.06614737 -0.0077414773 0.029621337 0.2244876 0.031785905 0.15202169 -0.26206806 -0.02832843 -0.114450835 -0.18391639 -0.07767972 0.24535581 0.12049169 0.0794318 0.06476514 -0.078760445 0.1444348 -0.28163692 -0.0770345 0.11891435 0.11207605 -0.1597888 0.1157393 -0.07757316 -0.07583874 -0.12854357 0.24520724 0.03122429 0.13700691 -0.04850181 -0.27717063 0.10545502 -0.22636445 -0.04165991 -0.056270406 0.06672293
63 -0.25068462 -0.049508188 -0.020973802 -0.071196444 -0.06906876 -0.1654308 -0.0012290148 0.0051261396 -0.13255385 0.029594945 -0.12450736 -0.052718297 0.02395706 0.08600583 0.16659407 -0.107825436 -0.19584107 0.13581447 -0.26270643 0.04658665 0.1277262 -0.1622443 -0.18026453 -0.0777247 0.036102448 0.11252033 -0.13310097 0.081390314 -0.28879938 0.01574747 -0.37214178 -0.082323395 0.024982188 -0.21606557 -0.052204274 -0.062101655 0.07234921 -0.29174295 -0.014846317 0.2500738 0.04274462 -0.15536247 -0.11453758 0.14119236 -0.2508148 0.12833014 0.076019205 -0.009353837 0.09149057 -0.112776615 -0.042943444 -0.007907141 -0.099626295 0.35944805 0.07515459 -0.11626055 0.25212228 0.045941614 0.12404923 -0.14989224 0.00096917886 -0.15139829 0.013610794 0.1718012 0.023219313 0.020541027 -0.045620717 -0.09358853 0.086015105 -0.19039254 -0.17639844 0.08724994 -0.011654318 -0.030398684 -0.07568072 -0.020967463 0.13992986 -0.06584453 0.10182992 0.01156939 -0.11294331 0.25588492 0.018363273 -0.17561378 0.40814382 -0.08018277 -0.19758375 0.12869306 -0.37007794 0.10692836 0.044187143 0.120467104 0.0077085188 -0.08209637 0.0031859064 0.26227 -0.030672247 0.21036349 -0.2487636 -0.05661417 -0.10126441 -0.21677911 -0.11026552 0.26469997 0.08979518 0.13557412 0.028202524 -0.14186727 0.16864845 -0.3195465 -0.09647012 0.11080362 0.13824491 -0.15664361 0.06853201 -0.060986865 -0.05810667 -0.06505157 0.24236356 0.018187795 0.12055057 -0.070572294 -0.261082 0.08725082 -0.24993047 -0.026490526 -0.10737624 0.050016955
65 -0.26123607 -0.048649512 -0.024302715 -0.07195944 -0.07204426 -0.16274928 -0.03482161 0.020709235 -0.119897686 0.046818707 -0.10333365 -0.054628845 -0.0029410694 0.086460166 0.18982965 -0.123685576 -0.21226339 0.12583116 -0.23651597 0.039566886 0.13199337 -0.13009576 -0.16318357 -0.070077114 0.04431176 0.12289615 -0.13911587 0.06592869 -0.28130972 0.008727257 -0.3770898 -0.07229315 0.033819403 -0.22694744 -0.06319634 -0.062622875 0.064774655 -0.31244546 -0.002981346 0.2528258 0.033575412 -0.15498301 -0.1240521 0.15076208 -0.2489523 0.1237332 0.070103616 0.00391759 0.11611288 -0.11269678 -0.05208544 -0.02584686 -0.08077573 0.3456756 0.106069826 -0.12579224 0.24936421 0.052450404 0.1350648 -0.14884725 0.0041731386 -0.13196883 0.009238165 0.17122228 0.0021966442 0.021938551 -0.043749925 -0.10673125 0.1162281 -0.18332905 -0.17481802 0.0991928 0.011817518 -0.056094013 -0.07012305 -0.009916052 0.13072483 -0.051833235 0.10158275 0.0173265 -0.090353645 0.26210967 -0.0029070848 -0.17440599 0.3941033 -0.076801464 -0.1925797 0.12091098 -0.38715932 0.12339142 0.085127965 0.12666844 0.021634873 -0.05496726 0.018734219 0.27069145 -0.020532688 0.21833281 -0.27015787 -0.038650386 -0.103928745 -0.20223568 -0.114267014 0.28726664 0.12634043 0.14169039 -0.0061772503 -0.13017435 0.1585887 -0.3084438 -0.07642436 0.11642894 0.1540107 -0.15982439 0.08637997 -0.06943526 -0.07072816 -0.07414523 0.22508171 0.02190001 0.13257769 -0.070288345 -0.2736324 0.09841909 -0.25620934 -0.0495974 -0.1055193 0.046587218
0 -0.0043577556 -0.06003917 -0.116623275 0.19583394 0.002654125 0.10294882 0.34199882 -0.25390187 0.11937426 -0.04806148 -0.07125429 0.048635457 0.06034921 -0.31958568 -0.0012390008 0.18247166 0.18400052 0.24994601 0.034143705 0.10835077 -0.020608358 -0.0829353 -0.3754097 -0.054926734 0.013513289 -0.13829382 0.023816975 0.36586672 -0.087128885 0.09526622 -0.24362408 -0.25470033 -0.14716694 -0.18958811 0.04815297 0.027516063 0.18018286 0.06449632 -0.14413114 -0.05490964 0.17948115 -0.06558523 0.115738794 0.16395669 -0.32100853 0.006279465 -0.08726686 0.028564328 -0.2689399 -0.17588119 -0.022608176 0.16961567 -0.2901333 0.2604099 -0.27456304 0.10638612 0.14422515 -0.33891118 -0.0048795883 -0.015891667 -0.335922 -0.26256803 0.1140297 0.102256455 0.28432205 0.09862819 -0.08040132 -0.1311541 -0.37957516 -0.31015012 -0.1775835 -0.056814335 -0.16765933 0.15276189 -0.29503796 -0.077361315 0.1494084 -0.2812154 -0.039086696 0.084874965 -0.17488785 -0.019932644 0.35198563 -0.21767196 0.48818448 0.18559775 -0.30649877 -0.0030835145 -0.14273083 -0.2060123 -0.30142182 0.03865556 0.10124546 0.027656456 -0.078060865 0.099277385 0.13327838 -0.102775626 0.04931356 -0.18860671 -0.068340726 -0.10475759 -0.056845523 -0.22259942 -0.012025132 0.09899045 0.20350803 -0.011736868 -0.24376285 -0.27372062 -0.23158288 0.17980985 -0.2950142 -0.6595378 0.49512386 0.20621598 -0.047341906 -0.21156134 -0.031085793 -0.0633031 0.08148667 0.04670813 -0.34505558 0.21554048 -0.054053776 -0.063955545 0.37852997 -0.0006216228
59 -0.22449514 -0.03460822 0.019425333 -0.09942448 -0.051111978 -0.16995865 -0.018306023 0.020778539 -0.109285034 0.018551009 -0.13738766 -0.073143266 -0.015231912 0.063642554 0.18358138 -0.108278945 -0.23568547 0.14477304 -0.2743247 0.05840089 0.14497934 -0.16087963 -0.1948548 -0.08044809 0.047043446 0.10329152 -0.12148869 0.09988531 -0.2876755 0.042804405 -0.41753975 -0.089285724 0.031690136 -0.22833703 -0.050825953 -0.07465585 0.07344012 -0.3101181 0.041340936 0.27026853 0.03986947 -0.18630819 -0.10803211 0.1010317 -0.24843903 0.119332574 0.077492505 -0.061615277 0.10127513 -0.118319616 -0.041001435 -0.022756092 -0.059043214 0.3687441 0.05422743 -0.13033912 0.2409273 0.058274727 0.13173644 -0.120341815 0.00848729 -0.15814026 0.00056022144 0.18578829 0.012908664 0.0010536619 -0.018680003 -0.11620485 0.12691791 -0.19372389 -0.19767797 0.11042031 0.014564644 -0.037297275 -0.074171625 -0.024541361 0.16248207 -0.039740797 0.11365384 0.014875023 -0.12993254 0.2650336 -0.026250226 -0.13239229 0.40458658 -0.101149 -0.1998594 0.13164157 -0.3889369 0.09956771 0.06582124 0.12338104 0.0090323435 -0.08469851 0.021440888 0.26868504 -0.015898682 0.19667488 -0.2885378 -0.0598591 -0.13580318 -0.21965085 -0.11331695 0.29250565 0.14249697 0.08533815 0.027008984 -0.13313021 0.19873148 -0.3100659 -0.104854986 0.12914577 0.15077542 -0.16380279 0.09424782 -0.09451621 -0.07874105 -0.079690374 0.24139938 0.067541644 0.12897238 -0.07681317 -0.29301482 0.10039158 -0.25118813 -0.012253373 -0.120233744 0.066812046
61 -0.22114849 -0.041705973 -0.06812753 -0.07497523 -0.07632108 -0.13057207 -0.017687289 0.031501196 -0.09118241 0.042763647 -0.09629699 -0.04227766 0.035211127 0.067838274 0.107698776 -0.12310647 -0.16389148 0.12841776 -0.19329491 0.036239006 0.09865918 -0.09199189 -0.15339738 -0.08713683 0.02337139 0.10825052 -0.12612769 0.066830955 -0.26160577 -0.013902334 -0.29731986 -0.050791673 -0.009282741 -0.20612976 -0.0609043 -0.02354027 0.052048534 -0.28572685 -0.009541309 0.1880121 0.058217555 -0.11766094 -0.08023875 0.101144135 -0.24904177 0.119566135 0.047097612 0.019264473 0.06548201 -0.08275551 -0.056775562 0.01887816 -0.112392664 0.28292796 0.06923168 -0.050838266 0.20550197 0.00617152 0.10133936 -0.12631279 0.0059941136 -0.10749335 -0.009295906 0.1659244 0.002602139 0.03325276 -0.083252445 -0.07019306 0.07244589 -0.1456845 -0.15742585 0.09249123 -0.027575882 -0.0339644 -0.02883541 -0.012102821 0.07388333 -0.071117364 0.045505878 0.010684561 -0.06448875 0.21602109 0.05807928 -0.19775337 0.36736006 -0.05020729 -0.18071087 0.096604764 -0.31460208 0.07355535 0.06445807 0.112731084 0.05021334 -0.020137388 0.033863045 0.2509957 -0.002880365 0.17271386 -0.23052856 -0.024974823 -0.08200924 -0.17019062 -0.08363398 0.24290222 0.05214891 0.12911776 0.033680495 -0.08373216 0.1073886 -0.26475143 -0.04058877 0.09982147 0.11118977 -0.13335566 0.097042814 -0.049463045 -0.058964007 -0.1039067 0.2073682 -0.01983959 0.14111297 -0.060078267 -0.22587936 0.1000182 -0.21851231 -0.05522733 -0.056444135 0.025571484
66 -0.21021535 -0.03576342 0.00906872 -0.07555956 -0.06748912 -0.14868644 -0.022150386 0.01697383 -0.11467688 0.040020168 -0.08937422 -0.036090177 0.0020615007 0.041678373 0.1887274 -0.10227545 -0.18687698 0.13896337 -0.21627311 0.0418686 0.12092322 -0.11948853 -0.1895003 -0.054164097 0.055273876 0.104953066 -0.11092158 0.08233988 -0.2561135 0.02757629 -0.36911443 -0.10005921 0.021037629 -0.21155652 -0.051196363 -0.08080892 0.0553919 -0.3078343 0.0059067137 0.22766389 0.02569868 -0.1736686 -0.112403855 0.12779433 -0.2256787 0.09326375 0.07621507 -0.014238467 0.058645044 -0.12072759 -0.062368505 -0.02039537 -0.05217838 0.3324265 0.09279206 -0.13101333 0.23396327 0.045585994 0.14461379 -0.12710857 -0.017649598 -0.13776374 0.024902064 0.1482031 0.007202387 -0.008355406 -0.022629738 -0.11911207 0.106693275 -0.21195787 -0.19619358 0.0939978 0.03133182 -0.04598743 -0.1263771 -0.023320926 0.15639766 -0.06215447 0.11212273 0.018885281 -0.14067644 0.25174746 -0.0056504663 -0.12428823 0.3667351 -0.06187559 -0.18226138 0.13030095 -0.36201856 0.084594846 0.07282682 0.10854825 -0.019443143 -0.09502539 0.015131702 0.25780886 -0.03370814 0.19893828 -0.2587856 -0.07304514 -0.11131922 -0.19080712 -0.12148076 0.25518027 0.14411448 0.113923386 -0.024188187 -0.13119389 0.14659163 -0.26873478 -0.104310356 0.12293216 0.123564415 -0.20096546 0.12339618 -0.053075876 -0.0743775 -0.05305238 0.1553796 0.07161068 0.11890039 -0.08512911 -0.2723094 0.10590079 -0.2149714 -0.026302898 -0.095335186 0.033166233
69 -0.05024171 0.005909537 -0.04284912 -0.12863985 -0.07982263 0.04834182 -0.1526701 0.13595718 0.15110292 0.15813893 0.022649437 -0.076945744 -0.13600162 -0.1953691 0.082508616 -0.16941439 -0.09775743 0.17159079 0.11447069 0.025889136 0.065912865 0.26804408 -0.1389193 -0.09586085 0.08427348 0.01452763 0.0020247123 0.16781951 -0.094029084 0.039141715 -0.29080638 -0.0533509 -0.050542954 -0.21165481 -0.08972104 0.017642042 0.03341039 -0.36389446 0.13696854 -0.026436282 0.05885761 -0.16038944 0.08778035 -0.00931774 -0.2200689 0.054530267 -0.074587494 -0.013991982 -0.033019688 -0.12833571 -0.090256125 -0.015188305 0.02605086 0.10962135 0.047951598 0.09095811 0.038929343 -0.14008614 0.12628418 0.040759437 -0.0882103 -0.005131477 -0.0427228 0.14080413 -0.13379952 0.010782488 -0.06702994 -0.18707433 0.18563245 -0.08827775 -0.15379223 0.17024472 0.04919205 -0.099381655 -0.014413407 0.0029292244 -0.013401449 -0.09215213 -0.074194275 0.032521807 -0.00603085 0.104435585 0.04390476 -0.14267884 0.18973519 0.002314915 -0.176901 0.016639765 -0.27436608 -0.036889803 0.2643489 0.046869494 0.1699836 0.21161048 0.15779352 0.15094294 0.17153722 -0.03327216 -0.32320684 0.036190443 -0.066247284 0.05411999 0.01646411 0.17315295 0.2255181 0.017589593 -0.032567587 0.2241662 -0.034693345 0.013246022 0.11175156 0.107766815 -0.00081362133 -0.18993542 0.36359823 -0.073937945 -0.15269111 -0.30105653 -0.034493536 0.115964405 0.19119388 -0.02832846 -0.24030305 0.10898522 -0.029693916 -0.17859863 0.07046852 -0.034920186
57 -0.20876922 -0.03587692 -0.024163451 -0.09972287 -0.04196523 -0.14714304 -0.013676888 0.0286393 -0.0506498 0.020273555 -0.15726094 -0.10008062 -0.028941413 0.036535185 0.12554541 -0.10287562 -0.22516052 0.15347508 -0.23575033 0.08517866 0.13715394 -0.13699713 -0.17579831 -0.113196045 0.038007133 0.07899651 -0.122775234 0.12457841 -0.27645588 0.050239284 -0.4017902 -0.062371098 0.013973663 -0.24674155 -0.05700944 -0.031169409 0.08277712 -0.28265697 0.075630866 0.24642342 0.0654683 -0.15671062 -0.06666711 0.07788567 -0.2679755 0.1294006 0.054836236 -0.059289113 0.09197598 -0.1167644 -0.025431206 -0.008530533 -0.10339898 0.334902 -0.0028753653 -0.07551353 0.20825157 0.009541022 0.08948969 -0.0914668 0.008258283 -0.14122161 -0.01861338 0.20587942 0.0131989755 0.037190314 -0.040405925 -0.099229395 0.097244546 -0.15274933 -0.17513715 0.115790725 -0.015581114 -0.016807886 -0.013488316 -0.023400322 0.11758374 -0.025728578 0.06663028 0.01796503 -0.0813416 0.21956693 0.0055072824 -0.15713057 0.39551604 -0.10872657 -0.21662134 0.09772443 -0.34114668 0.08140355 0.05406716 0.10948956 0.07349239 -0.0070412406 0.029460587 0.23415937 0.021232089 0.14617975 -0.2799433 -0.025578247 -0.11993657 -0.1843737 -0.06831383 0.26631662 0.11131674 0.05660369 0.07835627 -0.071825236 0.15575407 -0.28856513 -0.07291469 0.13234255 0.11755864 -0.13297759 0.114970885 -0.08979487 -0.06923334 -0.13564683 0.2574728 0.027534897 0.14363149 -0.04515485 -0.27196133 0.109356426 -0.22190239 -0.027049076 -0.05827183 0.066579804
68 -0.051750287 -0.013260466 -0.05428203 -0.11933293 -0.0600005 0.017145813 -0.09031263 0.12391454 0.10302678 0.08593022 -0.02518029 -0.0757768 -0.06786931 -0.14993799 0.06862127 -0.1422665 -0.102490336 0.15319112 0.04722916 0.04190433 0.047990315 0.153937 -0.15343434 -0.08998347 0.06949052 0.023548396 -0.025297375 0.13512382 -0.14703633 0.028065521 -0.26321414 -0.062236458 -0.06583958 -0.21115683 -0.08977244 0.0092599485 0.03512932 -0.32583576 0.11463406 0.021280138 0.07513455 -0.14852764 0.051816527 -0.0326304 -0.20581898 0.05424054 -0.017001955 -0.025957808 -0.048327476 -0.10393835 -0.079955555 0.018629633 -0.027340269 0.1289741 0.033010736 0.0626273 0.0498734 -0.115983225 0.10072621 0.0049841623 -0.05003545 -0.022640325 -0.043305647 0.1481478 -0.08083324 0.0028365264 -0.06085276 -0.13092984 0.13260324 -0.11026819 -0.17409639 0.14798841 0.011233111 -0.055587545 -0.010869973 -0.016645392 0.019978737 -0.075345606 -0.062767476 0.026059002 -0.015541884 0.1323465 0.07588077 -0.121369824 0.22279927 0.004575432 -0.16761574 0.048073217 -0.2288902 -0.03193713 0.17426671 0.06282781 0.147322 0.13947879 0.14926831 0.2051896 0.11591413 0.011331681 -0.2896617 0.020524068 -0.08662807 -0.0035704745 -0.027809806 0.19649462 0.14499898 0.017480133 0.009746795 0.12801993 -0.017877324 -0.05529048 0.045792446 0.120808296 0.0054155937 -0.17928877 0.3119384 -0.062930256 -0.1278477 -0.22307947 -0.0012804492 0.093750596 0.14911622 -0.021648467 -0.20303486 0.11296622 -0.058383256 -0.10616521 0.058945443 -0.0091713
26 -0.064731024 -0.018021341 -0.12602033 -0.12493009 -0.061714184 -0.03533205 -0.016348269 0.15136334 0.04468565 -0.0047804792 -0.12659478 -0.087092884 0.072730474 -0.07023494 -0.038490236 -0.13066696 -0.108686164 0.15464827 -0.03483902 0.081386805 -0.0019255411 0.019226145 -0.18110074 -0.14959997 0.020739168 0.03921495 -0.07932504 0.0963373 -0.2576389 -0.020643674 -0.20081928 -0.03313866 -0.13892274 -0.23292649 -0.1083583 0.036010902 0.037038773 -0.30095005 0.1228461 0.073562935 0.13622774 -0.11285623 0.02249667 -0.13148686 -0.22886279 0.08034392 0.057861976 -0.022312941 -0.11552732 -0.03767239 -0.07087957 0.11327469 -0.16065021 0.11982754 -0.04163471 0.10834349 0.049748786 -0.12747847 0.03917012 -0.04053411 0.040834557 -0.023684377 -0.070530735 0.20487967 -0.025975117 0.014453243 -0.11564453 -0.014891366 0.025649862 -0.09177046 -0.20961039 0.1358398 -0.11126161 0.027767695 0.089309156 -0.049940623 0.01274346 -0.05314872 -0.12478664 0.010764236 0.0064688874 0.15488066 0.20221992 -0.13510416 0.31187898 -0.013161024 -0.18478386 0.0861874 -0.13492855 -0.076737754 0.04452918 0.07978456 0.17360885 0.10908271 0.17825097 0.28354436 0.051233474 0.03866204 -0.24239583 0.03817518 -0.12602694 -0.080152616 -0.04497135 0.2457586 -0.04248902 -0.008155507 0.12779914 0.049838655 -0.011405299 -0.14846297 0.022614121 0.13300927 0.01150381 -0.09635061 0.22920431 -0.04795403 -0.08502853 -0.173038 0.10465907 -0.013158764 0.15205449 0.007901969 -0.13261704 0.13645263 -0.09062509 -0.01606909 0.07989971 0.032112326
70 -0.108763024 -0.0071222293 -0.09401938 -0.11098519 -0.10303494 0.018284716 -0.13463643 0.12659758 0.08088177 0.15536454 0.03179998 -0.039637983 -0.055513076 -0.10027642 0.062464513 -0.18424249 -0.0811134 0.15269893 0.068629615 0.00010983314 0.047471996 0.21319585 -0.113333106 -0.09364545 0.05339286 0.0619044 -0.03951331 0.10329041 -0.13127807 -0.024654943 -0.22774783 -0.03090866 -0.061968256 -0.19396105 -0.0906012 0.023887767 0.015824921 -0.3572795 0.056728367 -0.009822715 0.060824797 -0.107706256 0.045356955 0.042109516 -0.23058298 0.08174865 -0.053697176 0.05349679 -0.0136175705 -0.098391145 -0.08982929 0.015138257 -0.03455025 0.12330844 0.0900359 0.08776273 0.0802362 -0.11789714 0.12765622 -0.02091558 -0.062454544 0.0036665893 -0.047438476 0.13800907 -0.11795966 0.026719699 -0.11663309 -0.14475876 0.1391593 -0.08147888 -0.1308667 0.14403766 0.010289659 -0.09869812 -5.615846e-05 0.009567629 -0.03702022 -0.11143024 -0.07040291 0.02768285 0.012456034 0.12596412 0.09100759 -0.21499397 0.2204188 0.018109623 -0.16878322 0.021859106 -0.27702165 0.0016048797 0.23812792 0.06764028 0.15487047 0.1795749 0.13853823 0.18848218 0.12831095 0.030443005 -0.27407792 0.043433774 -0.03549314 0.015639525 -0.001971502 0.18543851 0.13930777 0.09703948 -0.029683417 0.16022193 -0.023174476 -0.05113152 0.11676631 0.08300343 0.030144302 -0.14792141 0.26907995 -0.056101933 -0.12349221 -0.26068932 0.04096784 0.030135494 0.20133379 -0.042095356 -0.20867202 0.10064138 -0.08613842 -0.17905515 0.045634575 -0.049868315
24 -0.05445393 0.0075218654 -0.048346717 -0.16856351 -0.07847799 0.0036903855 -0.14582397 0.1716914 0.11084223 0.11425739 -0.024931675 -0.08829599 -0.079463825 -0.15552 0.061339818 -0.18941955 -0.14116982 0.1642623 0.049097486 0.051007073 0.053413093 0.19441697 -0.14944638 -0.11552438 0.08183218 0.035643008 -0.020697469 0.14101207 -0.16612864 0.026024135 -0.2910716 -0.03920091 -0.069481805 -0.22250329 -0.10427808 0.011530401 0.018781891 -0.3888527 0.17635846 0.027288595 0.07366103 -0.1752688 0.05052707 -0.07664554 -0.22129416 0.06682673 -0.016156761 -0.04386337 -0.04348375 -0.099769525 -0.09550221 0.015320731 -0.0010372543 0.12314477 0.041576568 0.070698164 0.037212428 -0.11407709 0.11999212 0.022043692 -0.023151 -0.005865131 -0.064004116 0.16729169 -0.13227901 0.00076261035 -0.07139449 -0.13569757 0.18769689 -0.09429926 -0.18939978 0.1799652 0.025891962 -0.06612487 0.022245113 -0.006726296 0.011681954 -0.05382193 -0.07695087 0.02180653 -0.014857192 0.15065087 0.05565243 -0.11658055 0.22069478 -0.023700468 -0.16839884 0.054299425 -0.24854471 -0.032145478 0.2307022 0.06485995 0.15765315 0.16554564 0.18050985 0.21417364 0.12129746 0.009994284 -0.3532841 0.04231424 -0.10828555 0.0037534866 -0.006746575 0.25917187 0.17185625 -0.007838702 -0.0017052775 0.15986593 0.0068320185 -0.03526885 0.07961703 0.13351338 0.028777044 -0.12629783 0.31269425 -0.10336028 -0.13646218 -0.24664831 0.011640675 0.11267071 0.18011275 -0.033391256 -0.2016889 0.11468521 -0.045416456 -0.112750605 0.02890135 -0.004844638
41 -0.097456746 -0.007748103 -0.07382013 -0.1620275 -0.09055792 -0.008587968 -0.15396565 0.15856774 0.09491152 0.12823945 -0.014628189 -0.08761444 -0.086116314 -0.100091934 0.063196115 -0.19983995 -0.1451179 0.16162072 0.03444779 0.035427462 0.06258191 0.19908373 -0.11917203 -0.12714717 0.06106457 0.056388356 -0.047050968 0.11521729 -0.1645626 0.008855956 -0.27963892 -0.02203413 -0.056721285 -0.22919214 -0.10897153 0.02094235 0.031300247 -0.39721128 0.13709858 0.042094007 0.06943109 -0.14321765 0.043356802 -0.023486981 -0.24266599 0.092900865 -0.03748356 -0.0016001844 0.0085404115 -0.09453673 -0.088745065 -0.0018110834 -0.022300284 0.14188664 0.06348159 0.07282677 0.06727492 -0.105706446 0.12216027 -0.003513425 -0.019679053 -0.0012660333 -0.06600164 0.17432901 -0.13665968 0.02413403 -0.09972589 -0.13839255 0.19249749 -0.07283408 -0.15885556 0.17159864 0.02514196 -0.08640186 0.05043429 0.0036660545 -0.026206516 -0.05621831 -0.072102994 0.021985965 0.022562966 0.14853847 0.05348514 -0.17453723 0.2362463 -0.022946274 -0.1776186 0.03792167 -0.2810181 -0.0028783856 0.25229952 0.0769819 0.17402935 0.19140728 0.17126356 0.2143785 0.13506196 0.02864811 -0.3314346 0.054957945 -0.06895871 0.008445522 0.0062640826 0.25675786 0.15407191 0.041391023 -0.0030623712 0.16938688 0.016466154 -0.044962667 0.11207647 0.10020512 0.05026315 -0.1062365 0.27918875 -0.10148386 -0.13001232 -0.2666848 0.059583608 0.06732248 0.1922687 -0.038245 -0.20608844 0.10935024 -0.080383234 -0.14990702 0.019739931 -0.021480953
71 -0.084741496 -0.004473455 -0.09290102 -0.111394815 -0.085711196 0.051217478 -0.14787234 0.12562391 0.14406233 0.16620915 0.032898508 -0.06883204 -0.12027097 -0.1723244 0.07235561 -0.18353091 -0.085714996 0.174296 0.112090126 0.019172188 0.059881624 0.26363504 -0.1266572 -0.10196462 0.07380443 0.02649417 -0.029424628 0.14417702 -0.10562574 0.014571631 -0.2676256 -0.04091267 -0.05973744 -0.21912952 -0.090953976 0.040875476 0.034762748 -0.36003354 0.09504814 -0.024187775 0.06624127 -0.12342169 0.086946405 0.030742213 -0.24968283 0.07491547 -0.08627183 0.027240783 -0.010836928 -0.12587133 -0.090056136 -0.00513986 -0.025404595 0.1157199 0.062229216 0.101770796 0.055153042 -0.15555388 0.12074342 0.016843392 -0.090265036 0.0071171885 -0.043561887 0.15314297 -0.12660526 0.03599359 -0.109183036 -0.1715519 0.15907888 -0.08509812 -0.13149774 0.16116026 0.029831255 -0.10450691 0.0013626015 0.011198736 -0.045330342 -0.10863003 -0.0906956 0.035276175 0.02810888 0.10306609 0.07078634 -0.20309772 0.21900094 0.022586504 -0.18669003 0.004506047 -0.28733847 -0.021971907 0.2650246 0.054909207 0.19106665 0.23989461 0.15744282 0.17257029 0.18847999 -0.016350864 -0.29708 0.058842547 -0.03785944 0.05616259 0.02395156 0.17719087 0.187117 0.06776994 -0.02848497 0.21915516 -0.055222712 -0.012913121 0.1261274 0.09613911 0.00271839 -0.18558076 0.35266858 -0.06699441 -0.14064486 -0.31898123 0.004848602 0.065720655 0.20609303 -0.02337846 -0.23548125 0.120034255 -0.05630395 -0.20217472 0.08552809 -0.048157353
60 -0.2666321 -0.046352696 -0.052632477 -0.036896016 -0.05202884 -0.14701138 0.025300963 -0.04421467 -0.07388733 0.043906968 -0.11568551 -0.05858959 -0.022338822 0.063198 0.13744627 -0.08175523 -0.17714679 0.15479381 -0.24017891 0.058458213 0.14361088 -0.14583366 -0.17141026 -0.09284764 0.0120683145 0.08446151 -0.13041562 0.13072474 -0.25057212 0.023337178 -0.38376147 -0.07211823 0.03160112 -0.2285499 -0.033831056 -0.022621524 0.10586849 -0.23136355 -0.028473154 0.232205 0.057661653 -0.112099074 -0.08011235 0.19170755 -0.29979944 0.14824842 0.009281792 0.0042828303 0.12814154 -0.13405675 -0.024347324 -0.008761326 -0.13754219 0.36699864 0.005803191 -0.07221322 0.25909907 -0.009195539 0.090318635 -0.12118886 -0.045776926 -0.16561025 0.010584535 0.18328989 0.042897277 0.07027181 -0.06911977 -0.110988475 0.036743913 -0.15794362 -0.1190466 0.07476303 -0.028268052 -0.028845314 -0.047471087 -0.0069751004 0.09759237 -0.08217883 0.08638811 0.030326497 -0.08147116 0.19041148 0.024991361 -0.24901125 0.428731 -0.070143685 -0.22700244 0.06361178 -0.38034442 0.10331134 0.029852988 0.11519254 0.0696766 -0.009786336 -0.029465511 0.19349281 0.03979374 0.16375566 -0.21607767 -0.045128506 -0.072246715 -0.19743787 -0.06213417 0.18655412 0.098825745 0.14776228 0.075549416 -0.09385435 0.13088372 -0.32979417 -0.075270176 0.10176502 0.102841094 -0.18796976 0.098921016 -0.041173562 -0.054709863 -0.14941108 0.295338 -0.03858474 0.15405144 -0.05755354 -0.31335902 0.10250173 -0.2596446 -0.08420383 -0.042455763 0.040126465
16 -0.19468918 -0.034964785 -0.19821876 -0.06968839 -0.27284843 -0.024693457 -0.15476578 0.20212834 -0.19456732 0.18697025 0.17164995 0.16649543 0.25870448 0.049711812 0.12893258 -0.28254893 0.045490433 0.09903945 0.10552192 -0.13960381 -0.07549892 0.22358908 -0.17028762 0.008631021 0.080795154 0.19573957 -0.11022936 -0.11312095 -0.2568966 -0.23595884 -0.028403642 -0.07234224 -0.16202405 -0.13229091 -0.13448574 -0.08078298 -0.1127325 -0.52684814 -0.18790734 -0.05507806 0.028532129 -0.12411359 -0.14134476 0.090718366 -0.17436923 0.028369777 0.07812412 0.32212108 -0.23349364 -0.01121446 -0.25289282 0.14320603 -0.07890949 0.06454291 0.43796676 0.0028907484 0.1892977 -0.046979114 0.2623779 -0.26793745 -0.026284061 0.062240757 0.018797986 0.06650041 -0.14822084 -0.070296556 -0.21652433 -0.056905914 0.088115655 -0.2402721 -0.27608946 0.10073165 -0.017709976 -0.12940489 -0.21913025 -0.0007440536 0.022396348 -0.239934 -0.037976313 0.012333853 -0.08592552 0.3131073 0.28193676 -0.20907909 0.27916577 0.20285577 -0.077089556 0.19935417 -0.28894576 -0.026189487 0.25113115 0.11675184 -0.08328086 -0.0670273 0.20963003 0.47792298 -0.11369349 0.27825513 -0.20341669 -0.01774161 -0.02350198 -0.052868757 -0.21563913 0.32160777 -0.010946629 0.3466231 -0.3214968 -0.06366761 -0.108444005 -0.08146537 0.09344262 0.07604354 0.0495812 -0.23797901 0.230883 0.09543391 -0.10097747 0.013389985 -0.18589547 -0.017585987 0.18834576 -0.14590517 -0.09634557 0.14132275 -0.13900377 -0.114257984 -0.013404518 -0.17950603
29 0.1769238 0.031277925 0.095520936 -0.10949252 -0.05216323 0.035756364 0.036976602 0.11350112 0.05713155 -0.043599106 -0.05537374 -0.0050525325 0.0688268 -0.28304356 0.029256381 -0.01793749 -0.0042916117 0.1493186 0.051605236 0.072891705 -0.047770586 0.06734435 -0.2997604 -0.02059427 0.12144255 -0.05599577 0.10114505 0.19098714 -0.14033633 0.07450242 -0.20042025 -0.1994511 -0.14202611 -0.14863516 -0.0453119 -0.10043289 0.0039705755 -0.2605387 0.15875505 -0.050154567 0.08585049 -0.26903278 0.04174546 -0.2425087 -0.08065409 -0.09940868 0.11833709 -0.12118659 -0.34314257 -0.06467934 -0.11594505 0.12826438 0.06299064 0.06872717 -0.046950635 0.016969938 -0.043986704 -0.12525845 0.111148894 0.041180935 -0.0713744 -0.07331881 -0.0021306644 0.04928147 -0.0062877545 -0.13098545 0.0500846 -0.11278737 0.03322708 -0.2533695 -0.356989 0.10585108 -0.008207213 0.07970881 -0.22149347 -0.10136198 0.21063916 -0.10632726 -0.043396946 0.010369986 -0.23703295 0.1554315 0.16732161 0.15977246 0.18745494 0.055515815 -0.116063766 0.1674363 -0.06663367 -0.22192374 -0.020233901 0.031173397 -0.051252287 -0.11875585 0.16073798 0.23490049 -0.058346618 -0.036656242 -0.24490048 -0.13660885 -0.22517827 -0.05291652 -0.149974 0.15267293 0.09519042 -0.13350071 -0.008321206 0.017827997 -0.032803234 -0.011209396 -0.14311047 0.20842353 -0.103013396 -0.3325177 0.40340927 0.014903502 -0.1421685 -0.009932352 -0.28369164 0.2483761 0.02353244 -0.04272357 -0.13486832 0.1266823 0.104317896 0.0887691 0.08126385 0.016993402
17 -0.115306936 -0.020357365 -0.15701512 -0.063210316 -0.27635264 0.021677373 -0.15263972 0.22021537 -0.16614036 0.18871096 0.19138263 0.18900451 0.25649533 -0.057430353 0.1420162 -0.2579663 0.0899184 0.11663084 0.18034714 -0.14220189 -0.098915696 0.2811511 -0.22267614 0.02764079 0.11690217 0.16492744 -0.05863595 -0.07198596 -0.22767772 -0.21644129 -0.038803678 -0.12673749 -0.19149147 -0.13839732 -0.14117555 -0.10100846 -0.121944875 -0.53840053 -0.1612576 -0.11218277 0.0379334 -0.16313967 -0.11293595 0.03738536 -0.14058653 -0.026457516 0.087447405 0.30807915 -0.33021936 -0.02874061 -0.27886167 0.15186305 -0.037250243 0.038149484 0.43403035 0.0060880445 0.14859125 -0.08052452 0.2803431 -0.234769 -0.07423048 0.06251786 0.03823383 0.03261287 -0.15060593 -0.11367353 -0.18305963 -0.091984324 0.09427385 -0.2881326 -0.34639987 0.10571571 0.0050935177 -0.12721336 -0.30674458 -0.013272551 0.07732944 -0.26273996 -0.044211995 0.014932586 -0.13757963 0.3081616 0.30808032 -0.1323859 0.2708249 0.24158113 -0.084656104 0.22615413 -0.26558733 -0.10551084 0.251852 0.09587101 -0.11150409 -0.08991618 0.24104151 0.49322042 -0.115294605 0.23677903 -0.21399117 -0.04896692 -0.06595081 -0.018134572 -0.24012433 0.30002832 0.025813138 0.30987307 -0.359486 -0.030507332 -0.15921906 -0.028528666 0.06474153 0.10587858 -0.0018548868 -0.333601 0.34771183 0.11055717 -0.1318244 0.018576495 -0.3228421 0.06255224 0.17348605 -0.13749598 -0.106588654 0.16729869 -0.06668136 -0.103918135 0.030990625 -0.18855253
76 -0.23890732 -0.04585035 -0.0445368 -0.07423838 -0.08941077 -0.14746204 -0.03276128 0.037654724 -0.13162386 0.053693295 -0.07876391 -0.017696882 0.042069834 0.075065665 0.17790641 -0.13364473 -0.17295875 0.13575707 -0.20528951 0.023710214 0.10740807 -0.102625065 -0.18562369 -0.059776902 0.04530137 0.12852417 -0.13061774 0.050226543 -0.27528712 -0.021331685 -0.33240214 -0.0805477 -0.001116946 -0.20897108 -0.0651073 -0.067574926 0.040699195 -0.33452833 -0.025258068 0.2114163 0.03411586 -0.15663043 -0.12662122 0.1316329 -0.2381068 0.10497061 0.077832386 0.038844228 0.04663083 -0.097049534 -0.08280099 0.009135331 -0.08058098 0.31407586 0.13658959 -0.108627856 0.24260043 0.03613269 0.15376276 -0.15881395 -0.0063136388 -0.118209146 0.014725989 0.15769455 -0.0052808993 -0.007181544 -0.06438007 -0.09942748 0.1042722 -0.19793057 -0.19470428 0.094679795 0.0022405493 -0.054634742 -0.10566074 -0.012228392 0.12858656 -0.085742325 0.08943315 0.017474437 -0.110195145 0.27351102 0.040479187 -0.16501093 0.38815573 -0.036892284 -0.17017166 0.14020658 -0.37263915 0.08651681 0.090157986 0.12338939 -0.0072912048 -0.078126386 0.04221995 0.30641055 -0.035269696 0.22397316 -0.25379264 -0.053620413 -0.09722957 -0.19364011 -0.13748121 0.28187773 0.09950698 0.15658072 -0.033949565 -0.13242804 0.120305926 -0.27931508 -0.07321968 0.114176504 0.12881804 -0.18363744 0.108951315 -0.037565995 -0.067338556 -0.052339345 0.165752 0.03299241 0.13739647 -0.092686534 -0.2478244 0.11315405 -0.2401674 -0.039098635 -0.08502461 0.018518379
19 -0.18558325 -0.04331357 -0.25149518 -0.042052723 -0.28911376 0.016740115 -0.15718283 0.21402568 -0.17427999 0.21447195 0.20391314 0.1967041 0.27450615 0.010762932 0.12048765 -0.28826946 0.09876009 0.10977304 0.18808201 -0.15722789 -0.10640096 0.28121778 -0.17951623 0.008820942 0.080889694 0.18918373 -0.11085148 -0.113278866 -0.24262686 -0.26607427 0.0019505688 -0.07609237 -0.19251432 -0.14272487 -0.15535733 -0.057889394 -0.12124171 -0.53449273 -0.21372043 -0.10110282 0.045382928 -0.090664685 -0.121753596 0.10416546 -0.18482511 0.021736354 0.05550455 0.38100308 -0.27931964 -0.017119572 -0.2748735 0.15718313 -0.117087066 0.038906995 0.46075132 0.043717846 0.18198195 -0.105169915 0.26544726 -0.2750427 -0.057001356 0.08105843 0.029136281 0.066285826 -0.1481423 -0.060318194 -0.25292706 -0.0610791 0.060032222 -0.24841401 -0.2860553 0.09311441 -0.035641644 -0.14463557 -0.2373653 0.00059658755 -0.0011546802 -0.2758747 -0.07245142 0.029015796 -0.057692338 0.29588467 0.34819233 -0.24590905 0.29932815 0.25621298 -0.09593696 0.19034515 -0.27488402 -0.0592877 0.2642739 0.11639971 -0.04483581 -0.0143314665 0.24208958 0.5057066 -0.08520199 0.26067474 -0.180249 0.0021384764 -0.010040423 -0.0071313623 -0.21259348 0.29310825 -0.029240426 0.38571763 -0.3371053 -0.022575676 -0.19860964 -0.059554636 0.12154215 0.07120332 0.000549616 -0.29102266 0.30732697 0.13047028 -0.10698567 -0.028114676 -0.2374524 -0.036270536 0.20981264 -0.12609579 -0.09239209 0.17996824 -0.11732883 -0.1564584 0.060324505 -0.20541766
18 -0.18867913 -0.037813324 -0.22259857 -0.035907898 -0.29453802 0.0067482013 -0.14322557 0.19633447 -0.19902214 0.21713784 0.22572686 0.21761769 0.28061658 0.017872434 0.14723861 -0.27948743 0.10585918 0.10841721 0.16078775 -0.16358489 -0.10308378 0.26128048 -0.19732016 0.03078201 0.09207146 0.2013081 -0.10156068 -0.103832774 -0.24259195 -0.25741696 -0.0072798226 -0.10409768 -0.18183057 -0.13313529 -0.14261565 -0.085696526 -0.12643895 -0.53270024 -0.24546929 -0.101564854 0.034618087 -0.11420801 -0.14721934 0.13537063 -0.17268169 0.009534568 0.06374337 0.38216603 -0.2892443 -0.026220396 -0.28616184 0.1590375 -0.09659768 0.059797447 0.48134285 0.012826818 0.20566607 -0.08231045 0.29221103 -0.2939547 -0.08202332 0.063670725 0.03970086 0.043453094 -0.13662557 -0.079440236 -0.23903568 -0.08002154 0.06500901 -0.2805533 -0.30015072 0.07893932 -0.025431648 -0.14890279 -0.29277825 -0.0034239683 0.03983362 -0.2907989 -0.044514224 0.025916975 -0.10124977 0.31219527 0.336304 -0.22258139 0.3052783 0.26654366 -0.08970161 0.21372123 -0.2976393 -0.058961146 0.2588848 0.11408459 -0.09840022 -0.071515076 0.21559082 0.506614 -0.11387657 0.28594363 -0.1735067 -0.029292013 -0.010045265 -0.037376944 -0.24251258 0.2916293 -0.013972974 0.4047389 -0.3786898 -0.062044036 -0.1811678 -0.07406972 0.08705479 0.07905147 0.013071209 -0.3296011 0.2937805 0.13961694 -0.10876317 0.015883682 -0.25591516 -0.016977474 0.19654645 -0.15226191 -0.11603231 0.16952838 -0.1272611 -0.14085913 0.033141978 -0.21471727
21 -0.20444304 -0.037493188 -0.23988958 -0.052300867 -0.31853187 0.007133987 -0.17317642 0.22515763 -0.20148155 0.24102381 0.2387886 0.21463147 0.28898072 0.012136098 0.14608337 -0.3178737 0.101504385 0.10981593 0.18952797 -0.17496671 -0.11127201 0.31222922 -0.19359054 0.020012628 0.09804156 0.20571536 -0.10852051 -0.11987586 -0.26163185 -0.27970108 -0.0026463317 -0.09062756 -0.20341223 -0.14893831 -0.16255271 -0.081003666 -0.13261399 -0.593647 -0.23790556 -0.11644418 0.04193849 -0.12509388 -0.14266135 0.11893407 -0.19104074 0.011739265 0.06647069 0.40331206 -0.29917005 -0.024118353 -0.30758172 0.16278307 -0.1027137 0.04569567 0.5146016 0.027198948 0.19644451 -0.09299019 0.30694202 -0.295757 -0.06914833 0.082761444 0.027364815 0.05767963 -0.17482263 -0.08258649 -0.2605295 -0.07633835 0.08556091 -0.28162718 -0.31449744 0.10772959 -0.019554302 -0.15849617 -0.27605295 0.0036585818 0.019764863 -0.3026992 -0.06463584 0.026225153 -0.085926294 0.33259013 0.35521033 -0.25348002 0.31497124 0.2764097 -0.100447364 0.21761648 -0.3156393 -0.0652055 0.30037823 0.124186814 -0.07906752 -0.038848463 0.25721833 0.5425092 -0.10600358 0.29224885 -0.21178676 -0.014250982 -0.013122458 -0.018609105 -0.24278983 0.329451 -0.009483618 0.41623947 -0.38978973 -0.04109887 -0.19269006 -0.062020306 0.12965316 0.08468791 0.020045359 -0.31371677 0.31665844 0.13178805 -0.12645343 -0.008504196 -0.26815286 -0.02194773 0.22119045 -0.15473829 -0.113492034 0.18379705 -0.1291864 -0.16440617 0.034343433 -0.23417003
22 -0.19451596 -0.032000754 -0.23556536 -0.08158656 -0.31210306 -0.003198641 -0.20397946 0.25167033 -0.18540439 0.23098011 0.22425394 0.19603772 0.27600226 0.023446769 0.14026083 -0.33179116 0.06780637 0.111437015 0.18099934 -0.16222392 -0.0998613 0.30821642 -0.18387358 0.005347365 0.09998901 0.21137516 -0.109700195 -0.12049382 -0.2646217 -0.27539137 -0.015066368 -0.07619711 -0.19097237 -0.15392734 -0.16803606 -0.083663374 -0.13606125 -0.61083436 -0.20231742 -0.099184014 0.032815345 -0.13295664 -0.14612094 0.090352096 -0.18593556 0.01662428 0.07464504 0.3851248 -0.2828776 -0.013273082 -0.29889175 0.16054244 -0.08126215 0.040735368 0.51655537 0.03517217 0.19098267 -0.08269069 0.3077519 -0.29218617 -0.048100725 0.09602068 0.0132872285 0.06620064 -0.19421089 -0.08723993 -0.25324535 -0.08041443 0.114529006 -0.25811774 -0.31623304 0.12308538 -0.017143615 -0.16960745 -0.25106326 0.001687448 0.009674179 -0.27779943 -0.07060139 0.021767387 -0.07490043 0.33933404 0.33758834 -0.23352556 0.2942001 0.24897459 -0.09206804 0.2144612 -0.3172825 -0.053637385 0.32368666 0.12894283 -0.06473653 -0.028380526 0.26914355 0.5471972 -0.10560533 0.29081053 -0.24046037 -0.003700755 -0.017910115 -0.0150383115 -0.23637788 0.35537317 -0.001660731 0.39489344 -0.39119285 -0.021273986 -0.17754339 -0.04379633 0.13200153 0.08279332 0.037395976 -0.28201944 0.3096102 0.11047631 -0.1227776 -0.015576576 -0.26336327 -0.009116745 0.22591072 -0.15797031 -0.10350779 0.18122903 -0.12032083 -0.15411767 0.016510317 -0.21952555
20 -0.17321503 -0.022744363 -0.17754535 -0.08357065 -0.29520312 -0.02683223 -0.17350966 0.2340366 -0.22441874 0.1963715 0.19993177 0.19688025 0.28781676 0.025628528 0.1569296 -0.29537898 0.05756541 0.10102384 0.12888594 -0.15861723 -0.088774 0.24253647 -0.20109656 0.030723287 0.10448849 0.20820193 -0.095539704 -0.11619431 -0.2690625 -0.25081834 -0.031492 -0.103228904 -0.17404887 -0.13759384 -0.15250494 -0.112028055 -0.13293953 -0.5796699 -0.19060314 -0.075108856 0.02062902 -0.15930706 -0.16018587 0.07157762 -0.14992444 -0.00035668092 0.10901897 0.3336989 -0.2869846 -0.013077816 -0.28899708 0.15268849 -0.047388975 0.06519109 0.4937872 -0.017654438 0.18931279 -0.036174405 0.30273876 -0.28510508 -0.038516343 0.0651747 0.0299092 0.045310553 -0.16017924 -0.1169185 -0.19980513 -0.07032535 0.11543935 -0.28257358 -0.32696918 0.10837269 -0.0027983196 -0.14376085 -0.2847017 -0.011250257 0.06632615 -0.25455695 -0.026998946 0.01441319 -0.12852113 0.3465925 0.29699758 -0.16027388 0.2823196 0.22070244 -0.075503655 0.23994555 -0.30220768 -0.057197236 0.27269107 0.12278739 -0.12431304 -0.11220252 0.23659404 0.527271 -0.14496554 0.3026816 -0.23244509 -0.03974837 -0.04861286 -0.05133598 -0.2584354 0.35631225 0.0039674 0.3555425 -0.38287067 -0.072761714 -0.12365691 -0.06885862 0.07617658 0.09215092 0.04948084 -0.28042844 0.27705342 0.10212744 -0.11971718 0.0526921 -0.26977587 0.03786616 0.18144992 -0.1628387 -0.10137978 0.1628982 -0.11646712 -0.10143358 -0.024835907 -0.19941777
75 -0.11991944 -0.012453131 -0.04869137 -0.16650648 -0.0606452 -0.03925058 -0.158162 0.15666051 0.095596254 0.10842974 -0.058193307 -0.12961097 -0.11638504 -0.080791175 0.089153975 -0.19859949 -0.19908576 0.15773027 -0.01779476 0.061009567 0.10056312 0.14017485 -0.11427082 -0.13152969 0.061006494 0.055764854 -0.06773522 0.12061533 -0.18419577 0.035745718 -0.33227324 -0.011024832 -0.031039989 -0.24114054 -0.10411966 0.022130806 0.04659106 -0.3860109 0.17356455 0.10418588 0.060000885 -0.15316918 0.026921822 -0.023226662 -0.24194214 0.10169727 -0.021030188 -0.047427498 0.06195753 -0.107871726 -0.06337096 -0.02798426 -0.020143813 0.1791453 0.046286874 0.047322083 0.08190919 -0.06987831 0.10925738 -0.003804909 0.004403231 -0.01520726 -0.0712767 0.20508805 -0.124325454 0.024169004 -0.07413747 -0.1329926 0.21787792 -0.06620357 -0.15470716 0.18650956 0.03331821 -0.0853699 0.07557559 0.00027405977 -0.0021328244 -0.017235506 -0.051330224 0.023796208 0.021390421 0.17008287 0.0044072447 -0.15993032 0.25549236 -0.07456303 -0.19376425 0.043014012 -0.30598706 0.03145882 0.2460638 0.08326642 0.18460084 0.18027045 0.15948935 0.21268678 0.13662533 0.042534273 -0.36072612 0.07135957 -0.09441052 -0.021807149 0.0046422994 0.2886638 0.1807746 0.011015968 0.021875003 0.14130068 0.06249777 -0.0844727 0.09112073 0.11406777 0.08320921 -0.08089406 0.24684003 -0.13593332 -0.13022815 -0.2637367 0.12114066 0.0797967 0.19155075 -0.031203708 -0.22599244 0.11101125 -0.11368497 -0.12459463 -0.0028344558 0.013345521
51 -0.06498886 -0.04246697 -0.21089244 -0.12342577 -0.072788835 -0.040738188 0.032593336 0.16773573 0.04748894 -0.04044043 -0.1776716 -0.101320975 0.14004749 -0.05827249 -0.13059488 -0.13340102 -0.089737475 0.17171042 -0.043254707 0.1114721 -0.042501945 -0.010731701 -0.17943598 -0.20959656 -0.01966044 0.04659036 -0.111335635 0.09562718 -0.32333103 -0.064719155 -0.15789762 0.00057114114 -0.19783925 -0.25858772 -0.12929115 0.08366901 0.050817154 -0.29489544 0.13767226 0.07194501 0.20314857 -0.07459118 0.031733036 -0.18768202 -0.28933746 0.11326514 0.062477663 -0.0051670717 -0.15655705 -0.002929136 -0.07795913 0.18288702 -0.2738635 0.11038831 -0.09657673 0.1889212 0.036060736 -0.19696291 -0.008870353 -0.06257371 0.07051093 -0.028354438 -0.09906985 0.2679901 0.00023698626 0.06118065 -0.17722593 0.053676482 -0.046115234 -0.06987801 -0.22220333 0.13233326 -0.20257162 0.07980362 0.17000902 -0.065110594 -0.031985253 -0.055644967 -0.18730067 0.009448891 0.04752876 0.16116141 0.3145337 -0.20433357 0.3856767 0.005682468 -0.22133422 0.08278523 -0.08353845 -0.119995415 -0.014356497 0.098742865 0.25310993 0.15491758 0.20947169 0.33216476 0.06238527 0.03595486 -0.22398847 0.06361208 -0.1194461 -0.09562733 -0.012091337 0.2578999 -0.16309172 -0.0112526575 0.22227588 0.04892708 -0.06471226 -0.19079748 0.041261487 0.14254956 -0.0222521 -0.06667763 0.23903173 -0.036907226 -0.06380276 -0.20633365 0.16751625 -0.099986866 0.17775868 0.035197303 -0.0994975 0.17952183 -0.10207345 0.000752575 0.15170532 0.03792354
49 -0.11435428 -0.029846454 -0.17568266 -0.16738257 -0.04741981 -0.07102155 -0.015493844 0.16313595 0.062899545 -0.018116647 -0.20284142 -0.15417469 0.05347606 -0.018080743 -0.08926857 -0.1550859 -0.1685903 0.18049605 -0.10492166 0.12683186 0.03608041 -0.0271433 -0.14699899 -0.21897247 -0.018650994 0.05865019 -0.12421288 0.10137525 -0.31358218 -0.027336165 -0.24086492 0.026548035 -0.13550442 -0.27207544 -0.12056636 0.08384477 0.07257664 -0.31875613 0.17856394 0.14625958 0.17390421 -0.08455007 0.02958532 -0.15393136 -0.3023316 0.14940389 0.045678385 -0.04861698 -0.03473198 -0.03148105 -0.05226602 0.120362766 -0.2295008 0.1622922 -0.09882661 0.1415712 0.06479932 -0.14165895 0.0045142486 -0.035997033 0.0871322 -0.034973405 -0.12056531 0.2881853 -0.031120598 0.06650225 -0.15452977 0.02122247 0.03845877 -0.036222003 -0.17905045 0.15700795 -0.15439755 0.043047763 0.21816288 -0.042646203 -0.04233168 -0.011513635 -0.1512882 0.0060867816 0.06659293 0.16220005 0.19738717 -0.21948104 0.3733573 -0.07566521 -0.21754707 0.054476086 -0.16772874 -0.039840396 0.05059595 0.10835074 0.26706576 0.18153536 0.18318799 0.29776782 0.10089002 0.04660948 -0.28725943 0.08828441 -0.1185622 -0.1018431 0.0062790117 0.29579756 -0.08208629 -0.022113333 0.23084821 0.06858633 0.033097565 -0.20044217 0.05237324 0.120761976 0.0489041 -0.003385624 0.18145461 -0.09329694 -0.07401423 -0.25270155 0.27040783 -0.079114944 0.19934025 0.019706076 -0.15080649 0.15653583 -0.15424179 -0.03340449 0.07306119 0.05930598
34 0.22194993 0.036640014 0.080746084 -0.14199884 -0.1119885 0.059960727 -0.0068371245 0.202344 0.02305543 -0.029390458 -0.009299774 0.038829185 0.16200288 -0.28966615 0.011613543 -0.06950796 0.03599925 0.1378432 0.13006759 0.026597856 -0.105317645 0.1488762 -0.30137438 0.0025360943 0.13565758 -0.019937128 0.11244187 0.12390189 -0.15915489 0.009207361 -0.11205315 -0.19111371 -0.20813721 -0.12543629 -0.08794492 -0.118002884 -0.05261253 -0.3461435 0.15985695 -0.10723872 0.084276944 -0.2879299 0.024377186 -0.33284944 -0.024956169 -0.1353585 0.16153795 -0.07246535 -0.45661548 -0.01974458 -0.18186536 0.17189994 0.089232735 -0.020303808 0.048272755 0.037605576 -0.08217205 -0.12569311 0.14741 0.015056605 -0.041384347 -0.007023377 -0.012043882 0.026453966 -0.06414959 -0.18343519 0.029231958 -0.08324635 0.066000186 -0.2689547 -0.42809832 0.11822726 -0.004490481 0.065256104 -0.25339824 -0.105099455 0.20192331 -0.12108973 -0.082460344 -0.0005011689 -0.2520079 0.20345728 0.23524176 0.20522271 0.14441568 0.107621506 -0.0765048 0.22333041 -0.012849372 -0.2822262 0.02626232 0.026545929 -0.09180021 -0.14940484 0.23887333 0.33242416 -0.1193904 -0.0103811575 -0.26316303 -0.13155767 -0.23612662 -0.027927903 -0.19575252 0.21539049 0.05515736 -0.12311657 -0.089466356 0.026485756 -0.0677675 0.061982855 -0.1118471 0.21399279 -0.10662715 -0.31452933 0.43599063 0.032957543 -0.15651159 0.054056536 -0.4188332 0.266459 0.029721703 -0.06667909 -0.053147588 0.14568128 0.15652725 0.11563579 0.07874777 -0.025909975
38 0.18012163 0.017250864 0.09633471 -0.12284087 -0.04103275 0.031702437 0.030272337 0.1242969 0.07778664 -0.05626545 -0.08735692 -0.04836473 0.044482406 -0.29275057 0.02362034 -0.026741672 -0.029659327 0.16519102 0.05796611 0.09912765 -0.038309287 0.06610631 -0.2984755 -0.055431552 0.110060535 -0.06202993 0.09409171 0.1984662 -0.15147558 0.086728565 -0.22723584 -0.17198028 -0.14845273 -0.16795938 -0.058274146 -0.07552896 0.029144678 -0.27320194 0.21314158 -0.025678433 0.10276167 -0.27423802 0.059929635 -0.26851073 -0.10327619 -0.08209137 0.10897533 -0.15446003 -0.3247296 -0.060258117 -0.10918112 0.1185915 0.04741681 0.072651535 -0.07420975 0.0318061 -0.05229034 -0.14210624 0.09992182 0.05723468 -0.060105465 -0.07440235 -0.019968657 0.09498933 -0.0067370906 -0.108925 0.043071814 -0.105247006 0.05290124 -0.23581238 -0.36315802 0.12169037 -0.00462986 0.08852399 -0.18400072 -0.10213513 0.19713196 -0.06661783 -0.05240373 0.011582413 -0.22164458 0.15614083 0.1533746 0.15494815 0.20398471 0.027898991 -0.13575852 0.15411593 -0.06482178 -0.22877182 -0.009370666 0.032294173 -0.0017190375 -0.07815175 0.17997327 0.24139065 -0.030538876 -0.05035149 -0.2671844 -0.112919666 -0.23438282 -0.047573622 -0.124848425 0.17510077 0.09983675 -0.16129151 0.02380373 0.042980425 -0.023438215 -0.011133467 -0.12755682 0.21030898 -0.0989752 -0.29858628 0.41609415 -0.009404412 -0.14416622 -0.034263972 -0.25997114 0.24529245 0.041516792 -0.03322791 -0.1410098 0.142315 0.10099146 0.09138708 0.09352654 0.039065745
35 0.24745627 0.033319622 0.14543211 -0.12478359 -0.019743918 0.044491224 0.0712168 0.110584244 0.10289405 -0.09761336 -0.11773536 -0.05707596 0.047891576 -0.35441437 0.019666145 0.017959405 -0.02076955 0.17413116 0.051323872 0.12299832 -0.039573196 0.039324485 -0.33588675 -0.038004722 0.12984613 -0.10069207 0.13203876 0.2447404 -0.13858685 0.12393049 -0.2483195 -0.21781562 -0.16236272 -0.1633754 -0.047008824 -0.10288036 0.03298836 -0.23900491 0.24436732 -0.029143048 0.10471603 -0.31152672 0.07265092 -0.3333619 -0.07378194 -0.12169521 0.13840277 -0.21393672 -0.37503794 -0.06840265 -0.10771838 0.13071488 0.069930606 0.067966886 -0.12676096 0.026583906 -0.08896727 -0.14946125 0.08641935 0.0943184 -0.07515444 -0.09067636 -0.010119982 0.07610348 0.0180596 -0.13710946 0.09257621 -0.10996397 0.02965757 -0.26543176 -0.40225756 0.11572696 -0.004089999 0.1254558 -0.21764772 -0.12241945 0.24398361 -0.07145945 -0.05045606 0.009129183 -0.26788843 0.14992146 0.15642971 0.22989082 0.20117885 0.025213098 -0.13550638 0.17769529 -0.033579756 -0.26888382 -0.06596032 0.01813711 -0.029767534 -0.11922523 0.17375818 0.23304191 -0.0442856 -0.08395654 -0.2829559 -0.14409828 -0.28031743 -0.06207682 -0.1423309 0.15289403 0.11495857 -0.2302243 0.05820601 0.033147518 -0.019114435 -0.011789824 -0.18961139 0.24427152 -0.12936157 -0.35395685 0.46817157 -0.00065168476 -0.15501742 -0.013221446 -0.30843723 0.3006558 0.014004178 -0.027448794 -0.14439471 0.1528761 0.1508633 0.13938221 0.11134286 0.057295118
37 0.20889656 0.03707382 0.0753068 -0.14826132 -0.11362352 0.065685876 -0.040841006 0.20755313 0.04122623 -0.006496478 0.009443552 0.028578965 0.12769906 -0.30636194 0.02931811 -0.09550013 0.025372759 0.14971483 0.15071303 0.02636499 -0.09387246 0.18737248 -0.30196404 -0.010176934 0.14727393 -0.027498467 0.1103709 0.13538174 -0.15520872 0.009942235 -0.13891166 -0.18807372 -0.20100963 -0.14126566 -0.085837 -0.115023635 -0.045898255 -0.38143164 0.17102411 -0.11074289 0.08281683 -0.29998803 0.036065638 -0.313525 -0.051869545 -0.12743916 0.14345019 -0.0671837 -0.4373623 -0.031621564 -0.18769139 0.15577744 0.091244146 -0.013898218 0.062359378 0.04556033 -0.07625149 -0.1405015 0.16776961 0.01771695 -0.052922398 -0.005772086 -0.011742038 0.04401791 -0.07878561 -0.17095582 0.02181358 -0.10865766 0.092369646 -0.26885226 -0.42917627 0.13953398 0.012283319 0.04810218 -0.2546629 -0.10327272 0.19518498 -0.12090546 -0.08410956 0.0069921613 -0.24059781 0.2040266 0.22163507 0.18719168 0.151726 0.10973002 -0.08998514 0.2105354 -0.058409683 -0.27022606 0.067496285 0.03135824 -0.0737873 -0.11902821 0.24893762 0.33181635 -0.08656424 -0.0070870756 -0.29492962 -0.1135064 -0.23521239 -0.010491102 -0.18023415 0.22777297 0.09253862 -0.108817786 -0.11128872 0.051195856 -0.08362968 0.06377678 -0.089236185 0.21127015 -0.10785377 -0.32679784 0.4700059 0.02925433 -0.17068675 0.020799544 -0.42091098 0.28308415 0.050942797 -0.06819812 -0.081660815 0.15275377 0.14838633 0.083651334 0.07917558 -0.031905416
36 0.21835352 0.040987544 0.15878525 -0.16385779 -0.06077323 0.023589857 -0.011345299 0.17517535 0.053796638 -0.049982835 -0.071899444 -0.031685736 0.06691541 -0.30927497 0.057086404 -0.051589977 -0.048593983 0.15496618 0.056297943 0.08061657 -0.046489876 0.08786174 -0.31726047 -0.021585772 0.1490953 -0.04523406 0.116944134 0.18927471 -0.16139017 0.09052858 -0.23615602 -0.20397523 -0.14524989 -0.15505128 -0.0709583 -0.13038707 -0.007568091 -0.33138463 0.24455419 -0.029879173 0.077188 -0.3312601 0.03530139 -0.33054405 -0.039854635 -0.11878362 0.1618149 -0.176264 -0.3727307 -0.053358592 -0.13615702 0.1130767 0.13323572 0.058075495 -0.020314394 -0.012020438 -0.07440481 -0.09678983 0.1387345 0.05948583 -0.033852845 -0.060870744 -0.014451652 0.05083028 -0.049630824 -0.17388213 0.0923933 -0.12779875 0.11310189 -0.2615939 -0.42725095 0.13753413 0.03881683 0.076308385 -0.23216411 -0.10656997 0.25529143 -0.058906645 -0.029267808 0.00048413908 -0.277424 0.20892736 0.12728353 0.24921638 0.16477405 0.023107193 -0.107217126 0.21136901 -0.063835904 -0.24468777 0.018619474 0.03372669 -0.07840207 -0.1568102 0.2071898 0.2801824 -0.09236395 -0.027900763 -0.32325915 -0.1434876 -0.27856478 -0.059705745 -0.16886668 0.23209077 0.14097178 -0.19784889 -0.04132492 0.024732755 0.011006077 0.026148021 -0.1501967 0.23347223 -0.07641731 -0.30040902 0.4264192 -0.027840331 -0.16991504 0.034517154 -0.34775892 0.33009195 0.019356377 -0.060848143 -0.11691933 0.13069354 0.13799958 0.13380805 0.03287637 0.036230437
54 -0.11374149 -0.026296776 -0.19357869 -0.20004968 -0.10026371 -0.0766255 -0.07322667 0.2444808 0.022259638 0.012414248 -0.1590973 -0.116373286 0.11601961 0.0008086815 -0.08991418 -0.23021679 -0.16934468 0.17100987 -0.06429319 0.08482737 -0.005165188 0.042537943 -0.14571656 -0.20835151 -0.0011136059 0.10143339 -0.13572586 0.044753995 -0.34854603 -0.0873841 -0.1908731 0.033518426 -0.17272528 -0.26930767 -0.15070564 0.06540548 0.018304802 -0.4201502 0.17545794 0.11027203 0.16519922 -0.10809438 0.0024824948 -0.19902885 -0.2821169 0.13704383 0.07483743 -0.0007961554 -0.09663354 0.005773078 -0.104343764 0.14622939 -0.20362091 0.111623794 -0.0018894434 0.15535738 0.048906807 -0.1263846 0.042394027 -0.071714945 0.13068013 0.01826478 -0.1312803 0.27780592 -0.09382745 0.03250479 -0.17538166 0.037908982 0.082312815 -0.04854549 -0.23172574 0.18118349 -0.14412962 0.019219346 0.21120806 -0.04362874 -0.052395653 -0.023223378 -0.16928594 -2.4919587e-05 0.06026377 0.21910714 0.23686725 -0.2067355 0.3484365 -0.042036608 -0.19717348 0.10140775 -0.15673894 -0.053514667 0.11480565 0.114086375 0.23509283 0.15682487 0.243098 0.3700346 0.045280997 0.08594685 -0.32385996 0.102845505 -0.12531546 -0.086069554 -0.024366684 0.37234923 -0.102449775 0.0012627669 0.15094435 0.06491103 0.022530444 -0.16269837 0.09416355 0.12843221 0.072728 0.025405377 0.19209355 -0.09577485 -0.090915844 -0.20944709 0.19489941 -0.061576154 0.21627754 -0.005146424 -0.09842667 0.15322399 -0.13268252 -0.026903978 0.041997105 0.022241076
31 0.0418071 0.015804572 -0.051082697 -0.08795322 -0.1395221 0.056910645 -0.042821854 0.15513092 0.009822909 0.0808322 0.064061336 0.07793104 0.11476742 -0.18935175 0.04498967 -0.13253757 0.037034824 0.14491247 0.12380703 -0.029019926 -0.07023175 0.20400019 -0.23813038 -0.011579491 0.108725585 0.042195868 0.027474243 0.0882127 -0.15438718 -0.051984906 -0.113007806 -0.14673467 -0.16535139 -0.14525867 -0.09396404 -0.056149993 -0.057174362 -0.36268216 0.023534808 -0.102020934 0.070025064 -0.18016607 0.009941825 -0.10708003 -0.1253576 -0.046972185 0.05688417 0.06421354 -0.30255315 -0.055399846 -0.17177825 0.12576023 -0.0019247809 0.0332577 0.1264526 0.06862606 0.027880562 -0.14242542 0.15802342 -0.048884206 -0.08747527 0.0022120941 -0.0007837892 0.04543345 -0.07027743 -0.09546733 -0.077720866 -0.106995955 0.05122425 -0.21731956 -0.28737307 0.09734668 -0.014499723 -0.028232303 -0.19306087 -0.049809545 0.09371457 -0.18187845 -0.08248157 0.024547728 -0.13465181 0.17716476 0.23903084 -0.022679335 0.19877647 0.1389854 -0.10371878 0.1416044 -0.13945456 -0.15962145 0.10790218 0.039846618 -0.015069534 -0.022435253 0.18041553 0.304437 -0.019703358 0.033365365 -0.21881576 -0.06591029 -0.11146726 -0.0098198345 -0.13358863 0.17296796 0.06409908 0.053104974 -0.112677656 0.054788854 -0.10479424 0.00266983 -0.0019286128 0.14685862 -0.06704511 -0.3119166 0.37590617 0.04113156 -0.12921754 -0.07002329 -0.24795923 0.12741496 0.10735869 -0.072283044 -0.122699484 0.13092248 0.030819481 -0.03627084 0.09425918 -0.0844172
28 0.07637697 0.00038003264 -0.03630708 -0.07927813 -0.054628544 0.054709848 0.06520891 0.08595525 0.0890064 -0.027582923 -0.04913994 -0.0120126745 0.06342952 -0.2299591 -0.014000366 -0.039962552 0.010034836 0.15500589 0.060432535 0.06880769 -0.04873521 0.08904927 -0.25324592 -0.051766146 0.07583679 -0.04076976 0.038162816 0.19105297 -0.15619682 0.034593053 -0.17648514 -0.15572257 -0.1556838 -0.17972805 -0.06655599 -0.029630657 0.014110168 -0.22568473 0.089121304 -0.04940703 0.12914242 -0.17579019 0.06315988 -0.16866295 -0.14770718 -0.029606672 0.049640793 -0.047693443 -0.27031496 -0.07344948 -0.099151865 0.13534865 -0.06451836 0.07419367 -0.080018826 0.10524332 -0.0041926573 -0.18597253 0.062847294 0.018149694 -0.081596695 -0.04261799 -0.010069669 0.08674216 0.014121579 -0.056535807 -0.02998318 -0.07351807 -0.02656653 -0.18787025 -0.2637093 0.0898229 -0.07684174 0.056660563 -0.104592815 -0.072839305 0.09858616 -0.12842819 -0.107081026 0.036729574 -0.11014034 0.102018476 0.22137333 -0.008914155 0.24278986 0.07757158 -0.14092529 0.11049044 -0.067023024 -0.18092299 -0.03060239 0.021787236 0.07183827 0.024117488 0.14878298 0.22909692 0.028998367 -0.06205079 -0.20033157 -0.078285284 -0.15215668 -0.043161765 -0.09344783 0.10586534 0.035698652 -0.06781428 0.078638256 0.05316138 -0.07660589 -0.05283687 -0.06996011 0.18543439 -0.10232676 -0.29874176 0.37670296 0.012663449 -0.1190764 -0.12053095 -0.12747633 0.11247307 0.069358476 -0.014184391 -0.1484688 0.14343628 0.031536415 0.01564363 0.14742786 0.010776348
3 0.029191986 -0.03906103 -0.0928484 0.11577743 -0.0037650585 0.08781917 0.25858846 -0.14861974 0.10527902 -0.04009706 -0.08108325 0.022401411 0.056414865 -0.27438524 -0.019143365 0.11178632 0.13095684 0.21334967 0.04900318 0.10152549 -0.026680825 -0.04173009 -0.31437796 -0.0577987 0.016543362 -0.1186244 0.024389112 0.2932989 -0.10006045 0.067839876 -0.20234309 -0.21112356 -0.14715788 -0.16929744 0.010828369 0.015909107 0.13386136 0.0013697379 -0.0705222 -0.04998948 0.1616213 -0.075345546 0.10311217 0.054446675 -0.25860554 -0.0063481242 -0.04223162 0.009194629 -0.2672901 -0.1358633 -0.044275954 0.16264606 -0.23525862 0.18453272 -0.21692908 0.11424253 0.07852083 -0.28868768 0.001554771 0.009178174 -0.24468812 -0.19319619 0.07038673 0.1076282 0.20607063 0.06348944 -0.077798806 -0.09363841 -0.2823167 -0.24768648 -0.198336 -0.016680984 -0.13719863 0.13898146 -0.21977212 -0.06863776 0.12103151 -0.22226615 -0.058627248 0.06091808 -0.14378607 0.01069838 0.30222726 -0.15783167 0.4014337 0.15031476 -0.24656482 0.016783789 -0.107721046 -0.19254352 -0.22312763 0.034702096 0.10135414 0.027438147 -0.010069684 0.124959804 0.10422844 -0.08123214 -0.014768107 -0.13983867 -0.079264745 -0.080754 -0.05085881 -0.13465385 -0.0055859783 0.04927059 0.17432466 0.003070504 -0.19996753 -0.21073204 -0.1673723 0.16767782 -0.24022572 -0.51800764 0.4405119 0.15922374 -0.062059417 -0.16835661 -0.04974229 -0.019684074 0.07727439 0.042279594 -0.26248375 0.18396738 -0.020560324 -0.036969837 0.3121281 0.0015918463
2 0.02549729 -0.033685487 -0.0587932 0.08348116 0.008462263 0.06083992 0.20968138 -0.12861668 0.1170954 -0.035663657 -0.092365645 -0.015074261 0.0135734 -0.26315773 0.0036637394 0.09770414 0.07780031 0.20351353 0.021082964 0.1046637 0.0047780476 -0.03661592 -0.2931003 -0.06603387 0.03002965 -0.10876347 0.023706973 0.29281348 -0.09228191 0.09295338 -0.24249914 -0.18995549 -0.112416685 -0.17703757 0.010289523 0.015617756 0.13085538 -0.025725732 -0.018029124 -0.01818532 0.13608205 -0.09943707 0.102596566 0.042817492 -0.24360047 0.0068208515 -0.043985315 -0.038116906 -0.20759681 -0.13750745 -0.027930215 0.11245829 -0.18202208 0.19839732 -0.2139214 0.08520604 0.078187406 -0.2491723 0.0066443942 0.02308484 -0.21763656 -0.18261352 0.057729386 0.11338255 0.16817322 0.060002387 -0.048297495 -0.11168451 -0.21534069 -0.22174402 -0.17426772 0.008335259 -0.10311132 0.11417342 -0.18186001 -0.061983734 0.11945532 -0.18243988 -0.046708487 0.0598781 -0.13869527 0.01597893 0.23989624 -0.12745373 0.36974832 0.09745568 -0.23618579 0.015429903 -0.12768297 -0.16367176 -0.18030296 0.031811178 0.102625705 0.039969493 -0.012576194 0.09934534 0.10616518 -0.085871376 -0.061830662 -0.12624297 -0.09228944 -0.07695945 -0.03313348 -0.0975397 0.036542576 0.017326484 0.17479183 0.023340022 -0.14022669 -0.18457295 -0.15911734 0.16111131 -0.19575481 -0.46459422 0.40649033 0.10534505 -0.06527223 -0.1866697 -0.022797413 0.00801212 0.07549354 0.034885667 -0.26487878 0.16662727 -0.019206684 -0.03707883 0.2643012 0.01872603
43 -0.025872534 -0.018064782 -0.041865207 -0.086982146 -0.023999235 -0.009635507 0.028674418 0.06415732 0.070210524 -0.011877869 -0.112670206 -0.08180124 -0.0090603 -0.1415712 0.022294354 -0.05886666 -0.08829907 0.14678396 -0.029653437 0.089341916 0.024961041 0.008382668 -0.19314718 -0.099498086 0.041036878 -0.009220069 -0.027580375 0.15783046 -0.19007045 0.051757 -0.25221208 -0.089289695 -0.0924964 -0.20942107 -0.06784338 -0.00539074 0.057414435 -0.22450143 0.11723097 0.06944025 0.10203804 -0.14038444 0.03390943 -0.08513134 -0.19649564 0.039888248 0.032374315 -0.073646545 -0.098394506 -0.08647823 -0.05473569 0.06568376 -0.09663919 0.15484536 -0.0800505 0.04733765 0.049481135 -0.11853388 0.045848925 0.007736771 -0.027908625 -0.076188006 -0.033296596 0.15389454 0.013956815 0.004685638 -0.032365672 -0.071960986 0.022970926 -0.13590507 -0.19796652 0.104048744 -0.051834527 0.03459942 -0.011943004 -0.049381338 0.07837699 -0.05657972 -0.057806533 0.029787734 -0.056534283 0.1209884 0.12110361 -0.07794301 0.27725118 -0.007709837 -0.17829962 0.07257405 -0.15134278 -0.06944923 0.012710009 0.061006844 0.12720406 0.0692307 0.1131113 0.20159657 0.063854076 -0.0029569413 -0.22477569 -0.017431103 -0.12772246 -0.07323248 -0.049097314 0.15758637 0.06351919 -0.042701446 0.11096639 0.03271703 -0.0044694683 -0.14005126 -0.046801645 0.14517988 -0.01920659 -0.19488743 0.26719078 -0.04171373 -0.097042635 -0.15090685 0.050603077 0.064900056 0.10040008 0.007265087 -0.17747094 0.12876016 -0.058810532 -0.015976226 0.08574197 0.042770423
72 0.017269863 0.00012376945 -0.07138297 -0.14273602 -0.07852306 0.022840766 -0.046698056 0.17349616 0.08662824 0.034531083 -0.05257829 -0.060389347 0.03142771 -0.15958701 -0.01564231 -0.13379131 -0.06563988 0.15391251 0.052851535 0.05471519 -0.0116794715 0.14094944 -0.19185144 -0.09772217 0.05968342 0.015470509 -0.012566159 0.120593 -0.18628205 0.0013039191 -0.18568312 -0.07336828 -0.13952023 -0.20234779 -0.09609769 0.008774966 0.008091762 -0.33293223 0.13813268 -0.011785906 0.1099637 -0.15643656 0.054582227 -0.15990926 -0.17923671 0.023025522 0.042429164 -0.031097393 -0.17260547 -0.057592608 -0.10280769 0.106436335 -0.058069758 0.06959829 -0.0069257226 0.100555114 -0.001036575 -0.13808718 0.08275601 -0.0003230891 -0.013318543 0.0026139596 -0.061289813 0.13955425 -0.06372418 -0.031313427 -0.075356156 -0.073911294 0.07469534 -0.11950014 -0.23719728 0.1426573 -0.048506126 0.003641988 0.004496963 -0.05048372 0.029024683 -0.087090865 -0.12193882 0.0188893 -0.03890078 0.13635647 0.17658056 -0.06971849 0.22000575 0.026749711 -0.14608622 0.093269534 -0.12906057 -0.11051147 0.10458334 0.050647598 0.13126214 0.09588769 0.19431098 0.25508675 0.061398517 -0.003964219 -0.27123922 0.00741333 -0.1270396 -0.017763129 -0.06099914 0.21317868 0.04330264 -0.03662911 0.045503825 0.11189009 -0.032892123 -0.043202776 0.029245952 0.14053285 -0.024803353 -0.17250004 0.31497633 -0.03778003 -0.11997865 -0.17418699 -0.048928343 0.08700811 0.1323338 -0.020134158 -0.13511287 0.12783764 -0.0063216975 -0.03750639 0.0870934 -0.00366607
42 -0.038119376 0.009923984 -0.055893604 -0.16494635 -0.093514115 0.017837865 -0.15015323 0.1846355 0.11286619 0.11620472 -0.014308627 -0.08179688 -0.06624473 -0.16317399 0.039260544 -0.18639688 -0.118871436 0.16557647 0.078330666 0.0304164 0.033386286 0.224648 -0.1459273 -0.10994291 0.07889061 0.04622496 -0.018173493 0.122645006 -0.1637102 0.009821114 -0.2573498 -0.030631918 -0.09125367 -0.22287375 -0.10791185 0.014485912 0.015754977 -0.39614448 0.16946344 0.0037340617 0.077018626 -0.17180288 0.061334103 -0.08819059 -0.21541469 0.058448903 -0.017546818 -0.020988978 -0.068321265 -0.08697398 -0.10775712 0.027749613 -0.005817669 0.094203815 0.04829099 0.096624434 0.024968145 -0.12802413 0.114396386 0.009521525 -0.02737892 0.011066352 -0.075133786 0.16063218 -0.13990614 -0.0033080373 -0.07832316 -0.13102274 0.18423188 -0.08666479 -0.19958632 0.18066294 0.0095101185 -0.0660641 0.023536775 -0.012765299 -0.0067428215 -0.071687646 -0.099107966 0.020117462 -0.00805059 0.14225133 0.08835352 -0.11797398 0.20737879 -0.010727762 -0.16908573 0.055766597 -0.22525807 -0.051657356 0.23844479 0.061301667 0.15892889 0.17159052 0.19515803 0.22358853 0.12004551 0.0018292108 -0.3475288 0.05043278 -0.10173139 0.022183603 -0.00934569 0.24776362 0.14494766 -0.0032584395 -0.01110279 0.18156885 -0.009688763 -0.01107245 0.10324745 0.11939561 0.028150046 -0.12697501 0.32889828 -0.09061848 -0.14419405 -0.25146222 -0.009440714 0.09614953 0.18915422 -0.0376169 -0.18638952 0.119811706 -0.03503722 -0.12260167 0.042401258 -0.022659726
39 -0.07001786 -0.0279586 -0.102457546 -0.11425035 -0.051094737 -0.042383075 -0.013707495 0.11152168 0.07728033 0.0021458243 -0.13077831 -0.1037356 -0.0056707747 -0.098099194 -0.03129505 -0.106215276 -0.12826562 0.16131015 -0.038709383 0.09309015 0.027426658 0.024609117 -0.15827487 -0.15651973 0.0111158 0.026420016 -0.07428599 0.1290112 -0.22934952 0.018553788 -0.24258351 -0.011656402 -0.1083483 -0.23407058 -0.09644471 0.039382838 0.076449774 -0.27447549 0.15921488 0.10342091 0.13452496 -0.10927992 0.036850814 -0.10681117 -0.2471376 0.094196446 0.01247151 -0.057986543 -0.05470331 -0.06062344 -0.05303993 0.06501343 -0.16047612 0.15441495 -0.07778504 0.11138708 0.061654672 -0.1493559 0.021544091 -0.015865704 0.018026648 -0.06027818 -0.066674955 0.22914119 -0.028999083 0.0528195 -0.090446234 -0.027788825 0.042816777 -0.06941357 -0.18086755 0.1204549 -0.08137467 0.02758268 0.09893778 -0.042160638 0.013194295 -0.025639415 -0.09558077 0.02324939 0.01483843 0.12708381 0.14505886 -0.16027401 0.3253548 -0.03566858 -0.21108723 0.045461565 -0.16386193 -0.059782196 0.060676135 0.076436535 0.20041382 0.14097154 0.140275 0.23407644 0.09914644 0.018711073 -0.25085855 0.03616028 -0.10793708 -0.062840916 0.016095798 0.21000913 0.0039777495 -0.028844662 0.13954203 0.07034046 -0.008820703 -0.14793505 0.023057228 0.11775266 0.011518719 -0.08064152 0.23829116 -0.07295072 -0.085037395 -0.21266463 0.1470234 -0.016131904 0.15866482 0.01734012 -0.16444395 0.14077899 -0.090428226 -0.04186643 0.088851854 0.03323444
44 0.039609525 -0.008298009 -0.07103723 -0.057139587 -0.051194053 0.055790085 0.06709447 0.068736024 0.08641418 -0.005168441 -0.046494234 -0.014853468 0.06232071 -0.19424401 -0.03461184 -0.036414392 0.01691288 0.15315638 0.055453766 0.057055052 -0.036209717 0.07628714 -0.22709216 -0.059093013 0.05789822 -0.03038211 0.01822358 0.17067501 -0.14772399 0.0149358045 -0.16350749 -0.13002114 -0.14923784 -0.17152013 -0.057830602 -0.0021398456 0.025151877 -0.1919335 0.04774055 -0.040446818 0.12983543 -0.12715912 0.06551614 -0.1084461 -0.16463435 -0.0049421974 0.021447722 -0.018589776 -0.22924393 -0.07185329 -0.07998931 0.13267867 -0.1041792 0.072051615 -0.07965017 0.12100583 0.00910573 -0.19131403 0.04571606 0.00064871216 -0.09337699 -0.039461575 -0.010514228 0.09206943 0.029309515 -0.026223544 -0.054994304 -0.060967334 -0.05711522 -0.1545612 -0.21765476 0.0735689 -0.0939165 0.04818512 -0.07443324 -0.058354203 0.0659441 -0.13339308 -0.111519694 0.037811667 -0.08137849 0.076603405 0.23305973 -0.0703084 0.2540654 0.07820029 -0.1540923 0.0751364 -0.07072495 -0.159499 -0.02838709 0.02441198 0.09876091 0.05864064 0.12572506 0.20074254 0.05381036 -0.053926103 -0.16692972 -0.05674112 -0.105391346 -0.039703302 -0.06937577 0.07091155 0.006138681 -0.02535607 0.09328028 0.07049829 -0.092844635 -0.069568545 -0.04449895 0.16144541 -0.107151 -0.27427194 0.34225032 0.02193563 -0.093744986 -0.15258892 -0.07199956 0.051134657 0.09309078 -0.0069345427 -0.14896564 0.13596804 0.0099957725 -0.016792806 0.15823899 -0.0005352689
12 -0.0026222805 -0.0044903834 -0.11685878 -0.060107876 -0.13900806 0.06209038 -0.05475475 0.14271843 0.01572599 0.09609239 0.07603122 0.061445914 0.10987399 -0.14970893 0.0202719 -0.14280945 0.058849264 0.12989034 0.15438041 -0.029932363 -0.07205095 0.21653542 -0.18746896 -0.03405927 0.07001365 0.045998584 -0.0048967944 0.059164066 -0.14166926 -0.08258087 -0.071904674 -0.09820098 -0.16661112 -0.1398216 -0.09410703 -0.019686248 -0.039082468 -0.3308688 -0.014353239 -0.10881493 0.07975417 -0.12413374 0.021864377 -0.049501132 -0.15540709 -0.010937711 0.019629272 0.12347302 -0.25393942 -0.04576478 -0.1636106 0.12644935 -0.05957994 0.016979177 0.13898282 0.1003568 0.034560572 -0.15478721 0.13601747 -0.06852358 -0.08045974 0.022538273 -0.010356798 0.07194594 -0.07436412 -0.042281017 -0.12543854 -0.077169076 0.028819937 -0.16795222 -0.23647332 0.09964915 -0.04295277 -0.029298013 -0.13140932 -0.028244076 0.02280319 -0.18001659 -0.10919736 0.028355407 -0.062010594 0.14519311 0.24756616 -0.103075534 0.20286934 0.14985889 -0.11228451 0.10793451 -0.13884021 -0.12962054 0.13215074 0.051920526 0.03983499 0.044902913 0.18498188 0.28723526 0.018302113 0.041759744 -0.17656733 -0.017956026 -0.06525744 0.017297117 -0.10050382 0.1510355 0.01980084 0.10772607 -0.10458575 0.07625768 -0.14154802 -0.0011741432 0.052943278 0.10546585 -0.06478941 -0.2584238 0.33914188 0.053946946 -0.11038498 -0.11236031 -0.18561536 0.045812767 0.13160771 -0.054460578 -0.10533313 0.13125259 0.0029975208 -0.08454284 0.117536224 -0.09260515
33 0.027101321 0.0029154925 -0.014176908 -0.11531799 -0.053747084 0.003077386 -0.008168788 0.12544566 0.068005584 0.001345278 -0.07076953 -0.052710347 0.019792924 -0.16718704 0.021262243 -0.08360399 -0.06973438 0.13749337 0.010366497 0.062912464 -0.0077662496 0.0715804 -0.20671071 -0.076240785 0.06912586 0.0028453746 -0.0014205998 0.13533215 -0.17683673 0.031596586 -0.2158568 -0.104802325 -0.11755328 -0.18645224 -0.07835011 -0.026757814 0.017287022 -0.2756548 0.13368809 0.020188317 0.091968864 -0.1775878 0.029800085 -0.15004267 -0.14982085 9.9393874e-05 0.062463053 -0.06633564 -0.16641521 -0.07005912 -0.089778274 0.07946693 -0.03674098 0.09657292 -0.023241429 0.056285437 0.01737018 -0.110455535 0.079826795 0.009755372 -0.017166432 -0.032314837 -0.034231286 0.11718303 -0.03166043 -0.042038333 -0.022532493 -0.077304505 0.06422771 -0.14895716 -0.24601361 0.12540886 -0.030179335 0.02383603 -0.042674445 -0.05597072 0.09115204 -0.068009935 -0.07605332 0.016400365 -0.078816086 0.1461255 0.1315347 -0.016124597 0.22262128 0.016841687 -0.1419184 0.10692385 -0.12394503 -0.10218401 0.047215138 0.053432073 0.07862964 0.030887965 0.15152045 0.23346026 0.030519411 0.002830623 -0.25413504 -0.030259836 -0.14671552 -0.05253497 -0.07222744 0.19597362 0.06807606 -0.06202517 0.053328834 0.047625344 -0.012534199 -0.07214196 -0.035116795 0.15908012 -0.019089444 -0.19700675 0.29590774 -0.042428695 -0.11608238 -0.121662036 -0.05921545 0.115849406 0.09010398 -0.016124086 -0.14528435 0.117010936 -0.014650409 0.00020060522 0.06903511 0.024057131
47 -0.29105183 -0.10850786 -0.0018727581 -0.09026206 0.032945454 -0.19958796 -0.056678806 0.04232096 -0.033378687 -0.073381595 -0.20737661 -0.20400007 -0.1346384 0.020051206 0.29105365 -0.10756638 -0.38753274 0.102373205 -0.27627447 0.15249014 0.1913993 -0.25523558 -0.20316513 -0.12567078 0.083568685 0.08615891 -0.20896806 0.10020661 -0.3964147 0.1423155 -0.56936723 -0.078889094 0.06308088 -0.3549258 -0.12073413 -0.08653405 0.11371972 -0.32758555 0.15442708 0.45663962 0.05546258 -0.23138255 -0.1414547 0.1169663 -0.2640416 0.14228973 0.13996524 -0.14711823 0.2100567 -0.1770868 -0.022199068 -0.12136625 -0.1641763 0.41949815 0.067273274 -0.21173307 0.28033304 0.09191062 0.08367626 -0.13602659 0.08503778 -0.15022855 0.008486806 0.28819317 0.07137257 0.038910583 0.049586404 -0.06623884 0.20211986 -0.21520533 -0.26169595 0.15597682 0.037486594 -0.04341106 0.011902705 -0.023537703 0.23307906 0.1268514 0.11322964 0.05645244 -0.016099712 0.30930102 -0.12222946 -0.05285566 0.50689256 -0.15500276 -0.27967304 0.18419589 -0.3861954 0.1794216 0.06964616 0.13316254 0.13506985 0.024233524 0.09524088 0.4007071 0.06432289 0.2304065 -0.325458 0.028179064 -0.20447321 -0.22504956 -0.11919256 0.43277833 0.21465702 0.0089917425 0.063892536 -0.20847665 0.17143494 -0.40835238 -0.14241003 0.1875375 0.1898643 -0.14824106 0.14514118 -0.1706769 -0.09235391 -0.04550332 0.2997828 0.10081795 0.07951997 0.030259049 -0.2934336 0.1824494 -0.3019439 0.044652462 -0.07724367 0.18394525
74 -0.22131681 -0.041750155 -0.00518776 -0.101494245 -0.004354098 -0.15225321 -0.036659222 0.012988793 -0.0013961614 0.01294203 -0.17673708 -0.13816577 -0.10888679 -0.017339485 0.1733528 -0.09194369 -0.2677745 0.1747152 -0.23366429 0.117772184 0.16392179 -0.1410272 -0.1839318 -0.11669536 0.050781295 0.06641164 -0.13407671 0.15018642 -0.24974008 0.10074865 -0.47732186 -0.05967661 0.035437766 -0.27266803 -0.069278896 -0.03777787 0.10551824 -0.28102055 0.14509219 0.30276868 0.05436629 -0.17447396 -0.055429794 0.071073055 -0.28863117 0.12076347 0.043736022 -0.11103582 0.12195263 -0.1509575 -0.02365622 -0.074004 -0.091674246 0.35174152 -0.016185336 -0.10203926 0.21561082 -0.00032290735 0.08488471 -0.053706814 0.013865964 -0.14938459 0.001818145 0.24756175 0.01769064 0.037303954 -0.004392311 -0.11539862 0.12211497 -0.16367672 -0.18426251 0.13595937 0.041720223 -0.029910725 -0.007075026 -0.017565688 0.13577063 0.025542194 0.07908107 0.030988842 -0.07370382 0.22511528 -0.06136073 -0.12583174 0.42383224 -0.13914284 -0.23575823 0.07306949 -0.3713635 0.09923417 0.08156818 0.12695716 0.10268397 0.040045794 0.03261322 0.22432187 0.0706991 0.14423205 -0.32229215 -0.024498634 -0.12617667 -0.1706073 -0.046300974 0.2793222 0.19447412 0.014161583 0.08473904 -0.06443654 0.14631625 -0.29502815 -0.0806876 0.16225329 0.1075078 -0.16552772 0.18172182 -0.11385292 -0.07346516 -0.16353312 0.25684345 0.078225575 0.13678184 -0.030311748 -0.30532286 0.13472173 -0.22482851 -0.028973337 -0.03959642 0.09426568
73 -0.2236551 -0.055126626 -0.016817855 -0.09687191 -0.003279144 -0.13268638 -0.0772434 0.03518228 0.015229998 0.04546184 -0.13989083 -0.14356446 -0.1307302 -0.032194126 0.1883309 -0.11986963 -0.26947552 0.15426652 -0.17868869 0.101097405 0.16513911 -0.073195525 -0.1667008 -0.114955634 0.065008245 0.066554174 -0.1349401 0.14036244 -0.23241188 0.08883513 -0.47317326 -0.04657882 0.0450682 -0.2786973 -0.07669344 -0.025493417 0.09831172 -0.29521036 0.15646487 0.28210744 0.05258587 -0.17437178 -0.05450399 0.08706798 -0.2763501 0.12081362 0.026435103 -0.10071424 0.12680943 -0.15820079 -0.038900707 -0.09275983 -0.08250552 0.3192811 0.015544751 -0.09335021 0.19782883 -0.013941658 0.09546015 -0.055946596 0.010679856 -0.122603364 0.003273735 0.24122502 -0.007864294 0.043379594 -0.0066633867 -0.1326165 0.15617865 -0.1464151 -0.17956991 0.149435 0.063940436 -0.060143784 -0.008529624 -0.00084560236 0.13109723 0.03247739 0.06594666 0.033530705 -0.047253493 0.22056183 -0.07533176 -0.13020635 0.40406767 -0.1264573 -0.23378119 0.069186315 -0.380341 0.102418505 0.12488257 0.12183907 0.12128759 0.072881475 0.051260646 0.2367215 0.091148704 0.14051127 -0.326999 -0.0021681602 -0.11793671 -0.13247545 -0.03679042 0.29981086 0.22628799 0.016421266 0.04175041 -0.039222527 0.11536083 -0.26198086 -0.05235041 0.15697023 0.10918819 -0.16061218 0.21089694 -0.12321833 -0.08866058 -0.17650214 0.22338812 0.09079824 0.15031278 -0.031999912 -0.30565664 0.13517223 -0.22219971 -0.045380216 -0.03708729 0.07858072
56 -0.1535544 -0.038871706 -0.14592221 -0.09395478 -0.04996263 -0.067196675 -0.02319147 0.09179454 0.031380918 0.029536612 -0.12410973 -0.09655532 0.02072426 -0.010748547 -0.010732372 -0.1348579 -0.13121592 0.15327945 -0.08621785 0.07585247 0.051152255 -0.010126747 -0.13362524 -0.15728511 -0.00231396 0.061562564 -0.116340525 0.10214226 -0.2405695 -0.016808985 -0.24573001 0.0010880902 -0.08129179 -0.22417976 -0.08833175 0.05765618 0.07142912 -0.26749784 0.08422699 0.12029331 0.11607968 -0.07261796 0.0093722455 -0.004294065 -0.27393556 0.13590346 -0.00017263726 -0.002517154 0.01244679 -0.059212122 -0.049158514 0.06982924 -0.18444356 0.18940455 -0.029592892 0.07930784 0.11011667 -0.11073006 0.03911028 -0.059315182 0.021595964 -0.05380894 -0.063064426 0.22477543 -0.01333084 0.0717392 -0.13542475 -0.027689291 0.036173142 -0.06765865 -0.13237438 0.1206683 -0.095984794 -0.0016186265 0.10344482 -0.02284863 -0.022688346 -0.047715478 -0.08133629 0.018886507 0.030364739 0.1434371 0.1443567 -0.23565604 0.34925786 -0.039940946 -0.20817252 0.042356692 -0.21779889 -0.00089955644 0.07408714 0.09245999 0.19484043 0.13807157 0.1141292 0.2357131 0.095285594 0.06327557 -0.22776653 0.05518616 -0.06963923 -0.08642174 -0.0009962729 0.2190504 -0.014946433 0.061907634 0.13280855 0.04515301 0.01997096 -0.19781555 0.042958517 0.09354794 0.04210674 -0.07103316 0.16789208 -0.061753903 -0.058448896 -0.22149216 0.2169673 -0.070007555 0.17418961 0.00067356654 -0.18170829 0.124507785 -0.15465501 -0.07216948 0.056645386 0.029227313
30 -0.0611406 0.0025015562 -0.12112385 -0.08925747 -0.22923777 0.033634957 -0.13614766 0.22241253 -0.088503376 0.16291218 0.15917091 0.14895931 0.1908092 -0.08677837 0.08577073 -0.23006663 0.054933123 0.11803581 0.1585349 -0.11107152 -0.09075101 0.28394666 -0.20557705 0.011338124 0.118924394 0.13144732 -0.028197702 -0.022158317 -0.19313861 -0.17038557 -0.04948965 -0.12118201 -0.18131287 -0.13241129 -0.13002577 -0.076503836 -0.11833698 -0.49075493 -0.07810344 -0.11696005 0.04388455 -0.15642829 -0.068535216 -0.023596998 -0.13194671 -0.03644379 0.06884469 0.21639878 -0.2958771 -0.021686334 -0.2427625 0.13805796 -0.0056408443 0.013082857 0.33348396 0.041220374 0.08614317 -0.0987134 0.23429815 -0.1599516 -0.05734716 0.06235507 0.0019336237 0.030416286 -0.14821555 -0.108344816 -0.1479786 -0.0930802 0.106450185 -0.2241777 -0.29884622 0.11130458 -0.0015911473 -0.1090403 -0.22250006 -0.024206486 0.0534878 -0.22765031 -0.07544571 0.017816331 -0.10947829 0.24923998 0.27205104 -0.092390284 0.19951141 0.19495213 -0.070290096 0.19033146 -0.20217493 -0.107283965 0.23186332 0.07291101 -0.057595044 -0.036587935 0.22143649 0.41345987 -0.07347202 0.15616693 -0.22447707 -0.03187493 -0.06489297 0.0008008295 -0.18181875 0.26593113 0.035405036 0.21188492 -0.26380283 0.023275651 -0.1290327 0.00531743 0.07357082 0.11701908 -0.008931452 -0.27789432 0.32731405 0.07171028 -0.12652573 -0.02211729 -0.28553826 0.08560648 0.1497931 -0.11745053 -0.08430181 0.13585882 -0.02467915 -0.086720824 0.03902783 -0.15617363
50 -0.07130023 -0.010859702 -0.14141083 -0.15038404 -0.086626105 -0.013892071 -0.07444015 0.1808472 0.07838438 0.051710956 -0.08756261 -0.08280229 0.038112834 -0.10225357 -0.035471644 -0.17240302 -0.1071907 0.1655804 0.01899595 0.062614135 0.0023566764 0.111700654 -0.16197346 -0.15706158 0.026444608 0.05211311 -0.07708203 0.0983406 -0.2406604 -0.035889823 -0.2070674 -0.010306741 -0.1389384 -0.23718028 -0.11512238 0.05301689 0.022430291 -0.35621727 0.14837517 0.03931132 0.13631484 -0.11840918 0.049764883 -0.119797766 -0.25676462 0.09013381 0.020176645 -0.0030674578 -0.104544334 -0.045398004 -0.09670139 0.10188767 -0.13244857 0.101691246 -0.0066818027 0.13508296 0.0379063 -0.15691577 0.059974056 -0.026845908 0.027299078 -0.0049111634 -0.08257953 0.21749422 -0.08135984 0.026676469 -0.13931376 -0.03390375 0.074588634 -0.07926167 -0.20404193 0.16138288 -0.088493094 -0.0003566827 0.10341341 -0.026876342 -0.029220343 -0.069129735 -0.14191939 0.013927989 0.02525231 0.15412875 0.18918398 -0.1773423 0.29476488 -0.0012525915 -0.18656835 0.06072697 -0.16676293 -0.076120354 0.13300845 0.08367522 0.20791371 0.17197473 0.19508593 0.2792952 0.09816666 0.02798369 -0.28918636 0.06478144 -0.10449046 -0.028401336 -0.013396875 0.2590186 -0.0013244415 0.008293769 0.09806966 0.11619598 -0.03277748 -0.10461685 0.0831555 0.121186554 0.021870416 -0.07688779 0.2601801 -0.06629053 -0.09808708 -0.23159824 0.08693661 -0.008575446 0.1867293 -0.0037103046 -0.13675198 0.13576971 -0.07505635 -0.07609263 0.07708171 0.0012480111
6 0.051334914 -0.052176148 -0.100531094 0.17445941 0.014092005 0.113763206 0.35233256 -0.22546601 0.14876953 -0.07235385 -0.09829602 0.02218217 0.056705944 -0.3914833 -0.018151483 0.18122026 0.18321529 0.27546138 0.070083134 0.1470088 -0.035759125 -0.06654009 -0.4228217 -0.07154033 0.024625137 -0.17227663 0.051082723 0.40940633 -0.10627613 0.11468887 -0.2717136 -0.28982374 -0.17580684 -0.21619582 0.030543042 0.018673852 0.19120605 0.039705828 -0.08949643 -0.06489811 0.20378898 -0.10212106 0.1455035 0.08634258 -0.32765338 -0.012038972 -0.06936294 -0.011341773 -0.3406637 -0.18855415 -0.04911101 0.19208136 -0.30077305 0.24809104 -0.30747652 0.12728396 0.110843755 -0.3811356 -0.012594416 0.020417204 -0.33715218 -0.26690352 0.1088386 0.12819599 0.28666183 0.08678008 -0.07472303 -0.13102037 -0.38274056 -0.3391854 -0.24517237 -0.030374184 -0.17462982 0.18226747 -0.31011698 -0.09388278 0.17323774 -0.28068718 -0.06711468 0.08790357 -0.20103288 -0.012963858 0.3798338 -0.1809334 0.51744837 0.19159055 -0.32839713 0.014799189 -0.1242028 -0.25942743 -0.31152216 0.038171105 0.122929595 0.029490817 -0.035571862 0.13213657 0.13688922 -0.13361819 0.008316272 -0.19242686 -0.11206953 -0.09387893 -0.059242025 -0.20518538 -0.0024774438 0.053541224 0.22971608 0.003814547 -0.26655853 -0.26966065 -0.24523495 0.22236015 -0.32983857 -0.6997166 0.581138 0.21126282 -0.07865183 -0.21246912 -0.08530473 -0.01853889 0.07793355 0.06255765 -0.3474081 0.23798949 -0.0068587763 -0.03561611 0.41922322 0.011956151
1 -0.034510683 -0.07362208 -0.16412461 0.21916999 -0.018982926 0.11599408 0.3634887 -0.26302046 0.10101556 -0.035966456 -0.057756186 0.07200361 0.09355732 -0.31964073 -0.010056076 0.17006586 0.22158912 0.2596606 0.07076854 0.10957317 -0.03705678 -0.066334784 -0.38923782 -0.062027775 0.0017586788 -0.14489706 0.010514014 0.366103 -0.11355249 0.063523695 -0.22783652 -0.26950905 -0.17265718 -0.20186809 0.03714728 0.028020537 0.1846255 0.05559742 -0.20231186 -0.07629093 0.19957909 -0.039633956 0.11332089 0.19152072 -0.3531757 0.017714165 -0.101419 0.093382716 -0.3121802 -0.1909229 -0.057536077 0.19551735 -0.35611326 0.26116022 -0.2484698 0.13016266 0.16434304 -0.38063204 -0.0038691987 -0.036695857 -0.36343926 -0.26663458 0.12685488 0.121650785 0.29611233 0.12604582 -0.13261484 -0.116100684 -0.42033273 -0.3333591 -0.19188695 -0.068241216 -0.19615637 0.15876786 -0.31177637 -0.07373263 0.13093448 -0.3216785 -0.054196667 0.091257855 -0.17098394 -0.01971125 0.4148613 -0.28978187 0.5494438 0.23609777 -0.3210738 -0.009644859 -0.15817375 -0.2189827 -0.30875129 0.044916645 0.12502761 0.047078438 -0.06600942 0.14226201 0.14544252 -0.08108188 0.07223823 -0.18652214 -0.051267274 -0.10589275 -0.061096255 -0.24166709 -0.03678633 0.16774008 0.20769225 -0.025033038 -0.3019536 -0.31000426 -0.2172596 0.18405423 -0.321239 -0.7065801 0.5343552 0.25292495 -0.04914146 -0.21539597 -0.036850084 -0.110215485 0.09448217 0.05468369 -0.3563701 0.24133977 -0.06184758 -0.08673844 0.428436 -0.025958218
52 -0.08653642 -0.036489286 -0.18835467 -0.10742236 -0.07965513 -0.03091723 -0.017034622 0.14367291 0.05961863 0.006296271 -0.129491 -0.083877675 0.06821699 -0.06818913 -0.09136701 -0.14671943 -0.082214355 0.17045033 -0.014569944 0.09085884 -0.018316675 0.05103627 -0.14781104 -0.19101633 -0.0037395721 0.052019693 -0.09689014 0.08904391 -0.2751672 -0.058767203 -0.16734718 0.018550113 -0.15903823 -0.24908559 -0.12210428 0.07688086 0.062800944 -0.29440928 0.121574126 0.07419181 0.16705312 -0.06615098 0.033442646 -0.12755609 -0.2824056 0.116598986 0.0148469405 0.011319902 -0.108294524 -0.021545328 -0.08454315 0.12834482 -0.24375007 0.1073844 -0.05244318 0.17552444 0.05453834 -0.1967567 0.010759158 -0.055502187 0.04028468 -0.032413382 -0.08338336 0.25855422 -0.0342138 0.07359175 -0.1628812 0.015942683 -0.007675867 -0.05374021 -0.19231988 0.12033304 -0.14402065 0.0333547 0.14432193 -0.04021391 -0.036404364 -0.052297343 -0.16174622 0.022652699 0.06362991 0.14276887 0.2594338 -0.22956961 0.3556436 0.002316536 -0.212542 0.04926282 -0.13389575 -0.084552735 0.04728552 0.092442885 0.24251494 0.17735031 0.18313262 0.29756376 0.09260048 0.03624301 -0.23969218 0.06817314 -0.08265409 -0.057204437 0.020913005 0.23430103 -0.093237914 0.019771976 0.15966435 0.08187545 -0.06878122 -0.15136966 0.07213962 0.11324218 -0.014476409 -0.062797606 0.24299817 -0.04451791 -0.075223684 -0.22999594 0.15816875 -0.08301597 0.19284193 0.022115074 -0.12651782 0.17367752 -0.10579625 -0.05495047 0.1374513 0.007308456
4 -0.009505086 -0.065059625 -0.13166462 0.17978224 -0.0063850777 0.097199075 0.3214613 -0.22379 0.116541274 -0.04569018 -0.07057571 0.04033689 0.06706178 -0.31739154 -0.009513647 0.14964525 0.17649086 0.25149044 0.0617165 0.11631011 -0.028768241 -0.057222072 -0.37204295 -0.06378702 0.008802699 -0.14056042 0.015453053 0.35724255 -0.116558135 0.078832716 -0.23882912 -0.25276992 -0.15976833 -0.19978663 0.028572613 0.024075491 0.17319803 0.027107317 -0.13373227 -0.055988856 0.1862249 -0.06167342 0.11400226 0.14093943 -0.3300516 0.015410282 -0.08035051 0.048628703 -0.28887329 -0.17244156 -0.04600281 0.17804104 -0.3144058 0.24068578 -0.25316566 0.124447815 0.13711333 -0.354574 -0.002382587 -0.014810075 -0.3221399 -0.24702066 0.104136206 0.12690161 0.26671338 0.10914408 -0.109090075 -0.115220696 -0.36937028 -0.30302346 -0.19778806 -0.043198038 -0.17436615 0.15186398 -0.27660728 -0.077186815 0.13668232 -0.28168017 -0.054504015 0.08228389 -0.16239858 -0.009484554 0.36530238 -0.24253951 0.5076621 0.19321084 -0.30982634 0.0013030125 -0.14794165 -0.21225704 -0.27164966 0.041761532 0.12505968 0.045031566 -0.03970472 0.13704908 0.13394788 -0.09142329 0.03193883 -0.16704042 -0.0668089 -0.09959253 -0.0523285 -0.19642374 -0.019397216 0.111310415 0.20525694 -0.011541343 -0.26203066 -0.27917472 -0.20273098 0.18459153 -0.2950436 -0.64124614 0.51043814 0.21001954 -0.0548429 -0.21522787 -0.03306921 -0.06973918 0.09344737 0.052648593 -0.3307622 0.22885905 -0.05401475 -0.06986844 0.3857231 -0.010875621
5 0.028385492 -0.05986298 -0.15662566 0.2060045 -0.022910938 0.13837565 0.36137652 -0.23842965 0.12995256 -0.048857283 -0.05930465 0.069638774 0.11077451 -0.37885392 -0.034322098 0.17188051 0.24301063 0.2768287 0.11242615 0.11462835 -0.06625914 -0.027730292 -0.42397684 -0.05868801 0.017586907 -0.16663013 0.03689162 0.39383778 -0.11332101 0.07177892 -0.22073042 -0.29430434 -0.2035511 -0.20531414 0.029445423 0.02733812 0.17905663 0.0360078 -0.15998934 -0.11168871 0.21257028 -0.07029008 0.1395173 0.12905201 -0.3498311 -0.0098253945 -0.08958333 0.07112752 -0.3858423 -0.18146409 -0.07140946 0.2240113 -0.3467212 0.22453697 -0.2720404 0.16370116 0.12300446 -0.41579968 0.00067255617 -0.015712148 -0.37046164 -0.25926796 0.12195907 0.11859686 0.2873464 0.10409475 -0.124245994 -0.123270296 -0.4297073 -0.3536036 -0.23644193 -0.053638242 -0.204341 0.18142326 -0.33686292 -0.09211912 0.1472208 -0.33097744 -0.08125016 0.090416685 -0.19016078 -0.019525582 0.4552778 -0.24689889 0.54218906 0.25435552 -0.32841328 0.0072364677 -0.122846745 -0.27361488 -0.31044933 0.035505507 0.124491364 0.044418886 -0.031565282 0.1582171 0.14107303 -0.115929954 0.05286938 -0.19725169 -0.07504022 -0.08945173 -0.070200674 -0.23802191 -0.039024472 0.12257044 0.20928162 0.0053529264 -0.33328214 -0.2739507 -0.2180744 0.20549352 -0.36102092 -0.739919 0.6064876 0.2589857 -0.068087645 -0.2242122 -0.10356186 -0.069450915 0.09586366 0.0555714 -0.346393 0.25949606 -0.014932479 -0.06505698 0.46297005 -0.025625587
7 -0.010062788 -0.0635757 -0.1510701 0.19223434 -0.004902588 0.12200434 0.3360605 -0.23854816 0.13705243 -0.033643097 -0.06733024 0.045131728 0.06571678 -0.34807098 -0.016291186 0.16032426 0.20488217 0.26303855 0.08729677 0.120086074 -0.032736342 -0.034207176 -0.3821476 -0.07044484 0.010266485 -0.15218629 0.023996469 0.37567154 -0.10127903 0.07699715 -0.23828137 -0.25811473 -0.16761607 -0.2081043 0.03255384 0.034018356 0.18123387 0.043466948 -0.15023726 -0.076427825 0.20284685 -0.054531552 0.13136306 0.15339889 -0.3496907 0.014451581 -0.10147895 0.05818916 -0.30608174 -0.18543237 -0.050543487 0.18784715 -0.33225724 0.23993343 -0.26392892 0.14335766 0.13849027 -0.3855266 -0.007535918 -0.008300717 -0.34543085 -0.25542614 0.10792839 0.1283185 0.27578938 0.1208525 -0.11820809 -0.12235015 -0.39362803 -0.30855846 -0.1982751 -0.04543097 -0.17967239 0.15452376 -0.2870531 -0.074113645 0.13057211 -0.3051828 -0.069524586 0.08720801 -0.16187155 -0.025822535 0.39872795 -0.26252025 0.5250977 0.21816371 -0.32449487 -0.010005879 -0.1519477 -0.22899678 -0.28489956 0.040760778 0.1402465 0.07457398 -0.041801635 0.13094147 0.1617186 -0.109843805 0.03819449 -0.1681015 -0.055996396 -0.08261896 -0.044331502 -0.22610112 -0.0202536 0.12569176 0.21287897 0.010313188 -0.29695165 -0.2760046 -0.19873269 0.19026284 -0.32222587 -0.68424577 0.550903 0.22329491 -0.057433147 -0.24371749 -0.045094024 -0.08213511 0.10184999 0.063660815 -0.3519592 0.24137333 -0.044873673 -0.083414786 0.42773885 -0.014750582
9 0.008709332 -0.05427746 -0.13133226 0.18889214 0.0017699234 0.12210703 0.332735 -0.24118827 0.14789122 -0.035719194 -0.05896903 0.04578728 0.050456326 -0.34836158 -0.015996508 0.16373646 0.20203787 0.2580613 0.089437276 0.11786824 -0.03425136 -0.033789217 -0.37056357 -0.06308651 0.01254011 -0.15873058 0.031537905 0.38063338 -0.08214957 0.08891005 -0.2333014 -0.26185608 -0.16112983 -0.19409923 0.036507674 0.034445334 0.1824261 0.053716723 -0.13917787 -0.08348872 0.19269985 -0.054684944 0.1366173 0.14243217 -0.334409 0.007941938 -0.105948806 0.043956317 -0.2978738 -0.18409185 -0.03862968 0.17955086 -0.3045964 0.22977123 -0.2726097 0.13850297 0.12057209 -0.37748742 -0.008752576 0.0039434023 -0.34767503 -0.24957472 0.105318405 0.11217622 0.27086192 0.111741744 -0.10359564 -0.12856774 -0.37647203 -0.30102098 -0.18165061 -0.049147546 -0.17434098 0.1553424 -0.28795838 -0.073936366 0.12402477 -0.29235846 -0.06292042 0.087751165 -0.1645437 -0.033800207 0.37807697 -0.24625663 0.49041867 0.20410103 -0.31121942 -0.01782936 -0.13990554 -0.22822121 -0.2774448 0.03285317 0.13288927 0.065392606 -0.05451752 0.10384275 0.15754604 -0.12103268 0.039781947 -0.17458846 -0.05567713 -0.079435 -0.04134229 -0.23169577 -0.008402299 0.109573655 0.21281847 0.021527015 -0.28001404 -0.255954 -0.19656935 0.18346347 -0.3180846 -0.6656748 0.5411709 0.21565276 -0.056684468 -0.2380531 -0.054636713 -0.068985924 0.0907086 0.05666762 -0.34218666 0.22223733 -0.030134065 -0.0815894 0.41065535 -0.0114369765
