77 128
11 0.013796058 0.013731329 -0.036232065 0.02973839 0.014587249 -0.03483385 0.033069897 0.05487304 0.0066606766 0.1250128 -0.052805275 -0.00039580849 -0.06943966 -0.010181788 0.17372547 -0.15325314 0.24585599 -0.03461847 0.1508796 -0.043927908 -0.10055235 -0.060490325 -0.1562213 -0.05688656 0.11952129 0.02183525 -0.036903188 -0.054599572 0.19693527 -0.049652647 0.032193378 -0.016901135 -0.10227099 0.16043217 -0.18645397 -0.07091827 0.07406626 0.11271167 0.009418792 0.028313208 -0.09420437 -0.1511358 0.07868688 0.050232682 0.062451046 -0.027375452 -0.008455668 0.22625893 0.048604857 0.06648088 0.14525132 0.020746572 -0.04439594 0.044192296 0.002626494 -0.09755295 0.09122964 0.105320506 0.15865113 -0.0017087646 -0.07457446 -0.18399346 0.23863783 0.019315727 0.15684967 0.084912054 0.07716293 -0.22938652 -0.11353021 -0.16703351 0.062865436 0.04847808 -0.04927604 0.19857644 0.07390175 -0.21091071 0.1800202 0.036041822 0.099553816 -0.26879174 0.0009938446 -0.05940536 -0.1398948 0.020861477 -0.08669584 -0.19886817 -0.08350332 0.1132521 -0.102593936 -0.09970751 0.13529022 -0.06468866 0.06557457 -0.27306646 0.07094084 -0.0003171833 0.028366474 -0.060184907 -0.17013834 0.018776588 -0.025613904 0.057265274 0.019341659 -0.17402562 -0.12220559 -0.04743318 0.07572759 0.044915285 -0.13425012 0.07592165 0.14871413 -0.09062345 -0.05887175 -0.109651096 0.09796693 -0.09662953 -0.08060114 -0.022028008 -0.18056801 -0.15788424 -0.079956025 0.0058096787 -0.094784215 0.21182567 -0.054540385 0.040672265 -0.13503751 0.06099022
48 -0.14271902 0.028496467 0.051525928 -0.028459333 0.011494388 -0.036875498 0.07244652 0.33076495 -0.045764875 0.20820373 0.07114895 0.014852147 -0.105293885 -0.16939045 0.15512954 -0.24215029 0.17132749 0.050256234 0.23659983 -0.24970314 -0.27075687 -0.004245574 -0.08698308 -0.1543401 0.09547695 -0.10163114 -0.0027548969 -0.027236732 0.0097548645 -0.113337465 0.13339248 0.0077835843 -0.0771788 0.18286785 -0.18600029 -0.121441945 0.1449903 0.1473502 -0.09439699 -0.017197398 -0.21783987 -0.06499216 0.10150588 0.018800745 0.12867524 -0.14698392 0.03262281 0.29034707 0.12226313 0.06565685 0.11300451 0.06224393 -0.100395456 0.15937567 0.10712368 -0.12447388 0.16918533 0.050343536 0.21798237 0.13148515 -0.16120012 -0.15301144 0.39041743 0.050607767 0.23695248 0.13014369 0.20373464 -0.1551578 -0.013838762 -0.09191793 0.033826835 0.0782679 0.025591834 0.111783415 0.11163071 -0.24977742 0.08518271 0.069911614 0.14914379 -0.39756447 0.045875236 -0.026849072 -0.13180959 0.1228982 -0.1384415 -0.044816375 -0.08911518 0.09548103 -0.23157266 -0.15331739 0.096729666 0.14304556 0.2645466 -0.30425492 0.12918718 0.104911454 0.10787942 0.14975274 -0.06398558 -0.002952682 -0.17264101 0.22902004 -0.025158826 -0.10924698 -0.18586874 -0.06879065 0.053050507 0.19889823 -0.045042515 0.05510499 0.06750017 -0.14853661 -0.0093085 -0.26921818 0.09627396 -0.064612485 -0.014327586 0.034629554 -0.18078758 -0.18436567 -0.17870118 -0.0034180419 0.03760553 0.24692278 -0.14448884 -0.00089043926 -0.036785435 0.06543772
55 -0.16149095 -0.022851057 0.17329787 0.043874405 0.09065961 -0.18273772 0.18258752 0.30249888 0.044697866 -0.04626293 0.13160819 0.04143178 -0.23964152 0.008894517 0.31923857 -0.14440005 0.24081922 -0.025297584 0.36018014 -0.047699243 0.021029396 -0.13377629 -0.13347255 0.047957733 -0.16283248 0.17981254 -0.047334634 -0.033232693 0.13945645 -0.06716129 -0.102293484 -0.08629601 -0.14415222 0.10803262 -0.41172388 0.014851185 0.007231049 0.072494745 0.08976464 0.061343376 -0.20347652 0.006591295 -0.11259267 0.08191625 -0.027616454 -0.109412506 0.042595282 0.17008503 -0.031969924 0.1765838 0.21128994 0.036421396 -0.10061466 0.118745536 0.07785422 0.03594737 0.16017167 0.084302135 0.15930372 0.06111975 -0.011054764 -0.09631866 0.29771516 -0.16950963 0.16819207 0.06891362 0.09321524 -0.12605289 -0.11072478 -0.17246471 -0.010315593 0.016245263 0.057409544 0.11733677 0.2820135 -0.2910767 0.028757915 0.24023898 -0.1596369 -0.099107064 0.06203827 -0.16999482 -0.3029455 0.060224615 -0.3530967 -0.044657033 -0.09134655 0.16391166 -0.033023413 -0.061194383 -0.037468575 0.055131305 0.16145709 -0.35794643 0.11056949 0.13247219 -0.13610534 -0.065709114 -0.14399885 -0.09335206 0.05045527 0.09318356 0.030661568 -0.159339 -0.12958924 0.11990088 0.03803538 0.15228164 -0.014332201 0.116192736 0.3138223 -0.17576343 -0.09776198 -0.19370478 0.23891737 -0.15685719 0.24807702 0.07567807 -0.3541621 -0.005097191 -0.07690351 0.08957078 -0.008582978 0.22580178 -0.023845859 0.14671083 -0.09984132 0.11909702
27 0.07121824 0.15030271 -0.010591897 0.04890497 -0.08641663 -0.12331407 -0.016868599 0.11305807 -0.084799126 0.2863336 -0.013785273 0.15773958 -0.13819622 -0.087490804 0.18692462 -0.05142575 0.046237 -0.14671668 0.25798422 -0.11525072 -0.24438299 -0.13325962 -0.23865509 -0.12703437 0.13774201 0.06826434 0.09471617 0.0075182375 0.03755808 -0.006027771 -0.03814112 -0.10183704 -0.00087870896 0.0077933325 -0.16089334 -0.027266698 0.19499972 0.120192006 0.07361944 0.034274556 -0.1936328 -0.12833264 0.12992898 0.11312754 0.10769403 0.074981585 -0.14077117 0.15290362 -0.020657107 0.051690534 0.18396538 0.10518749 -0.19408505 0.044105142 0.021371929 -0.035008304 0.14536355 0.051792502 0.06119678 0.044795793 -0.0663562 -0.1795757 0.09284029 0.16191626 0.019181916 0.20929167 0.054745004 -0.12818725 -0.17183489 -0.006644097 0.04241655 0.087274335 -0.106809564 0.16990107 0.0638172 -0.1782108 0.07743635 -0.02798624 0.22313015 -0.32053205 -0.059472945 -0.004494654 -0.2637391 0.056377456 -0.05681713 -0.20151597 -0.061693918 0.08044734 -0.18173322 -0.04164112 -0.08560417 0.12838742 0.103355855 -0.19732323 -0.037147064 -0.052230347 0.12182162 0.04372501 -0.052805476 0.09444338 -0.075946115 0.028470607 -0.103863485 -0.15651514 -0.09003468 -0.12295891 0.057203725 0.10231355 -0.06498439 0.10187642 0.02640119 -0.016050432 -0.10693508 -0.07609476 0.13064769 0.020824179 0.07357787 -0.0867355 0.009213184 -0.03095221 -0.08144546 0.034895025 0.0867054 0.047842707 -0.034626674 -0.01874657 -0.006769795 0.07657374
25 0.0543751 0.10805475 0.021631649 0.112656526 0.039531812 -0.12475615 -0.005407146 0.07419395 -0.05661183 0.10032059 0.102244236 0.06641373 -0.11738681 -0.101386175 0.14206752 -0.06754066 0.18113145 -0.081660084 0.27681184 -0.10681577 -0.19054301 -0.047612216 -0.15537465 -0.13436916 0.038377404 0.062695086 0.057592183 -0.04645314 0.045254007 -0.033891663 0.001405074 -0.032488283 -0.117222026 0.058870345 -0.23208293 -0.04897858 0.16980232 0.16234916 -0.033998135 -0.011669959 -0.17750257 -0.04823631 0.016700981 0.014184193 0.06125347 0.010783739 -0.026404383 0.13067773 -0.010195447 0.14227581 0.1994938 0.09524095 -0.12904698 0.06359698 0.06501355 -0.09866994 0.058720287 0.11092372 0.13505968 0.0107627725 -0.115454145 -0.13407302 0.31397048 0.055649616 0.11438518 0.115383066 0.1483334 -0.12668057 -0.108488545 -0.0763442 0.025987789 0.055067383 -0.063233405 0.13811137 0.15891989 -0.20111941 0.15365173 0.09226767 0.09577391 -0.23700593 -0.020064302 0.0018855948 -0.17308815 0.12708698 -0.20047337 -0.16336282 -0.042155433 0.08650869 -0.19628227 -0.057288762 0.033051565 0.07729574 0.11186726 -0.17513254 0.0053236773 0.009655012 0.019622289 -0.018179802 -0.16902936 0.1510044 0.009781046 0.13537358 0.011252138 -0.11622757 -0.085661314 -0.09720264 0.09079755 0.18560709 -0.044868287 0.047575645 0.09399264 -0.009259466 -0.02845564 -0.021238115 0.10795194 -0.04004184 -0.0015394646 0.008306081 -0.116679594 -0.07280938 -0.06778719 -0.004013055 -0.016519977 0.15509206 -0.07215664 0.11215025 -0.021352937 0.053727876
58 -0.309758 -0.105247304 0.1979238 0.0022554519 0.040442433 -0.029344205 0.18848525 0.47282577 -0.021481264 0.08654312 0.1755968 0.035155512 -0.13630521 -0.24436967 0.2831724 -0.24454859 0.16785653 0.084457204 0.27299538 -0.18619353 -0.14704706 -0.028607167 -0.028526474 -0.04571786 -0.03511904 -0.039781533 -0.08794546 -0.04065316 -0.021930307 -0.12126175 0.08275762 -0.008991998 -0.0401837 0.19542491 -0.2949652 -0.067461215 0.1592114 0.17369087 -0.032596596 -0.05963132 -0.23819388 0.021280704 0.006294426 0.05014135 0.06159573 -0.27644435 0.1335814 0.2505905 0.13104486 0.051713716 0.1049303 0.025532903 -0.09354406 0.2612611 0.08389823 -0.06292235 0.201825 -0.026855273 0.18425041 0.20911877 -0.14126065 -0.09290665 0.38492942 -0.0786464 0.2560891 0.10369298 0.13232149 -0.13545208 -0.04077406 -0.14054288 -0.08225927 0.037513487 0.2114402 0.030461892 0.15197335 -0.25533032 -0.037107382 0.217531 -0.034456752 -0.2579553 0.043672852 -0.24404602 -0.1933207 0.08628945 -0.24833414 0.049443644 -0.04982321 0.15476994 -0.13034885 -0.15103693 0.11175097 0.14865232 0.30785748 -0.31657487 0.17747478 0.23493971 0.0041373423 0.12045286 -0.02883514 -0.11859757 -0.21858518 0.2798952 -0.018584944 -0.07123587 -0.17458138 0.009330091 0.013487865 0.11434246 -0.021053135 0.06854937 0.20039901 -0.30152857 -0.11948911 -0.3315334 0.098550454 -0.12769733 0.13760076 0.13124023 -0.27268562 -0.17735583 -0.3082693 0.026035571 0.002700938 0.19819453 -0.076075755 -0.0055033257 -0.13065286 0.088472165
0 0.06250608 0.22811931 0.36974952 0.16823885 0.080210246 0.06660768 -0.19261838 -0.3985651 -0.037270438 0.19561765 0.10697399 -0.10862845 0.0077774003 -0.27060616 0.12275762 0.037634954 0.4470462 0.011677798 0.046446737 -0.42113188 -0.29270753 0.12877363 -0.16016012 0.04839744 0.30499038 -0.3210648 -0.07542924 -0.3623718 0.050966006 0.009504391 0.061196323 0.14507607 0.26597777 0.15531062 -0.19060439 -0.1764633 0.24896257 0.08674733 0.040318184 -0.12904046 0.011368842 -0.40886784 0.24097839 -0.15112448 -0.01424534 -0.20432374 0.014008942 0.2505373 -0.22756483 0.031874817 0.11660558 0.06912749 0.04734027 0.41605002 -0.22473745 -0.29131174 0.12448391 0.103350475 0.062420376 0.27173272 0.08925024 -0.06003034 -0.04184255 0.0858633 0.1221315 -0.10752127 -0.09431455 -0.30978864 -0.47179496 -0.11269964 0.11620176 -0.12597995 0.17188539 0.5535753 -0.11619151 -0.119573 0.13273594 0.02436425 0.4230742 -0.20691684 -0.005588113 -0.5698403 -0.3290473 0.0013211002 0.013260755 -0.37920523 0.03903964 0.08934061 -0.22748293 -0.07043865 0.2921063 0.069198616 0.13061133 -0.020820301 -0.27830693 -0.048096906 0.2686795 -0.14807944 -0.16546872 0.12822701 -0.22286154 0.3869446 0.18567225 -0.27655208 0.18649375 -0.33264035 0.40910697 0.07990737 -0.48039466 0.023131967 0.050548054 -0.37389478 -0.15211321 -0.059726033 -0.08827851 0.24531573 -0.09660523 0.20498674 -0.25016895 -0.15125825 -0.5041824 0.26282683 -0.4156358 0.053695314 0.16161434 -0.1210763 -0.12062023 0.5461038
23 0.18045841 0.16891742 -0.037935548 0.1446494 -0.16868463 -0.1549045 -0.044418566 -0.008535986 -0.09280024 0.26302946 -0.14810699 0.27976608 -0.16011588 -0.12837826 0.31563833 0.0128863035 0.07305382 -0.18999909 0.37243745 0.06299286 -0.20610046 -0.20908368 -0.31199998 -0.078392535 0.12177313 0.18570821 0.06344789 -0.036798783 0.10553456 0.061475854 -0.12558466 -0.13461754 -0.06091727 -0.027121183 -0.2338834 -0.015836455 0.2673296 0.16847397 0.22827697 0.023812715 -0.18099098 -0.19021349 0.14229077 0.14560573 0.16395645 0.10791272 -0.16049954 0.024476852 -0.019209374 0.06487056 0.20764801 0.12722422 -0.28213093 0.08521974 -0.014292792 -0.052121423 0.1432676 0.06695626 -0.039962467 0.056234755 -0.009081407 -0.24336782 0.024881382 0.16197428 -0.07312552 0.24141866 -0.056434307 -0.2200661 -0.29447973 -0.051497493 -0.033051454 0.0028091013 -0.06881864 0.17302823 0.10975742 -0.2055777 0.107713945 0.036557786 0.20777777 -0.20710538 -0.11518988 -0.0761731 -0.38848525 -0.006822829 -0.14349033 -0.33763087 -0.06263708 0.06411033 -0.1624664 0.020816024 -0.08585169 -0.013663977 0.02222352 -0.28604683 -0.023918169 -0.025542846 0.063900106 -0.06464999 -0.13165629 0.1710694 0.04113572 -0.034900222 -0.14536303 -0.23429216 -0.05533125 -0.19063868 0.021565398 -0.03489931 -0.153787 0.15327662 0.12880683 -0.11295404 -0.22476263 0.029134864 0.14772366 -0.0013133637 0.09204198 -0.12901202 0.06824424 0.008068461 -0.1277663 0.0425882 -0.01481729 -0.08571431 -0.0315418 0.01362395 -0.1269721 0.14957821
64 -0.109145254 -0.11492272 0.15443163 0.07495926 0.076929905 -0.014316447 0.19623797 0.32648855 0.011280806 -0.028031487 0.21149607 0.041677013 -0.09515148 -0.14478275 0.3500468 -0.16008925 0.18973544 0.024386823 0.16178164 -0.028125416 0.02008688 -0.079119384 -0.088273264 0.009449386 -0.006634741 0.08433911 -0.05559689 -0.059015505 0.108578846 -0.0945784 -0.01486978 -0.008535477 -0.09838118 0.14315262 -0.37690857 0.030915078 0.15255505 0.18393731 -0.015159867 -0.091891974 -0.21825671 0.014020399 -0.029426407 0.059498437 -0.026713694 -0.05800128 0.13679636 0.1856174 0.12756458 0.10003977 0.17335518 0.0021263189 -0.055319276 0.1357924 0.06873523 -0.13253482 0.09784184 0.0070563015 0.2741716 0.15359117 -0.11514671 -0.1557107 0.4098959 -0.09680216 0.24297477 0.06809649 0.1232393 -0.21114366 -0.087399945 -0.1917277 -0.08086431 0.035531607 0.1364068 0.015248017 0.23093055 -0.22940221 0.11642931 0.2641494 -0.12837937 -0.24101461 -0.04840806 -0.2716682 -0.1594029 0.08687085 -0.2796471 -0.043068137 -0.104757205 0.111956894 -0.10779711 -0.13177814 0.15902224 0.025995657 0.1918216 -0.22222014 0.12000118 0.1548813 -0.15143266 0.023594981 -0.16414979 -0.053357244 -0.13717328 0.2452166 -0.018487234 -0.16482703 -0.1810385 -0.063694276 0.06313643 0.061578345 -0.032448668 0.07225113 0.34922072 -0.17448388 -0.11387601 -0.14800233 0.13919528 -0.15647751 0.020685257 0.14484753 -0.3253712 -0.18475784 -0.18784992 0.008789757 -0.07896521 0.22709785 -0.08076528 0.074699014 -0.19973806 0.05919474
62 -0.29380825 -0.14490692 0.20067044 0.037961826 0.06280529 -0.019455623 0.20889938 0.4446963 -0.03250081 0.07011546 0.24506852 0.03803318 -0.11304798 -0.25823483 0.31785968 -0.22442126 0.17906575 0.107125655 0.2303057 -0.14394683 -0.105345316 -0.023268 -0.030452054 -0.05220603 -0.041717097 -0.011584703 -0.092289865 -0.038800333 -0.0443187 -0.13218084 0.06926216 -0.021724377 -0.06953172 0.18438327 -0.34175938 -0.030027606 0.1939382 0.20593195 -0.06195585 -0.07634286 -0.26559106 0.07207179 -0.034566715 0.061821964 0.035035837 -0.2603168 0.1445604 0.2189325 0.13036637 0.041012052 0.13008443 0.027953513 -0.07170253 0.23374185 0.09694008 -0.061486743 0.17931932 -0.04575715 0.21865626 0.20468928 -0.15099914 -0.09673241 0.4453118 -0.076778665 0.28079322 0.10770456 0.14016 -0.143434 -0.05056041 -0.13932793 -0.12164615 0.03825142 0.2245454 0.034479324 0.17077349 -0.23217353 -0.015933305 0.24932723 -0.10570909 -0.2593161 0.01574806 -0.2626148 -0.16000505 0.105364256 -0.30126965 0.07954508 -0.04908768 0.16889305 -0.119283326 -0.1579806 0.13375394 0.14638282 0.29849595 -0.2856995 0.1924384 0.23055764 -0.066141784 0.11592956 -0.058668237 -0.12632297 -0.20479098 0.29363608 -0.013036604 -0.067581974 -0.20544034 -0.0016318043 0.008614898 0.10205121 0.007073459 0.063809365 0.2569401 -0.27471852 -0.14211573 -0.32243243 0.10733103 -0.1320642 0.14936487 0.1596618 -0.32222074 -0.18437716 -0.3199707 -0.014407899 0.0043169726 0.19891687 -0.06938805 0.01608648 -0.16527002 0.050473515
65 -0.31459337 -0.13814032 0.20481661 0.067146644 1.7603394e-05 -0.046265364 0.19795696 0.51243657 -0.06576447 0.118207745 0.24778546 0.099459015 -0.13145731 -0.3352304 0.33993432 -0.20688905 0.088604264 0.065746345 0.29149643 -0.15139692 -0.15586504 -0.059887655 -0.040879596 -0.0983184 -0.0472373 0.031649347 -0.05484702 -0.011839215 -0.099776685 -0.120485336 0.037087232 -0.061960906 -0.05020034 0.15307906 -0.3488955 -0.041097064 0.2792069 0.25800613 -0.026487676 -0.1184221 -0.2949337 0.077639975 -0.0110490825 0.091020234 0.080949076 -0.25557828 0.14346272 0.19346163 0.15079293 0.050008472 0.14576021 0.047994293 -0.15002227 0.29238892 0.095828764 -0.048893362 0.21289594 -0.0814514 0.15203425 0.21496417 -0.19810496 -0.08531793 0.4342155 -0.03389861 0.21847779 0.16916312 0.1465044 -0.12211649 -0.06356955 -0.09636412 -0.17419058 0.04841028 0.23369564 -0.025139209 0.17945997 -0.2646142 -0.06034019 0.26692984 -0.08739635 -0.26305798 -0.007697069 -0.28494248 -0.2160901 0.11600849 -0.32419816 0.061061546 -0.025493314 0.18643844 -0.14179195 -0.14137821 0.09164504 0.2158977 0.32631075 -0.2921746 0.19933532 0.238084 -0.029270688 0.14594191 -0.02940435 -0.08926004 -0.24082349 0.31579506 -0.073271066 -0.0498159 -0.17853463 -0.027902005 0.0011182455 0.09658539 0.040393695 0.077036284 0.21558145 -0.2985133 -0.19350497 -0.325445 0.109437995 -0.14164801 0.19873686 0.14647096 -0.2560974 -0.19211018 -0.36322904 -0.015378387 0.051713545 0.13759111 -0.07856352 -0.013290185 -0.15790793 0.048190627
63 -0.31935802 -0.13668507 0.19745149 0.03208673 0.029970858 -0.026000204 0.19575095 0.5049094 -0.047207903 0.117753915 0.23480697 0.0493685 -0.12866642 -0.30998108 0.32757357 -0.26316392 0.15610032 0.09970305 0.26287532 -0.1803979 -0.16589822 -0.021480467 -0.039518725 -0.0876473 -0.017692642 -0.027584929 -0.08922247 -0.037359886 -0.06265907 -0.13963084 0.0862127 -0.025283769 -0.06727895 0.20266755 -0.3392635 -0.06794628 0.2382486 0.23577122 -0.064563856 -0.09702923 -0.2794551 0.052260704 0.001561359 0.05531745 0.081584685 -0.27874362 0.14905868 0.2551234 0.16720618 0.046304196 0.13085856 0.03823064 -0.10295332 0.27510023 0.10081856 -0.08191725 0.21022059 -0.045794822 0.20837873 0.21794634 -0.1905501 -0.10997695 0.47726136 -0.045354936 0.27882 0.1402158 0.16915034 -0.15597416 -0.042308867 -0.12891023 -0.12554926 0.04907792 0.23096257 0.018914279 0.17485353 -0.28446102 -0.015930345 0.25644544 -0.064964905 -0.31353113 0.029699985 -0.27369174 -0.19227424 0.1227184 -0.31056678 0.053028543 -0.05118524 0.18676129 -0.16400985 -0.17787834 0.1480058 0.1896717 0.34620577 -0.33018318 0.21892713 0.24504985 -0.021678029 0.15072267 -0.06100104 -0.10799976 -0.23967461 0.33467636 -0.035189413 -0.07208067 -0.21371514 -0.028518606 0.017270464 0.12367002 0.0033638058 0.06863644 0.235585 -0.31850278 -0.16040805 -0.3521239 0.10484985 -0.142487 0.13959838 0.15444319 -0.3010923 -0.222709 -0.36798272 -0.013190816 0.020023517 0.21391274 -0.10408739 -0.0011709295 -0.16313788 0.057174943
61 -0.309059 -0.08752272 0.23857066 0.02894019 0.066443674 -0.073532686 0.19542159 0.48204365 -0.015651248 0.06224982 0.24341041 0.032097444 -0.17343712 -0.22312784 0.3009667 -0.20943898 0.16105384 0.05224937 0.29098764 -0.19813438 -0.11308571 -0.042926166 -0.039697584 -0.050374288 -0.088743426 0.0036564015 -0.06404637 -0.04176652 -0.036888476 -0.119870126 0.031338587 -0.03712791 -0.045991443 0.15978564 -0.35557517 -0.044473793 0.15563864 0.17631292 -0.019782359 -0.06533441 -0.26954845 0.053579006 -0.036564 0.04889681 0.026424663 -0.2542883 0.12950617 0.23659828 0.083794236 0.09896825 0.15040886 0.03988717 -0.09636418 0.26458958 0.09826824 -0.046680745 0.20484845 -0.025578786 0.19761209 0.20759143 -0.13393256 -0.069641806 0.4007369 -0.09450581 0.23770292 0.09843387 0.15827033 -0.117769584 -0.063336946 -0.13740729 -0.08545198 0.048020817 0.20394532 0.031481225 0.2050908 -0.28090987 -0.04931411 0.24541046 -0.08801028 -0.23457323 0.049632296 -0.26725718 -0.22172809 0.12763414 -0.30473047 0.057255287 -0.051700957 0.17482814 -0.1381679 -0.13889746 0.07519358 0.20043941 0.32618177 -0.2866641 0.14901416 0.22212894 -0.0326977 0.11825317 -0.03808276 -0.11931226 -0.20087343 0.30462834 -0.013795998 -0.0694256 -0.16630538 0.026522946 0.04215356 0.16489579 0.0072639226 0.063614 0.22997029 -0.28093782 -0.13047194 -0.3309873 0.119442455 -0.12604539 0.19845451 0.16274412 -0.3137303 -0.14805804 -0.29701343 0.04775299 0.040469415 0.20185804 -0.06141185 0.03338459 -0.09880764 0.0942438
68 0.04323703 0.14657585 -0.019550072 0.033530023 0.049621742 -0.08010763 -0.012216827 0.11360273 -0.131527 0.19187027 0.13984248 0.050538264 -0.10804574 -0.15498242 0.07063107 -0.10358704 0.184641 -0.051253807 0.27478978 -0.20108019 -0.31943345 0.022244954 -0.11474035 -0.18075453 0.11066309 -0.0793376 0.076534934 -0.04566338 -0.04220011 -0.06866956 0.13952258 0.011886807 -0.1056785 0.08917103 -0.18083811 -0.06996744 0.17311232 0.18039347 -0.12923194 0.025689667 -0.21163781 -0.012530978 0.05411862 -0.026096726 0.092530325 -0.03903723 -0.06368521 0.18067588 0.0015692076 0.08316568 0.15221749 0.12184861 -0.0975828 0.0356078 0.10978687 -0.12696414 0.08465261 0.111823484 0.19648148 0.06164617 -0.14589158 -0.1572251 0.3641519 0.1355937 0.19735964 0.15617406 0.19006312 -0.11937254 -0.058394548 -0.05785368 0.08113831 0.10439632 -0.0519608 0.18611151 0.07945471 -0.16519816 0.12850371 0.0044025076 0.19606733 -0.35031673 -0.016922632 0.09241999 -0.114697985 0.19140232 -0.12144699 -0.116561465 -0.052556932 0.09997351 -0.29755178 -0.105820216 0.028721148 0.12497301 0.18668598 -0.15758623 -0.00103138 0.03760626 0.102656975 0.08100209 -0.09027183 0.13915096 -0.07138153 0.17129113 0.04556787 -0.070760496 -0.15520644 -0.12799264 0.07604583 0.2665057 -0.06332953 0.0028512937 0.012871454 0.0055284747 0.0041547143 -0.07863934 0.052918285 0.03179071 -0.054720014 -0.017853154 -0.08277967 -0.08683268 -0.12972413 -0.036170393 0.04627651 0.1997501 -0.09852124 0.07965619 0.033933073 0.050109316
59 -0.32360736 -0.11692195 0.22390664 0.011049625 0.05029151 -0.027953535 0.20868719 0.49894267 -0.017211916 0.101007685 0.23547891 0.028273322 -0.14110649 -0.254342 0.31921318 -0.25447848 0.17590569 0.105006 0.24219511 -0.20791984 -0.13008235 -0.03334903 -0.040475264 -0.057983596 -0.031367794 -0.03421053 -0.0927211 -0.04003284 -0.044806518 -0.14144559 0.068587504 -0.0230918 -0.041076697 0.1990234 -0.3243181 -0.05163677 0.17209534 0.18471846 -0.055829767 -0.07196079 -0.26838252 0.04720689 -0.015876498 0.04365882 0.052829616 -0.2821197 0.14413257 0.27531812 0.13565779 0.05185088 0.13277365 0.01988729 -0.07141651 0.25849712 0.093626104 -0.05766664 0.2100756 -0.03552298 0.21713552 0.21488005 -0.15106772 -0.087004386 0.43103695 -0.06932716 0.27206877 0.110522784 0.16481729 -0.14448243 -0.044799298 -0.13936926 -0.09546046 0.048242696 0.21633375 0.03666437 0.17637743 -0.2758924 -0.03599276 0.22969955 -0.07669829 -0.29025567 0.047716722 -0.27900645 -0.18952389 0.11206841 -0.29000223 0.06872347 -0.060194213 0.18155985 -0.13713521 -0.1775278 0.13397905 0.1919177 0.33290917 -0.30988762 0.19368802 0.22129513 -0.023557352 0.14257191 -0.05443817 -0.1443424 -0.23484375 0.32182813 -0.017329453 -0.074303806 -0.20140101 0.0021203267 0.033838216 0.13438806 -0.010104537 0.06969888 0.22751263 -0.3076208 -0.12939188 -0.36876175 0.108144455 -0.12893145 0.14889622 0.1670366 -0.31736133 -0.1956375 -0.32257584 0.014499125 0.020896465 0.21853054 -0.07978613 -0.005718023 -0.1284758 0.06541917
69 0.110640734 0.23501712 -0.010371857 0.105572626 0.057337724 -0.15601109 -0.07721533 0.0053570773 -0.16392149 0.2206411 0.18290079 0.07835113 -0.14495784 -0.18237242 0.08248517 -0.041489616 0.23081689 -0.11303859 0.33791453 -0.19864595 -0.34501103 0.017310064 -0.16620193 -0.2158445 0.10294545 -0.043276418 0.098347686 -0.074274495 -0.062887765 -0.038650315 0.11658334 -0.014583048 -0.12480965 0.05515301 -0.21890765 -0.058309425 0.21757635 0.21144527 -0.113886155 0.041981395 -0.23862715 -0.014214683 0.02530307 -0.042306937 0.08586883 -0.012497845 -0.102349475 0.15365574 -0.06604785 0.12502626 0.20937417 0.15143815 -0.11453938 0.016827878 0.10586121 -0.11846526 0.074818894 0.13973935 0.17184395 0.025287477 -0.1381767 -0.17919733 0.35497656 0.16899668 0.16119798 0.1786551 0.18570162 -0.12096207 -0.1376325 -0.0586823 0.087601334 0.11042047 -0.09162123 0.26051253 0.10068821 -0.17819783 0.14576407 -0.0001009698 0.22515985 -0.34183958 -0.02370635 0.08518663 -0.17123649 0.23038016 -0.16590096 -0.18650366 -0.032401547 0.14393544 -0.34312707 -0.091912955 0.013538797 0.14153951 0.17423885 -0.1122674 -0.0640416 -0.006040726 0.10584549 0.027485441 -0.13669103 0.20171864 -0.021852633 0.17524396 0.07375015 -0.08081932 -0.1319346 -0.15702933 0.11035959 0.30425748 -0.0950259 0.0008779094 0.002853533 0.024780111 -0.022597423 -0.01958106 0.053181686 0.055216193 -0.020871295 -0.013535771 -0.064332515 -0.038069632 -0.14262058 -0.026122095 0.03204225 0.17765555 -0.07595134 0.1222827 0.057643197 0.06276427
70 0.110624045 0.245005 -0.04197772 0.057408225 0.005563721 -0.18507288 -0.045868598 0.08301295 -0.15756543 0.25881082 0.09424208 0.13409156 -0.1892166 -0.11680149 0.09426302 -0.03568137 0.14518134 -0.1562647 0.39115644 -0.16444878 -0.31789494 -0.06321872 -0.20426983 -0.20985223 0.07719061 0.015604619 0.102445416 -0.025901288 -0.044660125 -0.026838338 0.06103432 -0.05678465 -0.10391996 0.01555722 -0.19531909 -0.037064917 0.17446019 0.15856358 -0.03717514 0.08378463 -0.25173512 -0.021386176 0.030126983 -0.0080522355 0.10817043 0.015033484 -0.15361947 0.14604822 -0.059279148 0.12486411 0.20556088 0.14828251 -0.15919462 -0.016514877 0.11912643 -0.052834485 0.096400194 0.11415881 0.12745267 0.020612085 -0.10896128 -0.18673363 0.27400482 0.17072566 0.102967374 0.23171124 0.15592614 -0.105927944 -0.1298236 -0.044454224 0.09502253 0.1058355 -0.12174537 0.20609255 0.11231799 -0.19013618 0.089513704 -0.03933243 0.22484069 -0.34213305 -0.012199552 0.12066721 -0.22290494 0.21185035 -0.15467459 -0.18750039 -0.05475314 0.1407883 -0.31118587 -0.08076564 -0.08888914 0.143935 0.17150146 -0.1591375 -0.043728735 -0.021778597 0.1189371 0.05966833 -0.093292795 0.16190886 -0.01475606 0.090100594 0.0011865406 -0.07268162 -0.14767562 -0.12536296 0.061463173 0.28224862 -0.07344424 0.044176213 -0.0067100157 0.03891889 -0.031087762 -0.042450853 0.09223406 0.036305677 0.056735627 -0.070577815 -0.004074428 0.020336065 -0.06910518 -0.017947411 0.11644132 0.13408153 -0.08459592 0.10147288 0.09244128 0.042254046
26 0.05816681 0.19770557 0.015706187 0.021872712 0.063507 -0.3355226 0.011336028 0.053116187 0.08358961 0.07905502 -0.06744469 0.01351943 -0.31318873 0.24932492 0.17678604 -0.12980707 0.27479634 -0.21914726 0.42545316 -0.13008651 -0.095697336 -0.1741439 -0.2781729 0.009138829 -0.08125523 0.23122679 0.10572326 -0.017417913 0.31149673 0.00019258755 -0.20403695 -0.15492463 -0.12355145 0.06763741 -0.35939223 -0.089101925 -0.082922116 -0.0043713353 0.12444898 0.18935964 -0.099743135 -0.19507945 0.029858965 0.12808996 -0.019070342 0.107632115 -0.13081868 0.26174942 -0.21483746 0.2776161 0.3059487 0.0789404 -0.15130536 0.0350914 0.015509142 0.050162155 0.18169859 0.25660908 0.11080665 -0.13719508 0.029908478 -0.12377114 0.13875717 -0.06613302 0.05616058 0.057531 0.11188906 -0.11626413 -0.19348805 -0.14093667 0.2129582 0.095937125 -0.27999207 0.30735523 0.25628507 -0.34137863 0.16568273 0.069563225 0.111620486 -0.17286079 0.082594536 0.053615034 -0.39547008 0.022148212 -0.19536002 -0.25623342 -0.14210415 0.13455763 -0.051110495 0.027353631 -0.19488212 0.06774987 0.056478277 -0.42961535 -0.068072975 -0.090663955 0.029442415 -0.18580112 -0.19250023 0.079283364 0.17588484 -0.07534775 0.04219716 -0.31153724 -0.007325334 0.15238042 0.17479126 0.2517419 -0.05368876 0.14260332 0.16766089 0.02052458 0.050063442 -0.067691706 0.32790697 -0.11482934 0.17326039 -0.084278956 -0.3196822 0.052304417 0.15390769 0.19284768 -0.007913744 0.35042864 0.041099753 0.19977468 0.005544499 0.18032579
24 0.10163286 0.27333623 -0.028014734 0.060912874 0.06807035 -0.27761155 -0.044849906 -0.015318812 -0.06545173 0.17980625 0.038683705 0.044947628 -0.24587992 0.045625657 0.09735179 -0.074545145 0.3120116 -0.17079824 0.42900407 -0.14895639 -0.21867871 -0.071839765 -0.2547236 -0.16885102 -0.0105291335 0.06812519 0.033147175 -0.07062137 0.11422868 -0.02674448 0.0030280007 -0.07272274 -0.1725202 0.0752178 -0.2268991 -0.0789508 0.039997626 0.08003377 0.008683411 0.1656522 -0.18186346 -0.09181921 -0.033678643 -0.045541 0.067415535 -0.019443298 -0.1583558 0.21020293 -0.14180821 0.20674954 0.24468245 0.10400295 -0.07890529 -0.054606125 0.096130684 0.015912926 0.08006264 0.20374618 0.13325256 -0.08794734 -0.034599658 -0.17437461 0.26266924 0.058201503 0.1059416 0.14414753 0.15297866 -0.14461522 -0.16131704 -0.1369435 0.16377826 0.069471195 -0.18523233 0.30810395 0.18270713 -0.26146993 0.13543524 -0.017739773 0.15634684 -0.268419 0.1002573 0.123617135 -0.25741735 0.18511039 -0.22382706 -0.24254853 -0.0655179 0.20557043 -0.2324061 -0.06803132 -0.062137317 0.0670372 0.12753986 -0.25045893 -0.037132606 -0.057711363 0.0714006 -0.05795876 -0.20832536 0.11797938 0.13695335 0.02598846 0.079777606 -0.1250896 -0.12681313 -0.0028033995 0.111405306 0.3010692 -0.11948856 0.061815165 0.046604663 0.0010047441 0.011985377 -0.069616124 0.14780353 -0.049105134 0.10342363 -0.06742607 -0.13052423 0.06767884 0.025157206 0.038948424 0.03206003 0.25541732 -0.046548612 0.18940492 0.10419861 0.06790683
57 -0.24126092 -0.06640938 0.23926719 0.07212534 0.06844754 -0.06547893 0.17569013 0.38091898 -0.05979359 0.038700934 0.27688953 0.0727845 -0.1508784 -0.25198215 0.30097917 -0.12300519 0.153202 0.034335192 0.29358342 -0.1402061 -0.10362323 -0.048129596 -0.03505401 -0.031624157 -0.08288008 0.024573825 -0.06492211 -0.07129394 -0.081040405 -0.08342031 0.031040642 -0.02661011 -0.045727056 0.112577096 -0.35514638 0.009495529 0.19726706 0.19087371 0.0012695789 -0.06224578 -0.26428008 0.09218553 -0.069372155 0.03601189 0.001430186 -0.23112048 0.10659341 0.15455657 0.040927492 0.08445554 0.15318088 0.04834722 -0.097112544 0.23115885 0.09120777 -0.04015662 0.16466156 -0.040523313 0.16694124 0.21260458 -0.10288299 -0.07248106 0.35383698 -0.07571914 0.21355978 0.11507632 0.10572863 -0.10841158 -0.1109037 -0.119780645 -0.110223845 0.024993112 0.22699593 0.047934398 0.1829544 -0.2155816 -0.06271188 0.24147734 -0.097244844 -0.1710306 0.0039243638 -0.28838986 -0.22408128 0.14049314 -0.3188662 0.04454792 -0.030455172 0.17228165 -0.14621635 -0.11496344 0.059655428 0.16940278 0.29240593 -0.20668867 0.10142993 0.21732295 -0.057531353 0.08434503 -0.040219292 -0.08125153 -0.16687815 0.28615892 0.004708023 -0.036171883 -0.15405647 -0.013944045 0.030842902 0.12718853 -0.01541816 0.052007023 0.23592216 -0.2634252 -0.17140517 -0.25097173 0.088527665 -0.08897206 0.2108343 0.16348995 -0.27020445 -0.10559534 -0.32360756 0.02904318 0.01600829 0.12705909 -0.03316493 0.052518398 -0.108521745 0.101961315
41 0.0966793 0.22073703 0.04633183 0.1319558 0.170732 -0.17689297 -0.022322446 -0.014366254 -0.15547878 0.117024384 0.31107605 0.021321448 -0.16262078 -0.12994224 0.08231546 -0.017564382 0.3336913 -0.10756618 0.36053458 -0.20806462 -0.27690765 0.03531427 -0.13217968 -0.17596005 0.029331269 -0.023093987 0.095052585 -0.09628195 -0.043685693 -0.058588635 0.11748144 0.0028294935 -0.16129006 0.07618354 -0.324741 -0.015942402 0.16334608 0.20540217 -0.15129326 0.0706965 -0.2700899 0.057940982 -0.067899026 -0.06561525 -0.0120643 -0.03951708 -0.07991693 0.16621271 -0.13145241 0.17749041 0.26431426 0.15160583 -0.056888953 -0.0026181766 0.13216023 -0.09951498 0.046404026 0.17761993 0.25288278 0.022142423 -0.117872044 -0.15711147 0.45825064 0.086064845 0.25328013 0.12701063 0.21598682 -0.1134741 -0.14596072 -0.116672486 0.10986227 0.119255885 -0.0661651 0.31635615 0.16997056 -0.17959622 0.160382 0.05632207 0.12818512 -0.30587935 -0.007987287 0.057975553 -0.16340081 0.2835084 -0.25031748 -0.13978869 -0.03295487 0.18263786 -0.3289076 -0.10462194 0.019538894 0.1418223 0.19456902 -0.08961381 -0.087264486 0.02208104 0.023057919 -0.004462026 -0.18499842 0.17308575 0.011187216 0.22033793 0.16413534 -0.070758775 -0.15845472 -0.10012596 0.14325646 0.38386634 -0.08327548 -0.012941957 0.08585369 0.059880525 0.008785324 -0.01979305 0.077853896 0.037999026 0.029059421 0.049282156 -0.20589387 -0.011430903 -0.12315938 -0.020700663 0.012079319 0.25523773 -0.04713512 0.21724316 0.06841694 0.06838878
66 -0.3220538 -0.106772125 0.22653978 0.022099908 0.05738794 -0.02908 0.19444911 0.47241336 -0.060308766 0.09526003 0.24816985 0.04990014 -0.13362357 -0.3036258 0.2966899 -0.23446834 0.1725589 0.09308084 0.28156283 -0.20434324 -0.17044477 -0.016358087 -0.010641791 -0.06407748 -0.035090085 -0.055906355 -0.08127481 -0.056293033 -0.081987076 -0.13404773 0.105121754 -0.002898382 -0.04377568 0.18762793 -0.32006705 -0.04925743 0.20220223 0.2050462 -0.051938906 -0.07453836 -0.27977237 0.06250337 -0.014404777 0.033926148 0.06127791 -0.30104426 0.13506587 0.22941664 0.13141511 0.04215097 0.11248384 0.04004949 -0.09616981 0.27565163 0.10375383 -0.072586134 0.20552556 -0.043865368 0.19234012 0.24149774 -0.15629324 -0.0934458 0.42338067 -0.061268628 0.2782459 0.120085105 0.14068319 -0.13334827 -0.048590705 -0.1271467 -0.10434806 0.038964603 0.25035203 0.04124981 0.15443306 -0.24475005 -0.047434546 0.23099984 -0.04664191 -0.26284686 0.026525738 -0.26387423 -0.19096123 0.12587124 -0.2841693 0.06761109 -0.038563106 0.17783937 -0.16162883 -0.16411744 0.119602524 0.1847 0.33930588 -0.28370324 0.1697171 0.2501816 0.00068623386 0.14398855 -0.023524618 -0.118147284 -0.24059261 0.32093242 -0.011375025 -0.04774435 -0.19472739 -0.01763344 0.014960781 0.13246956 -0.02161355 0.05561381 0.20700057 -0.3110801 -0.15113114 -0.33922112 0.0793702 -0.10444126 0.15776776 0.16587166 -0.2811398 -0.175476 -0.36378318 0.005151042 0.014378699 0.17651205 -0.08772289 0.0007852663 -0.121209964 0.0911714
71 -0.026789146 0.16358817 0.03097137 -0.00081953057 0.09564843 -0.12681296 -0.011527873 0.16526058 -0.08239054 0.16715059 0.15987147 -0.011082267 -0.15312853 -0.10171126 0.03477543 -0.14701138 0.21962263 -0.048308015 0.2945879 -0.28920683 -0.3114742 0.038739026 -0.09923148 -0.1689995 0.061354652 -0.10029296 0.07465126 -0.041651137 -0.019901985 -0.082592815 0.12445683 0.009875699 -0.08918476 0.11813237 -0.19356158 -0.09736034 0.09422308 0.1267834 -0.14856584 0.04237081 -0.19470371 -0.022577194 0.041803602 -0.049152214 0.054450262 -0.06817635 -0.044435985 0.25208038 -0.041048467 0.12909436 0.15098524 0.10547682 -0.06791769 0.057675123 0.119228505 -0.107520185 0.11743451 0.13037612 0.21306863 0.04187885 -0.13171332 -0.108906895 0.36499986 0.08064577 0.21761471 0.107922874 0.23498867 -0.07876883 -0.03758197 -0.06576607 0.13881724 0.11595785 -0.084224574 0.20450439 0.10852553 -0.20290138 0.10996058 0.0039894315 0.19113271 -0.35290575 0.04892845 0.09361493 -0.11777523 0.19229792 -0.11753013 -0.08344072 -0.0659181 0.109054096 -0.28069615 -0.107879825 0.0043701176 0.17770521 0.21775718 -0.17259999 -0.006209912 0.019982388 0.12406726 0.07781581 -0.07473094 0.10371794 -0.077274755 0.1905668 0.07394763 -0.0788252 -0.12646462 -0.047295325 0.11983357 0.33799815 -0.049228083 -0.00014121483 -0.0036281538 -0.0015938086 0.073348664 -0.13177603 0.08916102 0.01619622 -0.012218192 0.010218814 -0.16763873 -0.07845401 -0.10121884 0.024440112 0.04966739 0.2972182 -0.08613682 0.097621344 0.0828245 0.083326444
29 0.1707774 -0.038365327 -0.082793415 0.111114085 -0.082329586 0.04141261 0.030109148 -0.012300907 0.0440601 0.113538526 -0.17286097 0.084676914 -0.0056821685 -0.06102567 0.33492807 -0.1856765 0.28811568 -0.010270936 0.1114939 0.075285636 -0.10761217 -0.108289085 -0.2503124 -0.023288626 0.27175686 0.1278958 -0.023844423 -0.062449455 0.34943122 -0.021337315 -0.024730837 0.0070970226 -0.1402964 0.19329545 -0.23039666 -0.07837098 0.20376574 0.19721161 0.05510635 -0.062577836 -0.07957055 -0.29855374 0.20045933 0.13065037 0.13456497 0.114150934 0.025333647 0.1922528 0.19272004 0.046153743 0.17938307 0.018013658 -0.1325518 0.110481456 -0.048473414 -0.23224725 0.06536783 0.13275267 0.19498248 0.036561955 -0.1036776 -0.31859875 0.28088316 0.04831643 0.14740802 0.08461908 0.039622508 -0.38530177 -0.18316992 -0.19851264 -0.0051284335 0.007862481 -0.05883784 0.17539069 0.12819941 -0.23808059 0.36992678 0.13260256 0.16643459 -0.3316246 -0.11418436 -0.15512592 -0.20364472 -0.09011077 -0.100737005 -0.36223304 -0.13174796 -0.009224239 -0.099086136 -0.09478064 0.25940615 -0.19451877 -0.035386052 -0.38933453 0.110837236 0.0077718766 -0.01840617 -0.1350738 -0.31306985 0.14662212 -0.020408561 0.060155015 -0.06964565 -0.36918068 -0.12226203 -0.21569963 0.0988406 -0.11705681 -0.20872654 0.13732998 0.27537692 -0.13127476 -0.118778475 -0.0023483627 0.15073033 -0.1572086 -0.25717017 -0.03947082 -0.17040667 -0.276654 -0.089603126 -0.005779432 -0.2716588 0.19714779 -0.110875435 0.01807412 -0.3348292 0.097500384
16 0.06549271 0.13157947 0.047715478 0.24692708 -0.2862525 -0.34314382 -0.009713473 0.14814745 -0.101371296 0.2831282 -0.17250197 0.47034627 -0.32538763 -0.21594723 0.5126915 0.05351635 -0.093774565 -0.32546112 0.6569738 0.13813955 -0.22755522 -0.3642833 -0.3944054 -0.041695267 -0.05784154 0.46410334 0.1289347 0.020120414 0.048767548 0.12031272 -0.37298626 -0.32557523 -0.01590389 -0.13185085 -0.42391047 -0.029243927 0.4451949 0.26683906 0.44340348 -0.007423148 -0.23712967 -0.19958457 0.14466551 0.353396 0.20583434 0.09974281 -0.16689187 -0.07153201 -0.09562761 0.14536585 0.33549917 0.21267734 -0.5506606 0.3178567 -0.071880296 0.086695805 0.30133304 0.01828687 -0.2743388 0.06452342 -0.024377227 -0.18590157 -0.084787905 0.12761413 -0.24791808 0.34957725 -0.16440801 -0.16853528 -0.48287284 0.029222442 -0.1867638 -0.013222261 -0.019004688 0.11894323 0.20242237 -0.32946974 -0.027842177 0.22426705 0.15683968 -0.05917969 -0.16618077 -0.24927302 -0.7492089 -0.07600491 -0.3247632 -0.3802615 -0.01823211 0.13494794 -0.081812546 0.1618249 -0.30477446 0.14209281 0.0773598 -0.4968826 -0.021662256 0.065696895 0.0580911 -0.15136553 -0.06648284 0.22294953 0.10280417 -0.08740241 -0.25886446 -0.2970921 0.066213325 -0.102635235 0.010383918 -0.12180639 -0.03613238 0.25488648 0.21268551 -0.25961736 -0.4532605 0.0039183893 0.30040684 -0.07816827 0.450202 -0.16369267 0.06341585 0.079275325 -0.25917 0.13348143 0.05433253 -0.24960318 0.07394215 0.03479279 -0.23112439 0.2434847
60 -0.3686238 -0.11823918 0.23524015 0.04278791 0.054721527 -0.060928755 0.20870087 0.5377824 -0.08434241 0.11232695 0.3073912 0.07519011 -0.16388094 -0.35467514 0.32827404 -0.23079087 0.1551903 0.08261358 0.34825718 -0.20672512 -0.1909071 -0.016793516 -0.01705696 -0.09798274 -0.07426605 -0.029727902 -0.085976265 -0.047414575 -0.14872278 -0.13212274 0.102945715 -0.03562909 -0.052142374 0.17823173 -0.35483354 -0.053658325 0.25520757 0.25058037 -0.062775 -0.08774147 -0.32384914 0.115280315 -0.054343063 0.045757405 0.070881814 -0.34683236 0.14471662 0.21753947 0.12100593 0.054158244 0.13628721 0.06489488 -0.123688795 0.29714143 0.120675154 -0.037621412 0.22752999 -0.06858378 0.17357181 0.2444634 -0.18780234 -0.080041535 0.46805325 -0.050010763 0.27413476 0.1680446 0.15851115 -0.10880115 -0.058461115 -0.121060215 -0.146502 0.052148152 0.27425963 0.020538751 0.16660753 -0.2646547 -0.09357469 0.25551617 -0.07996 -0.26263997 0.030873075 -0.27806485 -0.22454724 0.1622585 -0.34503147 0.09427084 -0.023242755 0.23017369 -0.18582042 -0.1723368 0.09977751 0.24188045 0.3807306 -0.2817309 0.19282575 0.28249416 -0.0062936763 0.16503535 -0.0019218186 -0.11419131 -0.24756041 0.3523676 -0.016270166 -0.0034524295 -0.2096029 -0.0015942152 -0.005405467 0.16014299 0.0104887895 0.04746411 0.21523032 -0.32925746 -0.1923447 -0.36405927 0.079794206 -0.118430234 0.22405498 0.17022485 -0.27167064 -0.1650991 -0.411655 -0.015482403 0.057084862 0.16348255 -0.071901776 0.014589385 -0.12188141 0.06100511
37 0.23547414 -0.033727396 -0.09800559 0.116479814 -0.07029552 0.10269937 0.0038284187 -0.12736484 0.0718945 0.1076387 -0.24003719 0.04352414 0.046588212 -0.0422635 0.34829378 -0.20777042 0.39184362 0.028783092 0.04936805 0.074438885 -0.11109066 -0.07099589 -0.26945156 0.009984608 0.36698875 0.07107256 -0.057535872 -0.110068105 0.44077024 -0.009903725 -0.0025544711 0.051716704 -0.13611701 0.24799246 -0.20450552 -0.108779944 0.19140865 0.19354029 0.03411366 -0.078409374 -0.01715149 -0.39009187 0.2502336 0.099496685 0.13699014 0.11893507 0.03865799 0.23106825 0.21450819 0.021006329 0.16383499 -0.0051300395 -0.07840319 0.12209639 -0.09388379 -0.29192808 0.040689997 0.1699107 0.22487946 0.04035235 -0.08360251 -0.34496102 0.2703294 0.04419619 0.17504704 0.02514511 0.020727536 -0.45603037 -0.20675206 -0.24612556 0.032266743 -0.015653973 -0.06715325 0.24024826 0.08276598 -0.22625823 0.45562422 0.117092915 0.22366776 -0.35116494 -0.12340161 -0.18603787 -0.16868332 -0.1422683 -0.039610825 -0.4306192 -0.14482562 -0.042442136 -0.09208178 -0.10708225 0.35460377 -0.28030545 -0.08469669 -0.39237225 0.102407835 -0.011872057 -0.006309576 -0.19050206 -0.36282298 0.17158131 -0.02352013 0.07229757 -0.035898153 -0.42669195 -0.1021117 -0.26258606 0.14124593 -0.1621612 -0.30222297 0.13510656 0.2851725 -0.15785076 -0.095855914 0.021306437 0.122522905 -0.15091746 -0.37657753 -0.037446063 -0.201069 -0.33890942 -0.10396451 0.005723903 -0.3883971 0.24588835 -0.09654899 -0.0053947866 -0.39229777 0.14248404
35 0.2638398 -0.044381484 -0.14552106 0.140928 -0.07680623 0.07808556 0.0263332 -0.093417585 0.03207932 0.09297903 -0.19358012 0.09663014 0.03722175 -0.06919631 0.35540688 -0.18241876 0.3371966 0.0007233019 0.09871637 0.13968517 -0.11138079 -0.09010662 -0.2576037 -0.017502042 0.32824644 0.1372299 -0.021590572 -0.08906911 0.39632317 -0.0076749073 -0.0058678794 0.032876763 -0.19376811 0.20401071 -0.2491162 -0.071463846 0.2444737 0.24047923 0.02462455 -0.082697235 -0.07392671 -0.3070491 0.21415605 0.12857392 0.1404807 0.16186024 0.03326406 0.16154516 0.22784229 0.04247503 0.19517042 0.013690142 -0.122521654 0.087240025 -0.048896603 -0.29409534 0.026575906 0.16581635 0.23317593 0.025432134 -0.118019976 -0.36587098 0.34248033 0.064409606 0.17843239 0.07612845 0.04000572 -0.43771666 -0.18454868 -0.23188803 -0.003512894 0.004327967 -0.07577174 0.18680269 0.12635972 -0.22342066 0.45303175 0.14363776 0.17736536 -0.34322673 -0.16068514 -0.1341525 -0.17696404 -0.093575716 -0.10715658 -0.40931964 -0.15028441 -0.03288919 -0.123056844 -0.10692033 0.3214752 -0.27694106 -0.07640903 -0.3801148 0.11355235 0.005652669 -0.051635943 -0.16818921 -0.3737588 0.20935394 0.01158137 0.06529476 -0.05494959 -0.39747548 -0.14104734 -0.28430772 0.105694905 -0.14712046 -0.24423115 0.13032821 0.31732798 -0.106053784 -0.11149778 0.08102869 0.13676803 -0.16531302 -0.37190485 -0.045628805 -0.17223695 -0.31900406 -0.07868348 -0.037535638 -0.34565982 0.22554679 -0.12901014 0.04487896 -0.38605312 0.08974223
17 0.06105629 0.17625017 0.07472076 0.28774294 -0.33979276 -0.3398577 -0.056744676 0.15962371 -0.17158268 0.3770765 -0.1455508 0.5308779 -0.31794074 -0.3759069 0.5170752 0.07989245 -0.14077777 -0.32937077 0.70837265 0.08607757 -0.35388848 -0.34966716 -0.40210813 -0.11368395 -0.013071857 0.41333333 0.14499527 -0.0066403844 -0.066306 0.13087977 -0.33750543 -0.3213484 0.019950034 -0.157328 -0.410351 -0.0466087 0.57943827 0.33075386 0.4481374 -0.05511321 -0.28567123 -0.20233697 0.19716707 0.3371382 0.2716422 0.06035976 -0.1817705 -0.1059185 -0.0848754 0.12027548 0.33591464 0.25919938 -0.6190546 0.38653737 -0.073352486 0.04949518 0.32881993 -0.027573492 -0.3256631 0.13750142 -0.06353372 -0.1912694 -0.078503884 0.21879445 -0.27404353 0.42069155 -0.16598934 -0.1771018 -0.5306473 0.079271786 -0.23389821 -0.025328202 0.04050481 0.116020225 0.17556942 -0.32808048 -0.07024256 0.21115959 0.24194632 -0.10815292 -0.19857898 -0.28463414 -0.78569007 -0.03331223 -0.3391444 -0.40736324 0.018439187 0.13856517 -0.17236859 0.1584908 -0.2984593 0.21363813 0.12606631 -0.46706206 -0.039066568 0.08320735 0.13503736 -0.09434144 -0.03190678 0.28281692 0.045801044 -0.016125482 -0.2944893 -0.26706675 0.07172495 -0.20722534 0.012383455 -0.113741554 -0.056907576 0.25312224 0.1530539 -0.31813627 -0.5107927 -0.0044868104 0.24847692 -0.022380037 0.45835093 -0.15855874 0.14961636 0.06742337 -0.379155 0.11918658 0.07634801 -0.34309438 0.054037403 -0.007365662 -0.21417247 0.27361378
38 0.19773234 -0.11132592 -0.109069414 0.123047166 -0.13716504 0.15529603 0.0036717602 -0.14090109 0.06352471 0.13540171 -0.29868197 0.07659665 0.09539709 -0.10845097 0.36748996 -0.2085495 0.32066855 0.055961356 0.004309609 0.123134725 -0.11373593 -0.07035382 -0.23433071 0.037764084 0.3948724 0.071426705 -0.07097031 -0.10753035 0.41487324 0.0071341647 -0.005616788 0.044095013 -0.09490822 0.24232517 -0.17113583 -0.1277355 0.25461173 0.21667337 0.077958055 -0.120227404 0.019398067 -0.41620606 0.3071817 0.14946328 0.16978619 0.08516868 0.061046876 0.18073842 0.25052145 -0.03682194 0.12474569 -0.015433202 -0.11524891 0.1968731 -0.14533068 -0.29529226 0.06647659 0.12156663 0.13803668 0.074651584 -0.0803407 -0.33361927 0.19949304 0.057523955 0.14140049 0.030544909 -0.059296757 -0.46179935 -0.22481412 -0.20988224 -0.031876102 -0.045194957 -0.006427628 0.2064215 0.022490889 -0.19409357 0.4184756 0.1296797 0.24079075 -0.30545884 -0.16365738 -0.2546845 -0.19065967 -0.20554458 -0.0069693015 -0.4303019 -0.12157412 -0.06549947 -0.044028185 -0.08836549 0.38114366 -0.30798265 -0.108953804 -0.41766047 0.12639402 0.014146586 0.017609745 -0.19168505 -0.31729892 0.16368632 -0.056561485 0.052835435 -0.076989636 -0.4329316 -0.06541638 -0.29200938 0.10947345 -0.28707168 -0.30950114 0.14860943 0.28312254 -0.22101301 -0.1669477 0.0225519 0.099708036 -0.14832175 -0.39026287 -0.0459724 -0.1531398 -0.3694979 -0.17425632 0.00014507957 -0.42242336 0.14657608 -0.07975253 -0.06753607 -0.4694094 0.15220878
34 0.20773421 -0.037219197 -0.038921922 0.11062564 -0.041881584 0.120218195 0.013139821 -0.09494077 0.0768286 0.09894464 -0.1629653 0.016561728 0.06651478 -0.052984845 0.32818013 -0.19369742 0.35671186 0.033423588 -0.012787427 0.01301491 -0.099352226 -0.049932737 -0.23283969 0.024331095 0.36590752 0.033011414 -0.031520914 -0.11645921 0.40548745 -0.02456667 -0.0030053258 0.060006514 -0.087813765 0.24052325 -0.2165243 -0.09132702 0.18799639 0.18400225 0.010964074 -0.09824034 -0.020122463 -0.36753136 0.25683877 0.09052509 0.09687017 0.12300687 0.05834748 0.2400161 0.19225203 0.019748649 0.16066612 -0.021262996 -0.054655854 0.13972463 -0.10134656 -0.30761248 0.0513654 0.14498246 0.24825402 0.073969595 -0.083586395 -0.31297126 0.26190734 0.04642346 0.18122594 0.0026852884 0.038698394 -0.4220517 -0.19052516 -0.22769594 0.035797294 -0.007870199 -0.04952024 0.22324786 0.07812779 -0.1990406 0.43087706 0.11452936 0.21619071 -0.35629338 -0.13070688 -0.22167349 -0.133852 -0.12322354 -0.009056659 -0.3853066 -0.14339486 -0.051770367 -0.09340134 -0.11393021 0.3522435 -0.23485816 -0.063576326 -0.32500407 0.066926815 -0.030032057 -0.0015703861 -0.153467 -0.3344246 0.14148286 -0.08286291 0.12597802 -0.034611177 -0.418787 -0.08620643 -0.2646225 0.16988909 -0.13578664 -0.28316566 0.12117942 0.2713171 -0.13265376 -0.071521245 0.014381122 0.11324111 -0.11050387 -0.38629082 0.004574464 -0.23159115 -0.3421169 -0.11173633 0.026755488 -0.37021294 0.25075293 -0.08903724 -0.021078432 -0.36387143 0.1533896
51 -0.15635811 0.03549271 0.23605411 0.02659204 0.17834146 -0.28550243 0.09895897 0.16926959 0.2748697 -0.14744738 0.06963091 -0.18772958 -0.29438078 0.2505074 0.26175117 -0.21321529 0.36456347 -0.11779176 0.27207863 -0.19735132 0.11766241 -0.10921613 -0.1933531 0.16704582 -0.1861732 0.19160329 -0.024330266 -0.1171277 0.42956167 -0.05420385 -0.28698343 -0.118273556 -0.072766535 0.19033125 -0.48124027 -0.12893514 -0.14487672 -0.008472685 0.11036203 0.050281957 0.020146847 -0.21997175 -0.018826302 0.06465772 -0.15639505 0.014280159 0.103179134 0.3910369 -0.21744175 0.33270183 0.27265808 -0.041235313 0.016450271 0.22154509 -0.062714525 -0.018220283 0.19047573 0.23535979 0.17257258 -0.09638089 0.035878655 0.032160375 0.17395659 -0.28781942 0.08427178 -0.14734745 0.15022624 -0.15306593 -0.19694194 -0.24636272 0.18759172 0.03605463 -0.14532429 0.2305594 0.3162496 -0.45192486 0.14346999 0.25096238 -0.11220049 -0.057402473 0.17003538 -0.2842714 -0.35398158 -0.054797634 -0.26893148 -0.1897114 -0.14560635 0.17331384 0.062008824 0.031036157 -0.0006216145 0.067599 0.1240512 -0.42599526 -0.03256975 -0.04424654 -0.08156449 -0.27620864 -0.25910005 -0.0448398 0.10691867 0.1262895 0.118833646 -0.35236987 0.110766314 0.24221933 0.3322127 0.20694874 -0.041047458 0.10742548 0.31284136 -0.18560514 0.0644881 -0.14874186 0.32832864 -0.21647076 0.151622 0.11803649 -0.63285434 -0.10972517 0.038419574 0.33339325 -0.19157901 0.5396875 0.12255026 0.18142542 -0.10439895 0.3046453
18 0.10907932 0.14752927 0.06142093 0.30029315 -0.31717274 -0.29340032 -0.061610978 0.06584414 -0.1486443 0.32615325 -0.1611589 0.49624872 -0.26687154 -0.32735845 0.50788563 0.106008895 -0.088315934 -0.31375653 0.6210379 0.13428664 -0.28513142 -0.33215493 -0.3886608 -0.08365722 0.019459596 0.4034784 0.12360908 -0.01770292 0.00041223527 0.13572884 -0.3298634 -0.2907424 0.02114261 -0.14232314 -0.38215208 -0.031163651 0.54001135 0.3130173 0.4342548 -0.063369595 -0.2401814 -0.22142613 0.18487132 0.31581804 0.23198445 0.082805976 -0.1594322 -0.115730084 -0.07904185 0.104710296 0.32210687 0.22416766 -0.5542434 0.34285697 -0.10303331 0.023722919 0.27677235 -0.009378086 -0.29241627 0.11228894 -0.050873335 -0.2009738 -0.09489558 0.1931398 -0.24990207 0.37022266 -0.18933171 -0.20569551 -0.52622354 0.04336407 -0.22268371 -0.034132417 0.03540313 0.1312079 0.15156654 -0.2978587 -0.008550773 0.20328836 0.22407746 -0.0826844 -0.20894524 -0.3035452 -0.7353674 -0.05374166 -0.29763934 -0.43342733 0.02143351 0.118482426 -0.137868 0.14949578 -0.23377769 0.13829671 0.067584835 -0.42033732 -0.05310401 0.06180069 0.09465664 -0.14363067 -0.07833753 0.27871776 0.05653631 -0.028607259 -0.2691662 -0.2799081 0.072068624 -0.22249052 0.024818001 -0.151852 -0.09675001 0.24436748 0.17980024 -0.2894618 -0.49951828 0.0437885 0.23196639 -0.029086322 0.38590008 -0.1466037 0.13472821 0.039951198 -0.34774458 0.11036754 0.0058759605 -0.33388278 0.06705176 -0.0056095026 -0.24482481 0.26851144
21 0.09826705 0.21182986 0.08197025 0.33163616 -0.34771293 -0.34959507 -0.110743016 0.05722849 -0.17871806 0.39817908 -0.16563582 0.5393804 -0.31255388 -0.39457402 0.51260984 0.12458876 -0.11215912 -0.3425918 0.7133561 0.07938712 -0.38038608 -0.3435467 -0.42195302 -0.11968506 0.01950834 0.41502553 0.15856081 -0.027374126 -0.05784018 0.15383989 -0.36034226 -0.32685682 0.042305492 -0.16559313 -0.4063814 -0.06469167 0.6256129 0.3394814 0.4654046 -0.0745745 -0.26538423 -0.2575171 0.22588864 0.33298218 0.27612895 0.06369834 -0.19370656 -0.124393634 -0.122530095 0.12327743 0.35356098 0.2750111 -0.63492584 0.4208129 -0.11896428 0.040792346 0.33307093 -0.0058834758 -0.37089136 0.12623343 -0.05676286 -0.18427843 -0.1266946 0.24348286 -0.31312954 0.407959 -0.19705908 -0.18856865 -0.600619 0.08580797 -0.23112051 -0.040707055 0.025963744 0.17763205 0.14563404 -0.3228467 -0.0429799 0.20598912 0.2932098 -0.08805405 -0.2180679 -0.31942418 -0.82631946 -0.051776316 -0.32885647 -0.4767657 0.041978877 0.14102046 -0.18233758 0.18345937 -0.28585577 0.20905305 0.093881585 -0.46353397 -0.08101992 0.047027685 0.16096748 -0.14728966 -0.053031996 0.3336086 0.06540689 -0.015462785 -0.2823816 -0.2938455 0.12733984 -0.2464363 0.05160818 -0.12642792 -0.10379535 0.26086405 0.13164599 -0.33062926 -0.5445074 0.0384827 0.23900762 0.0105575295 0.45521125 -0.16098236 0.17191148 0.0671097 -0.41111803 0.136042 0.024696033 -0.3839839 0.09303311 -0.013819978 -0.23649158 0.32174385
22 0.11975036 0.18361853 0.03697453 0.24998693 -0.28697124 -0.30023587 -0.06802728 0.060909066 -0.12409589 0.33395916 -0.18279561 0.4508142 -0.2729612 -0.25726223 0.454318 0.07674976 -0.076307654 -0.30270413 0.59102905 0.08509136 -0.29378948 -0.31858945 -0.39282078 -0.08334933 0.03306825 0.3743759 0.13649108 -0.010181942 0.023637798 0.1206593 -0.31088856 -0.28112692 0.014315871 -0.13068596 -0.3516147 -0.036960628 0.46482196 0.25912246 0.40284553 -0.022575378 -0.22778486 -0.23264314 0.19397205 0.29973176 0.22130603 0.110223666 -0.18878183 -0.068466045 -0.09596455 0.11270222 0.31274664 0.21780662 -0.5246761 0.2965313 -0.079917215 0.035360213 0.27759826 0.017857432 -0.26166096 0.086998604 -0.032148726 -0.19989304 -0.095796205 0.19217758 -0.24517791 0.34767094 -0.15052687 -0.17872632 -0.47943652 0.050055273 -0.1604554 -0.013487339 -0.03219802 0.15704726 0.15257443 -0.29102594 -0.0016025003 0.1605773 0.24787039 -0.12157328 -0.18132259 -0.22583115 -0.6935694 -0.06222588 -0.2598814 -0.4133587 -0.0052240742 0.102493614 -0.13920459 0.14571463 -0.26057947 0.13685548 0.05710923 -0.42496777 -0.056171805 0.018847002 0.11906186 -0.12645368 -0.065338664 0.2620474 0.07488475 -0.057385433 -0.25797024 -0.28804827 0.0743829 -0.19031605 0.029565293 -0.109339416 -0.08853527 0.2345018 0.13509421 -0.23580258 -0.4319933 0.036351148 0.24254416 -0.010917463 0.37073326 -0.17401889 0.14081946 0.06871053 -0.27491114 0.117327966 0.041361354 -0.29645798 0.06446443 -0.009742463 -0.19878668 0.2534352
20 0.0859145 0.1576957 0.059120744 0.27193472 -0.31163627 -0.28057587 -0.052570265 0.12097729 -0.16898993 0.36300406 -0.13237686 0.4930482 -0.27579123 -0.35269699 0.4929512 0.07689303 -0.10252549 -0.29674295 0.62693816 0.07851597 -0.32878286 -0.32031783 -0.37933412 -0.115253374 0.033767894 0.36404318 0.13066947 -0.014651103 -0.04787914 0.11213109 -0.28381988 -0.28469655 0.015638212 -0.13736479 -0.378904 -0.03772086 0.5490729 0.3183376 0.3968361 -0.06310786 -0.276131 -0.19813602 0.19219309 0.30296025 0.2439839 0.06840774 -0.16845532 -0.08460139 -0.058898523 0.10013678 0.31193152 0.23354748 -0.55526394 0.34189823 -0.06655332 0.011712755 0.29792103 -0.015247902 -0.26318586 0.13965376 -0.0651546 -0.21007657 -0.048887443 0.2228011 -0.22987452 0.38805246 -0.15360987 -0.19142506 -0.49293852 0.06333437 -0.21117978 -0.016950922 0.035761118 0.13081896 0.14944994 -0.29500747 -0.031557646 0.18976426 0.23771285 -0.14173642 -0.20531791 -0.2713703 -0.7145411 -0.024548087 -0.29792914 -0.3947231 0.0072559686 0.121419184 -0.1816324 0.12815394 -0.24549048 0.1737809 0.114341736 -0.42231655 -0.043920655 0.06614881 0.12184734 -0.08390442 -0.051119406 0.2704198 0.026770985 -0.0040163 -0.2714022 -0.26225144 0.045911297 -0.23319295 0.012682856 -0.10623126 -0.077417694 0.23386022 0.15075274 -0.28435612 -0.48093367 0.0069769262 0.22319095 -0.0053210035 0.38798255 -0.14113767 0.1464842 0.041865036 -0.3612329 0.09640114 0.054679856 -0.3273339 0.040779755 -0.019629063 -0.21082897 0.25071636
49 -0.063247256 0.09062747 0.07041949 -0.029050289 0.10911542 -0.2571402 0.09380056 0.1035937 0.1696029 0.014943238 -0.10683728 -0.09223447 -0.27820012 0.25921834 0.25467333 -0.27437022 0.4557227 -0.044412524 0.37423354 -0.12989075 -0.009635606 -0.12616812 -0.26899913 0.06339861 -0.07192524 0.15240721 -0.07981775 -0.07906728 0.41053122 -0.07329523 -0.13848574 -0.10333638 -0.19784373 0.22135942 -0.35713172 -0.12081742 -0.174891 -0.041843433 0.08508089 0.19617055 -0.038777426 -0.22834155 -0.017420052 0.042409014 -0.002625417 -0.061545096 -0.0269299 0.36705258 -0.11833955 0.22975832 0.23820901 -0.004619228 0.004328182 0.047091782 0.011974706 0.046809237 0.16990715 0.26310018 0.17417563 -0.11875402 0.06191175 -0.1286334 0.22374824 -0.1849559 0.15190299 -0.024476018 0.13105337 -0.20586623 -0.13692392 -0.2523801 0.2024357 0.007834261 -0.18437907 0.3334213 0.26004118 -0.38687965 0.18991587 0.1158133 -0.012932475 -0.15924677 0.195867 -0.057167772 -0.33111113 -0.034386117 -0.26203763 -0.22725555 -0.1514493 0.17662872 0.015407079 -0.052114308 -0.0053656055 -0.05302449 0.06349723 -0.5484718 0.095076054 -0.03361355 -0.033659287 -0.23093553 -0.29062188 -0.06409057 0.19481765 -0.03355301 0.11687752 -0.32588395 -0.06553082 0.1906227 0.1665388 0.18831424 -0.1397408 0.15744278 0.25876138 -0.161739 0.05650757 -0.19839336 0.3229646 -0.19445707 0.107252106 -0.01191267 -0.47250348 -0.031959973 0.08765403 0.18566124 -0.13875853 0.47710192 -0.0056961775 0.17010202 -0.08458063 0.20027718
19 0.03173332 0.15467393 0.08972308 0.25967827 -0.27762797 -0.29937023 -0.04570431 0.15268134 -0.16583627 0.33937523 -0.08920777 0.46744373 -0.29406303 -0.35107744 0.46660283 0.07576565 -0.098663986 -0.29197255 0.64185023 0.05401819 -0.32179216 -0.3044808 -0.35299945 -0.10411898 -0.009867928 0.35103768 0.12056557 -0.013791775 -0.07687346 0.108042896 -0.27777126 -0.28649238 0.022252137 -0.129828 -0.38556117 -0.032429844 0.5204275 0.3007948 0.38641456 -0.054332484 -0.28020146 -0.15987243 0.15564194 0.29221863 0.22658132 0.020109529 -0.1592206 -0.07815354 -0.08384851 0.10895667 0.30759656 0.2366828 -0.5395948 0.34970984 -0.057139397 0.040470466 0.30046585 -0.020845681 -0.2677982 0.13404647 -0.06500898 -0.17039125 -0.04019583 0.19164816 -0.21638328 0.3727775 -0.14417368 -0.15614688 -0.48499042 0.05535242 -0.20802964 -0.015915003 0.057777435 0.1335597 0.15281013 -0.2956834 -0.07077006 0.19839928 0.20994453 -0.11147464 -0.17769994 -0.27183145 -0.701104 -0.011584358 -0.31327873 -0.3533015 0.0216549 0.14770027 -0.1702459 0.12468151 -0.2610607 0.2027209 0.13829346 -0.41129196 -0.04573113 0.084054105 0.114209406 -0.07511872 -0.024481505 0.24001923 0.022918278 0.012496579 -0.24267192 -0.22991984 0.051175144 -0.18577719 0.014436302 -0.072096385 -0.06245177 0.2224075 0.14565629 -0.29024252 -0.46611923 -0.02528837 0.21968228 -0.0070558637 0.430362 -0.1237025 0.1157921 0.059234362 -0.37438414 0.10727094 0.068679854 -0.3083997 0.05974397 -0.0050229095 -0.18881787 0.2551666
36 0.16779009 -0.032370947 -0.082508266 0.11714278 -0.062920526 0.05410008 -0.00041372023 -0.12283865 0.048074044 0.1070128 -0.2095582 0.04731444 0.018024297 -0.06750562 0.30266288 -0.19636433 0.36047366 0.030727457 0.10906186 0.056189153 -0.1301107 -0.053423714 -0.22418281 0.005578132 0.28120124 0.078450374 -0.06316582 -0.11395234 0.36078 -0.0035426344 0.0018503723 0.04001639 -0.13351654 0.22469334 -0.2015788 -0.12519732 0.19514744 0.1864294 0.04140757 -0.054365464 -0.02314522 -0.33721644 0.20334631 0.09707517 0.13883144 0.04159623 0.039689265 0.18964976 0.16421473 0.039106324 0.16366923 0.013003544 -0.0935281 0.16038989 -0.09210631 -0.23525988 0.05976777 0.16439277 0.15494534 0.031313535 -0.07402902 -0.29573828 0.25489464 0.02228176 0.15542802 0.027756564 -0.0017376142 -0.398055 -0.20758373 -0.21515511 0.013666022 -0.035778712 -0.038873322 0.23732363 0.07849608 -0.22084577 0.3723322 0.12913936 0.19994156 -0.27427506 -0.09321433 -0.18235801 -0.21722075 -0.11715726 -0.09352279 -0.38950932 -0.11804905 -0.0040983567 -0.0860414 -0.08442671 0.30699062 -0.23516671 -0.053372137 -0.4010504 0.09708875 0.019496754 0.018258844 -0.18789007 -0.32882628 0.16237336 0.018443275 0.0676984 -0.008120827 -0.37303978 -0.075621314 -0.21173613 0.12805012 -0.1396623 -0.27142024 0.12907043 0.2523072 -0.18934616 -0.114793904 0.008106583 0.12139053 -0.14536989 -0.29144025 -0.02467712 -0.1923689 -0.28421733 -0.12870528 0.009005713 -0.36202377 0.20833302 -0.07620222 0.014517099 -0.35851786 0.15180212
75 0.06870246 0.20346695 -0.013861203 0.09374868 0.056917798 -0.13325347 -0.03059194 0.13431631 -0.19118936 0.23002478 0.22265525 0.10437349 -0.13814831 -0.22278883 0.08739286 -0.07120617 0.18712847 -0.0823347 0.37671676 -0.22012502 -0.38611042 0.012758331 -0.13415994 -0.25676933 0.09734654 -0.047240585 0.120182276 -0.035192534 -0.10841206 -0.069413275 0.13914008 -0.010125128 -0.15323526 0.06234798 -0.2480238 -0.060285017 0.25792205 0.24021024 -0.15206347 0.010464364 -0.3003121 0.032141745 0.023133196 -0.035889916 0.109672084 -0.032096528 -0.08107312 0.15862693 -0.008589284 0.1249111 0.20725845 0.16837776 -0.15526459 0.033180073 0.15759055 -0.13644779 0.09991188 0.116213255 0.21441732 0.066214636 -0.19087769 -0.18426704 0.46223882 0.18110412 0.2122621 0.22167745 0.24739131 -0.11237249 -0.07930859 -0.039190672 0.058173597 0.12061696 -0.066282175 0.19987157 0.1319185 -0.19348 0.13353357 0.026719403 0.20288458 -0.40118727 -0.03660336 0.124654494 -0.15141986 0.27166325 -0.19876203 -0.12821147 -0.044142503 0.13493884 -0.37836057 -0.112562485 -0.0039259596 0.19001931 0.23144011 -0.13573427 -0.007596527 0.041134194 0.09585494 0.1084921 -0.1100028 0.19965059 -0.067926824 0.22298296 0.04342825 -0.047696218 -0.1864267 -0.17141905 0.073556066 0.35238588 -0.04193168 0.0038097308 0.016003901 0.0355233 -0.010090325 -0.058995165 0.07517859 0.050112024 -0.011851238 -0.017572999 -0.069567464 -0.06375296 -0.15213208 -0.06796345 0.09579449 0.19720589 -0.13391502 0.13425934 0.06579497 0.031437397
76 -0.29013693 -0.11246767 0.21000321 0.03273298 0.080326036 -0.032440852 0.20656069 0.50642484 -0.026165802 0.05638527 0.2582886 0.025992818 -0.13875508 -0.27768973 0.30686978 -0.2617635 0.19974245 0.08144403 0.27549997 -0.1970125 -0.14746957 -0.026663141 -0.02531998 -0.073141545 -0.03685095 -0.029554259 -0.07353948 -0.054132774 -0.020990679 -0.14466059 0.09567587 0.011077031 -0.087599 0.21099629 -0.3636003 -0.06403966 0.19796516 0.21909094 -0.081039004 -0.099425234 -0.2823457 0.04623995 -0.016317954 0.020574173 0.044733524 -0.25003377 0.17332971 0.27124017 0.15828967 0.101459354 0.14611521 0.025898648 -0.09154909 0.25796852 0.12059315 -0.12762281 0.1864879 -0.021101855 0.26707736 0.21834914 -0.19036105 -0.116415344 0.5249802 -0.085007146 0.31839332 0.11737005 0.19546244 -0.16597527 -0.03078751 -0.17108595 -0.08810459 0.049863268 0.2099424 0.008819403 0.22022685 -0.29274726 0.02082649 0.27152535 -0.06126514 -0.32707432 0.029739926 -0.25135913 -0.17776491 0.14976387 -0.31594735 0.051160127 -0.0791912 0.17337142 -0.18557355 -0.18031812 0.16423884 0.16633569 0.34816122 -0.30401772 0.18538891 0.24941164 -0.03895033 0.14011736 -0.07491791 -0.084898256 -0.23440439 0.35305116 -0.011322954 -0.07820839 -0.21872638 -0.024973026 0.046366647 0.16596149 -0.013742806 0.055532347 0.25919756 -0.2807847 -0.102109894 -0.32282495 0.112485304 -0.15104118 0.09702729 0.16590567 -0.34583053 -0.22517826 -0.31787404 0.0023181904 -0.008363976 0.27300557 -0.11730543 0.05259985 -0.13515423 0.08130279
28 0.23561075 0.31878787 0.12065159 -0.020620404 -0.04624919 -0.02778513 -0.055690803 0.103019916 0.08563682 0.37250423 -0.010899251 0.041839257 -0.09544583 0.11586646 0.28840494 -0.048161224 0.06523119 -0.07243271 -0.05175233 -0.31686252 -0.13435927 -0.17070283 -0.41996673 -0.113886006 0.30515307 -0.10163446 0.09638051 -0.07509078 0.21762395 -0.05766049 -0.15291871 -0.10780286 0.030518552 0.0048889653 -0.21298909 0.036282 0.06448043 -0.06722962 0.085371144 0.0067814654 -0.17873657 -0.30277714 0.27144817 -0.0057883696 0.038012348 0.35477433 -0.18312256 0.3739078 -0.05037718 0.080295645 0.19623281 0.00661702 -0.013072999 -0.1207826 0.03912199 -0.21407208 0.14333282 0.06450618 0.33656538 0.08323193 0.06725933 -0.22913976 0.059463345 0.22984733 -0.021930123 0.10940079 0.25666788 -0.26643282 -0.1605628 -0.010619024 0.24118447 0.06602063 -0.30328527 0.2763058 0.14491823 -0.25292304 0.22469056 -0.13858218 0.18885116 -0.6077734 -0.0042053815 -0.054416485 -0.12010996 0.046619993 0.05133307 -0.24422294 -0.2339021 -0.06743099 -0.22784515 -0.11647844 -0.012235761 0.12561958 0.10706892 -0.14236459 -0.082284994 -0.37314475 0.05153406 0.15905578 -0.23317446 -0.038459767 -0.15652457 0.1457732 -0.19230007 -0.36441293 -0.1059228 -0.26628616 0.23701555 0.25235277 -0.12225646 0.17536291 0.08972668 0.09337953 0.067535706 -0.14853741 0.23795886 0.19533554 -0.12122307 -0.041486125 -0.1635186 -0.05836196 0.106395856 0.1607486 0.15468876 0.19010356 -0.1575941 -0.10635583 0.14645496 0.18090726
54 -0.087635346 0.0045829434 0.17416805 0.013337866 0.16004767 -0.23728836 0.1386713 0.10377377 0.19402067 -0.13772272 0.005106752 -0.09549953 -0.27292347 0.2343548 0.31005016 -0.20308667 0.4067114 -0.085583575 0.306126 -0.064878345 0.116648704 -0.13619755 -0.19281797 0.18799108 -0.14451823 0.20518689 -0.06164351 -0.106022134 0.41576472 -0.046970375 -0.20796753 -0.09174033 -0.12211102 0.17918818 -0.45741925 -0.06455994 -0.15215279 -0.00909511 0.1255106 0.13005356 -0.02536528 -0.17814626 -0.048024103 0.09336791 -0.11655528 -0.028103676 0.053186234 0.29527283 -0.15424667 0.25820875 0.24635401 -0.023102032 -0.0019362655 0.13417001 -0.036718234 0.013955322 0.16320132 0.2201757 0.17591593 -0.062089868 0.08137264 -0.08282901 0.17347729 -0.26298133 0.15536378 -0.0862464 0.059290383 -0.19116108 -0.19317795 -0.2682356 0.14323264 0.012235758 -0.08044664 0.26753166 0.27960187 -0.35966998 0.14984922 0.2253356 -0.10442837 -0.040876992 0.12107525 -0.22822563 -0.35861108 -0.06582064 -0.27634034 -0.17843343 -0.15072271 0.15972108 0.08805087 -0.008943082 -0.0045425426 -0.05128169 0.06488125 -0.4583412 0.01803074 0.039922778 -0.12524864 -0.2680098 -0.24687234 -0.09070514 0.13833676 0.023118788 0.12146931 -0.33837605 0.0033635858 0.219476 0.2007103 0.12686317 -0.10086448 0.13590182 0.374678 -0.18393025 0.004884053 -0.13310286 0.31279027 -0.20787224 0.15314019 0.06998737 -0.5451182 -0.042457256 0.032890286 0.24039792 -0.20369983 0.4315894 0.09229543 0.18684074 -0.16223519 0.24733266
47 -0.6360638 -0.018089373 0.17458515 -0.08206545 -0.15243375 -0.18659751 -0.009598882 0.572754 0.01787862 0.5673932 -0.06866077 -0.03916886 -0.21801479 -0.35778007 0.15123947 -0.49828792 0.08759823 0.13885546 0.43194503 -0.6345324 -0.6235385 0.03790858 -0.151728 -0.2732349 0.07711188 -0.20422134 -0.056146782 0.03293938 -0.14595546 -0.15342839 0.01634163 -0.21429253 0.1264422 0.33400896 -0.08273998 -0.4591648 0.28939688 0.18806988 -0.06799719 -0.044741113 -0.097268544 -0.25974718 0.3131994 0.13406795 0.3403643 -0.52436864 0.039752178 0.52682173 0.020639913 -0.033755105 0.108626045 0.09042573 -0.21828863 0.595947 -0.042683806 0.11621467 0.5266109 -0.04220153 -0.16491121 0.06860791 -0.24098577 0.11386166 0.20894088 0.124838635 0.0630625 0.17405298 0.23944692 0.0022266358 -0.086331874 0.08897387 -0.029494015 0.063283294 0.029076207 0.2377355 -0.06793366 -0.4578375 -0.18497264 0.02754864 0.34868032 -0.4104339 0.2512173 -0.17364813 -0.3600412 -0.07432039 -0.117006 -0.016181018 0.07290334 0.2639433 -0.123818636 -0.08631119 0.0069449153 0.5332852 0.43940124 -0.6731094 0.277005 0.074561305 0.49225307 0.13520685 0.10767078 -0.05807787 -0.29257008 0.28638604 -0.12072051 -0.12197428 0.04305447 0.13912834 0.14008655 0.16394195 0.029246159 0.14651339 -0.23820332 -0.49596 -0.101651326 -0.7111838 0.16950774 -0.0870473 0.32925203 -0.01614164 -0.21997419 -0.29583368 -0.5232824 0.14403518 0.12720563 0.30379522 0.013357021 -0.2749179 -0.054993205 0.2033702
3 0.120715216 0.27660978 0.2922947 0.15843345 0.08975513 -0.018737074 -0.18602633 -0.34171686 -0.014723088 0.15791994 0.051247753 -0.06944428 -0.039369434 -0.15630592 0.11763238 0.067608014 0.431312 -0.071073756 0.07105129 -0.33934113 -0.24117212 0.06758709 -0.20352414 0.038638484 0.27030686 -0.20907277 -0.015717309 -0.24334505 0.13091674 0.033290148 0.03783315 0.08218804 0.22166279 0.1603194 -0.171701 -0.10723867 0.12992017 0.06664485 0.06608196 -0.031205218 -0.0074291243 -0.3791582 0.20694292 -0.09167171 -0.03488589 -0.10983716 -0.049317576 0.24139588 -0.22629619 0.0580004 0.14440617 0.07043869 0.0019968753 0.2935456 -0.21232823 -0.20549963 0.13442631 0.1357616 0.0704259 0.20056023 0.07794768 -0.13095634 -0.06455395 0.0713556 0.087814674 -0.06246157 -0.058884174 -0.268769 -0.45018092 -0.14474866 0.13920501 -0.04695624 0.056615647 0.5242258 -0.06639985 -0.11545847 0.17483392 -0.012843081 0.4257956 -0.20899493 -0.04748406 -0.4210402 -0.29336813 -0.005731689 0.07209277 -0.39806733 0.037033867 0.072672665 -0.175916 -0.033628482 0.19654736 0.01710395 0.050515436 -0.04266627 -0.2812631 -0.06429614 0.22013897 -0.17486429 -0.14524864 0.13229778 -0.17298432 0.25698367 0.1489643 -0.27033874 0.12798423 -0.22502238 0.35266122 0.092510164 -0.4322654 0.031319447 0.026461644 -0.23776448 -0.100779444 -0.0549603 -0.033436768 0.19250308 -0.056064617 0.110039875 -0.18645783 -0.11178861 -0.3616544 0.24596548 -0.3353484 0.048198175 0.16163038 -0.058076985 -0.09750053 0.45651054
2 0.076746106 0.3114827 0.3713124 0.12862659 0.20742 -0.03796224 -0.16673958 -0.3759773 0.005484503 0.08958842 0.13470387 -0.15581535 -0.07333647 -0.11088648 0.07891033 0.049983703 0.57802564 -0.04048074 0.09259754 -0.42065006 -0.21477872 0.13286439 -0.16899532 0.09579592 0.22663216 -0.28993446 -0.051613636 -0.29266825 0.13702185 0.006188293 0.09703763 0.13189189 0.21136922 0.21251333 -0.21066695 -0.103076175 0.01439938 0.012334803 0.018778887 0.03739037 -0.0001105133 -0.35262266 0.13313998 -0.16380902 -0.10353599 -0.19233479 -0.0384769 0.30677775 -0.29708147 0.08657642 0.14532554 0.06396174 0.09249192 0.27691582 -0.1923835 -0.1979207 0.12566602 0.18617961 0.14505006 0.2221653 0.12719737 -0.117898256 -0.016198838 -0.0057862815 0.18453285 -0.13482799 -0.033753008 -0.26150295 -0.4461965 -0.2052236 0.21681663 -0.044041157 0.08832336 0.6270888 -0.048589204 -0.11366263 0.16318147 -0.0062455293 0.4027778 -0.1976541 0.01583339 -0.43640432 -0.2809622 0.03513693 0.046436805 -0.36057633 0.02752887 0.11299892 -0.18520677 -0.07543536 0.20945537 0.009177038 0.08535417 -0.03447765 -0.31006432 -0.0319596 0.2018816 -0.20063896 -0.16048655 0.061936125 -0.15919389 0.29140332 0.27497992 -0.27071065 0.1143877 -0.15482183 0.38898218 0.2011008 -0.48717985 0.008034794 0.05845468 -0.26594448 -0.04572387 -0.100988075 -0.035495553 0.22185741 -0.035443094 0.17653967 -0.31036973 -0.07768074 -0.36183986 0.28136045 -0.3735413 0.14755201 0.18515211 -0.006755151 -0.067051016 0.5075969
31 0.15203422 0.10070234 -0.019758983 0.053526394 -0.15302454 0.016988708 0.0037728702 0.056004584 -0.052449774 0.34348246 -0.14453411 0.17813894 -0.033140738 -0.081623 0.29868898 -0.039277047 0.060010165 -0.15464944 0.14320785 -0.05261261 -0.19818807 -0.18970169 -0.32005394 -0.09967158 0.2948248 0.028599896 0.0446276 -0.046801735 0.17719933 0.017937664 -0.05001963 -0.104777 0.060242902 0.038284965 -0.1630797 -0.024130026 0.24012014 0.16018702 0.1660187 -0.03834887 -0.16550344 -0.24119131 0.25297955 0.13175635 0.12262634 0.14792427 -0.16178165 0.19331321 0.032043464 -0.03148246 0.16329114 0.075390734 -0.15509824 0.065213196 -0.05147849 -0.16103545 0.14420792 0.038059328 0.08547957 0.11598558 -0.041094843 -0.2552751 0.00635646 0.2087517 0.012596929 0.19342615 0.008130233 -0.2811017 -0.24700499 -0.08742412 0.037784003 0.046199653 -0.06821256 0.1815674 -0.007974101 -0.17945208 0.16433667 -0.08323345 0.28135383 -0.3869574 -0.11907564 -0.12458862 -0.25109258 -0.022801565 0.068957925 -0.32781482 -0.09047942 0.027523128 -0.15797105 -0.0621803 0.022181276 -0.02144861 0.05610841 -0.20112771 -0.03079174 -0.110757865 0.116794415 0.020842584 -0.12538263 0.07698763 -0.18023907 0.040162057 -0.1937314 -0.2573425 -0.102859095 -0.26019886 0.09809863 -0.048454143 -0.18109365 0.14685628 0.10476395 -0.076348335 -0.15860514 -0.08415936 0.10698619 0.031188121 -0.07330484 -0.103280686 0.016756745 -0.15961273 -0.14916901 0.054473635 -0.019208156 0.009271832 -0.029162444 -0.1287882 -0.11216566 0.15738715
46 -0.69159454 0.056579135 0.24526405 -0.046132587 -0.17178397 -0.28520355 -0.045617264 0.636181 0.004851515 0.63784313 -0.039810594 -0.0043309107 -0.29976743 -0.4289937 0.1766215 -0.49797776 0.07889809 0.07728958 0.58235264 -0.74024576 -0.7394968 0.018575044 -0.19225903 -0.3220147 0.033858947 -0.17991067 -0.01943813 0.012311157 -0.18812077 -0.13903753 -0.022668168 -0.2646653 0.1563366 0.32399923 -0.15982425 -0.51544976 0.3805709 0.2398293 -0.027901227 -0.057688758 -0.15216893 -0.300192 0.35055128 0.16085538 0.3690657 -0.57357335 0.02089823 0.5728189 -0.041534565 0.032894604 0.16877304 0.14439957 -0.3169856 0.72686815 -0.051672973 0.12542938 0.6132341 -0.03206172 -0.21642739 0.102770105 -0.27038738 0.14031117 0.22047678 0.14454797 0.023091549 0.22723389 0.26436773 0.0048315274 -0.17031418 0.11084777 -0.027794491 0.06389983 0.03382124 0.28723216 -0.037005063 -0.5551529 -0.22972098 0.0607843 0.42694825 -0.4428706 0.27066806 -0.2231866 -0.511623 -0.044142082 -0.1794828 -0.072434075 0.08820224 0.31939358 -0.1859339 -0.05828871 -0.06195397 0.6526178 0.51649845 -0.7456108 0.24113524 0.08450215 0.570321 0.14274628 0.122856826 -0.010812185 -0.30596718 0.3513317 -0.14516759 -0.15015177 0.094124466 0.13337329 0.20276912 0.23923716 0.028294172 0.15855883 -0.2681541 -0.57241213 -0.14229277 -0.7595554 0.2015143 -0.0701069 0.44563824 -0.018367313 -0.24620253 -0.28602 -0.6221626 0.22041824 0.15413892 0.30500603 0.04201759 -0.26469794 -0.0345059 0.30671754
43 0.09654523 0.225092 -0.016969541 0.0057446864 0.04996166 -0.26294425 -0.03771653 0.011406063 0.06212588 0.1720462 -0.0490764 -0.020697534 -0.24798042 0.21142402 0.09715228 -0.13334548 0.26129296 -0.19856681 0.31903905 -0.2141212 -0.1752562 -0.11779113 -0.28038388 -0.06829236 0.032347396 0.111658745 0.11678938 -0.018011585 0.26511654 -0.01225759 -0.1254739 -0.12502499 -0.078954555 0.09438113 -0.24450898 -0.10407599 -0.055544578 0.014527384 0.04079525 0.1620628 -0.07958245 -0.204302 0.08965939 0.0766675 0.0021342149 0.12214686 -0.15130043 0.3108695 -0.19138967 0.21296836 0.25955328 0.07222061 -0.09248481 -0.0057336767 0.0064175366 0.0030183103 0.15523379 0.23889615 0.13298509 -0.13307537 -0.008422512 -0.12397321 0.12959915 0.026663465 0.05954522 0.06500781 0.1562037 -0.10287056 -0.15935461 -0.10054964 0.24511676 0.1210372 -0.3131819 0.31541467 0.15643752 -0.29285622 0.19065304 -0.038819592 0.20610094 -0.26802403 0.07123959 0.104710296 -0.28006166 0.038726922 -0.0808787 -0.26315027 -0.11200096 0.109923504 -0.11032533 -0.0069249035 -0.12752785 0.09205815 0.058404498 -0.3207842 -0.08829861 -0.1540411 0.11136747 -0.12683459 -0.1766369 0.107674375 0.0896716 -0.035240605 0.03690136 -0.26936948 -0.021993496 0.082378894 0.20218232 0.27317744 -0.07364284 0.09945085 0.045199044 0.07351512 0.10051949 -0.07475954 0.25091785 -0.055959933 0.05669937 -0.09346963 -0.24302639 -0.00621254 0.13114265 0.16107021 0.012709307 0.35933247 0.029463232 0.12691508 0.04947605 0.13691023
72 0.09568643 0.11196994 -0.058622964 0.019046638 -0.02250416 -0.22724785 0.07185843 0.19570763 0.05094657 0.14525117 -0.10250023 0.1231154 -0.23017065 0.16491958 0.25535223 -0.13373886 0.13539183 -0.22329916 0.31860313 -0.036577996 -0.087153114 -0.22747564 -0.28619355 -0.03975089 0.023030683 0.24505034 0.12909684 0.05879163 0.29677194 -0.0010258958 -0.16756271 -0.15255117 -0.09885624 0.04739543 -0.29169312 -0.03114188 0.010038317 0.06950571 0.11661845 0.11469033 -0.16015896 -0.16768663 0.09842717 0.18460028 0.03942719 0.20559879 -0.118103474 0.22721042 -0.03353908 0.18314005 0.26446646 0.06410237 -0.1923598 -0.010983259 0.042690746 -0.002006866 0.15594044 0.15161027 0.15655197 -0.067967385 -0.04311002 -0.21320589 0.16692622 0.007841423 0.058076136 0.14703816 0.104787976 -0.15662396 -0.1363151 -0.13406573 0.12334459 0.13084012 -0.24307269 0.13976882 0.21013826 -0.28076118 0.18436955 0.05882245 0.12818515 -0.29574183 -0.031481113 0.0642554 -0.28918108 0.010861485 -0.10383298 -0.24116096 -0.16298397 0.06586989 -0.06789398 -0.014106543 -0.15061289 0.024746535 0.0493336 -0.3548556 -0.0026081703 -0.05740592 0.0016396097 -0.07129393 -0.1349298 0.06641549 0.032504447 -0.079737455 -0.10638957 -0.29404947 -0.104383945 0.04324741 0.078745544 0.12339651 -0.02336024 0.14526828 0.17774488 0.080931425 0.0012431119 -0.06840541 0.2815823 -0.14035463 0.06755014 -0.12430987 -0.17665572 -0.032729372 0.13207018 0.093907356 0.04780624 0.26814595 -0.025853464 0.11256351 -0.06811319 0.056136627
39 -0.12445864 0.084517576 0.17741516 0.2159434 0.07147904 -0.3374797 -0.0058972402 0.25574288 0.13590646 -0.07683756 0.28690523 -0.08674707 -0.22213839 0.031886082 0.09719643 -0.0531483 0.07141682 -0.20456567 0.31757408 -0.23739451 -0.031653594 -0.11960207 -0.1739848 -0.14662303 -0.24918568 0.34252614 0.16354649 0.04496031 0.12529239 -0.03808338 -0.3618878 -0.17998192 -0.05245021 0.029582275 -0.3920156 -0.15274343 0.15104347 0.1451882 -0.005462324 -0.14839087 -0.084173575 -0.0695856 -0.055662114 0.08521169 -0.06594987 0.08342683 0.11708449 0.20992331 -0.1702743 0.37393075 0.35395452 0.04862196 -0.20009953 0.31044313 -0.018067949 0.024883837 0.1352407 0.12280925 0.00045660528 -0.18249972 -0.22581041 0.17087021 0.32079867 -0.12956607 -0.093968205 -0.012538488 0.3191805 0.051855884 -0.0969576 -0.016019125 -0.035235073 0.05158992 -0.21548507 -0.015853804 0.37274686 -0.45113656 0.11366266 0.3010488 -0.114453755 -0.04163575 0.09077689 -0.16189551 -0.30717352 0.09060618 -0.39311704 -0.14952551 0.041967656 0.17061004 -0.04682073 0.101511665 -0.075375065 0.37473917 0.14600773 -0.2035888 -0.011491998 -0.10410729 -0.047539067 -0.19422942 -0.23769434 0.22677916 0.082095 0.24666546 -0.025194945 -0.1425776 0.19397938 0.117429055 0.30639637 0.3126397 0.24220674 0.061494403 0.055121515 0.0028841353 0.04226573 -0.057305545 0.2746103 -0.22480308 0.26364636 0.11947863 -0.38709933 -0.11598714 0.045873307 0.1837565 0.008039058 0.36646962 0.0449953 0.18632247 0.047390003 0.11685991
42 0.100479126 0.35810483 -0.022530096 0.08619803 0.091050796 -0.29967618 -0.07877466 0.039536137 -0.19665314 0.2993687 0.17507978 0.11400813 -0.25930735 -0.1329486 0.07664686 -0.060426302 0.28161484 -0.17776597 0.53593516 -0.2526411 -0.42373675 -0.028869357 -0.22413425 -0.282558 0.011357066 -0.04524849 0.10911972 -0.088888265 -0.0799265 -0.03577495 0.12421339 -0.07436299 -0.18784957 0.038021263 -0.2582692 -0.08037729 0.16801758 0.18152678 -0.07794122 0.16137701 -0.32761458 0.015974598 -0.021636808 -0.0714155 0.11400435 -0.051982634 -0.20805115 0.18304011 -0.14992483 0.20334819 0.27738264 0.20291245 -0.13528119 -0.062141776 0.18277422 -0.048557647 0.102771245 0.18869653 0.17867294 -0.012792474 -0.108466506 -0.19355142 0.39605293 0.1907222 0.16553682 0.23316787 0.24377732 -0.1062959 -0.16637392 -0.085958876 0.1556834 0.13401395 -0.16030088 0.34575653 0.17933218 -0.23025142 0.10158411 -0.045977265 0.24471092 -0.39780626 0.04775362 0.22430542 -0.23628373 0.31069994 -0.25402573 -0.1767996 -0.06026696 0.21410248 -0.39672613 -0.09623741 -0.100818075 0.183063 0.24570023 -0.1929521 -0.080140024 -0.023908194 0.1333273 0.087251194 -0.16097884 0.18669343 0.06362729 0.14275816 0.079213634 -0.061525602 -0.19308819 -0.09818727 0.087716915 0.44225708 -0.086966045 0.03412046 -0.024186518 0.060593147 0.022568587 -0.08185526 0.092860736 0.0743083 0.10989615 -0.05753898 -0.038398672 0.08781344 -0.07444129 -0.01987066 0.15479513 0.20218559 -0.09237676 0.20678942 0.19534622 0.04586695
52 -0.30623454 0.05632322 0.28288418 0.2233726 0.10755797 -0.52378076 0.03867145 0.4227221 0.26524973 -0.1591939 0.3228912 -0.16080303 -0.37938416 0.10044421 0.16886073 -0.15038799 0.11499054 -0.27331266 0.49772212 -0.31137577 0.016742041 -0.16132767 -0.20658727 -0.10116471 -0.4416346 0.480278 0.16172388 0.044135485 0.23403658 -0.060640395 -0.538253 -0.28798956 -0.06868461 0.082040414 -0.5571541 -0.24704298 0.11600374 0.15623704 0.05425533 -0.1439347 -0.052186172 -0.109194644 -0.090082735 0.13345402 -0.107419826 0.02088748 0.19597533 0.3273038 -0.2769105 0.5290797 0.45454362 0.024450276 -0.24419682 0.4798786 -0.048720352 0.12236055 0.24774045 0.16884385 -0.056764327 -0.26841906 -0.2442778 0.2801848 0.35312915 -0.28180552 -0.1345123 -0.04881255 0.37241575 0.093886144 -0.14258811 -0.065988004 -0.019840546 0.056389343 -0.25720832 -0.018844651 0.4993127 -0.66132313 0.06197323 0.44281828 -0.21886635 0.03865284 0.20337029 -0.2781106 -0.4827709 0.052477434 -0.55967206 -0.16670258 0.038535614 0.2895249 0.028681934 0.15682693 -0.13918066 0.4971684 0.2305803 -0.39733502 0.018297654 -0.08634129 -0.05846328 -0.3037791 -0.2667313 0.20851672 0.15107554 0.28364804 -0.01178882 -0.21802814 0.29630402 0.31714913 0.40334767 0.37373993 0.32556155 0.09649841 0.12206517 -0.107290156 0.035176422 -0.15499511 0.41065666 -0.37553537 0.45711488 0.15045138 -0.6095291 -0.137216 0.02922113 0.32463372 -0.010675527 0.55625343 0.12951025 0.26636976 0.022701949 0.19883664
44 0.3108034 0.22639792 0.046303857 0.049681228 -0.0098244855 0.055492304 -0.087586746 -0.18230183 0.06332349 0.25053445 -0.1149289 -0.0066126613 -0.0067851963 0.061636742 0.2604898 -0.07451712 0.3067946 -0.03568536 -0.053869814 -0.18322147 -0.13942513 -0.072600804 -0.35176268 -0.006957219 0.39846057 -0.09551489 0.021446465 -0.16077355 0.3448214 -0.023260977 -0.043872774 0.022560026 0.015230247 0.13366939 -0.18270618 -0.024427887 0.07456417 0.015120314 0.057224788 0.00199664 -0.05718375 -0.3975736 0.27428043 -0.0011519402 0.02521847 0.24429514 -0.103235185 0.32995543 -0.010234719 0.04239852 0.17551665 0.009514108 0.018374285 -0.025210163 -0.07288386 -0.27371746 0.07178077 0.15904176 0.30150434 0.07103973 0.054611944 -0.2884263 0.083723366 0.15235688 0.09472791 0.019763222 0.10526332 -0.37464035 -0.2530419 -0.14218199 0.21993862 0.019251324 -0.19103862 0.39665836 0.05333657 -0.17997737 0.36268932 -0.07647645 0.29813108 -0.47665632 -0.068211384 -0.14611296 -0.13922246 -0.034862813 0.099511996 -0.3862115 -0.17404416 -0.045839515 -0.18016407 -0.11364786 0.18738438 -0.113150924 -0.026967 -0.18128134 -0.10425531 -0.24656661 0.072935164 -0.059657007 -0.29965183 0.07587983 -0.109936185 0.1099027 -0.028582098 -0.41312703 -0.060676612 -0.29884085 0.26471433 0.083746895 -0.30642182 0.12710114 0.1595452 -0.01497531 0.011045224 -0.01235333 0.13143761 0.117765866 -0.30642864 -0.021594584 -0.19759615 -0.17739381 -0.018601421 0.13877706 -0.1791785 0.22058903 -0.07860626 -0.058299225 -0.09978341 0.24683726
5 0.026195437 0.29838395 0.40425545 0.1560269 0.05263182 0.02710145 -0.24412368 -0.41482356 -0.015596768 0.25102046 0.055624984 -0.121796906 -0.030513205 -0.25912213 0.1003707 0.045825966 0.44330424 -0.00203772 0.09113571 -0.50593483 -0.35400474 0.10737665 -0.18085618 0.04566068 0.307535 -0.34757322 -0.066177204 -0.36604437 0.048274923 0.018192487 0.03342965 0.10320908 0.33929735 0.14100108 -0.16890107 -0.21392842 0.23484467 0.037650373 0.10155454 -0.104547575 0.018913025 -0.4797101 0.27946693 -0.14772762 0.0057453234 -0.2215133 -0.03929437 0.29189122 -0.29367015 0.037720587 0.13826539 0.08074569 0.026651382 0.478283 -0.26821315 -0.2558488 0.18856704 0.0996656 -0.012956804 0.2812292 0.1099669 -0.020781368 -0.14990412 0.09544777 0.044609547 -0.10079059 -0.11360881 -0.2708937 -0.5326362 -0.091212876 0.1732115 -0.12331567 0.13666733 0.6151547 -0.13768417 -0.14269848 0.07887684 -0.022910848 0.48660293 -0.2053651 0.033058397 -0.59810704 -0.39744487 -0.024372522 0.05094269 -0.3983576 0.0550609 0.11469041 -0.22845852 -0.037720256 0.21703789 0.14376368 0.14963764 -0.060271863 -0.32397747 -0.103124775 0.33932433 -0.1753925 -0.11886526 0.12147094 -0.23664506 0.369752 0.16622657 -0.28388163 0.23925503 -0.31208897 0.45841774 0.11175771 -0.49885845 0.045449648 -0.011457214 -0.4219064 -0.16433108 -0.11368295 -0.07286067 0.2863919 -0.017613268 0.19035627 -0.24388094 -0.121908806 -0.5336031 0.3373512 -0.3801893 0.024159856 0.19738308 -0.17002235 -0.07148808 0.6433523
56 -0.110057905 0.04078889 0.17401052 0.03189373 0.15264127 -0.23185815 0.16861032 0.2107643 0.12430318 -0.11859461 0.030595249 -0.03480108 -0.29027662 0.17887393 0.31198168 -0.19587068 0.42770705 -0.053720772 0.4282439 -0.062103968 0.08177767 -0.16526656 -0.19332339 0.11609544 -0.18192242 0.22210334 -0.08739376 -0.082450025 0.3442582 -0.08102499 -0.14327452 -0.0504097 -0.19068089 0.18219022 -0.47759724 -0.017152399 -0.14037807 -0.015765298 0.12649445 0.1347189 -0.151446 -0.117392525 -0.121529795 0.040884156 -0.053860713 -0.09957887 0.04462869 0.28456452 -0.08710977 0.28020674 0.25981382 0.01696256 -0.061324004 0.10270028 0.04213008 0.014489326 0.14061333 0.2187398 0.20654742 0.004702263 0.05130197 -0.1277922 0.30391502 -0.27218214 0.19828962 -0.022501813 0.10886029 -0.20649152 -0.14357966 -0.2804931 0.109730765 -0.019753937 -0.026827946 0.23551676 0.36319378 -0.38731658 0.13417183 0.2636733 -0.14798138 -0.06904268 0.14349672 -0.17542993 -0.38544813 0.023160923 -0.38810828 -0.1501299 -0.14216588 0.16648339 0.013692409 -0.05113635 -0.006036533 -0.045764197 0.117554985 -0.49016663 0.085712366 0.10198611 -0.14871699 -0.20287696 -0.2752898 -0.106071874 0.16418712 0.040366855 0.12822685 -0.2606762 -0.08693007 0.1710191 0.121618055 0.2018649 -0.08818373 0.15807275 0.3778034 -0.21093403 -0.018662946 -0.17536928 0.31634077 -0.20465143 0.20687205 0.093180306 -0.4971818 -0.0015097295 0.05081899 0.16908297 -0.13092151 0.36906117 -0.02918398 0.2181817 -0.10180168 0.22165352
33 0.012639075 0.15610681 0.055030968 0.019755922 0.04184707 -0.1219444 -0.004516 0.12227861 -0.0375734 0.18502213 0.10008883 0.01412688 -0.14526369 -0.055772524 0.11343296 -0.11238533 0.18599734 -0.08502412 0.21693556 -0.22930732 -0.20589653 -0.045760058 -0.17561242 -0.119026765 0.08767046 -0.028728763 0.03938113 -0.0500425 0.06509397 -0.056652505 0.028176066 -0.032987602 -0.039768636 0.09520045 -0.19046807 -0.05900536 0.09263349 0.099444404 -0.030716792 0.03391228 -0.16670297 -0.0991712 0.05888208 -0.0038379491 0.04122367 -0.004673631 -0.058292042 0.24992204 -0.041061938 0.1113006 0.1701052 0.05918506 -0.06856674 0.049472295 0.04681521 -0.085592985 0.11011833 0.09900249 0.16933684 0.0315442 -0.08330623 -0.13193353 0.23138408 0.068550095 0.12690642 0.10191847 0.15532516 -0.12793018 -0.110681914 -0.08800262 0.10781973 0.08139525 -0.090193965 0.19983992 0.10861899 -0.22367698 0.11204107 0.005325772 0.16269833 -0.33234045 0.027544657 -0.022712862 -0.17474042 0.11898987 -0.1004942 -0.15710716 -0.06889516 0.11682597 -0.21181 -0.095424965 0.021956842 0.13025726 0.15920936 -0.17086853 -0.030688213 -0.040513776 0.09337846 0.037016954 -0.11568949 0.0560082 -0.08125194 0.14886683 0.011034533 -0.13559413 -0.09603788 -0.071207345 0.13208525 0.22662815 -0.084362976 0.04437857 0.03676434 -0.03358345 0.0031300718 -0.12454457 0.09784715 -0.009268699 0.0023070665 0.006236396 -0.14398055 -0.072449535 -0.0730579 0.058741204 0.026224395 0.22908139 -0.051787984 0.040497173 0.04320909 0.08990194
12 0.22910157 0.10609998 -0.04309316 0.13724557 -0.11658231 -0.06829519 -0.037631318 -0.089363135 -0.075159766 0.19077493 -0.12765564 0.21974924 -0.06567524 -0.1100155 0.27954772 0.016127242 0.12153859 -0.16467474 0.23804979 0.08329115 -0.15694855 -0.14325033 -0.27124673 -0.051830392 0.19147037 0.14194456 0.04871878 -0.058561414 0.14834033 0.063386835 -0.08262213 -0.0750131 -0.03406392 -0.0011072806 -0.20576245 0.0051890006 0.24501437 0.1952265 0.15726174 -0.006804581 -0.11846382 -0.19997865 0.1508151 0.12252122 0.113453455 0.14408442 -0.12165299 0.017476043 0.0069720517 0.034704473 0.17364234 0.10114604 -0.20300294 0.06537196 -0.06622795 -0.11312761 0.08057589 0.07813344 0.00018650026 0.050647292 -0.026005095 -0.25002354 0.024117745 0.14615995 -0.0241738 0.17507116 -0.06008846 -0.25135052 -0.28280613 -0.090395905 -0.018866224 0.0105928695 -0.046490192 0.18285908 0.05033059 -0.13442285 0.18040764 0.033909336 0.22530952 -0.21047564 -0.15791057 -0.12268198 -0.30736804 -0.029546697 -0.051839665 -0.35498688 -0.045773968 0.020812742 -0.13702531 -0.0012551469 0.0064059654 -0.087413825 -0.023994576 -0.20941406 -0.049737636 -0.02422495 0.04488334 -0.118065715 -0.16667806 0.19444928 -0.0126311835 -0.012226688 -0.10323481 -0.25167453 -0.050031774 -0.2343424 0.061788075 -0.08033033 -0.18275207 0.12461451 0.14887825 -0.074632905 -0.21035455 0.075913064 0.09374618 0.0020915866 -0.04286028 -0.10036946 0.027213253 -0.08083696 -0.1477871 0.0331477 -0.107134 -0.05879308 -0.00877008 0.002437852 -0.1921546 0.14538844
6 0.02057925 0.24159035 0.43180478 0.20100403 0.049238898 -0.005321162 -0.21954574 -0.40893006 0.03399901 0.18503508 0.07986704 -0.097199775 -0.024343852 -0.21853498 0.1611512 0.07205143 0.43817282 -0.018902158 0.044453796 -0.43973064 -0.2570735 0.0923794 -0.18444413 0.0774004 0.24378069 -0.23217598 -0.04879032 -0.35309684 0.09769427 0.054181557 -0.04374449 0.06306368 0.32017848 0.15945968 -0.22715719 -0.17432067 0.21362104 0.061196133 0.14345771 -0.11480685 0.058853697 -0.45980096 0.25307995 -0.098425105 -0.04339836 -0.21161743 0.0052870526 0.26872316 -0.31228462 0.049539432 0.16274881 0.059247814 0.007327566 0.48941574 -0.3190985 -0.21057796 0.18531044 0.112858646 -0.028574008 0.26079908 0.13832021 -0.0073162722 -0.17406286 0.04071235 0.031485885 -0.13616729 -0.13924241 -0.275517 -0.55675495 -0.090857856 0.10171916 -0.13511147 0.15209313 0.57279557 -0.10648061 -0.14080429 0.098535515 0.043245744 0.4015751 -0.10420881 -0.008864056 -0.66100395 -0.41613787 -0.052235022 0.030195858 -0.4115683 0.0782885 0.10556709 -0.14359967 0.008994442 0.22929686 0.09986566 0.11246909 -0.07141778 -0.31984112 -0.09306319 0.2673827 -0.23221868 -0.15816009 0.091292135 -0.2095658 0.33682847 0.15128651 -0.31736687 0.2813779 -0.25800928 0.45998824 0.046944015 -0.455708 0.058001228 0.028482484 -0.43354747 -0.18075755 -0.1061909 -0.037880525 0.2236313 0.020475626 0.2116727 -0.29439035 -0.13124079 -0.5148307 0.34810844 -0.41769722 -0.0007441167 0.23385242 -0.1421525 -0.11940131 0.6105725
50 0.0028336176 0.37934825 0.058365203 0.017992418 0.114216276 -0.4474528 -0.04671638 -0.014876695 0.03832805 0.1966998 -0.07524585 -0.02513736 -0.42236856 0.21716031 0.16876897 -0.16094705 0.50548095 -0.17136656 0.62303245 -0.2296708 -0.17879015 -0.11185163 -0.37074122 -0.122011915 -0.14979687 0.07178369 -0.06754859 -0.15063582 0.25419334 -0.037326522 -0.09684295 -0.13919851 -0.2386815 0.1460198 -0.30706736 -0.15625279 -0.14012279 -0.072076075 0.12202815 0.3213205 -0.13263062 -0.20651732 -0.0811252 -0.10900824 0.07452787 -0.15184204 -0.19030257 0.35932347 -0.28668162 0.3130416 0.2872973 0.075066105 -0.010968401 -0.04102977 0.08909451 0.14250429 0.16791396 0.30838892 0.11400618 -0.15565354 0.11543008 -0.15468013 0.19859812 -0.07120581 0.08730596 0.10940881 0.14438748 -0.18930456 -0.23456547 -0.2121972 0.2821455 8.472754e-05 -0.24852243 0.47614425 0.24445108 -0.42852038 0.082850434 -0.023196483 0.111761995 -0.19924386 0.30186144 0.09222376 -0.42887878 0.1700826 -0.3511987 -0.3101985 -0.10712125 0.323386 -0.18934111 -0.05698115 -0.13116847 0.05939074 0.1598862 -0.48138717 -0.014154445 -0.10304144 0.08660562 -0.17099452 -0.29333317 0.010243264 0.30400452 -0.05431384 0.16529834 -0.19479945 -0.097997986 0.1559027 0.16376725 0.39189643 -0.22352064 0.13121878 0.08796206 -0.15378352 0.025765557 -0.20543936 0.26217642 -0.09119804 0.26624328 -0.08791982 -0.29897764 0.18391687 0.06356976 0.16529503 0.015357792 0.397886 -0.013626947 0.26545113 0.15854126 0.20640182
7 0.008733206 0.2995003 0.46287215 0.181534 0.062081978 0.028753458 -0.26479334 -0.45562366 -0.04062602 0.2945787 0.10848983 -0.12128044 -0.013070322 -0.30287147 0.11466476 0.07083662 0.45348385 0.016013192 0.06950304 -0.5656063 -0.39061674 0.13040857 -0.17639111 0.024083233 0.2981816 -0.3845358 -0.08020271 -0.4317664 0.006016435 0.032704324 0.03850727 0.10589736 0.36367756 0.13888562 -0.18447788 -0.2190566 0.2754844 0.05466611 0.10919968 -0.1252504 0.01890588 -0.47039327 0.2940855 -0.18102075 -0.012986885 -0.27446395 -0.02261491 0.3079499 -0.3462631 0.045316212 0.1426351 0.08198785 0.050184384 0.5078694 -0.29691073 -0.26134992 0.20287105 0.09622446 -0.019133747 0.3024508 0.1495575 -0.0055482564 -0.16070563 0.10604771 0.058272533 -0.12511893 -0.121389836 -0.29707968 -0.5682375 -0.0672601 0.17164278 -0.16667011 0.17640468 0.6641506 -0.16697259 -0.13230473 0.055084895 -0.02620639 0.48938414 -0.18546472 0.049074862 -0.640779 -0.42064556 0.009051122 0.04111048 -0.40004453 0.067444414 0.13686053 -0.24969783 -0.044869754 0.23784208 0.17086455 0.18833779 -0.023314659 -0.3494562 -0.11746818 0.3641597 -0.1556089 -0.13638516 0.10887583 -0.25560528 0.4286425 0.18862869 -0.27276027 0.27212194 -0.3567426 0.5020922 0.13609524 -0.5150552 0.044532765 -0.03772347 -0.476561 -0.18620233 -0.12532216 -0.082356475 0.3292169 -0.003974511 0.22960117 -0.2890832 -0.10264967 -0.6150996 0.3548283 -0.3958706 -0.0023584461 0.22367488 -0.17871982 -0.03313222 0.6919406
4 0.09398398 0.29360357 0.38495907 0.18524662 0.030951004 0.021833943 -0.25291088 -0.48234078 -0.015631592 0.2497999 0.04220221 -0.0776906 0.0008748782 -0.23322172 0.113907315 0.10300088 0.39938778 -0.031292386 0.048747413 -0.43801814 -0.31622374 0.08574318 -0.20669034 0.05041012 0.29523692 -0.28308532 -0.045015145 -0.3839169 0.05424332 0.056981865 -0.012262999 0.09177381 0.32272133 0.11777425 -0.17773393 -0.17444216 0.25325128 0.055860993 0.13990982 -0.10205377 0.043467507 -0.47219396 0.28876242 -0.12424882 -0.021376904 -0.1712754 -0.042985093 0.24981391 -0.31380764 0.036916383 0.13804123 0.06580519 0.016893249 0.4261353 -0.2976599 -0.23398238 0.15392554 0.112228 -0.03161495 0.25654292 0.14685036 -0.029845424 -0.1939045 0.11124385 0.005891732 -0.107551016 -0.15185472 -0.29606545 -0.5607227 -0.06577115 0.14840461 -0.14836983 0.11681774 0.6134027 -0.15524562 -0.10557118 0.098196425 -0.02656408 0.46878627 -0.14343604 -0.0044382354 -0.5820055 -0.39899293 -0.021996671 0.054588366 -0.43293723 0.05431415 0.099416606 -0.19762287 -0.0045307814 0.20786247 0.10722783 0.10874336 -0.02101995 -0.3485667 -0.13824226 0.32043707 -0.19936416 -0.15428506 0.12560432 -0.18291737 0.32010177 0.15271679 -0.29629084 0.27601153 -0.33147404 0.44757843 0.06875087 -0.49945778 0.058936615 -0.0048868586 -0.39778113 -0.18728364 -0.052668367 -0.06822594 0.2930162 -0.039100897 0.1780739 -0.22061853 -0.098099075 -0.5197062 0.3364633 -0.39683795 -0.032695286 0.21214461 -0.16068916 -0.085306086 0.6205764
8 -0.008462598 0.27084297 0.4811137 0.16907044 0.1117563 0.052209783 -0.21695861 -0.4354175 -0.021265708 0.18653008 0.1602499 -0.16251768 -0.0021561894 -0.27417156 0.08809685 0.074597456 0.48517242 0.030601006 0.04228293 -0.5342404 -0.31457582 0.15585136 -0.12800178 0.067526 0.26828098 -0.39035505 -0.089327134 -0.41950065 0.014429838 0.020030193 0.07038311 0.14954272 0.34561533 0.16045131 -0.20810224 -0.17528395 0.22395103 0.040471334 0.07735982 -0.12584916 0.012067886 -0.42095414 0.22754762 -0.19888584 -0.06347147 -0.27906927 0.0099269785 0.29503012 -0.32328933 0.048067275 0.13671404 0.059070297 0.07640591 0.4947799 -0.27403882 -0.27106586 0.17237714 0.1067252 0.032328468 0.3351574 0.13898206 -0.0035302152 -0.11081844 0.043357536 0.11126249 -0.15689766 -0.116435245 -0.2808248 -0.5367303 -0.10778768 0.16784136 -0.15015064 0.21755761 0.6285875 -0.14266661 -0.115106724 0.0645873 0.009124534 0.43285874 -0.15288424 0.033658464 -0.66099 -0.36921796 0.024261447 0.033301167 -0.35793817 0.06426225 0.12214205 -0.23071982 -0.047971163 0.262581 0.14249018 0.17491369 0.012571 -0.3434211 -0.06910834 0.30578482 -0.16589555 -0.12439811 0.07775066 -0.25245756 0.44278005 0.23335744 -0.24654968 0.24605545 -0.31475604 0.48278865 0.14648163 -0.52126193 0.025417425 0.018347286 -0.45691454 -0.17066818 -0.11930777 -0.09802208 0.30907747 -0.011477594 0.25807938 -0.3243005 -0.11187166 -0.5863891 0.34723434 -0.42038003 0.019324249 0.21963044 -0.14693373 -0.056085613 0.6723098
1 -0.05870906 0.2613152 0.470145 0.15327197 0.09386031 0.026143325 -0.21799092 -0.36484084 -0.04899545 0.26577142 0.17429318 -0.14899455 -0.026447209 -0.33282802 0.08307037 0.036529515 0.45614415 0.025625017 0.1106581 -0.5687071 -0.38535058 0.14128995 -0.1294984 0.016258921 0.24716501 -0.3948668 -0.08161145 -0.414474 -0.047168348 0.000164459 0.06205361 0.12572947 0.34745926 0.15143013 -0.21695772 -0.23634565 0.29082903 0.07166941 0.065273166 -0.14081219 -0.024716612 -0.43137607 0.25087705 -0.1773985 -0.017708391 -0.2997078 0.019385664 0.30488127 -0.3287259 0.05271287 0.14760125 0.077850446 0.033496384 0.5338199 -0.25541025 -0.2600697 0.19493525 0.09422312 0.002731249 0.3134882 0.088896796 0.024416009 -0.06754878 0.07733837 0.10483195 -0.11638496 -0.08697845 -0.2630276 -0.51525414 -0.07776149 0.16133554 -0.14576261 0.20951839 0.62283593 -0.14584224 -0.1589078 0.035220582 0.008904776 0.45276928 -0.19599806 0.06396407 -0.6343208 -0.3987004 0.04267117 -0.02244774 -0.34323215 0.06832975 0.16084528 -0.25909325 -0.049530942 0.22932497 0.22755183 0.24296537 -0.03926956 -0.3117769 -0.06916703 0.35507235 -0.14034078 -0.11309129 0.10365769 -0.24600951 0.45903832 0.2162186 -0.2479646 0.24569763 -0.3067891 0.4827152 0.17245035 -0.47910982 0.037380207 -0.0013237707 -0.47648516 -0.18248579 -0.15077038 -0.091848776 0.30541822 0.016366733 0.25944498 -0.3228252 -0.12924983 -0.62760484 0.33651492 -0.38133115 0.042271834 0.20411682 -0.14854512 -0.050339222 0.662267
45 0.32479835 0.42632753 0.24566156 -0.036445953 -0.020425474 0.014852339 -0.08932937 0.036262628 0.24419083 0.48829094 -0.08299608 -0.06459062 -0.08417794 0.24632646 0.46217972 -0.14382544 0.2927322 -0.0407849 -0.19521424 -0.513441 -0.119585045 -0.2177897 -0.6219813 -0.08617291 0.5183882 -0.20776525 0.07200998 -0.211382 0.50153685 -0.10608478 -0.2461434 -0.11246025 0.069505535 0.13180484 -0.3527595 -0.020710832 0.015568804 -0.15292642 0.118598685 -0.016977152 -0.1618159 -0.6095393 0.46297535 -0.04426074 0.021576924 0.4811083 -0.20048378 0.6745252 -0.07903532 0.12660384 0.29762387 -0.049672615 0.08871496 -0.09936003 -0.028249783 -0.40784508 0.22344184 0.16094708 0.55836064 0.13761166 0.16233455 -0.34362927 0.09033791 0.25797093 0.04504766 0.018548481 0.35106272 -0.52442485 -0.28959465 -0.11557656 0.41832516 0.030452948 -0.44384873 0.53298736 0.21262108 -0.43134576 0.4356674 -0.16853802 0.30543044 -0.9051291 0.05209583 -0.23505625 -0.17860231 -0.020728743 0.106617354 -0.44355425 -0.39330572 -0.104807384 -0.2753469 -0.1944996 0.13330251 0.08413257 0.12782006 -0.29453933 -0.11333676 -0.584533 0.07010932 0.13128014 -0.46392164 -0.09676568 -0.23856321 0.26090324 -0.22047007 -0.6671748 -0.10371958 -0.39784172 0.47414058 0.3176505 -0.3068054 0.2934136 0.22939888 0.03265374 0.12822038 -0.2589274 0.3735023 0.2591552 -0.29617602 0.017537082 -0.45051667 -0.20420007 0.13176088 0.32512543 0.015024792 0.43865228 -0.20156793 -0.17073625 0.11160385 0.39174926
9 -0.029725071 0.1804701 0.46721175 0.18527281 0.060252264 0.059728507 -0.17184748 -0.34163117 0.016004797 0.18007149 0.10414168 -0.11138614 0.00085920177 -0.2882435 0.19047421 0.039441288 0.42801195 0.02632216 0.019321758 -0.44146225 -0.2465801 0.106249236 -0.15157405 0.10034686 0.26804966 -0.29226765 -0.09751742 -0.3673341 0.06756705 0.027636155 -0.007386762 0.10831153 0.34961686 0.17616102 -0.22477585 -0.17094134 0.25456536 0.078640826 0.10791816 -0.15207246 0.040213775 -0.44689313 0.26436272 -0.114116 -0.04543274 -0.25505984 0.043481976 0.27096918 -0.2574257 0.011360576 0.12708867 0.03866302 0.037194 0.52482224 -0.30484962 -0.24937433 0.1916277 0.06491983 -0.0119603425 0.31832564 0.109546915 -0.00945776 -0.14028572 0.03671787 0.07081538 -0.1355196 -0.13776535 -0.30393204 -0.53874516 -0.11371424 0.072682135 -0.15218405 0.22741881 0.5494772 -0.12341285 -0.13694307 0.0760917 0.0706185 0.39522222 -0.13125706 -0.014354083 -0.72292936 -0.3934013 -0.06672186 0.027014073 -0.37595838 0.07046084 0.10307898 -0.14290868 -0.02718315 0.28856105 0.107893325 0.14040492 -0.057233527 -0.27791077 -0.037714344 0.2724172 -0.19217552 -0.13756438 0.06697101 -0.27120942 0.41075847 0.1548297 -0.30103412 0.24889982 -0.2975554 0.44951683 0.023425216 -0.4878903 0.061075907 0.06829635 -0.4892679 -0.21444203 -0.12790567 -0.063338295 0.23008797 -0.009198919 0.24291342 -0.30564702 -0.18297611 -0.6037103 0.33865306 -0.44417694 0.000796203 0.22543909 -0.17355819 -0.18098997 0.62874645
74 -0.32912204 0.07663017 0.24050152 -0.11713519 0.100733556 -0.04475941 0.1358649 0.6793882 -0.04094266 0.11042652 0.20667297 -0.01932597 -0.20528364 -0.32130516 0.106910154 -0.34729847 0.15883891 0.0494594 0.41451058 -0.51578677 -0.41969705 0.061775975 0.051534545 -0.1626654 -0.017683893 -0.27976727 0.014691504 -0.11811839 -0.06649163 -0.15839143 0.27745286 0.13787588 -0.0242403 0.22626513 -0.28582856 -0.20657727 0.15389791 0.16926691 -0.12634777 -0.112593964 -0.33381772 -0.03257928 0.11210331 -0.09177489 0.11372183 -0.27882645 0.16195051 0.4007275 0.17550358 0.20878649 0.071780086 0.09753925 -0.16744204 0.36909986 0.2137314 -0.33148545 0.25219783 0.046733346 0.3708165 0.37410742 -0.23017476 -0.12520064 0.5742665 -0.03315068 0.39391515 0.095387846 0.32398424 -0.15386963 0.046045296 -0.15807298 0.09503192 0.08557558 0.19701532 -0.0324742 0.21865001 -0.35935682 0.017263964 0.1856678 0.22154737 -0.5088629 0.09284078 -0.07294099 -0.1659958 0.28206083 -0.18379842 0.0491364 -0.1447446 0.056890745 -0.43199927 -0.18805295 0.120479874 0.27572602 0.53388476 -0.30658734 0.08921777 0.29377827 0.20693935 0.35052052 0.038251914 0.004723157 -0.36129734 0.49543297 -0.01875338 -0.054830678 -0.1946927 -0.08908323 0.107789494 0.41255346 -0.06332727 -0.024792248 0.06641775 -0.26385692 0.08168172 -0.36460018 0.04856793 -0.058807652 -0.031262346 0.14880653 -0.24753577 -0.26140136 -0.2975197 0.116671 0.06244594 0.35008046 -0.24158281 0.052357472 0.10552522 0.24112535
