77 128
11 0.10134752 -0.010598555 0.14141312 -0.081110224 -0.11532093 -0.06993014 0.06014364 -0.100873865 -0.08923058 -0.02386908 -0.03943228 0.19757529 -0.049997658 0.09329386 -0.061568756 0.015306785 -0.19605811 0.123861246 0.06084584 0.23172289 0.074531235 -0.12925276 -0.17931028 -0.11472942 0.17254253 0.075257264 -0.016286653 0.16599025 0.010467506 -0.09199768 -0.06513836 0.055791747 0.14858393 -0.009578864 -0.1479451 -0.092978835 0.0959404 0.08286876 0.10181553 0.051714566 -0.15568675 -0.20556188 0.0124075785 -0.16314912 0.06050986 0.036939494 -0.22732237 0.03081558 0.096161366 0.0021914216 0.11409862 -0.09586273 0.022820087 0.034791883 0.025341988 -0.0004150841 0.18151417 0.12702757 -0.063656576 -0.036064845 0.09003849 0.098508716 0.07694644 -0.103771746 -0.11946857 -0.14193538 -0.045571264 0.1360382 -0.064194515 -0.007090249 -0.12556714 0.11219129 0.066896945 0.09458599 0.055547226 -0.055434894 -0.11986506 -0.018914197 -0.23910604 0.06530531 -0.012542408 0.168815 -0.044983916 -0.12139365 0.23958576 0.047920052 -0.1996154 0.04623168 -0.035942882 0.075382866 0.1049305 0.06562659 0.0029844195 0.08835632 -0.054232053 -0.10052828 -0.05349991 -0.11218328 0.15084939 -0.08162696 -0.010178819 0.0008689018 -0.06189977 0.13502327 -0.0038410248 0.22113848 -0.0254641 0.08209297 0.0008078426 -0.033744063 0.017841537 0.073813185 0.20287889 0.181434 0.027838921 -0.12785842 -0.14762457 0.04356706 0.024406832 0.04423004 0.033603515 0.1717948 -0.0016706464 -0.102060914 -0.051526923 -0.0810716 0.12243966 0.018913168
48 0.08895837 0.29832125 0.17377427 -0.08371447 -0.13138963 0.11225549 -0.06136264 -0.13665311 0.050276577 -0.07492343 0.15739647 0.13737829 -0.06277141 -0.10596447 0.15077536 -0.16883038 -0.20984676 0.123787455 -0.076921016 0.029980075 0.15128495 -0.10228506 0.0015140208 -0.1259131 0.15081628 0.12124329 -0.07322217 0.163597 -0.06571625 0.02109539 0.023799041 0.0138647165 0.23385842 0.08049254 0.0850387 -0.006411593 -0.045565993 0.1270125 0.111135855 -0.0816938 -0.16719235 -0.12048345 0.06437041 -0.10046541 0.19972973 0.079575226 -0.08211837 0.08814445 0.06308495 -0.09439616 0.10335159 0.118110254 0.16072749 0.0485951 -0.031314988 0.0275415 0.21976711 0.09863975 -0.15477346 -0.00710124 0.11560899 0.1337473 -0.07355079 -0.10434389 -0.104424335 0.043998867 0.06442519 0.028200967 -0.104594335 0.027402522 -0.06470781 -0.166374 0.07369488 0.27415216 0.08585988 0.029582711 -0.07599836 0.07346854 -0.25172648 0.0056980974 0.056645155 0.27053842 -0.15666759 0.04692742 0.14033288 -0.04685544 -0.21713836 0.09386885 -0.044675376 0.13916497 -0.15537362 -0.028166987 0.09276853 0.1389993 -0.25769848 0.10195967 -0.21435009 -0.0911703 0.005970506 -0.09511954 -0.10081363 0.0012533695 0.15953636 0.038464747 0.006461941 0.099503204 0.04482549 -0.0019787536 0.015464102 -0.13785516 0.09856176 0.013504818 0.1626856 0.2910637 0.16406636 -0.14097199 -0.23968323 -0.033898044 -0.089267194 0.12323717 0.10241668 0.097815335 -0.1018466 -0.01751019 0.07848571 -0.07682384 0.29432344 0.1259748
55 0.05520689 0.12166461 0.09281134 -0.009976456 -0.17257123 0.07026463 0.08928833 -0.10587794 0.012932159 -0.13610694 0.046524584 0.16697706 -0.09105047 0.068248704 0.07388159 -0.099499494 -0.1942992 0.12152313 0.004275974 0.13359745 0.11782865 -0.067264296 -0.13380116 -0.15346617 0.12869588 0.112629846 -0.046545412 0.12865682 -0.028900107 -0.081406936 -0.05077035 0.08832557 0.11302915 0.059614733 -0.029042039 -0.09163843 0.035798386 0.1540546 0.10497319 0.019288259 -0.1709719 -0.16222109 0.056130514 -0.11380035 0.12989847 0.039682854 -0.1519986 0.11301544 0.04445113 0.049473383 0.102840364 -0.014300815 0.12863477 0.006484948 -0.12184705 0.027726837 0.17573711 0.08865503 -0.13779053 -0.0076851957 0.05027766 0.12780242 -0.027885305 -0.0781981 -0.1291381 -0.0768146 0.0418208 0.06847433 -0.07688133 -0.006511032 -0.06513283 -0.03887898 0.055387966 0.18102947 0.025862511 0.0097935805 -0.105895855 0.035870314 -0.22725675 0.01206571 0.038565755 0.17738494 -0.077682 0.04075081 0.24018417 0.004097948 -0.22435017 0.06805558 -0.046622403 0.116793096 0.06288258 -0.0026318214 0.11663485 0.0735835 -0.16104913 0.033930887 -0.10688626 -0.12129227 0.08138652 -0.071866885 -0.048785374 0.036164414 0.021785274 0.05535165 0.02424124 0.20153807 -0.037038963 0.018550789 0.06919325 -0.095922664 0.0046785567 0.056790255 0.17230771 0.2363256 0.0406574 -0.19345559 -0.1562209 0.019345691 -0.04247151 0.13844298 -0.029403709 0.11866034 -0.07827868 0.0005368599 -0.0182672 -0.12872759 0.27506587 0.13017607
27 0.097593114 0.017210323 0.17271006 -0.08906582 -0.09180156 -0.057470694 0.06053451 -0.13335511 0.0081333835 -0.07410062 0.035738 0.20612241 -0.11315885 0.059624545 -0.043446038 -0.03522278 -0.21037275 0.19537035 -0.0048707193 0.22124006 0.10550813 -0.13030614 -0.105060235 -0.17939699 0.20201817 0.11662721 -0.013270056 0.22447535 -0.03449687 -0.07995055 -0.052821666 -0.0034651347 0.1737666 0.051518522 -0.03249624 -0.0907857 0.058237568 0.101363406 0.10378803 0.05959828 -0.17746775 -0.18123929 0.036689114 -0.18757689 0.026593 0.05997829 -0.18778445 0.05396971 0.099178135 0.0324648 0.22308032 -0.002448343 0.01677605 -0.026137676 -0.020733617 -0.031063056 0.16841412 0.055616304 -0.01624355 -0.048369937 0.12729482 0.1662502 -0.016150026 -0.11246717 -0.1423555 -0.10332902 -0.025835542 0.11054978 -0.025419777 -0.05472047 -0.17200473 0.05191737 0.060719505 0.1832153 0.07242114 -0.054312322 -0.07471568 0.042472962 -0.26013213 0.08010299 0.056886476 0.22228463 -0.036955692 -0.08557788 0.20296729 -5.878127e-05 -0.22256985 0.06449826 -0.025333835 0.044021316 0.045598343 0.019063659 0.028080773 0.1125282 -0.16371343 -0.027412396 -0.08449334 -0.111867584 0.053177796 -0.045671944 -0.014980241 0.06832643 0.019602401 0.06872178 0.037012815 0.15766002 -0.022013603 0.05967175 -0.00040243572 -0.052013453 0.0077223447 0.08308855 0.14967166 0.19554803 0.071086265 -0.12786418 -0.14908211 0.04838443 -0.07449875 0.09118422 0.019007586 0.110444315 -0.07141529 -0.054083467 0.020960798 -0.1021689 0.11105118 -0.0048665386
23 -0.09552862 0.06747223 -0.082081415 -0.106539585 -0.1483552 -0.032031585 0.120958574 0.042796347 0.01636635 -0.12048703 0.015825821 0.1697068 0.10112258 0.26436606 0.13752824 -0.06789205 -0.14430603 0.07754717 -0.18330331 0.19790024 0.013418119 0.09852784 -0.21082094 -0.085681096 0.19841558 -0.03205718 -0.0091964565 0.21420474 -0.075413994 0.011031527 -0.05875391 0.12053689 0.04457189 -0.007084495 -0.0183673 -0.1295579 0.15240802 0.07316182 0.27639267 0.011443587 -0.24328983 -0.21145658 0.21214175 -0.11021618 0.16559657 -0.11668091 -0.3387585 0.11736898 0.12877265 0.15673515 0.014600415 -0.016522868 0.25275725 -0.098393194 0.0021559666 -0.061631147 0.27433062 0.09618118 -0.19753821 -0.0014569421 -0.0059166085 0.025895087 0.03965725 0.051787626 -0.18381773 -0.12052965 0.035921328 0.019792292 0.12130838 0.0135707 -0.08283342 -0.021390906 -0.04970932 0.26954785 0.011787162 0.035091177 -0.02966906 0.09428291 -0.13697365 -0.12271405 0.07440128 0.042941965 -0.09731909 0.012851586 0.2414105 0.14372331 0.037546244 0.07888181 -0.024248729 0.2958427 0.06756781 0.1395353 0.081099 -0.14157403 -0.031567484 0.10540995 -0.08983626 0.0076378747 0.32950255 -0.18500751 -0.18694946 -0.09174088 -0.104383655 0.19540817 0.08453442 0.09691474 0.11435635 0.09208331 -0.08049177 -0.20036009 -0.16704175 0.14319475 0.02584465 0.2262114 -0.019658875 -0.16680352 -0.119334556 -0.15555428 0.18155211 0.25087923 -0.1012158 0.35065925 -0.033134673 -0.052762046 -0.12516728 0.011424841 0.20096417 0.15371755
25 0.0028416216 0.27960646 0.13678862 -0.07721799 -0.1414873 0.09765835 -0.008237205 -0.038396437 -0.0068559023 -0.17475799 0.06895743 0.18839233 -0.075655155 0.10716264 0.19241178 -0.12807594 -0.22778283 0.13608962 -0.021201959 0.066013366 0.16626827 -0.029925924 -0.09810118 -0.14330122 0.1405136 0.12695979 -0.022378596 0.059253454 -0.028863203 -0.03945197 -0.07532203 0.11709001 0.19166547 0.07690994 -0.051575676 -0.08342194 0.015289015 0.14701244 0.09288891 -0.06362745 -0.16848584 -0.21319108 0.01647722 -0.009132949 0.1710542 0.04520259 -0.16171534 0.07920605 -0.00018421677 -0.013301228 0.034483965 0.079928204 0.1368238 -0.01542432 -0.085928336 0.0356451 0.27078658 0.051955912 -0.17760321 -0.036492966 0.014233329 0.081260875 -0.101501115 -0.07372854 -0.10161761 -0.10184463 0.08103583 0.003691162 -0.017933311 0.01726858 -0.056680247 -0.098127335 0.07139555 0.29849103 0.051996317 0.08396821 -0.054010306 0.10015046 -0.21105225 -0.030689046 0.06297553 0.24830788 -0.11966637 0.0758369 0.23590186 0.00418253 -0.24075393 0.11321873 0.018878108 0.21148698 -0.07731164 -0.03945247 0.050007638 0.04320219 -0.1293333 0.036953863 -0.12254067 -0.09905861 0.10192151 -0.122366525 -0.077223994 0.008784867 0.09631803 0.097212575 0.02855498 0.11369971 0.08594522 0.017250856 0.052372046 -0.08174284 0.01774848 0.063684866 0.1746555 0.2856819 0.1031203 -0.21238579 -0.19256215 0.05081673 0.009853307 0.14369471 0.01691404 0.12779692 -0.118009605 0.02177695 0.026940433 -0.1112518 0.27000433 0.22586095
58 0.047308918 0.17038321 0.07644472 0.01771724 -0.15204519 0.09687639 0.08073415 -0.13620585 0.12088597 -0.1453928 0.14461176 0.119738415 -0.08540097 -0.020420186 0.14887741 -0.16870327 -0.1552174 0.12374054 -0.1029046 0.07973331 0.1121199 -0.05948167 -0.051029805 -0.17092884 0.12142854 0.11697192 -0.05993561 0.19914523 -0.08379969 -0.02354187 0.019413853 0.031113187 0.11781454 0.10055824 0.106037766 -0.0755056 0.00209629 0.15722847 0.15421914 0.00027192087 -0.19869797 -0.12170147 0.13316473 -0.11158647 0.18910813 0.03885634 -0.10313181 0.1294541 0.06030026 0.03996548 0.18297468 0.0942742 0.19313394 -0.024086686 -0.12894817 -0.0071046706 0.1738869 0.085775755 -0.14916687 0.0056982134 0.108547464 0.16960691 -0.10025695 -0.06479546 -0.13363141 0.012383064 0.06408826 0.05165042 -0.04275618 -0.0053144065 -0.095995806 -0.17871502 0.02565225 0.24398385 0.038063455 0.019461168 -0.081246436 0.08298016 -0.23360959 -0.032185044 0.083983436 0.20158702 -0.1167413 0.07547846 0.15920962 -0.020266082 -0.17664392 0.093006976 -0.05894481 0.12416889 -0.01772066 -0.029696131 0.16025692 0.077381395 -0.2680443 0.15181968 -0.17308389 -0.08708413 0.020604819 -0.066514954 -0.104406506 0.029840708 0.09142754 0.0134820575 0.043198038 0.14458154 -0.03868809 0.011779218 0.029443165 -0.17475091 -0.0063535175 0.061025444 0.12160351 0.280956 0.06812395 -0.18961874 -0.20724323 -0.04726678 -0.09790464 0.21303402 -0.020593587 0.10889362 -0.11129839 -0.012002712 0.045860704 -0.10757918 0.31608623 0.1382321
0 0.3080296 -0.07901188 0.23694941 -0.29789862 -0.12876005 -0.24308713 -0.08614847 -0.14933729 -0.24621914 0.21407364 -0.10978728 0.22790514 0.16657577 -0.035424694 -0.17111875 0.113108516 -0.31810147 0.09767647 0.07764199 0.36882642 0.040197983 -0.30101374 -0.2377412 -0.014136396 0.32077396 -0.042292066 -0.052951965 0.298482 0.021840505 -0.0033521564 0.05118315 0.00017851364 0.36113605 -0.15821254 -0.25888398 0.012142992 0.1491505 -0.007187046 0.2176557 -0.03404629 -0.23972483 -0.33424416 -0.0047797505 -0.32003254 0.20970766 0.011059408 -0.41480696 -0.056904864 0.2917918 -0.24683933 -0.0007027619 -0.28620166 0.030909125 0.23059353 0.39278668 -0.008165338 0.31655273 0.41809896 -0.1402509 -0.012695606 0.21792105 0.05240749 0.34707478 -0.1932352 -0.13949974 -0.19000626 -0.13192034 0.28518116 -0.2284044 0.11388235 -0.15095371 0.27536538 0.07553413 0.022426432 0.12000526 -0.16376318 -0.24694529 -0.15967537 -0.35665366 0.104105145 -0.13073096 0.25309294 -0.18552235 -0.44010574 0.3338799 0.109880164 -0.11812259 -0.0009216516 -0.15275322 0.13136163 0.05524546 0.25770035 -0.09557988 0.1583383 -0.008524338 -0.24053511 -0.1527079 -0.105402276 0.40661883 -0.22762686 -0.03301123 -0.19004428 -0.17373186 0.36303973 -0.13662459 0.27616262 0.045015737 0.1581737 -0.21786721 -0.118983366 0.19973409 0.041389793 0.40188995 0.30311295 0.12050671 -0.10457986 -0.32604918 -0.059926268 0.16147085 -0.07034747 0.2718862 0.44412404 0.20080474 -0.36298844 -0.108432636 0.0053930134 0.07748297 -0.096468285
62 0.09764367 0.24258986 0.1255241 0.041711766 -0.163345 0.15626138 0.036100704 -0.17968236 0.14236014 -0.13915902 0.19323568 0.085476585 -0.10443771 -0.12640671 0.18313023 -0.20147744 -0.16454487 0.12197208 -0.07850791 0.023148285 0.15066841 -0.105893806 -0.003353453 -0.18152359 0.09152289 0.14399517 -0.08673367 0.17906313 -0.08186542 -0.007750228 0.060103137 0.014096041 0.16374545 0.12216016 0.13028856 -0.037788272 -0.053735305 0.17868705 0.12375853 -0.029052937 -0.18169184 -0.111119114 0.10653223 -0.087207906 0.25268176 0.07468444 -0.042195927 0.1290737 0.04338609 -0.038498912 0.18737087 0.13290049 0.20679933 0.034049224 -0.1305005 0.024628898 0.1796965 0.11954039 -0.18226515 0.014913624 0.13429849 0.18990298 -0.11674263 -0.10500644 -0.098259956 0.06173829 0.085441895 0.05879009 -0.124161 0.019788014 -0.0821548 -0.24704127 0.04021014 0.24524169 0.054200422 0.024285054 -0.111196816 0.07380946 -0.2601507 -0.022526816 0.06471314 0.25810102 -0.16792981 0.093104176 0.14607474 -0.061090667 -0.22814742 0.10188041 -0.07417443 0.12363057 -0.074325785 -0.06666588 0.17732131 0.13429968 -0.3273432 0.16366284 -0.21705613 -0.10819522 -0.035285804 -0.058480754 -0.1071585 0.02901797 0.14877914 -0.013727868 0.0012829718 0.14755346 -0.05378849 -0.022349145 0.052831758 -0.18935502 0.07180285 0.028407518 0.18246455 0.33094117 0.12030844 -0.21540481 -0.26545042 -0.04270883 -0.14443338 0.2043162 0.031772166 0.07114005 -0.11995418 -0.019326646 0.08629374 -0.14210919 0.3958068 0.1776881
41 0.0067042005 0.295404 0.11101503 -0.031528823 -0.14273721 0.13659476 -0.00010773778 -0.0607739 0.07152494 -0.16756652 0.1423043 0.12348401 -0.046291012 0.020861125 0.23600683 -0.17260134 -0.2005781 0.12627374 -0.09206111 0.027895123 0.16608016 -0.015094487 -0.05187193 -0.14977574 0.12165804 0.11347325 -0.031874143 0.10003268 -0.064432405 0.009754261 -0.02021469 0.09028715 0.17848337 0.09677555 0.04283956 -0.07594265 -0.004685122 0.16086107 0.11925131 -0.058980025 -0.17351224 -0.17316192 0.07518795 0.00045950955 0.22872402 0.0324479 -0.108902305 0.10736336 0.0073472457 -0.032635007 0.074903995 0.1340532 0.20219168 -0.017942816 -0.103730224 0.028788038 0.24713135 0.06724218 -0.1902337 -0.015790656 0.03880633 0.101661704 -0.12056327 -0.059464358 -0.100069076 -0.039400075 0.10093977 -0.0021714838 -0.024483856 0.031859297 -0.05855207 -0.19712791 0.04412189 0.316084 0.06794194 0.086347625 -0.046440143 0.116584845 -0.20100692 -0.07233215 0.064164415 0.25458083 -0.16446015 0.11141664 0.17040537 -0.010895377 -0.20383167 0.1283787 -0.0073899273 0.2261371 -0.11922688 -0.055859603 0.108318955 0.042772237 -0.19912033 0.124960475 -0.1642623 -0.06848904 0.050697062 -0.11651745 -0.110234834 0.0077499016 0.12948555 0.055337813 0.030034192 0.08444621 0.07225566 -0.010848998 0.03336268 -0.14616588 0.01751483 0.056505274 0.14983395 0.30339217 0.12534432 -0.21190298 -0.22341983 -0.018998843 -0.021274975 0.18516669 0.010429182 0.107448615 -0.12966694 0.029882984 0.06776945 -0.111115135 0.31972706 0.24782464
64 0.1351121 0.2137456 0.13456073 0.025803069 -0.17484367 0.11931579 0.013134599 -0.17093113 0.019060807 -0.062266856 0.114841215 0.08926805 -0.059371296 -0.100326955 0.12111065 -0.15079601 -0.16342284 0.06677544 0.012145173 0.051441107 0.1380815 -0.14009371 -0.05829233 -0.12371566 0.08712551 0.13181072 -0.07725706 0.13767649 -0.035797067 -0.041134406 0.032629695 0.046201333 0.16731405 0.06322299 0.025939714 -0.022265902 -0.02249638 0.15647651 0.10874062 -0.03712062 -0.14861377 -0.12799698 0.054717153 -0.097679146 0.2300096 0.072472736 -0.07668297 0.08972262 0.03922098 -0.091648564 0.10614505 0.031909786 0.17652388 0.107032284 -0.06031291 0.07290147 0.18078947 0.17739707 -0.1876514 0.024004146 0.124421224 0.14386779 -0.027815912 -0.12122086 -0.08285435 0.015243918 0.04942525 0.105038494 -0.17780969 0.052167945 -0.05730138 -0.15369463 0.07292499 0.1560434 0.05617889 0.0027182677 -0.14464018 -0.0011190304 -0.26027685 0.0070108897 0.0059515773 0.22854124 -0.16446595 0.025004944 0.16384742 -0.03242505 -0.23712648 0.078468464 -0.080107346 0.11449308 -0.026740983 -0.039142314 0.13361229 0.14818269 -0.2278643 0.06254601 -0.18679616 -0.11570632 0.023884207 -0.07388253 -0.07053231 -0.009132201 0.08499259 0.025173193 -0.044054497 0.21046095 -0.06945511 -0.005031323 0.062880725 -0.13634762 0.11711212 0.0002372138 0.24456157 0.28908888 0.09678343 -0.19640726 -0.25244862 -0.018036177 -0.07912158 0.116660796 0.06881288 0.101486295 -0.05348969 -0.06006433 0.03411012 -0.11663843 0.36329836 0.15545574
24 -0.012910021 0.17514288 0.09102367 -0.058203906 -0.12986138 0.03660985 0.052613106 -0.03457898 -0.020213777 -0.14966568 0.025128359 0.1977156 -0.07464589 0.17918685 0.11665249 -0.083022155 -0.19587514 0.12890404 -0.01104946 0.1251564 0.11071587 -0.011861316 -0.15164442 -0.1542028 0.14775553 0.11587749 -0.010886709 0.10943094 -0.020010501 -0.071760856 -0.09303642 0.11088907 0.12612203 0.048323013 -0.08505326 -0.11964195 0.0699994 0.13590007 0.11446861 0.0049513774 -0.1785328 -0.20929654 0.052179556 -0.0564029 0.11286691 0.01699163 -0.20681769 0.08368838 0.03144807 0.0519741 0.07602156 0.047317483 0.12568483 -0.031583894 -0.087256 0.011804418 0.24843018 0.044964615 -0.124430075 -0.045260068 0.0106831845 0.080140464 -0.06274079 -0.060479525 -0.110891014 -0.1278224 0.048863508 0.021558177 0.02800474 -0.010251478 -0.08980414 -0.039930873 0.058237437 0.25180233 0.039633162 0.052789252 -0.04823082 0.09450968 -0.1943834 -0.024608077 0.0694183 0.17620635 -0.06983183 0.055361398 0.22839293 0.033317853 -0.20209795 0.10148642 0.01733859 0.19759165 0.012891343 0.0059797987 0.044163264 0.009628267 -0.09028257 0.026659943 -0.07424507 -0.088204704 0.1309646 -0.105845146 -0.08052519 0.0038911507 0.030029483 0.090399265 0.058821786 0.15530108 0.05608859 0.052669782 0.054050844 -0.07090035 -0.05234966 0.09975454 0.14232527 0.24569409 0.03604239 -0.18114851 -0.14529066 0.028460266 0.034982674 0.15084273 -0.034512915 0.16867077 -0.09991117 0.005654132 -0.029340534 -0.08949035 0.22369461 0.17216034
57 0.0555652 0.23366807 0.12285943 0.06196716 -0.1603996 0.15370247 0.08053318 -0.17407903 0.14725731 -0.17820013 0.18259263 0.121678345 -0.16485307 -0.061282597 0.15803537 -0.19608219 -0.16285352 0.15185061 -0.06650511 0.04900371 0.15252967 -0.084774666 -0.019729398 -0.2178705 0.10086707 0.17471829 -0.07005051 0.18232371 -0.08038412 -0.047030136 0.00061209843 0.02038257 0.12783135 0.13529283 0.13117805 -0.07399046 -0.046554387 0.20042156 0.10820686 0.005085227 -0.17948458 -0.09938711 0.10987045 -0.10969885 0.17462467 0.0848521 -0.04503689 0.14552554 0.024406178 0.033792898 0.22295995 0.14095397 0.18165995 -0.014910925 -0.19373925 0.0235923 0.15722874 0.05251465 -0.13617311 -0.0006908223 0.11138949 0.20475788 -0.14920771 -0.096246906 -0.12612611 0.04394907 0.083992675 0.043449 -0.08155684 -0.022358084 -0.10185985 -0.22107786 0.049466077 0.27038524 0.045982312 0.03193968 -0.08635382 0.09463361 -0.26454967 0.0015399402 0.09579997 0.2465914 -0.117419556 0.12612578 0.14804083 -0.06214767 -0.26195088 0.10523029 -0.052177317 0.10526729 -0.031735443 -0.08585573 0.18581091 0.12628935 -0.3282471 0.16320908 -0.18230627 -0.12684625 -0.06701937 -0.026229858 -0.093203865 0.086532064 0.14886886 -0.05159587 0.041338682 0.1649094 -0.069247656 -0.016844017 0.098169714 -0.14350441 0.02143132 0.05509426 0.13806322 0.29500607 0.098734066 -0.20495448 -0.21425281 -0.007894628 -0.1725413 0.2136215 -0.02572005 0.033222977 -0.15804459 0.026755262 0.07782407 -0.15386729 0.37601689 0.15658
26 -0.02721139 0.24008906 0.0643248 -0.029131455 -0.19050975 0.09706052 0.058406573 -0.057356775 -0.061816543 -0.17012544 -0.025584085 0.2374521 -0.13882345 0.23484488 0.122122526 -0.11656904 -0.20344333 0.065929964 0.0537676 0.08884443 0.09135757 -0.014850029 -0.1952145 -0.11920843 0.09586061 0.15290175 -0.04111727 0.042365205 -0.009631698 -0.15740317 -0.12310051 0.16418484 0.084899805 0.046952005 -0.13162237 -0.09037082 0.047828253 0.14278713 0.09266512 -0.031546503 -0.18232384 -0.19872312 0.02919792 -0.07692627 0.095206745 0.039299518 -0.20300888 0.1128928 0.008390087 0.09842681 0.003218479 -0.025491996 0.12478314 0.017355964 -0.14374122 0.0680491 0.25037873 0.052861165 -0.18028632 -0.025354937 -0.026661575 0.058780186 -0.052791964 -0.060339767 -0.1252357 -0.10261839 0.07615387 0.024800437 -0.03374469 -0.011032003 -0.015038846 -0.016270783 0.080197014 0.20282617 -0.018666042 0.053439572 -0.093691766 0.058684085 -0.18524799 -0.0009842571 0.08070772 0.13008827 -0.036323804 0.098661885 0.30449134 0.015186957 -0.24210727 0.06810802 0.008962932 0.15925828 0.081956685 0.016134338 0.055890042 0.026465908 -0.0857841 0.009016321 -0.08641094 -0.1284359 0.14133318 -0.09985531 -0.07101931 -0.013509948 0.027656987 0.07325391 0.043350898 0.2307623 0.012236335 0.042412028 0.14119904 -0.05334157 -0.02932675 0.05222465 0.1625468 0.2632833 -0.013254254 -0.19667198 -0.1242675 0.073220454 0.0377949 0.15243378 -0.038665373 0.19202583 -0.115845 0.024366839 -0.09303424 -0.10248974 0.3189653 0.17681915
63 0.03884096 0.29774043 0.06685692 0.046850916 -0.17441985 0.17796303 0.03849061 -0.12865573 0.12711173 -0.14684333 0.18740165 0.071802616 -0.060956795 -0.053668376 0.24106239 -0.22154169 -0.14476399 0.079562426 -0.10900612 0.0013519474 0.13254192 -0.03537394 -0.02829742 -0.15323278 0.087742314 0.12777005 -0.08145701 0.15686819 -0.08716701 -0.00019231606 0.038401462 0.055176254 0.13102125 0.103164025 0.12157865 -0.049628716 -0.028773181 0.18274581 0.15648195 -0.048870787 -0.19947232 -0.11498237 0.14288972 -0.054189637 0.27375287 0.029904855 -0.07866497 0.14304946 0.030468682 -0.0120247165 0.114815764 0.13748084 0.27202317 0.019649845 -0.13570268 0.042798277 0.21971512 0.117529094 -0.22831352 0.023491437 0.08718481 0.14978482 -0.120274276 -0.06602622 -0.11425496 0.0527733 0.10878594 0.027323376 -0.084024616 0.041722566 -0.05783895 -0.2775788 0.025992109 0.2852804 0.04646769 0.059125483 -0.095574416 0.082490325 -0.23884055 -0.078632034 0.07490044 0.22519678 -0.18462034 0.14377531 0.15240708 -0.02819454 -0.1920605 0.11671065 -0.05858959 0.19569668 -0.07369024 -0.055320937 0.18673211 0.06788848 -0.286085 0.1934323 -0.21707784 -0.079279006 0.025014693 -0.090726286 -0.14691925 -0.006781809 0.13089891 0.0027921442 0.014117215 0.14168344 -0.007502441 -0.01165397 0.05213848 -0.20198922 0.031291988 0.044527788 0.15965126 0.33890224 0.09647637 -0.22788307 -0.25973985 -0.07354199 -0.07628269 0.2337235 0.001068527 0.1282399 -0.12417513 -0.0032113958 0.045390796 -0.11391928 0.4297941 0.23315623
65 0.09690294 0.25737214 0.14465375 0.046206124 -0.16137946 0.16576871 0.044220753 -0.20290214 0.16054179 -0.14785996 0.21899007 0.097334124 -0.14447416 -0.13667235 0.16986933 -0.22496411 -0.1740152 0.15357123 -0.09552805 0.027599303 0.16888879 -0.11335368 0.023874912 -0.2112184 0.10970829 0.17329815 -0.08823552 0.2101855 -0.0972426 -0.014971271 0.045017403 -0.0028567915 0.17048554 0.14372465 0.17084262 -0.049887206 -0.065179124 0.20116557 0.12111532 -0.018492365 -0.18973686 -0.095236056 0.123087294 -0.121599846 0.2185545 0.09121379 -0.027189057 0.14607282 0.042292207 -0.016077973 0.23805 0.16069704 0.20447583 0.0150552085 -0.16759863 0.02164 0.16468468 0.086064726 -0.15128896 0.012537792 0.14971761 0.22114532 -0.1463117 -0.114284426 -0.11586465 0.07886068 0.08680974 0.05372655 -0.1068012 -0.005236178 -0.10536636 -0.2576266 0.051980138 0.28184387 0.067587934 0.02081048 -0.09693955 0.089483164 -0.2864184 -0.0017976768 0.09307184 0.28041956 -0.15475228 0.11921539 0.13129523 -0.079828456 -0.2638201 0.10669919 -0.06634731 0.100704 -0.082830936 -0.090531476 0.19589184 0.16036099 -0.37241906 0.18700545 -0.22486803 -0.1182639 -0.07956218 -0.03196992 -0.09937547 0.067214645 0.17500104 -0.05174162 0.02458276 0.1513179 -0.05997515 -0.0173439 0.06850473 -0.17716186 0.06361814 0.03262218 0.16443571 0.33885115 0.13379098 -0.20412809 -0.2689177 -0.033058833 -0.18903202 0.21985917 0.018254153 0.043625716 -0.1586116 0.013644984 0.10650428 -0.15543346 0.40410227 0.1597043
61 0.14562924 0.206438 0.1491055 0.0585503 -0.16564517 0.12438334 0.03274812 -0.189244 0.097013205 -0.07134988 0.1868057 0.05077993 -0.059494764 -0.15327406 0.1469851 -0.1646252 -0.15627204 0.09981225 -0.031316437 0.055953342 0.16507885 -0.13663992 -0.018026723 -0.17701875 0.0999144 0.13580479 -0.07608529 0.1807198 -0.04789742 -0.009683949 0.058039896 0.015127182 0.17391045 0.09744373 0.087985046 -0.043479808 -0.031064915 0.19494018 0.13097294 -0.008888983 -0.17334361 -0.12268708 0.095719114 -0.08795631 0.26391742 0.06124729 -0.061442383 0.10108497 0.035960205 -0.09878899 0.18323673 0.09541703 0.20881031 0.08254609 -0.075141795 0.06434411 0.16577958 0.17891762 -0.16919322 0.027171792 0.14849104 0.18219775 -0.06839989 -0.12784147 -0.07319413 0.04498805 0.048115917 0.10450707 -0.15892415 0.046812534 -0.11396441 -0.22267348 0.054010786 0.19848932 0.08495217 0.014036462 -0.13649543 0.01583677 -0.29284066 -0.01159843 0.0058504855 0.26662627 -0.19355556 0.033227857 0.10313282 -0.032788996 -0.23797728 0.108141966 -0.08930288 0.12424914 -0.05040825 -0.071395025 0.17440893 0.15144031 -0.27509454 0.11103623 -0.20320086 -0.10173232 -0.02267673 -0.05430943 -0.0757109 0.0073041846 0.09594478 -0.0035754358 -0.039872363 0.18524404 -0.07347353 -0.0031533842 0.044824045 -0.16936614 0.1100346 0.025842596 0.24097438 0.31372085 0.12398085 -0.2213744 -0.27727044 -0.039286893 -0.11574686 0.16232194 0.04945615 0.07364644 -0.06673067 -0.06535632 0.077907816 -0.13097727 0.37922332 0.17675088
59 0.11605805 0.20107114 0.165236 0.022762306 -0.16273545 0.12114644 0.050004598 -0.19348627 0.094189346 -0.12955406 0.14588481 0.13904077 -0.15550737 -0.09465329 0.108023524 -0.16410965 -0.19417635 0.14875852 -0.02202855 0.06938228 0.15639868 -0.13969974 -0.02947413 -0.1938075 0.11172181 0.16743441 -0.07893892 0.17547587 -0.05983711 -0.057567198 0.017703077 0.011659434 0.17302671 0.108185746 0.082888976 -0.05616039 -0.04410506 0.17956485 0.08927368 -0.0065284134 -0.16410184 -0.11639624 0.056384083 -0.12822056 0.17568135 0.09808805 -0.04791311 0.11570621 0.043054026 -0.01833783 0.2062821 0.085340165 0.13748898 0.03245752 -0.13872251 0.030558232 0.15659334 0.097261295 -0.12681663 -0.0049270988 0.13422929 0.19826043 -0.09528535 -0.12383648 -0.11432329 0.02717718 0.055871706 0.07579324 -0.13807657 -0.0065564625 -0.09643296 -0.16127613 0.068745375 0.21674886 0.05509639 0.001501072 -0.1163868 0.05243241 -0.28418708 0.03929381 0.065769844 0.26812127 -0.12380867 0.06453042 0.18053584 -0.06882518 -0.28635946 0.08016043 -0.06343114 0.06458324 -0.028316034 -0.067707926 0.15172292 0.17008668 -0.31136593 0.1022896 -0.18582977 -0.14171803 -0.051082283 -0.03634609 -0.057518274 0.069517344 0.13508846 -0.021688616 0.010457274 0.18442775 -0.079811335 -0.0140738245 0.07655288 -0.12702279 0.08290961 0.028430775 0.19766091 0.3010454 0.11095077 -0.19356517 -0.23986183 0.017147176 -0.16408378 0.15602589 0.034534305 0.039773345 -0.12246832 -0.0065408405 0.0813476 -0.16096894 0.34567398 0.12220698
66 0.09745775 0.28168014 0.15253286 -0.015838616 -0.14188369 0.13651064 -0.02008288 -0.1592152 0.08698018 -0.09670655 0.16979013 0.10657787 -0.09180816 -0.110559106 0.15458842 -0.18149042 -0.19216198 0.12262614 -0.065944366 0.030271355 0.15118432 -0.111308254 0.001698542 -0.15975259 0.11901737 0.1461081 -0.07635585 0.17017429 -0.06864093 -0.00034005853 0.030037465 0.013776501 0.20128474 0.0959888 0.105906256 -0.02036918 -0.054993015 0.15937822 0.11519238 -0.05868403 -0.16930789 -0.112483144 0.083606236 -0.104654 0.21270855 0.07818991 -0.06368112 0.11012933 0.047296066 -0.06992164 0.14439054 0.1260144 0.18512249 0.051539157 -0.08002941 0.03806562 0.19965495 0.1085924 -0.1602988 0.0056706546 0.12955403 0.16782016 -0.093010634 -0.11252889 -0.098769635 0.05679892 0.07210632 0.047729332 -0.11879518 0.021661077 -0.076080814 -0.20311336 0.06208542 0.26435655 0.07281648 0.028794844 -0.095077805 0.06718144 -0.26624584 0.0043370575 0.05988641 0.26903296 -0.166878 0.074801914 0.14215584 -0.059875973 -0.23828654 0.10249786 -0.059860904 0.12874427 -0.1185409 -0.05272322 0.13497108 0.14931604 -0.29719323 0.12320371 -0.21520287 -0.10535698 -0.015770921 -0.07162475 -0.09878862 0.011711495 0.15516011 0.0042113275 -0.0016127895 0.13289106 -0.0005915493 -0.0025808283 0.043562133 -0.15428476 0.093002 0.022892166 0.18364449 0.3199457 0.14344233 -0.18249778 -0.2619042 -0.027340408 -0.1152474 0.15985386 0.0727064 0.092694946 -0.11790471 -0.01582931 0.07861637 -0.113015346 0.36110172 0.15038066
70 -0.014753816 0.17160071 0.042431675 -0.013055235 -0.15820119 0.110751666 0.086697906 -0.02789994 0.04128887 -0.16772553 0.10198204 0.11521164 -0.010405791 0.0741956 0.177369 -0.12013187 -0.17638732 0.13187905 -0.09214537 0.09168274 0.15004414 0.013029589 -0.10521966 -0.1470345 0.13671063 0.07528062 -0.016814059 0.10300704 -0.02939967 0.008028638 -0.06507493 0.123157956 0.13635665 0.077727444 0.012819207 -0.1291368 0.044898126 0.16843456 0.15047756 0.0023310594 -0.15699613 -0.17613731 0.09729398 -0.0049334406 0.19155155 -0.0037643465 -0.1490839 0.1267086 0.012824658 0.02682736 0.08008856 0.060556598 0.20956847 -0.05092335 -0.105942294 -0.0032164352 0.2164275 0.075105146 -0.1729814 -0.0030560188 0.024058431 0.104381435 -0.06307317 -0.025979122 -0.116545476 -0.09084075 0.07377963 0.01847453 -0.00060851744 0.033846054 -0.05290686 -0.117013216 0.03571908 0.26174656 0.061750088 0.05963828 -0.048762064 0.08927761 -0.18660162 -0.062190033 0.031957395 0.18908183 -0.14407972 0.09192714 0.20036848 0.029488832 -0.18884432 0.12857106 -0.012462331 0.22933088 -0.033065666 -0.044100467 0.14362049 0.010238689 -0.14853777 0.08878981 -0.109336175 -0.07411593 0.11049703 -0.1193862 -0.08731117 0.0025817915 0.047650725 0.07877993 0.03521309 0.12318668 0.047452115 0.0043649008 0.025574947 -0.14147748 -0.02411746 0.0742466 0.1304711 0.23844883 0.0821143 -0.225188 -0.16141213 -0.03550787 0.027724473 0.17307808 -0.048430175 0.11301482 -0.08945383 0.042555947 0.024474015 -0.11371106 0.28081006 0.2452432
60 0.08449863 0.3056015 0.14752042 0.040042397 -0.16162008 0.17115447 0.010320093 -0.16428573 0.1071135 -0.13839556 0.19173431 0.094275616 -0.11700733 -0.103186026 0.20223029 -0.21188982 -0.17894857 0.11787298 -0.056002725 8.528656e-05 0.17364392 -0.09207252 -0.0059762285 -0.18304339 0.09539686 0.17538075 -0.07411478 0.15118933 -0.069537036 -0.020645892 0.025701795 0.04060276 0.17590828 0.12610957 0.10534208 -0.043530565 -0.058383506 0.19675182 0.10087575 -0.043908007 -0.17369236 -0.122377776 0.087803915 -0.059489653 0.24001984 0.07901207 -0.037161972 0.119731486 0.008189774 -0.05816222 0.15628837 0.14773011 0.21100149 0.045257572 -0.1419554 0.057117995 0.20232269 0.10532321 -0.18346941 0.00083029596 0.11537788 0.17733414 -0.13822877 -0.108176515 -0.08617228 0.044553958 0.09427298 0.043654617 -0.114986286 0.024120254 -0.08281176 -0.25460556 0.06937783 0.27421352 0.067169845 0.04970059 -0.0951013 0.079937205 -0.26633176 -0.022791283 0.06541559 0.2739924 -0.16417399 0.12193773 0.13103865 -0.06428007 -0.26447803 0.12032069 -0.051545817 0.14847127 -0.10337169 -0.08835104 0.16294543 0.13321644 -0.29834408 0.15027462 -0.2106869 -0.10571056 -0.0480549 -0.061095156 -0.09964581 0.029954497 0.16679046 -0.02203654 -0.0014085217 0.14985651 -0.029753711 -0.018005269 0.08064678 -0.15177959 0.07383693 0.026010022 0.19009444 0.32753202 0.13189131 -0.2136405 -0.26138178 -0.009385823 -0.1311104 0.18535447 0.034463078 0.06044121 -0.13912234 0.003357338 0.089820504 -0.13810125 0.39774743 0.20346302
69 0.078902096 0.18772413 0.22909111 -0.1166719 -0.11395029 0.007304856 -0.020324975 -0.0986952 -0.043291915 -0.09391391 0.057096362 0.21459465 -0.10533816 0.062123764 0.0598834 -0.060081918 -0.26495922 0.19345935 0.037272513 0.14888181 0.17740813 -0.112656265 -0.10249505 -0.18039273 0.19977316 0.15497404 -0.013489529 0.14188458 -0.0044545233 -0.063488305 -0.082149714 0.05536494 0.24478483 0.06527878 -0.092720166 -0.095632516 0.033128724 0.13756648 0.06732808 -0.00035175146 -0.17189911 -0.22140186 -0.019436128 -0.09629803 0.09626829 0.08283034 -0.17564832 0.048077982 0.038995594 -0.054388836 0.13480039 0.05203343 0.04123911 0.006795574 -0.025133045 0.024985136 0.2500819 0.05437827 -0.070879854 -0.06104773 0.07347513 0.13059789 -0.056558207 -0.13081697 -0.100014396 -0.12306414 0.011650716 0.060273893 -0.03584589 -0.019467989 -0.1400478 -0.00064665294 0.107984856 0.25035214 0.094856456 0.025313465 -0.066420965 0.07086696 -0.2750852 0.056737952 0.035309732 0.29332072 -0.08980888 -0.029614381 0.19990432 -0.0024486624 -0.29920593 0.10838985 0.009087139 0.14302601 -0.051436037 -0.020641364 -0.0016928592 0.11923533 -0.12677835 -0.041203007 -0.093558975 -0.11938345 0.061737537 -0.08183788 -0.025540058 0.03524049 0.07904108 0.0939361 0.018267084 0.14818923 0.062370095 0.05586238 0.03497247 -0.026916077 0.04926904 0.07592498 0.21280904 0.25651842 0.12766719 -0.16432577 -0.18729934 0.08341575 -0.033966906 0.07281417 0.05867224 0.11488892 -0.090787254 -0.022357468 0.043990903 -0.114338696 0.1770147 0.10977095
68 0.03822103 0.18319108 0.14251167 -0.06901911 -0.12995008 0.05970593 0.026241418 -0.08063843 -0.008616198 -0.141633 0.059699398 0.19248635 -0.10317648 0.07680269 0.095463336 -0.10041461 -0.21356039 0.15471148 -0.007005873 0.107451916 0.13742167 -0.06690001 -0.09916508 -0.14674363 0.15272725 0.13306756 -0.025801085 0.12434158 -0.03404503 -0.055215806 -0.06695711 0.07712278 0.17665838 0.06196621 -0.03892977 -0.08148886 0.020839693 0.12973836 0.08206931 -0.014211108 -0.16403233 -0.18621573 0.028487561 -0.090451054 0.11160155 0.061097916 -0.15104528 0.08196508 0.035718087 0.007221445 0.09987578 0.043712754 0.08925207 -0.016550062 -0.08154067 0.0081302915 0.22014785 0.051854428 -0.115220174 -0.037312064 0.057722226 0.11794208 -0.06135561 -0.08404508 -0.122213826 -0.08843501 0.047302324 0.04264421 -0.02699336 -0.009300125 -0.08019209 -0.039881904 0.07193783 0.23881687 0.055030677 0.029197829 -0.06758496 0.08025731 -0.22061408 0.020890934 0.059435215 0.22630069 -0.08162093 0.032014225 0.23172636 -0.0060533998 -0.24984801 0.09176453 -0.0100798365 0.13554493 -0.023386806 -0.021749359 0.054678366 0.077338055 -0.16420107 0.02104434 -0.112030916 -0.11727784 0.070479736 -0.088294536 -0.059219245 0.031090608 0.07598434 0.06762746 0.0335811 0.15001822 0.03139105 0.027961876 0.05227395 -0.07285678 0.016665172 0.062335074 0.16388191 0.24691714 0.08536395 -0.16367894 -0.17175885 0.0391527 -0.03283777 0.110737145 0.021834567 0.10559232 -0.10727834 0.010958099 0.024857104 -0.113083445 0.21974158 0.12907717
16 -0.0995668 0.07230019 -0.06189153 -0.04734527 -0.14774461 0.009325924 0.17475298 -0.013433442 0.12282456 -0.21072774 0.078420535 0.18080753 -0.010853244 0.23078173 0.15451859 -0.12090884 -0.13747919 0.13936561 -0.20922536 0.17582233 0.034645244 0.0877818 -0.15977065 -0.15944561 0.18308723 0.022823764 -0.021377133 0.24236654 -0.10906811 -0.015996562 -0.050564896 0.08300174 0.02280045 0.05849899 0.06604585 -0.15518111 0.11412757 0.11017548 0.2500749 0.045568425 -0.2508533 -0.1726601 0.22396229 -0.11916529 0.1382484 -0.07599572 -0.25905955 0.15002741 0.1010559 0.21865223 0.13788444 0.06030792 0.23159991 -0.16344933 -0.12576556 -0.08735009 0.23245548 0.018660977 -0.15558441 -0.014946753 0.0210297 0.10054628 -0.06870617 0.05079875 -0.20673294 -0.08012715 0.063682996 -0.0027850687 0.13465588 -0.04319865 -0.115401685 -0.094131485 -0.052673716 0.3075515 0.0042946907 0.039618403 -0.0139559405 0.14873424 -0.15896809 -0.11335435 0.13388608 0.08300923 -0.06550411 0.08045823 0.23112091 0.09322776 -0.02943893 0.08805058 -0.022674507 0.23048371 0.07078958 0.07071775 0.12852871 -0.11200311 -0.14977352 0.17795588 -0.09760034 -0.022879913 0.19766141 -0.12107711 -0.17640041 -0.0015189822 -0.023491936 0.10475624 0.13653165 0.09069389 0.057166465 0.06021015 -0.03905583 -0.20738372 -0.19198473 0.15749283 -0.013012182 0.23732075 -0.01686053 -0.17896217 -0.113441855 -0.119545266 0.051893525 0.30091712 -0.14670904 0.25320825 -0.10676142 0.011103528 -0.057621222 -0.04198395 0.2311772 0.14648135
71 0.06395498 0.12654783 0.16604412 -0.099341445 -0.11207513 0.007700555 0.015823316 -0.08132194 -0.025637709 -0.09058261 0.052616946 0.18151243 -0.062212463 0.053754125 0.046453144 -0.05352275 -0.2261728 0.16736837 -0.0035359021 0.15502606 0.14551115 -0.09472019 -0.10803329 -0.15293708 0.18521366 0.10467015 -0.011976195 0.14450495 -0.014432591 -0.03782194 -0.063026205 0.055548757 0.19844694 0.046941597 -0.060592163 -0.09529122 0.046534188 0.12445917 0.096206866 0.008809499 -0.16285732 -0.19902968 0.016005214 -0.09908422 0.10686271 0.05259163 -0.17478247 0.05693059 0.051944748 -0.028477808 0.11671939 0.023701275 0.06866733 -0.009707162 -0.018132832 0.0031192023 0.21864247 0.07565613 -0.08309841 -0.038566533 0.074090146 0.1176354 -0.023187399 -0.09822589 -0.1067343 -0.10933532 0.011755297 0.07063034 -0.03421773 -0.0031868562 -0.11349438 0.001596984 0.07899384 0.21442357 0.082810335 0.009223634 -0.070182025 0.054020118 -0.23799726 0.036676574 0.024878189 0.24031179 -0.09651188 -0.025415186 0.20628347 0.015676586 -0.23830104 0.09693168 -0.011463456 0.13637425 -0.022477398 -0.004737784 0.035436165 0.08275664 -0.13125739 -0.021263245 -0.09279124 -0.107425146 0.092251085 -0.09140484 -0.035956934 0.019221013 0.042634644 0.096181154 0.02139895 0.14712478 0.039396252 0.044024583 0.010824658 -0.061664052 0.03217919 0.07096638 0.18124798 0.2341975 0.10226388 -0.16577634 -0.17014162 0.036097985 -0.007248282 0.09179579 0.038726117 0.118850596 -0.06396363 -0.020145653 0.026069105 -0.09621572 0.17585714 0.10564278
51 -0.017472714 0.41736636 0.07351083 -0.0018413968 -0.25240815 0.18523441 0.030193439 -0.086850815 -0.15897298 -0.17513484 -0.09120975 0.30145735 -0.2434058 0.28317183 0.13357894 -0.16843502 -0.23702258 -0.016335147 0.20117405 0.022938294 0.07762041 -0.043196674 -0.23300613 -0.08033744 0.024987001 0.24150711 -0.10009191 -0.06349977 0.027058892 -0.28103548 -0.16267863 0.21180196 0.063775875 0.04537109 -0.20317619 -0.01640027 0.0018601746 0.17028664 0.02076095 -0.09108243 -0.18704757 -0.17897053 -0.03663647 -0.11346176 0.064257026 0.11064096 -0.2061239 0.13309026 -0.035124876 0.10443897 -0.11902832 -0.08034336 0.12376166 0.13126239 -0.21498537 0.19137761 0.2744155 0.071974285 -0.25936422 -0.021718754 -0.070963606 0.024716321 -0.049896218 -0.116079964 -0.12216659 -0.06875231 0.11774179 0.033880025 -0.14868864 0.006282035 0.08631607 -0.006241652 0.14185365 0.1711263 -0.066591434 0.05014673 -0.16095082 -0.0022513578 -0.20155163 0.059407223 0.098274134 0.09339994 0.011370657 0.18601201 0.37170184 -0.036606282 -0.3391161 0.040754743 0.0012042881 0.1444964 0.11833026 0.016673815 0.055959024 0.09093098 -0.06515862 -0.03710632 -0.121281944 -0.21079445 0.13571236 -0.08045603 -0.060393047 -0.027416073 0.047177047 0.02664826 0.020458434 0.3575693 -0.037224714 0.024322633 0.2946861 0.021491013 0.014485759 -0.013295015 0.23238263 0.29511908 -0.061680134 -0.1990324 -0.11364769 0.15629375 0.014373913 0.11416131 -0.030160705 0.21264057 -0.14267823 0.0560488 -0.1773902 -0.09520426 0.46736762 0.20063035
76 0.07730911 0.2642569 0.12531467 0.012598948 -0.1454848 0.14549206 0.025411643 -0.16742773 0.16244139 -0.14890055 0.20857719 0.09597561 -0.097347446 -0.104775 0.21077184 -0.21824503 -0.16862987 0.1333483 -0.12884136 0.02393324 0.14857969 -0.089348026 0.003398909 -0.18711968 0.11308366 0.14333919 -0.079496086 0.21368392 -0.11035904 0.008525628 0.05785447 0.006960057 0.17363952 0.12431537 0.15645193 -0.039618563 -0.052223764 0.17116816 0.14849071 -0.04321889 -0.20719089 -0.1221545 0.1399556 -0.09898303 0.2476473 0.058413703 -0.057055965 0.13201028 0.057259787 -0.014191339 0.19654784 0.1567086 0.22644682 0.007157039 -0.11993958 0.0037021593 0.20106755 0.100032605 -0.18695006 0.00688749 0.14147444 0.19254453 -0.13584152 -0.086116135 -0.12718047 0.07050739 0.08629015 0.038263418 -0.085431986 0.0074648745 -0.10258448 -0.26782516 0.028674211 0.30365047 0.061104573 0.03365697 -0.08841659 0.10461177 -0.26514152 -0.045092154 0.09229002 0.27112123 -0.16921136 0.100374185 0.14565854 -0.058080107 -0.19975482 0.10401978 -0.064746454 0.14036016 -0.10346397 -0.05934159 0.17708287 0.11440593 -0.3488003 0.19896169 -0.2346902 -0.083842255 -0.026118385 -0.06911857 -0.1334533 0.03340442 0.15653417 -0.0048595965 0.021049008 0.11333327 -0.023464479 -0.011567939 0.02611198 -0.20823753 0.0463409 0.044209346 0.15120699 0.34855703 0.13047324 -0.2041443 -0.27686757 -0.054133527 -0.14516445 0.22598167 0.031901482 0.09721322 -0.1458672 -0.020577818 0.09664046 -0.12906769 0.3869728 0.17209025
29 0.048787776 -0.22111799 0.099152744 -0.101662554 -0.09458847 -0.14770967 0.23339221 -0.12565447 0.095392175 -0.17001039 0.010459554 0.2718766 -0.15448023 0.18857594 -0.1406846 0.007929784 -0.20660172 0.2954071 -0.08885832 0.365541 0.05202891 -0.08096667 -0.18017523 -0.24297729 0.2684933 0.07255442 0.0018388181 0.330171 -0.07391927 -0.10532172 -0.08691529 -0.016782433 0.08867053 0.06426107 0.012264042 -0.1975809 0.1272392 0.09650882 0.16619425 0.17543353 -0.21646918 -0.18985438 0.108124845 -0.2775828 -0.07520959 0.009637758 -0.24925268 0.09758886 0.16283804 0.2486312 0.36619884 -0.054192968 -0.037152156 -0.18877505 -0.097530164 -0.15828784 0.11656063 -0.028915992 0.071450755 -0.07186655 0.13799126 0.2253645 0.007825662 -0.052403487 -0.23504932 -0.17105578 -0.06866006 0.11871504 0.08909271 -0.15128161 -0.23023456 0.16069059 0.007909225 0.1836363 0.03397349 -0.10656058 -0.04642255 0.1017158 -0.2505071 0.08410709 0.111348785 0.16048971 0.059584044 -0.11736803 0.2896261 0.04680026 -0.17194934 0.027996492 -0.040102597 -0.01506775 0.19287899 0.07007549 0.07329031 0.039101154 -0.20100524 0.0022233133 -0.020656718 -0.121613555 0.09922483 -0.020355547 -0.020078497 0.15220745 -0.06134173 0.092073135 0.13886331 0.16678162 -0.07978476 0.09475996 -0.0414242 -0.086862154 -0.14351586 0.17153254 0.044577572 0.15137596 -0.00086396205 -0.12188197 -0.07808628 0.025436584 -0.102784194 0.17437828 -0.10912096 0.117935486 -0.09038866 -0.017930487 -0.002197138 -0.13111836 0.011138449 -0.103933506
49 -0.01429438 0.37611505 0.04741645 -0.022635628 -0.24448413 0.14518856 0.016574997 -0.05932512 -0.1526166 -0.14777455 -0.07637953 0.26187515 -0.15167442 0.2772831 0.15273339 -0.1517585 -0.2235244 -0.015541381 0.12234906 0.040310793 0.067289695 -0.02876394 -0.23372427 -0.06615052 0.049626607 0.18499672 -0.07215273 -0.013341953 0.015699618 -0.21259741 -0.13078678 0.22289611 0.076576665 0.0063043768 -0.20799026 -0.04461059 0.04041389 0.14620163 0.08233168 -0.097788 -0.19570975 -0.22180566 0.012861832 -0.07845711 0.13989443 0.060222257 -0.23440123 0.120929874 -0.0017295182 0.06257641 -0.12277628 -0.06419964 0.18231781 0.12454019 -0.14254555 0.13513798 0.3064784 0.124506444 -0.27770394 -0.011200319 -0.05211147 0.0045957584 -0.015941044 -0.08953886 -0.108301856 -0.08470714 0.09726857 0.035679758 -0.11017905 0.040037937 0.057646964 -0.025096042 0.11280981 0.1815089 -0.045632046 0.06160931 -0.14746253 0.015399911 -0.18890023 0.0038422523 0.070307724 0.09428089 -0.0440881 0.14060363 0.35457742 0.008409588 -0.26268888 0.056515746 -0.0021706256 0.19839357 0.09714293 0.04682415 0.04705557 0.046922527 -0.043370172 -0.011510332 -0.113257945 -0.15190999 0.2009858 -0.12943763 -0.09660276 -0.091923796 0.020968033 0.08106127 0.0072448417 0.3215758 0.007571033 0.052839827 0.21226007 -0.040515713 0.004339554 0.0066187936 0.23323508 0.31833163 -0.04906693 -0.20296542 -0.14779867 0.07955239 0.088478595 0.12645802 -0.0047340575 0.26785493 -0.103047706 0.0057322923 -0.16605616 -0.070184015 0.4334677 0.21927376
75 0.022916976 0.18506598 0.13333422 -0.005839888 -0.14269781 0.092838205 0.07284507 -0.09568092 0.043289643 -0.15046361 0.11376228 0.15869603 -0.10602385 0.044050653 0.12661567 -0.12286289 -0.19906193 0.17099221 -0.024605123 0.10367063 0.17339781 -0.048504863 -0.083021924 -0.19862801 0.14962539 0.1412953 -0.027446456 0.12873593 -0.024087299 -0.04296691 -0.074110426 0.07485902 0.15704508 0.10001776 0.0054370025 -0.12242034 0.019717643 0.18795747 0.10524267 0.02898006 -0.16080767 -0.159164 0.053751945 -0.060118046 0.12816852 0.050123613 -0.12541051 0.11555951 0.004279339 0.018015293 0.15742181 0.088079214 0.13929822 -0.033401217 -0.1347581 0.022429934 0.19382784 0.03729602 -0.107488945 -0.027711425 0.062225733 0.15256077 -0.10426676 -0.083447054 -0.11004696 -0.073581666 0.056908514 0.03969433 -0.024298208 -0.005302665 -0.10452167 -0.1043651 0.07562458 0.25943825 0.074024305 0.03868007 -0.055498417 0.08383331 -0.23851338 0.0059932596 0.048813555 0.23696569 -0.09965729 0.082075484 0.17015098 -0.012844622 -0.2698328 0.12323223 -5.1306095e-05 0.16361739 -0.022949703 -0.06897784 0.11810142 0.08092442 -0.18363875 0.05556718 -0.10881793 -0.110219166 0.023303738 -0.06100091 -0.04649549 0.060150653 0.08705753 0.025502503 0.038396932 0.15710458 0.0039779423 0.014213915 0.06446756 -0.08218705 0.0034739135 0.07979499 0.157893 0.24028546 0.08709453 -0.20592418 -0.16933341 0.034147333 -0.057855006 0.1526708 -0.030660974 0.06395453 -0.122780405 0.041385055 0.049215414 -0.13219215 0.26799944 0.18980396
19 -0.15859835 0.13611838 -0.1535313 -0.07969821 -0.17958242 0.03295232 0.17422977 0.04865936 0.11734373 -0.19532903 0.09983386 0.1484967 0.13135853 0.2738932 0.25851905 -0.15098457 -0.1383617 0.09052797 -0.3199742 0.17778288 0.01843625 0.16548143 -0.19863588 -0.12718336 0.22393605 -0.044590816 -0.019549679 0.27228957 -0.12846027 0.063181296 -0.035207126 0.1349604 0.028506 0.036094937 0.0947102 -0.16468152 0.16470733 0.114747174 0.36920163 0.0034905947 -0.31588596 -0.20433962 0.32994705 -0.09434393 0.26110208 -0.15348744 -0.35839602 0.18744968 0.142658 0.21968947 0.04965109 0.06818899 0.38859305 -0.16487223 -0.06972664 -0.095280565 0.31856945 0.092046544 -0.26644105 0.014971913 -0.007344697 0.056992974 -0.028125608 0.103265956 -0.23071194 -0.07502128 0.09420342 -0.023992145 0.18160464 0.025129946 -0.091758884 -0.16271785 -0.091185115 0.39657488 0.012432672 0.075398184 -0.0012999875 0.16633649 -0.14814681 -0.21165897 0.1309038 0.05689437 -0.15439613 0.10405203 0.23966175 0.1618469 0.07866181 0.12429113 -0.03911212 0.39447054 0.028991139 0.12918067 0.17702751 -0.1992691 -0.124952875 0.24764444 -0.14701734 0.03284707 0.34482113 -0.21574855 -0.27337605 -0.09300409 -0.06810188 0.18525214 0.14164339 0.07055365 0.14318448 0.08428457 -0.104977176 -0.31424546 -0.23882572 0.18726051 -0.027231818 0.30318886 -0.014067879 -0.22325912 -0.16121161 -0.24039419 0.17383614 0.38484862 -0.16589569 0.39896822 -0.07923862 -0.019979121 -0.11399683 0.013573918 0.31616065 0.25118998
20 -0.22615246 0.11639559 -0.22173151 -0.1113106 -0.2001135 0.0013848104 0.20661247 0.110267654 0.094968386 -0.22753724 0.04451798 0.20063882 0.15323524 0.4111196 0.27233678 -0.139068 -0.13760814 0.08392771 -0.34957162 0.2057308 -0.026939215 0.23634645 -0.26534694 -0.10160973 0.24974044 -0.07492342 -0.0113480445 0.28121865 -0.13616225 0.048691567 -0.07815493 0.17818612 -0.021881465 0.00020958972 0.043715894 -0.18853103 0.21105249 0.09603104 0.41798308 0.012684767 -0.3478633 -0.2457233 0.37331042 -0.1127113 0.24412204 -0.20641458 -0.45168704 0.20143798 0.16190183 0.30661616 -0.007507409 0.02920901 0.4168212 -0.2042271 -0.06713988 -0.1137325 0.37124333 0.07479784 -0.28724104 0.007938818 -0.061417975 0.009767832 -0.0077600237 0.14718682 -0.2749657 -0.12133101 0.10299966 -0.051157717 0.2537916 0.011749254 -0.084803246 -0.11228665 -0.120415725 0.41923115 -0.022078171 0.08489747 0.009550377 0.18839829 -0.115359575 -0.24463642 0.15332812 -0.010665433 -0.12791982 0.11355958 0.30579764 0.2077864 0.12971674 0.115278415 -0.02135718 0.44492716 0.086546816 0.19244596 0.15177864 -0.27873653 -0.059073962 0.25531247 -0.12368277 0.047776762 0.45136014 -0.24781792 -0.30833444 -0.12529884 -0.12622811 0.23444423 0.1758535 0.0780366 0.18422934 0.11251157 -0.11594321 -0.32174096 -0.3194 0.22025424 -0.07046361 0.30072826 -0.068734765 -0.21995927 -0.124956556 -0.2657119 0.2618051 0.42927614 -0.22409722 0.49054927 -0.07783229 -0.02336302 -0.18415248 0.051173206 0.29517782 0.25516126
17 -0.21927573 0.088840835 -0.2235664 -0.10113566 -0.19208668 -0.009831645 0.22025695 0.10214792 0.10480279 -0.22646113 0.049883634 0.18701386 0.14461768 0.40625772 0.24733181 -0.13086 -0.13222376 0.089049034 -0.3447659 0.22019863 -0.02836365 0.23163405 -0.2669567 -0.111933574 0.2434391 -0.08067447 -0.013270376 0.2806252 -0.12776339 0.047624737 -0.077643074 0.16571271 -0.0268907 0.005030131 0.05795459 -0.19770198 0.21787049 0.1025899 0.4167118 0.02436031 -0.3424514 -0.2353006 0.3705588 -0.114303805 0.22748989 -0.2039765 -0.44019395 0.2031282 0.1667775 0.31627485 0.013492349 0.02489674 0.4005211 -0.2159057 -0.07351013 -0.118936814 0.3471406 0.07186943 -0.27216747 0.008805966 -0.04966862 0.019374434 -0.005644979 0.14765878 -0.2701857 -0.12513722 0.08711913 -0.039802182 0.25104958 0.0067375926 -0.09774449 -0.10959208 -0.12555538 0.40337288 -0.016875017 0.074815705 0.012136168 0.18492164 -0.11737574 -0.23525019 0.15426885 -0.010506845 -0.11907244 0.108739644 0.28996688 0.20331512 0.13215259 0.11070512 -0.027902005 0.4313962 0.09788399 0.18469082 0.16675621 -0.2688898 -0.06671099 0.2477696 -0.11681686 0.045718446 0.4330542 -0.2397202 -0.29869962 -0.11667865 -0.1375672 0.22786592 0.17511518 0.087540835 0.16102666 0.11333224 -0.111136906 -0.32329187 -0.32104027 0.22221234 -0.07719364 0.28901127 -0.06955384 -0.22358441 -0.11117013 -0.26507422 0.24646297 0.42184153 -0.23317987 0.4690833 -0.07426085 -0.017484615 -0.18377629 0.040473867 0.281575 0.23862278
21 -0.18624364 0.102337174 -0.17372723 -0.14022556 -0.17009105 -0.027145201 0.1644055 0.08627586 0.09263034 -0.1947322 0.050610516 0.19572145 0.14723396 0.36016712 0.23221692 -0.11701991 -0.14509583 0.088126265 -0.32300198 0.2031868 -0.017469995 0.1983082 -0.23611115 -0.092745595 0.24752535 -0.07889231 -0.013835628 0.27196488 -0.13363971 0.05687608 -0.06073349 0.14325461 0.014312827 0.0071386094 0.04305396 -0.16193333 0.19303125 0.06991366 0.38481194 -0.0017536021 -0.3330935 -0.23039082 0.33675927 -0.124666885 0.22015887 -0.18412346 -0.42591155 0.16790016 0.16539006 0.2683978 0.0076293317 0.03439159 0.35051692 -0.19391412 -0.027406188 -0.11334057 0.35044816 0.06606121 -0.25389764 0.0072341133 -0.034922816 0.012709488 0.002256806 0.12661411 -0.25746596 -0.11062149 0.08031036 -0.03759291 0.22536239 0.0014978717 -0.094732895 -0.08960071 -0.11311448 0.38886476 -0.008233638 0.0752487 0.011844283 0.17452398 -0.12998523 -0.20349993 0.1500046 0.020356044 -0.12039134 0.07171007 0.2824983 0.19069219 0.12051337 0.10493467 -0.023390029 0.39918223 0.056245852 0.18518679 0.12355518 -0.24063645 -0.06378758 0.216546 -0.12278976 0.0433192 0.41872704 -0.23647454 -0.2805051 -0.11816597 -0.111631475 0.23436856 0.16487257 0.05359364 0.18126433 0.11171525 -0.13150665 -0.30242258 -0.27955702 0.20565987 -0.064193286 0.285514 -0.044531193 -0.19604805 -0.12295332 -0.2440113 0.23449868 0.38552588 -0.1811325 0.45013466 -0.06718512 -0.034307193 -0.16053441 0.046554357 0.24892 0.2079117
18 -0.16340952 0.053587545 -0.16481066 -0.04073643 -0.16714177 0.02910112 0.23025931 0.033531033 0.16391845 -0.23808227 0.08692565 0.16391402 0.04934528 0.29516757 0.20750031 -0.13784549 -0.11985467 0.12906753 -0.30559897 0.19021873 0.004067473 0.16734836 -0.191719 -0.14947101 0.20482601 -0.023312705 -0.022585627 0.27459747 -0.13858227 0.018984217 -0.053901616 0.115160316 -0.030060606 0.052311443 0.11234635 -0.184657 0.15356912 0.12414153 0.33383626 0.056853853 -0.29382098 -0.16946495 0.32017487 -0.116471305 0.17718615 -0.13946621 -0.3120838 0.20167029 0.12926313 0.2999311 0.116786495 0.061912112 0.32860535 -0.20923989 -0.14142112 -0.11375704 0.25130692 0.019715143 -0.20173474 0.0057218554 -0.0035497204 0.08897642 -0.066749476 0.106842995 -0.24556176 -0.08286713 0.09029197 -0.024109501 0.19467208 -0.034032077 -0.10392042 -0.13181227 -0.09788356 0.3547105 -0.015531022 0.054210823 0.009082774 0.17579117 -0.12772377 -0.18085445 0.15257016 0.03186283 -0.08854596 0.124688044 0.24778184 0.13133374 0.054918163 0.09835312 -0.031712275 0.30658868 0.09362484 0.10396448 0.18722561 -0.18689947 -0.15676588 0.25198603 -0.10669668 0.014753199 0.26732284 -0.15963359 -0.23536599 -0.026534557 -0.063637145 0.12261235 0.16971034 0.08278336 0.08065843 0.06623691 -0.06843873 -0.2791866 -0.27154827 0.18910018 -0.07003618 0.25405297 -0.046566315 -0.20369793 -0.10756476 -0.20394713 0.10145671 0.3757386 -0.21767095 0.3243905 -0.108657524 0.025078187 -0.099530436 -0.01676785 0.2669752 0.19553393
22 -0.16698658 0.093382634 -0.16678476 -0.09455251 -0.17592658 -0.0032156655 0.19771408 0.054958116 0.10707487 -0.21838623 0.050206997 0.19525126 0.09315598 0.34942496 0.22160512 -0.1282355 -0.13827062 0.10064856 -0.3024403 0.20789349 -0.017520437 0.17430963 -0.23258543 -0.12777553 0.23353814 -0.040616374 -0.016456684 0.28868026 -0.13528937 0.02126799 -0.060603313 0.13695411 -0.00061138504 0.012980362 0.052450348 -0.17138158 0.18556319 0.098867156 0.36362243 0.021950934 -0.33159927 -0.22175126 0.3316764 -0.14082323 0.2051136 -0.1557005 -0.39592263 0.18969841 0.15820536 0.27900866 0.05333361 0.032007344 0.35096502 -0.17953697 -0.07888473 -0.10681163 0.3237695 0.06321205 -0.24358884 0.00199866 -0.023486918 0.048295695 -0.024055049 0.10591594 -0.25739375 -0.10569531 0.08570483 -0.025206296 0.20820694 -0.013264559 -0.10245346 -0.104040794 -0.09995968 0.37491325 -0.015364551 0.05728224 -0.0042711794 0.16971596 -0.14133817 -0.19454125 0.15126558 0.028951248 -0.10425751 0.089814365 0.28681028 0.16435812 0.082481265 0.100550316 -0.030787496 0.36341745 0.0945835 0.15762511 0.14118914 -0.21684548 -0.10810064 0.228384 -0.1212447 0.026019005 0.36972877 -0.20251746 -0.26379418 -0.082670875 -0.10253406 0.1863319 0.16111629 0.09529494 0.13165353 0.10196313 -0.090000674 -0.28985488 -0.27751362 0.20106043 -0.041625153 0.29430783 -0.052649066 -0.20701414 -0.13381049 -0.22132719 0.18203864 0.3836566 -0.19040352 0.4207019 -0.08631264 -0.028376734 -0.14832455 0.01901396 0.27134252 0.20097531
38 0.05194352 -0.23685208 0.13020107 -0.10071458 -0.11366617 -0.16487245 0.26917282 -0.16728185 0.0906303 -0.22390375 -0.020161899 0.35056916 -0.2572322 0.25850412 -0.17535704 0.0062906817 -0.24395579 0.3343523 -0.0471261 0.41150776 0.054817062 -0.10539063 -0.2205923 -0.29407758 0.27199283 0.13094875 -0.0024261007 0.3527729 -0.083555914 -0.18398362 -0.11842895 -0.008768317 0.07148023 0.08187203 -0.025194464 -0.21845144 0.13226905 0.11229758 0.14130497 0.20359462 -0.2457091 -0.21376233 0.0831613 -0.32404548 -0.12955387 0.048109654 -0.2719529 0.10894317 0.16573569 0.30791754 0.4207741 -0.078474015 -0.08334529 -0.20829721 -0.16381882 -0.16012435 0.117654234 -0.06024312 0.09081678 -0.099217616 0.14207079 0.2596487 -0.02269082 -0.074778624 -0.26346555 -0.19813675 -0.0687325 0.13917278 0.085349984 -0.19678895 -0.2582956 0.20251946 0.021115938 0.18937786 0.015749084 -0.122339025 -0.057758518 0.11000897 -0.28434154 0.12635177 0.14977777 0.17753474 0.11436752 -0.113045394 0.3452244 0.030082328 -0.23881939 0.01966877 -0.02589844 -0.058625575 0.26019666 0.065383 0.07170987 0.056277364 -0.22185646 -0.016398773 -0.004332357 -0.1651796 0.06847597 0.004822653 0.0018943829 0.19889078 -0.057176854 0.06402564 0.15769723 0.21234506 -0.12033302 0.101053886 0.011138718 -0.04958127 -0.16598012 0.18837298 0.05818761 0.16304979 -0.029372236 -0.13742925 -0.06492778 0.08539524 -0.15777926 0.18379967 -0.13712558 0.11800869 -0.1312684 -0.00498132 -0.017767945 -0.16644105 0.022268187 -0.123020925
35 0.07498323 -0.2806274 0.12358812 -0.10528193 -0.11041598 -0.16920264 0.27704915 -0.17862776 0.10764469 -0.20489298 -0.016896214 0.33238786 -0.24544537 0.20323698 -0.20732717 0.013275757 -0.22855423 0.34095255 -0.057841484 0.41698256 0.043122083 -0.12699904 -0.19784208 -0.2719876 0.28254813 0.10169858 -0.009558595 0.37155697 -0.09379156 -0.16758518 -0.096619785 -0.037973728 0.07402767 0.06732742 0.009653065 -0.19684891 0.12285301 0.095736764 0.13875641 0.20918956 -0.23081437 -0.1893003 0.08667532 -0.35217467 -0.12910463 0.045114312 -0.24984561 0.102676935 0.18728408 0.30860057 0.43066892 -0.09167151 -0.09263411 -0.20485474 -0.15161635 -0.17311145 0.09036933 -0.0482603 0.10524743 -0.08053247 0.15929648 0.27116865 0.0013466551 -0.07765158 -0.27199605 -0.18104453 -0.079202175 0.15034008 0.062169652 -0.20241578 -0.2522323 0.21650669 0.01011163 0.15586784 0.016375218 -0.14797756 -0.067753844 0.10313805 -0.27440575 0.13929269 0.14257722 0.16810137 0.115231074 -0.13708131 0.35064983 0.018350579 -0.22513144 -0.0019454239 -0.057237316 -0.097547986 0.27075425 0.08057341 0.08378379 0.07510173 -0.24976663 -0.008902392 -0.008819125 -0.16627167 0.064259015 0.01606423 -0.001052637 0.20980412 -0.06437808 0.05901131 0.15468287 0.21025415 -0.13869692 0.09333642 -0.015524762 -0.06842404 -0.15607768 0.17567284 0.039656132 0.1416074 -0.024311306 -0.105226435 -0.062490053 0.059710313 -0.17873892 0.16945864 -0.12416615 0.099708885 -0.113356054 -0.0145093165 -0.009794756 -0.16978577 -0.003685572 -0.17569454
36 0.086214736 -0.2199178 0.15381509 -0.11377869 -0.08179735 -0.15952606 0.2165793 -0.17717755 0.105253965 -0.1703474 0.014547712 0.29141018 -0.20376194 0.15054233 -0.16648269 0.008246056 -0.22781274 0.31782937 -0.06507892 0.37396994 0.05989308 -0.13397373 -0.16120425 -0.26606908 0.26933688 0.10257967 -0.002228072 0.3629782 -0.09119663 -0.12872359 -0.07274788 -0.04197196 0.11001759 0.067087844 0.012169973 -0.1760554 0.111856885 0.09404392 0.1322924 0.17711794 -0.22112252 -0.18528235 0.08193062 -0.31572405 -0.088006236 0.043305933 -0.22664174 0.08680984 0.17768021 0.23475346 0.4081498 -0.047800362 -0.0787298 -0.17455198 -0.11013428 -0.16337702 0.102893196 -0.030144863 0.09913281 -0.07564647 0.16939309 0.25875902 -0.007956921 -0.08691621 -0.23664473 -0.15526663 -0.071422875 0.1356859 0.054152064 -0.17089756 -0.2549705 0.16802645 0.01684784 0.1761903 0.04117772 -0.12774396 -0.05568805 0.10439849 -0.2753904 0.118258476 0.12047657 0.19328311 0.0678924 -0.13288164 0.29220343 0.011866086 -0.21500342 0.017419329 -0.049791988 -0.06597622 0.19217843 0.059817746 0.068369545 0.077515356 -0.24591832 -0.0021598004 -0.030653998 -0.14536308 0.04473238 -0.0017144361 -0.0054757926 0.18203685 -0.038469657 0.06402496 0.13070492 0.18024175 -0.100476876 0.08966645 -0.0402341 -0.07645983 -0.11068423 0.1646655 0.06559132 0.17549479 0.010915822 -0.11432957 -0.10098931 0.04331082 -0.1575098 0.1635748 -0.07922932 0.104336545 -0.11065465 -0.02718461 0.018106373 -0.1566886 0.016894726 -0.14137678
37 0.06524569 -0.2882641 0.12226966 -0.085792795 -0.09839456 -0.16765295 0.28349054 -0.17322601 0.13841692 -0.20974365 0.013861139 0.30238807 -0.21502875 0.18616349 -0.1825961 0.00957259 -0.21974434 0.35243204 -0.09303855 0.4064205 0.058527805 -0.10481421 -0.17688537 -0.29212198 0.28224167 0.09659556 0.0078081694 0.38442245 -0.09846194 -0.13550784 -0.08228672 -0.041949272 0.071179874 0.07854309 0.035243653 -0.22473612 0.12851936 0.10523278 0.14966005 0.2241087 -0.21916881 -0.17973052 0.10442396 -0.32238483 -0.115220405 0.03504961 -0.22800653 0.11173165 0.17451146 0.29487413 0.46014073 -0.0533623 -0.07738629 -0.23292157 -0.15186833 -0.18719052 0.0750458 -0.061677128 0.11600434 -0.086801566 0.1635555 0.27836338 -0.025071278 -0.05957637 -0.25388956 -0.18077974 -0.07945169 0.13259754 0.099363826 -0.19797795 -0.2675611 0.17402318 -0.0001557333 0.17602722 0.026573481 -0.12969029 -0.040181607 0.122621186 -0.26553935 0.11326683 0.13537255 0.1701681 0.09433626 -0.12344445 0.3046342 0.026100755 -0.20780158 0.019342154 -0.04762104 -0.072663136 0.24370293 0.052028447 0.086911514 0.060186323 -0.25578007 0.01675792 -0.0005411514 -0.13699721 0.03969155 0.014426548 -0.0019344094 0.21072121 -0.054684643 0.057618666 0.15781684 0.17538393 -0.12215492 0.09093036 -0.034641687 -0.079349175 -0.16760746 0.18960346 0.027029961 0.13432814 -0.010942775 -0.11533256 -0.06375413 0.040886503 -0.17568359 0.18203695 -0.13291046 0.078006074 -0.114560716 -0.006861032 0.022783253 -0.16436993 -0.01912016 -0.15305643
34 0.0505842 -0.23389399 0.12234774 -0.11031503 -0.10020417 -0.14611173 0.26032448 -0.17169654 0.12770429 -0.22675386 0.00044888217 0.3322934 -0.2475069 0.21086666 -0.16896473 -0.010221595 -0.23734564 0.33877727 -0.09101066 0.3863062 0.048077237 -0.10790162 -0.18211716 -0.27022326 0.27274022 0.11113412 -0.005925849 0.36509123 -0.10977061 -0.15499406 -0.08950835 -0.027620591 0.0726369 0.08156591 0.029220417 -0.19492905 0.113386616 0.09233277 0.14283429 0.17982626 -0.2294236 -0.18475792 0.09782648 -0.3316102 -0.12230702 0.042331677 -0.22868712 0.11131997 0.18346429 0.31547618 0.42341858 -0.062169783 -0.0817075 -0.22330114 -0.16831273 -0.1865763 0.098393366 -0.07252674 0.08868777 -0.08795888 0.15643618 0.2657658 -0.029923027 -0.058384668 -0.27269748 -0.16472745 -0.064708896 0.12187434 0.084645376 -0.20471455 -0.23958395 0.17682046 0.010144053 0.19622809 0.008974589 -0.12800933 -0.044727746 0.13240471 -0.25934315 0.119889885 0.15811627 0.17348526 0.108678974 -0.10389131 0.35016745 0.010606987 -0.21709289 0.008546838 -0.04232125 -0.0838261 0.23200493 0.06731259 0.08295279 0.06393173 -0.27257398 0.025494061 -0.022559568 -0.15624808 0.056137472 0.00080841326 -0.015199789 0.2058794 -0.03607977 0.059456177 0.16181655 0.18538822 -0.11817017 0.086643055 -0.009172475 -0.07905601 -0.16119622 0.1669611 0.023825375 0.16739972 -0.016459724 -0.104391165 -0.0769263 0.054217648 -0.17666097 0.18594985 -0.113400295 0.10022589 -0.14361958 0.0068954676 0.013062338 -0.16480121 0.00894562 -0.15650006
28 0.10762073 0.04053641 0.31828046 -0.087517604 -0.06678935 -0.17169973 0.05131827 -0.16800146 -0.0745895 -0.049246926 0.014435296 0.3357469 -0.28190067 0.21861884 -0.1332593 0.048398092 -0.25952616 0.2509162 0.19751778 0.29732087 0.15132257 -0.17528555 -0.17725405 -0.31693113 0.2415232 0.25902474 0.0010847329 0.25642136 0.04610018 -0.24234523 -0.18548426 -0.01689462 0.19074254 0.088119105 -0.20248608 -0.16385032 0.11028433 0.17109099 0.041711256 0.16784737 -0.24688126 -0.25205702 -0.041403174 -0.25437096 -0.1273282 0.124612994 -0.29414755 0.009965132 0.039555527 0.0639039 0.34779057 0.05421225 -0.11335537 -0.028417397 -0.054105196 0.045308653 0.21234173 -0.023142235 0.14631069 -0.14542344 0.095547326 0.20664236 -0.092388704 -0.20792073 -0.09583565 -0.18090226 -0.08470887 0.12821953 0.016598163 -0.1456183 -0.33772466 0.14076813 0.13198242 0.22941911 0.10601992 -0.0446105 -0.075374275 0.04496701 -0.39623743 0.19069952 0.08657311 0.29134405 0.07757513 -0.122574575 0.16877851 0.024877734 -0.39793977 0.109126374 0.0661263 0.029121809 0.1427344 0.008234941 -0.07781629 0.14771482 -0.058152348 -0.16890088 0.017041584 -0.16540878 -0.0066417432 0.049235955 0.056698002 0.14080392 -0.007045679 0.032364935 0.086562485 0.24561578 -0.035598293 0.16665338 0.12006116 0.11557344 -0.041142523 0.18650301 0.20414142 0.19349754 0.010119638 -0.13490535 -0.08778303 0.22732121 -0.117236055 0.08637121 -0.037470534 0.099248126 -0.12060861 -0.082930475 -0.032211147 -0.10535061 0.0712217 -0.046101473
31 0.04290796 0.023254381 0.10249619 -0.123471595 -0.09904401 -0.072500266 0.054013986 -0.057127174 -0.056693103 -0.0499986 -0.009914776 0.2136224 -0.033130143 0.14678693 -0.012912098 -0.010657116 -0.19814503 0.14259714 -0.0154692 0.23043808 0.076573804 -0.06612008 -0.16502449 -0.13133472 0.20034865 0.055336494 -0.0005420909 0.18725048 -0.020941535 -0.054800674 -0.07812803 0.05243306 0.15492074 0.0063724415 -0.08439504 -0.095975436 0.09723813 0.07390902 0.14580229 0.032144237 -0.18515913 -0.20495765 0.05643569 -0.15653266 0.047730226 0.008264189 -0.25808367 0.044761177 0.10233288 0.041086722 0.110036634 -0.044880368 0.061964445 -0.025248256 0.03187482 -0.030277878 0.21070021 0.08526467 -0.06304446 -0.041360907 0.070182785 0.08779929 0.040521752 -0.07148581 -0.13231578 -0.14161928 -0.03014405 0.09329758 0.0011009459 -0.013898072 -0.12426021 0.08452276 0.041397933 0.18385945 0.052423723 -0.03463209 -0.072927766 0.037896488 -0.21300569 0.036996428 0.032854408 0.15827037 -0.048462037 -0.084034204 0.23207583 0.06278749 -0.1473569 0.0646567 -0.012195619 0.1228649 0.054355122 0.07812986 0.010368925 0.033394106 -0.06298126 -0.04579923 -0.0546111 -0.07465264 0.18090063 -0.10346328 -0.05239007 -0.007205097 -0.051216587 0.13520396 0.036478113 0.15081227 0.036278386 0.082932666 -0.021161001 -0.06303701 -0.035626885 0.09693823 0.12833107 0.1777414 0.037283882 -0.1232383 -0.12296233 0.004381094 0.045712028 0.1005639 -0.0017667086 0.19437021 -0.034336954 -0.0625164 -0.04924325 -0.046447344 0.11234456 0.03741867
39 0.09038115 0.3156779 0.13967736 -0.04733087 -0.19376586 0.10976227 -0.040094282 -0.10207922 -0.12850422 -0.060300037 -0.03273925 0.19101167 -0.094216414 0.055803057 0.10387844 -0.09925196 -0.23052712 0.009451656 0.15437844 0.050358035 0.10762654 -0.115388244 -0.14832923 -0.05193215 0.060271792 0.14373444 -0.09097049 -0.019763568 0.038475227 -0.13880728 -0.056884464 0.12769929 0.16909613 0.03236595 -0.15736017 0.013077156 -0.021372594 0.12509082 0.04382086 -0.10611242 -0.15557417 -0.17989466 -0.058576394 -0.081659116 0.1681219 0.08419599 -0.16642131 0.05357083 0.018379034 -0.06677784 -0.092112295 -0.089363836 0.10135471 0.16455652 -0.037889414 0.15972634 0.25281677 0.16890128 -0.23633915 0.0072318236 0.012998872 0.024897514 0.020145314 -0.13610654 -0.078645065 -0.061524108 0.071733035 0.08141263 -0.21284506 0.059180796 0.044877533 -0.011613144 0.11549115 0.12508106 0.00510866 0.033183616 -0.17027302 -0.04525971 -0.23369652 0.054678984 0.012619371 0.18985963 -0.083854154 0.026659913 0.28761268 -0.015197152 -0.2695469 0.04238306 -0.04541792 0.13939695 0.022344444 0.012879165 0.03931434 0.12757152 -0.067707635 -0.064536616 -0.15164535 -0.17022915 0.12860876 -0.11196763 -0.034093235 -0.054858673 0.039007433 0.09417648 -0.061962318 0.26123026 0.002050383 0.0040663783 0.13925107 -0.025965203 0.12623465 -0.028315604 0.28110248 0.26807383 0.035802446 -0.19579966 -0.18003011 0.09740269 0.015054874 0.040915847 0.07154713 0.17607601 -0.03307376 -0.039688665 -0.08844362 -0.095503144 0.35655552 0.18115439
54 -0.014535167 0.3526862 0.07095061 0.0058555114 -0.22185037 0.15112104 0.024489118 -0.0734923 -0.12405901 -0.15625563 -0.051541142 0.25287384 -0.1863257 0.24867715 0.14207606 -0.14288941 -0.20944658 -0.002594512 0.13743436 0.0324113 0.08477475 -0.03591444 -0.2133999 -0.09327424 0.0363303 0.20370212 -0.07107071 -0.019720744 0.018367589 -0.22335872 -0.1333055 0.19919151 0.071400695 0.039456695 -0.18505906 -0.05066492 0.022662906 0.16345127 0.052936673 -0.07228095 -0.17909278 -0.1947758 -0.008926209 -0.068836324 0.10768802 0.07221612 -0.19356604 0.11768061 -0.021513386 0.06435641 -0.07552307 -0.045384213 0.13875213 0.10418243 -0.17244585 0.14328183 0.26240733 0.090754434 -0.2332448 -0.019711351 -0.050973527 0.030669656 -0.05573513 -0.09347177 -0.09653383 -0.07694419 0.10045004 0.037329778 -0.107442155 0.020473031 0.03902777 -0.034585968 0.11751156 0.1710839 -0.042273607 0.05437535 -0.13517107 0.015198803 -0.19452474 0.018663129 0.07509813 0.10929096 -0.022024315 0.14639679 0.31504884 -0.006354507 -0.29173487 0.056633495 0.007922695 0.15703325 0.09637341 0.012307175 0.057731852 0.06088504 -0.06277451 -0.020444125 -0.098554544 -0.16244271 0.13281603 -0.08947516 -0.06931422 -0.044275556 0.0400742 0.049783066 0.016035696 0.3047242 -0.02029449 0.031451706 0.22857103 -0.013237275 0.009881834 0.008185945 0.21522005 0.28622553 -0.044689674 -0.20066467 -0.13066685 0.11258982 0.035501283 0.11863899 -0.016818056 0.2001907 -0.11671055 0.02289906 -0.13661067 -0.09424533 0.4071927 0.20419638
42 -0.011930266 0.20286441 0.103861146 -0.027452419 -0.14701743 0.09123463 0.064750075 -0.06015075 0.0476588 -0.18983461 0.09336273 0.17708686 -0.09298344 0.12140721 0.17158878 -0.1304046 -0.20014226 0.1553685 -0.06084067 0.09486991 0.15358397 -0.00708295 -0.10788705 -0.18306042 0.14942649 0.131471 -0.02324891 0.12588252 -0.0466709 -0.0478883 -0.07830178 0.10531821 0.13403623 0.08967199 -0.014700171 -0.12754664 0.038667444 0.17219502 0.116890244 0.002901954 -0.18436179 -0.18391111 0.0690492 -0.03855165 0.1489942 0.026076943 -0.15535668 0.1158929 0.013200864 0.053514715 0.11632009 0.09174101 0.15882371 -0.05823846 -0.13698418 0.006079303 0.23775621 0.025186807 -0.14035197 -0.033407982 0.025004877 0.120691106 -0.114569694 -0.059488785 -0.12616047 -0.09352768 0.076588206 0.0110760555 0.023709366 -0.011497732 -0.09576495 -0.117561646 0.050229266 0.29154775 0.04627002 0.06693211 -0.047174238 0.11818364 -0.2107646 -0.038974583 0.074919045 0.2143113 -0.099582404 0.096366495 0.20429571 0.008692376 -0.22852425 0.12298642 0.0049240193 0.19970036 -0.020788008 -0.046013646 0.098524585 0.025094321 -0.16082253 0.08523526 -0.104074396 -0.09201768 0.070617974 -0.09381429 -0.08127545 0.039801337 0.07488844 0.06360989 0.0636365 0.13137998 0.04144515 0.020014556 0.053151887 -0.10597626 -0.038336463 0.09487552 0.13923827 0.2681585 0.070758425 -0.21004684 -0.16044044 0.017530814 -0.019812576 0.18992294 -0.04380238 0.11576028 -0.1295224 0.03392049 0.019060444 -0.12271323 0.27204973 0.20958574
72 0.07432544 0.17475438 0.18191822 -0.10478959 -0.13118759 -0.0037885653 -0.015367648 -0.09074832 -0.10314465 -0.087637 -0.031776335 0.24901848 -0.12724215 0.13143538 0.027571078 -0.049560435 -0.25093514 0.12596826 0.08821244 0.15401895 0.11202794 -0.119886234 -0.1647358 -0.13402605 0.15363768 0.14643718 -0.022058034 0.09638203 0.008186222 -0.13031648 -0.09441339 0.08871343 0.18884924 0.019101169 -0.15790288 -0.064517826 0.042441282 0.10036068 0.061715048 -0.025239134 -0.1665105 -0.23156787 -0.041229635 -0.11571203 0.072131775 0.08571837 -0.20081635 0.037456337 0.051693846 -0.017593719 0.053539176 -0.03684492 0.028191617 0.04470362 -0.027189255 0.037951842 0.24692549 0.08421237 -0.10990146 -0.05549752 0.049213126 0.07831934 -0.0077851326 -0.11853014 -0.10857133 -0.135421 0.011262564 0.07615676 -0.06538086 -0.012431316 -0.08489021 0.04935031 0.10206837 0.1774599 0.041283637 0.009356219 -0.10387334 0.02944993 -0.2354797 0.055445258 0.03313465 0.21952623 -0.044584386 -0.037162345 0.2747705 0.009958506 -0.26143318 0.05738115 0.0019138447 0.11101534 0.03639213 0.024686053 -0.025571674 0.095235504 -0.076736756 -0.07736148 -0.08242307 -0.13978715 0.12042131 -0.09441909 -0.031978186 0.0036725255 0.030997444 0.11088433 0.007252257 0.21016167 0.021453246 0.062474515 0.07159231 -0.014578758 0.043082103 0.05363763 0.22276075 0.24804458 0.05487164 -0.15253419 -0.17164671 0.1038819 0.008901875 0.06448896 0.06310821 0.1734116 -0.06889777 -0.051468145 -0.031775024 -0.10068731 0.20195101 0.081853084
43 -0.004425591 0.11140621 0.09007931 -0.08445485 -0.1301344 -0.014035016 0.06519049 -0.044078596 -0.06082647 -0.116542265 -0.013574467 0.2311418 -0.09341466 0.2104242 0.033677787 -0.048933204 -0.20146596 0.1326944 0.009764563 0.18478295 0.08417556 -0.03653913 -0.17946829 -0.14752096 0.16751777 0.108775236 -0.002180437 0.12721346 -0.0013108546 -0.107863694 -0.12370192 0.09983199 0.11672891 0.02662912 -0.11145675 -0.112647116 0.08780694 0.112880625 0.11936026 0.025902046 -0.18468516 -0.20391083 0.041044034 -0.12408044 0.039452594 0.027329786 -0.24035902 0.073989026 0.047499783 0.08311923 0.07479112 -0.02044726 0.07727386 -0.035095528 -0.058599867 0.003398154 0.21986336 0.038947795 -0.08637754 -0.04444918 0.019745247 0.084585235 -0.01563326 -0.06252296 -0.12865 -0.13589647 0.015548706 0.04995842 0.026953349 -0.02739565 -0.09693727 0.0523513 0.061916925 0.19999523 0.031350605 0.01393932 -0.060725037 0.062540315 -0.19395357 0.021030864 0.05542384 0.1426674 -0.024321321 0.002387905 0.24231307 0.05011735 -0.18772869 0.071771406 0.016089102 0.14978752 0.0712157 0.040264454 0.024865843 0.018971995 -0.057461105 -0.023827415 -0.047623925 -0.104962744 0.15346275 -0.08872667 -0.05621947 0.0073607927 -0.016878314 0.103911124 0.061868392 0.18213959 0.035257466 0.07495194 0.047867656 -0.04053158 -0.058397125 0.096228145 0.12891889 0.1958 0.008782599 -0.14831617 -0.103467815 0.048315227 0.04546323 0.1257848 -0.035361208 0.17643774 -0.07861712 -0.005634723 -0.06354739 -0.06894732 0.17417958 0.09277249
2 0.24545406 -0.11218316 0.22749752 -0.24239853 -0.10755381 -0.2184282 -0.019039609 -0.15733291 -0.16655913 0.1071852 -0.09430918 0.24479571 0.050917055 -0.0010051366 -0.18743038 0.087762415 -0.2687499 0.14440867 0.06594588 0.34399435 0.03708213 -0.25799802 -0.196391 -0.07022824 0.289081 0.005793096 -0.03136203 0.29622534 -0.010901797 -0.049116183 0.014218757 -0.007604024 0.2722219 -0.0972093 -0.1866008 -0.02768916 0.12675412 -0.007808983 0.14408197 0.015997063 -0.19923347 -0.26710597 -0.0075504896 -0.30666414 0.095078364 0.03591735 -0.3267301 -0.037748825 0.23586132 -0.11425437 0.10739386 -0.21786098 -0.03524142 0.118910186 0.24250938 -0.047095377 0.23823725 0.2708089 -0.062421773 -0.03330792 0.20277005 0.102656595 0.24755387 -0.16275546 -0.15749724 -0.17014708 -0.12060525 0.23753108 -0.15078597 0.020238288 -0.16706893 0.2600242 0.06826367 0.043032084 0.08580343 -0.15024775 -0.17854531 -0.08768596 -0.31898764 0.11922582 -0.056815643 0.22223398 -0.08931502 -0.34608322 0.31024858 0.07096457 -0.15130307 -0.008352194 -0.11179204 0.04078596 0.0947373 0.18740232 -0.07900435 0.13844343 -0.057231028 -0.19500032 -0.11372767 -0.12012034 0.28270173 -0.13957724 -0.01774339 -0.06673178 -0.12412046 0.26474315 -0.06277108 0.23490156 -0.007659516 0.13334045 -0.14623445 -0.07903678 0.1098158 0.054044865 0.3026047 0.23956017 0.085812956 -0.08400718 -0.24124536 -0.016712416 0.060115706 -0.031146588 0.17408848 0.31217864 0.10675078 -0.25918314 -0.07222254 -0.03605466 0.028716289 -0.1289314
3 0.24825308 -0.10328202 0.22892638 -0.23758274 -0.11912927 -0.20029728 -0.01812994 -0.15962628 -0.14399788 0.10331327 -0.051065527 0.22242823 0.07022129 -0.028229062 -0.16284019 0.072044924 -0.27090973 0.15375009 0.044323284 0.3399199 0.066326894 -0.25565353 -0.18174148 -0.08896924 0.30253595 0.00092552224 -0.03322593 0.3128326 -0.007832785 -0.019429555 0.018938256 -0.010850876 0.29441124 -0.08482556 -0.15781519 -0.04266551 0.12752436 0.011408532 0.17391235 0.020607417 -0.20697883 -0.27096733 0.022096667 -0.30000696 0.12907955 0.030310066 -0.32906374 -0.024643686 0.23155648 -0.13177769 0.12564185 -0.18585354 -0.0072970265 0.11461232 0.23893961 -0.05062549 0.2457482 0.28331417 -0.066380955 -0.024833305 0.21591038 0.113686584 0.2338664 -0.15895554 -0.15223041 -0.1618082 -0.12219884 0.2362485 -0.15015799 0.026155498 -0.17840214 0.21738282 0.07086763 0.064204425 0.108131334 -0.13533263 -0.17451236 -0.073885486 -0.3352821 0.103064224 -0.069437444 0.24694625 -0.123257294 -0.33738035 0.29682112 0.07952575 -0.15521467 0.018258898 -0.12105341 0.06214357 0.07214921 0.17389838 -0.057771564 0.14423026 -0.08258914 -0.16883902 -0.12531164 -0.113067955 0.27667454 -0.15207759 -0.024079338 -0.07673917 -0.11685685 0.26495972 -0.06224375 0.22241184 0.003992191 0.1287634 -0.1568144 -0.10641655 0.1148073 0.06445539 0.30724952 0.25063887 0.10845365 -0.09676792 -0.25971246 -0.034070473 0.057395656 -0.0102421595 0.17986496 0.30598608 0.10968766 -0.25418574 -0.046263292 -0.043452363 0.052483376 -0.09813674
52 0.01417091 0.33867002 0.071631856 -0.03633766 -0.21943359 0.121819735 0.007157335 -0.06875186 -0.14723837 -0.12823744 -0.08957625 0.2630891 -0.17060524 0.22942917 0.11610258 -0.12081783 -0.2366776 0.0070553836 0.16874029 0.058096126 0.074038886 -0.049125396 -0.21809901 -0.06843546 0.05723429 0.16521369 -0.08091634 -0.04701571 0.03490473 -0.21680768 -0.13529891 0.17966789 0.100813426 0.03051665 -0.19693416 -0.0120299505 0.010224988 0.13807435 0.049636476 -0.09668904 -0.18561651 -0.20228465 -0.042019542 -0.106258236 0.09772136 0.08535843 -0.22161765 0.09423389 0.003559098 0.059862573 -0.12876683 -0.11085591 0.11079729 0.12921365 -0.13109586 0.15943816 0.2692042 0.112750635 -0.24622314 -0.015604973 -0.05754931 0.0035508475 -0.010532594 -0.105199724 -0.117573164 -0.08288723 0.100703694 0.047346115 -0.15770496 0.014917591 0.07150039 0.03339552 0.10913698 0.15653542 -0.041742865 0.04482876 -0.15949255 -0.01932016 -0.20124707 0.05381845 0.07133052 0.12646338 -0.01154869 0.102017656 0.36083564 -0.0087990025 -0.27545023 0.034778334 -0.014101955 0.14724861 0.10089579 0.045284677 0.040962424 0.07489411 -0.0399612 -0.062364213 -0.113996856 -0.18333623 0.16652822 -0.096703224 -0.048170943 -0.034402963 0.021232594 0.073548764 -0.0067458884 0.29199713 -0.0061801663 0.020281412 0.20829563 -0.0019388947 0.0408354 -0.004246803 0.22495914 0.27089524 -0.034301095 -0.19788085 -0.120990634 0.13295381 0.038693722 0.08833661 -0.004915372 0.20967056 -0.08711762 0.015603304 -0.15931658 -0.089700304 0.37674338 0.18768412
50 -0.022832822 0.28290096 0.04525435 -0.016662396 -0.20013057 0.11385579 0.043394845 -0.044282574 -0.06892328 -0.15239829 -0.0057409075 0.20313887 -0.09316587 0.21923396 0.16552621 -0.13945125 -0.18346979 0.036442254 0.038384516 0.060359925 0.09563004 -0.0030062336 -0.19054404 -0.10908655 0.0837213 0.14649285 -0.042834725 0.050047435 -0.018192694 -0.13510573 -0.10263115 0.17369969 0.0809282 0.031167852 -0.12230587 -0.08156327 0.056905616 0.15337734 0.10481204 -0.042905793 -0.18248321 -0.20076968 0.052100156 -0.049213834 0.15303725 0.023522137 -0.20605612 0.123194255 0.0077881175 0.057325065 -0.019392157 0.003505675 0.18549491 0.046442542 -0.12926236 0.073952846 0.2694586 0.08595658 -0.22198762 -0.017727593 -0.032151073 0.045709617 -0.057451077 -0.06158989 -0.106422015 -0.09588971 0.088440545 0.026509013 -0.029559324 0.02684047 -0.009943551 -0.069393314 0.07241555 0.22426747 -0.013123421 0.0590571 -0.094986826 0.057468902 -0.18322664 -0.03510282 0.06259807 0.11690636 -0.075737335 0.122900195 0.26167387 0.023441572 -0.21749575 0.07970695 0.007783045 0.21838386 0.05257937 0.011850726 0.06491392 0.014191105 -0.07847699 0.03194981 -0.09777852 -0.10206814 0.16766374 -0.119267926 -0.10428466 -0.04494744 0.025881382 0.082765065 0.027315639 0.22526465 0.024032058 0.042158972 0.12707439 -0.074750125 -0.03252393 0.050772607 0.17968099 0.28213936 -0.013327921 -0.20170678 -0.14926611 0.03372091 0.06799426 0.1588969 -0.030026514 0.21759966 -0.107242264 0.005210048 -0.09224738 -0.080218896 0.3515798 0.22023724
74 0.091898166 0.45037952 0.216179 -0.11446282 -0.16852914 0.18832053 -0.12424315 -0.16766655 0.011295784 -0.036365267 0.19078714 0.16099332 -0.06902552 -0.18196782 0.15605614 -0.22142836 -0.27175513 0.1446918 -0.06372447 -0.011938644 0.20360622 -0.12363344 0.0569561 -0.13083239 0.18601538 0.15857597 -0.102128305 0.15726957 -0.056173462 0.047708184 -0.0029174415 0.016447328 0.31227413 0.10320088 0.11754609 0.013472731 -0.09637294 0.16645189 0.10719613 -0.12178674 -0.16734451 -0.078203045 0.06487129 -0.15207532 0.2018658 0.12334835 -0.06943823 0.13936508 0.07014108 -0.14365935 0.06025487 0.14829475 0.18882865 0.0898666 -0.054992523 0.08271488 0.26107037 0.08468013 -0.16695628 0.023857541 0.10867571 0.15617749 -0.07485079 -0.15208629 -0.12075564 0.10500595 0.0859011 -0.0012316896 -0.16253188 0.03845677 -0.0146376705 -0.17786582 0.12864064 0.328032 0.12078086 0.049452648 -0.07255792 0.07973182 -0.29846808 0.06657937 0.07077155 0.31662318 -0.19193617 0.11652146 0.14810835 -0.10145143 -0.31259716 0.11388062 -0.05420843 0.1749551 -0.25165007 -0.054107755 0.12397564 0.22463885 -0.31767732 0.118210785 -0.2792467 -0.13825718 -0.025314504 -0.09907471 -0.09431106 0.012764134 0.24235879 0.0012576298 0.0029155167 0.13839304 0.0877661 -0.011364202 0.05426963 -0.11991776 0.16554216 -0.02325683 0.19084571 0.34338722 0.22912471 -0.13866344 -0.25511923 -0.044569843 -0.12012036 0.10674772 0.13553108 0.090831235 -0.12596709 0.05351019 0.078693494 -0.07738612 0.3889507 0.15830918
56 -0.019292878 0.31403872 0.028598195 -0.011858413 -0.20934926 0.13309136 0.025248053 -0.042210072 -0.08862257 -0.12589706 -0.019230975 0.18729164 -0.07370518 0.19173075 0.16720982 -0.14410912 -0.17859846 -0.009166957 0.04982095 0.034042303 0.07317777 -0.0007233572 -0.18115339 -0.067759626 0.05769897 0.13302456 -0.062218126 0.01633188 -0.007981851 -0.12821141 -0.08328765 0.18202253 0.07905504 0.020096824 -0.12802339 -0.047688592 0.039566893 0.1427839 0.104944825 -0.073454954 -0.17592068 -0.18611683 0.04958493 -0.052239563 0.17414142 0.026777161 -0.20178302 0.11689897 0.009122011 0.035188902 -0.07893784 -0.026813095 0.20516895 0.08960635 -0.1147101 0.10280859 0.26966906 0.12526274 -0.256172 0.0032345331 -0.03724121 0.01716742 -0.028688425 -0.058553185 -0.09752645 -0.06650575 0.10163933 0.027215177 -0.076757684 0.053755183 0.034595836 -0.07181816 0.07561181 0.18895103 -0.020069432 0.0636535 -0.117510326 0.026113253 -0.17238556 -0.03547125 0.056039527 0.10097043 -0.0862698 0.12523672 0.26918074 0.02593513 -0.2037233 0.067200914 -0.008424204 0.21516518 0.047476098 0.027406702 0.071299896 0.021281777 -0.067106016 0.034082673 -0.1183828 -0.107402034 0.18050857 -0.1311448 -0.10797191 -0.08105019 0.019914381 0.07797144 0.008131217 0.23995692 0.026323354 0.03349178 0.13711901 -0.0816887 0.0004290226 0.021808652 0.18586218 0.28057224 -0.014078736 -0.19584012 -0.15748258 0.017778508 0.08504671 0.14413613 -0.010329058 0.23605727 -0.0869427 0.0035406833 -0.11831735 -0.062756285 0.38989696 0.23278415
47 0.1710291 0.41917124 0.39886913 -0.2681339 -0.060958717 0.0395982 -0.22803803 -0.23414463 0.121937774 -0.15560475 0.18122894 0.29863966 -0.22840628 -0.15981258 0.15558475 -0.21951285 -0.36374852 0.2860916 -0.12040571 0.013083148 0.1720278 -0.23029605 0.103671074 -0.19793643 0.22457874 0.2164964 -0.08127203 0.28633475 -0.19126384 0.006099237 0.091401175 -0.11073207 0.4099513 0.11377007 0.11268146 0.079767734 -0.14056435 0.037906 0.02791446 -0.18158598 -0.23895743 -0.21061394 -0.007402222 -0.20324199 0.18671952 0.19714612 -0.0669239 0.034356985 0.15063636 -0.12580769 0.21623287 0.24447405 0.005559447 0.010957458 0.007861052 -0.05686521 0.34075877 0.01798871 -0.11961079 -0.10067439 0.21470867 0.20831953 -0.18742795 -0.17545724 -0.15563215 0.06637185 0.06897493 -0.00078148156 -0.07737419 -0.08778729 -0.15633257 -0.18618874 0.09020822 0.44965774 0.09609123 0.013561506 -0.053115416 0.2086699 -0.32875335 0.07454267 0.19418855 0.48255518 -0.13269803 -0.016453521 0.24592765 -0.16061896 -0.30140635 0.06876296 -0.02046008 0.04980095 -0.31125298 -0.0069457768 -0.054051116 0.22123225 -0.45096442 0.13566911 -0.3078526 -0.1260132 -0.0746659 -0.08872648 -0.13468824 0.07582472 0.33910075 0.06291869 0.0389123 -0.011026538 0.12952432 0.012518307 -0.053402912 -0.14741902 0.15710856 0.018317765 0.1680603 0.45756438 0.28992853 -0.06572662 -0.38023028 0.04906203 -0.23330665 0.12584166 0.26569209 0.12414489 -0.23011695 -0.058362916 0.22259726 -0.122243285 0.20953098 -0.017541142
73 0.11204489 0.43859366 0.22938488 -0.111803405 -0.17330217 0.19778006 -0.1189898 -0.17126584 0.004943574 -0.027813487 0.1992134 0.1489454 -0.06625979 -0.21840256 0.1380058 -0.21760988 -0.27542463 0.14894542 -0.054134477 -0.01409372 0.20736371 -0.14138457 0.064702936 -0.12779605 0.19090997 0.16012114 -0.10276553 0.1487442 -0.038475584 0.047977984 -0.0055760113 0.018374864 0.32169077 0.103665695 0.1204777 0.017954737 -0.10021331 0.16227005 0.08759796 -0.12092684 -0.15616648 -0.070002206 0.05036406 -0.15105808 0.1902896 0.12497339 -0.054863017 0.14090621 0.0638426 -0.1601997 0.05604603 0.13657594 0.18558317 0.10973374 -0.056226622 0.08345911 0.24358507 0.08761064 -0.1537917 0.024787297 0.12135854 0.16550355 -0.06408928 -0.16002628 -0.11787507 0.1014482 0.08633194 0.0004906052 -0.18124901 0.03852282 -0.014475223 -0.16073297 0.14846824 0.3161289 0.124691136 0.04798744 -0.07610246 0.06805327 -0.29872778 0.08207366 0.057124536 0.3134395 -0.18587054 0.10933619 0.1394002 -0.11723338 -0.33129472 0.11686815 -0.06796545 0.16346177 -0.2523198 -0.062032737 0.1232921 0.24646576 -0.32182035 0.10298856 -0.28194448 -0.1508264 -0.041175805 -0.101559006 -0.075817324 0.022066792 0.2525071 -0.0066834474 -0.010402383 0.14455852 0.081777 -0.026892005 0.056487378 -0.11712959 0.18712977 -0.040554687 0.19782285 0.3302363 0.23695335 -0.14454213 -0.24444905 -0.039658297 -0.13202597 0.09472781 0.1464004 0.06604613 -0.12047997 0.06612106 0.087798834 -0.09081128 0.38181928 0.15046287
30 0.018841289 -0.0016527912 0.03814556 -0.12860943 -0.12628096 -0.079563886 0.08892675 -0.037415076 -0.044946976 -0.07503373 -0.046058405 0.21965438 -0.0055034794 0.20983228 0.0028450019 -0.010268323 -0.19660336 0.115772 -0.052077856 0.25682607 0.03363255 -0.03887504 -0.21516117 -0.1080851 0.20743425 0.029947361 -0.006146629 0.20736389 -0.03580155 -0.06882112 -0.06702974 0.076494016 0.11521763 -0.020001464 -0.09679728 -0.1006045 0.12255694 0.05673731 0.19696973 0.021928879 -0.21439527 -0.23124538 0.09224261 -0.17704305 0.07392991 -0.027547147 -0.30258864 0.062538445 0.13168257 0.0999643 0.07322811 -0.096345924 0.096111044 -0.029623643 0.036456615 -0.050051004 0.22860585 0.10898823 -0.11312195 -0.031329658 0.058117546 0.07459149 0.07108646 -0.040949494 -0.16637427 -0.15429059 -0.020582566 0.0978351 0.023603024 -0.008706045 -0.10677908 0.092643514 0.013781612 0.17934358 0.025963396 -0.041440587 -0.081345946 0.03131097 -0.19491613 -0.0029003846 0.039902285 0.106823675 -0.04974539 -0.088538006 0.29089347 0.084993705 -0.08125141 0.04547578 -0.03769895 0.14946806 0.10994317 0.118892394 0.027110701 -0.014400805 -0.056455277 -0.024148077 -0.06464547 -0.067323655 0.25700656 -0.13066828 -0.08446298 -0.04273612 -0.09856331 0.17749713 0.04723065 0.17232022 0.032634016 0.09244099 -0.04412546 -0.106066614 -0.071426414 0.10445958 0.12356232 0.20949477 -0.0058820685 -0.14539726 -0.1298415 -0.02888885 0.08753538 0.1337642 -0.022018917 0.27502516 -0.01793402 -0.091682844 -0.09581747 -0.033662114 0.13198423 0.04232344
33 0.039656643 0.09080219 0.14361966 -0.074926354 -0.10663876 -0.004315871 0.058418088 -0.093269095 0.012847172 -0.14627524 0.035203565 0.21538174 -0.13983375 0.116783686 0.026679048 -0.066952825 -0.20696336 0.17642476 -0.009533373 0.17046359 0.10473602 -0.08413969 -0.12377097 -0.17247102 0.16038734 0.12737752 -0.018280778 0.15855828 -0.036504604 -0.08736307 -0.07457993 0.04514542 0.14787088 0.065563224 -0.040206462 -0.10571346 0.047709223 0.11328257 0.08782253 0.027681526 -0.1729947 -0.19027872 0.03007567 -0.12503488 0.054161254 0.059661295 -0.16465913 0.06725345 0.059733894 0.06252409 0.17023885 0.022268208 0.04085229 -0.050827377 -0.08019914 -0.032409087 0.18265925 0.030321052 -0.062181868 -0.056297086 0.07670741 0.1354989 -0.056268502 -0.07782221 -0.13280761 -0.10412469 0.012985233 0.065912135 0.0023726365 -0.04849173 -0.116683446 0.0064831283 0.060165733 0.20789683 0.043796133 -0.0082638515 -0.057552144 0.078532346 -0.22383428 0.03685299 0.0737045 0.21031447 -0.0341577 -0.00810358 0.23430198 0.0036586942 -0.22742322 0.06547823 -0.0031993256 0.078832924 0.035958238 0.0029358498 0.03803603 0.0691475 -0.15541847 0.005828864 -0.072942466 -0.11668429 0.061728347 -0.060120646 -0.04577725 0.055288002 0.042429805 0.06676173 0.058098957 0.15164293 -0.00504466 0.051501345 0.03472978 -0.05526955 -0.025759805 0.082881846 0.1318823 0.20948647 0.059150603 -0.14041245 -0.14556259 0.057905897 -0.054808907 0.11931797 -0.0052752984 0.10515482 -0.10460569 -0.0112885265 0.018577475 -0.11219823 0.16017795 0.06324899
44 0.16600364 0.022321356 0.31805038 -0.13144724 -0.0709741 -0.16399607 0.007510198 -0.17618139 -0.09883443 0.00070027664 -0.0023492794 0.29768386 -0.20772174 0.10711216 -0.14519806 0.043774415 -0.25749543 0.22211164 0.17408063 0.2857123 0.1369142 -0.22254376 -0.14462827 -0.24705148 0.2531115 0.20917718 -0.0048545403 0.2573635 0.029053783 -0.1813428 -0.12119658 -0.035113197 0.22813855 0.039038666 -0.17419334 -0.101568356 0.084815234 0.11907173 0.04154128 0.11491615 -0.2092327 -0.24069314 -0.057473045 -0.26692063 -0.0682723 0.12237712 -0.26294026 -0.012541237 0.0782806 -0.021259448 0.282229 0.0015458418 -0.11292041 0.023650272 0.020341706 0.03316384 0.20584558 0.049940106 0.102653645 -0.11059271 0.1349493 0.18324924 -0.01172806 -0.20936508 -0.09793311 -0.1571068 -0.09220036 0.154207 -0.047364257 -0.097691044 -0.28174275 0.15517066 0.13092022 0.17195562 0.11362713 -0.06976508 -0.094439924 0.008418113 -0.37289488 0.1884972 0.048697993 0.29331863 0.02733264 -0.1745467 0.18148628 0.009868208 -0.34602115 0.07338798 0.020607417 0.012271942 0.090490095 0.037045766 -0.084852435 0.18026441 -0.075176194 -0.17254971 -0.03260834 -0.16014737 0.027376989 0.013560079 0.04988281 0.09273898 -0.002240854 0.06744696 0.03329856 0.23179151 -0.031206574 0.14418286 0.05369172 0.07640265 0.0302276 0.1323053 0.23083092 0.18998465 0.0524373 -0.10129602 -0.13055828 0.17532153 -0.09699501 0.028387697 0.049368102 0.10956254 -0.061559435 -0.11467457 -0.013538074 -0.08926374 0.05345638 -0.0768169
12 -0.0020372095 0.11316649 0.058330245 -0.10910632 -0.12558971 -0.014808569 0.056830503 -0.039068416 -0.012656358 -0.10498868 0.01087591 0.20690994 -0.03641581 0.1709749 0.067251064 -0.06144626 -0.18479806 0.118627734 -0.05807661 0.1672443 0.058294933 -0.019174222 -0.15636462 -0.11308018 0.1791622 0.06346692 -0.027966442 0.16721857 -0.041866142 -0.05237092 -0.06669422 0.07249583 0.108340435 0.020168047 -0.054508913 -0.08761982 0.0845126 0.08360961 0.15691607 0.000112905225 -0.19708712 -0.18896869 0.089480765 -0.13761017 0.09044661 -0.0069497866 -0.24518174 0.085282534 0.09700158 0.08904764 0.06534292 -0.005341461 0.12116776 -0.039685912 -0.025120825 -0.020577788 0.23326868 0.060682002 -0.11602774 -0.031213807 0.03162848 0.071057566 0.0024235486 -0.041994173 -0.15135427 -0.09880029 0.02153365 0.04214901 0.024103958 -0.020995243 -0.08646764 0.015397357 0.02641028 0.22345552 0.02513469 0.011539335 -0.056806628 0.074631035 -0.18755914 -0.006707376 0.075383335 0.12927036 -0.053120296 -0.0004523995 0.2393156 0.05042785 -0.11876006 0.061708115 -0.020918967 0.17132358 0.038681634 0.075935125 0.04316879 -0.0044682594 -0.09006819 0.028019972 -0.09017538 -0.07614717 0.1833433 -0.11266135 -0.104233034 -0.019900126 -0.016640475 0.12453114 0.06281952 0.14392616 0.05827559 0.07412708 -0.0036026076 -0.10054395 -0.06409364 0.095480144 0.10193676 0.22714423 0.02118766 -0.13651466 -0.13217682 -0.02443577 0.053098492 0.15647374 -0.028759036 0.22429848 -0.06660344 -0.03127955 -0.0630327 -0.04575907 0.18682799 0.085945055
9 0.26341313 0.0024912271 0.23511828 -0.3174944 -0.14634606 -0.23318782 -0.10843187 -0.11059188 -0.30623507 0.18122658 -0.14568344 0.26297587 0.1487391 0.051966853 -0.14497674 0.10276358 -0.32833531 0.0719782 0.12408152 0.34586856 0.046952225 -0.2651134 -0.26594436 -0.0059751095 0.3143432 -0.018186126 -0.036440093 0.24783938 0.039649803 -0.038222015 0.00028349724 0.057804737 0.3510634 -0.15967178 -0.31669265 0.004466068 0.15943027 -0.020280033 0.19069518 -0.061781254 -0.23872313 -0.3597497 -0.029410267 -0.28664845 0.19265206 0.014637106 -0.44619882 -0.0666012 0.25168362 -0.22424336 -0.05752957 -0.28487885 0.020216538 0.22721823 0.3719346 0.022381427 0.35936093 0.3846857 -0.16642532 -0.02005656 0.17129466 0.0119651705 0.3302034 -0.18645334 -0.13457097 -0.2149669 -0.12320288 0.2638159 -0.20309418 0.102068506 -0.12409832 0.29468894 0.096934184 0.046433143 0.10368333 -0.12160587 -0.2297801 -0.1464931 -0.34200153 0.09763575 -0.11144516 0.23452604 -0.16151932 -0.40532076 0.36664864 0.12852593 -0.13846321 0.00920175 -0.11291671 0.15791053 0.06311019 0.25366303 -0.13780935 0.1297052 0.05929023 -0.2742941 -0.13851555 -0.10607099 0.44270915 -0.24227269 -0.044119626 -0.19713639 -0.17912802 0.3836755 -0.12790896 0.2742826 0.08193681 0.17142005 -0.1661527 -0.08436365 0.16917197 0.04287889 0.40562162 0.29485294 0.09137987 -0.11511805 -0.29062042 -0.025479032 0.21075447 -0.07188137 0.25070134 0.46095684 0.1785778 -0.33566964 -0.14147565 0.011739964 0.08053371 -0.05503686
67 0.057827935 0.3124597 0.14270651 0.039029192 -0.1698023 0.18159889 0.036195204 -0.17213005 0.10083647 -0.17201193 0.16326669 0.15249313 -0.19849694 -0.040653735 0.17175335 -0.21957459 -0.18036678 0.12391113 -0.024854153 0.0050532925 0.15774363 -0.09032724 -0.0175973 -0.18723057 0.081516266 0.203321 -0.08028335 0.1328036 -0.061665084 -0.07942205 -0.022017065 0.039205186 0.1485934 0.13578138 0.09583568 -0.046104863 -0.06092349 0.19497718 0.07365408 -0.030569227 -0.17219795 -0.10034771 0.072592564 -0.097672194 0.15172487 0.106836714 -0.0388794 0.14710084 0.0030891648 0.012684795 0.16370997 0.1345264 0.16646147 0.024574447 -0.20405637 0.05435187 0.17444962 0.042526495 -0.1492578 -0.0028594562 0.09027147 0.1816589 -0.17141531 -0.11700597 -0.11848747 0.047497317 0.102426 0.028245468 -0.10255014 -0.01586591 -0.058582824 -0.20987344 0.07974289 0.27228025 0.03653851 0.040110033 -0.08925022 0.08712346 -0.25473917 0.019779049 0.10283692 0.24622433 -0.100891575 0.15432736 0.1724719 -0.08979322 -0.30314845 0.10121319 -0.035262637 0.09895487 -0.053820185 -0.09599547 0.15407625 0.15461016 -0.30926514 0.14218538 -0.19021976 -0.14560637 -0.08188502 -0.02466043 -0.07906383 0.07331458 0.18506938 -0.062446132 0.032824572 0.18276425 -0.059573386 -0.022494355 0.13691428 -0.11207406 0.050031573 0.025223663 0.1578221 0.30505845 0.09297968 -0.19082144 -0.21032038 0.037514973 -0.17865928 0.1829437 0.0088392515 0.03213679 -0.18304321 0.048322886 0.062943175 -0.14881505 0.40312836 0.16474156
53 -0.047422767 0.321155 0.040791575 -0.030905364 -0.22929445 0.12647022 0.06475789 -0.06271051 -0.14862949 -0.17480877 -0.09707811 0.31389427 -0.20996833 0.32744515 0.091753274 -0.12711737 -0.22734006 0.012406999 0.1496782 0.07985703 0.058798637 -0.018136248 -0.2575729 -0.088431224 0.0720904 0.20056699 -0.07758596 -0.006071303 0.014646694 -0.2577595 -0.17751707 0.21060799 0.051855408 0.025722621 -0.20538567 -0.053989947 0.043309316 0.14486848 0.057870395 -0.053339817 -0.20528783 -0.1950812 0.000107564556 -0.14026819 0.03321799 0.067371786 -0.2481182 0.13213213 0.0069138887 0.14883386 -0.08948795 -0.09751187 0.11632021 0.07290101 -0.19939288 0.14162385 0.27007884 0.054592416 -0.22050694 -0.03202166 -0.07003848 0.028584165 -0.033633746 -0.07981733 -0.14924976 -0.092147164 0.09668225 0.033671528 -0.09235298 -0.013226908 0.052022308 0.05114407 0.1154253 0.18142669 -0.06343721 0.032193065 -0.13832411 0.013097378 -0.1956577 0.04722482 0.10381321 0.07578673 0.028566927 0.14747928 0.3783707 -0.0018147682 -0.29310557 0.040176682 -0.001587069 0.14497556 0.15611014 0.052559387 0.050724078 0.04910671 -0.04154118 -0.03162115 -0.093647055 -0.18382262 0.17617102 -0.08985771 -0.06524388 -0.018967554 0.002506704 0.053957306 0.047704447 0.33465627 -0.024466626 0.046348352 0.25052604 0.007718348 -0.04108822 0.019826353 0.17981978 0.26583195 -0.069504954 -0.18686478 -0.08573031 0.120050736 0.040889848 0.11850844 -0.06134113 0.23589288 -0.13443749 0.054406866 -0.18997884 -0.0830029 0.3889267 0.16172315
6 0.24556969 -0.01710437 0.19778104 -0.2935904 -0.13763903 -0.20770212 -0.0952887 -0.102854356 -0.2541711 0.17596765 -0.11969567 0.21911414 0.17678489 0.0035401967 -0.12853569 0.08130007 -0.28319025 0.0606483 0.066644296 0.31522143 0.030608127 -0.23115583 -0.22041059 0.00926516 0.29371145 -0.04273356 -0.040862095 0.25207096 0.015244386 0.0016373871 0.029288935 0.039683368 0.31266952 -0.15022177 -0.24739753 0.011574682 0.1359992 -0.03148913 0.1922503 -0.06329715 -0.21577486 -0.3031534 0.0073347096 -0.2670028 0.19443291 -0.0066096135 -0.39779893 -0.054270457 0.2547292 -0.20950048 -0.04874789 -0.26109478 0.04086796 0.20641197 0.35505053 0.005012275 0.3178707 0.37012753 -0.16350079 -0.007612709 0.17410114 0.016283281 0.3226304 -0.15278587 -0.13207892 -0.16871355 -0.11077548 0.24226046 -0.19257201 0.100485735 -0.10245197 0.25339317 0.0781509 0.04433659 0.09158121 -0.12239616 -0.20546694 -0.13328485 -0.30522245 0.08265135 -0.10657861 0.20736527 -0.16687025 -0.3709317 0.32420558 0.1168956 -0.093016505 0.0027913465 -0.12909938 0.14143334 0.035957813 0.24324931 -0.10625188 0.11203629 0.029482508 -0.2202587 -0.15008534 -0.08265163 0.41109392 -0.22459075 -0.05224335 -0.1899944 -0.16482988 0.35145253 -0.11904203 0.22919162 0.06807276 0.14600566 -0.18617259 -0.108211234 0.16539934 0.032048415 0.35245475 0.27367967 0.0986505 -0.094389215 -0.27485102 -0.07000115 0.19138522 -0.057054896 0.23654743 0.42474717 0.17243984 -0.31122634 -0.12217002 0.021701049 0.07442785 -0.053387772
8 0.26151437 -0.0802519 0.23681249 -0.27841207 -0.13280968 -0.23611401 -0.04577772 -0.13318193 -0.23332849 0.13921162 -0.11443298 0.25541604 0.10738852 0.029703433 -0.17286022 0.098703675 -0.31337482 0.12545641 0.08967399 0.37867102 0.05865254 -0.26454055 -0.25109062 -0.061377145 0.31610584 -0.0066959527 -0.032826588 0.29111308 0.014854667 -0.046294693 -0.00206273 0.026039928 0.3150807 -0.123273924 -0.25590524 -0.032021116 0.15308419 -0.0008030587 0.18588562 -0.0020182193 -0.22943544 -0.33290887 -0.006934379 -0.29715413 0.14410436 0.0141248815 -0.40939713 -0.047717635 0.25372925 -0.16520278 0.052777167 -0.25999075 -0.00036299863 0.16516078 0.30847153 -0.019321525 0.30557638 0.33273456 -0.11132539 -0.030999133 0.19828467 0.07610659 0.29411104 -0.17593913 -0.14945039 -0.21459965 -0.12817407 0.26352596 -0.17103569 0.05949327 -0.16913392 0.28432867 0.08470166 0.054552794 0.1073639 -0.13879761 -0.21190365 -0.1177845 -0.35742894 0.11495383 -0.09214601 0.24580808 -0.12694944 -0.3910886 0.34548554 0.11220743 -0.15600374 0.014441989 -0.11412605 0.1037835 0.09334009 0.22361682 -0.09842687 0.13707627 -0.0015551968 -0.2382754 -0.1157913 -0.111388385 0.37295145 -0.19677614 -0.01943158 -0.13062032 -0.16561013 0.33056346 -0.098669074 0.2633867 0.0279261 0.15660721 -0.15860054 -0.08278397 0.14319262 0.060358804 0.3660773 0.2663852 0.08879102 -0.11693397 -0.2707081 -0.016786668 0.13655527 -0.041806664 0.20414478 0.3944136 0.14886796 -0.29731148 -0.10743577 -0.027283568 0.056921694 -0.07863777
5 0.28733027 -0.00925856 0.25781012 -0.299356 -0.122896306 -0.2091379 -0.1206745 -0.1415634 -0.24644543 0.18322688 -0.09462328 0.21932977 0.14471565 -0.057633236 -0.14319389 0.08384844 -0.30373982 0.09265263 0.08454009 0.31220925 0.060935535 -0.28361213 -0.19908638 -0.018051304 0.29844564 -0.01727469 -0.04707217 0.268696 0.012662188 0.0055960254 0.04091921 0.008085079 0.35886368 -0.13081357 -0.23625562 0.020054445 0.118457176 -0.018709427 0.16610345 -0.06292225 -0.20991284 -0.30767906 -0.023907704 -0.28193244 0.197823 0.029609136 -0.36770305 -0.0633511 0.24956007 -0.24496156 -0.00788558 -0.23543173 0.012186822 0.21871522 0.35959238 0.0020462375 0.30772 0.37376952 -0.14406572 -0.010501558 0.20857581 0.05176922 0.3091627 -0.18718201 -0.124518305 -0.16448107 -0.12193406 0.2561275 -0.21896704 0.09363739 -0.124975294 0.2484916 0.09778754 0.045439214 0.11681014 -0.13023522 -0.21959479 -0.13151005 -0.34256485 0.10994354 -0.10866365 0.2651564 -0.17295349 -0.3950086 0.31401396 0.09136009 -0.14107455 0.008662779 -0.12746798 0.11239132 0.008979279 0.22054948 -0.11556148 0.16206463 -0.008502359 -0.22825395 -0.15609512 -0.102508694 0.35769063 -0.20983163 -0.030240668 -0.17039923 -0.12861271 0.33180448 -0.13255484 0.2266855 0.057057388 0.13903043 -0.18331572 -0.09625814 0.20390289 0.018668855 0.38288718 0.27741063 0.1371134 -0.095913805 -0.3007099 -0.042114466 0.14346738 -0.07407651 0.26767927 0.38739043 0.16411059 -0.3146768 -0.07848178 -0.0032531805 0.06687695 -0.07900676
